#include <math.h> 
 #include <string.h> 
#include "./include/k2c_include.h" 
#include "./include/k2c_tensor_include.h" 

 


void torbeam_EC2_xmode(k2c_tensor* input_1_12_input, k2c_tensor* dense_3_12_output) { 

float dense_output_array[80] = {0}; 
k2c_tensor dense_output = {&dense_output_array[0],1,80,{80, 1, 1, 1, 1}}; 
float dense_kernel_array[1120] = {
+9.66255367e-02f,-1.14192158e-01f,-1.09611437e-01f,-1.82486817e-01f,-2.27611452e-01f,
-2.61531323e-02f,+1.59182847e-02f,-1.37087405e-01f,+1.58268690e-01f,-6.14701658e-02f,
-2.20885143e-01f,+1.28862143e-01f,-8.07325393e-02f,-1.23537138e-01f,-1.23265728e-01f,
-1.89385951e-01f,-2.20982060e-01f,-5.39946556e-02f,+1.58961117e-02f,+1.42789215e-01f,
-1.59798741e-01f,-8.46540481e-02f,-2.32551709e-01f,+1.22283101e-01f,-8.24877471e-02f,
-5.88234812e-02f,+1.45163774e-01f,+1.75956279e-01f,+2.05393434e-01f,+2.02599972e-01f,
-2.78462768e-02f,+1.47256225e-01f,+9.57056284e-02f,-1.60996526e-01f,+9.93514359e-02f,
+2.87185013e-02f,-1.37965560e-01f,+1.99596673e-01f,-2.01693714e-01f,+2.29504585e-01f,
-3.56557965e-02f,+2.09479213e-01f,-2.46924728e-01f,-2.32983425e-01f,-1.48496479e-02f,
-1.62321746e-01f,-8.21950585e-02f,-1.18819445e-01f,-1.81746289e-01f,-1.24239251e-01f,
-7.38217980e-02f,+1.85205787e-01f,-2.23465204e-01f,-2.45776579e-01f,+4.93585765e-02f,
+8.08041692e-02f,+2.40174830e-02f,+2.46756971e-01f,+1.56102508e-01f,-5.85478395e-02f,
+1.06369555e-02f,+1.63310349e-01f,+3.39972079e-02f,-1.83657110e-02f,+2.04752058e-01f,
+9.91796851e-02f,+1.37849450e-02f,-1.54796541e-01f,+9.97391641e-02f,-1.28136188e-01f,
-1.47367179e-01f,-1.99703366e-01f,-1.64357528e-01f,-6.97147697e-02f,+3.94612253e-02f,
+1.98727071e-01f,-5.18720746e-02f,+6.57635629e-02f,-6.36434555e-03f,-1.91973478e-01f,
+1.34293795e-01f,+9.08780396e-02f,+1.88235939e-01f,+6.40760660e-02f,-1.04739964e-01f,
-2.29937196e-01f,-1.12878785e-01f,-1.97119325e-01f,-5.23011386e-03f,+2.45392323e-01f,
-8.28066915e-02f,+1.67937577e-01f,+1.67944491e-01f,-2.22421199e-01f,-1.21834949e-01f,
+4.40163612e-02f,+6.77883029e-02f,+3.40627432e-02f,-9.28339511e-02f,-9.66807753e-02f,
+2.48842269e-01f,-1.60380974e-01f,-1.42900899e-01f,+2.14660883e-01f,+8.23909938e-02f,
-2.38198727e-01f,-7.98510015e-03f,+2.43401438e-01f,+1.46893173e-01f,+1.64983004e-01f,
-1.34573713e-01f,-1.02433309e-01f,-1.58098042e-01f,+1.40223503e-01f,+2.08797991e-01f,
-2.48264119e-01f,-9.85460132e-02f,+4.99689579e-03f,+2.49756575e-02f,+1.80509180e-01f,
+1.04160905e-02f,+1.17525458e-03f,+2.38866240e-01f,+5.88667989e-02f,-1.97573677e-01f,
+8.35728347e-02f,-3.97765636e-02f,+6.88782632e-02f,+9.35593247e-02f,-1.90284953e-01f,
+6.71547055e-02f,-1.19983986e-01f,-6.69739991e-02f,+2.49348730e-01f,-2.44782940e-01f,
+1.81345493e-01f,-2.18300372e-01f,-1.19721115e-01f,+3.02190781e-02f,-1.30302072e-01f,
-7.13677406e-02f,-5.79462200e-02f,-1.58920020e-01f,+2.37356573e-01f,-7.11461455e-02f,
-2.32680619e-01f,+2.41369516e-01f,-1.51823878e-01f,-1.80624038e-01f,-6.17171824e-03f,
-4.23375964e-02f,-2.24320292e-02f,+8.37165415e-02f,+2.01399893e-01f,-2.32889086e-01f,
+1.51933551e-01f,-1.09808713e-01f,+3.38574052e-02f,-1.75616890e-02f,-8.35522264e-02f,
-1.63211912e-01f,-6.40701056e-02f,+1.16130888e-01f,+1.91300273e-01f,-5.36587834e-02f,
-2.20833942e-01f,+8.25473666e-02f,-1.85586840e-01f,+1.27563447e-01f,+2.10428208e-01f,
+5.94270527e-02f,+4.10209596e-02f,+5.68735600e-03f,+1.10444129e-02f,-1.60677284e-02f,
-2.41187960e-02f,+5.12980819e-02f,+3.78813744e-02f,+2.02083588e-03f,-2.39325970e-01f,
+1.76700652e-02f,+1.98206455e-01f,+7.41978586e-02f,+2.08133012e-01f,+1.58210576e-01f,
+3.23709249e-02f,+1.20112509e-01f,-1.73889667e-01f,-2.00101286e-01f,+2.40557730e-01f,
-9.23849046e-02f,+2.24973857e-02f,+1.82038963e-01f,-8.42588991e-02f,-1.82661623e-01f,
+1.81782126e-01f,+1.35083199e-01f,+7.12144971e-02f,+1.23611599e-01f,-2.68310159e-02f,
+9.15763676e-02f,-2.38099515e-01f,-8.01820457e-02f,+2.28797317e-01f,+4.86249626e-02f,
+3.69960964e-02f,+2.10330158e-01f,+8.69823396e-02f,-1.33198962e-01f,-1.90829247e-01f,
+5.30119836e-02f,+8.33490491e-03f,-1.65849984e-01f,-8.11688304e-02f,+2.48314708e-01f,
+1.76794708e-01f,+1.71705186e-02f,+4.18009460e-02f,+2.04210103e-01f,+1.66014075e-01f,
+1.07259303e-01f,-1.61730602e-01f,+1.94421202e-01f,-2.25807041e-01f,-1.54986590e-01f,
+1.55852646e-01f,-1.99418575e-01f,+6.05628490e-02f,+2.36379862e-01f,-8.84994119e-02f,
-1.84702218e-01f,-1.77050814e-01f,+2.24733949e-01f,-2.16998279e-01f,-2.27951854e-02f,
-2.13921577e-01f,-1.16602421e-01f,+2.52432674e-01f,+1.30877435e-01f,+2.47819394e-01f,
-9.98197496e-03f,-1.57184273e-01f,-1.40607134e-01f,-2.30534077e-02f,-1.84628010e-01f,
+1.17608607e-01f,+2.16527462e-01f,-9.56109315e-02f,-5.79462200e-02f,-7.28515238e-02f,
+9.46092606e-03f,+1.05712116e-01f,-9.98462588e-02f,+2.16888100e-01f,-1.49963498e-01f,
+7.47327507e-02f,+1.10877961e-01f,-1.35725051e-01f,+1.94521248e-02f,+1.70767188e-01f,
+2.01205105e-01f,+2.84448266e-03f,+3.79334390e-02f,-5.34584969e-02f,+4.45413589e-02f,
+2.42413342e-01f,+2.64137983e-03f,-8.75967890e-02f,+2.24107385e-01f,-2.13102490e-01f,
-1.34399816e-01f,-1.66012675e-01f,+1.74757481e-01f,-1.46555692e-01f,-5.57491183e-03f,
+2.19133139e-01f,-1.87290475e-01f,+2.15795368e-01f,-2.42152363e-02f,+1.66025639e-01f,
+1.68492138e-01f,+1.44736946e-01f,+8.24069679e-02f,-2.49148682e-01f,+1.68990523e-01f,
-2.34902337e-01f,-2.12862328e-01f,+5.60887456e-02f,+1.86681807e-01f,+2.35826343e-01f,
+5.21121025e-02f,+2.49848098e-01f,-1.97153956e-01f,-1.27867520e-01f,-2.00414687e-01f,
+1.30362779e-01f,-2.51272589e-01f,-1.31975591e-01f,-7.51452893e-02f,-2.45762914e-02f,
+9.58858430e-02f,-1.90615654e-03f,+7.58875012e-02f,+1.56737506e-01f,-4.91529703e-04f,
+2.38349378e-01f,-5.91126084e-02f,+5.89811802e-02f,-2.23203063e-01f,-1.13010585e-01f,
-1.93913966e-01f,-1.24021620e-02f,+8.89590681e-02f,+4.45979238e-02f,+2.35001117e-01f,
+5.07912040e-03f,+1.76904559e-01f,-1.66609615e-01f,+2.29437947e-02f,+7.71237314e-02f,
-2.29272559e-01f,-3.10276151e-02f,-4.75357920e-02f,-2.32932761e-01f,-1.38763815e-01f,
+1.41438395e-01f,+1.29492283e-02f,-2.10549235e-01f,+1.25577211e-01f,-1.50136441e-01f,
+1.06428713e-01f,-9.63809192e-02f,-1.82114571e-01f,-2.10873052e-01f,+1.38181448e-01f,
-1.61992028e-01f,+2.35435367e-02f,-1.65066019e-01f,+2.12886900e-01f,+1.29324198e-01f,
-1.73444763e-01f,+3.41616571e-02f,+2.36829400e-01f,+2.30762541e-01f,-2.07941085e-02f,
+8.96389484e-02f,-8.81247520e-02f,+1.41389966e-02f,+2.41573602e-01f,+8.41874778e-02f,
+3.38131189e-03f,-1.17567509e-01f,+1.97497010e-01f,+1.32901341e-01f,+9.49375033e-02f,
+1.42117947e-01f,+1.03308171e-01f,+8.19772482e-02f,-1.18197575e-01f,+1.34865075e-01f,
-5.32263517e-02f,+1.45257920e-01f,+1.30616605e-01f,-2.01850325e-01f,-9.23848450e-02f,
+7.21309781e-02f,+1.64892107e-01f,+1.49255544e-01f,-1.96128219e-01f,-2.07698286e-01f,
+1.85268015e-01f,+2.26117849e-01f,-1.55917645e-01f,-2.23163128e-01f,-1.81067795e-01f,
-1.62151888e-01f,-1.94592327e-02f,+1.17548704e-02f,-1.13856837e-01f,+1.41420722e-01f,
-7.71679878e-02f,-2.27698669e-01f,-1.73995972e-01f,+8.04457664e-02f,-2.20866293e-01f,
-1.42054051e-01f,+2.30855316e-01f,-6.98575824e-02f,-2.15648994e-01f,-1.50253236e-01f,
+1.56911641e-01f,+3.94019485e-02f,+9.45330858e-02f,-1.63812578e-01f,+6.35385215e-02f,
+2.41551191e-01f,-1.74869567e-01f,+8.06041360e-02f,-1.84093595e-01f,+1.03932619e-02f,
-2.13565692e-01f,-1.21677622e-01f,+1.38284087e-01f,+1.27515763e-01f,-2.37573355e-01f,
-1.87606812e-02f,+1.92969292e-01f,-1.75503850e-01f,+1.93305403e-01f,-1.05342135e-01f,
+8.26396644e-02f,-2.22858876e-01f,+2.27715224e-01f,+2.09260970e-01f,+1.53549433e-01f,
-2.15126395e-01f,+7.53699541e-02f,+8.82797837e-02f,-1.29822522e-01f,+1.49845243e-01f,
+1.15137845e-01f,-5.68398684e-02f,+1.01911128e-02f,+1.69738352e-01f,-1.42214507e-01f,
+2.17909813e-01f,-4.38880920e-03f,+1.72864109e-01f,-2.52483487e-01f,+1.28280312e-01f,
+2.40543216e-01f,-1.98537439e-01f,-2.18910754e-01f,-1.07156977e-01f,+7.12803900e-02f,
+5.65350056e-02f,+2.73715556e-02f,+1.51459932e-01f,-1.44205898e-01f,-2.38736749e-01f,
-2.46249661e-01f,-1.30160630e-01f,+5.23717403e-02f,-1.80186301e-01f,-2.39547193e-02f,
+9.34248567e-02f,+3.17268372e-02f,+1.19738042e-01f,+2.03763664e-01f,+1.16426051e-01f,
+2.39137739e-01f,-2.04465270e-01f,-1.78083912e-01f,+1.09073788e-01f,-5.79030216e-02f,
+1.45650297e-01f,+7.70381987e-02f,+1.34562463e-01f,+2.07555771e-01f,-8.95517915e-02f,
+6.38963282e-02f,+1.51178509e-01f,-1.07233524e-02f,-2.50326246e-02f,-3.78913730e-02f,
+1.99268579e-01f,+1.20725304e-01f,-1.89618334e-01f,-3.87338996e-02f,+4.08146083e-02f,
+1.16683871e-01f,+4.21379209e-02f,-1.67196363e-01f,+1.18967891e-02f,-1.33410513e-01f,
-6.99161887e-02f,-1.65415019e-01f,-2.04884708e-02f,+2.48482376e-01f,-9.11034495e-02f,
-1.04413733e-01f,+2.40598798e-01f,+2.42011994e-01f,-5.96944988e-03f,+2.18996704e-01f,
+2.23496169e-01f,-1.23772025e-03f,+1.21706098e-01f,-1.62426203e-01f,-1.10877350e-01f,
-1.78665727e-01f,+1.18474543e-01f,+8.99791718e-02f,+6.99070990e-02f,-1.19752198e-01f,
-1.03963524e-01f,-1.05607539e-01f,-9.64082032e-02f,-1.47778764e-01f,+2.47772962e-01f,
-1.63218722e-01f,+2.41439253e-01f,-1.02576017e-02f,-2.18725517e-01f,-8.31649750e-02f,
-1.73894241e-01f,+9.20234323e-02f,+1.27655566e-02f,+1.44661337e-01f,+1.57446474e-01f,
+2.27017164e-01f,+6.96537495e-02f,+1.35981590e-01f,-1.20471522e-01f,+6.03861809e-02f,
+2.03265935e-01f,-1.72060370e-01f,+4.72583473e-02f,-1.62808269e-01f,-5.21444082e-02f,
+1.04711533e-01f,+2.30592787e-01f,-1.84627473e-02f,+1.72142357e-01f,+2.34025180e-01f,
+1.78965151e-01f,+2.41336942e-01f,-2.40924016e-01f,-1.49790138e-01f,-9.39449370e-02f,
+2.49379426e-01f,-8.75951052e-02f,-1.18613139e-01f,-2.21798494e-01f,-8.44074488e-02f,
+1.13938868e-01f,-6.05076700e-02f,+2.04841435e-01f,+2.17313737e-01f,-8.68799239e-02f,
-5.21591604e-02f,-3.71948779e-02f,-1.06803805e-01f,+2.01161057e-01f,+5.33823669e-02f,
+1.17513955e-01f,-2.23731205e-01f,+2.44633257e-01f,+7.99525082e-02f,-4.07756865e-02f,
+2.04823554e-01f,+2.26243854e-01f,-2.06290036e-01f,-4.83145118e-02f,-8.84195417e-02f,
-1.32518664e-01f,-9.38577205e-02f,+1.38438493e-01f,+2.04990804e-02f,-1.70060188e-01f,
-1.48498818e-01f,-1.90015644e-01f,+1.88292563e-01f,-2.24090636e-01f,+8.53416920e-02f,
+2.12842643e-01f,+2.17452019e-01f,+2.46907383e-01f,-8.33752453e-02f,-2.15141207e-01f,
+7.11772144e-02f,+1.63816005e-01f,-8.13065916e-02f,+2.07336277e-01f,+1.52746797e-01f,
+1.40466601e-01f,-2.47438550e-02f,-1.54444709e-01f,-2.19016522e-01f,-7.23805428e-02f,
+1.98990345e-01f,-7.88960308e-02f,-2.20087081e-01f,+1.16576940e-01f,+4.77889180e-03f,
-3.49596590e-02f,-1.92775756e-01f,+9.44216549e-02f,+2.40556747e-01f,+2.33451515e-01f,
-2.43536487e-01f,-1.51976496e-01f,-2.36405030e-01f,+2.04603404e-01f,-6.60863668e-02f,
-8.23622942e-03f,-9.52364504e-03f,+8.08413923e-02f,-6.84906691e-02f,-8.01680237e-02f,
-4.26002294e-02f,-7.80812204e-02f,-5.37290722e-02f,+8.33969414e-02f,+1.59612656e-01f,
+1.74336433e-02f,+6.96083307e-02f,-3.60401720e-02f,+7.27415085e-04f,-2.28562057e-02f,
+1.30253017e-01f,+1.09995276e-01f,+1.40157849e-01f,-1.93198115e-01f,+8.27871263e-02f,
-8.16895664e-02f,+2.04816699e-01f,-6.93124533e-02f,-1.01700783e-01f,+1.84335500e-01f,
+1.13468915e-01f,-1.55938551e-01f,+4.91018593e-02f,-2.59820521e-02f,+2.23632067e-01f,
+2.18000174e-01f,-1.29834637e-01f,-2.10169509e-01f,+1.30391121e-03f,-1.14291072e-01f,
-1.30495965e-01f,-1.20613575e-02f,+2.46986717e-01f,+1.97591335e-01f,+2.38092422e-01f,
-4.04264033e-03f,+2.16311216e-03f,+1.77474499e-01f,-2.38260046e-01f,+8.12184811e-03f,
+7.65661299e-02f,-1.54449701e-01f,-2.05498546e-01f,+2.50403017e-01f,-1.75305545e-01f,
-1.25152722e-01f,-1.43113464e-01f,+3.90467644e-02f,-2.26541370e-01f,-1.86677277e-01f,
-6.67513013e-02f,+1.09015465e-01f,+1.34579450e-01f,-2.43978247e-01f,+7.51844943e-02f,
-1.71932429e-01f,+1.03186429e-01f,+1.01389438e-01f,-1.49330184e-01f,+7.98856914e-02f,
+1.19676709e-01f,+2.16980577e-02f,+8.50715935e-02f,-2.45113090e-01f,+5.42590320e-02f,
-2.13672668e-01f,+2.01964855e-01f,-6.80350959e-02f,-2.10455626e-01f,-9.48675573e-02f,
+9.63014662e-02f,+6.04305565e-02f,+1.94850564e-01f,+2.08789021e-01f,+2.25958169e-01f,
+9.88599062e-02f,-2.97620147e-02f,-1.82769686e-01f,-1.66352347e-01f,+3.18476558e-02f,
-1.01057231e-01f,-1.26617938e-01f,+1.51124537e-01f,-1.41022459e-01f,-2.36810237e-01f,
+2.42114395e-01f,-1.26800343e-01f,-3.13630104e-02f,-2.23162398e-01f,-3.18963379e-02f,
-2.43512571e-01f,-4.62248325e-02f,+5.69732785e-02f,+1.14253193e-01f,-4.93651330e-02f,
-2.51754165e-01f,+1.06713504e-01f,-1.68363363e-01f,-8.20420682e-02f,-5.97680360e-02f,
+5.81983030e-02f,-3.78460884e-02f,-2.49995530e-01f,+1.71864957e-01f,+7.53749609e-02f,
-7.54568279e-02f,-1.77280247e-01f,+2.32669890e-01f,+1.25614911e-01f,+8.25737715e-02f,
-1.67951047e-01f,-2.31681854e-01f,-2.35349387e-02f,-5.19589931e-02f,+1.29084885e-01f,
-2.33416632e-01f,-1.30885810e-01f,+7.88573027e-02f,+9.10883248e-02f,+4.74140644e-02f,
+2.87275910e-02f,+9.32501853e-02f,+2.37110823e-01f,-1.19409025e-01f,-8.52734447e-02f,
-1.46626830e-01f,+1.73598856e-01f,+7.88668692e-02f,-1.25823140e-01f,+7.17985630e-02f,
-2.37645462e-01f,+1.41926527e-01f,-5.21474779e-02f,+1.70060933e-01f,+7.09485710e-02f,
-1.18715614e-02f,+1.75597996e-01f,+1.04609013e-01f,+2.22647190e-03f,+7.81243443e-02f,
-2.17819765e-01f,-1.26081541e-01f,+1.10740662e-01f,-4.33996022e-02f,-1.80315033e-01f,
-2.20022321e-01f,-1.29500389e-01f,-1.97349310e-01f,-2.40186796e-01f,+2.47238666e-01f,
+9.40876901e-02f,-1.01729825e-01f,+2.44076967e-01f,-1.89793259e-01f,-1.13727212e-01f,
-1.36360481e-01f,+1.04019731e-01f,+3.16812396e-02f,-2.08088070e-01f,-1.43331289e-03f,
-5.98513931e-02f,+1.09182090e-01f,-1.03299469e-02f,+4.63355482e-02f,+7.03910291e-02f,
-7.69369304e-03f,-7.86565244e-03f,-9.40867364e-02f,+3.66199315e-02f,+1.95001870e-01f,
-2.46791065e-01f,+2.32856512e-01f,-7.12910295e-03f,+8.82467628e-03f,-2.09422767e-01f,
+1.95871115e-01f,-1.41269058e-01f,+2.08025306e-01f,-1.75053120e-01f,+8.03897977e-02f,
-9.58060324e-02f,+5.34412563e-02f,+1.23328000e-01f,-1.30985200e-01f,-2.40963250e-02f,
-1.29720300e-01f,+1.91740364e-01f,-1.49629071e-01f,+8.89846683e-03f,+2.08568394e-01f,
+8.81230831e-03f,+8.85564089e-03f,-1.34672984e-01f,+1.77475899e-01f,-1.32174730e-01f,
+4.32329476e-02f,+7.95338452e-02f,-1.10203683e-01f,+9.68196690e-02f,+2.06181616e-01f,
+1.19795978e-01f,+2.48279601e-01f,+2.19415754e-01f,+2.13993132e-01f,-2.91826129e-02f,
+2.08312869e-01f,+6.31504953e-02f,+5.21289110e-02f,-1.08501852e-01f,-1.09219134e-01f,
-1.27414495e-01f,+4.76750433e-02f,+1.22705847e-01f,-2.38162518e-01f,-4.43678945e-02f,
-1.54411167e-01f,-1.31522000e-01f,+1.79052979e-01f,+2.47278303e-01f,+2.47605711e-01f,
-6.71471655e-02f,-2.12565303e-01f,-8.40491056e-02f,+1.24492705e-01f,+2.08928168e-01f,
-3.06293964e-02f,-1.98606357e-01f,-1.70243680e-01f,-1.74298361e-01f,+4.96752858e-02f,
+1.34333372e-02f,+1.07631266e-01f,+1.96832597e-01f,-1.02663338e-02f,-8.25969428e-02f,
-2.04431847e-01f,+2.13851273e-01f,-6.25390410e-02f,+1.76760226e-01f,+1.97686553e-01f,
+4.56133187e-02f,-2.38455802e-01f,-1.81846768e-01f,-1.82601154e-01f,+2.13599980e-01f,
+1.49948984e-01f,-1.56738907e-01f,-2.49470636e-01f,+2.37821281e-01f,-7.36322403e-02f,
+1.25081569e-01f,+6.75529242e-02f,+1.44578636e-01f,+3.63047719e-02f,+1.67301059e-01f,
-8.53412747e-02f,-6.63839281e-02f,-1.56329185e-01f,-2.46410966e-02f,+2.07193702e-01f,
-1.65044338e-01f,+1.88914299e-01f,+1.31458819e-01f,-1.10761940e-01f,+2.21228004e-01f,
+2.19235420e-01f,+2.13963360e-01f,+1.77153230e-01f,+1.20391101e-01f,+1.00930423e-01f,
-1.85759112e-01f,-1.24439746e-02f,-1.97836846e-01f,-3.92265618e-02f,-1.55288130e-01f,
+1.59021705e-01f,+9.36867595e-02f,+6.92819059e-02f,-9.22158211e-02f,+2.27555901e-01f,
-1.99548379e-01f,-2.16345981e-01f,-4.28539962e-02f,+2.15099543e-01f,+6.45608306e-02f,
+1.10985279e-01f,+9.45834816e-02f,+8.23973417e-02f,-1.73270926e-01f,+2.34592378e-01f,
+1.12641960e-01f,-2.18155980e-03f,-1.84390321e-01f,-3.69216502e-02f,+1.90499425e-03f,
-2.10943818e-02f,+5.29471636e-02f,+1.47179663e-01f,-1.00342602e-01f,-8.36145133e-02f,
-2.43538529e-01f,+9.03496146e-03f,-6.66405857e-02f,+2.28524506e-01f,+1.75040036e-01f,
-1.61675975e-01f,+1.35401577e-01f,+1.71288460e-01f,+1.20053500e-01f,+1.18224263e-01f,
+1.26191914e-01f,+1.04403734e-01f,-2.07764000e-01f,-1.97364241e-02f,+1.54460371e-01f,
-7.87347704e-02f,+1.26115948e-01f,+1.86805934e-01f,+1.02916092e-01f,-7.85720199e-02f,
-8.45721960e-02f,+1.95600003e-01f,+9.46270525e-02f,-1.43925563e-01f,-1.47169113e-01f,
-5.43825626e-02f,+3.62218916e-02f,+1.60108954e-01f,-2.66379118e-03f,+1.39451712e-01f,
+1.69428378e-01f,-1.94083154e-01f,+1.40709788e-01f,+5.59669435e-02f,+3.36444974e-02f,
-7.78391361e-02f,+4.45446670e-02f,+1.75133348e-01f,-2.35339224e-01f,+1.30029976e-01f,
+1.96043164e-01f,-1.11061484e-02f,-9.69097018e-03f,+9.67558324e-02f,-2.92972922e-02f,
+4.75649536e-02f,-1.17441207e-01f,+8.95985365e-02f,-2.32279569e-01f,+1.37413144e-01f,
+9.74923074e-02f,-2.37624496e-02f,+1.61964029e-01f,-1.22350812e-01f,-6.78811967e-02f,
+6.81216717e-02f,+1.20478928e-01f,+6.82989359e-02f,-1.62139297e-01f,-1.51059359e-01f,
-1.97851792e-01f,+1.96041048e-01f,+8.69575739e-02f,+1.88595831e-01f,+1.26292795e-01f,
+1.43366992e-01f,-1.81719005e-01f,-2.47618705e-02f,-1.59210891e-01f,-1.52114332e-01f,
-7.65255094e-03f,-1.30857199e-01f,+2.86702514e-02f,-1.13869011e-02f,+3.16352248e-02f,
-1.90325826e-02f,-2.03603536e-01f,-1.15522221e-01f,+1.40801221e-01f,-1.20991483e-01f,
-7.57299364e-02f,-6.41515404e-02f,-6.73686564e-02f,-1.15913033e-01f,-1.97137758e-01f,
-1.36022747e-01f,+1.82350039e-01f,-1.44366369e-01f,-2.38078788e-01f,+2.69684792e-02f,
+2.50493586e-02f,-8.56531113e-02f,-2.19267577e-01f,+2.00986087e-01f,+1.21195793e-01f,
-9.49568301e-02f,+9.76208746e-02f,-5.52179068e-02f,+3.52354944e-02f,-2.46216893e-01f,
+1.98107123e-01f,-2.07351744e-01f,-1.95585728e-01f,-2.76751518e-02f,+2.30871677e-01f,
-1.87814400e-01f,-1.80461228e-01f,+1.72144175e-01f,+2.42483735e-01f,+1.93636626e-01f,
-1.56262189e-01f,+6.64854050e-03f,+1.31426781e-01f,+1.54691726e-01f,+1.99142635e-01f,
+2.07301408e-01f,-2.44808719e-01f,+6.22499883e-02f,-4.37606573e-02f,+1.39714092e-01f,
-3.66351753e-02f,-1.31857216e-01f,-1.73918754e-01f,+1.46373093e-01f,-1.83352470e-01f,
-1.76300764e-01f,+1.46029413e-01f,+8.21983218e-02f,+6.18329644e-03f,-1.38936564e-01f,
+1.15043402e-01f,-5.07956147e-02f,-1.70848429e-01f,+1.84287727e-01f,+5.53908348e-02f,
+1.15640640e-01f,-3.82635742e-02f,+2.81268358e-03f,-2.94105411e-02f,+1.05805844e-01f,
-2.19161928e-01f,-1.47182375e-01f,+2.48030871e-01f,-2.34141812e-01f,+8.49357843e-02f,
+2.32238978e-01f,+8.58148336e-02f,+1.23969525e-01f,+2.20354706e-01f,-2.25565732e-01f,
+1.11485839e-01f,-6.09611720e-02f,-5.90981543e-03f,-1.45697623e-01f,+1.32820934e-01f,
+6.55428767e-02f,-4.81491685e-02f,-1.32337660e-01f,-1.90752208e-01f,-2.07424521e-01f,
-1.04791462e-01f,-4.75554913e-02f,-1.05263352e-01f,-1.18005544e-01f,-2.52286166e-01f,
-1.50093615e-01f,+3.61023247e-02f,-3.04441154e-03f,+1.52249128e-01f,+5.94992638e-02f,
-1.12340406e-01f,+2.23605722e-01f,+1.83292300e-01f,+1.22518152e-01f,+4.15834785e-03f,
-1.31191313e-01f,+1.30889535e-01f,-2.14121848e-01f,+2.25703478e-01f,-7.85457045e-02f,
+1.11848891e-01f,-1.96785986e-01f,+2.24279463e-01f,+1.24254853e-01f,+1.53815746e-03f,
-8.33506733e-02f,+2.17805296e-01f,-1.69511452e-01f,+1.34665400e-01f,-1.10502988e-01f,
-2.00921744e-02f,+5.18791974e-02f,+4.24624681e-02f,+2.24093586e-01f,-5.95663637e-02f,
-1.34708524e-01f,+2.00529844e-01f,+3.89629602e-02f,-6.30816966e-02f,-2.27878958e-01f,
-2.21505746e-01f,-8.02921653e-02f,-6.39760494e-03f,+2.45285183e-01f,-7.94833750e-02f,
+1.23917967e-01f,+2.21890777e-01f,-1.06732607e-01f,+1.45144850e-01f,+1.61886841e-01f,
-1.18572369e-01f,-7.07877427e-02f,-2.07290679e-01f,-8.44199210e-02f,+1.99732810e-01f,
+2.02601880e-01f,-2.40251303e-01f,-2.49656707e-01f,+2.90039182e-03f,+1.30339056e-01f,
}; 
k2c_tensor dense_kernel = {&dense_kernel_array[0],2,1120,{14,80, 1, 1, 1}}; 
float dense_bias_array[80] = {0}; 
k2c_tensor dense_bias = {&dense_bias_array[0],1,80,{80, 1, 1, 1, 1}}; 
float dense_fwork[1134] = {0}; 

 
float dense_1_output_array[80] = {0}; 
k2c_tensor dense_1_output = {&dense_1_output_array[0],1,80,{80, 1, 1, 1, 1}}; 
float dense_1_kernel_array[6400] = {
-2.84763277e-02f,-1.17647290e-01f,-7.58263022e-02f,+7.69566298e-02f,-1.16940707e-01f,
-1.04886621e-01f,-4.79849875e-02f,-8.58982801e-02f,+1.92317367e-01f,-1.11688457e-01f,
+3.21230739e-02f,+1.62243128e-01f,+1.09016627e-01f,+1.11859381e-01f,-1.08366460e-02f,
+6.31614923e-02f,-6.70443922e-02f,+1.71399564e-01f,-1.68043718e-01f,-1.03452362e-01f,
-1.64088607e-01f,-6.53198361e-03f,+9.48847830e-02f,+5.09953946e-02f,-5.76409847e-02f,
-1.64779216e-01f,-1.08460285e-01f,-9.77093354e-02f,-1.27467930e-01f,+1.37004852e-01f,
+1.66614592e-01f,-7.68173784e-02f,+1.38435453e-01f,+2.28071660e-02f,-1.21469207e-01f,
+1.32992566e-01f,-9.13818404e-02f,-4.56903875e-03f,-5.75722456e-02f,-1.96610838e-02f,
-3.27894390e-02f,-9.71000791e-02f,+9.04055834e-02f,+1.80369556e-01f,+1.07972175e-01f,
+5.86234033e-03f,+1.18634254e-01f,+1.37649745e-01f,+6.07374310e-02f,+1.76304519e-01f,
-2.46747285e-02f,-1.13853261e-01f,-1.56866670e-01f,-1.75132960e-01f,+1.55796826e-01f,
-3.00181955e-02f,+1.07023954e-01f,+4.27554548e-02f,-1.24933951e-01f,-1.10127702e-01f,
+6.74402416e-02f,+1.35103226e-01f,-3.07453722e-02f,+1.60808027e-01f,-9.59479660e-02f,
-1.65392339e-01f,+1.03755593e-01f,+1.91920400e-01f,-6.36958480e-02f,-1.16614997e-03f,
-8.34819973e-02f,-6.14717752e-02f,+1.62316710e-01f,-5.79383671e-02f,-1.45162776e-01f,
-1.05129108e-01f,-1.81190774e-01f,+1.58200771e-01f,+6.23601675e-02f,+5.77582121e-02f,
+1.65608317e-01f,-1.56416610e-01f,-1.14387438e-01f,+1.49924278e-01f,+1.63874656e-01f,
-1.90056860e-03f,-1.46796167e-01f,+3.77244055e-02f,-2.75918543e-02f,+1.75973356e-01f,
-1.61344707e-01f,-5.30944020e-02f,-1.71920061e-01f,-1.28801212e-01f,+6.42029941e-03f,
-6.65676892e-02f,-1.24816269e-01f,-1.74065799e-01f,+5.63508868e-02f,-1.10826708e-01f,
-1.64585248e-01f,-1.63255751e-01f,-6.76878095e-02f,+1.88872665e-01f,+4.19196486e-02f,
+1.15458608e-01f,+8.37444663e-02f,+9.53481793e-02f,+1.39970094e-01f,-3.72272581e-02f,
+4.84710634e-02f,+1.84642673e-02f,-1.25987977e-02f,-6.18432462e-02f,-1.39520213e-01f,
+1.48496509e-01f,-2.86462754e-02f,-1.02927230e-01f,+1.24008566e-01f,-1.85190633e-01f,
+1.16395205e-01f,-9.02516544e-02f,+9.65642333e-02f,+1.21263891e-01f,-1.53221309e-01f,
-1.33427680e-01f,-2.37752497e-02f,+3.28104496e-02f,-3.59381586e-02f,+1.30157620e-01f,
+1.04013175e-01f,-9.66586992e-02f,+1.23128742e-02f,-1.28341228e-01f,+4.83222157e-02f,
+1.59895718e-01f,+8.86525810e-02f,+4.66281176e-02f,-7.38341734e-02f,+5.80587387e-02f,
+1.11522526e-02f,-3.79348099e-02f,+5.83046377e-02f,-6.48839325e-02f,+1.74091607e-01f,
-7.23803863e-02f,+5.09767830e-02f,+5.75985610e-02f,-1.58197045e-01f,+2.17102617e-02f,
+2.32356638e-02f,-6.46876693e-02f,-1.11720920e-01f,+3.81434411e-02f,+3.48458737e-02f,
+3.65076959e-03f,+3.00102532e-02f,+2.09315717e-02f,+1.65665239e-01f,-1.81254745e-02f,
+7.58482814e-02f,+1.42809987e-01f,+1.21007979e-01f,+4.17856872e-03f,-1.61319226e-02f,
-1.49023429e-01f,+8.21513832e-02f,+4.67097759e-03f,-3.89615297e-02f,+1.22503489e-01f,
+1.01821393e-01f,-1.41788155e-01f,+3.07921022e-02f,-1.32310927e-01f,+1.65161908e-01f,
-2.81888694e-02f,+7.69378245e-02f,-1.92242980e-01f,+1.86992735e-02f,-3.34257483e-02f,
+2.04886496e-03f,+1.81319237e-01f,-1.48915991e-01f,-1.35884777e-01f,+8.16640854e-02f,
-8.45469907e-02f,-1.85562626e-01f,+8.95831287e-02f,-6.35343045e-02f,+1.31390631e-01f,
+5.81064820e-02f,+1.86076313e-02f,+6.49929047e-04f,-5.37791401e-02f,+1.85314953e-01f,
-1.52583152e-01f,+1.56320065e-01f,+3.43552232e-03f,+1.89281255e-01f,-1.21479273e-01f,
-5.00103831e-03f,+1.63853079e-01f,-8.30269083e-02f,-1.21074088e-01f,+7.53052235e-02f,
+3.64129096e-02f,+4.48073298e-02f,-3.58408242e-02f,-1.88253343e-01f,-1.52608588e-01f,
+9.48290527e-03f,+1.09048545e-01f,+1.14770681e-01f,-3.17460448e-02f,+5.50827831e-02f,
+1.83648258e-01f,+4.46856320e-02f,-1.54952660e-01f,+1.15539551e-01f,+1.23527437e-01f,
-9.44007784e-02f,+1.47186249e-01f,-1.89550787e-01f,-1.41795039e-01f,-8.49483907e-02f,
-1.14390165e-01f,+1.87031150e-01f,-8.65092427e-02f,+3.10862809e-02f,+4.17007506e-03f,
+1.60743147e-01f,-1.56929508e-01f,-4.35628295e-02f,-2.35228390e-02f,+1.18951499e-01f,
-1.77532166e-01f,+2.97422856e-02f,+1.66709930e-01f,-1.08606517e-02f,-8.09409618e-02f,
+1.70181692e-01f,-1.74209297e-01f,-8.57242271e-02f,-5.21525741e-04f,+1.64617598e-02f,
-8.51583257e-02f,-1.22169457e-01f,-1.58476144e-01f,-2.44494081e-02f,+8.41436088e-02f,
+4.31917161e-02f,-5.56857586e-02f,+5.80714643e-02f,-3.54274809e-02f,-1.06770851e-01f,
-1.77878797e-01f,-1.18374780e-01f,-1.60302013e-01f,-1.89131021e-01f,-1.90448910e-02f,
+4.41777557e-02f,+1.87972337e-01f,-1.13297284e-01f,+1.02097929e-01f,-1.46994591e-02f,
-1.81266636e-01f,+4.00461853e-02f,-9.47168544e-02f,+1.92724675e-01f,+1.09191477e-01f,
+1.31263882e-01f,-7.18505457e-02f,+6.34088218e-02f,-6.34059906e-02f,+1.88525170e-01f,
+2.45053768e-02f,+5.74477613e-02f,-1.27306104e-01f,-4.68656123e-02f,+1.79119647e-01f,
-7.65351430e-02f,+1.83251143e-01f,+1.13831848e-01f,+1.25570118e-01f,+1.90593898e-02f,
-2.35839635e-02f,+1.15702540e-01f,+1.46820962e-01f,-3.26220244e-02f,+1.13359392e-01f,
+1.08346283e-01f,-1.83285490e-01f,-9.44260806e-02f,-1.20007522e-01f,+1.29472941e-01f,
-5.19129187e-02f,-2.55486667e-02f,-1.87749863e-02f,-9.06468257e-02f,-9.69031230e-02f,
-3.02646607e-02f,+3.71298343e-02f,-5.63476384e-02f,+1.24237686e-02f,-1.35568932e-01f,
+6.69026077e-02f,+6.73229992e-03f,+9.52506065e-02f,-5.20820320e-02f,-1.42282665e-01f,
+2.64488310e-02f,-1.87535718e-01f,-8.57044160e-02f,-6.47386760e-02f,+1.77475095e-01f,
+1.43984348e-01f,+2.79605389e-04f,+1.98094696e-02f,+9.06451046e-03f,-1.36366129e-01f,
-1.45285264e-01f,+1.71721905e-01f,-1.29049599e-01f,-1.60852715e-01f,+1.33006603e-01f,
-8.22164118e-03f,-2.52066851e-02f,-7.43169263e-02f,+1.68831915e-01f,+1.50754154e-01f,
-7.18195662e-02f,-1.24707587e-01f,-3.70839983e-02f,+1.51043594e-01f,+1.70170486e-01f,
-1.73660666e-01f,+1.45491004e-01f,+1.18245840e-01f,+1.47963196e-01f,+1.75201654e-01f,
-5.18266857e-03f,+3.16287875e-02f,-5.60531765e-02f,+1.90753043e-01f,+1.01354569e-01f,
-1.79113060e-01f,+1.47731185e-01f,-1.27156377e-01f,+4.73694503e-03f,-4.94848192e-02f,
+1.48383647e-01f,+1.05813056e-01f,+4.62043732e-02f,+5.67014813e-02f,+1.15508199e-01f,
-1.80609688e-01f,+6.99203014e-02f,-1.63379848e-01f,-1.39486879e-01f,-8.73976424e-02f,
+5.57282716e-02f,-1.26151115e-01f,+1.08743638e-01f,+1.49796486e-01f,-9.66046751e-03f,
+1.20995462e-01f,+7.54458308e-02f,+1.21876657e-01f,-2.43045837e-02f,+1.70696765e-01f,
-1.18315317e-01f,-1.64180294e-01f,-9.00573283e-02f,-1.62258029e-01f,-1.02071755e-01f,
+1.88430309e-01f,-1.72811747e-01f,-1.40870154e-01f,+6.58295155e-02f,-5.02803624e-02f,
-1.89257056e-01f,-1.76441669e-03f,-1.45833626e-01f,-1.13263816e-01f,-4.15435135e-02f,
-1.83600277e-01f,-2.77838707e-02f,-1.49862170e-02f,+8.15394223e-02f,+8.22932720e-02f,
-1.81330621e-01f,-5.33833653e-02f,-1.55873284e-01f,-1.88302040e-01f,-1.55843139e-01f,
+6.57117367e-02f,+9.79969203e-02f,+1.32908136e-01f,+8.51231813e-02f,-1.59809440e-02f,
+1.19450539e-01f,-2.18545496e-02f,+3.16617936e-02f,+7.41991401e-02f,-3.49821150e-02f,
+8.07877183e-02f,+1.77225739e-01f,+1.66810125e-01f,-7.13243559e-02f,-1.70299247e-01f,
+1.22335941e-01f,+9.03833210e-02f,-6.09809458e-02f,-2.10408568e-02f,-1.97664797e-02f,
+4.10729051e-02f,+1.14708871e-01f,+1.87534213e-01f,-1.38662428e-01f,+1.76966488e-01f,
-4.22567874e-02f,+1.65419340e-01f,+1.15320474e-01f,+7.99522102e-02f,-7.49182850e-02f,
-3.92781943e-02f,+1.41971529e-01f,-1.79150969e-01f,-8.53345543e-02f,+1.15793824e-01f,
+3.29067111e-02f,+1.29858404e-01f,+8.23753476e-02f,+6.30640984e-02f,+1.95389986e-02f,
-1.42187327e-01f,+8.24544430e-02f,-7.89389014e-03f,+1.09147280e-01f,+1.72774196e-01f,
-6.98481277e-02f,+8.73257518e-02f,-1.52046621e-01f,+1.16153419e-01f,+1.80712819e-01f,
+1.25279337e-01f,+6.48005605e-02f,+9.68770683e-02f,-6.10797405e-02f,+9.65276659e-02f,
+2.78086215e-02f,+1.23344660e-01f,-1.34261101e-02f,-1.13017820e-01f,-1.81203157e-01f,
-1.75620750e-01f,+8.47177804e-02f,-6.91716075e-02f,+6.27546012e-02f,+7.33929276e-02f,
+1.48538977e-01f,+2.80766338e-02f,-3.96214277e-02f,+9.05408263e-02f,+8.36986601e-02f,
+1.85223043e-01f,-8.24229643e-02f,-1.36780784e-01f,-3.86318266e-02f,+1.16522312e-01f,
+1.52443707e-01f,+1.48834884e-01f,-1.25308722e-01f,+1.50024444e-01f,-1.78709760e-01f,
+1.47517711e-01f,+1.61832243e-01f,-1.45196944e-01f,-1.75985113e-01f,+5.10233194e-02f,
+8.12982619e-02f,+8.30515921e-02f,-1.78623840e-01f,+1.89314604e-01f,-1.33500308e-01f,
+1.31855190e-01f,-1.05778754e-01f,-8.90718400e-02f,+1.23861521e-01f,-1.37057751e-01f,
-3.71882319e-03f,-2.58677900e-02f,-3.91908884e-02f,+9.62242782e-02f,+9.99158621e-02f,
-9.71131027e-03f,-6.34626895e-02f,+1.32499665e-01f,+1.26353204e-01f,-7.61930719e-02f,
+1.73277110e-02f,-1.75450891e-01f,+1.78561389e-01f,+1.68236762e-01f,-1.09769605e-01f,
-1.13398768e-01f,-6.73600435e-02f,-1.26384228e-01f,+1.36482537e-01f,-9.65144634e-02f,
+1.34238183e-01f,-1.42380238e-01f,+1.52982205e-01f,+6.46932423e-03f,-2.00908184e-02f,
+1.41761094e-01f,+6.88556135e-02f,-7.03192875e-02f,+1.78307205e-01f,+1.59016550e-01f,
+6.43847585e-02f,-1.43036216e-01f,+3.72416079e-02f,-6.29359931e-02f,-1.25006616e-01f,
+1.64066166e-01f,+1.37842685e-01f,-1.31258994e-01f,-5.40349633e-02f,-1.17125109e-01f,
+1.69286281e-01f,-1.31023809e-01f,-1.00887418e-02f,-2.23322660e-02f,+1.63059562e-01f,
+2.77116895e-04f,+6.02772832e-02f,+1.23714715e-01f,+1.84189498e-01f,+2.90134549e-03f,
+3.17815989e-02f,+1.35807961e-01f,-5.67817688e-02f,+3.34848911e-02f,-1.54907137e-01f,
-1.62281811e-01f,-1.17925137e-01f,+1.92563027e-01f,-8.52147415e-02f,-1.89256370e-01f,
-1.58564046e-01f,-1.16421901e-01f,-1.03884093e-01f,-1.48023441e-01f,+7.47605562e-02f,
+3.37150395e-02f,-1.88862175e-01f,+1.10147655e-01f,+1.70667201e-01f,-1.88462436e-01f,
-1.37837335e-01f,+7.16902912e-02f,+1.31911933e-01f,+1.16547614e-01f,+7.86082149e-02f,
+4.14925814e-02f,-1.07088313e-01f,-1.25660390e-01f,-1.26745313e-01f,+1.80814683e-01f,
-1.47090405e-01f,+1.31219715e-01f,+1.49127632e-01f,+1.69294357e-01f,+1.34650975e-01f,
-1.18340753e-01f,-1.60942078e-02f,-1.61244377e-01f,-1.87115163e-01f,+1.56116694e-01f,
+6.20833337e-02f,+8.72832239e-02f,+1.63878530e-01f,+6.54507875e-02f,+5.06345928e-03f,
+9.44997668e-02f,-1.26940340e-01f,-5.71478456e-02f,-8.66907388e-02f,+1.51288599e-01f,
-1.84092298e-01f,+8.39957297e-02f,-1.24918669e-02f,+5.41562885e-02f,-1.34896278e-01f,
-5.17076850e-02f,+1.24445558e-03f,+9.49295163e-02f,+1.53488845e-01f,+1.03237033e-01f,
+8.94298851e-02f,+1.61541343e-01f,+2.86584198e-02f,-2.35031247e-02f,+3.59270275e-02f,
+1.37871921e-01f,-1.41486064e-01f,-1.30839735e-01f,+6.60286546e-02f,+6.72712624e-02f,
+1.70850009e-01f,-4.12509739e-02f,-9.16775092e-02f,-1.34139702e-01f,+1.27329707e-01f,
-1.90134838e-01f,-1.63265035e-01f,-1.13453060e-01f,+1.44510210e-01f,-3.84490192e-03f,
-1.26841962e-01f,+5.90836108e-02f,-1.51853710e-01f,-5.28959930e-03f,+7.46571422e-02f,
+1.06906682e-01f,+1.56047344e-01f,-2.47998834e-02f,+1.36475325e-01f,-8.37947503e-02f,
-8.65542591e-02f,-4.13888842e-02f,-3.30616087e-02f,+7.51029253e-02f,-4.90415394e-02f,
+1.46097541e-02f,+4.05039042e-02f,+3.69388312e-02f,+2.41253078e-02f,-2.69804746e-02f,
-1.69075057e-01f,+1.48587078e-01f,+6.61025643e-02f,-6.55120164e-02f,+9.14751887e-02f,
-8.36697668e-02f,+1.37114406e-01f,-1.77046925e-01f,+1.31457299e-01f,+3.86329740e-02f,
-2.28155702e-02f,-1.92196906e-01f,-1.22346289e-01f,+1.03513211e-01f,-1.18931726e-01f,
-1.31756380e-01f,+1.23820215e-01f,-6.65987134e-02f,-9.68197361e-02f,+3.72932255e-02f,
+1.44978553e-01f,+8.26067626e-02f,+1.37881666e-01f,+5.32823056e-02f,+1.01098508e-01f,
+1.76495939e-01f,+6.41739666e-02f,-1.37965769e-01f,-2.54434496e-02f,-1.26123101e-01f,
-9.49360207e-02f,+1.00867838e-01f,+6.14554286e-02f,+1.43200189e-01f,+7.37044811e-02f,
+4.72648889e-02f,-7.99406096e-02f,-1.31471798e-01f,-1.41360670e-01f,-1.32412583e-01f,
-1.22805260e-01f,-1.76833153e-01f,+8.41744244e-03f,-1.80502027e-01f,-2.09886879e-02f,
-1.85329467e-01f,+1.42152339e-01f,+1.52548939e-01f,-1.21562928e-01f,+1.35078788e-01f,
-1.68875366e-01f,-4.70411777e-03f,-9.78829786e-02f,+1.06920630e-01f,-2.08501518e-03f,
+1.68795317e-01f,+1.77820206e-01f,-1.42499581e-01f,+5.68011701e-02f,-9.21704620e-02f,
-9.68097150e-03f,-6.55271113e-02f,-3.48344445e-04f,-1.11811824e-01f,-7.90306926e-03f,
+9.24386084e-02f,+6.31101429e-03f,+1.03499174e-01f,+8.15085173e-02f,-1.68276832e-01f,
+2.70152837e-02f,+1.45654708e-01f,+6.60696626e-02f,-1.31992862e-01f,-2.56058276e-02f,
-7.43756071e-02f,+1.83605552e-01f,+2.54422873e-02f,-1.02869384e-01f,+6.24362826e-02f,
-9.83122587e-02f,-1.11890547e-01f,-1.06540136e-01f,+4.21759337e-02f,+1.33137703e-02f,
-1.92473978e-02f,-1.74456298e-01f,-1.97198540e-02f,+1.10924691e-02f,+1.14942759e-01f,
-1.85385704e-01f,-7.52585977e-02f,+1.69271082e-01f,-1.39791086e-01f,-1.55595809e-01f,
+2.82271951e-02f,+1.77113414e-02f,-1.52122378e-01f,+5.68541288e-02f,-6.85569942e-02f,
-7.33100101e-02f,+5.97306788e-02f,+1.08654499e-02f,-3.70500088e-02f,-3.24750245e-02f,
-5.29317409e-02f,+1.26272738e-01f,+4.12789136e-02f,-1.10112973e-01f,-1.62659928e-01f,
-1.58156320e-01f,+2.56404430e-02f,+1.28197342e-01f,-7.51023591e-02f,-1.24850892e-01f,
-9.41735283e-02f,+3.84378731e-02f,-1.28108054e-01f,+1.63022727e-01f,+1.41865820e-01f,
+1.05747581e-01f,-8.26387554e-02f,+1.17079765e-01f,+1.50521725e-01f,+1.65059119e-01f,
-1.04436703e-01f,-1.26392365e-01f,+1.61032647e-01f,+1.79053724e-01f,-1.89254344e-01f,
-7.50544369e-02f,+1.27293915e-01f,-5.19463420e-03f,+7.67234266e-02f,-1.40505791e-01f,
-1.28133506e-01f,+1.15438730e-01f,-3.61060202e-02f,-6.74027056e-02f,-1.35813907e-01f,
-8.08526427e-02f,+8.62322152e-02f,-1.50207862e-01f,+1.41927391e-01f,+1.76710397e-01f,
-1.58146948e-01f,+6.01824820e-02f,-5.38288206e-02f,+1.36644363e-01f,-1.30713433e-02f,
+1.44677818e-01f,+1.58378303e-01f,+9.26670134e-02f,+2.90298462e-02f,+1.64497495e-02f,
-1.11249156e-01f,+1.69979423e-01f,-1.62956119e-01f,+7.39044845e-02f,-1.03564002e-01f,
-8.61204490e-02f,-4.73831743e-02f,+1.86251879e-01f,+1.38132811e-01f,-6.93124682e-02f,
+2.06293017e-02f,+7.46391416e-02f,-1.59379363e-01f,+2.84743309e-02f,+1.70965493e-03f,
-6.59599602e-02f,+2.49840170e-02f,-3.27815861e-02f,+8.02952051e-02f,+5.21699488e-02f,
-1.13966100e-01f,+7.32420385e-02f,-5.70343137e-02f,+2.10160166e-02f,-3.53345871e-02f,
+7.81484544e-02f,-3.70924473e-02f,+1.02593005e-03f,+1.70411110e-01f,+1.59559101e-01f,
+3.68529558e-03f,+1.05218291e-01f,+9.24728215e-02f,-1.81083754e-01f,-1.24514133e-01f,
-3.94055396e-02f,-1.42985463e-01f,-5.04199266e-02f,-3.53161991e-02f,+5.31588942e-02f,
+8.01324844e-04f,+1.90213293e-01f,-1.69945389e-01f,-6.02303147e-02f,+1.09808952e-01f,
+7.01212585e-02f,+7.23194480e-02f,+8.97616446e-02f,-1.20356426e-01f,-5.76098263e-02f,
-1.83560565e-01f,+8.74820352e-03f,-1.65994614e-01f,+5.53356558e-02f,-1.91888407e-01f,
+2.85932720e-02f,+1.49452478e-01f,-6.72737658e-02f,-2.60572731e-02f,+2.50878036e-02f,
-2.76272148e-02f,-8.70158598e-02f,+3.68608087e-02f,+1.35225147e-01f,-1.69561863e-01f,
-1.58521980e-01f,-1.59513295e-01f,-8.13294947e-03f,-4.30617929e-02f,+1.56093657e-01f,
-1.60507113e-02f,-1.36966765e-01f,-6.03280962e-02f,+1.00464821e-01f,-1.87403962e-01f,
+1.50857121e-02f,+1.20579928e-01f,-1.83509782e-01f,+4.09737378e-02f,+1.66586041e-01f,
-1.53196782e-01f,+1.04993820e-01f,-1.40659541e-01f,-1.16060257e-01f,+1.26430780e-01f,
+2.96456069e-02f,+1.08462006e-01f,+1.08771324e-02f,-6.72427863e-02f,+4.81155664e-02f,
+1.06096357e-01f,+5.91998100e-02f,+8.78250599e-03f,-7.78669491e-02f,-7.06066191e-03f,
-1.99980289e-02f,-7.04807863e-02f,-1.32890314e-01f,+8.52552652e-02f,+1.84585124e-01f,
+1.20810837e-01f,+1.81510180e-01f,+3.03964168e-02f,+1.06784880e-01f,+9.21483934e-02f,
-1.07916638e-01f,+1.59439415e-01f,+1.04660571e-01f,-2.33519673e-02f,+9.35466886e-02f,
-7.78366625e-02f,+1.41133100e-01f,+1.46138906e-01f,+7.85762072e-02f,-7.97065273e-02f,
+2.82992125e-02f,-4.39288616e-02f,+1.34223819e-01f,+8.50947499e-02f,-8.01955089e-02f,
+1.22403830e-01f,+9.56698358e-02f,-1.76830754e-01f,+1.78798676e-01f,+2.62249112e-02f,
+1.09007210e-01f,-1.86618105e-01f,-2.25981474e-02f,+1.54615849e-01f,+1.52550101e-01f,
-1.13539122e-01f,+1.05418354e-01f,+4.07425612e-02f,+8.49233568e-03f,+1.41525865e-02f,
+6.47340715e-02f,+6.81184232e-02f,-4.72107530e-03f,+9.55566764e-02f,+5.27336299e-02f,
-3.47705781e-02f,+9.17814076e-02f,-9.88079831e-02f,+1.49872005e-02f,+1.03748828e-01f,
+1.17531776e-01f,+1.69937760e-02f,+8.14708173e-02f,+1.73495978e-01f,-1.27437130e-01f,
-9.94423106e-02f,-6.09126538e-02f,+1.71784282e-01f,+2.13352740e-02f,-1.78650811e-01f,
-1.61722451e-01f,-2.17417479e-02f,+9.57840085e-02f,-1.25230223e-01f,-1.09430447e-01f,
+1.46436393e-02f,-3.82481962e-02f,-1.34448066e-01f,+2.01777667e-02f,+1.70492679e-01f,
+1.61657721e-01f,+1.69299841e-01f,+5.08584529e-02f,-1.34921446e-01f,-1.52843133e-01f,
+1.46785975e-02f,-1.83910534e-01f,-1.71994358e-01f,-6.53682649e-03f,+4.20970321e-02f,
+1.42180413e-01f,+3.96562368e-02f,-1.18355624e-01f,-5.30696064e-02f,+7.26192296e-02f,
-5.64200729e-02f,+3.21467519e-02f,+4.17320132e-02f,+1.86083466e-01f,-1.49610758e-01f,
+1.68135166e-01f,+1.04482561e-01f,-1.90650091e-01f,+7.35938549e-02f,+1.91236347e-01f,
+4.17216122e-03f,+1.31935745e-01f,+1.65189743e-01f,-8.61223936e-02f,-7.68229663e-02f,
+1.05496764e-01f,+1.72261268e-01f,-1.67069912e-01f,-2.63426900e-02f,+5.74201941e-02f,
+1.71048164e-01f,+1.09425187e-01f,-8.15017894e-02f,-1.92874953e-01f,-7.85693303e-02f,
-1.00053087e-01f,+4.67861593e-02f,-1.81739733e-01f,-1.93453744e-01f,+9.01120007e-02f,
-1.19027294e-01f,-4.56810445e-02f,+4.47709411e-02f,+1.36510223e-01f,-8.25887993e-02f,
+4.37045693e-02f,+1.57842726e-01f,+1.23428851e-02f,+1.28429323e-01f,+1.06849968e-01f,
-3.97170931e-02f,-3.78260314e-02f,+7.69337714e-02f,-1.89196214e-01f,-5.32249212e-02f,
-1.08426072e-01f,+6.08609021e-02f,+2.76133418e-04f,-1.03655927e-01f,+4.32951748e-02f,
-6.53154701e-02f,+9.99435782e-02f,+8.13833177e-02f,+2.55467743e-02f,-1.07477471e-01f,
+1.53016597e-01f,+1.24209881e-01f,+1.75316751e-01f,-1.52882189e-02f,+1.87151313e-01f,
-1.45318970e-01f,-1.41737789e-01f,+3.52540612e-02f,-9.23934653e-02f,-1.65072799e-01f,
+7.34530389e-03f,+7.72210360e-02f,-6.28484488e-02f,-1.12765431e-02f,-7.54211172e-02f,
+1.22545272e-01f,+9.22096074e-02f,-4.23778892e-02f,+1.08644366e-04f,+1.18338257e-01f,
-1.43514872e-02f,+1.05970234e-01f,+1.31494731e-01f,+3.64863724e-02f,+5.71646988e-02f,
-1.92480996e-01f,+3.49211395e-02f,-6.24817312e-02f,-9.81461406e-02f,-2.80921459e-02f,
+4.32424545e-02f,-1.15219645e-01f,-1.62159055e-02f,-1.18247770e-01f,+1.91386044e-01f,
-4.62576449e-02f,+1.73929781e-01f,-7.14543238e-02f,+9.63043869e-02f,-1.14901356e-01f,
+1.22776479e-02f,+1.00263149e-01f,+1.73485160e-01f,+2.79463381e-02f,-1.62589341e-01f,
+1.81665301e-01f,-4.28847820e-02f,+1.88304216e-01f,+7.41380155e-02f,-1.61519319e-01f,
+5.66793680e-02f,-7.03992099e-02f,-6.26120120e-02f,+3.59750837e-02f,+1.29321277e-01f,
+9.17736888e-02f,+8.52178335e-02f,+1.79382235e-01f,+1.51913702e-01f,-1.33127391e-01f,
+2.02105343e-02f,+9.47484374e-02f,+6.06538355e-03f,+3.84374559e-02f,-9.21223536e-02f,
-2.41989493e-02f,+4.27557379e-02f,-1.90028504e-01f,-1.24579050e-01f,-3.84873599e-02f,
-1.19358331e-01f,+8.43036473e-02f,+1.50452852e-01f,-1.40341610e-01f,+1.32869720e-01f,
+1.26424640e-01f,+4.46708500e-03f,-8.00251961e-03f,-8.23197737e-02f,-1.67345271e-01f,
-1.81057945e-01f,+2.41100788e-04f,+8.00887346e-02f,-4.36519831e-02f,-3.43846828e-02f,
+7.00101256e-02f,+4.20576334e-03f,-1.25943452e-01f,-1.45163238e-01f,-1.83375657e-01f,
-1.87555999e-02f,+3.77053916e-02f,+9.79081392e-02f,-4.58032042e-02f,+4.25345451e-02f,
+1.76094949e-01f,+1.31248534e-02f,-6.48269504e-02f,+1.47386014e-01f,+1.58519119e-01f,
-1.67560741e-01f,-6.33170307e-02f,-1.59877658e-01f,+7.51719773e-02f,+1.59496397e-01f,
+1.82582825e-01f,-1.79519027e-01f,-9.15628299e-02f,-1.13758892e-01f,-8.17004070e-02f,
+8.63111913e-02f,-3.46314162e-02f,+7.73703456e-02f,-1.67355150e-01f,-1.01403132e-01f,
+9.26526487e-02f,+9.90284979e-02f,+1.23286933e-01f,+1.12546057e-01f,+1.42877609e-01f,
+1.19032115e-02f,+1.15255713e-01f,+1.73611850e-01f,+1.21816158e-01f,+7.31196105e-02f,
+1.20204538e-01f,+5.72427809e-02f,-1.52782053e-01f,+5.22121787e-03f,+1.29127890e-01f,
-1.35984227e-01f,+1.76350534e-01f,-3.53018492e-02f,-1.09434836e-01f,-1.49381518e-01f,
+1.31171912e-01f,-1.39571965e-01f,-5.38062900e-02f,+1.68969035e-01f,+2.07319856e-02f,
-4.12360728e-02f,+5.53954840e-02f,-8.40611979e-02f,+1.34629101e-01f,-5.82490414e-02f,
-3.89453173e-02f,+3.52769196e-02f,-7.33458847e-02f,-1.95927024e-02f,-9.28870589e-02f,
-7.33246058e-02f,-6.54932708e-02f,-5.32279164e-02f,+1.66794240e-01f,+5.50904423e-02f,
+1.39624983e-01f,-1.80279717e-01f,-1.50244847e-01f,-1.06653392e-01f,-1.12821735e-01f,
-8.34161639e-02f,-1.33929536e-01f,+2.29121745e-03f,+1.02432907e-01f,+1.10530943e-01f,
-1.82498351e-01f,+1.42434120e-01f,+1.02675885e-01f,-7.08785877e-02f,+1.43288195e-01f,
+1.40760928e-01f,-1.50705487e-01f,+1.92026675e-01f,+3.19030732e-02f,-2.00256705e-02f,
+9.05464590e-02f,-1.63669243e-01f,+2.85235941e-02f,+8.77226293e-02f,+6.07861876e-02f,
-1.86522260e-01f,+1.57799810e-01f,+7.90348649e-02f,-1.45856842e-01f,-9.25192311e-02f,
+1.67682916e-01f,+9.54113305e-02f,+3.06342393e-02f,-1.84407920e-01f,+9.01315212e-02f,
+2.98773348e-02f,-1.75849602e-01f,+4.05078828e-02f,+1.71501935e-02f,+1.27985805e-01f,
+6.09497726e-02f,-3.06905210e-02f,+1.56152755e-01f,+1.13467962e-01f,+1.32402807e-01f,
-1.95350796e-02f,-4.98838127e-02f,-1.54011816e-01f,+1.79290384e-01f,-1.58816576e-04f,
+1.28071368e-01f,+6.71827793e-03f,-1.08667910e-01f,+1.38962567e-01f,+4.97899503e-02f,
-1.76100433e-03f,+2.45948881e-02f,-1.82552129e-01f,-1.43663421e-01f,+1.28973603e-01f,
-3.19772214e-02f,-4.77456450e-02f,+1.72062188e-01f,+1.40248179e-01f,-1.38718337e-01f,
-2.02815086e-02f,+1.02855027e-01f,-7.79351443e-02f,+1.35117948e-01f,-4.21220064e-02f,
-8.81206095e-02f,+1.71391755e-01f,+1.77723914e-01f,+8.45854580e-02f,+1.17933035e-01f,
-7.94837624e-02f,+9.99259949e-02f,-1.91050291e-01f,-1.53527588e-01f,+1.93216294e-01f,
+1.81377023e-01f,-2.83408612e-02f,+1.56296611e-01f,-2.66270489e-02f,-1.98299140e-02f,
-1.66297764e-01f,-1.21783763e-02f,+2.98965424e-02f,+1.21679783e-01f,-1.40786499e-01f,
-6.07186556e-02f,-1.62121460e-01f,-5.16905189e-02f,-6.92216530e-02f,-7.32685551e-02f,
+6.21631444e-02f,-7.32847601e-02f,+1.40623748e-01f,-5.59892207e-02f,-1.87011927e-01f,
-1.18969262e-01f,+1.81158006e-01f,-8.56795758e-02f,+1.03781462e-01f,-1.60248682e-01f,
+4.76974994e-02f,+6.37939572e-02f,+1.20565295e-01f,-1.93455219e-01f,-1.37421578e-01f,
+1.49187088e-01f,+4.39557284e-02f,+1.93604559e-01f,+1.42695785e-01f,+1.27216429e-01f,
-1.17034711e-01f,+2.30725408e-02f,-1.89444929e-01f,+3.07011455e-02f,-1.24962807e-01f,
+3.97796482e-02f,-7.34157413e-02f,-1.71215519e-01f,-1.22314692e-02f,+1.41168267e-01f,
+7.71461427e-02f,+2.99116820e-02f,-1.83266878e-01f,-1.38194636e-01f,-6.12682551e-02f,
-1.31436333e-01f,+1.40589952e-01f,+1.41818076e-02f,+1.15518212e-01f,+7.65496790e-02f,
+1.15676254e-01f,-1.24085084e-01f,-8.09922144e-02f,-1.06227800e-01f,+1.29321575e-01f,
-1.92104623e-01f,-1.01097025e-01f,+1.99422538e-02f,+1.22588307e-01f,+1.44542247e-01f,
+7.62000680e-03f,+1.00693375e-01f,+8.91726315e-02f,+3.26657444e-02f,-1.09947272e-01f,
-4.45544720e-05f,+5.54227680e-02f,-5.35392314e-02f,+1.64190173e-01f,-9.81747657e-02f,
-4.63215113e-02f,+8.13885927e-02f,-8.51891637e-02f,-1.05118208e-01f,+1.34881228e-01f,
+1.00920230e-01f,+1.66694194e-01f,+4.61936146e-02f,+1.83264911e-01f,+1.73248380e-01f,
+9.43991244e-02f,+1.67763501e-01f,-1.22192495e-01f,-1.61650345e-01f,+5.14971614e-02f,
-1.48571759e-01f,+2.07641572e-02f,-1.70412675e-01f,+1.67322278e-01f,+5.94230890e-02f,
+1.67585909e-01f,-8.60544741e-02f,+2.99458504e-02f,+1.19124472e-01f,+4.43539917e-02f,
+3.80284339e-02f,-1.61537454e-01f,-1.48356736e-01f,-1.58702880e-01f,-1.58718526e-02f,
-9.06012058e-02f,-2.24858522e-05f,-2.88643390e-02f,+4.70367223e-02f,+9.06914175e-02f,
-3.76454592e-02f,+1.30471021e-01f,+1.85383350e-01f,+2.87976563e-02f,-1.57972619e-01f,
-7.04109371e-02f,+3.19897830e-02f,-6.80543035e-02f,+6.97770715e-02f,+1.53399855e-01f,
+7.99160600e-02f,-1.75402179e-01f,+1.13487959e-01f,+1.60802245e-01f,-1.21657670e-01f,
+2.13521719e-02f,-1.65987834e-01f,+8.73666108e-02f,-1.51985899e-01f,+1.65139556e-01f,
-2.97385007e-02f,+2.83854157e-02f,-1.38467729e-01f,-9.12304968e-02f,-7.66127035e-02f,
+1.42918348e-01f,+8.38908255e-02f,+1.22534394e-01f,-6.28287345e-02f,-1.48687035e-01f,
+1.18805319e-02f,+1.84722990e-02f,+1.00652039e-01f,-1.11759886e-01f,-2.61923224e-02f,
+7.63703287e-02f,+1.86405361e-01f,+4.25028652e-02f,-1.00361913e-01f,+1.43232137e-01f,
+3.37764919e-02f,-4.64686751e-03f,-7.30434060e-03f,+1.65591002e-01f,-9.53792930e-02f,
-1.83511168e-01f,+4.73342836e-02f,-4.92625982e-02f,+1.58413678e-01f,+1.09126270e-01f,
-7.58619905e-02f,+9.84164178e-02f,+3.14028263e-02f,-1.62782103e-01f,+8.51038396e-02f,
-7.16155916e-02f,+1.08854562e-01f,-4.14402336e-02f,-9.01077911e-02f,-6.49872571e-02f,
-9.41525698e-02f,-1.83226719e-01f,+4.72743809e-03f,+4.77503091e-02f,-1.94701701e-02f,
-5.72223216e-02f,-3.91709954e-02f,-4.51040119e-02f,+1.19225591e-01f,+9.94859934e-02f,
+1.22200817e-01f,+6.04652166e-02f,+1.37517273e-01f,-5.44742644e-02f,+7.25456178e-02f,
-1.71117604e-01f,+9.47815180e-03f,+5.05594015e-02f,-5.55265546e-02f,-1.35243088e-02f,
-4.90439832e-02f,+2.22655535e-02f,+1.53246462e-01f,+6.48498535e-02f,+3.28891128e-02f,
-6.71778619e-02f,+9.22593474e-02f,+8.03517401e-02f,-7.73550197e-02f,-1.55974388e-01f,
+1.58725500e-01f,+1.71755761e-01f,+7.15821981e-02f,-1.47242203e-01f,-1.77707613e-01f,
-8.26473907e-02f,+1.89678907e-01f,-8.15474018e-02f,-1.85015187e-01f,+1.70959383e-01f,
-8.82278606e-02f,+2.66768038e-03f,-9.52509418e-02f,+1.64126426e-01f,-1.23618260e-01f,
-1.79069057e-01f,-1.09731935e-01f,-1.18696444e-01f,-3.78352553e-02f,-6.99586123e-02f,
+1.64965957e-01f,+8.95388424e-02f,-1.32067055e-01f,-1.17938988e-01f,+4.19341475e-02f,
+1.14830852e-01f,-1.13012187e-01f,+3.71768773e-02f,-1.67770982e-02f,-8.65310431e-04f,
+9.63713825e-02f,+5.03436178e-02f,-5.59566319e-02f,-1.39875203e-01f,-1.21745810e-01f,
+2.91243643e-02f,+1.15564853e-01f,-1.91469178e-01f,+8.43216479e-02f,+5.99597991e-02f,
+1.63208157e-01f,+1.60732359e-01f,-1.71917856e-01f,-3.84055525e-02f,-6.92207292e-02f,
+3.01983058e-02f,-4.44587022e-02f,+8.71830285e-02f,-1.03396319e-01f,+1.82502031e-01f,
+2.08336115e-03f,-1.56553313e-01f,+1.74897462e-01f,+5.55748045e-02f,+1.48984283e-01f,
-8.71905684e-02f,+1.89018250e-02f,+4.84766066e-02f,-1.21425763e-01f,+1.98498219e-02f,
+1.91215634e-01f,+9.92450714e-02f,-1.70394301e-01f,+1.46428734e-01f,+2.17372328e-02f,
+1.74503475e-01f,-1.05971329e-01f,-9.23607722e-02f,+1.67447716e-01f,-9.61005688e-03f,
+8.56971741e-02f,+3.61408889e-02f,-1.63439780e-01f,+1.61121160e-01f,-6.32126629e-03f,
+1.43605113e-01f,+1.43393427e-02f,-1.60782129e-01f,-5.00153452e-02f,+1.60079151e-02f,
-1.21443816e-01f,-9.81082395e-02f,-1.20794393e-01f,-8.65115970e-02f,+1.52496815e-01f,
+1.44533992e-01f,+1.22022718e-01f,+4.79644090e-02f,-2.78862268e-02f,+4.77432907e-02f,
+2.94481069e-02f,+1.80902392e-01f,-9.23366770e-02f,-1.33387923e-01f,-8.39494169e-02f,
-6.86236173e-02f,-6.12766147e-02f,-6.50515258e-02f,-1.87017381e-01f,-6.18618578e-02f,
-6.14879727e-02f,+9.13685858e-02f,-2.90277302e-02f,-1.92986041e-01f,-1.13100789e-01f,
+1.60913765e-01f,+1.16996437e-01f,+1.73208445e-01f,+1.80047393e-01f,-1.46793023e-01f,
+2.41564214e-03f,-1.79247692e-01f,-9.28976312e-02f,-5.24743795e-02f,+5.66127598e-02f,
-1.35623068e-02f,-8.61377642e-02f,-1.75903812e-01f,+7.44280517e-02f,-1.71458840e-01f,
-5.21707237e-02f,+2.20985115e-02f,+1.50017798e-01f,-7.02713206e-02f,+7.33274519e-02f,
+3.53121907e-02f,+8.97341073e-02f,-1.32903144e-01f,-1.08623445e-01f,+1.29433870e-01f,
+1.55290723e-01f,-2.89745331e-02f,-1.29962653e-01f,+1.91342920e-01f,+1.58833861e-02f,
-8.84704366e-02f,-1.88124061e-01f,+1.20480955e-01f,+1.66944504e-01f,+1.67712033e-01f,
+9.91235673e-02f,+1.01800114e-02f,-1.86953530e-01f,-7.80168623e-02f,+3.35381180e-02f,
-9.60608944e-02f,+4.03685421e-02f,+1.06411010e-01f,+1.81396931e-01f,-1.39945656e-01f,
-9.23083723e-02f,+5.32672107e-02f,+1.74778014e-01f,+6.77520633e-02f,+8.57151151e-02f,
-1.20512344e-01f,-1.22149326e-01f,+4.20676321e-02f,-1.62741795e-01f,-8.64164457e-02f,
-5.92591316e-02f,+1.93969905e-02f,+1.32262081e-01f,-9.97310951e-02f,+1.11025572e-01f,
-6.09049052e-02f,+9.43352580e-02f,-7.13086575e-02f,-4.39231843e-02f,-1.88576609e-01f,
-1.00617327e-01f,-1.20772503e-01f,-1.38230100e-01f,-2.02072561e-02f,-1.47438437e-01f,
-1.79015502e-01f,+1.59047872e-01f,-5.57051450e-02f,-5.84002882e-02f,-1.28762886e-01f,
-8.97315145e-03f,+9.72256958e-02f,+1.36217564e-01f,+1.05425656e-01f,-3.85783613e-03f,
-7.71485046e-02f,-3.09446007e-02f,-7.61906281e-02f,+1.24260724e-01f,-1.84217706e-01f,
+2.10807920e-02f,+3.20680439e-03f,-1.44049719e-01f,-1.61676943e-01f,-1.20923206e-01f,
-1.41029865e-01f,+2.99315453e-02f,-7.53644183e-02f,+8.64319503e-02f,+7.34915435e-02f,
+2.73515880e-02f,-7.45685026e-02f,-6.33879006e-02f,-1.13581367e-01f,-6.20575249e-02f,
+7.09721744e-02f,+1.57862902e-03f,+1.81914568e-02f,-2.62400508e-02f,-1.57911479e-02f,
+1.69482976e-01f,-9.52081382e-03f,+3.86189967e-02f,-1.35126352e-01f,-1.46650910e-01f,
+5.84886074e-02f,+1.30857050e-01f,-1.03617974e-01f,+1.30308092e-01f,+5.37607670e-02f,
+2.91181654e-02f,+1.49962336e-01f,-7.36896172e-02f,+1.45663947e-01f,+5.86923063e-02f,
-1.01811729e-01f,+1.74129099e-01f,+1.77006990e-01f,-5.51273376e-02f,+1.70051306e-01f,
+4.48568612e-02f,-1.73580796e-01f,-3.37022096e-02f,-1.32643074e-01f,+5.78255355e-02f,
+4.81274724e-02f,-1.71142712e-01f,-9.57167447e-02f,+5.53242862e-02f,+3.45707089e-02f,
-1.63275138e-01f,+1.25827879e-01f,-1.34724811e-01f,-4.74063456e-02f,+6.85088336e-02f,
-7.08242431e-02f,-5.33191413e-02f,+2.02352852e-02f,-5.98141849e-02f,+1.92292482e-01f,
+8.83226097e-02f,+8.42244029e-02f,+9.32204127e-02f,+9.54628587e-02f,-1.76531017e-01f,
-1.48750708e-01f,+1.56071067e-01f,+1.62933171e-01f,-5.27691245e-02f,-1.82917699e-01f,
+1.07178301e-01f,-1.72540963e-01f,+2.95730829e-02f,+7.59235919e-02f,-1.20390959e-01f,
+4.82751280e-02f,+1.46518677e-01f,+1.53793663e-01f,+1.29820764e-01f,-7.74077922e-02f,
-3.31873298e-02f,+1.17225081e-01f,-6.90160692e-03f,-6.34616315e-02f,-9.60156024e-02f,
-7.50156567e-02f,+1.56623900e-01f,-8.43940303e-02f,-1.04337111e-01f,+4.40208763e-02f,
-1.34000629e-02f,-9.97478589e-02f,+1.80411428e-01f,-1.15266442e-03f,-1.78060338e-01f,
-1.79346398e-01f,-1.87297761e-01f,-1.10050827e-01f,-1.05635583e-01f,-8.66549537e-02f,
-2.77440250e-02f,+1.10704869e-01f,-1.71256930e-01f,-1.72604069e-01f,+6.15791976e-02f,
+1.13658249e-01f,+1.54305547e-01f,-1.52076215e-01f,+8.60436261e-02f,-2.30304450e-02f,
+2.41470039e-02f,-1.16955809e-01f,+7.27686286e-02f,+1.40696198e-01f,+5.18869162e-02f,
-1.41007930e-01f,-1.54181406e-01f,+6.81240857e-03f,+8.48775804e-02f,+4.76085246e-02f,
-1.69882700e-01f,-6.87057525e-02f,+1.45748109e-02f,-1.48368001e-01f,+3.11300159e-02f,
-3.01025957e-02f,+1.46714389e-01f,-1.76649675e-01f,-9.99419540e-02f,-1.37174129e-03f,
-9.16778818e-02f,+1.55158758e-01f,+1.21886671e-01f,+1.94719136e-02f,-6.32315725e-02f,
+1.63538039e-01f,+1.54096067e-01f,+1.38241559e-01f,+1.49308115e-01f,+8.31442177e-02f,
+1.63469285e-01f,+1.83897227e-01f,+5.43586612e-02f,-2.63940245e-02f,+2.51078606e-03f,
-3.07021588e-02f,+9.93097425e-02f,+6.32873476e-02f,-4.39596474e-02f,-1.39465332e-02f,
+1.16899073e-01f,-1.11499950e-01f,-4.71757352e-02f,+3.23487520e-02f,-1.55557811e-01f,
+3.35443169e-02f,+1.82042688e-01f,-1.84536502e-01f,+1.72870457e-01f,+1.57182008e-01f,
-1.53494909e-01f,+5.44235259e-02f,+3.67159694e-02f,-1.80158019e-03f,+4.51522171e-02f,
+1.43976182e-01f,+1.29080415e-02f,-1.17322624e-01f,-1.87665373e-01f,-3.92310172e-02f,
+9.25483704e-02f,+6.76324069e-02f,-1.65701032e-01f,-1.84086770e-01f,+1.18582457e-01f,
+5.07934391e-03f,-6.63753897e-02f,-1.81769878e-01f,+1.69432729e-01f,-6.72643334e-02f,
+1.93256557e-01f,+1.15263045e-01f,+1.52830780e-03f,+1.62672818e-01f,-1.36864811e-01f,
+1.29813850e-01f,+2.80236304e-02f,-1.74612999e-01f,-1.87389135e-01f,-8.78773853e-02f,
-3.55481207e-02f,+1.53728813e-01f,-1.92090631e-01f,-2.40124613e-02f,+3.41099799e-02f,
+1.10913724e-01f,-1.78338841e-01f,+1.05095446e-01f,+6.46312833e-02f,-6.99111968e-02f,
-6.86825737e-02f,-1.46431327e-01f,-1.41380250e-01f,+4.36163396e-02f,+1.68220609e-01f,
+1.13588303e-01f,+4.18829918e-02f,+1.32217437e-01f,+9.31772888e-02f,-5.18558472e-02f,
+1.04212165e-01f,+1.14343762e-01f,+1.26755804e-01f,-9.80641022e-02f,-7.24479556e-03f,
+1.62958652e-01f,+1.54564649e-01f,-1.94678158e-02f,-1.04461677e-01f,-3.50327194e-02f,
+1.52502865e-01f,-5.74483722e-02f,-8.94105434e-02f,-1.48292661e-01f,+9.34511721e-02f,
-4.98827547e-02f,+1.37253135e-01f,+1.54468864e-01f,+1.29413962e-01f,-1.30399913e-01f,
+9.67059433e-02f,-3.48766297e-02f,+1.61666632e-01f,-1.33540839e-01f,-1.27261639e-01f,
+1.53884947e-01f,-1.56781584e-01f,+1.07263565e-01f,+1.08487815e-01f,+7.61286616e-02f,
+1.59842074e-01f,+1.72558457e-01f,-5.01938313e-02f,-6.05282485e-02f,-1.92551628e-01f,
+1.35600656e-01f,-1.39757708e-01f,+1.30547494e-01f,-6.90273717e-02f,-5.83264232e-03f,
-1.83211938e-01f,+4.34618592e-02f,+1.30020142e-01f,-3.78235877e-02f,-6.08139932e-02f,
-8.52549598e-02f,-3.43459845e-03f,-3.28784585e-02f,-2.10419595e-02f,+1.85233444e-01f,
-1.14628449e-01f,-1.67341530e-02f,+1.51028574e-01f,+6.53827488e-02f,-1.43388063e-01f,
-4.50718850e-02f,+1.43591255e-01f,+1.76672339e-01f,+3.90279591e-02f,+7.38205910e-02f,
+4.86074984e-02f,-1.56008050e-01f,+1.83613539e-01f,+4.36164737e-02f,+1.07610673e-01f,
-1.71322122e-01f,+1.22318268e-01f,+1.68690890e-01f,+9.90764201e-02f,-1.08616613e-01f,
-1.86754942e-01f,+6.34635091e-02f,+1.59834176e-01f,+1.73784941e-02f,-1.61840379e-01f,
-1.52619988e-01f,-1.64985776e-01f,+1.83299214e-01f,-1.35719776e-03f,+1.41042709e-01f,
+1.43534422e-01f,+4.89532948e-04f,-9.92807597e-02f,-9.78371277e-02f,+1.46809936e-01f,
+7.78185129e-02f,+1.45831645e-01f,+1.87191010e-01f,-3.20971012e-03f,-8.01452324e-02f,
+2.20801234e-02f,-1.00763291e-02f,-6.23960793e-02f,+3.37983370e-02f,+1.19128972e-01f,
-1.70736656e-01f,-1.84630647e-01f,-9.77811217e-03f,+2.46063024e-02f,+4.28204238e-02f,
+1.01043016e-01f,+6.18924201e-02f,+9.73011851e-02f,-1.94913596e-02f,-2.09702998e-02f,
-1.26846761e-01f,-1.51876152e-01f,-1.59893081e-01f,+1.68297410e-01f,+2.23703533e-02f,
+1.54832751e-01f,+1.03705823e-01f,-2.32142806e-02f,-1.45819768e-01f,-1.34186327e-01f,
-8.39732587e-03f,+9.46356952e-02f,+1.43202275e-01f,-1.98496282e-02f,+1.93606734e-01f,
-2.38132924e-02f,+1.00380838e-01f,+6.94505572e-02f,-1.21559054e-01f,-1.00383841e-01f,
-1.13502190e-01f,+4.56464291e-03f,+1.41465843e-01f,-1.30814791e-01f,+1.23949349e-01f,
+8.70848894e-02f,-1.70779541e-01f,-1.58986866e-01f,+4.28144634e-02f,+1.70443803e-01f,
-6.65678680e-02f,-9.80309024e-02f,-9.23040807e-02f,-1.39652401e-01f,-1.05388440e-01f,
+1.40511066e-01f,-6.68285936e-02f,-3.07132900e-02f,+1.49167031e-01f,+1.11861914e-01f,
+6.51410222e-03f,+3.41626555e-02f,-2.64916271e-02f,+1.39995903e-01f,+1.47331923e-01f,
-7.62107074e-02f,-3.96910012e-02f,+7.00406134e-02f,-1.08303770e-01f,-1.84680372e-01f,
+1.25075608e-01f,-1.49517953e-01f,-2.50183046e-03f,-1.50726303e-01f,+9.05847847e-02f,
-1.66429028e-01f,+1.62959725e-01f,+1.00604087e-01f,+1.05034262e-01f,+7.02733994e-02f,
+5.97362518e-02f,+4.37542498e-02f,+5.46550155e-02f,-1.66308299e-01f,-5.28753251e-02f,
-1.38999924e-01f,+1.81226462e-01f,+7.01020956e-02f,-5.19949645e-02f,-1.23408973e-01f,
-5.17491102e-02f,+1.43949360e-01f,-3.92668396e-02f,+1.12740397e-01f,+1.73568130e-01f,
+6.34956360e-03f,+9.29805040e-02f,-6.19318485e-02f,-1.72565132e-02f,-1.36345953e-01f,
-7.47999027e-02f,+1.32194638e-01f,-5.76937646e-02f,+1.09948933e-01f,-1.42885149e-02f,
-8.66954029e-03f,+4.78103757e-03f,-1.42298639e-03f,-1.58832699e-01f,-1.80389315e-01f,
+1.20924592e-01f,-6.46056235e-02f,+3.66321802e-02f,+1.54055953e-01f,-1.60984993e-01f,
-7.06444606e-02f,-1.12540126e-02f,-5.41835278e-02f,+1.25925303e-01f,-1.34456009e-01f,
+1.85150325e-01f,+4.26451564e-02f,+6.93610907e-02f,-8.10322389e-02f,-1.05266273e-03f,
+9.54698324e-02f,+4.98342216e-02f,+8.50262344e-02f,+5.79951108e-02f,+1.23198330e-02f,
-1.56857476e-01f,+1.65906727e-01f,+1.49354041e-01f,-1.26755625e-01f,+1.01057053e-01f,
+1.90795064e-01f,-1.80375934e-01f,+6.10412657e-03f,-1.33453757e-01f,-1.26386359e-01f,
+4.39494550e-02f,-3.11459899e-02f,-8.26172531e-03f,+6.06164634e-02f,-1.60052776e-01f,
+1.59193486e-01f,+1.62208438e-01f,+7.44766593e-02f,-6.97369948e-02f,+1.40022039e-01f,
+1.55000389e-03f,+6.21901751e-02f,+1.13069952e-01f,-1.84919015e-01f,-9.27688181e-02f,
-3.27782631e-02f,+1.62646830e-01f,+1.17299318e-01f,-1.01654708e-01f,+1.23330772e-01f,
-7.56345689e-03f,-2.67157406e-02f,+1.45470351e-01f,+3.15712392e-03f,-9.11996067e-02f,
-1.01818748e-01f,+1.40727162e-01f,-1.44746512e-01f,-6.17698431e-02f,+8.20125937e-02f,
+9.35941935e-02f,-1.29542559e-01f,+7.67100751e-02f,-9.14456025e-02f,+9.71823931e-02f,
-1.82471871e-02f,+1.19466186e-01f,-1.13019578e-01f,+1.29152089e-01f,+4.80500907e-02f,
+9.28264856e-02f,+9.82061625e-02f,+1.50063932e-02f,-2.13943273e-02f,-1.83476448e-01f,
-8.26963335e-02f,+1.80446804e-01f,+8.52644145e-02f,+7.73526728e-02f,+1.29841685e-01f,
-3.65944505e-02f,-1.15625016e-01f,+1.53542548e-01f,-2.06802189e-02f,+1.86757892e-01f,
+1.30663306e-01f,-1.07722498e-01f,+8.99824798e-02f,+9.33615565e-02f,-1.76068261e-01f,
-1.89285457e-01f,+1.66379899e-01f,-8.70665610e-02f,+9.71927345e-02f,+9.84738171e-02f,
+6.59592152e-02f,+4.82356548e-03f,+6.41719401e-02f,+1.82423741e-01f,+4.08949256e-02f,
-1.79661453e-01f,+3.97998691e-02f,+1.80813015e-01f,+3.31485420e-02f,+8.32715034e-02f,
-3.63228917e-02f,-5.83209693e-02f,+6.19137585e-02f,-1.56094432e-01f,+1.32198840e-01f,
+1.79015040e-01f,-1.53092593e-01f,+1.23237371e-01f,-4.27474231e-02f,+8.37311447e-02f,
+9.38368142e-02f,+7.17629492e-02f,-2.86667794e-02f,+1.76856220e-02f,+2.48986483e-02f,
+1.77200675e-01f,+1.17291003e-01f,-2.66155452e-02f,+1.35691702e-01f,+1.50758445e-01f,
-9.30526704e-02f,-2.95988023e-02f,-1.01148456e-01f,-6.33335114e-03f,+1.88477397e-01f,
-1.57894447e-01f,-1.65954679e-01f,+5.40971905e-02f,+3.94190848e-03f,-6.32707626e-02f,
-3.49888653e-02f,-1.11430697e-01f,+1.13843381e-01f,+3.60111445e-02f,+1.06948793e-01f,
+1.54137760e-01f,+1.28942639e-01f,+5.63575327e-02f,-8.02623630e-02f,-1.72206283e-01f,
+5.00094891e-02f,+1.69061154e-01f,-1.61482468e-01f,+1.87676638e-01f,+4.76454645e-02f,
-1.32014751e-01f,-1.56606317e-01f,+4.46363688e-02f,-2.50106454e-02f,+1.07926428e-01f,
-1.83621377e-01f,-1.28071129e-01f,+7.18976259e-02f,+1.33007765e-01f,-1.77051038e-01f,
+1.66171223e-01f,-8.51015747e-03f,-1.09636873e-01f,-7.83669651e-02f,+7.34607875e-03f,
-8.60464424e-02f,-1.27484739e-01f,-4.50414121e-02f,+1.86635405e-02f,-2.85237879e-02f,
+1.67041332e-01f,+1.60120547e-01f,+2.80333757e-02f,+1.76674187e-01f,+1.49576485e-01f,
-9.03943181e-02f,+7.77578950e-02f,+1.04245782e-01f,-1.38878405e-01f,-1.63349837e-01f,
+5.55094779e-02f,+1.04583740e-01f,-6.84757382e-02f,+7.59279132e-02f,-9.84108448e-03f,
-3.28688025e-02f,-1.37395710e-01f,+5.92032671e-02f,+1.03303045e-02f,-4.06507254e-02f,
-1.25174075e-01f,-1.31640077e-01f,-6.94149658e-02f,+1.55542195e-01f,+1.79856211e-01f,
+7.16373026e-02f,-1.92635432e-01f,+2.65469849e-02f,-6.34410977e-03f,+4.85861301e-03f,
-4.82850075e-02f,-1.05103157e-01f,-1.04574054e-01f,-6.34309649e-03f,-1.50179610e-01f,
-2.31896341e-03f,+9.10343230e-02f,-2.11798698e-02f,+1.36999488e-01f,-1.67044148e-01f,
+3.98747176e-02f,+2.11112648e-02f,+1.83831811e-01f,-1.37655094e-01f,-7.28930086e-02f,
+1.78390414e-01f,-5.32926917e-02f,+8.13561678e-02f,-1.92552835e-01f,+1.65679157e-01f,
-1.41859666e-01f,-2.64391303e-02f,-8.75904411e-02f,-1.91279754e-01f,+3.11987549e-02f,
-1.36306435e-01f,+6.05325103e-02f,+3.58145088e-02f,+1.91334039e-01f,+4.36123163e-02f,
+5.99428713e-02f,+2.54053473e-02f,-1.25117943e-01f,+1.74601823e-01f,-1.39515683e-01f,
+9.25872326e-02f,-4.54004109e-03f,+4.80981171e-03f,+4.29920852e-02f,+4.82397079e-02f,
-9.53263864e-02f,-9.57309231e-02f,+6.99837804e-02f,-7.53655285e-02f,+1.14945441e-01f,
-1.75600752e-01f,-1.14802092e-01f,-1.02354959e-01f,+9.49956775e-02f,+1.39872074e-01f,
-3.39255333e-02f,+1.57062382e-01f,+9.26221013e-02f,-8.40458646e-02f,+1.14156187e-01f,
+1.57585472e-01f,-1.52830482e-01f,+6.81504607e-03f,-3.13214809e-02f,+1.10535920e-02f,
+6.24397099e-02f,-1.61742225e-01f,-3.31550837e-04f,-1.30757272e-01f,+1.86050773e-01f,
+1.46905482e-02f,-4.23531234e-03f,+9.89754796e-02f,-1.09195627e-01f,+9.52379704e-02f,
-1.29841417e-01f,+1.63267553e-02f,+6.44123554e-02f,+9.57407057e-02f,-1.86290026e-01f,
+1.38625771e-01f,-3.23311985e-03f,-7.62841180e-02f,+2.65703052e-02f,+1.51591986e-01f,
-2.25670785e-02f,-1.41164586e-01f,+1.27796412e-01f,-1.16795368e-01f,-1.41066894e-01f,
+1.39003724e-01f,+1.59585029e-02f,-7.40735233e-03f,-1.68268293e-01f,-8.34012032e-02f,
+1.83749139e-01f,+8.22261274e-02f,-9.81985480e-02f,-8.65055546e-02f,-1.18156999e-01f,
+5.30542284e-02f,-6.38376772e-02f,-3.67555916e-02f,-5.56704253e-02f,-6.44851625e-02f,
-1.36853218e-01f,-1.22053944e-01f,+9.96548831e-02f,-1.01015493e-01f,+1.62621975e-01f,
+1.19267851e-01f,+1.49741650e-01f,+7.82918036e-02f,-1.59064114e-01f,+1.75089598e-01f,
+9.19320583e-02f,-1.78311735e-01f,-5.06170094e-03f,+6.56351447e-02f,+1.04103088e-02f,
-3.84607613e-02f,-4.87048179e-02f,+5.66050410e-02f,+2.10057646e-02f,-6.76663816e-02f,
+1.85820282e-01f,+1.47245109e-01f,+4.55984473e-02f,+2.18409300e-03f,-9.75877047e-03f,
-1.63041353e-02f,+1.54120922e-01f,-8.13950598e-03f,-7.72341043e-02f,+1.92802787e-01f,
+3.97637635e-02f,+1.94910765e-02f,+1.78628474e-01f,+9.81613696e-02f,+7.27678835e-03f,
+1.61349177e-02f,-6.59312457e-02f,+3.13551873e-02f,+1.19781375e-01f,+9.55283642e-02f,
+1.07338786e-01f,-1.23904645e-03f,+5.47933429e-02f,-1.69698626e-01f,-9.90875438e-02f,
-1.88609213e-01f,-4.01809812e-04f,-1.23798847e-03f,+6.36982918e-03f,+1.05949491e-02f,
+1.98159367e-02f,-1.75629973e-01f,+1.41377151e-01f,+2.58794278e-02f,+1.51748866e-01f,
-7.44715333e-03f,+1.41411811e-01f,-4.12568450e-02f,-1.51286751e-01f,+6.73923194e-02f,
+7.96794295e-02f,+1.86310977e-01f,-8.62329677e-02f,+1.42014146e-01f,+1.71966940e-01f,
-8.30908939e-02f,+3.21597755e-02f,+1.21968716e-01f,+1.28707439e-01f,-1.62119746e-01f,
-1.78341523e-01f,+1.14702702e-01f,+5.46912551e-02f,-1.32733524e-01f,-8.60834196e-02f,
+1.79936826e-01f,-1.12614714e-01f,+6.66601062e-02f,+1.86831623e-01f,+4.93935347e-02f,
-1.32390261e-02f,+1.61753714e-01f,-1.29563287e-01f,+4.72832620e-02f,-1.83990687e-01f,
-3.47734392e-02f,-1.85447842e-01f,+2.42650658e-02f,-7.94293284e-02f,-5.33583909e-02f,
-1.02363460e-01f,-5.63585311e-02f,-1.28537536e-01f,+1.71559989e-01f,-1.79586336e-01f,
+4.59729135e-03f,-2.18630433e-02f,+9.01553929e-02f,-1.30153894e-02f,+1.86649442e-01f,
-1.59318924e-01f,-1.21231712e-01f,+1.28867865e-01f,+1.47886962e-01f,-7.32055753e-02f,
+1.83105797e-01f,-1.01125330e-01f,+2.45355666e-02f,-1.26016214e-01f,-1.97980106e-02f,
-6.90897927e-02f,-6.19799048e-02f,-5.57821989e-02f,-1.44012138e-01f,-6.77538812e-02f,
-2.69441307e-03f,+1.74041688e-01f,-1.20519266e-01f,-1.19339176e-01f,-1.36948571e-01f,
-1.68558925e-01f,-5.21300435e-02f,+6.71943128e-02f,-5.28648794e-02f,+4.76591289e-02f,
+1.84786648e-01f,-1.12061374e-01f,+4.53450680e-02f,-2.38085836e-02f,-3.02210301e-02f,
+1.04130268e-01f,-5.83899468e-02f,-1.64005309e-01f,-6.84857070e-02f,-1.52770638e-01f,
+9.03525352e-02f,-1.40486404e-01f,+1.52021319e-01f,-1.87709361e-01f,+5.38582206e-02f,
-6.79291785e-02f,-1.14173539e-01f,+1.30351633e-01f,-8.04415494e-02f,-1.17477477e-01f,
+6.67447150e-02f,-9.73587707e-02f,-1.49325147e-01f,-3.86157185e-02f,+1.56936795e-01f,
+1.34332418e-01f,-6.49374425e-02f,-1.58321381e-01f,-8.02779719e-02f,-1.40942007e-01f,
-6.41082227e-03f,-1.10555045e-01f,+1.84775144e-01f,-1.26778752e-01f,+9.72989798e-02f,
+1.26434088e-01f,-1.50527909e-01f,+5.96742630e-02f,-1.79644823e-02f,-8.78195390e-02f,
-9.74235907e-02f,-1.22329526e-01f,+1.76504284e-01f,+6.90484345e-02f,+5.73179424e-02f,
-8.03299993e-02f,+8.40218663e-02f,+1.15422696e-01f,+1.70408279e-01f,+4.84074503e-02f,
-1.14615522e-01f,+1.71909899e-01f,+7.85533488e-02f,+1.31235093e-01f,-1.29603505e-01f,
+1.57694966e-02f,-4.19933796e-02f,-6.74612075e-02f,+1.42678082e-01f,+1.50191665e-01f,
-7.65766054e-02f,+1.80548429e-02f,-1.74974233e-01f,+4.08276021e-02f,+7.27175176e-03f,
+8.09091032e-02f,-9.46152210e-03f,-2.88133621e-02f,-1.40473932e-01f,-5.43213040e-02f,
-1.40358508e-01f,+1.42631948e-01f,+1.30173415e-01f,+4.55081761e-02f,-7.39471987e-02f,
-1.40234545e-01f,-1.90344915e-01f,-9.55782831e-02f,-3.61828953e-02f,+1.52972877e-01f,
+1.25393569e-01f,+1.40742630e-01f,+1.56595528e-01f,-9.94551405e-02f,+9.61616635e-04f,
-1.08657569e-01f,+1.01471335e-01f,+1.32212341e-01f,+1.14050806e-01f,-9.44724306e-02f,
+1.14836395e-01f,-1.04777336e-01f,-8.82633179e-02f,-1.63294300e-01f,+4.52905893e-02f,
+1.00694001e-02f,-8.14537257e-02f,+1.14164114e-01f,-1.29106104e-01f,+6.20481074e-02f,
+1.79141968e-01f,-1.50083855e-01f,-9.22894925e-02f,-1.16533123e-01f,-1.01220310e-02f,
-1.29351273e-01f,-5.66229522e-02f,+1.64126635e-01f,+3.91725153e-02f,+1.28816634e-01f,
-1.89557627e-01f,+3.91170681e-02f,-5.21415472e-03f,-6.18469417e-02f,+1.56194299e-01f,
+6.44421875e-02f,+9.71941352e-02f,+1.82435095e-01f,+1.36557281e-01f,-5.71864843e-03f,
-1.34889677e-01f,-4.90287095e-02f,+1.03089064e-01f,+5.96281588e-02f,+7.77958930e-02f,
+1.21955782e-01f,+2.35928744e-02f,+1.30045414e-02f,-1.04185581e-01f,-2.74486840e-03f,
-1.47533685e-01f,-5.02549261e-02f,-1.16359293e-01f,-5.84533364e-02f,+9.49206054e-02f,
+3.65456492e-02f,+1.45667702e-01f,-1.68274149e-01f,-2.19260156e-02f,+6.09945655e-02f,
-1.74437553e-01f,+3.81870270e-02f,-1.01101875e-01f,-1.73037887e-01f,+1.99079961e-02f,
-3.71469259e-02f,+1.71550155e-01f,+8.45794380e-03f,-1.24066055e-01f,-3.22105587e-02f,
+9.15425122e-02f,-1.14394456e-01f,-4.51010168e-02f,-1.63100109e-01f,+4.85612750e-02f,
-1.84424311e-01f,+3.73988152e-02f,+1.73645139e-01f,-1.20089151e-01f,+8.51142704e-02f,
+1.82425112e-01f,+1.37606382e-01f,+1.31048262e-03f,-1.20320924e-01f,-8.61113518e-02f,
-5.41322380e-02f,+5.67634106e-02f,+1.17770761e-01f,-1.87658116e-01f,+7.56452680e-02f,
+1.73194200e-01f,+1.42512769e-01f,-1.18193939e-01f,-1.57594234e-02f,+1.12655938e-01f,
+1.34581625e-01f,-1.43241853e-01f,+1.00993603e-01f,+1.57286853e-01f,+1.61493927e-01f,
+6.16347492e-02f,+1.81935728e-01f,+1.72634423e-02f,+7.70822167e-02f,-9.96136665e-03f,
-1.10808745e-01f,+1.50525928e-01f,+5.56842238e-02f,-6.70560747e-02f,+1.64840281e-01f,
-1.32250264e-01f,-1.24260619e-01f,+1.27319634e-01f,+1.01263702e-01f,+2.79133320e-02f,
-1.89185455e-01f,-1.28201514e-01f,+8.94232392e-02f,+7.49908984e-02f,-6.98503405e-02f,
-6.37818575e-02f,-1.81513965e-01f,-5.47101051e-02f,+1.16627455e-01f,+5.34301400e-02f,
-1.29744738e-01f,+3.14064324e-03f,+1.63553834e-01f,-4.37900275e-02f,+1.08436704e-01f,
+1.57189131e-01f,-6.64591938e-02f,-1.40027016e-01f,+3.63739431e-02f,+6.02222681e-02f,
-1.60866618e-01f,+3.86681557e-02f,+1.03268147e-01f,+5.20777851e-02f,+7.03845322e-02f,
-3.45869362e-03f,+8.99128616e-02f,-8.11296105e-02f,-1.24069750e-01f,+1.61448807e-01f,
+4.45534885e-02f,-1.38677239e-01f,+1.13157958e-01f,+1.33342177e-01f,+1.63978249e-01f,
-4.21863347e-02f,+8.25582445e-02f,+1.14119023e-01f,+1.27055585e-01f,+1.46248788e-01f,
-8.97808224e-02f,-5.07576615e-02f,+9.85111296e-03f,-1.10184856e-01f,-5.38213849e-02f,
+1.43869251e-01f,+1.32702202e-01f,-3.58881056e-02f,+9.59841907e-03f,+9.57933068e-02f,
-1.26640469e-01f,+2.93915421e-02f,+8.52211118e-02f,-7.33830556e-02f,+1.74026728e-01f,
+4.50024009e-02f,-4.02288735e-02f,+1.73926145e-01f,+7.28179812e-02f,+1.84197396e-01f,
+7.54937828e-02f,+7.67317414e-02f,-5.13432920e-03f,+1.23602450e-02f,+1.70609772e-01f,
+1.44757777e-02f,-1.85277700e-01f,+1.19797051e-01f,+1.52444035e-01f,+1.29853636e-01f,
-1.70720577e-01f,-8.86787996e-02f,+4.91990298e-02f,+1.66405201e-01f,-1.15840487e-01f,
-8.24103132e-02f,-8.62440914e-02f,+7.10214376e-02f,-1.46794647e-01f,-1.48479968e-01f,
+1.45982832e-01f,+1.25287205e-01f,-1.35104418e-01f,-3.10370326e-03f,-1.35248229e-01f,
+1.24613822e-01f,-5.56879193e-02f,+1.09263390e-01f,-7.32596442e-02f,-1.63639188e-02f,
-3.40395719e-02f,+4.15490568e-02f,+1.63202614e-01f,+1.38623834e-01f,+1.91427231e-01f,
-1.21275038e-02f,-1.26633361e-01f,+6.04548454e-02f,-3.79718840e-02f,+1.07222259e-01f,
-6.53965920e-02f,+1.91668957e-01f,-1.72392577e-02f,+2.06160545e-03f,+8.79494250e-02f,
+9.39277709e-02f,-1.91404641e-01f,-1.15806185e-01f,-1.12522095e-02f,-3.22026163e-02f,
+9.82964635e-02f,+1.52869582e-01f,+1.81213826e-01f,+1.66816294e-01f,+6.98310435e-02f,
-1.33139625e-01f,-5.49835116e-02f,+6.15299046e-02f,-1.46902636e-01f,+5.09209633e-02f,
-5.70025146e-02f,+4.60778624e-02f,+4.82359231e-02f,+1.60246432e-01f,-3.60613316e-02f,
-4.24849093e-02f,-9.25287381e-02f,+1.83363378e-01f,+1.19704932e-01f,-5.63536882e-02f,
+1.12307370e-01f,-1.36746168e-01f,-7.15618506e-02f,+2.27011740e-03f,-9.15176719e-02f,
-1.76807344e-01f,-2.74607241e-02f,-1.78321347e-01f,+1.08718663e-01f,-1.77632496e-01f,
-1.13278359e-01f,-9.33256298e-02f,+1.79280281e-01f,+2.99113989e-03f,+2.01357901e-02f,
-1.28198504e-01f,-1.67595446e-02f,-1.83639571e-01f,-1.17180005e-01f,-4.24226671e-02f,
-1.39947563e-01f,+2.87537128e-02f,+1.92550927e-01f,-1.89908370e-01f,-8.05141702e-02f,
-1.59966588e-01f,-4.72927690e-02f,-5.86521029e-02f,+1.93700194e-03f,-1.70235038e-02f,
+1.88366771e-02f,+5.45267165e-02f,+9.23437774e-02f,+1.22679025e-02f,-1.86745763e-01f,
+1.56169832e-01f,+1.72110379e-01f,+1.31738603e-01f,+5.79034686e-02f,-1.33552104e-01f,
-7.76448771e-02f,+1.68979108e-01f,+1.76194042e-01f,+1.54202700e-01f,+9.72959697e-02f,
-1.16222821e-01f,-1.15877196e-01f,-1.38349071e-01f,+8.43656063e-03f,+5.35530448e-02f,
-1.10542580e-01f,+6.14016354e-02f,-2.09663808e-02f,+1.85680389e-03f,+2.35449076e-02f,
-1.84440464e-02f,+6.21728599e-03f,-7.27599487e-02f,+1.18598431e-01f,+8.26925337e-02f,
-9.87576172e-02f,+1.56295896e-02f,-1.53250754e-01f,-1.34292707e-01f,+1.87589616e-01f,
+1.59437984e-01f,+1.76873654e-01f,-1.77868694e-01f,+1.34967297e-01f,-1.81269169e-01f,
-1.11801393e-01f,+1.76165819e-01f,+1.63276494e-01f,+4.18101400e-02f,+1.06738895e-01f,
+1.80099607e-01f,+1.44974291e-02f,-1.54389143e-02f,-1.84460551e-01f,+1.37505889e-01f,
-1.08298689e-01f,-3.15410644e-02f,+7.99049139e-02f,-1.22716658e-01f,+2.75905579e-02f,
-1.09998517e-01f,-1.18728116e-01f,+2.46429592e-02f,+1.62676126e-02f,-8.74434412e-02f,
+1.78781569e-01f,+9.49289501e-02f,+1.67544186e-03f,-5.66949248e-02f,-1.09649241e-01f,
+2.35369205e-02f,+2.86329836e-02f,+2.40689367e-02f,+1.02583319e-01f,-9.06948820e-02f,
+1.38364822e-01f,+7.79257119e-02f,-8.32977816e-02f,-1.60469875e-01f,+1.91365272e-01f,
-1.34206831e-01f,+1.48348212e-01f,+1.53151751e-02f,+5.24368882e-02f,+1.15936786e-01f,
+9.99872088e-02f,-6.83754981e-02f,-2.89847851e-02f,-2.69773602e-03f,-6.41531646e-02f,
+9.02474523e-02f,+1.32428795e-01f,+1.71029598e-01f,+1.54748410e-01f,+6.62117302e-02f,
-1.21332407e-01f,+1.65948927e-01f,+9.64689255e-03f,+1.67013586e-01f,+4.00912017e-02f,
+1.68158323e-01f,+1.43589973e-01f,-1.50989294e-02f,-1.47258505e-01f,+1.75702453e-01f,
-6.25278950e-02f,+4.27884310e-02f,-1.76802918e-01f,+1.67258739e-01f,+7.82322288e-02f,
-8.11774880e-02f,+1.30608797e-01f,-1.27485380e-01f,+1.36909097e-01f,-1.50825515e-01f,
-1.84235290e-01f,-1.81104481e-01f,-1.12987027e-01f,-1.14051417e-01f,-1.79327518e-01f,
+1.70014620e-01f,+1.71443701e-01f,-1.59951121e-01f,-1.76274687e-01f,+2.23192424e-02f,
+1.77997559e-01f,-4.59514558e-02f,-1.56881362e-02f,+7.99992085e-02f,+4.31037098e-02f,
-1.82808012e-01f,+1.90518737e-01f,+2.41082162e-02f,-1.91569462e-01f,+1.67077541e-01f,
-1.14381626e-01f,+5.29822707e-03f,-1.79832384e-01f,+2.25062221e-02f,-8.25642422e-02f,
-1.55676603e-01f,-1.18023016e-01f,+2.46268511e-03f,+1.54248327e-02f,-2.53691077e-02f,
+1.16523981e-01f,+1.03090852e-01f,-1.49583146e-01f,+1.39789253e-01f,+9.18976068e-02f,
+6.79216683e-02f,-2.20745802e-03f,-5.18763959e-02f,-1.34963825e-01f,-1.68980032e-01f,
+2.59537548e-02f,-1.07539430e-01f,-1.29076242e-02f,-1.95252001e-02f,-9.01042372e-02f,
-1.10301249e-01f,+1.06228590e-01f,+1.83087558e-01f,+1.40527070e-01f,-1.88232511e-01f,
+3.43042165e-02f,+4.37584966e-02f,+1.56845629e-01f,+4.27243412e-02f,+8.51069391e-02f,
+1.59526497e-01f,-1.28695428e-01f,+6.19968772e-03f,+1.75833315e-01f,-1.15106210e-01f,
+2.53238678e-02f,+7.78882205e-02f,-1.52534634e-01f,-1.13489352e-01f,+1.33109540e-02f,
-1.72382504e-01f,+4.35325354e-02f,-5.69578111e-02f,+1.76198751e-01f,-6.49145842e-02f,
-5.00023663e-02f,-2.08279639e-02f,-2.18664557e-02f,+9.76513326e-03f,+5.83344102e-02f,
-1.84458151e-01f,+1.17250919e-01f,-1.88527584e-01f,+5.71217537e-02f,+7.23867714e-02f,
-1.62344456e-01f,-6.87995255e-02f,+1.26892388e-01f,+1.15447223e-01f,-7.41875097e-02f,
+1.22426540e-01f,-2.43653804e-02f,-7.54420310e-02f,+6.58256114e-02f,+1.95471346e-02f,
+4.67087328e-02f,+1.69768989e-01f,+3.79950553e-02f,+1.71154678e-01f,+1.25006288e-01f,
-1.21825129e-01f,-1.37872145e-01f,-1.21596031e-01f,+1.38607115e-01f,-1.34189337e-01f,
-3.28123868e-02f,+3.84010226e-02f,-1.52573586e-01f,+7.24128485e-02f,+5.53256273e-02f,
-1.77961543e-01f,+1.65514082e-01f,-4.56155241e-02f,+8.18046629e-02f,+1.64929986e-01f,
-1.70255795e-01f,-4.81041521e-02f,-1.81185052e-01f,-8.25253129e-03f,-1.57910109e-01f,
-9.11773592e-02f,+5.55719882e-02f,-1.75390780e-01f,-2.00346857e-02f,+3.74016911e-02f,
-1.04316935e-01f,+2.28922069e-03f,+1.90691471e-01f,+1.10958338e-01f,-1.37101844e-01f,
-1.43082142e-01f,-1.39957532e-01f,+8.56668353e-02f,-8.16185772e-03f,-1.73492000e-01f,
-1.00943930e-01f,-7.05032051e-03f,+1.79034472e-02f,-2.01947540e-02f,-5.52339852e-02f,
-1.25197589e-01f,-4.32800353e-02f,+1.62241578e-01f,-1.02673300e-01f,+1.07019991e-01f,
-7.70159513e-02f,+8.78395736e-02f,-7.14134574e-02f,-1.78405792e-01f,+8.16164613e-02f,
+1.18472397e-01f,+8.78814459e-02f,+1.28343165e-01f,+6.10831678e-02f,+6.14812970e-03f,
-8.59249234e-02f,+1.42856151e-01f,+1.87182873e-02f,+5.49620390e-02f,-1.71723798e-01f,
-6.48228526e-02f,+1.26913786e-01f,-8.80980790e-02f,+1.83737159e-01f,-1.86266571e-01f,
-4.46237624e-03f,+1.83025002e-01f,+1.29494578e-01f,-1.24430105e-01f,-1.77338719e-04f,
-5.00252247e-02f,+7.37194419e-02f,-1.08904526e-01f,-9.33570713e-02f,-6.10750765e-02f,
-5.70954531e-02f,+4.06151265e-02f,-3.29558253e-02f,+7.23902583e-02f,+3.58083248e-02f,
-1.35976613e-01f,+3.02864909e-02f,+6.74044192e-02f,+7.17784464e-03f,-1.22821607e-01f,
+4.09448743e-02f,+8.04693997e-03f,+1.79508120e-01f,-1.02319084e-01f,-1.06808431e-01f,
+9.85932052e-02f,-4.57684845e-02f,-1.08339094e-01f,+2.15853304e-02f,+8.89535248e-03f,
-7.68018663e-02f,-1.29997462e-01f,-1.42630190e-01f,-1.93163425e-01f,+9.97567177e-03f,
+1.49804205e-01f,+1.59860492e-01f,+2.17874646e-02f,+6.54743016e-02f,+1.86351895e-01f,
+8.19272995e-02f,+1.45391911e-01f,-1.83516711e-01f,+1.69572979e-02f,+1.83014661e-01f,
+8.87832046e-03f,+7.24882782e-02f,-6.97504804e-02f,+1.32682949e-01f,+4.83445674e-02f,
+8.11350644e-02f,-1.57235697e-01f,-1.50437057e-02f,+9.74754989e-03f,-1.92935675e-01f,
+1.71485245e-01f,+1.86664134e-01f,+1.79308265e-01f,+1.39482319e-01f,-1.30731225e-01f,
+1.23703122e-01f,+6.47209585e-02f,-1.87298357e-02f,-5.03335893e-02f,-4.63833213e-02f,
+8.56325626e-02f,+4.31406945e-02f,+1.35817677e-01f,+1.89796090e-02f,+1.09326839e-01f,
-3.13795060e-02f,+4.23531383e-02f,-1.72977954e-01f,-1.50870204e-01f,-1.55219242e-01f,
-9.88055393e-02f,-1.10818811e-01f,+6.77254498e-02f,+4.11750227e-02f,-8.62736851e-02f,
+1.77901238e-01f,+1.14915758e-01f,-4.09005582e-02f,-1.60480961e-01f,-1.23156309e-02f,
+1.41761571e-01f,+1.38121784e-01f,+8.99150670e-02f,+1.45995617e-01f,-2.14516670e-02f,
-1.45411447e-01f,+1.83723003e-01f,-6.02796227e-02f,-1.44820064e-02f,-1.73923776e-01f,
+1.37742966e-01f,+3.73271257e-02f,-2.78428346e-02f,+7.75647759e-02f,-9.64197740e-02f,
-1.94917768e-02f,-3.08649093e-02f,-7.14955479e-02f,+2.26251185e-02f,-1.71564192e-01f,
+5.41250855e-02f,-1.64283067e-01f,-8.53375047e-02f,-1.49254650e-02f,+2.58423984e-02f,
-8.03686008e-02f,-2.00203657e-02f,+6.21951520e-02f,-8.89317617e-02f,-1.21609285e-01f,
-7.78537020e-02f,+6.89444840e-02f,+1.32985890e-01f,+5.73818982e-02f,-1.09743476e-01f,
-1.05999261e-01f,+1.43567294e-01f,+2.56579071e-02f,+1.17342860e-01f,-1.65324286e-01f,
-3.95505130e-02f,-6.09387904e-02f,+1.79145515e-01f,-1.54685944e-01f,-4.37867641e-03f,
+1.81801319e-01f,+3.67431641e-02f,+4.38131988e-02f,-8.33671764e-02f,+8.46488774e-02f,
-5.81495017e-02f,+3.88854742e-02f,+1.01492435e-01f,-5.71939796e-02f,-5.88782132e-03f,
+4.32523340e-02f,-1.11613296e-01f,-1.27401203e-02f,+2.27909982e-02f,-1.66640997e-01f,
+1.48961425e-01f,+1.90791041e-02f,+8.44459236e-02f,-1.52478620e-01f,+3.66758555e-02f,
-1.30295753e-01f,-1.54173180e-01f,-1.61533296e-01f,-7.10538477e-02f,+3.01969200e-02f,
+7.27640986e-02f,+1.66953802e-01f,-1.17156968e-01f,+3.27354223e-02f,-3.74080092e-02f,
-9.84491110e-02f,-1.83276445e-01f,+1.87878668e-01f,-2.32460499e-02f,+1.16165847e-01f,
+1.13192052e-02f,+9.08637345e-02f,+1.72507107e-01f,+9.70010459e-02f,-8.96041319e-02f,
-9.41384882e-02f,+2.91516930e-02f,-2.85305083e-03f,+9.85077918e-02f,+1.63213640e-01f,
-1.67110592e-01f,-1.40031263e-01f,+8.28594863e-02f,+7.78548419e-02f,+8.95704329e-02f,
-1.87367484e-01f,+1.77499026e-01f,-4.50481474e-03f,-8.11339989e-02f,+1.72461569e-03f,
+3.37222070e-02f,+1.57252282e-01f,-1.82893187e-01f,-1.39712512e-01f,+1.74580097e-01f,
+3.17739397e-02f,-2.20848918e-02f,-8.27821121e-02f,-9.97647569e-02f,+4.59442586e-02f,
-1.77237689e-01f,+9.06439722e-02f,+1.67953372e-02f,-1.50275409e-01f,-1.70853287e-02f,
-2.48152167e-02f,+1.76145196e-01f,-1.36109754e-01f,-1.76128834e-01f,+1.43123835e-01f,
-4.39972878e-02f,+8.56390297e-02f,+2.21744478e-02f,-8.65826085e-02f,+1.05530083e-01f,
+7.69179463e-02f,-8.49912837e-02f,-1.22096881e-01f,-6.10665828e-02f,+1.22299016e-01f,
+3.08779776e-02f,-9.12553817e-02f,+1.39158785e-01f,+1.47660643e-01f,-2.92156637e-03f,
-1.78517237e-01f,-1.56907529e-01f,-1.03262007e-01f,-1.00978047e-01f,-5.60998917e-02f,
+1.29958093e-02f,-8.04019347e-02f,-4.59267050e-02f,+1.50451809e-01f,+3.52970511e-02f,
-6.63686097e-02f,+6.00193143e-02f,+5.10205477e-02f,+1.24141604e-01f,-2.03764439e-03f,
+5.65525293e-02f,+1.90756291e-01f,-7.88254738e-02f,-1.16114140e-01f,+1.09971225e-01f,
-1.51410863e-01f,+4.01585996e-02f,+1.24414235e-01f,+1.17461652e-01f,+4.00345027e-02f,
-1.73845991e-01f,-3.75236124e-02f,+6.55697286e-02f,+1.59297645e-01f,-1.75921023e-01f,
-1.30364046e-01f,-7.13544115e-02f,-8.18720236e-02f,-1.47629529e-02f,-5.04361391e-02f,
-1.05454460e-01f,+1.90348506e-01f,-9.27821621e-02f,-1.35039955e-01f,+1.04567766e-01f,
-1.50329247e-01f,-1.36909142e-01f,-1.14397734e-01f,-6.59918189e-02f,-2.92613953e-02f,
+1.65620089e-01f,-1.83440939e-01f,+1.73282981e-01f,-2.25087702e-02f,-4.54474688e-02f,
-4.04230654e-02f,-1.18558109e-03f,+1.41035020e-02f,+9.48019028e-02f,+1.00582272e-01f,
+1.24786705e-01f,+4.45922166e-02f,-1.63053021e-01f,-1.74900591e-01f,-6.10247552e-02f,
+1.03157848e-01f,-7.00404719e-02f,-1.12150021e-01f,+1.75590307e-01f,-9.68510434e-02f,
+1.68316483e-01f,+1.30813956e-01f,-1.92328498e-01f,+1.27851099e-01f,+1.38393432e-01f,
-1.71389282e-02f,-1.20760873e-01f,-1.39984399e-01f,-1.16811156e-01f,+5.74207604e-02f,
-1.67797863e-01f,-7.03595951e-02f,+5.88349700e-02f,-5.31567633e-02f,-1.32546306e-01f,
+2.15803385e-02f,-1.59681216e-01f,-5.55887520e-02f,+2.10250169e-02f,-1.80367813e-01f,
+5.19448668e-02f,-5.93936294e-02f,-6.24241084e-02f,-9.41342860e-02f,-1.87770218e-01f,
+7.64669180e-02f,-9.24319029e-04f,-1.68791533e-01f,+6.50047660e-02f,+1.16250992e-01f,
-1.37435883e-01f,+6.89900219e-02f,+3.40313464e-02f,-1.27450794e-01f,-2.01998353e-02f,
-8.69622603e-02f,+1.47345513e-02f,+1.12651229e-01f,+3.54416519e-02f,-1.71863467e-01f,
+1.84564680e-01f,+1.86020404e-01f,+1.22988611e-01f,+4.47587520e-02f,-1.81975991e-01f,
-9.26906094e-02f,-1.63020328e-01f,+1.48876190e-01f,+1.24256223e-01f,-1.23269357e-01f,
-1.31148279e-01f,+6.72642589e-02f,+1.06917173e-02f,-5.99165261e-03f,-7.73901567e-02f,
+1.63345426e-01f,-1.54284358e-01f,+2.66415924e-02f,-9.88202170e-02f,-3.03499699e-02f,
+8.31398964e-02f,+1.60720289e-01f,-1.86124280e-01f,-1.49256036e-01f,+9.75500047e-02f,
+1.33653015e-01f,+1.82635605e-01f,-1.83603466e-02f,-1.16274357e-02f,-1.49438083e-01f,
+4.96090055e-02f,+1.91679388e-01f,-9.42598656e-02f,-7.06364289e-02f,+1.40079975e-01f,
+6.35562241e-02f,+4.42680269e-02f,-1.28544867e-03f,-1.26927555e-01f,+1.28322005e-01f,
-1.90525249e-01f,-3.81338000e-02f,+1.29260868e-02f,+5.52144945e-02f,+1.69438869e-01f,
-1.28454387e-01f,-2.98904032e-02f,+1.74689978e-01f,+2.99351364e-02f,+7.16926157e-03f,
-4.23324108e-03f,+3.86099815e-02f,-1.45500094e-01f,+8.35324526e-02f,-1.40201539e-01f,
+2.91504860e-02f,+8.74738395e-03f,-8.08584616e-02f,+6.19415045e-02f,-4.29745764e-02f,
-2.57723033e-02f,-1.40153289e-01f,-4.39207852e-02f,-1.53007716e-01f,-2.68217474e-02f,
+2.63197869e-02f,+6.88964427e-02f,+5.76339364e-02f,+8.75942409e-03f,+1.40511602e-01f,
-4.94613051e-02f,-1.10561848e-02f,-1.82046622e-01f,-2.25979686e-02f,-1.04852460e-01f,
+1.83135271e-02f,-4.18204069e-03f,-1.39612049e-01f,+9.73287225e-02f,+6.29490018e-02f,
+3.28026414e-02f,-1.25899360e-01f,+1.05556995e-02f,+1.15205348e-01f,+1.05991364e-01f,
+5.78939617e-02f,+9.12796259e-02f,-4.74810004e-02f,+7.03998506e-02f,+8.27877522e-02f,
+2.94720680e-02f,+1.89228207e-02f,+1.62967712e-01f,+1.73540562e-01f,+1.91051543e-01f,
+1.63319707e-03f,+1.47148937e-01f,+5.05795777e-02f,+1.34768486e-02f,+1.45837396e-01f,
-1.25274315e-01f,+1.05728626e-01f,-1.24035448e-01f,+1.18604153e-01f,+3.98859382e-04f,
-1.57845736e-01f,+3.06705832e-02f,+1.69850141e-01f,-5.80355972e-02f,-1.29023373e-01f,
+7.41017759e-02f,+8.38766694e-02f,+1.74721330e-02f,+5.40392101e-02f,-1.47989988e-02f,
+1.03897303e-01f,-1.68060437e-01f,-1.59455895e-01f,-1.89511314e-01f,-6.50492311e-03f,
-1.78482383e-01f,+1.28470272e-01f,-8.09619725e-02f,+2.43780017e-03f,+5.43874651e-02f,
-1.02587931e-01f,-1.93181977e-01f,-1.60571083e-01f,+6.97255433e-02f,+1.41693592e-01f,
-7.17634261e-02f,+1.56768143e-01f,+8.72014463e-03f,+4.53744233e-02f,-6.84441626e-02f,
+1.70022190e-01f,-1.36775568e-01f,+4.70580459e-02f,+1.06996953e-01f,-8.47701728e-02f,
-1.61553890e-01f,-1.26520753e-01f,+6.91542029e-02f,-1.15985326e-01f,+1.48258865e-01f,
+1.66221559e-02f,-7.42362216e-02f,+1.65020108e-01f,-5.52482456e-02f,-7.85158649e-02f,
+1.15816355e-01f,-1.70571059e-02f,+1.76485926e-01f,+1.83398366e-01f,+1.73711389e-01f,
+9.79142785e-02f,-5.84640056e-02f,+1.59256548e-01f,-1.03886776e-01f,+5.69657683e-02f,
+1.13580167e-01f,-4.12404537e-02f,+1.63923770e-01f,+7.66101480e-03f,+1.35379642e-01f,
-1.32200629e-01f,+1.75833732e-01f,-1.25225782e-01f,-1.66476682e-01f,-1.32569849e-01f,
+3.10518444e-02f,+6.62007332e-02f,-1.66819170e-01f,-1.79640040e-01f,+1.59373313e-01f,
+1.60873443e-01f,-2.82968134e-02f,+1.47420645e-01f,+8.69491100e-02f,-4.25591469e-02f,
-7.60874152e-03f,+1.41629457e-01f,-6.08592331e-02f,-8.86685029e-02f,+1.93579674e-01f,
+6.85442984e-03f,-1.45212919e-01f,-1.86915845e-01f,-1.23052821e-01f,+4.19279635e-02f,
+1.64825112e-01f,+9.14563239e-02f,+1.07510865e-01f,+1.41453832e-01f,+4.50235605e-03f,
+1.73999786e-01f,+1.72975183e-01f,-1.87448651e-01f,+3.43679786e-02f,+1.97940022e-02f,
+1.44020140e-01f,-1.28536344e-01f,+1.67726994e-01f,+1.33855939e-01f,+1.87361240e-03f,
+6.48446083e-02f,+7.93359578e-02f,+1.19875938e-01f,+1.73661828e-01f,-1.75052673e-01f,
+5.21715581e-02f,+1.32925391e-01f,+1.16705149e-01f,-4.60871011e-02f,-1.73017755e-01f,
+2.88439244e-02f,-1.20694160e-01f,-6.15328103e-02f,-1.13912910e-01f,+5.52263260e-02f,
+1.87861353e-01f,+1.38015211e-01f,-1.91238105e-01f,-5.17418534e-02f,-8.18096474e-02f,
-7.17400610e-02f,+1.25466645e-01f,-1.73311070e-01f,+1.45880103e-01f,+1.27708435e-01f,
-7.95808583e-02f,+1.66861504e-01f,+7.77795017e-02f,+1.73034191e-01f,+6.86351955e-02f,
+6.95023537e-02f,+2.02991366e-02f,-9.87469926e-02f,-1.86586380e-02f,-7.54292905e-02f,
-9.63506997e-02f,-1.03311963e-01f,-1.47805572e-01f,-3.58749032e-02f,-5.45514077e-02f,
+1.29795074e-02f,-1.30327255e-01f,-1.18606880e-01f,-7.44253322e-02f,-1.06399782e-01f,
-7.28418529e-02f,-1.61161959e-01f,+1.10140532e-01f,-1.47206664e-01f,+1.90586001e-01f,
-1.38064027e-01f,+1.59089267e-01f,+2.95630693e-02f,+2.42582262e-02f,-1.57311887e-01f,
-5.10796010e-02f,+9.98441577e-02f,-5.83259165e-02f,+4.84317243e-02f,+3.04458737e-02f,
-4.19280082e-02f,+7.35632479e-02f,-1.51602790e-01f,+1.35074586e-01f,-7.27911592e-02f,
-2.85156071e-02f,-8.37710649e-02f,+8.75337422e-02f,-6.30417168e-02f,-1.04738556e-01f,
+2.00136304e-02f,+3.47208977e-03f,+1.49796575e-01f,-8.57589468e-02f,+1.69533104e-01f,
-5.88336885e-02f,-9.95906070e-02f,-1.48255974e-02f,-1.17567137e-01f,+1.73890531e-01f,
+1.87360406e-01f,-1.27440691e-01f,+1.84829414e-01f,+6.55747056e-02f,-5.10944426e-03f,
-1.64107263e-01f,+1.88864887e-01f,-6.04245961e-02f,+5.49323559e-02f,-1.12944782e-01f,
+1.10451728e-01f,+2.96059549e-02f,-1.10593967e-01f,-6.42376989e-02f,-1.30245477e-01f,
+1.40650958e-01f,+1.13610178e-01f,-1.59207508e-01f,+5.33232093e-02f,-1.80182204e-01f,
+2.89219469e-02f,-4.64112610e-02f,-5.30983210e-02f,-1.67886093e-01f,+1.48857534e-01f,
-1.91696346e-01f,+4.27908301e-02f,+2.17737556e-02f,-7.22733214e-02f,+1.67647362e-01f,
+1.18936479e-01f,+1.82059079e-01f,-5.40135354e-02f,-1.57347977e-01f,+4.42570746e-02f,
-9.60536450e-02f,-1.42872334e-03f,-1.71584874e-01f,-1.56674981e-02f,+9.24364030e-02f,
+1.72036737e-01f,+5.72460592e-02f,-3.96022648e-02f,-1.59627557e-01f,+6.59617186e-02f,
-4.69516218e-03f,-1.16123095e-01f,-1.75411373e-01f,+1.90555483e-01f,+2.19528824e-02f,
-8.28969479e-03f,+1.19312346e-01f,+9.00334120e-03f,+1.50535166e-01f,-1.27460077e-01f,
+1.51670933e-01f,-1.91454828e-01f,+1.61279917e-01f,+7.46898949e-02f,-1.87241763e-01f,
-1.39177218e-01f,+7.04035461e-02f,-1.85406804e-02f,+1.50306910e-01f,+8.23244452e-02f,
+8.07934105e-02f,-1.69781864e-01f,-7.62939528e-02f,+1.34843081e-01f,-1.78000733e-01f,
-8.59897882e-02f,+1.85479432e-01f,+1.92007720e-01f,+8.95484984e-02f,+3.75275463e-02f,
+3.30761522e-02f,+1.18231058e-01f,+4.82860208e-02f,+1.20030195e-01f,-8.40712637e-02f,
+1.39220983e-01f,+1.68322265e-01f,+8.91079009e-02f,+9.02619064e-02f,+3.52998078e-03f,
-1.00845814e-01f,+3.21295857e-02f,+1.60218686e-01f,+1.52262777e-01f,-9.72464681e-04f,
-3.38731706e-03f,-1.03624575e-01f,+1.21273398e-01f,-1.34172440e-02f,-1.33982822e-01f,
-1.11752957e-01f,-9.87489372e-02f,-1.61830783e-02f,+2.11372972e-03f,-7.47946426e-02f,
-1.57148629e-01f,+1.43870205e-01f,-1.58407807e-01f,+1.91522419e-01f,-1.37717798e-01f,
-9.00261626e-02f,-1.50280997e-01f,-4.54500020e-02f,-3.78616303e-02f,-5.64035028e-02f,
+8.35390985e-02f,+1.16539955e-01f,-1.44512504e-02f,-1.89582139e-01f,+6.53585792e-03f,
+3.56292278e-02f,+4.64157313e-02f,-1.49185807e-01f,-5.16636670e-03f,-1.05739325e-01f,
+1.83085352e-01f,+1.52071118e-01f,-8.93674195e-02f,-1.87570125e-01f,+1.68203324e-01f,
+1.56420380e-01f,+2.89666504e-02f,+1.36995971e-01f,-1.41513765e-01f,+1.61533862e-01f,
-3.38535011e-02f,+1.73926771e-01f,+1.42901242e-01f,+1.79647475e-01f,-1.75918728e-01f,
+1.70106530e-01f,+1.79049194e-01f,-1.32855684e-01f,+1.91329896e-01f,-6.50088638e-02f,
+2.00379193e-02f,-7.59877563e-02f,-6.35315776e-02f,+6.36232793e-02f,+1.13700658e-01f,
+9.86258984e-02f,+1.52868658e-01f,+1.00424796e-01f,+4.15339470e-02f,-1.13920577e-01f,
+3.35455984e-02f,+8.32772851e-02f,+1.37918681e-01f,-1.70504972e-01f,-8.82890821e-03f,
-3.56043428e-02f,+1.91176146e-01f,+1.92194581e-02f,-7.12816939e-02f,-1.73988745e-01f,
-1.69744194e-02f,-7.94585496e-02f,-8.70120302e-02f,+6.92251623e-02f,-4.10941839e-02f,
-7.29920864e-02f,-1.59711361e-01f,+9.11221504e-02f,-1.67787760e-01f,+6.44533932e-02f,
+6.24303818e-02f,-8.01867396e-02f,-1.38497084e-01f,+1.41619861e-01f,+1.43674582e-01f,
-8.12459141e-02f,-1.50777832e-01f,+7.86083341e-02f,+2.40340829e-03f,-1.33905113e-02f,
+1.19111270e-01f,-1.82434544e-01f,-1.80297583e-01f,+8.66850615e-02f,-1.08076155e-01f,
+1.70982331e-01f,-1.65098339e-01f,-9.47730392e-02f,-6.93868101e-03f,+1.87364072e-01f,
-1.06352553e-01f,-1.85329795e-01f,-1.22820452e-01f,-1.91747352e-01f,+1.68983072e-01f,
+1.01665735e-01f,-5.89451343e-02f,+1.15541130e-01f,-1.48997664e-01f,-5.52324206e-02f,
-4.84026372e-02f,+1.45442277e-01f,-1.38002396e-01f,-1.28668100e-02f,-8.82794783e-02f,
-5.86961955e-02f,-1.48753062e-01f,+1.35463148e-01f,-1.45355210e-01f,-2.97930390e-02f,
-5.30193746e-02f,+2.33759731e-02f,-5.60664237e-02f,+1.49482489e-03f,-7.94485360e-02f,
-1.16715498e-01f,+5.92730045e-02f,-1.34561777e-01f,+1.51281685e-01f,+8.29332769e-02f,
+8.42788517e-02f,-4.34154123e-02f,+7.06880987e-02f,+1.75407588e-01f,+8.65811706e-02f,
-1.74162939e-01f,-5.14168292e-02f,+5.03592193e-02f,-1.26723439e-01f,-1.20327987e-01f,
-5.68638742e-03f,+1.38461947e-01f,+9.12965834e-03f,+7.79162049e-02f,-9.41842422e-02f,
+7.82436132e-02f,+1.76256508e-01f,+6.16070926e-02f,-8.50549489e-02f,-5.45891374e-02f,
+4.80410904e-02f,-1.54037952e-01f,-7.26924464e-02f,-1.50914490e-01f,-5.04734814e-02f,
-3.53415012e-02f,-1.65789902e-01f,-3.80289853e-02f,-2.98986286e-02f,-4.89261150e-02f,
+1.48537636e-01f,-4.41116840e-02f,-1.72891706e-01f,-1.47094041e-01f,+8.47109258e-02f,
-4.10372615e-02f,+4.56381440e-02f,+1.37076080e-02f,-6.82494193e-02f,-2.42059678e-02f,
-1.35842577e-01f,-6.29642904e-02f,-1.84526294e-02f,-2.49555260e-02f,+1.77027196e-01f,
-1.72433555e-02f,+1.92367584e-01f,+1.43320739e-01f,-1.19299330e-01f,+1.49055570e-01f,
+1.28684253e-01f,-2.78891325e-02f,+1.33882463e-03f,+2.74011195e-02f,+1.07779473e-01f,
-1.47089019e-01f,-1.39375985e-01f,-9.99787077e-02f,-2.51618177e-02f,+1.58414215e-01f,
-7.58317113e-03f,-1.28210559e-01f,-3.33848000e-02f,-1.03691019e-01f,+5.87874353e-02f,
-1.72870740e-01f,-2.08633393e-02f,+1.18785501e-01f,-2.07391381e-02f,-1.21292472e-03f,
-6.95115551e-02f,+1.82854772e-01f,+5.59400618e-02f,-2.48883963e-02f,+5.70611954e-02f,
+1.62407428e-01f,-3.78137827e-03f,+1.51258320e-01f,+7.29921758e-02f,-1.35693774e-01f,
-4.73023802e-02f,+1.02732062e-01f,+4.53159213e-03f,-1.77443892e-01f,+2.51590908e-02f,
+1.02237463e-01f,+1.15273476e-01f,+1.39735878e-01f,+9.38462317e-02f,-2.35365927e-02f,
+1.52635962e-01f,-8.54145661e-02f,+1.85550451e-02f,+1.06264323e-01f,+8.51749480e-02f,
-1.11013740e-01f,-1.07082404e-01f,-1.22580417e-01f,+1.68853551e-02f,-3.99265587e-02f,
+1.24887377e-01f,+1.85500205e-01f,-2.29282677e-03f,-4.58767563e-02f,-4.06216830e-02f,
+3.10694873e-02f,+1.16370112e-01f,-1.26170650e-01f,+1.89750940e-01f,-1.45567134e-01f,
-7.29396418e-02f,-1.10757403e-01f,-1.83248505e-01f,-3.52089107e-03f,-4.28073555e-02f,
-1.51568949e-01f,+7.91402161e-03f,-3.60497534e-02f,-1.16348259e-01f,+1.48325026e-01f,
-1.64179832e-01f,+1.06795281e-02f,-1.34428129e-01f,-7.08360150e-02f,+7.72386789e-02f,
-1.36438400e-01f,-7.96835348e-02f,+7.27356970e-02f,+7.72424042e-02f,+1.40050560e-01f,
+5.44414371e-02f,+1.84987843e-01f,-6.03331774e-02f,-2.97672302e-02f,-1.54324159e-01f,
-1.57895923e-01f,-1.21152714e-01f,+1.76407695e-01f,+9.82103646e-02f,-7.40466490e-02f,
+1.13168210e-01f,-1.83127597e-01f,-1.41984001e-01f,-1.79332137e-01f,-1.30475610e-02f,
+5.65083623e-02f,+9.20937657e-02f,+7.45703578e-02f,-6.14742637e-02f,+1.34900898e-01f,
-5.96982241e-03f,-1.15801200e-01f,-1.22918695e-01f,-1.37899011e-01f,+1.03815496e-02f,
-9.04083252e-03f,-3.91983986e-03f,+1.76002294e-01f,-1.21757582e-01f,-1.91554412e-01f,
-1.19044565e-01f,+1.16942316e-01f,-8.85444432e-02f,-1.84606612e-02f,+2.70945132e-02f,
+1.49214894e-01f,-5.56513071e-02f,+1.10290587e-01f,+1.38252258e-01f,-1.15116969e-01f,
-5.60066849e-02f,-2.64731050e-03f,+9.48706269e-03f,+1.72621340e-01f,+1.29477769e-01f,
+7.25258291e-02f,-8.19949210e-02f,+1.03333026e-01f,+8.96245241e-04f,-9.35021043e-03f,
-7.78448358e-02f,-2.13973224e-03f,-9.34138075e-02f,+1.34110332e-01f,+1.42978489e-01f,
+4.15502489e-03f,-1.35256961e-01f,-1.65072337e-01f,+7.69050419e-03f,+3.02244425e-02f,
-1.32178470e-01f,+5.28660864e-02f,-1.30093068e-01f,+5.17147630e-02f,-8.25645626e-02f,
+3.67807448e-02f,+4.42710519e-03f,+1.31274045e-01f,-1.65297270e-01f,+6.98133707e-02f,
-9.43750143e-04f,+1.13166541e-01f,+1.47763014e-01f,+6.20546043e-02f,-1.00222670e-01f,
+1.43373996e-01f,-1.86257750e-01f,+2.99413353e-02f,+2.84283459e-02f,+1.33008510e-02f,
+1.68879569e-01f,-3.55004221e-02f,+3.81795019e-02f,-1.07737221e-01f,+5.31985015e-02f,
-1.72901303e-02f,+4.84406948e-04f,+1.87270284e-01f,-3.11439931e-02f,-4.05537784e-02f,
+5.29624820e-02f,-8.51321444e-02f,-5.78546673e-02f,-6.74232095e-02f,-1.30653858e-01f,
+7.83451796e-02f,-8.77297372e-02f,-1.03736863e-01f,-1.72373921e-01f,+1.09974265e-01f,
+6.91112578e-02f,+4.58665937e-02f,-7.18159676e-02f,+1.07401013e-01f,-7.99052417e-03f,
-1.79522067e-01f,-1.61576003e-01f,-1.03572868e-01f,+1.19575500e-01f,-4.93880808e-02f,
+4.48234379e-02f,-1.56543165e-01f,-1.87512591e-01f,-1.02239817e-01f,-1.30808294e-01f,
+1.83153629e-01f,+1.25198692e-01f,+1.02952480e-01f,-9.97295305e-02f,-1.36192590e-01f,
+1.64235234e-01f,+6.65124357e-02f,+4.50848937e-02f,-1.60712600e-01f,-1.13913417e-01f,
-1.25992119e-01f,-9.41729546e-03f,-1.72213346e-01f,-5.40342629e-02f,+1.48901135e-01f,
+1.65161669e-01f,-6.82351440e-02f,-2.15420723e-02f,-7.96978027e-02f,-1.75365612e-01f,
+9.25529897e-02f,+1.71242148e-01f,+8.00153017e-02f,+3.04834545e-02f,-1.11773416e-01f,
-5.54393530e-02f,+3.96696776e-02f,-1.86869815e-01f,+8.67558718e-02f,-2.47288793e-02f,
+9.37380195e-02f,+2.85410583e-02f,+2.53968090e-02f,+3.25886905e-02f,-1.60166323e-01f,
+1.81650430e-01f,-4.54521179e-03f,-1.07812941e-01f,+7.25076795e-02f,-1.13091648e-01f,
+1.71144366e-01f,-8.48215595e-02f,+1.26933247e-01f,-8.84229243e-02f,+6.46968484e-02f,
+7.18028843e-03f,+1.76852882e-01f,+5.21947443e-03f,+1.55449122e-01f,+1.00525767e-01f,
+9.20137167e-02f,+1.34018272e-01f,-1.69900745e-01f,+1.53917342e-01f,-1.22566424e-01f,
+1.05838776e-01f,-9.72039998e-03f,+1.58131987e-01f,-1.01879537e-02f,-3.85810882e-02f,
+4.51167077e-02f,-1.46619752e-01f,+1.29218757e-01f,-1.45911559e-01f,-4.63262200e-04f,
+1.41893506e-01f,+1.72698855e-01f,+3.45411599e-02f,-3.85836661e-02f,-5.16643822e-02f,
+7.82415569e-02f,-1.91925436e-01f,+6.04584813e-02f,-7.83072412e-03f,+1.62594706e-01f,
+6.26488030e-02f,+1.29273832e-01f,+1.45609051e-01f,+5.58859408e-02f,+5.12089282e-02f,
-2.66080648e-02f,+6.03027046e-02f,-1.14771709e-01f,+1.10159039e-01f,-1.73962340e-01f,
+1.12980157e-02f,-5.39833009e-02f,-6.87326491e-03f,+1.22176796e-01f,+1.36608481e-01f,
+1.86856419e-01f,+1.26096457e-02f,-5.93859702e-02f,+1.71685576e-01f,-8.64988118e-02f,
-1.58446401e-01f,-2.60740221e-02f,+1.40701324e-01f,-1.42372891e-01f,-8.19090977e-02f,
-6.80734217e-02f,+1.60909683e-01f,-1.77113414e-01f,+1.44595206e-02f,-1.13194883e-01f,
-1.19769290e-01f,-9.20798779e-02f,-5.26946783e-03f,-6.39061481e-02f,+6.35083616e-02f,
-1.84389964e-01f,+6.06721640e-02f,+1.20168418e-01f,-7.28244036e-02f,+1.70788229e-01f,
+1.19950503e-01f,+1.03296041e-02f,+1.84302926e-02f,+1.92016423e-01f,-1.71690702e-01f,
-1.81530908e-01f,-8.93103033e-02f,+2.75687277e-02f,-3.20932418e-02f,+1.53982967e-01f,
+1.07379645e-01f,-1.54342353e-01f,-2.48649865e-02f,-9.52656269e-02f,+5.81135750e-02f,
+1.18731618e-01f,+1.31264329e-03f,+2.79435664e-02f,-1.68660909e-01f,-6.97872788e-02f,
+1.15928084e-01f,+6.74273968e-02f,-2.10565478e-02f,-1.42444909e-01f,-7.82654360e-02f,
-3.98064256e-02f,-3.20871472e-02f,-2.04942524e-02f,-1.09899849e-01f,-1.18508041e-02f,
+8.51705074e-02f,+1.48856759e-01f,-1.58265084e-02f,-1.83154464e-01f,+1.81865096e-01f,
-8.41077790e-02f,-1.42728955e-01f,-6.28005266e-02f,-6.29633218e-02f,-9.82115194e-02f,
+1.37537032e-01f,+8.57108235e-02f,-1.32971376e-01f,-7.90455639e-02f,+1.06928468e-01f,
-4.01204228e-02f,-7.25805312e-02f,+8.55167806e-02f,+1.88486308e-01f,-4.26867604e-02f,
-5.72690964e-02f,+1.79583102e-01f,-1.58207297e-01f,-4.58461493e-02f,+5.84048629e-02f,
+2.66954303e-04f,+9.04773474e-02f,-8.99919495e-02f,+6.63126409e-02f,-1.88513041e-01f,
+8.95781815e-02f,-1.14205487e-01f,+9.71617997e-02f,-7.23468214e-02f,+1.14741921e-01f,
-3.32418531e-02f,-4.13435996e-02f,+1.14707410e-01f,+1.85180157e-02f,+8.56024325e-02f,
-9.86046046e-02f,-1.02901191e-01f,-1.34733349e-01f,+3.54446918e-02f,+6.96688890e-03f,
-8.91581774e-02f,+1.24598384e-01f,+1.18550062e-02f,-6.12395853e-02f,+1.87833250e-01f,
+1.92791343e-01f,-7.25379586e-03f,+1.62156552e-01f,-8.33879039e-02f,+1.33629769e-01f,
-1.40872598e-03f,+1.43667579e-01f,-1.27327845e-01f,+9.11918581e-02f,+5.38020879e-02f,
-4.43742126e-02f,+1.11406177e-01f,+1.04753226e-01f,+1.31588876e-01f,-8.26852545e-02f,
+1.45332634e-01f,-1.09221347e-01f,+4.15489078e-02f,+8.61143172e-02f,-7.35506937e-02f,
+5.71240187e-02f,+8.20742548e-02f,+5.04276901e-02f,-4.09653783e-02f,-1.03253141e-01f,
+8.74612033e-02f,+6.95417523e-02f,+1.34441286e-01f,-1.46025226e-01f,+2.02544928e-02f,
+1.92434311e-01f,+1.10944897e-01f,-1.38974339e-01f,+1.72849000e-03f,+4.17691916e-02f,
-9.30564106e-02f,+1.56118274e-01f,-1.51805833e-01f,-1.27367273e-01f,-1.82658643e-01f,
-1.69570550e-01f,+7.10365176e-03f,+1.71837747e-01f,-7.75904432e-02f,+1.43851936e-02f,
-2.35056579e-02f,+4.02608663e-02f,+9.06019509e-02f,-3.50714177e-02f,+1.32225603e-01f,
+7.55342245e-02f,-1.12749621e-01f,+2.67928392e-02f,-3.24845314e-04f,+5.98281920e-02f,
-1.04373723e-01f,+1.21979237e-01f,+1.12289041e-02f,-2.55155116e-02f,+1.76822722e-01f,
-1.16455421e-01f,-1.76455677e-01f,+1.41848773e-01f,+2.09028572e-02f,-8.14072341e-02f,
-2.27329731e-02f,-1.37344837e-01f,+1.85578167e-01f,-1.21823050e-01f,+1.43719435e-01f,
-6.31151795e-02f,+3.96654755e-02f,-5.94107062e-02f,+3.28157991e-02f,-1.47574902e-01f,
-9.81440172e-02f,+3.06936651e-02f,+1.85430199e-01f,-1.14962608e-02f,-2.89788842e-02f,
-1.32510155e-01f,+3.94235402e-02f,-1.00807913e-01f,-7.70843774e-02f,+9.10903215e-02f,
-1.31603375e-01f,-7.02753663e-04f,+3.02227288e-02f,+1.67972893e-01f,+1.34319812e-01f,
+3.15833986e-02f,-4.16699648e-02f,-6.83140010e-02f,-7.49784708e-03f,+7.98543096e-02f,
+1.49853468e-01f,-1.15548372e-01f,-8.19410011e-02f,+1.67203844e-01f,+1.90222323e-01f,
-7.52043948e-02f,-1.31094456e-03f,-3.84123325e-02f,-4.47973162e-02f,-1.68919921e-01f,
-8.77806619e-02f,-3.47195566e-03f,+1.46238357e-02f,+7.15228319e-02f,+1.84421092e-02f,
-2.59457678e-02f,+5.97077608e-02f,-1.58316210e-01f,-1.38681918e-01f,+8.39389861e-03f,
-2.78820693e-02f,-1.84344396e-01f,-1.65538102e-01f,+1.45782799e-01f,+1.76288784e-01f,
+1.10008448e-01f,-1.57906175e-01f,-1.44879520e-01f,+6.40869439e-02f,+5.42996526e-02f,
+6.16376698e-02f,+1.78881645e-01f,-7.79879615e-02f,-4.53693569e-02f,-2.01270729e-02f,
+2.86810845e-02f,-9.04026330e-02f,+6.53440058e-02f,+1.03817463e-01f,-2.21497118e-02f,
+1.57668680e-01f,+1.53784752e-02f,-1.42213613e-01f,+1.48526609e-01f,-1.12552479e-01f,
+9.37258601e-02f,-6.40460849e-02f,-4.32800353e-02f,+1.05295181e-01f,+7.79846907e-02f,
+2.21215039e-02f,-7.63007849e-02f,+5.25016636e-02f,-1.27283901e-01f,-2.97775716e-02f,
+6.86323643e-03f,+1.58560395e-01f,-8.59137028e-02f,+4.75907028e-02f,-1.90759331e-01f,
+1.53552800e-01f,+1.10261232e-01f,-3.01291496e-02f,+3.42007428e-02f,+1.83643490e-01f,
+1.49333149e-01f,-1.08884998e-01f,-1.92474201e-01f,-2.27623731e-02f,-1.33171067e-01f,
-1.35869026e-01f,+1.60097212e-01f,+1.24255359e-01f,-6.54257834e-02f,-4.36493903e-02f,
-1.46754742e-01f,-1.22329891e-02f,+1.59125477e-01f,+1.87925726e-01f,+9.74736512e-02f,
+1.35526866e-01f,+7.81206489e-02f,+9.70193744e-03f,-8.09282660e-02f,+5.51104844e-02f,
-1.24558136e-01f,+9.17072892e-02f,+6.60479069e-03f,-8.16991627e-02f,-1.73216045e-01f,
-1.89308673e-01f,-6.37734532e-02f,+5.30080646e-02f,+3.91739607e-03f,+9.88076031e-02f,
+1.57702804e-01f,+8.80011320e-02f,+7.97423124e-02f,-6.09580427e-02f,-1.68069810e-01f,
+2.07290202e-02f,+1.55705452e-01f,-2.38521248e-02f,+3.97086442e-02f,-5.30256033e-02f,
+1.18857026e-01f,+7.85049200e-02f,+5.60964346e-02f,-3.75865996e-02f,-1.90799996e-01f,
-3.33852023e-02f,+7.86716938e-02f,+1.26887858e-03f,+1.14554584e-01f,+4.81777042e-02f,
-1.40054435e-01f,+7.62024522e-02f,+8.56859386e-02f,+1.26667887e-01f,-1.35651857e-01f,
-1.53344661e-01f,+1.93254709e-01f,+1.59584582e-02f,-2.77837366e-02f,+1.70533925e-01f,
-1.90489978e-01f,-6.24633580e-02f,-4.40929979e-02f,+6.23762310e-02f,-3.14624757e-02f,
+9.07474160e-02f,+8.90851915e-02f,+1.89664960e-02f,-1.83667317e-01f,-1.28883064e-01f,
-1.36799246e-01f,-6.46874309e-02f,+8.21889341e-02f,-1.03695586e-01f,+1.57642633e-01f,
+3.91131938e-02f,-1.44815445e-03f,+1.28003061e-01f,-1.01596072e-01f,-8.32856894e-02f,
-1.72458589e-02f,-1.45147681e-01f,-9.13457349e-02f,+4.69100475e-03f,-6.51088655e-02f,
+2.63217241e-02f,+1.83980793e-01f,-1.14331067e-01f,-6.00196868e-02f,+8.01759362e-02f,
+1.29779875e-01f,-1.62980855e-02f,-1.52938515e-02f,+9.94510949e-03f,+7.08095729e-02f,
-3.38828266e-02f,+1.44202083e-01f,-1.92174524e-01f,+9.60915983e-02f,-1.50130987e-01f,
+7.45111704e-02f,-1.55047029e-01f,-9.02990252e-02f,-6.91355020e-02f,+3.25642675e-02f,
+8.84974301e-02f,+1.35565042e-01f,+3.14291418e-02f,-1.28136724e-02f,+6.13990128e-02f,
