#include <math.h> 
 #include <string.h> 
#include "./include/k2c_include.h" 
#include "./include/k2c_tensor_include.h" 

 


void torbeam_EC5_xmode(k2c_tensor* input_1_16_input, k2c_tensor* dense_3_16_output) { 

float dense_output_array[80] = {0}; 
k2c_tensor dense_output = {&dense_output_array[0],1,80,{80, 1, 1, 1, 1}}; 
float dense_kernel_array[1120] = {
-1.23149455e-02f,-1.87127471e-01f,+1.24273211e-01f,+1.05605721e-01f,+8.01418722e-02f,
+1.30990803e-01f,-1.77309528e-01f,-1.32318318e-01f,-8.97874236e-02f,+8.25320184e-02f,
-2.27492601e-01f,-1.96888804e-01f,+1.36137664e-01f,-1.20932326e-01f,-2.23919928e-01f,
+1.91916525e-02f,+1.69264138e-01f,+2.65102684e-02f,-1.59765244e-01f,-3.28675061e-02f,
+1.28660411e-01f,-1.79040939e-01f,+1.29249513e-01f,+9.95408595e-02f,+2.37600416e-01f,
+1.23476356e-01f,+2.51841336e-01f,+1.08367652e-01f,+1.06096268e-05f,+1.91533566e-02f,
-2.02072263e-02f,+6.04568720e-02f,-2.44515374e-01f,-1.33096755e-01f,-2.43588522e-01f,
+1.39596820e-01f,+1.10108852e-01f,+2.40946054e-01f,-6.48070872e-02f,-8.11490715e-02f,
+9.29411650e-02f,-1.68019414e-01f,+1.20030910e-01f,+1.67718917e-01f,-1.90338746e-01f,
+2.10674644e-01f,-1.14337698e-01f,-3.22981626e-02f,+1.76092118e-01f,-1.71457902e-01f,
-1.63567960e-02f,-1.17301151e-01f,+8.14089775e-02f,+2.32058078e-01f,+4.49810922e-02f,
-1.34786099e-01f,+1.10411197e-01f,+2.49549180e-01f,+6.72508478e-02f,-2.16879845e-01f,
+1.76008075e-01f,-3.69477868e-02f,-2.40141377e-01f,+9.85699296e-02f,+9.26347077e-02f,
+3.12503576e-02f,-9.79017466e-02f,+1.65520132e-01f,-4.59963530e-02f,+6.71924651e-02f,
+2.17637300e-01f,-1.08592749e-01f,+1.81698799e-02f,+9.35715437e-02f,+8.40439200e-02f,
+1.98472887e-01f,+1.68364197e-01f,-2.11097553e-01f,-7.96596855e-02f,-1.29982531e-02f,
-1.10158443e-01f,+1.68916315e-01f,+2.03723729e-01f,-2.20432535e-01f,-7.90679455e-03f,
-9.38754827e-02f,-7.54687488e-02f,+2.42538571e-01f,-1.66635394e-01f,-1.14767775e-01f,
-1.97586328e-01f,-2.26616547e-01f,-1.19889528e-01f,+1.46739870e-01f,+6.15413785e-02f,
-9.86864865e-02f,-1.60773635e-01f,-1.42139882e-01f,+1.68716222e-01f,-1.01529956e-01f,
-1.48069888e-01f,-8.92126709e-02f,+1.44912273e-01f,-1.52517840e-01f,+1.32456213e-01f,
-2.31780335e-01f,-8.99457335e-02f,-1.35930568e-01f,+5.96407056e-02f,-1.82804674e-01f,
+1.73758596e-01f,+1.87136441e-01f,+7.19560683e-02f,+1.52903527e-01f,-1.72645077e-01f,
+2.79394686e-02f,-1.73374891e-01f,-1.86435968e-01f,+8.29189718e-02f,+1.69547230e-01f,
+5.52034080e-02f,+2.11232245e-01f,+7.70542026e-03f,-1.92969590e-02f,+2.09723890e-01f,
+6.30092621e-03f,-1.39091551e-01f,+1.77187115e-01f,-1.73613250e-01f,-2.45247588e-01f,
+1.44319445e-01f,+3.94006371e-02f,+6.72224164e-02f,-9.88386422e-02f,+9.27513838e-02f,
-1.64576605e-01f,-1.28845096e-01f,+2.32831627e-01f,-7.73658007e-02f,+1.78652108e-01f,
+1.17120028e-01f,+1.38638914e-02f,-1.77290320e-01f,+2.49272972e-01f,-8.93160850e-02f,
-3.49149704e-02f,+1.07331485e-01f,+2.00099766e-01f,-4.64139730e-02f,-2.11313680e-01f,
+1.02554440e-01f,+6.22518957e-02f,+2.30174452e-01f,+5.48590422e-02f,-9.72160250e-02f,
+1.40307277e-01f,+1.12440228e-01f,-1.24146238e-01f,+3.06013823e-02f,-1.49378791e-01f,
-1.36600092e-01f,-2.40610614e-01f,-1.65042639e-01f,-9.03599709e-02f,+2.47030854e-02f,
-4.51689065e-02f,+1.64686739e-02f,-1.08229339e-01f,-6.07202947e-03f,-2.37849906e-01f,
+3.05171311e-02f,-2.35994831e-01f,-2.47052550e-01f,-1.48514062e-01f,-1.23802006e-01f,
-2.34547436e-01f,-1.24852449e-01f,-2.08216190e-01f,+1.76303238e-01f,-1.87602133e-01f,
+1.85763150e-01f,-2.32635736e-02f,-1.47856295e-01f,+1.25095725e-01f,+1.59398884e-01f,
-5.62193841e-02f,-1.30447477e-01f,+2.01226652e-01f,+1.51823074e-01f,-1.04528785e-01f,
-1.43548906e-01f,+2.49184966e-02f,+2.00774342e-01f,+5.05900979e-02f,+2.50016838e-01f,
+6.96375966e-03f,-4.81085032e-02f,+1.37826115e-01f,+8.15523565e-02f,+2.04325944e-01f,
+7.63124824e-02f,-2.05605954e-01f,+3.94263864e-03f,-9.81188864e-02f,+2.16193765e-01f,
-1.49836823e-01f,+8.01488757e-02f,+1.47085935e-01f,+1.66194707e-01f,-1.56220943e-01f,
+4.00135219e-02f,+7.22945333e-02f,+1.57028377e-01f,-2.38549411e-01f,-2.06370100e-01f,
-1.11496150e-01f,+1.12675548e-01f,-1.95226371e-01f,-1.25789046e-02f,-1.67008013e-01f,
+1.69223696e-01f,-2.41257712e-01f,+1.91626251e-02f,+3.91640961e-02f,-1.35555670e-01f,
-5.16746938e-03f,+2.35416919e-01f,+6.63594604e-02f,+2.37859786e-01f,-2.47257590e-01f,
-1.65248722e-01f,-1.93235889e-01f,-1.06478125e-01f,+2.47508585e-02f,-2.10011691e-01f,
-8.08257908e-02f,-1.86377615e-01f,-2.62787938e-03f,-1.38542980e-01f,-4.26407605e-02f,
-7.95311481e-02f,+1.37527972e-01f,+1.47186756e-01f,-9.69233364e-02f,-1.45055950e-01f,
+8.86275470e-02f,-1.51910484e-01f,-1.14793971e-01f,-1.72779709e-01f,+3.07742655e-02f,
+2.45448053e-01f,+1.61003679e-01f,+2.09826589e-01f,-1.19958818e-02f,-8.80757868e-02f,
-5.52055687e-02f,+2.07126170e-01f,-1.94356143e-01f,+7.76192546e-03f,-2.26871163e-01f,
+1.87654585e-01f,+2.39732563e-01f,-1.35809779e-02f,+5.28894067e-02f,-4.32275683e-02f,
-2.23456651e-01f,+1.36036545e-01f,-1.39380082e-01f,-2.17889458e-01f,-1.72374010e-01f,
+2.96190083e-02f,-4.45163101e-02f,+5.28305471e-02f,-1.06527805e-01f,+6.98041618e-02f,
+6.27108812e-02f,+2.35744923e-01f,-2.33894780e-01f,-1.01503149e-01f,+2.16867089e-01f,
-1.50182545e-02f,+1.74926728e-01f,+1.23025388e-01f,-1.62394643e-01f,+7.08656907e-02f,
-9.31386799e-02f,+7.92491734e-02f,-1.87083393e-01f,+1.82958156e-01f,-1.85546130e-02f,
-1.50119871e-01f,+4.69990373e-02f,+2.28310227e-01f,+1.02196336e-01f,+8.94235373e-02f,
-3.08125764e-02f,+5.26751280e-02f,+3.20740938e-02f,+1.01186007e-01f,-1.83911026e-01f,
+5.54123521e-02f,-3.75370681e-02f,+4.88612056e-02f,-2.27493986e-01f,+1.25624657e-01f,
+2.21429467e-02f,+6.19097054e-02f,+1.62958443e-01f,+1.86309248e-01f,-2.28226930e-01f,
-2.43539557e-01f,-2.20074072e-01f,-2.25476459e-01f,-3.94831598e-02f,-1.76608860e-01f,
+2.25018144e-01f,+1.99750602e-01f,+8.48261416e-02f,+1.78685188e-01f,-9.44737494e-02f,
+6.46046996e-02f,+7.50622153e-03f,+7.42084980e-02f,+6.62341118e-02f,-2.13090867e-01f,
-9.62546617e-02f,+1.06584489e-01f,-1.72530621e-01f,+1.15109682e-01f,-1.80455267e-01f,
+5.80763817e-02f,-1.34811759e-01f,-6.28511906e-02f,-1.56311408e-01f,-1.52015418e-01f,
+2.11113572e-01f,+2.04257667e-02f,-1.15609691e-01f,-1.76581532e-01f,+1.48125291e-01f,
-1.47727370e-01f,+1.56728953e-01f,+5.72496653e-02f,+8.12169611e-02f,+1.62189305e-02f,
+1.12992764e-01f,-6.71371073e-02f,+1.96506679e-01f,+8.52730870e-02f,+6.70815706e-02f,
+1.56025887e-01f,-1.67384952e-01f,-6.96747750e-02f,+2.31694639e-01f,-1.47700876e-01f,
-1.01201370e-01f,-2.12048441e-02f,-1.66203618e-01f,+1.86201662e-01f,-4.91589606e-02f,
+2.19659537e-01f,+1.22280806e-01f,-1.01008445e-01f,-2.34907642e-01f,+8.86261463e-02f,
-1.28660947e-01f,-1.74282283e-01f,-9.70079750e-02f,-2.17326552e-01f,+4.48402464e-02f,
-1.06055751e-01f,+1.25440091e-01f,+1.17486984e-01f,+2.21774817e-01f,+1.95864379e-01f,
+1.72985882e-01f,+2.20291018e-02f,-1.42704532e-01f,-1.62438303e-01f,+4.18277681e-02f,
+2.46350497e-01f,-9.71166939e-02f,-1.52342439e-01f,+1.87496960e-01f,-1.05845943e-01f,
+2.23633260e-01f,-1.77282006e-01f,-2.32640922e-01f,+1.82099253e-01f,+3.73311341e-02f,
-1.52215511e-02f,-1.42792165e-02f,-1.56028718e-01f,-4.48817015e-02f,+7.74796605e-02f,
-1.88817859e-01f,+1.16018325e-01f,+6.32922351e-02f,+5.19556105e-02f,+1.40610754e-01f,
-1.27765357e-01f,+1.83678448e-01f,-2.04912886e-01f,+1.96068168e-01f,+7.49248862e-02f,
+2.41642326e-01f,-8.56948495e-02f,+2.12915242e-02f,-9.58351791e-03f,+2.02275425e-01f,
+8.36146176e-02f,+1.65512234e-01f,-4.63681221e-02f,-5.72428405e-02f,+9.68087018e-02f,
+1.84303641e-01f,+1.74127460e-01f,+2.19528288e-01f,+1.96442097e-01f,+2.16776133e-01f,
+2.14263827e-01f,-6.62064105e-02f,+2.07401991e-01f,-2.45084539e-01f,+7.73728490e-02f,
-2.56913006e-02f,-2.06109345e-01f,-1.65381476e-01f,-7.95963258e-02f,+7.00197518e-02f,
-8.18491280e-02f,+1.79949105e-01f,+8.55393410e-02f,-5.27073592e-02f,+2.23300636e-01f,
-1.58197194e-01f,-2.39649549e-01f,-1.73874661e-01f,-1.17449880e-01f,-1.24095708e-01f,
+2.17455149e-01f,+2.52183586e-01f,+4.09895182e-03f,+2.60093510e-02f,+1.51381791e-02f,
+1.44308597e-01f,-1.32522881e-01f,+1.84020400e-01f,-2.12741733e-01f,+1.10906750e-01f,
+2.40842402e-01f,+7.22157359e-02f,-1.19375423e-01f,-8.65966380e-02f,-1.61023259e-01f,
-5.96974939e-02f,-1.11143351e-01f,-1.83534130e-01f,+9.06840861e-02f,+2.46317059e-01f,
-1.75228626e-01f,-1.34370357e-01f,+2.09354639e-01f,+2.32939094e-01f,+3.09627950e-02f,
+1.07204020e-01f,-1.38986677e-01f,+4.03194726e-02f,+9.39956307e-03f,-6.30009919e-02f,
-8.73449445e-03f,+5.69567382e-02f,-1.81557864e-01f,-1.96753874e-01f,+2.22524881e-01f,
-1.06507391e-01f,-8.10151696e-02f,-6.30196631e-02f,-1.88919365e-01f,+1.57151878e-01f,
-1.19524255e-01f,+4.63360250e-02f,-2.27358520e-01f,-1.60365075e-01f,-5.02530038e-02f,
+1.89543515e-01f,-1.02871999e-01f,+1.89507902e-02f,-6.27367347e-02f,-1.08672440e-01f,
-9.37503576e-03f,+6.36392534e-02f,-8.19645971e-02f,-5.04969656e-02f,-5.68399876e-02f,
+1.20545924e-01f,+4.85187769e-02f,-2.12055475e-01f,-1.82148188e-01f,+8.30627382e-02f,
+2.42138177e-01f,+5.65921962e-02f,-4.35444117e-02f,+2.43048161e-01f,-1.18873239e-01f,
-1.44681394e-01f,+1.59426928e-02f,-7.94445872e-02f,-1.46525562e-01f,-3.21743786e-02f,
+2.14351952e-01f,-1.53097659e-01f,-7.22216964e-02f,+3.40124965e-03f,-2.18576789e-02f,
-6.19139224e-02f,+1.04985058e-01f,-1.57905906e-01f,-3.01197469e-02f,-1.73691660e-01f,
-1.58003420e-02f,-6.92344457e-02f,+6.66317940e-02f,+5.18956184e-02f,+2.32150495e-01f,
-2.12517664e-01f,-4.54962850e-02f,-6.02318496e-02f,-1.43046498e-01f,-7.33639449e-02f,
+2.01239556e-01f,+8.35397542e-02f,-1.12163261e-01f,-5.71482778e-02f,-1.96211576e-01f,
-1.65538624e-01f,+3.96341681e-02f,+1.35549724e-01f,+2.50536770e-01f,+1.92208141e-01f,
+1.34201467e-01f,-7.90036619e-02f,-1.91221744e-01f,-6.17527366e-02f,-1.65212631e-01f,
+1.03467911e-01f,-9.06734914e-02f,+2.30567515e-01f,-1.54549092e-01f,+7.00558126e-02f,
-2.34073564e-01f,-2.27933407e-01f,-2.01111555e-01f,+1.02227837e-01f,-7.10194111e-02f,
+1.44347876e-01f,+1.59753919e-01f,+1.30872130e-01f,-1.12606823e-01f,+1.48529530e-01f,
-1.93476528e-01f,-2.00406611e-01f,-1.89915657e-01f,-7.31118619e-02f,+2.25105345e-01f,
+2.46340036e-03f,+1.53682232e-02f,+8.76358151e-02f,-3.51536274e-02f,-1.24426514e-01f,
+7.69969225e-02f,+1.17395788e-01f,-2.31393993e-01f,-1.68172956e-01f,-1.77962840e-01f,
-3.65715027e-02f,-6.35133684e-03f,+6.21459484e-02f,-1.24269485e-01f,-2.12368637e-01f,
-8.07336271e-02f,-2.41276637e-01f,-9.63611007e-02f,-5.94782829e-03f,-5.13512194e-02f,
+8.78274441e-02f,+1.70492083e-01f,+2.50300497e-01f,+1.52004093e-01f,+2.43699789e-01f,
+1.02265686e-01f,-6.37636334e-02f,-1.88472480e-01f,+1.65464222e-01f,+1.15074247e-01f,
-9.95128006e-02f,+2.18342125e-01f,-5.52773476e-04f,+9.93318558e-02f,+8.94117355e-03f,
+5.55050075e-02f,-2.48194724e-01f,-4.61006165e-03f,+1.86439216e-01f,+1.76327378e-01f,
-7.72317201e-02f,+1.03297830e-02f,-1.34789944e-03f,+2.19086498e-01f,+2.28655696e-01f,
+2.13440061e-01f,+1.37102872e-01f,+1.50157034e-01f,+5.99585474e-02f,+2.10647523e-01f,
-2.25578547e-02f,-1.69992745e-02f,-1.70954943e-01f,+1.32840186e-01f,+1.08029842e-01f,
+2.08378434e-02f,-1.33506954e-02f,-7.17559010e-02f,-1.39736623e-01f,-1.85728878e-01f,
+1.54388696e-01f,-1.94772556e-01f,+9.27600563e-02f,-2.05327958e-01f,+1.70823127e-01f,
-1.33418411e-01f,-5.45081496e-03f,-1.35679692e-01f,-7.50304759e-02f,+2.07388192e-01f,
+9.08446908e-02f,+1.34992898e-01f,-2.69998014e-02f,+2.48628289e-01f,-1.00220025e-01f,
-3.95300835e-02f,+1.55733496e-01f,+1.11209899e-01f,-9.31065828e-02f,+2.36782163e-01f,
+5.03476262e-02f,-1.26401633e-02f,+1.55172527e-01f,+8.26603174e-03f,+2.21658200e-01f,
+2.04818308e-01f,+2.47683376e-01f,-1.82652354e-01f,-1.71468556e-02f,+1.00180328e-01f,
+4.75122929e-02f,+1.43586546e-01f,-1.92606300e-01f,-1.99152574e-01f,+9.33549404e-02f,
-1.06420949e-01f,+2.26871699e-01f,+1.27975702e-01f,-2.29334608e-01f,-1.82054818e-01f,
+2.57837772e-02f,+2.36102641e-01f,-1.64089665e-01f,-1.34354949e-01f,+2.46088833e-01f,
+2.25378931e-01f,-3.07877660e-02f,+1.17553771e-01f,-7.00340718e-02f,+2.91794538e-04f,
-1.80941731e-01f,+4.43066955e-02f,-1.81891575e-01f,-4.28739935e-02f,+1.13754064e-01f,
+2.39311516e-01f,+2.43708163e-01f,-1.13334894e-01f,+1.93144262e-01f,-2.28697076e-01f,
+2.67623365e-02f,+2.80468166e-02f,-8.75233561e-02f,-6.54104650e-02f,+1.63156271e-01f,
-1.42845899e-01f,+7.63195157e-02f,-3.65972221e-02f,+6.29476309e-02f,-2.35307306e-01f,
-8.88243318e-03f,+5.63228130e-02f,+7.64043927e-02f,-7.73081630e-02f,-6.05392307e-02f,
-1.08095258e-01f,+2.42898464e-01f,-2.09912121e-01f,-1.84183538e-01f,-1.15336031e-01f,
+9.10600722e-02f,-1.84365511e-01f,-1.77106470e-01f,+8.42357874e-02f,+1.57575756e-01f,
+1.84128225e-01f,-2.30015263e-01f,-9.59441513e-02f,+2.39893854e-01f,-2.36146688e-01f,
+1.95937395e-01f,-6.01733029e-02f,+7.58766532e-02f,-4.78447974e-02f,+1.45382464e-01f,
+1.35026574e-02f,-1.37033850e-01f,+1.48844749e-01f,-1.56037509e-01f,-2.09684908e-01f,
-9.98372883e-02f,+2.23506838e-01f,+9.19288397e-03f,+2.05772370e-01f,+2.51363188e-01f,
+6.15416765e-02f,+1.82260454e-01f,-7.08946586e-03f,-8.83500874e-02f,-1.80059403e-01f,
+1.92752481e-03f,+2.07492709e-01f,+2.11516261e-01f,+2.19077528e-01f,-2.25565314e-01f,
+2.49425501e-01f,-1.51287407e-01f,-1.31787658e-01f,+5.98135591e-02f,-1.15510181e-01f,
-2.43375540e-01f,+1.55814707e-01f,+3.75885069e-02f,-1.52272016e-01f,+2.49773115e-01f,
+1.06625557e-02f,-1.58372670e-01f,-6.76597804e-02f,+6.49337471e-02f,+8.63347352e-02f,
-1.81937054e-01f,+1.00071073e-01f,-2.96505690e-02f,-2.13958740e-01f,+1.54760778e-01f,
-8.22322071e-03f,+1.28900439e-01f,-2.29937434e-01f,-2.34075844e-01f,-1.24744087e-01f,
-7.04941154e-03f,+2.22799540e-01f,-1.18795410e-01f,-4.31383103e-02f,+2.33424634e-01f,
-2.52120525e-01f,-5.71511090e-02f,+1.15794897e-01f,-1.99298888e-01f,+7.43638575e-02f,
-2.42014095e-01f,-9.33756530e-02f,+1.53951734e-01f,+1.09216601e-01f,+7.33932853e-03f,
-2.22351700e-01f,+2.99261510e-02f,+1.54766917e-01f,-4.88437414e-02f,+1.41999781e-01f,
-1.88481867e-01f,+7.24329352e-02f,-1.11525670e-01f,+1.63657486e-01f,+1.72866076e-01f,
+2.52041966e-01f,+5.97926080e-02f,+1.94801986e-02f,-1.50647536e-01f,+2.38250226e-01f,
-2.19721094e-01f,-9.92393941e-02f,+3.31894755e-02f,+1.16829097e-01f,-1.54936656e-01f,
+2.21819639e-01f,+8.43492448e-02f,+1.26502365e-01f,+1.09347433e-01f,+1.06176645e-01f,
+1.90634429e-01f,+1.74068809e-02f,-1.36032909e-01f,+3.93936634e-02f,-7.97526389e-02f,
+4.62616980e-02f,+1.06749773e-01f,+2.02817351e-01f,-1.15911514e-02f,-1.60718948e-01f,
-4.59823757e-02f,-2.91201472e-03f,+7.23419189e-02f,+1.05268359e-01f,+2.33523309e-01f,
-2.24842310e-01f,+1.33474827e-01f,+3.96274924e-02f,+8.50994289e-02f,-1.13601074e-01f,
-3.82283330e-02f,-7.92464167e-02f,-1.46318465e-01f,-1.66427463e-01f,-2.50107020e-01f,
-1.46912992e-01f,+3.56447101e-02f,-9.85230058e-02f,-2.13317886e-01f,+1.01893008e-01f,
-6.53866082e-02f,-1.58698589e-01f,+1.71138346e-01f,-1.76025242e-01f,+1.78917825e-01f,
-8.58835876e-03f,+2.52368659e-01f,+2.26752460e-02f,-1.68415770e-01f,-2.01561272e-01f,
-1.48553446e-01f,-2.09443420e-01f,-1.48424789e-01f,-2.23690361e-01f,+1.69019699e-01f,
+8.14537406e-02f,-1.42428905e-01f,-2.70868987e-02f,+1.95525885e-02f,+6.55223131e-02f,
+1.83015764e-02f,+2.48013824e-01f,+2.19361424e-01f,-2.39943027e-01f,+3.05391550e-02f,
-2.12036192e-01f,+8.86758566e-02f,-3.86926979e-02f,+1.05832875e-01f,+1.02047980e-01f,
+2.04179108e-01f,+1.57477736e-01f,+9.12967026e-02f,+4.15462852e-02f,+2.07216710e-01f,
-5.17815500e-02f,+5.49153984e-02f,+8.73130262e-02f,-2.29638070e-01f,-8.24868679e-04f,
-4.50737327e-02f,+1.69013798e-01f,-1.08980298e-01f,+2.08617598e-01f,-1.17732257e-01f,
-1.97187155e-01f,+1.04760200e-01f,+1.67494893e-01f,+4.18051779e-02f,-2.76336521e-02f,
+1.51834577e-01f,-2.47800305e-01f,+2.61469781e-02f,-2.57015228e-04f,-1.85028702e-01f,
-5.65700829e-02f,-1.16900831e-01f,+2.58063376e-02f,-1.95599645e-01f,+2.50023216e-01f,
-8.40822905e-02f,+1.57204807e-01f,-6.00302964e-02f,+6.69687092e-02f,-1.91327393e-01f,
+1.69942617e-01f,+1.47299707e-01f,-9.65048820e-02f,-7.57988989e-02f,-1.91832334e-01f,
+4.11674082e-02f,+8.47018659e-02f,-1.81141526e-01f,+4.03962731e-02f,+3.28329802e-02f,
-1.78203911e-01f,+2.38341719e-01f,+9.36551988e-02f,-1.82121977e-01f,+9.54269767e-02f,
-2.46635839e-01f,-1.44029289e-01f,+2.23668754e-01f,-2.24875614e-01f,-7.70260841e-02f,
-9.48850960e-02f,-3.10567170e-02f,+2.38919914e-01f,-5.93817383e-02f,-4.68050689e-02f,
-2.13009000e-01f,+3.01562548e-02f,+2.08651334e-01f,+1.62935495e-01f,-1.45428687e-01f,
-8.81389081e-02f,+4.09376621e-02f,-1.98881149e-01f,+1.55647367e-01f,+1.19925022e-01f,
+5.45032918e-02f,+1.81224585e-01f,+1.64405107e-01f,-1.47078708e-01f,+1.92065030e-01f,
+1.04951262e-02f,+1.70232177e-01f,+2.43817359e-01f,+1.29825234e-01f,-1.07278347e-01f,
+2.94906497e-02f,+1.89702064e-01f,+3.37922275e-02f,-2.13750318e-01f,+7.86591172e-02f,
-5.16882986e-02f,-1.31117225e-01f,-2.33601555e-01f,-1.11614153e-01f,+1.71595961e-01f,
-1.30059674e-01f,+6.48461878e-02f,-2.19023228e-03f,+8.36386681e-02f,-1.77152246e-01f,
+9.24772918e-02f,-1.36578470e-01f,+1.86813712e-01f,+1.68462098e-01f,-3.64947617e-02f,
-4.06254083e-02f,-1.73705935e-01f,-1.16120547e-01f,+1.75253332e-01f,-1.67066187e-01f,
-2.41452694e-01f,-2.36869931e-01f,-1.08637974e-01f,+2.45482504e-01f,-1.87013209e-01f,
-8.04361254e-02f,+1.66568100e-01f,-6.37962222e-02f,+1.70375645e-01f,-2.35082507e-01f,
+2.15348959e-01f,+2.10999846e-01f,+6.08545542e-03f,+2.24849463e-01f,-9.00057256e-02f,
+9.63397026e-02f,-2.31698185e-01f,+2.25867510e-01f,-1.87434435e-01f,-1.33041441e-01f,
+1.60229713e-01f,+1.54862553e-01f,+9.49041843e-02f,-1.22222304e-03f,+5.39842844e-02f,
+5.84563613e-02f,-1.68674171e-01f,+1.56207740e-01f,+1.08216137e-01f,-3.15742195e-03f,
+8.82267952e-03f,+1.65353030e-01f,-3.04753780e-02f,+1.29972160e-01f,-9.77000743e-02f,
-1.42233014e-01f,+1.31944150e-01f,-2.06206501e-01f,-2.51966655e-01f,+1.41605288e-01f,
-2.96918303e-02f,-9.89317000e-02f,+1.84942931e-01f,+2.33923167e-01f,-3.53288502e-02f,
-1.48039311e-02f,+1.94842488e-01f,-1.51736289e-01f,+2.18871415e-01f,+1.42789096e-01f,
+1.20841295e-01f,+8.03654790e-02f,-1.94615573e-01f,+2.19997644e-01f,-1.16828844e-01f,
+1.82914436e-01f,+2.42683738e-01f,-6.74203932e-02f,-1.55457988e-01f,-1.93877697e-01f,
+1.47816539e-01f,+1.92351580e-01f,-2.24477038e-01f,-2.24987239e-01f,+2.08728194e-01f,
-1.14786208e-01f,-2.36787111e-01f,+1.54969603e-01f,+1.24701262e-01f,+1.79358304e-01f,
+4.16149497e-02f,-2.52240747e-01f,+2.39829898e-01f,+1.92482531e-01f,-4.06160057e-02f,
-1.62932903e-01f,+9.59339142e-02f,+2.82455981e-02f,-8.09010267e-02f,+2.33223349e-01f,
+1.80875510e-01f,+1.86447293e-01f,-2.30304807e-01f,+9.74532962e-02f,-1.40813082e-01f,
+5.43176830e-02f,-2.48388872e-01f,-1.92047447e-01f,+2.02000976e-01f,-1.42026812e-01f,
+2.13567853e-01f,-1.61354184e-01f,-1.98211819e-01f,-1.71980441e-01f,-1.46382987e-01f,
-7.65903890e-02f,+2.92959213e-02f,+1.25137478e-01f,-2.46058553e-02f,+2.16933459e-01f,
-1.81535512e-01f,-1.62837356e-02f,-1.06744424e-01f,+1.81899518e-01f,-5.96510023e-02f,
-1.74424797e-01f,-3.99305224e-02f,-2.47425646e-01f,+2.45046407e-01f,+1.87649965e-01f,
+1.51118040e-02f,-1.57717600e-01f,+1.31039649e-01f,-1.37830883e-01f,-1.58665657e-01f,
-1.07618421e-02f,+4.60839272e-02f,-1.20077640e-01f,+1.71767086e-01f,+2.51431257e-01f,
+2.02747226e-01f,-7.17668086e-02f,+2.11131454e-01f,-1.40997767e-02f,+2.13990718e-01f,
+1.10294640e-01f,+1.00325376e-01f,-7.65782297e-02f,-1.28487170e-01f,+6.34759963e-02f,
+1.00752681e-01f,-2.06812590e-01f,-4.12419438e-03f,+8.50493014e-02f,+2.14712411e-01f,
-1.35045290e-01f,+1.36768818e-01f,+2.47149587e-01f,+1.64607316e-01f,+5.84195554e-02f,
+8.01605582e-02f,+5.62885404e-02f,+2.50896662e-01f,+1.21716559e-02f,+2.16307253e-01f,
+6.23658597e-02f,-1.17474332e-01f,+8.49581659e-02f,+6.50370717e-02f,+4.23018038e-02f,
}; 
k2c_tensor dense_kernel = {&dense_kernel_array[0],2,1120,{14,80, 1, 1, 1}}; 
float dense_bias_array[80] = {0}; 
k2c_tensor dense_bias = {&dense_bias_array[0],1,80,{80, 1, 1, 1, 1}}; 
float dense_fwork[1134] = {0}; 

 
float dense_1_output_array[80] = {0}; 
k2c_tensor dense_1_output = {&dense_1_output_array[0],1,80,{80, 1, 1, 1, 1}}; 
float dense_1_kernel_array[6400] = {
+5.84769249e-03f,-1.70000896e-01f,+1.04075819e-02f,-1.78767055e-01f,-2.26483792e-02f,
+1.40277445e-01f,+3.56191248e-02f,+1.26911730e-01f,-4.61750478e-02f,+8.75048935e-02f,
-3.56474221e-02f,+1.67277217e-01f,+7.33780563e-02f,+1.82774246e-01f,+1.35584682e-01f,
+1.15286410e-01f,-1.72891989e-01f,+1.13699019e-01f,+1.37372434e-01f,+1.05136156e-01f,
+5.87496161e-02f,-1.75287962e-01f,-8.01113471e-02f,-1.31458730e-01f,-5.75970411e-02f,
-8.01817030e-02f,+8.44162405e-02f,-5.45428693e-02f,+1.36846721e-01f,+7.85209835e-02f,
-9.85887721e-02f,+1.24192476e-01f,-1.01071127e-01f,+1.27587140e-01f,+6.09879196e-02f,
-1.82061538e-01f,-1.10041596e-01f,+6.86025321e-02f,+1.45696074e-01f,+6.94549382e-02f,
-1.76830888e-01f,+1.19443238e-01f,+1.90600932e-01f,+1.86996609e-01f,+1.86866462e-01f,
-1.61778882e-01f,+3.91733944e-02f,-1.74882904e-01f,+1.69661999e-01f,+6.67782128e-02f,
-8.46147537e-04f,+1.44030660e-01f,-1.72777534e-01f,-9.26660970e-02f,+7.02503622e-02f,
+5.87822199e-02f,-1.41591609e-01f,+3.32913399e-02f,+1.45501763e-01f,+1.45647466e-01f,
-2.36846209e-02f,+1.80628628e-01f,-1.67250901e-01f,-7.10104033e-02f,-1.40372828e-01f,
-9.77244750e-02f,-9.38496068e-02f,-1.74075395e-01f,-1.81737572e-01f,-1.18119717e-02f,
-1.47895962e-01f,-1.52366459e-02f,-6.15249574e-02f,+1.27331227e-01f,-2.65418589e-02f,
-1.89096391e-01f,-9.58821252e-02f,+3.42302024e-02f,-1.25431567e-01f,-1.20102771e-01f,
-9.14254263e-02f,-7.66266063e-02f,-1.65975466e-01f,-7.54688531e-02f,+8.98022056e-02f,
+3.08862329e-02f,-1.43987685e-02f,+1.85833037e-01f,+1.72920048e-01f,+1.26382023e-01f,
-6.28934205e-02f,+6.57428205e-02f,-1.70900971e-01f,-1.99904442e-02f,+1.17068976e-01f,
+1.81795597e-01f,-1.49402708e-01f,+4.12861109e-02f,+7.78495371e-02f,+1.69660240e-01f,
+2.68061459e-02f,+5.96991181e-03f,+4.00943905e-02f,+1.83467776e-01f,-1.11163422e-01f,
+1.58264697e-01f,-2.66249627e-02f,+2.87542641e-02f,-1.80401504e-02f,-1.84458852e-01f,
+9.46342051e-02f,-1.07167073e-01f,-7.36439154e-02f,+1.11256301e-01f,-1.66708216e-01f,
-9.69827175e-02f,+7.24543929e-02f,-1.32707104e-01f,+1.90958738e-01f,+6.86586201e-02f,
-1.07195377e-01f,+2.24664360e-02f,-1.52948588e-01f,+2.91530341e-02f,-1.09791674e-01f,
+1.52850002e-01f,-6.64696693e-02f,-1.87980339e-01f,+5.74869215e-02f,+1.65268779e-03f,
-1.90273538e-01f,-1.90096200e-01f,+7.23369420e-02f,-8.02619010e-02f,-1.78087354e-01f,
+1.12365186e-02f,-7.97429606e-02f,+1.50866896e-01f,-3.97698134e-02f,-6.91912249e-02f,
-7.04235882e-02f,+1.91281796e-01f,-5.95571697e-02f,-1.09107539e-01f,-2.10665315e-02f,
-9.40833613e-02f,+2.34887153e-02f,+1.69701010e-01f,-3.37863714e-02f,-7.19095767e-03f,
-5.98397255e-02f,+6.40681088e-02f,-1.37637883e-01f,+6.97928071e-02f,-1.23104155e-02f,
-1.75579652e-01f,+6.12458587e-02f,+1.62929296e-04f,+1.40142679e-01f,+8.14450979e-02f,
+1.19287550e-01f,-7.83743039e-02f,-2.74316967e-03f,+1.92030787e-01f,-1.16081037e-01f,
+9.75299180e-02f,-1.67030841e-02f,+6.51255846e-02f,+6.49523437e-02f,+3.88459116e-02f,
+2.82114744e-03f,-3.35419029e-02f,-7.58418441e-03f,-1.73267439e-01f,-8.05974156e-02f,
+5.73921800e-02f,-9.01839137e-03f,+1.80411756e-01f,+1.04829550e-01f,-1.21822506e-02f,
+1.62189424e-01f,+1.38432503e-01f,+7.28037655e-02f,+9.92659032e-02f,+1.70942158e-01f,
-2.74487734e-02f,+8.77031684e-03f,-1.39425427e-01f,+2.96713710e-02f,+8.75951946e-02f,
-1.32917091e-01f,-1.85320929e-01f,-1.72537684e-01f,+7.68354833e-02f,+3.59173268e-02f,
+1.76724851e-01f,+7.83335865e-02f,-1.70094609e-01f,+4.62705791e-02f,-6.73163682e-02f,
-8.90503675e-02f,+1.65905923e-01f,-7.45373815e-02f,-1.31597430e-01f,-1.15105331e-01f,
+1.83365911e-01f,-1.75417736e-01f,+6.02851510e-02f,+9.74180400e-02f,+1.12382799e-01f,
+6.86473846e-02f,-1.57133996e-01f,+1.21938348e-01f,+1.16694540e-01f,+8.38170648e-02f,
-1.85463130e-01f,-6.11739755e-02f,+4.62660044e-02f,+7.37276673e-02f,+5.97815812e-02f,
-6.22577667e-02f,-1.33378878e-01f,+8.55640471e-02f,-1.58881187e-01f,-1.31699264e-01f,
-7.41139650e-02f,-1.35412067e-02f,-1.00196861e-01f,-1.00643642e-01f,-1.37134448e-01f,
-1.37581602e-01f,+4.53454256e-03f,+1.62304521e-01f,-8.49127769e-03f,+5.75336814e-02f,
+1.10335290e-01f,+6.44310117e-02f,-7.50321820e-02f,+1.57580644e-01f,-1.46158889e-01f,
-1.43067271e-01f,-1.17378905e-01f,-6.08366132e-02f,-3.57998759e-02f,+1.21280015e-01f,
-1.70301273e-01f,+1.35301739e-01f,+1.83062643e-01f,-6.97294697e-02f,+7.53713548e-02f,
+1.78702980e-01f,+3.61974388e-02f,+1.76725984e-01f,-1.13051385e-01f,-1.37983367e-01f,
-3.79642844e-03f,+1.76415831e-01f,+2.61022449e-02f,+7.49789178e-02f,-9.30502713e-02f,
+1.12521261e-01f,+1.49749517e-02f,+1.67634517e-01f,+1.84030890e-01f,-1.25167996e-01f,
-1.26229614e-01f,-1.27968967e-01f,+9.88736749e-02f,+1.08022422e-01f,+1.17736936e-01f,
-6.63409978e-02f,-4.12420630e-02f,+1.93644315e-01f,+1.72777295e-01f,+3.79338413e-02f,
-1.04366660e-01f,+8.09275210e-02f,-1.01442330e-01f,+8.34600329e-02f,+1.36232078e-02f,
+1.52820170e-01f,-6.02889955e-02f,+4.17382121e-02f,-6.93247020e-02f,+7.60203600e-02f,
+2.64291614e-02f,-8.94528329e-02f,+1.01704925e-01f,-5.78651875e-02f,-4.93310690e-02f,
+3.47990543e-02f,-1.31791204e-01f,+1.17442250e-01f,-1.53745413e-01f,+9.50372815e-02f,
+1.92812175e-01f,-1.01822995e-01f,+1.81113899e-01f,-5.36176860e-02f,-3.02743912e-02f,
+1.51262283e-01f,-4.93335724e-03f,+6.37154281e-02f,+6.25565648e-02f,+9.92666781e-02f,
-2.91611999e-02f,+9.62569714e-02f,-1.88755989e-02f,-1.40132055e-01f,+3.23485136e-02f,
+3.40634435e-02f,+5.54722250e-02f,-5.68900853e-02f,-3.54656130e-02f,-9.04532820e-02f,
-1.00155994e-01f,+3.42480242e-02f,-2.68773735e-02f,-4.12899256e-03f,-1.71165153e-01f,
-4.97514009e-02f,-8.63523111e-02f,-5.45938015e-02f,+1.56625122e-01f,+1.89064950e-01f,
+1.77729279e-02f,+4.28927690e-02f,-9.03683305e-02f,-1.34600937e-01f,+1.64717078e-01f,
-4.62326258e-02f,+1.75746799e-01f,-4.37877625e-02f,+1.26504630e-01f,+1.20486856e-01f,
-9.85413119e-02f,+8.53979886e-02f,-1.25478655e-01f,-8.13826695e-02f,+4.25475836e-03f,
+1.15652382e-02f,-1.89366907e-01f,-1.78741992e-01f,+2.00787336e-02f,+1.26971662e-01f,
+6.22704625e-02f,-5.19194305e-02f,-6.07200414e-02f,+1.52543157e-01f,+2.71919370e-02f,
+1.57497108e-01f,+1.54495955e-01f,+8.65221620e-02f,-1.61777496e-01f,-1.32862836e-01f,
+9.46835577e-02f,+1.84228003e-01f,+1.29484296e-01f,-1.11598752e-01f,-9.87453759e-02f,
+9.90673602e-02f,-1.53414756e-01f,+1.35255635e-01f,+8.45465362e-02f,-4.84895408e-02f,
-1.57215431e-01f,-1.43153757e-01f,+1.67284191e-01f,+2.21634209e-02f,+4.79350388e-02f,
+1.02640748e-01f,+1.54236585e-01f,-1.06078170e-01f,-1.15793630e-01f,+2.23553181e-03f,
+1.27778083e-01f,-5.84601760e-02f,-1.85436353e-01f,+9.47803259e-02f,-1.25528425e-01f,
-1.35797232e-01f,+4.30215746e-02f,-1.11833662e-01f,-1.37980312e-01f,-1.62603974e-01f,
+2.20838636e-02f,-1.12161055e-01f,+1.31178170e-01f,-4.53942865e-02f,+8.42743516e-02f,
+3.84524167e-02f,+1.61570549e-01f,-5.32979965e-02f,-3.40533257e-02f,+7.02132285e-02f,
-2.39784420e-02f,+4.32798117e-02f,-1.90345049e-01f,+1.49611115e-01f,-5.09521663e-02f,
-1.13402002e-01f,-6.72612935e-02f,+1.32088214e-01f,-1.53396100e-01f,-8.61455202e-02f,
+9.31604803e-02f,-3.53174955e-02f,+8.58290195e-02f,+6.13649189e-02f,-4.09828126e-03f,
-9.40139219e-02f,-1.92201197e-01f,+3.89361233e-02f,-1.07517228e-01f,-8.18781629e-02f,
-5.79187870e-02f,+1.12322450e-01f,+1.28652185e-01f,+9.48967338e-02f,-9.99889076e-02f,
+6.25949800e-02f,+2.01501995e-02f,+1.58885479e-01f,-1.23608612e-01f,-7.18631968e-02f,
+3.83118689e-02f,+1.57561749e-01f,+1.26601964e-01f,-5.01749963e-02f,+7.08015263e-02f,
-1.66186497e-01f,+2.77054310e-03f,-1.00864321e-02f,+1.61954790e-01f,+9.19599235e-02f,
+1.24786705e-01f,+6.83534741e-02f,-1.00852139e-01f,-1.42294168e-01f,+1.74552381e-01f,
+8.93109143e-02f,+1.71624124e-01f,-7.75574148e-03f,+1.15489870e-01f,-9.35917497e-02f,
+2.29687989e-02f,-1.36898756e-02f,+1.54862642e-01f,-2.57674605e-02f,+9.19711590e-03f,
+6.65752590e-02f,-1.06664889e-01f,-1.22377038e-01f,-1.13163672e-01f,+4.10378575e-02f,
-3.97847593e-03f,+7.41421282e-02f,+1.86494470e-01f,-3.15692723e-02f,-1.23858944e-01f,
+1.49737298e-03f,+4.04883921e-02f,-1.12560838e-01f,-1.85404807e-01f,+5.48515171e-02f,
+1.31129533e-01f,-1.06503248e-01f,-7.26478025e-02f,+4.86141890e-02f,+6.66584671e-02f,
-1.77865043e-01f,+1.73891932e-01f,-2.59399414e-03f,+1.79998428e-02f,-1.69197172e-01f,
+6.49979711e-02f,+1.50305599e-01f,-1.30144566e-01f,-5.59221357e-02f,-1.95981413e-02f,
+5.54525554e-02f,-9.34491307e-02f,-1.83175102e-01f,-6.74239993e-02f,+1.76115870e-01f,
+6.19828701e-02f,+1.90262586e-01f,+1.85656935e-01f,-7.05304742e-03f,-1.43676579e-01f,
+1.80404276e-01f,+1.36566103e-01f,-6.45108819e-02f,-7.06851482e-04f,-1.67561054e-01f,
-1.87266469e-01f,-1.01100534e-01f,-1.86740160e-02f,-1.45416558e-02f,+9.34226811e-03f,
-2.16483921e-02f,+8.14870000e-02f,-1.21037215e-02f,-1.74412861e-01f,-1.46446377e-01f,
+1.91987425e-01f,+1.61834151e-01f,-1.72228292e-01f,+1.28581733e-01f,+3.91341448e-02f,
-1.53043643e-01f,-7.47182742e-02f,-4.65951562e-02f,+1.33633614e-02f,-1.25898063e-01f,
-1.66800022e-02f,+1.35044843e-01f,-1.54619738e-01f,+1.20746225e-01f,-1.09850176e-01f,
+4.99137342e-02f,-1.26139313e-01f,+6.58653975e-02f,+1.14446849e-01f,-3.57027352e-02f,
-1.42870545e-01f,+1.34248793e-01f,+2.03725547e-02f,+1.74298018e-01f,+1.58842176e-01f,
+2.28078961e-02f,+6.68796003e-02f,+7.58124888e-02f,-6.37357831e-02f,+1.83310598e-01f,
+7.51197636e-02f,+6.04581535e-02f,-1.01984173e-01f,-1.30785078e-01f,+1.50706738e-01f,
+1.27440691e-01f,+1.71880603e-01f,+1.69810712e-01f,-1.14956990e-01f,+1.12324595e-01f,
+1.91975981e-01f,+1.65162832e-02f,-1.21812522e-01f,+8.82653892e-02f,-1.39059156e-01f,
+4.89172488e-02f,-9.13672969e-02f,+1.53392673e-01f,-1.86669901e-01f,-1.52687773e-01f,
-6.36379570e-02f,+1.39075369e-01f,+9.83898640e-02f,+1.32116467e-01f,+5.71981370e-02f,
+6.38946891e-04f,-1.63133681e-01f,-1.16038553e-01f,+3.71612757e-02f,-1.84868097e-01f,
+1.70704126e-02f,-8.36723074e-02f,-7.61817172e-02f,+6.80837929e-02f,+1.33348733e-01f,
+9.44198966e-02f,+1.34094000e-01f,-1.84818923e-01f,+1.61287040e-01f,-5.08682877e-02f,
-1.87635034e-01f,+1.49362743e-01f,-1.52675718e-01f,+8.60034525e-02f,+1.81834608e-01f,
+1.04027927e-01f,-1.42045319e-03f,+1.26588762e-01f,-1.52310520e-01f,+9.02901292e-02f,
+1.66009337e-01f,-1.27770245e-01f,-1.30536541e-01f,+1.25306726e-01f,-8.00104439e-03f,
+1.92532092e-02f,-3.49816084e-02f,-6.02489263e-02f,+1.85702205e-01f,-5.69797009e-02f,
-1.36803031e-01f,-8.58968943e-02f,-5.30349314e-02f,-1.59288645e-02f,-1.76307291e-01f,
+2.81717926e-02f,+1.53785139e-01f,+6.93534315e-02f,+1.75335079e-01f,+1.41653299e-01f,
-1.31253362e-01f,-1.23219028e-01f,+9.81140435e-02f,+1.19430721e-01f,+9.05646980e-02f,
+9.26864445e-02f,+1.80184782e-01f,-1.01237148e-01f,+1.87185466e-01f,+1.31888330e-01f,
+8.56967866e-02f,-3.90373766e-02f,-1.08800322e-01f,-1.44982398e-01f,+1.75646961e-01f,
-1.39841229e-01f,-9.79595706e-02f,+4.73684520e-02f,-8.21414217e-02f,+1.42097026e-01f,
-1.07464343e-02f,+1.92748815e-01f,+1.51166588e-01f,-1.05637662e-01f,-3.02991867e-02f,
+9.24827456e-02f,-1.77605063e-01f,+9.36626494e-02f,-1.01238072e-01f,+4.53359634e-02f,
-5.53531945e-03f,+1.22632921e-01f,+1.58490419e-01f,+9.85299647e-02f,-4.24041152e-02f,
+4.26776111e-02f,-3.87110561e-02f,+1.64839000e-01f,+8.61124694e-02f,+1.65418386e-01f,
-1.87019184e-01f,+1.10066116e-01f,+1.59011245e-01f,+1.65945232e-01f,-4.30104584e-02f,
-1.09593749e-01f,+2.40360051e-02f,-5.07089943e-02f,+1.32249534e-01f,+9.39782858e-02f,
-1.34404004e-03f,+3.26960832e-02f,+1.06235892e-01f,-1.37735754e-02f,-5.10307550e-02f,
+1.01928860e-01f,+7.97113776e-02f,+1.54523432e-01f,+2.93221027e-02f,+1.74480379e-02f,
-3.55436355e-02f,-1.69585317e-01f,-5.56017756e-02f,+2.38226205e-02f,+1.02768958e-01f,
-4.89488244e-04f,-1.33972988e-01f,+4.12945449e-03f,+9.75982845e-02f,+1.04242593e-01f,
-9.34411585e-03f,+9.10194218e-02f,+1.37521625e-02f,+9.17139351e-02f,+1.64908528e-01f,
-1.87729910e-01f,+1.03758782e-01f,-1.72958329e-01f,-1.48355305e-01f,+9.70498919e-02f,
+9.55912173e-02f,-1.73412591e-01f,-8.45229402e-02f,+1.70016229e-01f,-1.25225008e-01f,
-1.20942645e-01f,-8.41343254e-02f,+3.30509394e-02f,-1.30497798e-01f,+5.06623238e-02f,
+6.55277669e-02f,+1.55564517e-01f,+7.49603808e-02f,-1.91174388e-01f,-3.16953510e-02f,
-3.99949402e-02f,-8.19146335e-02f,-1.24337487e-01f,+1.34383053e-01f,+5.59071302e-02f,
+9.49959457e-02f,-2.22456008e-02f,-1.33936509e-01f,-1.54513180e-01f,-1.16576754e-01f,
-1.92113578e-01f,+4.39514369e-02f,-1.51109323e-01f,+1.28862649e-01f,+1.60459757e-01f,
+1.78474218e-01f,-1.61533535e-01f,+1.41465008e-01f,+8.94519687e-02f,+1.76498055e-01f,
-1.34865493e-02f,-1.02220468e-01f,-9.96959209e-02f,-1.21497370e-01f,-2.97663063e-02f,
-1.10257529e-01f,+1.44397229e-01f,-1.11699268e-01f,-4.79271859e-02f,-2.32178420e-02f,
-7.70545527e-02f,+4.51191068e-02f,-1.24962255e-01f,-6.22518510e-02f,+7.84174204e-02f,
+5.56076765e-02f,-3.96353602e-02f,-2.38090903e-02f,-1.51621670e-01f,-1.29328042e-01f,
-1.92280844e-01f,-1.67307407e-02f,+1.61902755e-01f,-3.67870778e-02f,-1.61544383e-01f,
-1.31922916e-01f,-3.97574008e-02f,+1.33928061e-01f,+1.70766324e-01f,-4.61894125e-02f,
-3.38829160e-02f,-8.33873972e-02f,-1.50640607e-01f,-3.29471976e-02f,-1.82324752e-01f,
-7.66143724e-02f,+1.83833718e-01f,-4.95121479e-02f,+1.55765980e-01f,+4.91444468e-02f,
-1.08389139e-01f,+1.14614308e-01f,+1.86367601e-01f,+1.53208554e-01f,+9.99996066e-03f,
+1.35723263e-01f,+1.29472315e-01f,-2.85739303e-02f,+1.01149231e-01f,-1.74523294e-01f,
+4.58166450e-02f,-1.81733519e-02f,+1.83831215e-01f,+1.87430263e-01f,-1.59918159e-01f,
+1.80509925e-01f,-2.16735154e-02f,+7.44525194e-02f,+7.75665641e-02f,+1.63982213e-02f,
-1.61736995e-01f,-8.39527920e-02f,+9.20495987e-02f,-1.25629961e-01f,+1.63085192e-01f,
+6.07913733e-02f,-1.77591860e-01f,+7.99123943e-02f,-2.10773349e-02f,-6.65053576e-02f,
+1.92943007e-01f,+1.79258257e-01f,-3.84215266e-02f,+4.48098779e-03f,+1.62787139e-01f,
-7.29492903e-02f,+2.05643773e-02f,-1.56343892e-01f,+1.39180630e-01f,-3.00404131e-02f,
-1.70730099e-01f,+7.93649256e-02f,+1.42401606e-01f,+1.66635185e-01f,-3.50558609e-02f,
-2.69058347e-03f,+9.27401185e-02f,+1.91452503e-01f,+1.12687260e-01f,+4.77999449e-02f,
+2.07427889e-02f,-5.46599180e-02f,-3.36682796e-02f,+5.54594249e-02f,-4.66962606e-02f,
+4.35655564e-02f,-1.21347412e-01f,-1.05292544e-01f,+4.82056439e-02f,+7.93221295e-02f,
+1.13843471e-01f,+7.25681186e-02f,-1.65206090e-01f,-1.78160250e-01f,+2.29578614e-02f,
+8.79773796e-02f,+9.30877626e-02f,+1.08906597e-01f,-3.74180228e-02f,-1.78924918e-01f,
+5.29569387e-03f,-5.73002547e-02f,-1.16560645e-01f,-1.46610752e-01f,+6.63636625e-03f,
+3.54222059e-02f,+9.60268080e-02f,+1.50392413e-01f,+9.37274098e-03f,-1.56167805e-01f,
+9.22903717e-02f,-1.65961891e-01f,-7.47771934e-02f,-1.51426047e-01f,+1.40803993e-01f,
+1.07791126e-02f,-2.03375071e-02f,+1.58985794e-01f,-9.26351622e-02f,-1.30739033e-01f,
+1.09284103e-01f,-5.46647161e-02f,-5.54047674e-02f,-1.22135803e-01f,-1.04894377e-01f,
-1.18148550e-01f,-1.97416544e-03f,+1.48388654e-01f,+9.31465030e-02f,+9.61760879e-02f,
-1.15139961e-01f,+8.00775588e-02f,+1.25938416e-01f,+2.36418694e-02f,-1.08875118e-01f,
+1.49150431e-01f,-7.17390478e-02f,+1.36199474e-01f,-4.48324829e-02f,+1.82646632e-01f,
-8.83258805e-02f,+1.17795318e-01f,+1.03612900e-01f,+3.52425128e-02f,+4.98710722e-02f,
-5.00818789e-02f,+1.48775280e-01f,-1.50394142e-02f,+1.60398632e-02f,-1.51734084e-01f,
-2.28668600e-02f,+3.78063321e-03f,-9.65658054e-02f,+1.10828459e-01f,-1.80699378e-02f,
-3.55616361e-02f,-1.14626415e-01f,+1.01941079e-02f,-6.63314313e-02f,-2.03018636e-02f,
-1.75842911e-01f,-1.68945640e-01f,+5.23380935e-02f,-6.87007234e-02f,-9.21153799e-02f,
-9.13848877e-02f,+8.48998725e-02f,+1.39083534e-01f,+1.64296538e-01f,+7.26255476e-02f,
-1.74207166e-01f,+2.27705091e-02f,+3.87490094e-02f,-1.52188674e-01f,-5.56780845e-02f,
-1.35815844e-01f,-9.34420526e-03f,+1.50853783e-01f,-1.72967985e-01f,+2.95553952e-02f,
+1.15297258e-01f,-1.49886295e-01f,-6.60665184e-02f,+1.93368465e-01f,-1.49916261e-02f,
+1.70449346e-01f,+1.34954631e-01f,-1.26993164e-01f,-1.33232698e-01f,+5.09014279e-02f,
-1.41760498e-01f,-9.11552906e-02f,+6.99582100e-02f,-1.39028832e-01f,+1.52520508e-01f,
+7.90584087e-02f,-5.00214845e-02f,-2.98439562e-02f,+1.66539043e-01f,-1.47111222e-01f,
+1.27068371e-01f,-1.77225411e-01f,-1.04167625e-01f,+1.21470124e-01f,-8.53426754e-02f,
+1.26656950e-01f,+8.77341628e-03f,+2.11580843e-02f,-7.03245550e-02f,-1.18824057e-01f,
+1.63598895e-01f,-1.20063424e-02f,-1.97883248e-02f,+9.66616869e-02f,+9.63077545e-02f,
+2.15524137e-02f,+7.33424723e-02f,+1.68743551e-01f,-1.84995249e-01f,+4.43211198e-02f,
+1.12986565e-01f,+5.63267320e-02f,+9.56270993e-02f,-1.68719083e-01f,-1.74587846e-01f,
-1.45355955e-01f,-6.08798712e-02f,+1.33053750e-01f,+1.13153875e-01f,-1.20409891e-01f,
-1.55374750e-01f,-1.01995625e-01f,-1.51580632e-01f,-1.71530485e-01f,-5.18446267e-02f,
+2.09937096e-02f,-7.59861395e-02f,-8.35472345e-02f,-1.47870764e-01f,-4.36678231e-02f,
-3.80022526e-02f,-1.64811984e-01f,+1.28416717e-01f,+1.15094006e-01f,+3.30478549e-02f,
-2.02840865e-02f,-1.22597218e-02f,-1.61633581e-01f,+1.17734700e-01f,+1.48845077e-01f,
+1.88970864e-01f,+1.35516524e-01f,-1.44156367e-01f,-7.93308467e-02f,+5.64668179e-02f,
-1.04340389e-01f,-1.82244644e-01f,-2.34134495e-03f,-7.61917233e-03f,-7.36862496e-02f,
+1.74921155e-02f,-7.80468285e-02f,-9.76876318e-02f,-1.23124659e-01f,-1.79713532e-01f,
+1.38121545e-01f,+1.21190488e-01f,-4.88605052e-02f,+1.11269385e-01f,-1.76679969e-01f,
+4.97719347e-02f,-7.59651810e-02f,-1.03974819e-01f,-1.00079447e-01f,-6.98523298e-02f,
-1.67179570e-01f,-1.31826371e-01f,+6.37491345e-02f,+1.19201303e-01f,+1.09628201e-01f,
-1.16363317e-01f,+2.23941356e-02f,+1.19166762e-01f,-1.83183134e-01f,-3.16379219e-02f,
-9.07666311e-02f,-1.73700050e-01f,-1.54569745e-02f,+1.14408255e-01f,+9.28426385e-02f,
+1.55091405e-01f,+1.75870478e-01f,-3.90959680e-02f,-6.23386502e-02f,-3.00509781e-02f,
+1.51094466e-01f,-2.72670984e-02f,-1.82286710e-01f,-1.12327494e-01f,+1.62216991e-01f,
+1.65437222e-01f,-1.06395632e-01f,-1.04047813e-01f,-1.57777414e-01f,-2.79219598e-02f,
+1.26784325e-01f,-1.01705313e-01f,+1.76906586e-02f,+1.11652255e-01f,-4.38905358e-02f,
-1.89785987e-01f,-1.58819497e-01f,-1.39030814e-01f,-1.77572563e-01f,-1.86123818e-01f,
-4.19819355e-03f,-1.16706304e-01f,-5.48601896e-02f,-6.51365668e-02f,-1.80527225e-01f,
+1.74270272e-01f,-5.07939458e-02f,+1.86816365e-01f,+2.47699171e-02f,-1.06544480e-01f,
-1.82102486e-01f,+1.46216363e-01f,+9.33902562e-02f,+1.59281105e-01f,+7.52129257e-02f,
-2.13685185e-02f,-8.55185091e-03f,+6.54599965e-02f,+1.71427310e-01f,+1.22634113e-01f,
+2.74451226e-02f,+1.40518486e-01f,-7.72105083e-02f,+1.53684944e-01f,-9.31746960e-02f,
-1.43613651e-01f,-1.14538550e-01f,+1.93470091e-01f,+1.80261701e-01f,+2.05968469e-02f,
+1.14940554e-02f,+8.97943974e-02f,-1.47971451e-01f,-1.03122026e-01f,+1.81079358e-01f,
+1.15552932e-01f,-1.10236980e-01f,+1.70672685e-02f,-6.56095743e-02f,-1.16314881e-01f,
+1.05582178e-01f,+1.21521384e-01f,-7.97256455e-02f,-6.68263435e-03f,-4.26341742e-02f,
+2.67616808e-02f,-6.18589967e-02f,-1.10881463e-01f,+1.88931435e-01f,-1.05863847e-01f,
-1.62950158e-03f,-1.20071374e-01f,-9.64375436e-02f,+8.18124712e-02f,+7.76096880e-02f,
-1.04921803e-01f,-1.59115672e-01f,+5.05058914e-02f,+1.47947490e-01f,+1.20014399e-01f,
+1.11723125e-01f,-1.53233588e-01f,-7.87685961e-02f,+1.87216610e-01f,-1.89317763e-02f,
+1.35479003e-01f,+1.23116493e-01f,+1.88380361e-01f,+1.37165010e-01f,+3.23655009e-02f,
+1.76713675e-01f,-7.37014413e-03f,+8.54071677e-02f,+1.86177731e-01f,-1.34166017e-01f,
+1.64082199e-01f,-1.93242729e-02f,+7.09635019e-03f,-6.45300895e-02f,-1.59517229e-02f,
-3.45662236e-02f,-1.77993715e-01f,+1.22968316e-01f,-1.70321494e-01f,-1.60144061e-01f,
+1.59132391e-01f,+4.05242294e-02f,+7.08489418e-02f,-9.55098644e-02f,+1.74983591e-01f,
-2.60107815e-02f,-1.88342810e-01f,+1.38585925e-01f,-1.63275599e-01f,-1.69208720e-01f,
+1.78354800e-01f,+1.95514709e-02f,+1.18460208e-01f,+1.17763042e-01f,-1.43333629e-01f,
-2.62086540e-02f,+1.80430859e-01f,-1.09856404e-01f,-8.83241668e-02f,+2.90417224e-02f,
-8.78775716e-02f,-1.21732928e-01f,+9.73483920e-02f,+2.83371657e-02f,+1.79923713e-01f,
-9.53429118e-02f,+8.45911205e-02f,+2.65592635e-02f,+7.75704980e-02f,+1.45704955e-01f,
+1.31580949e-01f,-3.13290507e-02f,+3.82419229e-02f,-1.18329376e-02f,+6.31626248e-02f,
-1.53329074e-02f,+4.08032686e-02f,+1.56416893e-01f,-7.47128725e-02f,-6.69374615e-02f,
+3.59697789e-02f,-4.95602041e-02f,-8.70262533e-02f,+3.87374163e-02f,+1.50866151e-01f,
+1.82419628e-01f,-3.59615684e-02f,-1.16603628e-01f,-1.00340351e-01f,+1.79821998e-01f,
+9.91303325e-02f,+8.77803564e-03f,+6.80396557e-02f,-8.61398876e-02f,+6.72477484e-03f,
-1.22749209e-01f,+1.08782053e-01f,+2.39808857e-02f,+6.20666146e-02f,-7.41802156e-02f,
-1.36503026e-01f,+9.04406309e-02f,+2.90759802e-02f,+1.14568025e-01f,+7.80297816e-03f,
+8.82871449e-02f,-9.33624730e-02f,-3.66515219e-02f,+3.34782004e-02f,-5.49876243e-02f,
-1.38411447e-01f,+1.59648389e-01f,+1.22153163e-01f,+1.61682010e-01f,+1.32848352e-01f,
-5.00330329e-03f,+1.89431071e-01f,+4.08338308e-02f,+1.69436783e-02f,-1.91818461e-01f,
+1.71578169e-01f,+8.89136195e-02f,-1.54656023e-02f,-1.51005536e-01f,-1.23425871e-01f,
-1.50088146e-01f,+8.89739096e-02f,+1.53401464e-01f,+7.99159110e-02f,+1.40150785e-01f,
+1.78142995e-01f,+1.51625216e-01f,+1.56308472e-01f,-1.56037778e-01f,-1.43827647e-01f,
+1.73690349e-01f,-1.23275310e-01f,-1.88501030e-02f,-4.98645157e-02f,-1.41429365e-01f,
+1.22024119e-01f,-2.70470083e-02f,+5.64162135e-02f,+9.34781134e-03f,-6.91069216e-02f,
+1.66262120e-01f,-1.61616057e-02f,-1.06339529e-01f,+4.44871932e-02f,+8.20970535e-02f,
+1.93150729e-01f,-6.65960759e-02f,-4.54881936e-02f,-1.38748392e-01f,-1.18623130e-01f,
-4.85422164e-02f,+1.32247537e-01f,+8.91184211e-02f,+3.55421603e-02f,+1.19226605e-01f,
+1.63974792e-01f,-3.38063687e-02f,+6.58527613e-02f,-2.29450762e-02f,+4.70562875e-02f,
-8.11694115e-02f,+7.36159682e-02f,+8.36850107e-02f,-8.46930295e-02f,+9.56763625e-02f,
-6.11075312e-02f,+6.35342598e-02f,-5.79466820e-02f,+5.87523878e-02f,+7.50496686e-02f,
+1.46545231e-01f,+1.52914375e-01f,+1.93620026e-01f,-1.42510682e-02f,+1.78254247e-02f,
+1.77324444e-01f,+1.80251896e-02f,-8.78727734e-02f,-5.18954694e-02f,+1.58420831e-01f,
+9.11403298e-02f,-1.42310843e-01f,+6.47846162e-02f,+1.37280881e-01f,+3.78451943e-02f,
+1.22498870e-01f,-1.61471814e-01f,+5.77458441e-02f,+1.35690719e-01f,-5.24235964e-02f,
-1.15132615e-01f,+1.18229657e-01f,+1.90697402e-01f,+1.14603549e-01f,-8.30595195e-03f,
-1.29824013e-01f,+1.87869966e-02f,-1.67262673e-01f,-1.74978524e-02f,-2.30568945e-02f,
+1.71914250e-01f,+1.59837186e-01f,-9.97090265e-02f,+1.89599991e-02f,+1.10317230e-01f,
-6.65887892e-02f,+1.11832649e-01f,+8.73360932e-02f,-1.73420116e-01f,-1.02968141e-01f,
+8.41840208e-02f,-4.11121994e-02f,+4.06935811e-04f,-7.43797198e-02f,+9.44433510e-02f,
+4.71593440e-02f,-1.37761682e-02f,+1.22155935e-01f,+8.57084394e-02f,-8.05600211e-02f,
+1.15066677e-01f,-1.09138146e-01f,+8.23980272e-02f,-2.75641978e-02f,-8.60829577e-02f,
-1.78697303e-01f,-3.52211446e-02f,-1.77216530e-03f,+1.01275086e-01f,-1.49863899e-01f,
+1.04484260e-01f,+1.79557532e-01f,-1.93335176e-01f,-8.35711956e-02f,-8.06369409e-02f,
+1.00395381e-01f,+4.76938486e-02f,+1.23514920e-01f,-6.07563555e-03f,+1.58468485e-01f,
-7.97938332e-02f,+1.30123496e-01f,-1.64836049e-01f,-1.77026004e-01f,+1.64617568e-01f,
-1.31713718e-01f,-1.67826444e-01f,+9.80323851e-02f,+4.41910028e-02f,+1.91507220e-01f,
-9.93028730e-02f,-1.45966262e-01f,+1.63865983e-01f,+1.76877201e-01f,-2.65927911e-02f,
+1.89871132e-01f,+1.00003362e-01f,-1.50397852e-01f,-9.23514962e-02f,-1.21505491e-01f,
-1.02929175e-01f,-2.48588920e-02f,-1.54725745e-01f,+1.23176843e-01f,+5.89640141e-02f,
+1.16284698e-01f,+9.58098769e-02f,+1.49815053e-01f,+5.37218451e-02f,+6.80761039e-02f,
+1.64345682e-01f,-9.32576656e-02f,-7.56265223e-02f,-1.42478794e-02f,-1.71859398e-01f,
+2.42720693e-02f,-9.22020003e-02f,+2.93581635e-02f,+1.64193273e-01f,+7.56481886e-02f,
-1.17531821e-01f,-1.78851873e-01f,-1.83688596e-01f,-3.00668180e-02f,+1.53837502e-02f,
-3.88146639e-02f,+1.37350440e-01f,-1.31348759e-01f,+1.99929476e-02f,-8.14564973e-02f,
+1.68303251e-01f,-1.87590569e-01f,+1.89758450e-01f,-2.82947421e-02f,+6.98636770e-02f,
+4.45087999e-02f,-1.53151035e-01f,+1.61523134e-01f,-1.71349972e-01f,-9.42966193e-02f,
+7.96467960e-02f,+1.69112921e-01f,+1.68218762e-01f,+5.15050590e-02f,+1.00720614e-01f,
+1.74335837e-01f,-1.57346144e-01f,+1.59468055e-01f,-1.02309205e-01f,-1.74486816e-01f,
+1.13967031e-01f,-1.50000662e-01f,-5.52261323e-02f,+6.47416711e-03f,-4.47683185e-02f,
+5.39004207e-02f,-1.49230540e-01f,+1.64485991e-01f,+1.33603662e-02f,-8.75874907e-02f,
-9.00768116e-02f,-6.03972226e-02f,+6.61509037e-02f,+1.88588619e-01f,-1.53879523e-02f,
-1.79233551e-01f,+1.61974877e-02f,+1.47637039e-01f,+8.76452029e-02f,+2.29825079e-02f,
+1.07610673e-01f,-8.86509120e-02f,+3.36053520e-02f,-1.33117437e-02f,+1.24928474e-01f,
-4.93493527e-02f,-3.94758582e-03f,-9.76086408e-02f,+1.58945322e-01f,+1.15295947e-02f,
-2.42295563e-02f,-6.48497641e-02f,+5.08842170e-02f,-8.89650956e-02f,-7.16746449e-02f,
-3.34778726e-02f,+3.40534747e-02f,-2.91003436e-02f,+1.71344936e-01f,-8.67683515e-02f,
+5.97012937e-02f,-8.44693780e-02f,+3.29023153e-02f,-1.53132379e-01f,-1.79112315e-01f,
+1.25666559e-02f,+5.31306416e-02f,+1.47751093e-01f,+1.37015730e-01f,+2.98229903e-02f,
+1.20698214e-01f,-7.40736127e-02f,+7.85941184e-02f,-1.48694664e-01f,+2.36798525e-02f,
+4.59533483e-02f,-8.02272260e-02f,-1.65394470e-01f,-8.42929706e-02f,-8.35704580e-02f,
-3.21310163e-02f,-1.49561167e-01f,+6.24477863e-02f,+9.92773771e-02f,-9.24899131e-02f,
+9.96315181e-02f,+5.22735864e-02f,+1.70385063e-01f,-7.93845877e-02f,-1.61414593e-01f,
-7.49840289e-02f,+1.81188852e-01f,+1.03636354e-01f,-2.85123885e-02f,+4.68569994e-03f,
+1.23868912e-01f,+1.53392226e-01f,+1.08777732e-02f,+8.97241831e-02f,+2.42336690e-02f,
+1.69152021e-03f,+4.11468148e-02f,-1.08224750e-02f,+8.86295438e-02f,+1.54738307e-01f,
+1.39820278e-01f,+1.64153129e-02f,-1.22402526e-01f,-3.43491882e-02f,-1.90309867e-01f,
+1.52992308e-01f,+1.49992526e-01f,+1.20148659e-01f,-1.23871267e-01f,-1.38774946e-01f,
-1.06530815e-01f,-1.59476966e-01f,-1.31119668e-01f,+5.99220097e-02f,-1.48964107e-01f,
-1.81358829e-01f,+5.82934916e-02f,-4.99480963e-03f,+1.85981333e-01f,+5.44962883e-02f,
+1.18905783e-01f,+1.77178770e-01f,+2.85870433e-02f,-6.47288561e-03f,+3.37894708e-02f,
-4.97616380e-02f,+1.70649707e-01f,-1.40112936e-01f,+4.16194052e-02f,+1.37613863e-02f,
+1.18662775e-01f,-1.79691702e-01f,-1.38664782e-01f,+5.76104820e-02f,-4.40692157e-02f,
+1.80671960e-01f,+9.33946967e-02f,+1.43371403e-01f,-1.55959025e-01f,-1.15015119e-01f,
-7.55942538e-02f,+1.36868060e-01f,+1.73613697e-01f,+1.04489893e-01f,-5.31442165e-02f,
+6.27680123e-02f,+4.69557345e-02f,-7.42355287e-02f,-4.91691977e-02f,+1.33746564e-01f,
+1.74671918e-01f,-1.86072007e-01f,+1.77481055e-01f,-1.42967597e-01f,-4.62364554e-02f,
+7.05684125e-02f,+6.48579299e-02f,+2.97439992e-02f,+1.50512248e-01f,+1.23269230e-01f,
+1.80900127e-01f,-7.67306685e-02f,-1.98674053e-02f,+6.79176748e-02f,+1.42380983e-01f,
+1.26223654e-01f,+1.19980425e-01f,-1.43155277e-01f,+1.84080124e-01f,+7.03280568e-02f,
+7.15336502e-02f,+1.75709814e-01f,+4.21380997e-03f,-1.25469416e-02f,-1.42784625e-01f,
+9.22724605e-02f,-1.17123216e-01f,+1.02698982e-01f,-8.60021636e-02f,-9.45915505e-02f,
+1.42894477e-01f,+2.08213627e-02f,+1.90894663e-01f,-6.47521615e-02f,-1.14124596e-01f,
+4.57471162e-02f,-1.64294988e-01f,+2.49731541e-03f,+1.00307286e-01f,+2.74143368e-02f,
-9.57646742e-02f,-1.58824116e-01f,+6.75599277e-03f,-1.16114274e-01f,+1.57734096e-01f,
+4.55388874e-02f,+1.52526140e-01f,-6.58075064e-02f,+3.67730856e-03f,+1.29763782e-03f,
+8.01597834e-02f,+1.58464730e-01f,-4.63284254e-02f,-1.60607651e-01f,+1.93568558e-01f,
+1.07710779e-01f,+1.74395174e-01f,-6.90323561e-02f,+1.80263430e-01f,-6.50923848e-02f,
+8.25901926e-02f,+1.67111754e-01f,+3.69493216e-02f,-1.65218472e-01f,-2.40596086e-02f,
-1.18128054e-01f,-1.82052255e-01f,+8.05197954e-02f,-1.70456260e-01f,+1.62211955e-01f,
+1.61179096e-01f,-4.53410447e-02f,+1.67212784e-02f,+8.79111290e-02f,+1.63382947e-01f,
-8.59539136e-02f,-1.60352141e-01f,+3.26219797e-02f,+5.71967363e-02f,+1.75811648e-01f,
+6.04733825e-04f,+2.49181688e-02f,+1.77037746e-01f,+1.14360154e-01f,-1.43062621e-01f,
-4.51460779e-02f,-4.95476425e-02f,+1.23097688e-01f,-3.38650048e-02f,-1.53436184e-01f,
+1.19088888e-01f,-1.60701469e-01f,-2.05177516e-02f,-1.51236385e-01f,+8.76457691e-02f,
-1.84473246e-02f,+1.60350680e-01f,-1.63810670e-01f,+1.87282264e-03f,+1.34818256e-01f,
+8.76810253e-02f,-1.03924543e-01f,-1.72566310e-01f,-5.92626035e-02f,-4.13592905e-02f,
-1.90551057e-01f,-5.30289114e-03f,-9.35394391e-02f,+4.74830419e-02f,+1.75198674e-01f,
-1.14741147e-01f,+3.85145843e-03f,-1.49888873e-01f,-1.14077643e-01f,-1.91864520e-02f,
-1.12830929e-01f,-1.40258327e-01f,+1.64917022e-01f,+1.36049271e-01f,-6.76689744e-02f,
-3.01209241e-02f,+1.66891128e-01f,-1.21178925e-02f,-1.00207523e-01f,-1.26476794e-01f,
-1.21650465e-01f,+1.61255896e-02f,-7.79556856e-02f,+1.82922959e-01f,-3.36772799e-02f,
-3.11937183e-02f,+1.03270262e-02f,-3.62671614e-02f,+1.88492686e-01f,+4.74506766e-02f,
-1.51872516e-01f,+6.77000284e-02f,-1.48502737e-01f,+3.77019197e-02f,-7.15107843e-02f,
-9.05427337e-03f,+6.27794266e-02f,+7.19823539e-02f,+1.54844314e-01f,-1.55318737e-01f,
-7.34118149e-02f,+1.52088076e-01f,-4.69227284e-02f,-8.36150125e-02f,+1.32711947e-01f,
+6.68965578e-02f,-1.05263732e-01f,-3.87097597e-02f,+1.63707525e-01f,-1.05000295e-01f,
-1.81949571e-01f,-1.31323874e-01f,+1.83651716e-01f,+1.21652871e-01f,-1.76761359e-01f,
+6.02352917e-02f,-1.22297026e-01f,-7.42554292e-02f,-1.25391871e-01f,+2.57928073e-02f,
+8.76562297e-02f,+9.20410156e-02f,-1.30935341e-01f,+4.89074141e-02f,+1.35756284e-01f,
+1.88252836e-01f,-6.87237605e-02f,-1.48027420e-01f,-3.58460397e-02f,+3.73242050e-02f,
-4.65683788e-02f,-1.10429697e-01f,+9.03718472e-02f,+5.67636788e-02f,-1.45122796e-01f,
+3.27030569e-02f,-1.50670946e-01f,+6.27794862e-03f,+4.76076007e-02f,+1.45180464e-01f,
+8.80877674e-02f,+5.91544211e-02f,+1.90182388e-01f,+4.05105054e-02f,-1.02450207e-01f,
-1.75907776e-01f,+1.49535924e-01f,-1.37978613e-01f,+1.07548296e-01f,-1.23204440e-01f,
-1.38502032e-01f,+1.21952087e-01f,-1.19576298e-01f,-1.15734026e-01f,+1.55472666e-01f,
+5.59233129e-03f,+5.52662164e-02f,-6.89198896e-02f,-1.22244440e-01f,-4.13466841e-02f,
+4.22787666e-02f,+1.60130173e-01f,-8.64529163e-02f,-1.63136676e-01f,+9.61022675e-02f,
+1.89071268e-01f,-4.75109667e-02f,+1.86243981e-01f,+6.95838630e-02f,-1.37151152e-01f,
+1.38304740e-01f,-7.67641440e-02f,+6.50249720e-02f,-2.74807662e-02f,+1.78967357e-01f,
-1.45193338e-01f,-9.61759984e-02f,-1.50554270e-01f,+1.00257695e-02f,-9.65495110e-02f,
+2.88496464e-02f,-5.13285995e-02f,-9.18144509e-02f,+1.88717991e-01f,-1.69992492e-01f,
-1.64625689e-01f,+7.79307485e-02f,+7.10281432e-02f,+1.54465944e-01f,+1.50700301e-01f,
+1.85250968e-01f,+1.53733939e-01f,+5.21807969e-02f,+1.45387650e-03f,+3.20974439e-02f,
-5.13267070e-02f,+4.30439413e-03f,-5.66491783e-02f,-1.40152633e-01f,-1.82388231e-01f,
-1.16807096e-01f,-1.40643105e-01f,+5.59996068e-02f,+8.70009363e-02f,-3.06691974e-02f,
-1.74813062e-01f,+5.55959493e-02f,+2.82540619e-02f,-1.70257732e-01f,-2.50251889e-02f,
-1.10901915e-01f,-1.69529498e-01f,-1.44191742e-01f,+1.71330571e-03f,+1.61811858e-01f,
-4.61361855e-02f,+1.66963965e-01f,-6.57781363e-02f,+9.82654095e-02f,-7.17649981e-02f,
+7.55335391e-02f,-1.83390081e-03f,+9.13049281e-03f,-5.08902669e-02f,+3.42691243e-02f,
+1.78083748e-01f,+1.09487474e-02f,-9.54807326e-02f,-1.74452752e-01f,-1.90264672e-01f,
+1.09367371e-01f,+1.44488156e-01f,-1.48870140e-01f,+3.72607261e-02f,-7.20697120e-02f,
-9.61022601e-02f,+3.25897485e-02f,-6.15499914e-03f,+1.33270800e-01f,-6.31454587e-02f,
+1.12191945e-01f,+3.48326564e-03f,-1.85374469e-02f,+1.34184897e-01f,+4.38449234e-02f,
+1.52724236e-01f,+1.33567214e-01f,-1.31090388e-01f,+1.66268766e-01f,-1.02284998e-02f,
-8.46729875e-02f,+5.55230528e-02f,+5.75717688e-02f,+7.38690495e-02f,+1.85776204e-02f,
+1.26122445e-01f,-7.94707239e-03f,+3.39368433e-02f,+3.02242637e-02f,-1.62514359e-01f,
+1.88196778e-01f,-3.59169245e-02f,+1.01480782e-01f,+1.85619771e-01f,+1.24216855e-01f,
+3.21253836e-02f,+1.47779077e-01f,-1.00757867e-01f,+1.26195908e-01f,-3.19750011e-02f,
+9.84580219e-02f,+1.38010532e-02f,-8.22299719e-02f,+1.01237625e-01f,+1.69919074e-01f,
-1.03784092e-01f,-3.03919464e-02f,+1.04141682e-01f,+8.67049098e-02f,+6.83819354e-02f,
+1.00933164e-02f,-5.63927889e-02f,+5.18023819e-02f,-1.42792672e-01f,+1.68399960e-01f,
+3.16258669e-02f,+1.72474533e-01f,-9.61108059e-02f,-9.88527685e-02f,-1.08695291e-01f,
+1.05793953e-01f,+9.31138396e-02f,+8.08337033e-02f,-1.85521066e-01f,-9.13059413e-02f,
-1.49756461e-01f,-1.47286952e-01f,-5.49078435e-02f,+5.37930280e-02f,-7.61756301e-03f,
-1.91457823e-01f,-1.00787871e-01f,+6.81466758e-02f,+1.07000500e-01f,-1.88075170e-01f,
-1.30220085e-01f,+1.60749584e-01f,+1.22000188e-01f,-1.51759386e-02f,+1.25694275e-01f,
-1.33316085e-01f,+8.95311832e-02f,+1.38196528e-01f,-8.32976475e-02f,+1.88925862e-03f,
+1.09732270e-01f,+9.16372836e-02f,-5.83444685e-02f,+1.92519873e-01f,-1.35342509e-01f,
-2.61817873e-02f,+5.24830669e-02f,+1.16574138e-01f,+1.57280296e-01f,-1.78323179e-01f,
+6.79499209e-02f,-1.23440690e-01f,+9.76844132e-02f,-2.11807936e-02f,+8.52622986e-02f,
+4.87850606e-02f,-8.60863775e-02f,-2.70649791e-04f,-6.12476468e-03f,-1.48753792e-01f,
-4.78077978e-02f,-1.43992007e-01f,-1.58196256e-01f,+1.54179096e-01f,-1.32887542e-01f,
-2.82019377e-02f,+7.50125945e-02f,-3.97183299e-02f,+9.66803133e-02f,+6.61264062e-02f,
+7.38757253e-02f,+4.91746962e-02f,+1.22339964e-01f,+2.73151547e-02f,+5.34821749e-02f,
+3.75582427e-02f,-2.44736969e-02f,-6.76776916e-02f,-1.86690584e-01f,-1.45411864e-01f,
-5.04390001e-02f,+1.35944486e-02f,+1.30339593e-01f,+1.92843318e-01f,-7.20221102e-02f,
-1.35888606e-02f,-2.28859335e-02f,+1.71140224e-01f,+1.20848835e-01f,+4.53722477e-03f,
+9.68640149e-02f,+5.82890809e-02f,-1.86126307e-01f,+1.48653805e-01f,-1.81965128e-01f,
+1.49304152e-01f,-9.23168659e-02f,-4.07676697e-02f,+1.16789043e-01f,+3.03616971e-02f,
-1.23429298e-03f,-1.27792865e-01f,+1.68250084e-01f,+8.63079727e-03f,+1.34039640e-01f,
-1.85726523e-01f,+1.25825405e-01f,-1.87370762e-01f,+1.15940869e-01f,-9.02582109e-02f,
-1.43621221e-01f,-5.01151234e-02f,+4.42972481e-02f,-1.07890368e-02f,+3.77279669e-02f,
+7.65996277e-02f,-1.29594311e-01f,+4.45358902e-02f,+2.74932832e-02f,-2.89386213e-02f,
-4.71550524e-02f,+1.32896125e-01f,-1.04052894e-01f,-1.44760966e-01f,-7.11278543e-02f,
+1.83792651e-01f,+1.02537245e-01f,+9.06146765e-02f,-2.33267993e-02f,-5.24167567e-02f,
+3.46939713e-02f,+1.37637198e-01f,-1.90752774e-01f,+1.38380557e-01f,-1.54800072e-01f,
-8.83634388e-03f,+1.17693335e-01f,+5.78311086e-02f,-3.90771329e-02f,-2.19565332e-02f,
-4.12936509e-03f,+1.15093499e-01f,-1.31539479e-01f,-1.88815594e-03f,+1.92380309e-01f,
+1.58745766e-01f,-2.23224759e-02f,-1.52960166e-01f,-1.16580911e-01f,+2.20231116e-02f,
+4.81065065e-02f,-3.23448181e-02f,+5.24111837e-02f,-1.88461095e-01f,-1.43662408e-01f,
-5.27257323e-02f,-1.91964209e-01f,-1.85789734e-01f,-7.76573867e-02f,+1.55421734e-01f,
-1.09818578e-03f,+1.27368987e-01f,+1.76662982e-01f,+1.05718195e-01f,+7.28340149e-02f,
-6.47917688e-02f,-1.26163453e-01f,+1.26958668e-01f,+1.84605896e-01f,+6.89346194e-02f,
+1.92913085e-01f,-1.38366848e-01f,+1.22776955e-01f,-6.75760806e-02f,+1.17777675e-01f,
+6.15918040e-02f,+1.63062215e-01f,+1.95361674e-03f,-1.18265085e-01f,-1.35796398e-01f,
+1.14410758e-01f,+8.51280391e-02f,+1.82178795e-01f,-1.86397001e-01f,-6.42179400e-02f,
+8.28219950e-02f,-1.95321739e-02f,-1.19139954e-01f,+9.53875184e-02f,+1.24146104e-01f,
+6.22098148e-03f,-9.17661190e-03f,+1.53119743e-01f,+5.75123131e-02f,+1.33265167e-01f,
-1.61237359e-01f,+1.59891516e-01f,+1.13179505e-01f,+5.67072928e-02f,-1.44154996e-01f,
-6.25207871e-02f,+1.78714246e-01f,+8.48369896e-02f,-3.15486789e-02f,+1.65836453e-01f,
+1.45324498e-01f,+1.19618505e-01f,+1.56510741e-01f,+6.85801208e-02f,-1.67549938e-01f,
-2.68041939e-02f,-9.27423164e-02f,+1.89651936e-01f,+1.69162691e-01f,+1.40223235e-01f,
-1.11240290e-01f,-9.88260359e-02f,-7.35657439e-02f,-1.60424039e-01f,+1.00699276e-01f,
+4.05474007e-02f,-1.63409039e-01f,+1.53222322e-01f,+7.87065923e-03f,+8.12323093e-02f,
-6.03056252e-02f,-8.25159922e-02f,+1.39293611e-01f,+5.22338897e-02f,+1.12984270e-01f,
-1.26839012e-01f,+3.20587158e-02f,-1.75560355e-01f,+1.40867859e-01f,-4.71012592e-02f,
+5.40916622e-02f,+1.48566037e-01f,-1.88786268e-01f,-1.86490357e-01f,+1.27027422e-01f,
-8.31156895e-02f,-1.89096212e-01f,+3.00350487e-02f,-2.38338858e-02f,-1.22336544e-01f,
-7.78064206e-02f,-1.42202705e-01f,-9.49158892e-02f,+8.24233294e-02f,+1.72436535e-01f,
-9.79482606e-02f,+1.00063324e-01f,-7.53405541e-02f,+1.27242208e-01f,-6.68540597e-03f,
+1.39468163e-01f,-8.20276141e-03f,+1.57177806e-01f,-9.93713439e-02f,+1.36951298e-01f,
-7.41538405e-03f,+4.27993238e-02f,-3.74928713e-02f,-1.12874463e-01f,+1.51581168e-02f,
+1.87724501e-01f,+1.69573367e-01f,-2.61486322e-02f,+1.46344662e-01f,-4.37380821e-02f,
-2.86851972e-02f,-7.05493540e-02f,-1.08096011e-01f,+5.75178862e-02f,+1.37366056e-02f,
-1.29536688e-01f,+6.67963624e-02f,+1.06238693e-01f,-6.11197203e-02f,-1.43437415e-01f,
+3.36070508e-02f,+3.52496803e-02f,+9.93286371e-02f,+1.93161964e-02f,-1.90849587e-01f,
+1.84703410e-01f,+1.01383567e-01f,-1.75614089e-01f,-1.19929500e-01f,+1.61433250e-01f,
+1.58042014e-01f,-7.21247941e-02f,+1.41687989e-02f,+3.99187207e-04f,+1.19651288e-01f,
+1.45894974e-01f,-5.63619137e-02f,-9.87184122e-02f,-1.36347294e-01f,+6.49120808e-02f,
+1.82136387e-01f,+1.15499884e-01f,+1.30095929e-01f,-5.75105548e-02f,-1.72944993e-01f,
-1.43033579e-01f,+1.18198097e-01f,-1.30542487e-01f,+3.09066474e-02f,-1.91608056e-01f,
-1.72611967e-01f,+9.89546180e-02f,+5.83767891e-02f,+1.83012992e-01f,+1.15769893e-01f,
-1.87038481e-01f,+1.30494952e-01f,-9.46517289e-03f,+1.33303612e-01f,-1.32231742e-01f,
+3.40838432e-02f,-1.79241955e-01f,-8.36691707e-02f,+6.97627664e-04f,+1.93034947e-01f,
-1.33935586e-01f,+4.13574427e-02f,-2.55772918e-02f,+7.80221224e-02f,-1.07773885e-01f,
+1.57295108e-01f,-1.44690275e-01f,-1.24593318e-01f,+1.28450841e-01f,+1.24624074e-02f,
+1.19714797e-01f,-1.15464807e-01f,+1.90628290e-01f,-1.92488834e-01f,+6.02367818e-02f,
-1.08410008e-01f,-1.27751678e-01f,+1.82679832e-01f,-1.04116142e-01f,-1.55931413e-01f,
-4.01854515e-03f,-2.12264508e-02f,-1.77689746e-01f,-1.49391949e-01f,-1.88338608e-01f,
-1.11775167e-01f,+1.33579999e-01f,-4.85344529e-02f,+1.48807764e-01f,+5.69578111e-02f,
-3.12388390e-02f,+1.63751423e-01f,+7.05554783e-02f,-4.26509827e-02f,-1.46683007e-02f,
+5.55180162e-02f,+1.88147455e-01f,+1.15602016e-01f,-1.46982178e-01f,-1.61325678e-01f,
-1.65701300e-01f,+2.03368217e-02f,+1.15433604e-01f,-1.27881557e-01f,+7.98076987e-02f,
+4.41176891e-02f,+2.17690468e-02f,+1.75483972e-02f,-1.32626295e-03f,-1.54267877e-01f,
+1.76875621e-01f,+1.52843326e-01f,+1.23268664e-01f,-8.20779800e-02f,+1.36823505e-01f,
-2.71822810e-02f,-9.91800427e-03f,-7.75935352e-02f,-1.39664859e-01f,-1.32907152e-01f,
-1.47976860e-01f,+8.27353299e-02f,+1.44223005e-01f,-1.59919769e-01f,-1.55763626e-02f,
-1.73384890e-01f,-1.88114554e-01f,+1.80502802e-01f,+7.39434958e-02f,+9.87852812e-02f,
-1.66526958e-01f,+9.91297066e-02f,-3.89006734e-02f,-1.34506986e-01f,-1.76338956e-01f,
-1.73681721e-01f,-1.32787257e-01f,-2.07708478e-02f,-1.87200904e-02f,-1.03321247e-01f,
-2.58656144e-02f,-2.06538588e-02f,+1.39329523e-01f,+3.24498117e-03f,+9.03644562e-02f,
+9.86689329e-03f,+1.86481535e-01f,-1.30508468e-01f,+1.64048225e-02f,+1.81547195e-01f,
-1.47847265e-01f,+1.03075296e-01f,-1.19420059e-01f,+1.80489689e-01f,-5.85655868e-02f,
-1.25173122e-01f,+3.46551090e-02f,+8.86406600e-02f,+8.80578160e-03f,+3.61470878e-03f,
+9.21383798e-02f,-1.04875587e-01f,+1.04462177e-01f,+5.95914721e-02f,+8.33034515e-02f,
-9.49687511e-02f,-7.02403411e-02f,+7.66861737e-02f,+1.67538315e-01f,+7.79695511e-02f,
-6.26428574e-02f,-2.61985064e-02f,-1.58877730e-01f,-1.00272022e-01f,-6.66662604e-02f,
-1.19111650e-01f,-2.09451020e-02f,-1.21280745e-01f,+1.75624669e-01f,+1.02976024e-01f,
-8.64083171e-02f,-4.03280556e-02f,-3.57744843e-02f,+1.57920897e-01f,+7.80371726e-02f,
-1.35043651e-01f,-1.03494331e-01f,-1.36476755e-01f,+1.32452220e-01f,-1.10570513e-01f,
-7.00613409e-02f,-1.59067333e-01f,+1.18093103e-01f,-3.36360484e-02f,+1.14782363e-01f,
-5.41265607e-02f,-9.82352495e-02f,-1.76868111e-01f,-1.57517940e-01f,+6.25649691e-02f,
-4.33521569e-02f,+7.74438381e-02f,+6.63061738e-02f,-1.07216388e-02f,-1.90535590e-01f,
-1.45364627e-01f,+1.73457056e-01f,+1.21239692e-01f,-1.45630389e-02f,+7.39564896e-02f,
+1.53851807e-01f,-8.53524655e-02f,+3.87070328e-02f,-1.53949350e-01f,+1.51485741e-01f,
+1.86046839e-01f,+5.19336462e-02f,+2.97378004e-03f,+1.49801672e-01f,-1.60695016e-02f,
+5.67009151e-02f,-1.61161214e-01f,-1.55440077e-01f,-4.90635633e-02f,+2.39699483e-02f,
-7.41917565e-02f,-1.30699843e-01f,+1.21865720e-01f,-4.53922898e-02f,+5.60782850e-02f,
-1.06463730e-01f,-1.55264139e-03f,+1.71323001e-01f,+2.42653787e-02f,+1.80029422e-01f,
+5.29925376e-02f,+1.86812133e-02f,+1.28188312e-01f,-3.36975008e-02f,+8.68155360e-02f,
-1.93416774e-02f,+1.92544103e-01f,-4.12189364e-02f,+1.99775249e-02f,+4.80689257e-02f,
+9.22356546e-02f,-1.46311983e-01f,-1.38355955e-01f,+2.63641626e-02f,-5.74978143e-02f,
-1.02569051e-01f,-1.85840786e-01f,+1.47962630e-01f,-1.83161438e-01f,+9.16661620e-02f,
+2.90378779e-02f,-2.62300372e-02f,-4.13240492e-03f,-1.83905870e-01f,-1.12772755e-01f,
+1.75259650e-01f,-1.68389082e-03f,+2.66322643e-02f,+2.57417858e-02f,-1.48636207e-01f,
+1.26080126e-01f,+2.93507278e-02f,+5.05465716e-02f,+2.07607001e-02f,-4.27895784e-02f,
-1.80922538e-01f,-7.09161162e-04f,-8.22338983e-02f,+1.83644325e-01f,+8.78753960e-02f,
-1.27153605e-01f,-9.71118510e-02f,-2.51333416e-03f,+3.68256271e-02f,-6.60760254e-02f,
+1.55117363e-01f,-1.48576409e-01f,-1.64383054e-02f,+1.33701354e-01f,+7.19985664e-02f,
+9.84712243e-02f,+1.82695866e-01f,-2.05131769e-02f,-1.63749769e-01f,-9.98788401e-02f,
-6.65958524e-02f,-8.61941800e-02f,-1.22601420e-01f,+2.25911289e-02f,-1.48020357e-01f,
+1.27902001e-01f,+4.46891785e-02f,+1.00320280e-01f,+1.44467741e-01f,+1.19653344e-03f,
+9.15831327e-02f,+4.64095026e-02f,-1.15682222e-01f,+1.00317448e-01f,-6.02195114e-02f,
-1.67663887e-01f,-5.45597672e-02f,+1.50029838e-01f,+1.84809685e-01f,+8.83780122e-02f,
+1.38173491e-01f,+3.97139490e-02f,-1.63279951e-01f,-1.05503909e-01f,-5.76316565e-02f,
+1.17428482e-01f,-3.41958553e-02f,-1.08807988e-01f,+1.43752724e-01f,-8.90704989e-02f,
-9.09782723e-02f,-1.23768032e-01f,-8.96534324e-03f,-7.38388374e-02f,+9.55598950e-02f,
+1.85270280e-01f,+8.53615105e-02f,-5.82229048e-02f,-4.65818495e-02f,+1.16962224e-01f,
+1.61089569e-01f,+1.11876279e-01f,-7.76779279e-02f,-9.55821648e-02f,-4.20401096e-02f,
-1.93316296e-01f,-9.92327929e-02f,+1.74345076e-03f,-5.72622120e-02f,+5.61509579e-02f,
-1.92584038e-01f,-1.21641323e-01f,-1.20036699e-01f,+1.92250788e-01f,-1.86071545e-01f,
+1.18254662e-01f,+6.42874539e-02f,+3.51382792e-03f,+1.74633116e-02f,+8.46465230e-02f,
+1.17776424e-01f,-1.67843163e-01f,-1.67859972e-01f,-4.55413312e-02f,-2.50384957e-02f,
+5.93993068e-02f,-9.06285644e-03f,-1.66038722e-02f,+1.07305229e-01f,-4.74810600e-02f,
-9.51282233e-02f,+1.79513812e-01f,-1.29588217e-01f,+1.72651917e-01f,+1.32953525e-01f,
+1.42855227e-01f,+1.45599574e-01f,-5.16925454e-02f,+1.72497094e-01f,-1.03827491e-01f,
+2.24597901e-02f,-1.34127140e-01f,-4.95786220e-02f,-4.85570878e-02f,+4.17454541e-02f,
+8.03853571e-03f,+1.21150970e-01f,+5.84834516e-02f,+2.88978070e-02f,-1.24217816e-01f,
+3.32992375e-02f,-9.84692872e-02f,+8.42543840e-02f,-6.67606294e-02f,-8.39261711e-03f,
+8.60604346e-02f,+1.04348928e-01f,-5.83491325e-02f,-1.57812089e-01f,+1.81273758e-01f,
+1.83326811e-01f,+1.53256863e-01f,-1.14699498e-01f,-1.28255621e-01f,-6.78165257e-02f,
-7.85974413e-02f,-1.09250993e-02f,+1.41876280e-01f,-1.40509531e-01f,+1.84149891e-01f,
-1.54653430e-01f,-1.51819468e-01f,-1.21616073e-01f,+3.58970165e-02f,-7.61939958e-02f,
+1.19196236e-01f,+9.01414156e-02f,+1.35220021e-01f,-1.72936261e-01f,+1.91001981e-01f,
-9.90423411e-02f,+1.33324355e-01f,+1.73895806e-01f,-1.87096462e-01f,-1.15423255e-01f,
-1.56622291e-01f,+3.89285535e-02f,+1.06384754e-02f,+1.02365911e-01f,-1.91031963e-01f,
+1.25327170e-01f,-6.58143908e-02f,+1.60101950e-01f,-1.14690356e-01f,-1.50179520e-01f,
+1.43816888e-01f,-1.49670541e-01f,-3.60998362e-02f,+1.29012853e-01f,+9.24462676e-02f,
+9.89709496e-02f,-3.60038579e-02f,+1.20794892e-01f,-1.61638334e-01f,-1.26562685e-01f,
-1.63727835e-01f,+3.97504717e-02f,-9.28582549e-02f,-1.83696538e-01f,-1.65483207e-02f,
+8.67123008e-02f,-2.38733143e-02f,+3.40819359e-04f,-6.70931041e-02f,-5.75154573e-02f,
+1.90434664e-01f,+6.25887513e-02f,+5.20548373e-02f,-8.29418004e-03f,-1.06313035e-01f,
+1.15117282e-02f,-1.08223528e-01f,-1.36014968e-01f,-8.87361839e-02f,-6.40100390e-02f,
+1.92890227e-01f,+5.92410266e-02f,+6.24112189e-02f,-1.43028170e-01f,+6.80420995e-02f,
-6.19313419e-02f,-1.40942648e-01f,-5.44260591e-02f,+1.59370780e-01f,-1.61186621e-01f,
-1.06879577e-01f,+3.17206532e-02f,-1.66933626e-01f,-1.62041634e-01f,-6.29154891e-02f,
+1.30989283e-01f,-4.74187732e-02f,-1.26993760e-01f,-1.05346382e-01f,-2.05710828e-02f,
-1.28900796e-01f,+3.93979102e-02f,-8.85612071e-02f,+1.41681135e-01f,-1.56798750e-01f,
-1.62149623e-01f,-1.62456840e-01f,+6.49855435e-02f,-7.95424432e-02f,+5.48255742e-02f,
-1.61784321e-01f,-1.56612501e-01f,+3.93262655e-02f,-1.77425608e-01f,+1.13298297e-01f,
+1.73928201e-01f,-1.13670751e-01f,-9.31946859e-02f,+1.52437657e-01f,+1.49039030e-01f,
+1.49474829e-01f,-4.75017875e-02f,-1.14551112e-01f,+6.55682683e-02f,-1.52876601e-01f,
-8.24798867e-02f,+1.39346272e-02f,-1.11815609e-01f,-4.38650548e-02f,-7.24316835e-02f,
-6.86749816e-03f,-4.70679998e-03f,-2.73451209e-02f,-8.61318111e-02f,-2.21549273e-02f,
+1.98716968e-02f,+5.16264290e-02f,+1.75931782e-01f,+1.52894557e-01f,+1.36410981e-01f,
-2.77256966e-02f,+1.09836817e-01f,-1.72070399e-01f,-6.60421848e-02f,-2.34695077e-02f,
+1.34140819e-01f,+9.35797989e-02f,-1.13255315e-01f,-3.62892747e-02f,-9.17609856e-02f,
-7.60098696e-02f,+1.09401494e-01f,+1.24407053e-01f,+1.79879785e-01f,+9.34894383e-02f,
+6.91809654e-02f,+1.82095706e-01f,-1.52894974e-01f,-1.97806954e-02f,+1.67129010e-01f,
+1.00347936e-01f,+7.42842853e-02f,+1.38629913e-01f,-1.84596330e-01f,+1.32705986e-01f,
+5.88911772e-02f,+1.27339810e-02f,+1.47434562e-01f,-3.04540396e-02f,+9.69137847e-02f,
-4.52637672e-02f,-1.85529426e-01f,-5.12170941e-02f,-1.25547051e-02f,-1.37592077e-01f,
-9.40837339e-02f,-1.56875163e-01f,+2.88516283e-02f,-1.80038899e-01f,-7.77762756e-02f,
-1.72645986e-01f,+1.90528154e-01f,+8.81232917e-02f,+1.13992035e-01f,+2.88238823e-02f,
+1.90712512e-03f,-1.70175135e-01f,-1.28736943e-01f,-1.47187546e-01f,+7.33663440e-02f,
-1.01974308e-02f,+1.71342194e-02f,+1.02975488e-01f,+1.14047825e-01f,+1.01574242e-01f,
+5.01334965e-02f,-2.25688368e-02f,-7.88620412e-02f,+6.98218942e-02f,-1.65325299e-01f,
-2.29399502e-02f,-6.14094436e-02f,-1.73856184e-01f,-5.84174693e-02f,+3.86326611e-02f,
-2.89828032e-02f,-1.03358269e-01f,+8.22292864e-02f,-4.54279333e-02f,+6.65968657e-02f,
-1.34790838e-01f,-1.74388021e-01f,+1.84074581e-01f,-1.21140435e-01f,-1.77638769e-01f,
-6.90800473e-02f,-3.30274850e-02f,-1.02346048e-01f,+1.63926452e-01f,-1.86198369e-01f,
-1.50457874e-01f,-1.63258985e-01f,-3.10352445e-03f,+1.43904328e-01f,+1.31577522e-01f,
-9.71734449e-02f,-5.36530465e-02f,+1.35218203e-02f,+1.07750386e-01f,+1.85642630e-01f,
+1.53968155e-01f,-6.02770895e-02f,+3.54921520e-02f,+6.17647171e-02f,+1.64407045e-02f,
+1.92851126e-01f,-1.25340343e-01f,+1.56693310e-01f,-1.03918910e-02f,-1.49327591e-01f,
+3.25470418e-02f,+2.65882611e-02f,+5.40095270e-02f,-1.41110018e-01f,-1.04245052e-01f,
+1.59833670e-01f,+1.74882710e-01f,+3.86253595e-02f,+9.04192626e-02f,-7.67012611e-02f,
-2.61601806e-02f,-1.56823084e-01f,+1.04566514e-01f,-8.97617042e-02f,-1.57776803e-01f,
+1.85418695e-01f,+2.25540549e-02f,+1.34243220e-01f,+1.47851080e-01f,-4.35843468e-02f,
-3.33302617e-02f,+1.20459467e-01f,-6.20768666e-02f,+1.30162060e-01f,-1.50737569e-01f,
+1.16148263e-01f,-1.09458104e-01f,+1.73643291e-01f,+1.90679699e-01f,-5.75949550e-02f,
-1.37133896e-01f,-2.69269943e-03f,+3.44766080e-02f,-6.89219236e-02f,-1.60597906e-01f,
-1.19315304e-01f,+3.58566642e-02f,-7.30020627e-02f,-3.13318670e-02f,+8.37100446e-02f,
+3.45691741e-02f,-1.84196234e-02f,+1.04749084e-01f,-8.63661617e-02f,+1.48033500e-01f,
-6.80790544e-02f,-5.74464351e-02f,+2.61920393e-02f,-1.61690980e-01f,-6.21046573e-02f,
+1.29524142e-01f,+9.77390110e-02f,-1.52315781e-01f,+1.13491386e-01f,+1.72804117e-01f,
+2.70395726e-02f,-2.84221172e-02f,+1.91376418e-01f,+1.78481311e-01f,-1.32415861e-01f,
-2.94933915e-02f,-1.40219033e-01f,+4.53524590e-02f,-3.90321165e-02f,+2.84704119e-02f,
-6.17696941e-02f,-1.41617835e-01f,+8.58509243e-02f,+3.37815732e-02f,+1.30822271e-01f,
+4.74675745e-02f,-4.28189933e-02f,-4.28977609e-02f,-9.33350474e-02f,+1.53281510e-01f,
-8.22640955e-02f,+1.92202359e-01f,-1.81357637e-01f,-1.69640362e-01f,-5.26021868e-02f,
-3.96250784e-02f,+9.91714895e-02f,-7.09045306e-02f,+5.06345928e-03f,-6.59135580e-02f,
+2.37889588e-02f,+1.43041551e-01f,+1.13672882e-01f,+1.37209147e-01f,+8.29004943e-02f,
+1.79497600e-02f,+8.15565288e-02f,-2.04463303e-02f,-9.83090773e-02f,+8.51120651e-02f,
-2.83309370e-02f,-1.50650680e-01f,-1.06594339e-01f,+2.80123204e-02f,+2.84865201e-02f,
-3.77845615e-02f,+3.95064205e-02f,+1.63007557e-01f,-8.96176547e-02f,-1.58711836e-01f,
-1.05188109e-01f,+1.78433716e-01f,+1.18071169e-01f,-4.43969667e-02f,+4.59771752e-02f,
-1.02417246e-01f,-1.69979051e-01f,+1.88837945e-03f,-4.77541983e-02f,+5.86169660e-02f,
+1.21177495e-01f,+6.30528927e-02f,-7.15138763e-02f,+1.41932338e-01f,+2.99319178e-02f,
+9.92867053e-02f,-3.98533791e-02f,-1.45946831e-01f,+3.56933624e-02f,-1.63678855e-01f,
-1.22093923e-01f,+1.68080658e-01f,-2.15439647e-02f,+9.48627293e-03f,+5.92065156e-02f,
+5.22909015e-02f,+1.61963135e-01f,+5.79739213e-02f,+5.96342087e-02f,+1.21706247e-01f,
+1.64216399e-01f,-7.58525282e-02f,+1.46738231e-01f,+5.30973077e-03f,+1.30516171e-01f,
-2.96418369e-03f,-8.35196748e-02f,+1.76880449e-01f,+7.95772076e-02f,+5.28470576e-02f,
-1.18500642e-01f,+8.81538391e-02f,-1.76847786e-01f,-8.31835121e-02f,+1.91066921e-01f,
-6.24965429e-02f,+1.22979641e-01f,-1.64459571e-01f,+4.16156650e-02f,+1.35543019e-01f,
+1.06758118e-01f,+1.22715771e-01f,-1.07271187e-01f,-1.64317518e-01f,+8.27005804e-02f,
+1.55339390e-01f,-1.12946168e-01f,+1.48572534e-01f,-7.11726844e-02f,+1.85121328e-01f,
+1.21922195e-02f,+1.90059394e-01f,-7.52019510e-02f,-1.01029940e-01f,-4.25868034e-02f,
-5.33375293e-02f,+1.00104898e-01f,-1.11093983e-01f,+2.59115547e-02f,-1.21603653e-01f,
+1.49656862e-01f,-5.94061911e-02f,-7.51267895e-02f,+4.27371711e-02f,+1.74634665e-01f,
-1.47533581e-01f,-1.50220647e-01f,-6.51384145e-02f,+1.40092105e-01f,-1.26957834e-01f,
+1.22055590e-01f,+1.35026723e-01f,-9.77024511e-02f,+4.75768745e-03f,-5.00747263e-02f,
+1.32632405e-01f,-1.31506830e-01f,-2.94847190e-02f,+1.49352759e-01f,+6.01504743e-02f,
+4.42225933e-02f,-9.51921716e-02f,-1.68209046e-01f,+9.45514143e-02f,+1.46477222e-01f,
-1.72388732e-01f,+6.46581948e-02f,-5.61144948e-03f,+1.38106346e-01f,+1.25989884e-01f,
-7.89430216e-02f,+4.02097702e-02f,+8.25925767e-02f,-9.57663804e-02f,+3.13661247e-02f,
+1.90334558e-01f,-1.63212448e-01f,+1.02092624e-01f,-6.64701760e-02f,+8.61598849e-02f,
-1.05879404e-01f,-1.00280471e-01f,-5.28924018e-02f,-5.54659367e-02f,+7.21219182e-03f,
+6.09164834e-02f,-8.58844817e-02f,-6.56518191e-02f,-7.36310780e-02f,+1.05138808e-01f,
+1.36846602e-02f,+2.68815309e-02f,-3.43478471e-02f,+6.37511611e-02f,-1.93025008e-01f,
+7.12525547e-02f,+8.31241310e-02f,-7.45516941e-02f,-5.07679582e-02f,+1.91830099e-01f,
+9.13640857e-03f,-8.70045945e-02f,+1.26170784e-01f,-3.82483900e-02f,+9.46909487e-02f,
+1.72460765e-01f,-1.47857279e-01f,+1.17083132e-01f,+1.04205161e-02f,-6.18488789e-02f,
+1.92006648e-01f,+1.83335304e-01f,-9.88936275e-02f,-2.94793099e-02f,+1.90661669e-01f,
-4.87628579e-02f,+3.44055593e-02f,-1.85043305e-01f,+4.85625863e-03f,-7.76064396e-03f,
-7.46089965e-02f,-9.88584012e-02f,-7.16550201e-02f,-1.80762559e-02f,+1.12938881e-01f,
+2.35182643e-02f,+1.15828246e-01f,-8.79224017e-02f,+1.38217568e-01f,-1.70470536e-01f,
+5.04954606e-02f,+1.11569524e-01f,-1.14840962e-01f,-8.19112211e-02f,+1.44099206e-01f,
+1.96149051e-02f,+9.97811854e-02f,+1.10180229e-01f,+5.88951409e-02f,+5.39923012e-02f,
+7.06966221e-02f,-7.69691393e-02f,-1.25038251e-01f,-1.13256723e-02f,+7.53807724e-02f,
+1.48548931e-01f,+1.82492495e-01f,+1.96173936e-02f,+1.44484222e-01f,-1.07455313e-01f,
-9.85144824e-02f,+4.70051318e-02f,+1.05759591e-01f,+4.78915870e-02f,-5.12036979e-02f,
-1.90292880e-01f,-1.41205221e-01f,+1.53462023e-01f,+2.25037783e-02f,-1.21434577e-01f,
+1.67097092e-01f,+6.74155951e-02f,+8.24897587e-02f,+3.78961563e-02f,+1.85255826e-01f,
+1.01552159e-01f,+9.81931090e-02f,+5.96271157e-02f,-1.27440825e-01f,-4.80147749e-02f,
-1.78765535e-01f,+1.79382592e-01f,-8.46626908e-02f,-1.34600520e-01f,+1.92874640e-01f,
-1.48723841e-01f,-3.62131000e-02f,-2.16164887e-02f,+1.28695846e-01f,-1.71591625e-01f,
+1.27989143e-01f,-7.66168162e-02f,+1.55588239e-01f,-1.52716041e-02f,+4.32272255e-02f,
-8.56570005e-02f,-9.24674273e-02f,+1.76936388e-01f,+1.68956071e-02f,-1.25177220e-01f,
+8.12572837e-02f,-1.78822130e-02f,+9.43214893e-02f,-1.05402336e-01f,+1.48314416e-01f,
+5.56641966e-02f,+1.37068242e-01f,-1.51442170e-01f,+1.36049241e-01f,+1.62181437e-01f,
-1.31772459e-01f,-2.76089758e-02f,+7.96341002e-02f,-1.33349881e-01f,+5.77082634e-02f,
-1.69947803e-01f,-1.46534890e-01f,+8.63028765e-02f,+7.89011419e-02f,+1.89148188e-01f,
+6.55777156e-02f,+1.25847101e-01f,-1.79049477e-01f,-2.73808986e-02f,-1.55951306e-01f,
-1.76866069e-01f,-8.75553563e-02f,+2.01314688e-05f,-1.56122878e-01f,-1.84205413e-01f,
-1.17577247e-01f,+6.16632700e-02f,-4.99171019e-03f,+2.04170495e-02f,+7.28499293e-02f,
+1.76619530e-01f,-4.63315845e-03f,-1.75092846e-01f,+1.80632234e-01f,+7.36200809e-03f,
-7.77293146e-02f,-1.64317787e-01f,-1.45625994e-01f,+1.13771856e-01f,-1.00292660e-01f,
+6.03825748e-02f,+5.56315035e-02f,+1.29100710e-01f,-9.66792479e-02f,+8.83214176e-03f,
+7.99927413e-02f,+4.99051809e-03f,-8.22545364e-02f,-8.21414664e-02f,+8.22502077e-02f,
-1.02823302e-01f,+1.86215729e-01f,+8.34390521e-03f,-4.18521017e-02f,-2.86075473e-03f,
+7.96636939e-02f,+1.50226563e-01f,+1.52984321e-01f,+1.71158046e-01f,-1.02796249e-01f,
-4.86526042e-02f,+1.10687882e-01f,+1.36338532e-01f,-1.60781845e-01f,+9.80440080e-02f,
-1.41894430e-01f,-1.59258202e-01f,+1.63716853e-01f,-9.85876620e-02f,-1.30010396e-01f,
+2.73314118e-03f,-2.23028958e-02f,+3.47269475e-02f,-1.74365029e-01f,+1.40199006e-01f,
-4.49233502e-02f,-6.14515394e-02f,-5.65171689e-02f,-5.56824356e-02f,+4.32928801e-02f,
+1.30516976e-01f,+2.71075368e-02f,+1.77383214e-01f,-1.52058706e-01f,+2.89444327e-02f,
-1.60772339e-01f,-6.29243553e-02f,+1.71946585e-02f,+1.19832903e-01f,-1.03059970e-01f,
-7.28377476e-02f,-1.48976237e-01f,-1.11848578e-01f,+1.50188833e-01f,-1.14315897e-02f,
+3.48960608e-02f,+1.03787273e-01f,-8.48942325e-02f,+1.60748273e-01f,+9.58532691e-02f,
-4.10587341e-02f,+2.66277790e-03f,+5.56803048e-02f,-1.22814678e-01f,+1.83871984e-01f,
+1.44669682e-01f,+1.72152728e-01f,-5.39295077e-02f,-1.38383418e-01f,+1.22315317e-01f,
-3.77172977e-02f,-1.09608322e-02f,-1.55097306e-01f,-3.25492173e-02f,+1.06404126e-01f,
+1.22918785e-01f,+8.71957839e-03f,+6.76012933e-02f,-8.25701654e-03f,+1.41883403e-01f,
-3.83953005e-02f,+1.88136101e-03f,-6.48706406e-02f,+4.81341183e-02f,+9.08360183e-02f,
+7.51592815e-02f,-1.02059938e-01f,+5.16562164e-02f,-1.41023353e-01f,+1.60305738e-01f,
+3.04953605e-02f,-5.22639453e-02f,+6.41850531e-02f,-6.53746724e-03f,-5.81013858e-02f,
+3.45490128e-02f,-1.63764447e-01f,+1.89514399e-01f,+2.59040296e-02f,-1.84579208e-01f,
-4.39217538e-02f,+4.25582230e-02f,-1.69707075e-01f,+1.09804511e-01f,-1.12920910e-01f,
+5.18411249e-02f,-1.24694519e-01f,+1.91928744e-02f,+9.76147354e-02f,+1.33377850e-01f,
-1.06104895e-01f,+2.67074704e-02f,-1.25307411e-01f,+8.84559751e-02f,+6.37462735e-02f,
-1.26326144e-01f,-5.41733801e-02f,+1.86540782e-01f,-8.83842334e-02f,-8.82243067e-02f,
+7.00551569e-02f,+9.32803452e-02f,+1.58345789e-01f,-3.31565738e-02f,-6.27924502e-02f,
+6.12939298e-02f,-1.84219688e-01f,-9.35280770e-02f,+7.43514001e-02f,-5.00425696e-04f,
+1.21912539e-01f,-1.37089670e-01f,-1.60238206e-01f,+1.82527006e-01f,-2.20848471e-02f,
-1.38210014e-01f,-1.40566975e-02f,-1.74368113e-01f,+1.32593215e-01f,-1.36304319e-01f,
-1.55499488e-01f,-1.35284841e-01f,-1.39717579e-01f,+1.84412271e-01f,+5.27089238e-02f,
-1.36877656e-01f,-1.37889639e-01f,+9.68626738e-02f,-1.00440815e-01f,+2.41308957e-02f,
+9.88961756e-03f,-7.28744939e-02f,-1.42585725e-01f,-1.79148093e-01f,-1.22425236e-01f,
+1.68838769e-01f,-1.26201659e-02f,+4.84134406e-02f,-1.60719663e-01f,-1.02903873e-01f,
-4.37117666e-02f,-1.25068396e-01f,+8.24600756e-02f,+3.89997065e-02f,-1.35143846e-01f,
-8.60503316e-03f,-1.13922097e-01f,-1.47206038e-02f,-1.74313039e-01f,+1.29986942e-01f,
+9.94980931e-02f,-1.72210574e-01f,-1.47343695e-01f,-4.30936962e-02f,-7.10710213e-02f,
+3.47876996e-02f,-1.53985918e-01f,+1.26684070e-01f,-1.34161681e-01f,-1.89335316e-01f,
+7.29161501e-02f,-1.26522422e-01f,-3.07303220e-02f,-1.68960974e-01f,+6.10013902e-02f,
+1.42493516e-01f,-1.48383006e-01f,-2.80482322e-02f,-8.85370374e-03f,-3.81684750e-02f,
-1.46710753e-01f,-6.10644221e-02f,-1.09439217e-01f,-1.76521748e-01f,+1.46578282e-01f,
+3.18015069e-02f,-1.73309639e-01f,+1.80976093e-01f,+1.53153479e-01f,-2.11773813e-02f,
+1.15660280e-02f,+1.76996917e-01f,-9.75242853e-02f,-4.23829108e-02f,+1.28283828e-01f,
-1.41456425e-01f,+2.76762098e-02f,-5.52845001e-02f,+4.62695211e-02f,-6.26581907e-02f,
+9.86605287e-02f,+3.89648974e-02f,-7.00462386e-02f,+1.59673303e-01f,+8.90279412e-02f,
-3.04023325e-02f,-7.87645802e-02f,-6.95766956e-02f,+9.75155234e-02f,-1.08611122e-01f,
-1.58512101e-01f,+1.17226422e-01f,+9.10692215e-02f,-4.43595350e-02f,-1.81603432e-03f,
+1.17909431e-01f,-1.73297539e-01f,+1.28199846e-01f,+1.10896528e-02f,+1.77372277e-01f,
-5.45078516e-03f,+8.48525763e-02f,-1.38239831e-01f,-9.62843001e-03f,+1.34134889e-01f,
-1.17341787e-01f,-2.26941705e-03f,+1.40629709e-02f,-3.74001265e-03f,-7.91391730e-03f,
+8.12245905e-02f,-1.51497468e-01f,+3.93535495e-02f,+7.76186585e-02f,-4.73353416e-02f,
-2.00959891e-02f,-1.64685488e-01f,-1.83418781e-01f,+2.45547295e-02f,-1.41047865e-01f,
+1.87540889e-01f,+1.22576714e-01f,+6.18106425e-02f,+1.66854262e-01f,-9.43758488e-02f,
-9.62898508e-02f,-1.85392499e-02f,-1.55152902e-01f,-5.32573760e-02f,-4.07773703e-02f,
-1.69342846e-01f,-3.18376720e-03f,+7.52986372e-02f,-1.23290963e-01f,+3.98870409e-02f,
+5.19070923e-02f,-1.11561261e-01f,-7.31457919e-02f,+1.63014412e-01f,-4.53050286e-02f,
-8.17773268e-02f,-1.88783705e-02f,+7.50110745e-02f,-1.61893666e-03f,+1.19987905e-01f,
+1.62522167e-01f,+3.71744782e-02f,-2.86633074e-02f,-1.36287138e-01f,-2.74134129e-02f,
+1.88659221e-01f,-4.42512184e-02f,+1.22041196e-01f,-7.00207129e-02f,-1.65918812e-01f,
-1.62885562e-01f,+3.08449566e-02f,+1.32143438e-01f,-1.56557977e-01f,-1.53274715e-01f,
-9.74874198e-03f,-1.93234295e-01f,-6.55124784e-02f,+7.24808574e-02f,-1.31364644e-01f,
+5.92244267e-02f,-1.61105916e-01f,-3.46631855e-02f,-1.78471118e-01f,-1.39463395e-02f,
-3.63004953e-02f,+9.40388441e-02f,+1.13079369e-01f,-1.37752801e-01f,-4.21239585e-02f,
-8.25176537e-02f,-7.65560120e-02f,+1.70430243e-02f,-2.90780962e-02f,-8.34157467e-02f,
-6.72615170e-02f,-1.76338032e-01f,+1.75712287e-01f,+2.60859877e-02f,+1.35943860e-01f,
-3.34830433e-02f,+8.68040919e-02f,+1.08345598e-01f,+3.16355675e-02f,-9.61334705e-02f,
+1.38387084e-01f,-6.77828193e-02f,+6.02375567e-02f,-3.49336416e-02f,+5.10430783e-02f,
-4.65086699e-02f,-3.01677883e-02f,-4.45135534e-02f,+5.10924757e-02f,+8.79351497e-02f,
+2.34994292e-03f,+1.99489295e-03f,+1.50453985e-01f,+1.70768410e-01f,-8.33508745e-02f,
-2.77806818e-03f,-1.19208835e-01f,+1.26476347e-01f,-3.23882699e-02f,-1.82721257e-01f,
-1.31399304e-01f,+1.46634191e-01f,-1.60562456e-01f,-7.37403631e-02f,+1.61097378e-01f,
-1.09183989e-01f,+8.36119056e-02f,-1.64026603e-01f,-1.76718831e-03f,+1.90278471e-01f,
-1.81140497e-01f,+1.46490991e-01f,-1.88688859e-01f,+5.01055568e-02f,-9.96439755e-02f,
+3.42635363e-02f,-1.40633434e-02f,-1.09625146e-01f,+1.19877338e-01f,-7.95404613e-03f,
+1.29917592e-01f,-4.65367883e-02f,-1.46181583e-02f,-1.81244060e-01f,+2.79283822e-02f,
+1.55444771e-01f,-1.59605443e-02f,+7.81276226e-02f,-9.17228982e-02f,+5.75765371e-02f,
+4.55100685e-02f,+1.52072430e-01f,+1.19183987e-01f,-1.55892760e-01f,-7.06464052e-05f,
+1.62162781e-02f,+4.39327806e-02f,+1.12916142e-01f,+1.40897363e-01f,-3.55570316e-02f,
+1.18631810e-01f,-1.90508530e-01f,+9.80464518e-02f,+1.20595485e-01f,+1.60206437e-01f,
-9.19364765e-02f,+3.39287668e-02f,-1.37593046e-01f,-1.55948773e-01f,-1.88065931e-01f,
-1.92765400e-01f,-3.02238017e-02f,+1.15735978e-02f,+1.63181752e-01f,+7.24065304e-02f,
+7.74670243e-02f,+1.83131069e-01f,+3.84291410e-02f,-1.31871849e-01f,-1.12503357e-01f,
-1.31791010e-01f,-3.39633375e-02f,-7.29656816e-02f,-4.57502455e-02f,-1.58828184e-01f,
+1.90378666e-01f,+1.06070936e-02f,-1.37242347e-01f,+1.07511133e-01f,+1.68359250e-01f,
+5.69051504e-02f,-6.47760779e-02f,-1.27843425e-01f,-8.46399367e-03f,-1.77670762e-01f,
-1.27480060e-01f,-1.05930470e-01f,-2.97136158e-02f,-2.65850276e-02f,-1.75905526e-01f,
+8.95676017e-03f,+1.80719435e-01f,+4.54557389e-02f,-1.13114715e-04f,+2.27278471e-02f,
+4.07151282e-02f,+4.26900834e-02f,+9.55986977e-02f,+3.91310453e-03f,+1.07559711e-01f,
-8.00894573e-02f,-3.04337293e-02f,-1.42672628e-01f,+6.22282624e-02f,-1.42365187e-01f,
+1.19275779e-01f,+1.84581190e-01f,-3.71278077e-02f,-1.66632965e-01f,+1.55740768e-01f,
+1.75819635e-01f,-1.69561133e-01f,+2.95943171e-02f,+3.68876308e-02f,-1.57124698e-02f,
-1.73235759e-01f,+9.87573862e-02f,+1.94898844e-02f,-1.56970784e-01f,-9.14495736e-02f,
-1.06368251e-01f,+3.01360786e-02f,+1.50166869e-01f,-1.46189690e-01f,+1.77231193e-01f,
-1.57622933e-01f,-1.06199682e-02f,+1.74263120e-03f,-1.91541582e-01f,+1.77532822e-01f,
+1.10520184e-01f,-6.04513288e-02f,-1.08044393e-01f,-8.23515356e-02f,+1.50328785e-01f,
+1.18839800e-01f,+1.53585315e-01f,-1.92251801e-01f,+1.71201289e-01f,-1.26288086e-02f,
+1.16799772e-03f,-1.48374796e-01f,+2.89841890e-02f,+1.29422516e-01f,+6.34750724e-02f,
-1.93353176e-01f,-8.45386386e-02f,-9.10258293e-02f,+1.26650453e-01f,+1.03096128e-01f,
-1.81037724e-01f,+3.34672928e-02f,+2.16613263e-02f,-1.01225697e-01f,+2.74505317e-02f,
+8.12970102e-02f,-9.17221084e-02f,-1.04424417e-01f,-1.63523406e-02f,-1.30177200e-01f,
-6.28473014e-02f,+1.52037412e-01f,+1.18134022e-02f,-1.87964678e-01f,-8.36616009e-02f,
-8.05623308e-02f,-3.01211178e-02f,+9.24038887e-02f,+1.57473236e-02f,+1.12531692e-01f,
-8.82460475e-02f,+1.84278041e-01f,+7.42894411e-02f,-1.80826277e-01f,-1.56728581e-01f,
+1.66919440e-01f,+3.15383375e-02f,+1.46071315e-02f,-1.20436810e-01f,-7.37565160e-02f,
-3.54374051e-02f,+9.98911262e-02f,-1.99438632e-02f,-1.81770906e-01f,+1.08053535e-01f,
-1.89643264e-01f,+7.89138377e-02f,-9.01175365e-02f,-1.26671135e-01f,+1.04457706e-01f,
+5.56933731e-02f,+5.06221503e-02f,-1.47511661e-01f,-2.44892091e-02f,-1.43058091e-01f,
-8.87598693e-02f,+1.86501652e-01f,-1.61314040e-01f,-7.06850886e-02f,+1.92574382e-01f,
-1.92744344e-01f,+1.43582612e-01f,+6.49277866e-03f,+8.82083774e-02f,-1.66304380e-01f,
+8.95746350e-02f,-9.51751322e-02f,-8.88953805e-02f,-9.52379704e-02f,-1.44568384e-02f,
+1.53529763e-01f,+1.91125780e-01f,-1.87564120e-01f,-1.28990740e-01f,-1.12609863e-01f,
+1.32675052e-01f,-1.05666794e-01f,-1.26844257e-01f,+1.26721829e-01f,-1.42316878e-01f,
-1.29380494e-01f,+1.19887441e-01f,+2.47108787e-02f,+2.16479599e-03f,-1.69885904e-02f,
+1.41417831e-01f,+3.05116177e-03f,-1.32252425e-01f,-1.48081899e-01f,-3.44544947e-02f,
+1.40258223e-01f,-4.98862565e-02f,-4.68330681e-02f,+6.70538843e-03f,+1.83297485e-01f,
-1.79420412e-02f,-1.48772642e-01f,-1.76619530e-01f,-5.27611375e-02f,+1.93545938e-01f,
-1.36480406e-01f,-1.64225355e-01f,+7.24290013e-02f,+5.59107810e-02f,-1.12698279e-01f,
-3.21571529e-03f,+1.50000751e-01f,+1.04796320e-01f,-1.42453462e-02f,+8.91024172e-02f,
-1.31151050e-01f,+3.66735905e-02f,+1.48667365e-01f,-1.07406080e-02f,+1.73038006e-01f,
+1.09719604e-01f,-1.19056709e-01f,+1.80258006e-02f,+1.22093111e-02f,-2.72504687e-02f,
+1.35004371e-01f,+1.02591157e-01f,+1.86663777e-01f,+1.30806714e-02f,+1.91314012e-01f,
-9.77112278e-02f,+1.09752387e-01f,-1.12250023e-01f,+5.40816784e-03f,-5.97311705e-02f,
-3.93200815e-02f,+1.03812486e-01f,+1.45796597e-01f,+1.91722512e-01f,-1.24845400e-01f,
-1.24034524e-01f,-1.54475912e-01f,-6.94579035e-02f,+1.48669481e-01f,-9.94694084e-02f,
-1.37652650e-01f,+8.43114853e-02f,-1.18686609e-01f,-3.39841247e-02f,+9.28183198e-02f,
-1.46064699e-01f,-1.92513615e-02f,-5.00216186e-02f,+8.06156993e-02f,-1.62629932e-02f,
+5.36882877e-03f,+3.39974612e-02f,-1.59761399e-01f,-1.01898991e-01f,-1.70235664e-01f,
+1.37835205e-01f,+1.09392226e-01f,-1.85552090e-01f,-1.88455835e-01f,-8.32602903e-02f,
+1.78029448e-01f,-1.55625075e-01f,+1.22229993e-01f,+3.70808095e-02f,+9.12345946e-02f,
-9.53190401e-02f,-1.07422300e-01f,+8.18106234e-02f,+9.98800993e-02f,-1.69791460e-01f,
-1.52298659e-02f,+1.69083178e-01f,+6.32832348e-02f,-8.74608755e-03f,+1.57224119e-01f,
-1.80363417e-01f,+9.43257511e-02f,+1.28289282e-01f,-1.09545313e-01f,-7.69915283e-02f,
+1.40643895e-01f,+6.71473444e-02f,+4.01944816e-02f,-1.46341667e-01f,+1.63751930e-01f,
-5.43979853e-02f,+1.14809394e-01f,-1.48292795e-01f,+8.07017088e-02f,-1.42296985e-01f,
+2.42730975e-02f,+8.41607451e-02f,-6.96716681e-02f,-6.36791289e-02f,+1.77752256e-01f,
+1.00941539e-01f,+1.44274294e-01f,+5.64838052e-02f,+3.11001390e-02f,+1.07368559e-01f,
-3.68053615e-02f,+1.52327448e-01f,-8.69165510e-02f,+6.59439266e-02f,-1.57365113e-01f,
+1.66939616e-01f,+1.85745120e-01f,+1.05656326e-01f,-1.21503465e-01f,+7.94300437e-03f,
-1.01116277e-01f,+8.62421989e-02f,+3.11688930e-02f,-4.57219929e-02f,-1.74463868e-01f,
+3.91966254e-02f,+1.67588592e-02f,-2.34045535e-02f,-1.13970250e-01f,+6.65631294e-02f,
-1.02077849e-01f,-3.89043242e-02f,-5.29630482e-02f,+1.63895011e-01f,-1.65699825e-01f,
+1.33955956e-01f,-3.68909538e-02f,+1.86791748e-01f,+9.01072323e-02f,-1.74975798e-01f,
+5.26698679e-02f,-3.80934924e-02f,-1.68481469e-03f,+1.46242738e-01f,+1.64260179e-01f,
+8.12785923e-02f,-2.60483623e-02f,-5.90936244e-02f,-5.64191043e-02f,-1.84654742e-02f,
+1.16294980e-01f,-1.31290942e-01f,+2.12717503e-02f,+1.79031610e-01f,-8.45981017e-02f,
-3.38852406e-03f,+1.65017396e-02f,+1.26523286e-01f,-1.56442508e-01f,+1.16991401e-01f,
-8.05835649e-02f,-9.91955772e-02f,-8.44866484e-02f,+3.33385170e-03f,-1.58861607e-01f,
-1.07244872e-01f,+1.58046901e-01f,-1.51023313e-01f,+1.42270178e-02f,+5.64991832e-02f,
+6.02456033e-02f,+1.25311702e-01f,-4.70227003e-03f,-2.83263177e-02f,+1.28440499e-01f,
-6.54747188e-02f,+1.55056536e-01f,-1.70165211e-01f,-3.53423357e-02f,+7.92468786e-02f,
+1.18252009e-01f,+3.96159738e-02f,-1.73812658e-01f,-9.79794711e-02f,-1.55598894e-01f,
-5.16613871e-02f,+8.96065235e-02f,+1.00345433e-01f,-6.50879145e-02f,+1.32059991e-01f,
-3.93635631e-02f,-1.31339788e-01f,-8.60547945e-02f,-2.17241049e-03f,-1.36630550e-01f,
+1.53318018e-01f,-1.12183534e-01f,+2.85057724e-02f,+2.88741142e-02f,+1.46984905e-01f,
+6.96425736e-02f,+8.13253224e-03f,+2.28892118e-02f,-1.59531623e-01f,+1.73160821e-01f,
+5.64796031e-02f,-7.64421597e-02f,+9.48263705e-02f,+1.47528261e-01f,+1.32488221e-01f,
+1.71861976e-01f,-6.41499311e-02f,-1.60558566e-01f,+6.78647161e-02f,+1.97702646e-02f,
+1.79190516e-01f,+1.49407417e-01f,+4.87678498e-02f,+1.57861978e-01f,+5.94152808e-02f,
+2.49372423e-02f,+1.28501296e-01f,+1.30987853e-01f,+1.13545209e-02f,+1.54037118e-01f,
-8.53936523e-02f,+4.81915623e-02f,-1.57437697e-01f,+7.60915875e-03f,+1.77322775e-01f,
-3.54503095e-03f,+1.35704398e-01f,-1.50799841e-01f,+1.40220881e-01f,-5.38653731e-02f,
+8.78775120e-02f,+1.65279925e-01f,+6.56554103e-02f,+1.34475172e-01f,-1.10102125e-01f,
+1.42718792e-01f,-4.21304107e-02f,-1.47361934e-01f,+9.11409855e-02f,+7.85510838e-02f,
-6.33615404e-02f,+1.13027275e-01f,-7.50111789e-02f,-3.83780301e-02f,-5.74643016e-02f,
-7.16712698e-02f,+1.13805234e-01f,-1.61361516e-01f,-2.24866569e-02f,-1.58610448e-01f,
+9.10597146e-02f,+1.14746094e-02f,-1.39869213e-01f,-3.35957110e-03f,+1.61922783e-01f,
+1.88054115e-01f,+7.74123967e-02f,-1.75932795e-02f,+9.88181531e-02f,-1.85635835e-02f,
+3.29980701e-02f,-5.01025170e-02f,-2.65404284e-02f,-8.40905309e-03f,-1.22994229e-01f,
+3.65564972e-02f,-5.14587909e-02f,-6.46363646e-02f,-1.37266397e-01f,-5.06400615e-02f,
+1.45877808e-01f,+1.06204450e-01f,+2.54676789e-02f,-1.00180879e-01f,+3.44282240e-02f,
+9.94284153e-02f,+8.51733387e-02f,+9.90500450e-02f,+1.68002456e-01f,+1.32968485e-01f,
+7.60759413e-03f,-9.02393311e-02f,+1.04672521e-01f,+8.17187428e-02f,-6.69483989e-02f,
+1.07947469e-01f,+5.69740236e-02f,+1.83151037e-01f,+2.32018679e-02f,+6.62991107e-02f,
+3.97077203e-02f,+7.33347237e-02f,+1.79379642e-01f,-9.74128768e-02f,+1.36692286e-01f,
+1.84771419e-01f,-1.90700412e-01f,+1.93231165e-01f,+1.54128313e-01f,+1.61437601e-01f,
+1.35124028e-02f,-2.43996382e-02f,-1.69422433e-01f,-1.55452400e-01f,+2.28611827e-02f,
+8.00099969e-02f,+1.70249373e-01f,+1.13349766e-01f,+1.02591217e-01f,-9.06664133e-03f,
-4.94023114e-02f,+1.05488360e-01f,+6.68288767e-02f,-1.22676492e-01f,+1.86129034e-01f,
-3.63317132e-03f,+8.02596807e-02f,-4.58478481e-02f,+3.10410857e-02f,+7.38788247e-02f,
+4.11076248e-02f,+7.90686607e-02f,-2.19326168e-02f,-1.17003456e-01f,-4.16464657e-02f,
+7.85547793e-02f,-2.94920057e-02f,+1.24117851e-01f,+1.18311852e-01f,-1.18290938e-01f,
-4.90671396e-03f,+2.45426297e-02f,+3.81213278e-02f,-1.69797465e-01f,+9.15969908e-02f,
-3.19243968e-03f,-2.25524604e-03f,+1.58325344e-01f,+1.26893163e-01f,-1.53529078e-01f,
-6.15934283e-02f,-9.97204334e-02f,+1.86835229e-01f,+1.36649817e-01f,-1.10220164e-02f,
+1.65149540e-01f,-9.94034335e-02f,+7.58485198e-02f,-1.02396511e-01f,+6.21545613e-02f,
-1.76792070e-01f,+1.64673924e-02f,-1.19912781e-01f,+1.38266295e-01f,-3.18704545e-03f,
-1.15926266e-02f,+2.98947394e-02f,-1.21478021e-01f,+1.43382907e-01f,+1.19499803e-01f,
-1.62123486e-01f,+7.65431225e-02f,-1.91087276e-01f,+3.04400027e-02f,+1.75408930e-01f,
-1.61475241e-02f,+5.41599840e-02f,+4.32239473e-02f,+1.54970199e-01f,-1.78032964e-01f,
-1.16087541e-01f,-1.84925571e-01f,+4.30065244e-02f,+5.91007769e-02f,+1.61039829e-02f,
+1.86587423e-02f,-7.80655742e-02f,+3.59255522e-02f,-1.68286711e-02f,+1.13030136e-01f,
-1.22634202e-01f,-1.51282966e-01f,+1.00125104e-01f,+2.02563852e-02f,-4.54736501e-02f,
+1.64367110e-01f,+7.43445456e-02f,+1.67587698e-02f,-8.11884776e-02f,-1.42181098e-01f,
-1.53680876e-01f,+1.62172526e-01f,+2.23884583e-02f,-8.17057639e-02f,-1.01473778e-02f,
+3.48277837e-02f,-5.69218546e-02f,+6.42239749e-02f,+6.24403358e-04f,+1.34617329e-01f,
-1.69897974e-01f,-1.68596685e-01f,+1.16922975e-01f,+1.11863315e-02f,+1.89128608e-01f,
-1.20179087e-01f,+1.29915088e-01f,+3.62839252e-02f,-1.43136904e-01f,-9.85743180e-02f,
-1.42095551e-01f,+9.06541944e-04f,+1.19771212e-02f,-1.54716089e-01f,-5.37851900e-02f,
+3.63684595e-02f,-1.58260196e-01f,+4.29147929e-02f,-1.13602236e-01f,+1.68870300e-01f,
+1.01144165e-02f,+1.83926731e-01f,-9.42308754e-02f,+1.04785234e-01f,-1.73689932e-01f,
+1.78898275e-02f,+1.41857505e-01f,-3.27482820e-04f,+4.35308814e-02f,-1.36498928e-01f,
-1.87411204e-01f,+7.68419504e-02f,+1.87830597e-01f,-3.24921012e-02f,+1.50241435e-01f,
-1.22995384e-01f,+1.20580405e-01f,+1.39623731e-01f,-4.93488908e-02f,-9.91118699e-02f,
-7.70782828e-02f,+1.23667061e-01f,-8.07492435e-03f,-1.74535021e-01f,+1.39441580e-01f,
-1.92230329e-01f,-1.11301512e-01f,+1.18461400e-01f,+1.89852089e-01f,+5.93479276e-02f,
-1.63126424e-01f,-1.31668240e-01f,-1.06929027e-01f,-3.44261974e-02f,+1.84266001e-01f,
-1.36691406e-01f,+1.10467881e-01f,+9.03965235e-02f,+1.56516522e-01f,+1.07323438e-01f,
+1.04599178e-01f,+7.60557652e-02f,-6.88639283e-02f,-1.14910677e-01f,-6.70287311e-02f,
-7.10054114e-02f,+9.52809453e-02f,-5.62064350e-03f,-1.19329661e-01f,+1.36869341e-01f,
+7.42681623e-02f,+1.48815006e-01f,-1.72662884e-01f,-8.98265243e-02f,-1.38701305e-01f,
+4.28457558e-03f,-9.58672613e-02f,+9.33776200e-02f,+6.72258437e-02f,+5.26840985e-03f,
-7.92412311e-02f,+7.63264596e-02f,+1.17408454e-01f,+1.74987763e-01f,+1.88471854e-01f,
-8.70186090e-03f,-1.22956879e-01f,-1.84759080e-01f,+2.84012556e-02f,-4.13380563e-02f,
+1.86744243e-01f,+3.00386548e-02f,-8.50712508e-02f,+1.40783101e-01f,-1.44744113e-01f,
+1.32030159e-01f,+8.14971328e-02f,+8.28467906e-02f,+1.28010958e-01f,+1.71812177e-01f,
-1.39364854e-01f,+5.56268394e-02f,-1.90612093e-01f,+6.96650147e-02f,-6.84554726e-02f,
-1.83085948e-01f,+1.14809841e-01f,-1.41477704e-01f,+4.66498584e-02f,+6.69766963e-02f,
+1.56373471e-01f,-9.12507176e-02f,-3.85230482e-02f,+2.42958963e-02f,+6.44947290e-02f,
+1.89368159e-01f,+8.81091654e-02f,-7.25247189e-02f,+6.57033920e-02f,+1.04313850e-01f,
+1.60148829e-01f,+7.05263913e-02f,+1.83198869e-01f,-4.02768999e-02f,+1.54111862e-01f,
-1.14287205e-01f,+4.90947664e-02f,-1.52906239e-01f,+6.32159710e-02f,+1.10535473e-01f,
+1.19942337e-01f,-5.66820055e-02f,-1.50744125e-01f,+3.84487212e-02f,+1.24213487e-01f,
+1.35448486e-01f,+1.34859800e-01f,-1.20471112e-01f,+1.42384052e-01f,+1.62097901e-01f,
+1.23474300e-01f,-1.77937493e-01f,+7.00096786e-03f,-1.88265622e-01f,+1.80708617e-01f,
-1.10747665e-01f,+3.87872308e-02f,+1.62066191e-01f,+1.38665974e-01f,-1.44003779e-02f,
+4.06643748e-03f,+7.86000490e-03f,-1.14468835e-01f,+4.81664389e-02f,-1.71898231e-01f,
+1.76725537e-02f,+1.62422657e-01f,-1.37684226e-01f,+5.55730015e-02f,+1.85571671e-01f,
+5.15628606e-02f,-9.95842814e-02f,+1.11331105e-01f,+1.89565659e-01f,-8.92525464e-02f,
-1.32479265e-01f,+3.19331884e-03f,+9.10191238e-02f,+1.51855320e-01f,-1.46385431e-01f,
+1.56609446e-01f,+2.05084682e-02f,-1.31193578e-01f,+8.37660432e-02f,-9.32103842e-02f,
+5.98980486e-03f,-1.39373839e-02f,-1.06176138e-02f,+1.44948512e-01f,-1.84239313e-01f,
-1.44101888e-01f,-6.48950040e-02f,+9.18140709e-02f,+1.09801829e-01f,-4.46672738e-03f,
-1.27566814e-01f,+1.13796741e-01f,-9.87656489e-02f,+1.33407414e-01f,-1.00248754e-01f,
-6.60554767e-02f,-8.04541558e-02f,+1.28230840e-01f,+1.56770349e-01f,+1.11228049e-01f,
-1.16125174e-01f,+1.69815242e-01f,+1.33285969e-02f,-1.59949809e-02f,+1.41365469e-01f,
+5.18816710e-03f,-3.37331444e-02f,-8.36712494e-02f,+1.74328357e-01f,+1.41530931e-01f,
+1.58280969e-01f,-1.87102601e-01f,-5.91999888e-02f,-4.60907072e-02f,-1.54317096e-01f,
+1.04797572e-01f,-5.56489974e-02f,-1.04065590e-01f,-1.19739138e-01f,+4.96518463e-02f,
-9.91927609e-02f,+7.52925873e-02f,+1.87010437e-01f,-8.85324180e-03f,+3.88888121e-02f,
+1.55577511e-02f,+1.87647879e-01f,+8.89059007e-02f,+1.54898077e-01f,-1.84660971e-01f,
+1.09685361e-01f,+1.14913166e-01f,+3.95107567e-02f,-1.11460239e-02f,+6.20196164e-02f,
-2.97157466e-02f,+3.17030251e-02f,+9.44038332e-02f,-6.40787780e-02f,-1.11034796e-01f,
+1.97889209e-02f,-1.32688969e-01f,-1.18287526e-01f,+1.84944212e-01f,+1.02332443e-01f,
-8.09130073e-03f,+1.51037991e-01f,+6.41909242e-02f,-9.13567692e-02f,-1.89912900e-01f,
-1.42212585e-01f,-1.05141938e-01f,-1.14893876e-01f,-1.25713482e-01f,+8.35587382e-02f,
-6.78754449e-02f,-1.10197783e-01f,-1.20002955e-01f,-1.49145275e-02f,+3.92361879e-02f,
-4.40533310e-02f,+1.69619381e-01f,+7.54552484e-02f,+1.17321551e-01f,-1.30178168e-01f,
+5.52723557e-02f,-1.23875841e-01f,-8.99908021e-02f,-1.10546596e-01f,-5.36267310e-02f,
-1.30606115e-01f,-1.50781885e-01f,+5.01025170e-02f,-1.85288236e-01f,-6.83714449e-02f,
+9.06409323e-03f,-5.53045273e-02f,-5.45560271e-02f,-1.82272628e-01f,-1.52447730e-01f,
-1.85361505e-01f,+1.39079481e-01f,-1.03331655e-02f,-1.62144169e-01f,-1.52678400e-01f,
-1.55886307e-01f,-2.65777409e-02f,+1.62192225e-01f,+6.91808760e-03f,+1.47116393e-01f,
+1.15211189e-01f,+9.34058726e-02f,-9.24346894e-02f,+3.73405069e-02f,-6.12609088e-02f,
-1.26773477e-01f,+2.01580971e-02f,+1.42571270e-01f,-5.39744794e-02f,+7.56466091e-02f,
-1.83577240e-01f,+1.72390759e-01f,+7.81087279e-02f,-3.32464278e-02f,-8.02499428e-02f,
+1.36328876e-01f,-2.11434364e-02f,+1.71671957e-01f,+1.82822078e-01f,+9.60979164e-02f,
+1.60842270e-01f,-8.25454518e-02f,+1.95777416e-02f,-1.31083965e-01f,-1.68821901e-01f,
+1.69622034e-01f,-1.50240451e-01f,+9.68009531e-02f,+6.13865256e-03f,+1.42921984e-01f,
-9.12587047e-02f,-4.16870564e-02f,+6.14771843e-02f,-1.72102988e-01f,-6.22228086e-02f,
+1.44291967e-01f,-6.13017678e-02f,+1.53057635e-01f,+1.88346177e-01f,-5.39516658e-02f,
-6.08241558e-02f,-2.12778002e-02f,+1.70020521e-01f,+3.19570899e-02f,-1.16020642e-01f,
+1.72370404e-01f,+2.23742723e-02f,-1.73332676e-01f,+1.82015330e-01f,+1.75822973e-01f,
+1.03075951e-01f,-1.31746277e-01f,-1.92539021e-01f,+5.92538416e-02f,+1.85110837e-01f,
-1.78367689e-01f,+1.05056792e-01f,+8.35644007e-02f,-1.87855408e-01f,+1.12657458e-01f,
+6.89495206e-02f,-9.37291458e-02f,+1.67836964e-01f,-1.11998677e-01f,+1.15568340e-02f,
-8.94936472e-02f,-3.31147015e-02f,+7.91549385e-02f,+1.13175631e-01f,-1.51500851e-01f,
+1.10878915e-01f,-1.72206372e-01f,-1.79589838e-02f,+8.80947709e-03f,-1.32982582e-02f,
+1.04048252e-02f,+1.17893696e-01f,+1.88807696e-02f,-8.24443400e-02f,+2.22849399e-02f,
-2.87182033e-02f,+1.28654748e-01f,-8.19222555e-02f,+1.09635890e-01f,-1.36485532e-01f,
+1.18421972e-01f,-1.88643649e-01f,-3.45411152e-02f,-9.08882916e-02f,+1.69413537e-01f,
+1.81749761e-02f,-1.46839142e-01f,-7.61090890e-02f,+1.32011414e-01f,+1.27683491e-01f,
-1.04383424e-01f,-4.18393165e-02f,+1.41189486e-01f,-4.43427265e-02f,+1.14079803e-01f,
-1.13013849e-01f,-1.78196400e-01f,-5.30528426e-02f,-7.91623741e-02f,-2.31577754e-02f,
+6.13647103e-02f,-1.51841894e-01f,-1.53977841e-01f,-1.44957423e-01f,-1.21443123e-01f,
-1.02268308e-02f,+9.92830098e-02f,-1.16860099e-01f,+1.35192633e-01f,-1.88217923e-01f,
+1.49321467e-01f,-1.39766201e-01f,-4.20023352e-02f,+1.18789256e-01f,-1.55432001e-01f,
+5.80248833e-02f,-2.03864425e-02f,-5.46736270e-02f,+1.06450677e-01f,+1.92401201e-01f,
-1.21441968e-01f,-1.00719780e-02f,-1.22390151e-01f,-1.08201832e-01f,+9.81268883e-02f,
-1.84445962e-01f,-1.62521005e-03f,+1.85528398e-01f,-5.35156876e-02f,+8.84908438e-02f,
+1.22261107e-01f,-9.04886425e-03f,-5.44226468e-02f,+4.22711819e-02f,-1.19902343e-02f,
-6.63857758e-02f,+4.33441699e-02f,+1.35666162e-01f,+1.72482878e-01f,-1.63655534e-01f,
-1.28564313e-01f,+1.77530557e-01f,-8.53594840e-02f,-6.34643137e-02f,-6.79087341e-02f,
+6.53690398e-02f,-4.94904816e-03f,-3.54977399e-02f,-9.65821072e-02f,+9.37106013e-02f,
-1.11289188e-01f,+2.18232870e-02f,+1.46114439e-01f,+1.91953838e-01f,+7.07614124e-02f,
-5.07545620e-02f,-8.65319595e-02f,-1.09678060e-02f,+1.53849423e-02f,-1.80513710e-01f,
-9.86633822e-02f,+1.00126952e-01f,-1.25286698e-01f,-6.61372542e-02f,+1.28076106e-01f,
-7.76691139e-02f,-9.85106081e-02f,-1.79394037e-01f,-1.06646746e-01f,-1.21147081e-01f,
+1.47544116e-01f,-3.88243943e-02f,-1.81881756e-01f,+1.80348873e-01f,-9.54008996e-02f,
+5.32392710e-02f,+1.43952757e-01f,-1.92481965e-01f,-1.92616954e-01f,+7.55560100e-02f,
+8.56418014e-02f,+1.99529678e-02f,+1.42925113e-01f,+1.87582999e-01f,-1.02012657e-01f,
-9.31784809e-02f,+1.17761046e-01f,+9.53419507e-03f,-1.28366381e-01f,-5.81660271e-02f,
-1.13318615e-01f,+1.08227879e-01f,+8.75193775e-02f,-1.64034963e-02f,-1.91425920e-01f,
-4.10261750e-02f,+1.90927148e-01f,+1.30437195e-01f,-1.71502143e-01f,+2.27446556e-02f,
-3.96303385e-02f,-1.82713076e-01f,-1.32165849e-02f,+7.81128109e-02f,+7.08856881e-02f,
-1.19582303e-01f,+3.05502564e-02f,+7.30072856e-02f,-1.16271853e-01f,-1.64785251e-01f,
-4.93496656e-03f,+1.44308448e-01f,-1.45754352e-01f,-1.26042575e-01f,+1.98379010e-02f,
-1.23785734e-02f,-1.51281297e-01f,+7.57041276e-02f,+1.17876232e-01f,-6.84016794e-02f,
-1.83510661e-01f,-1.69219881e-01f,+1.33230656e-01f,-2.03549564e-02f,+1.08130068e-01f,
+1.20476037e-01f,+4.35896963e-02f,-5.44646084e-02f,+3.82985771e-02f,-1.70603126e-01f,
-4.03855294e-02f,-1.16489589e-01f,-1.70660749e-01f,+9.18994844e-02f,+5.02142012e-02f,
-1.86513066e-02f,-1.59966499e-01f,+1.70491815e-01f,+1.35786951e-01f,-3.77892703e-02f,
-1.27646148e-01f,+1.72765106e-01f,+1.35625005e-02f,-1.37726933e-01f,+4.20325398e-02f,
+1.27035975e-02f,-1.85005128e-01f,-7.81451240e-02f,-1.14533842e-01f,+2.74713486e-02f,
-1.75030231e-01f,+1.00699723e-01f,+3.65698487e-02f,-2.33818293e-02f,-7.11668655e-02f,
-6.50082678e-02f,+1.93573266e-01f,-5.39846718e-03f,-1.29757941e-01f,+1.75607085e-01f,
-6.21957481e-02f,+2.64495760e-02f,-1.07107311e-02f,-1.09655105e-01f,+6.69943392e-02f,
-1.63061291e-01f,-2.50920504e-02f,+5.06163836e-02f,+1.61882490e-02f,-1.06212892e-01f,
+4.70635444e-02f,+1.84569895e-01f,+2.66003609e-02f,-1.58152312e-01f,+9.21298862e-02f,
+1.41692311e-01f,-1.31766945e-02f,-7.31378049e-02f,-1.60509825e-01f,-5.70818782e-02f,
-1.51228949e-01f,+1.80542201e-01f,-7.36584589e-02f,+1.07067823e-03f,+2.78401971e-02f,
