#include <math.h> 
 #include <string.h> 
#include "./include/k2c_include.h" 
#include "./include/k2c_tensor_include.h" 

 


void torbeam_EC4_omode(k2c_tensor* input_1_15_input, k2c_tensor* dense_3_15_output) { 

float dense_output_array[80] = {0}; 
k2c_tensor dense_output = {&dense_output_array[0],1,80,{80, 1, 1, 1, 1}}; 
float dense_kernel_array[1120] = {
+1.43310130e-01f,-1.31143242e-01f,+1.31716341e-01f,-8.71018916e-02f,+1.91245109e-01f,
+1.96477771e-02f,+2.01114804e-01f,-8.29721540e-02f,-1.66583657e-01f,+6.22989535e-02f,
+2.13694364e-01f,+2.85362899e-02f,-1.28396004e-02f,-1.39566034e-01f,+1.43503428e-01f,
-1.48168057e-01f,+2.78499722e-03f,-2.14229435e-01f,+1.92974806e-02f,+2.42529601e-01f,
+1.01288825e-01f,+8.54898691e-02f,-2.17743561e-01f,-4.36096489e-02f,-2.14442179e-01f,
-9.85189080e-02f,-9.34753418e-02f,-5.50353974e-02f,-1.84974179e-01f,+9.57555473e-02f,
+1.50581300e-02f,+8.28021169e-02f,-1.90546617e-01f,-1.22090235e-01f,+2.08185345e-01f,
+1.18982732e-01f,+7.52346814e-02f,+3.43673825e-02f,-4.98264283e-02f,+5.34649491e-02f,
+7.11651742e-02f,-5.43937683e-02f,-4.60950732e-02f,-1.26567766e-01f,-1.86536685e-01f,
-1.57732248e-01f,+1.86232030e-01f,+1.16347522e-01f,+2.08341897e-01f,+2.00290680e-02f,
-5.86575270e-02f,-1.15401208e-01f,+9.95039344e-02f,+3.20336223e-02f,+1.11316770e-01f,
-2.20940560e-01f,-1.39824077e-01f,-2.34107107e-01f,-2.39702806e-01f,-1.45960733e-01f,
+1.49143994e-01f,+1.37304902e-01f,-1.53655380e-01f,-2.01667279e-01f,+1.23622626e-01f,
+3.90199423e-02f,+2.46101618e-01f,+1.75277799e-01f,+1.51510358e-01f,-1.24713659e-01f,
-4.69503552e-02f,+6.95535243e-02f,-1.02420241e-01f,+1.85741216e-01f,-5.66404313e-02f,
-5.81635386e-02f,-2.06404552e-01f,-7.93067068e-02f,-1.36514872e-01f,-2.33830154e-01f,
+2.35607386e-01f,+1.84467226e-01f,-4.61450219e-02f,-1.54656380e-01f,+4.15984988e-02f,
+1.10750020e-01f,-3.09826136e-02f,+5.05861044e-02f,+1.22033656e-01f,-2.37157643e-02f,
+1.52354419e-01f,-7.15294182e-02f,-2.65674293e-02f,+2.04733610e-01f,+2.18647420e-02f,
-1.93208367e-01f,-1.33470029e-01f,-5.31925559e-02f,+5.18576801e-02f,-1.99421525e-01f,
+6.95045590e-02f,-6.80691302e-02f,-8.69376361e-02f,+7.63668716e-02f,+1.73682213e-01f,
-6.32272959e-02f,+1.45013243e-01f,+3.61105800e-02f,-2.42542714e-01f,+1.91402495e-01f,
-4.77438420e-02f,+1.06549025e-01f,-2.14447662e-01f,+3.59019935e-02f,+1.40454501e-01f,
+1.77222788e-01f,-2.04937756e-02f,-2.39564374e-01f,+8.30761790e-02f,+1.82930022e-01f,
+7.56339729e-02f,+1.28532708e-01f,+1.65500313e-01f,-7.76358396e-02f,+2.10743546e-01f,
-1.88646853e-01f,-1.50082350e-01f,-1.93128064e-01f,-3.58950645e-02f,+4.89293337e-02f,
+9.99238491e-02f,-1.68749958e-01f,+2.44159073e-01f,-1.24253824e-01f,-1.53316379e-01f,
+1.82051361e-02f,+1.75924957e-01f,-2.10673064e-01f,+1.64058834e-01f,-1.23316869e-01f,
-2.30215549e-01f,-1.77678049e-01f,-1.11988276e-01f,+4.88590300e-02f,+2.24827319e-01f,
-6.53403550e-02f,+1.95488334e-01f,-2.10629344e-01f,+1.73899293e-01f,+1.93853110e-01f,
+2.13178575e-01f,+2.56233513e-02f,+1.65537000e-02f,+2.17702359e-01f,-1.56592578e-01f,
-1.77857488e-01f,-6.47799224e-02f,+8.69226456e-02f,+1.12003982e-02f,-1.75719917e-01f,
+4.85863090e-02f,-2.09004015e-01f,-3.68781537e-02f,+2.08624601e-01f,+9.92825031e-02f,
+4.15565968e-02f,+8.85147154e-02f,+1.39171898e-01f,-1.95708424e-01f,-9.84098315e-02f,
-5.93816787e-02f,-5.71381599e-02f,+3.34098041e-02f,-1.03213415e-01f,-2.26915002e-01f,
-1.40444562e-01f,-1.38209879e-01f,+8.34175944e-03f,+1.53377831e-01f,-1.36702746e-01f,
-8.90868306e-02f,-5.65876067e-03f,-1.03091747e-01f,+2.04587966e-01f,-3.81218940e-02f,
-1.11115828e-01f,+8.10326338e-02f,-4.29892242e-02f,-1.10011712e-01f,+1.62869722e-01f,
-1.71462595e-01f,-2.52998322e-02f,-7.87287503e-02f,+4.74267006e-02f,+2.22551733e-01f,
+3.55159342e-02f,+1.45124555e-01f,+2.07251400e-01f,+2.65781581e-02f,-1.50958344e-01f,
+1.56762511e-01f,+1.83973730e-01f,+1.02735519e-01f,-1.27158791e-01f,+6.07120991e-02f,
-1.88568369e-01f,-7.57867992e-02f,+1.46408409e-01f,-3.68040055e-02f,-1.10887885e-02f,
-1.81813687e-01f,-1.96049124e-01f,+2.01694012e-01f,-2.38773227e-03f,-1.95088789e-01f,
+2.05488116e-01f,+8.33070576e-02f,-2.31393814e-01f,+1.99228704e-01f,-2.48733237e-01f,
+9.85838473e-02f,-9.09985900e-02f,-1.47340551e-01f,-1.60487473e-01f,+3.11253667e-02f,
+3.97140980e-02f,+2.40134984e-01f,-2.47210905e-01f,+1.37418628e-01f,+3.86736095e-02f,
-2.25085780e-01f,+8.50891173e-02f,-1.16218120e-01f,-4.96137887e-02f,-1.17152482e-02f,
+1.81054890e-01f,-2.41176397e-01f,-7.48901069e-03f,-1.07940510e-01f,+1.43498003e-01f,
+1.00683570e-02f,+2.10535854e-01f,-1.04465172e-01f,+2.34421313e-01f,-2.27573141e-01f,
-9.36020762e-02f,-1.82703972e-01f,-2.20887005e-01f,-1.82579696e-01f,+1.96478844e-01f,
-8.77549648e-02f,+9.50990021e-02f,+5.53961992e-02f,+7.96758831e-02f,-9.07104164e-02f,
-1.48816258e-01f,+1.44619524e-01f,+8.60914588e-03f,+1.20162696e-01f,-1.36203498e-01f,
-1.65643066e-01f,-1.07746974e-01f,+1.32298619e-01f,-1.96700394e-01f,+1.37336463e-01f,
-1.02117553e-01f,-2.14895219e-01f,-2.19351500e-02f,-1.50104269e-01f,-1.10999450e-01f,
+2.47904390e-01f,+1.46407455e-01f,-2.06656575e-01f,+1.44529134e-01f,+4.04644012e-02f,
+8.48808289e-02f,-2.33167320e-01f,-1.32549986e-01f,+7.26781189e-02f,+1.53497994e-01f,
-4.77596819e-02f,-1.83178321e-01f,-4.28647697e-02f,-1.24620900e-01f,-1.57144457e-01f,
+2.05026537e-01f,-2.32326791e-01f,+1.59609646e-01f,+2.16327548e-01f,-2.07070872e-01f,
-2.39120692e-01f,-1.61571652e-01f,+1.10005736e-01f,-2.00023875e-01f,-1.07776970e-01f,
+3.12784314e-02f,+1.54097646e-01f,-1.51633590e-01f,+1.20043784e-01f,+2.01277852e-01f,
+4.25130129e-03f,+9.87255871e-02f,-3.00838500e-02f,+1.62626714e-01f,+3.16732228e-02f,
+1.56324953e-01f,-3.13581824e-02f,+1.00522518e-01f,+9.53087807e-02f,+1.26862675e-01f,
+7.59387016e-02f,-9.68845487e-02f,+2.94297636e-02f,-1.83703929e-01f,-1.05213955e-01f,
+1.64295018e-01f,+1.30313218e-01f,+1.31076634e-01f,-1.58963323e-01f,-1.59931377e-01f,
+8.82608891e-02f,+1.88530654e-01f,+7.84882307e-02f,-1.10009894e-01f,+1.33193105e-01f,
-1.38609678e-01f,-2.11856574e-01f,-6.21964782e-02f,+1.06225669e-01f,-3.17931175e-04f,
-2.40787879e-01f,-1.52560607e-01f,+3.90232503e-02f,+2.29808778e-01f,-8.85639936e-02f,
+1.66088045e-01f,-1.65309608e-01f,-2.21455753e-01f,-1.53831691e-01f,+2.28725731e-01f,
-1.51466846e-01f,-1.47391990e-01f,+4.57589030e-02f,-4.55819368e-02f,-2.40585655e-02f,
+1.01744473e-01f,+7.44350553e-02f,-1.02164537e-01f,+1.39235258e-02f,-1.44810602e-01f,
-1.27717122e-01f,-4.86280322e-02f,+2.09688812e-01f,-1.67032704e-01f,-1.58472359e-01f,
+1.74036831e-01f,+5.95145524e-02f,+6.45286739e-02f,-8.42829943e-02f,+2.05300242e-01f,
+2.35713720e-02f,+1.23277307e-02f,-2.32296437e-01f,+1.54542953e-01f,+1.62356436e-01f,
-2.29835212e-01f,-1.42745614e-01f,+6.08090162e-02f,+1.57451004e-01f,+6.78422749e-02f,
+1.33486301e-01f,-2.27003679e-01f,+5.19788861e-02f,+1.45201892e-01f,-2.04438776e-01f,
+1.39876962e-01f,+7.45260119e-02f,-2.37421811e-01f,+1.12118423e-02f,+6.73587918e-02f,
+2.52053142e-02f,-1.54777884e-01f,+6.49559200e-02f,+2.00198859e-01f,-1.18828356e-01f,
+9.89093482e-02f,-1.24240220e-01f,-1.52899191e-01f,+1.51415288e-01f,-1.42818317e-01f,
-2.33263761e-01f,-2.49944568e-01f,-1.48343593e-01f,-2.35298872e-01f,-1.19355842e-01f,
+6.96729720e-02f,-6.27876371e-02f,-1.21483356e-02f,+2.14576453e-01f,+1.37356579e-01f,
+6.11614585e-02f,+1.84543073e-01f,+1.35322511e-01f,-9.45322365e-02f,-2.49922454e-01f,
+1.02263808e-01f,-1.61336958e-02f,-7.43846297e-02f,+2.32445896e-01f,-6.07292652e-02f,
+1.12298727e-01f,+8.43537152e-02f,+5.05447984e-02f,-4.01490629e-02f,-1.81648523e-01f,
+1.66182071e-01f,-2.38598689e-01f,-2.43957952e-01f,-2.21726567e-01f,+8.55878890e-02f,
+1.77607745e-01f,-1.76342338e-01f,+7.29793310e-03f,+1.78093314e-01f,-1.68007910e-02f,
-1.75050348e-01f,+1.74520642e-01f,+1.31673008e-01f,+2.38102585e-01f,-3.50450724e-02f,
+1.33517385e-03f,+1.93846971e-01f,+2.01315612e-01f,-1.99086308e-01f,-1.68451428e-01f,
+5.61835468e-02f,+1.76411659e-01f,+1.01926476e-01f,-1.18079454e-01f,-2.39485234e-01f,
-2.31361166e-01f,-1.74842417e-01f,-1.95373222e-01f,-7.06647336e-02f,+1.25635445e-01f,
-3.98427695e-02f,-2.03663230e-01f,+8.75526965e-02f,+2.41580755e-01f,-8.08572322e-02f,
-6.34151101e-02f,+2.98638642e-02f,+8.61277580e-02f,-4.77652252e-02f,-1.55095249e-01f,
+1.12019002e-01f,+1.57694519e-02f,-1.59115493e-01f,+2.24978983e-01f,+1.73573196e-01f,
+3.01119685e-02f,+1.25329494e-01f,-1.50781617e-01f,-3.46902013e-03f,+1.60140574e-01f,
+5.33066392e-02f,+1.77065939e-01f,-2.13902235e-01f,+6.72158897e-02f,-8.40868056e-02f,
+2.58788764e-02f,+1.81871563e-01f,-1.27552792e-01f,+7.29951262e-02f,+2.48345822e-01f,
+1.14131808e-01f,+5.83565235e-02f,+4.60036993e-02f,-1.25212520e-02f,-2.32669473e-01f,
+2.12908536e-01f,+8.81028175e-03f,+7.00053275e-02f,-2.03616202e-01f,+5.99106848e-02f,
-1.93525255e-01f,+1.15386635e-01f,+1.47792846e-01f,-1.41891092e-02f,-7.36459643e-02f,
-1.06976986e-01f,+1.71293288e-01f,-1.35985330e-01f,+1.02502048e-01f,+2.43680090e-01f,
+3.33020389e-02f,-8.84821266e-02f,+2.50102550e-01f,-1.00056425e-01f,-2.04979450e-01f,
-1.10011533e-01f,-1.71463192e-01f,+2.23635972e-01f,+1.78999901e-01f,+2.42874801e-01f,
+2.37707376e-01f,+8.52150321e-02f,+1.71337605e-01f,+1.92664266e-01f,-2.48935372e-02f,
-6.83076680e-02f,-2.12957263e-01f,-1.98442638e-01f,+5.62260747e-02f,+2.95680463e-02f,
+2.15327471e-01f,-1.18308231e-01f,+7.24795461e-03f,-1.27467632e-01f,+2.56992579e-02f,
+1.62925363e-01f,-1.07561931e-01f,+1.79995775e-01f,-3.78748178e-02f,+1.24826968e-01f,
-8.53539854e-02f,-1.47303924e-01f,+2.28046894e-01f,-2.30391249e-01f,+1.91455036e-01f,
-4.17783707e-02f,-9.13970470e-02f,+1.40978903e-01f,+1.50493920e-01f,-2.31436282e-01f,
-1.31011009e-03f,+1.37020350e-01f,-3.48382890e-02f,+7.87959695e-02f,-2.03535110e-01f,
+2.31847256e-01f,+2.21893966e-01f,-1.56872630e-01f,+7.44629502e-02f,-4.48914617e-02f,
+2.04765737e-01f,-9.49965864e-02f,-1.72568396e-01f,+4.85451519e-02f,-1.05463326e-01f,
-7.42309093e-02f,-2.36226857e-01f,-6.17026687e-02f,-2.03449339e-01f,+4.52478826e-02f,
-2.15359151e-01f,+1.06306970e-02f,-2.41265193e-01f,-2.07227975e-01f,+3.20202410e-02f,
-5.10804057e-02f,+1.56817615e-01f,+4.42671180e-02f,-2.48002574e-01f,-2.48598665e-01f,
+8.47938657e-02f,+2.99731493e-02f,-2.72722989e-02f,-9.10612941e-02f,-5.83006442e-02f,
+1.39738321e-02f,+2.21242338e-01f,-1.84558138e-01f,+8.65205526e-02f,+5.58781028e-02f,
-9.58502442e-02f,-1.39493734e-01f,-1.70689359e-01f,+1.45861477e-01f,-2.22465485e-01f,
+1.49359882e-01f,-1.64167374e-01f,-4.36504930e-02f,+2.50131935e-01f,+1.96080446e-01f,
+1.53091222e-01f,+1.78091854e-01f,+3.23265791e-03f,+9.18017626e-02f,-2.24489808e-01f,
-2.42528811e-01f,+1.02046609e-01f,-6.76789880e-02f,+2.21251249e-02f,+1.77885443e-01f,
+1.38149172e-01f,+9.23503935e-02f,+8.06601346e-02f,-9.54706967e-03f,+1.97119743e-01f,
-4.89219874e-02f,+8.96065533e-02f,-2.52223760e-01f,+4.55117524e-02f,+2.26050943e-01f,
-2.21260414e-01f,-9.43589956e-02f,+2.03881651e-01f,+1.46342039e-01f,-1.05384961e-01f,
+2.43005931e-01f,+7.03448951e-02f,-8.76332968e-02f,+3.84195149e-02f,+1.91830188e-01f,
-2.01948151e-01f,-9.82212871e-02f,+5.94022870e-02f,-4.00940627e-02f,-2.51884013e-01f,
+1.81250244e-01f,+1.49533421e-01f,-2.15163440e-01f,-1.72622919e-01f,+8.50285292e-02f,
+7.03217089e-02f,-1.64353490e-01f,+2.50279993e-01f,+8.10045004e-02f,+1.17908984e-01f,
-1.20254800e-01f,-2.37452954e-01f,-1.02583423e-01f,-3.96480858e-02f,-1.16030782e-01f,
+2.30368853e-01f,+5.36195636e-02f,-8.22062045e-02f,+2.06340343e-01f,-2.73294002e-02f,
+2.40202099e-01f,-1.12231225e-02f,+8.69141519e-02f,-3.54236513e-02f,-1.27835125e-02f,
-2.15312347e-01f,+1.52685344e-01f,+2.17301846e-01f,-2.52032459e-01f,+7.08228648e-02f,
+2.49423295e-01f,-1.03274256e-01f,+5.31732142e-02f,+2.47613788e-02f,+1.88118756e-01f,
-1.98432341e-01f,+1.69884264e-02f,+2.12655425e-01f,+2.10119754e-01f,-1.90730751e-01f,
+1.73982352e-01f,-1.47411868e-01f,+1.89828873e-02f,+2.16404885e-01f,+3.18625867e-02f,
+8.85134041e-02f,+3.40502858e-02f,-3.87209952e-02f,-2.18091488e-01f,+7.89861381e-02f,
-7.72747844e-02f,-1.18929684e-01f,-9.48492587e-02f,+3.94255221e-02f,-1.73260868e-01f,
-8.59709084e-03f,-6.71117604e-02f,-1.05188966e-01f,+1.40227050e-01f,+1.27663821e-01f,
+9.07429457e-02f,-1.65572241e-01f,+1.59542441e-01f,-2.55662501e-02f,-8.02000016e-02f,
+1.89801753e-02f,+1.97702408e-01f,+2.11677969e-01f,-1.03859678e-01f,-1.24037042e-01f,
+2.10514784e-01f,+1.70420349e-01f,+1.72374994e-01f,+9.51512158e-02f,-3.99240851e-02f,
-1.64156646e-01f,+1.01881206e-01f,+5.32957911e-03f,+2.40579456e-01f,+6.01998568e-02f,
+2.18945622e-01f,-4.96813208e-02f,+9.84281301e-02f,+1.00503564e-01f,+9.58028436e-02f,
+1.90576971e-01f,+1.04915380e-01f,+8.18679929e-02f,-2.22953752e-01f,+2.43319571e-02f,
+1.74049944e-01f,-4.06739116e-03f,-1.73672765e-01f,-2.39228562e-01f,-1.81988314e-01f,
-2.31092513e-01f,+1.04711056e-01f,+2.02123910e-01f,+1.14067793e-02f,-1.77546859e-01f,
-2.25479960e-01f,+9.80776846e-02f,-6.08723909e-02f,-2.44843826e-01f,+4.93388176e-02f,
+1.95850402e-01f,-8.77774358e-02f,+2.02577323e-01f,+1.50604934e-01f,-2.31774449e-02f,
+1.55963004e-01f,-2.39116043e-01f,+2.46296465e-01f,-2.45352462e-01f,+2.41655558e-01f,
+1.65308237e-01f,+1.50774270e-01f,+1.62308872e-01f,-2.15581119e-01f,+1.11468732e-01f,
+2.06668377e-01f,-6.58865124e-02f,+5.82972765e-02f,+1.13581151e-01f,-6.35733455e-02f,
-1.13613963e-01f,+1.12949997e-01f,-2.43378490e-01f,-2.48726845e-01f,+6.91514909e-02f,
-1.89237893e-01f,-1.79563165e-01f,-1.02689862e-03f,+5.33324778e-02f,-2.28781939e-01f,
-1.72826797e-02f,+1.62874848e-01f,+2.43471861e-01f,-2.03420907e-01f,+2.45098084e-01f,
+5.58477938e-02f,+1.48480088e-01f,-4.12307680e-02f,+1.23774171e-01f,-8.73923451e-02f,
-1.88623488e-01f,+1.40054464e-01f,+1.29006028e-01f,+1.80703014e-01f,-1.46109819e-01f,
-1.33571818e-01f,+7.94765055e-02f,+1.40240788e-02f,+8.05110037e-02f,-1.28476858e-01f,
+2.47064292e-01f,-8.60638618e-02f,-2.10486770e-01f,-1.96206689e-01f,+1.65047944e-01f,
-2.97483355e-02f,+2.38305271e-01f,+1.02988273e-01f,-6.19670451e-02f,-8.97716433e-02f,
+7.24966824e-02f,+4.30151820e-02f,+1.01417750e-01f,-2.47758016e-01f,-7.57548064e-02f,
-1.53147250e-01f,+1.57734752e-02f,-2.16411576e-01f,+8.87523592e-02f,+9.08620954e-02f,
-1.35385990e-03f,+1.49417162e-01f,-6.04618192e-02f,+1.80406243e-01f,+2.35226601e-01f,
+7.51178265e-02f,-3.74048948e-04f,-1.66096106e-01f,-2.31910139e-01f,-4.40952033e-02f,
+3.27763557e-02f,-3.70140523e-02f,+1.88581973e-01f,-1.74306422e-01f,+2.11487710e-02f,
+4.49297130e-02f,+7.85452724e-02f,+7.86484480e-02f,+7.91258812e-02f,-1.08092427e-02f,
-1.69356704e-01f,+2.12466896e-01f,-2.01693967e-01f,-2.00160071e-01f,-2.20871776e-01f,
-1.85340643e-02f,-6.75969571e-02f,+1.64940059e-02f,-2.01414526e-02f,+2.08252370e-02f,
+1.32482231e-01f,-1.74926132e-01f,-1.99677944e-01f,+2.40988106e-01f,+1.41427130e-01f,
-1.61436290e-01f,-1.89789087e-02f,+5.05809188e-02f,-2.38553628e-01f,+1.94927126e-01f,
-1.58269703e-02f,-6.89276755e-02f,+7.35315084e-02f,-1.44063622e-01f,+4.63827550e-02f,
-1.48606688e-01f,+2.25104153e-01f,-1.93213597e-01f,-1.05300218e-01f,-2.09528118e-01f,
+1.54153347e-01f,+1.61101192e-01f,-1.33829921e-01f,-8.95726383e-02f,+2.09272712e-01f,
-1.73756182e-02f,+1.45124435e-01f,+1.43275797e-01f,-2.37664729e-01f,-2.08731890e-02f,
+4.71483469e-02f,-2.13427991e-01f,-1.13054261e-01f,+2.08253652e-01f,+2.69299150e-02f,
+1.17184818e-02f,+1.17933750e-01f,+9.98878479e-03f,-8.18903893e-02f,-1.31721929e-01f,
-1.74453408e-01f,+8.45008790e-02f,-1.14065066e-01f,+1.10011458e-01f,-3.26492190e-02f,
+1.02807969e-01f,-2.34901130e-01f,+7.76166320e-02f,-5.16165644e-02f,+8.04533660e-02f,
-1.98723331e-01f,+2.34448701e-01f,+1.62444502e-01f,+8.07420015e-02f,+1.89701289e-01f,
+6.70721233e-02f,+1.66040689e-01f,-1.78420246e-02f,+7.03506768e-02f,-4.32236046e-02f,
+1.82113051e-01f,+1.93832219e-02f,-2.48466283e-02f,+3.71887386e-02f,+1.45770878e-01f,
-4.68200147e-02f,-6.86336011e-02f,+1.20249689e-01f,+1.80037051e-01f,+2.08843172e-01f,
+2.39235252e-01f,-2.17380345e-01f,+2.03717619e-01f,+1.58631086e-01f,-8.67010653e-03f,
-5.76370209e-02f,-4.20944840e-02f,+1.82694197e-01f,-2.94101089e-02f,-2.31834978e-01f,
-1.34439319e-01f,-1.41113296e-01f,+2.16508150e-01f,+4.30038571e-02f,+1.67086482e-01f,
-7.61616379e-02f,-1.61941186e-01f,-2.17879266e-01f,-1.63472801e-01f,-1.55009180e-01f,
-1.35866255e-01f,+4.81767654e-02f,+1.52552366e-01f,-8.19841176e-02f,+5.64628541e-02f,
-1.86365992e-02f,+1.29979491e-01f,+1.49749488e-01f,-2.16049135e-01f,-1.43566370e-01f,
-6.31286204e-02f,+2.06558943e-01f,-3.52875292e-02f,-2.33407602e-01f,+3.42905521e-04f,
+8.26425552e-02f,+1.41709149e-02f,+2.20692694e-01f,-3.48523259e-02f,-2.22531378e-01f,
+1.76298648e-01f,+2.15049416e-01f,-2.38995403e-01f,-8.20738673e-02f,-2.46087208e-01f,
-3.86853963e-02f,-1.65479004e-01f,-8.63793790e-02f,-1.81878924e-01f,+6.50314093e-02f,
-1.19610220e-01f,+2.35949427e-01f,+2.39416331e-01f,-7.27718323e-02f,-8.07136297e-02f,
-2.20703840e-01f,-1.21595576e-01f,+2.38307744e-01f,+2.09947705e-01f,+2.15973020e-01f,
-1.14130422e-01f,-2.43612796e-01f,-1.57242835e-01f,-2.21873358e-01f,-1.20321900e-01f,
+2.77264118e-02f,-2.11103275e-01f,-8.34100693e-02f,-4.45943773e-02f,-8.55392665e-02f,
-1.85437322e-01f,-1.03751987e-01f,+1.71224058e-01f,+2.25089818e-01f,-3.91884297e-02f,
-1.05868235e-01f,-7.85787106e-02f,-1.57291681e-01f,+1.84528142e-01f,+2.09907532e-01f,
+1.54839486e-01f,+1.80848181e-01f,-2.48814553e-01f,-4.10675853e-02f,-2.52094418e-01f,
-2.14691430e-01f,+2.12270081e-01f,-2.04961747e-02f,+2.27763057e-01f,-7.17226565e-02f,
-1.79016054e-01f,+1.37164295e-02f,-3.78762633e-02f,+5.32341897e-02f,+1.59784764e-01f,
+1.00538790e-01f,+8.66694748e-02f,-2.40571633e-01f,+3.55920196e-03f,+7.54891634e-02f,
-5.14484346e-02f,-2.16160938e-01f,-3.56471241e-02f,-1.35496408e-01f,-2.35940561e-01f,
+8.82782936e-02f,-1.27952337e-01f,+1.91953242e-01f,+5.54280281e-02f,+6.78502321e-02f,
+1.51733279e-01f,-2.91905552e-02f,-2.14637712e-01f,+8.40239227e-02f,-1.32055104e-01f,
-1.90889537e-01f,+6.83019459e-02f,+2.27492183e-01f,-9.83162224e-03f,-1.13957614e-01f,
-8.18486512e-02f,-1.71455860e-01f,-1.31006747e-01f,-8.85233879e-02f,-4.46145535e-02f,
+5.64746559e-02f,-2.09496379e-01f,-1.07797280e-01f,+1.57365590e-01f,-2.10505798e-01f,
-6.82225823e-03f,-1.15550831e-01f,+1.03556812e-01f,+2.45383352e-01f,-8.51737559e-02f,
+1.83136463e-01f,-2.21913964e-01f,-2.36143917e-02f,-2.46439591e-01f,+2.11445540e-01f,
+1.96653336e-01f,-1.91777229e-01f,+1.12755358e-01f,+1.47788167e-01f,-2.70143151e-02f,
-1.14240646e-02f,+6.37736917e-02f,+1.42371356e-01f,+1.00996763e-01f,-2.12846309e-01f,
-1.06381804e-01f,+2.41142005e-01f,+1.34420782e-01f,+7.86125064e-02f,-6.83440566e-02f,
+1.48850888e-01f,-1.69377059e-01f,+1.09445482e-01f,-2.31161475e-01f,+2.44422972e-01f,
+3.44122350e-02f,+2.25216836e-01f,+1.07112646e-01f,+1.07244074e-01f,+8.75432491e-02f,
-3.90662104e-02f,+2.08938420e-01f,+9.90814567e-02f,-2.20578000e-01f,+9.30608511e-02f,
-5.69526851e-02f,+2.23578930e-01f,+2.95448005e-02f,-9.35123861e-03f,-1.54690355e-01f,
+3.22884023e-02f,+2.48950452e-01f,-2.29676262e-01f,+7.35333264e-02f,-2.55371630e-02f,
+3.51751149e-02f,-1.15871221e-01f,-1.54691920e-01f,+1.45218760e-01f,+1.71550483e-01f,
-1.65100545e-01f,+8.78384411e-02f,+1.44328177e-01f,+1.74415290e-01f,-5.60234934e-02f,
-2.13904276e-01f,+2.31454939e-01f,+1.80660784e-01f,-8.62858891e-02f,+1.92561746e-01f,
+2.80763209e-02f,-1.09443083e-01f,-3.38753611e-02f,-9.20183659e-02f,-1.49608836e-01f,
+5.25480509e-03f,-8.19011033e-02f,+4.62577641e-02f,+1.55586362e-01f,+7.99573660e-02f,
-2.30735078e-01f,-7.05832392e-02f,-2.00529724e-01f,+2.30562985e-01f,-1.32057741e-01f,
+1.20949626e-01f,+4.31681871e-02f,-1.79419816e-01f,-1.60979047e-01f,-1.38866991e-01f,
+2.01502770e-01f,+2.36451656e-01f,-2.09750861e-01f,+1.79551840e-01f,+9.69628990e-02f,
-1.94949955e-01f,-7.78663605e-02f,+7.99131095e-02f,+1.26706541e-01f,+1.80804193e-01f,
}; 
k2c_tensor dense_kernel = {&dense_kernel_array[0],2,1120,{14,80, 1, 1, 1}}; 
float dense_bias_array[80] = {0}; 
k2c_tensor dense_bias = {&dense_bias_array[0],1,80,{80, 1, 1, 1, 1}}; 
float dense_fwork[1134] = {0}; 

 
float dense_1_output_array[80] = {0}; 
k2c_tensor dense_1_output = {&dense_1_output_array[0],1,80,{80, 1, 1, 1, 1}}; 
float dense_1_kernel_array[6400] = {
-6.75165653e-03f,+1.04220808e-02f,+1.25552446e-01f,-1.74927264e-02f,-1.86584949e-01f,
+1.46487206e-02f,+1.88290745e-01f,+7.36630261e-02f,+1.60439640e-01f,-1.44900486e-01f,
+7.25055933e-02f,+4.24727201e-02f,-6.44446760e-02f,-1.44821122e-01f,-1.30242258e-01f,
+7.03383982e-03f,+1.28014058e-01f,-3.56013030e-02f,+1.84254348e-02f,+8.72717798e-02f,
+6.91859722e-02f,-1.84712917e-01f,-1.43129885e-01f,-1.74697399e-01f,+1.78266615e-01f,
+1.54000103e-01f,-1.10440962e-01f,+5.36760837e-02f,-9.66148376e-02f,-1.18945442e-01f,
-1.61480531e-01f,-1.74068019e-01f,-3.54684293e-02f,+1.04052752e-01f,-1.04609929e-01f,
+1.16267234e-01f,-3.30990106e-02f,+1.50323689e-01f,+9.22890306e-02f,-2.59364843e-02f,
+1.76515102e-01f,-3.85165811e-02f,-7.63490349e-02f,+1.08649909e-01f,-8.41222331e-02f,
-9.83085707e-02f,-1.20800719e-01f,-1.68040097e-02f,-3.56367528e-02f,+1.51497483e-01f,
-6.74807429e-02f,+1.32913768e-01f,-1.45035356e-01f,+8.56025517e-03f,+1.59848839e-01f,
+1.57053143e-01f,-1.28221512e-01f,+8.60010087e-02f,+7.42621720e-02f,-6.66697174e-02f,
+1.98200792e-02f,+1.10304952e-01f,+1.81843162e-01f,+1.32809639e-01f,-1.41867995e-02f,
+5.92676401e-02f,+1.11722708e-01f,+6.51457608e-02f,+2.88743526e-02f,+1.93620265e-01f,
+1.73496842e-01f,+1.71717852e-01f,+1.55106694e-01f,-1.14993371e-01f,+1.49274915e-01f,
-2.41100788e-04f,-1.10912398e-01f,+1.79239422e-01f,+1.20071054e-01f,+5.26330620e-02f,
+1.37238503e-02f,-6.46850765e-02f,-1.45632684e-01f,+5.94611764e-02f,-1.12373799e-01f,
+1.30646110e-01f,+3.59827578e-02f,-1.71306938e-01f,+1.56263113e-02f,-5.40722609e-02f,
-1.09209478e-01f,+1.52209133e-01f,+1.50124937e-01f,+1.09962195e-01f,+3.98591012e-02f,
-1.82477251e-01f,+1.71264321e-01f,+2.68579423e-02f,+3.72370481e-02f,-1.60152093e-01f,
-6.04715496e-02f,-1.48782432e-01f,-5.13526499e-02f,-1.51419491e-01f,-1.58907458e-01f,
-1.51931614e-01f,-1.57378092e-01f,-1.09372087e-01f,+1.91938490e-01f,-8.04680511e-02f,
-3.21451873e-02f,-1.61192253e-01f,-2.27234066e-02f,-1.43692598e-01f,+1.00600243e-01f,
+9.85022485e-02f,+1.90564156e-01f,+1.01851106e-01f,+1.03744239e-01f,+1.76156968e-01f,
-8.19877684e-02f,+3.45434695e-02f,-8.87154117e-02f,-9.00900140e-02f,-1.78029835e-02f,
+1.39618456e-01f,+1.52793527e-02f,+1.13923579e-01f,+1.87753886e-01f,+2.13399380e-02f,
-2.21748203e-02f,+1.20153695e-01f,+4.60163206e-02f,-1.92256704e-01f,-1.35040879e-01f,
+6.63389564e-02f,-1.66695654e-01f,-1.46849170e-01f,+4.98921722e-02f,+8.79073143e-02f,
-8.95441547e-02f,-1.63483456e-01f,+8.57497752e-03f,+3.59479934e-02f,-2.71330625e-02f,
+1.86088443e-01f,+9.89285707e-02f,+6.95897639e-02f,-2.57223547e-02f,-1.11979373e-01f,
-1.57744631e-01f,+8.22892189e-02f,+1.60242856e-01f,-1.37747616e-01f,+5.91460168e-02f,
+1.71183616e-01f,+1.01011336e-01f,+1.17374420e-01f,-1.42448753e-01f,+1.18343800e-01f,
+4.25248444e-02f,+4.69320565e-02f,+1.49259925e-01f,+1.10220373e-01f,-1.28638417e-01f,
-1.92335561e-01f,+9.01670754e-02f,+6.36811256e-02f,-8.14579427e-03f,+1.21008009e-01f,
-8.80278647e-03f,+1.78690553e-02f,-1.91495866e-01f,+6.18533492e-02f,-1.75217539e-01f,
+1.67064220e-01f,-3.73755544e-02f,+9.07587409e-02f,-1.08493946e-01f,-1.18070386e-01f,
-3.50829959e-02f,+1.56633377e-01f,-4.99415249e-02f,+7.50122964e-02f,+5.92369735e-02f,
-1.41177103e-01f,-1.24737598e-01f,+9.28287506e-02f,+1.92982912e-01f,+1.35415226e-01f,
-1.29074305e-01f,+7.87628591e-02f,+1.05399102e-01f,-1.84151724e-01f,-4.25186157e-02f,
+7.16056228e-02f,+4.17017788e-02f,-4.79026735e-02f,+1.63780242e-01f,+9.10203457e-02f,
-1.51553571e-01f,+4.25523072e-02f,+1.67051673e-01f,+4.21033800e-03f,-1.00626647e-01f,
+2.03113705e-02f,+1.25827700e-01f,+4.04793918e-02f,-1.19547166e-01f,+2.99731344e-02f,
-1.09959692e-02f,+3.93185019e-03f,+1.43997461e-01f,-6.36667162e-02f,+1.67605191e-01f,
+3.11767757e-02f,+6.26123548e-02f,+1.32733941e-01f,+5.71024418e-03f,-2.89689004e-02f,
+1.90580040e-02f,-1.22585028e-01f,-5.27655333e-02f,+8.24470520e-02f,-1.54261738e-02f,
-2.49259323e-02f,-5.52761853e-02f,+1.61333442e-01f,-1.59678534e-01f,+5.77870607e-02f,
-1.23641208e-01f,+2.79528052e-02f,-6.12404197e-02f,-3.96076143e-02f,+1.19331002e-01f,
+2.15636790e-02f,+1.31702095e-01f,-1.79113984e-01f,-1.90911502e-01f,-3.20997089e-02f,
+1.63418949e-01f,-1.92402229e-01f,+1.43871337e-01f,-1.87987685e-02f,+1.31522208e-01f,
-2.58857459e-02f,+7.90236294e-02f,-8.04171264e-02f,+1.01955563e-01f,-1.49186850e-02f,
-1.22998253e-01f,+2.97527313e-02f,+2.69208699e-02f,+9.86519456e-02f,-1.06253058e-01f,
-1.76324546e-01f,+5.68366349e-02f,-9.61324573e-03f,+9.37104523e-02f,+4.84151542e-02f,
-1.30688548e-02f,+1.54990047e-01f,-2.42717564e-03f,+1.18202150e-01f,+1.56968832e-01f,
+3.44689041e-02f,+6.48688674e-02f,-5.90473562e-02f,-1.50571957e-01f,+1.79594755e-03f,
+3.71413827e-02f,-6.34740442e-02f,-1.09398127e-01f,+5.92038333e-02f,+1.73949718e-01f,
+1.03872836e-01f,+1.81533366e-01f,+5.06521761e-03f,+1.60102367e-01f,+1.69949263e-01f,
+2.00688392e-02f,-6.10989034e-02f,-1.50861204e-01f,+1.88235462e-01f,-4.99281734e-02f,
-9.23037082e-02f,-1.81541443e-01f,+1.89386696e-01f,+3.68869901e-02f,+7.36541152e-02f,
-7.99584761e-02f,-1.03536628e-01f,+1.71573192e-01f,-1.10052347e-01f,-1.39229059e-01f,
-1.91739693e-01f,-1.19358748e-01f,-1.31501064e-01f,-5.40863425e-02f,+1.41442806e-01f,
-1.75719634e-01f,+9.01053846e-03f,-1.63428515e-01f,-1.66011840e-01f,-1.67377144e-02f,
-6.66470826e-03f,+1.70373023e-02f,+6.25592470e-03f,+1.89057648e-01f,-1.05806410e-01f,
+4.87903357e-02f,-1.59815893e-01f,-3.39675397e-02f,-1.13618396e-01f,+6.60362244e-02f,
+1.64882988e-01f,+5.74594438e-02f,+1.37774408e-01f,+1.11284107e-01f,+1.75935388e-01f,
-1.52683064e-01f,-8.01050663e-02f,-1.75634027e-03f,-5.01081944e-02f,+1.74563885e-01f,
-1.44452602e-01f,-2.68109888e-02f,-8.55144784e-02f,-1.86012313e-01f,+1.91833287e-01f,
-8.46564770e-03f,-1.86640769e-01f,+6.22989535e-02f,-1.24599591e-01f,-1.21178657e-01f,
-1.41279593e-01f,-4.73278612e-02f,-1.80232674e-01f,+1.79966241e-02f,-6.82361126e-02f,
+1.23789191e-01f,+4.04034853e-02f,+5.79420030e-02f,-2.25762725e-02f,+4.81768250e-02f,
-8.58673006e-02f,-1.52934462e-01f,+9.71106887e-02f,-1.23300061e-01f,-3.14698666e-02f,
-7.81378746e-02f,-1.51941851e-01f,-9.12637860e-02f,+4.74927872e-02f,+7.27292001e-02f,
+1.33510679e-01f,+1.08613610e-01f,+1.44868642e-01f,-1.52116716e-02f,-1.02696754e-01f,
+5.02286553e-02f,-6.01255149e-02f,-5.82755357e-02f,-4.87798452e-02f,+5.76383173e-02f,
-6.41256869e-02f,+1.11837953e-01f,+3.81121039e-03f,-3.86402011e-03f,-1.32219195e-01f,
+6.11257553e-03f,-1.22642510e-01f,+8.79574418e-02f,+1.90829545e-01f,-1.32959276e-01f,
+1.61462903e-01f,-1.34704635e-01f,+1.44416988e-02f,-1.39096826e-02f,-1.52094543e-01f,
+1.34076595e-01f,+1.68640971e-01f,-4.47642505e-02f,+3.44341844e-02f,+7.47276545e-02f,
+7.10009038e-02f,+3.16635519e-02f,-3.52947414e-02f,-1.78872377e-01f,-1.04185537e-01f,
+1.46855623e-01f,-1.38378620e-01f,-1.00029819e-01f,+1.07383966e-01f,-1.90569460e-02f,
+5.63651025e-02f,-9.54668745e-02f,+6.71492517e-02f,+1.89151525e-01f,+1.59156919e-01f,
+8.10105503e-02f,+7.46368766e-02f,+3.91647220e-03f,-5.97474724e-02f,-7.28182644e-02f,
-5.60161024e-02f,+8.22098851e-02f,+1.82408929e-01f,-1.32095814e-03f,+9.33003426e-03f,
+1.16596192e-01f,-1.26628697e-01f,+4.06684577e-02f,-1.03404254e-01f,-7.31511414e-02f,
-1.64035693e-01f,-1.40028536e-01f,+1.45138949e-01f,+1.16358608e-01f,-7.42444396e-02f,
-8.97889882e-02f,+1.63833201e-01f,+1.92617804e-01f,+7.86214173e-02f,-9.71360952e-02f,
-1.89106226e-01f,-1.71606570e-01f,-1.74595371e-01f,-5.97099811e-02f,-7.40930438e-04f,
+1.73665106e-01f,+1.60273552e-01f,-1.52869314e-01f,+1.43150985e-02f,-1.95546150e-02f,
-1.62175715e-01f,+7.43858516e-02f,-1.45540237e-02f,+1.26105696e-01f,-1.52424052e-01f,
-6.47443533e-02f,+1.69510424e-01f,+3.13271582e-02f,+1.60943121e-01f,+1.54375583e-01f,
+7.26716816e-02f,+1.18694693e-01f,-8.73620883e-02f,+1.27619863e-01f,+1.40974194e-01f,
+1.07555360e-01f,+1.82860136e-01f,+7.09931254e-02f,-1.63170055e-01f,-9.64065194e-02f,
+1.04480892e-01f,+2.02536583e-03f,-1.90318644e-01f,+1.29017383e-01f,-1.31435826e-01f,
+5.76982796e-02f,+1.68036371e-01f,-1.87071159e-01f,+1.29291058e-01f,+3.65599245e-02f,
-1.92218333e-01f,-1.49127364e-01f,-7.20582157e-02f,-1.20882437e-01f,-7.87857696e-02f,
-1.92845404e-01f,+1.15843952e-01f,+1.27167046e-01f,-1.62310705e-01f,-1.79692626e-01f,
+1.51782393e-01f,-9.52390805e-02f,+1.85123444e-01f,-1.01698570e-01f,-1.33326009e-01f,
+1.31313801e-01f,+6.93828762e-02f,+9.54622626e-02f,-5.73175251e-02f,+9.49801207e-02f,
-2.76198387e-02f,-4.81247008e-02f,+1.23088866e-01f,+1.42399907e-01f,-1.34009555e-01f,
+5.86616993e-02f,-6.39233738e-02f,-4.44745868e-02f,-1.42254829e-02f,+2.13198513e-02f,
-1.52514070e-01f,+1.63238257e-01f,+7.00335801e-02f,-1.80170715e-01f,-9.77502838e-02f,
+1.18533283e-01f,+1.46331966e-01f,+2.06697434e-02f,-1.52481064e-01f,+7.71613419e-02f,
+1.28887266e-01f,+4.13623899e-02f,+1.83376819e-01f,-1.12324446e-01f,-1.04967833e-01f,
-5.63659668e-02f,+1.25809193e-01f,+8.78336132e-02f,-1.45867690e-01f,-5.63674867e-02f,
-8.09071660e-02f,-1.57941878e-02f,-1.74910560e-01f,-1.03104062e-01f,-2.50629634e-02f,
+1.58707350e-01f,+2.28711516e-02f,+1.79666817e-01f,-9.98881236e-02f,-2.91195512e-03f,
-1.22624278e-01f,+9.84297693e-03f,-1.38827249e-01f,-6.64505959e-02f,+9.89903510e-02f,
+1.84290469e-01f,-2.81203985e-02f,+4.29515392e-02f,-1.36933059e-01f,+3.06458324e-02f,
+1.92316264e-01f,+1.32807285e-01f,-1.89221367e-01f,-4.89109308e-02f,+1.87358052e-01f,
+2.13820487e-02f,+2.59238333e-02f,-5.18123507e-02f,-9.26187709e-02f,+1.09870434e-01f,
+5.99171519e-02f,+1.07472986e-01f,+8.41574371e-03f,-7.31721520e-02f,-7.22108558e-02f,
-3.36818993e-02f,-1.13060527e-01f,+1.92677706e-01f,+4.58687544e-04f,-7.40605891e-02f,
+1.08790547e-01f,-1.66669577e-01f,-1.21067159e-01f,-1.27372622e-01f,+7.55546987e-03f,
-7.46942237e-02f,+5.90634346e-02f,-1.20680675e-01f,+1.10606492e-01f,+1.68186516e-01f,
+8.41220915e-02f,-1.89067721e-01f,+2.19200552e-02f,-1.68138891e-02f,-1.42940491e-01f,
+1.49188817e-01f,-4.72505242e-02f,+1.61361784e-01f,-1.41818210e-01f,-1.02742091e-01f,
+1.86283797e-01f,-1.71841308e-01f,+1.61031634e-01f,-6.55730963e-02f,-2.03283578e-02f,
+1.88378721e-01f,+1.90307409e-01f,-8.30929279e-02f,-1.44082367e-01f,-1.70770675e-01f,
+1.80461556e-02f,+3.09945494e-02f,-1.40221849e-01f,+1.83493406e-01f,-1.79992214e-01f,
-3.90527099e-02f,-1.91467404e-02f,+1.23434812e-02f,+9.43892896e-02f,-2.63877958e-02f,
-1.38651073e-01f,+6.16409779e-02f,-1.50473893e-01f,-1.87747180e-01f,+7.05440938e-02f,
+3.82056832e-02f,-7.87371993e-02f,+1.34454966e-02f,-3.49165201e-02f,+1.61796391e-01f,
-1.27237499e-01f,-1.66480690e-01f,-1.41010135e-02f,+4.28144634e-03f,-2.13815272e-03f,
-1.43766612e-01f,-1.20638385e-01f,+1.74965978e-01f,-5.58948070e-02f,-1.56720132e-01f,
+1.14417404e-01f,+1.64548218e-01f,-9.28279161e-02f,-1.88817158e-01f,+2.40510106e-02f,
-1.39299616e-01f,-9.93705615e-02f,+7.00832605e-02f,+9.57684219e-02f,+1.40255183e-01f,
-3.24695706e-02f,+3.45362723e-03f,-5.36510646e-02f,+1.63693279e-02f,-6.28975332e-02f,
-1.50137275e-01f,+1.54897481e-01f,-1.35342374e-01f,-1.89308867e-01f,-5.29702455e-02f,
+3.80098224e-02f,+7.33375251e-02f,-5.32751977e-02f,+1.69791371e-01f,+1.70215815e-01f,
-9.49338078e-03f,+8.73149037e-02f,-8.56102332e-02f,+1.07216150e-01f,-1.61198765e-01f,
+1.84547603e-02f,+1.14796698e-01f,+1.55814588e-01f,-6.82406425e-02f,+9.46816206e-02f,
-4.29735184e-02f,+4.88999337e-02f,+2.74140537e-02f,+1.40352458e-01f,-3.26449275e-02f,
+1.21747196e-01f,+7.78525472e-02f,+1.38884515e-01f,+4.01484966e-02f,+8.82670581e-02f,
+4.32191342e-02f,+1.38271689e-01f,+7.01708496e-02f,-1.30983323e-01f,+1.02507979e-01f,
-2.38997191e-02f,-3.07514220e-02f,+7.56233931e-03f,+2.39806473e-02f,+1.57517254e-01f,
+3.68041098e-02f,+1.84585899e-02f,+1.64984345e-01f,-5.43763340e-02f,+1.25333637e-01f,
+2.63924152e-02f,-2.49452740e-02f,+1.37998313e-01f,-1.48907870e-01f,-1.82276368e-01f,
+6.50934577e-02f,-5.77572882e-02f,-3.79481465e-02f,+1.26404911e-02f,-9.09842774e-02f,
+1.07482225e-02f,+2.86296010e-02f,-1.06372036e-01f,-7.73947239e-02f,-1.22052975e-01f,
-1.62812114e-01f,-1.41050369e-02f,+4.62265760e-02f,+1.89907491e-01f,+1.08340204e-01f,
+1.83045447e-01f,+1.88453525e-01f,-1.80328935e-01f,-1.24005482e-01f,-1.51985675e-01f,
+1.05356812e-01f,+1.67683363e-01f,+5.29725552e-02f,+3.43966484e-02f,-1.03444792e-01f,
-1.90118536e-01f,+9.37616527e-02f,+1.43028170e-01f,+9.19982493e-02f,+1.71893746e-01f,
-1.73949957e-01f,+1.49008483e-01f,+4.46271300e-02f,+9.94671881e-03f,+2.13547647e-02f,
-1.81281179e-01f,-8.48714709e-02f,-1.89359099e-01f,+3.93885523e-02f,+1.63752615e-01f,
+1.46018356e-01f,+3.91301513e-03f,-2.23663449e-03f,-2.46569067e-02f,+2.66435295e-02f,
-3.35332751e-02f,+3.09364200e-02f,+1.14622623e-01f,-1.62861556e-01f,+1.48841739e-03f,
+3.30382884e-02f,+1.54000193e-01f,-1.17341369e-01f,-9.97134596e-02f,-4.18475866e-02f,
-8.66516754e-02f,-1.24330983e-01f,-1.62592530e-01f,-1.36520535e-01f,+6.09330237e-02f,
+1.47625476e-01f,+2.82732695e-02f,+1.21115625e-01f,-7.40973428e-02f,-3.02429497e-02f,
-1.81575283e-01f,-1.61785930e-02f,+9.79912579e-02f,-1.14753984e-01f,-1.22702576e-01f,
+3.71285379e-02f,-1.22960024e-01f,+1.91285282e-01f,-4.20006365e-02f,+1.65746957e-01f,
+8.20011199e-02f,-9.71871093e-02f,-8.22327882e-02f,-1.26322418e-01f,+1.34043127e-01f,
-9.47836637e-02f,+2.46749520e-02f,-1.33954048e-01f,-1.03637181e-01f,+1.80615336e-02f,
+6.50767684e-02f,-1.69392332e-01f,-1.41889498e-01f,+1.04291588e-01f,+1.44556761e-01f,
+9.33368504e-02f,+1.09978944e-01f,+5.07539660e-02f,-7.29091689e-02f,+1.19579196e-01f,
-3.34504396e-02f,+1.36772931e-01f,+5.45004457e-02f,+1.91666007e-01f,-1.28462002e-01f,
-1.55400187e-01f,-1.28289372e-01f,+1.02754146e-01f,-1.22792929e-01f,-1.06777541e-01f,
-1.23797581e-01f,-5.40200919e-02f,-1.45043984e-01f,+9.06478763e-02f,+6.53494596e-02f,
+1.61394984e-01f,+1.09933704e-01f,-1.39207914e-01f,+1.73600823e-01f,+8.83060396e-02f,
-7.02397823e-02f,+6.68362677e-02f,-1.21559694e-01f,-1.27398401e-01f,-1.85361877e-01f,
+9.76195931e-03f,-1.92180336e-01f,-3.49848866e-02f,+1.56501055e-01f,-4.68420684e-02f,
-3.09357345e-02f,-9.97148901e-02f,-1.75954223e-01f,-6.58500344e-02f,+1.61097795e-01f,
-8.30318481e-02f,+9.46200788e-02f,-6.93513453e-03f,+9.68776345e-02f,+1.17987096e-01f,
-1.44666865e-01f,-1.35079622e-02f,+7.51802921e-02f,-1.63965970e-01f,-4.13610041e-02f,
+1.85980409e-01f,+9.27398205e-02f,+9.15652514e-03f,+1.47404760e-01f,-6.92264065e-02f,
-3.64313424e-02f,+1.83980525e-01f,+1.81820571e-01f,+1.33289248e-02f,+1.91189319e-01f,
+4.83846366e-02f,-6.83585107e-02f,+3.98668647e-02f,+3.64847630e-02f,+5.77878952e-02f,
+3.96453887e-02f,-1.74251497e-01f,-8.67281333e-02f,-8.02052096e-02f,+6.06355071e-02f,
-5.50156832e-03f,+1.30098522e-01f,-1.18600503e-01f,-2.21571922e-02f,-3.60733867e-02f,
+9.16099250e-02f,+1.60506397e-01f,+1.64460540e-02f,+4.88948971e-02f,-1.29970998e-01f,
-8.38494152e-02f,-4.83733714e-02f,+1.86977357e-01f,-1.62740320e-01f,-3.82210314e-03f,
-2.70020813e-02f,-2.86777318e-03f,+5.65601587e-02f,-1.58359751e-01f,+2.80561745e-02f,
+1.45610243e-01f,-1.49055928e-01f,-1.26405895e-01f,-1.13879390e-01f,+3.01137269e-02f,
+6.10961020e-02f,+1.10207111e-01f,-1.08375564e-01f,+8.61641765e-02f,+1.90129906e-01f,
+6.03418052e-02f,+1.26207232e-01f,+1.74351275e-01f,+4.11594212e-02f,-1.01464026e-01f,
+1.17677331e-01f,-5.55026382e-02f,-4.91570085e-02f,+3.88237983e-02f,+1.04797065e-01f,
+1.08122975e-01f,+6.66831434e-03f,+1.38468504e-01f,-7.79141784e-02f,+1.23907506e-01f,
-4.87854779e-02f,-1.45604253e-01f,-4.29736525e-02f,+7.72598088e-02f,-1.73748896e-01f,
-1.30917937e-01f,-7.28980452e-02f,+5.17910719e-02f,+1.67515129e-01f,-6.02449030e-02f,
-1.50330767e-01f,-5.77027649e-02f,-8.41379762e-02f,+1.23038381e-01f,-1.93576410e-01f,
+5.31117469e-02f,+1.81824028e-01f,+4.41668630e-02f,+1.82510734e-01f,+6.57821596e-02f,
+1.89986736e-01f,-2.97696888e-03f,-1.68482929e-01f,+7.89904892e-02f,+1.02060914e-01f,
+3.42209190e-02f,-1.51058346e-01f,+3.89520973e-02f,+4.99263257e-02f,-4.38834280e-02f,
-6.98689967e-02f,+1.37612432e-01f,-1.26339585e-01f,+2.30713040e-02f,+6.25203848e-02f,
-1.12858906e-01f,-1.89959392e-01f,+1.03441328e-01f,-1.64633587e-01f,+2.80209482e-02f,
-1.22477502e-01f,-1.44996986e-01f,+7.56604970e-02f,+1.62363857e-01f,+5.56395799e-02f,
+1.43473893e-01f,+1.29946172e-01f,-8.41452703e-02f,+8.39158893e-03f,-1.70623764e-01f,
+9.43352282e-02f,-7.04341084e-02f,-2.70779431e-02f,+1.88696980e-01f,+1.21237636e-02f,
+1.30091459e-01f,-4.00992334e-02f,+1.53000474e-01f,+1.39304250e-02f,+1.63273960e-02f,
+6.08239770e-02f,+1.80311114e-01f,-1.13063112e-01f,-8.93245712e-02f,-8.93138126e-02f,
+8.80038738e-03f,-1.64587691e-01f,+1.58245295e-01f,+1.70734853e-01f,+4.08468992e-02f,
-1.06683865e-01f,+1.27684623e-02f,+6.96052313e-02f,-3.68455201e-02f,+6.19406104e-02f,
+1.66100085e-01f,-1.85665712e-01f,+9.61102843e-02f,-1.03602789e-01f,+2.08363235e-02f,
+1.81020975e-01f,-1.42330080e-02f,-1.91857889e-01f,+5.80425560e-03f,-1.47646099e-01f,
+4.83135879e-02f,-5.00794798e-02f,-1.28411904e-01f,+1.40634567e-01f,-1.05863340e-01f,
+5.47969490e-02f,+3.86280417e-02f,+9.13941562e-02f,-1.00472584e-01f,+1.57950640e-01f,
-1.53486818e-01f,-1.90750882e-01f,+1.59313112e-01f,+9.49108899e-02f,+1.52734637e-01f,
-1.20006092e-01f,-1.28790677e-01f,+7.58748353e-02f,-9.68378857e-02f,-7.44817033e-02f,
+5.58827072e-02f,-8.35983902e-02f,-5.03536314e-02f,-9.83955488e-02f,+9.80647802e-02f,
-1.18125424e-01f,-9.16429311e-02f,-6.26967847e-02f,+1.72820836e-01f,+8.16223025e-03f,
+3.61447185e-02f,-2.61083245e-04f,+3.96539271e-02f,-3.85191292e-02f,+8.76425803e-02f,
-9.05232728e-02f,-9.75105166e-03f,-6.14767075e-02f,+1.54805094e-01f,-2.52936780e-02f,
-5.31367362e-02f,+1.53011829e-01f,+5.36412299e-02f,+1.89798921e-02f,-9.11370516e-02f,
+1.84411258e-01f,+1.70331419e-01f,+1.00031763e-01f,-8.98553357e-02f,+1.55512542e-02f,
+3.00023258e-02f,-6.08410537e-02f,-8.85112509e-02f,-3.27332467e-02f,-1.04493305e-01f,
-6.12385720e-02f,-6.11035228e-02f,+1.33501053e-01f,+1.36496276e-01f,+1.56058431e-01f,
-9.94835868e-02f,+3.59369069e-02f,+1.76154464e-01f,-1.82584956e-01f,-8.64685699e-02f,
-1.72941983e-01f,-1.56872854e-01f,+4.02580202e-03f,+1.78591579e-01f,-1.28797650e-01f,
-2.50562131e-02f,+1.18719518e-01f,-1.09415904e-01f,-4.98779118e-03f,-3.63093615e-02f,
-1.70638353e-01f,-1.51619583e-01f,-1.16506159e-01f,-3.66766751e-03f,+9.04807448e-02f,
+8.23176503e-02f,-1.46634296e-01f,-9.62415561e-02f,-6.13956302e-02f,-2.74534374e-02f,
+1.32479757e-01f,-1.56526208e-01f,+1.29690200e-01f,-1.44715399e-01f,-1.01309866e-02f,
+4.23958451e-02f,-1.77844688e-01f,-6.76741898e-02f,-7.60380924e-03f,-5.56863993e-02f,
+8.70030820e-02f,-9.50945914e-03f,-3.56838107e-04f,-1.72630250e-01f,+1.70418650e-01f,
-9.53553617e-03f,+1.69327617e-01f,+6.79988563e-02f,+1.30003929e-01f,-8.66205618e-02f,
+9.86148715e-02f,+1.93329632e-01f,+1.62652642e-01f,+1.17672831e-02f,-4.84983474e-02f,
-1.33732721e-01f,-4.08344418e-02f,+7.60943294e-02f,+8.05440545e-02f,+6.62446916e-02f,
-1.36442363e-01f,+1.87351406e-01f,-1.93857700e-02f,-1.04000442e-01f,+8.33838880e-02f,
+5.32672554e-02f,+1.64253891e-01f,-5.73522002e-02f,+4.96182442e-02f,-1.42404884e-01f,
-1.84084922e-02f,+1.75472945e-01f,+3.64531577e-03f,+1.44416183e-01f,-3.58009785e-02f,
+3.95700783e-02f,+1.02217048e-02f,+4.07782048e-02f,-1.43704832e-01f,-1.33554637e-01f,
-1.78371802e-01f,+1.32671505e-01f,-2.89745629e-03f,+6.66869581e-02f,-1.66511819e-01f,
+1.86719596e-01f,+1.52028799e-01f,+1.61775380e-01f,-6.94841146e-05f,-3.30160409e-02f,
+4.20189649e-02f,-1.62882984e-01f,-1.60426795e-01f,-8.82785544e-02f,+2.89034396e-02f,
+1.31846219e-01f,-1.19914815e-01f,-1.07292891e-01f,-1.79196894e-01f,+1.82780266e-01f,
+4.00357544e-02f,+7.31940866e-02f,+1.15676820e-01f,-1.03136793e-01f,-6.04779273e-02f,
-1.52691469e-01f,-1.45683020e-01f,-4.87823933e-02f,-4.92092669e-02f,-1.33780777e-01f,
+2.06689984e-02f,+1.37914807e-01f,-1.04949139e-01f,-1.46036163e-01f,+1.71147734e-02f,
-1.84557229e-01f,+1.58125997e-01f,-5.40130734e-02f,+4.97865230e-02f,+1.19943708e-01f,
+1.37644112e-01f,+1.20315433e-01f,+1.07634276e-01f,+1.82038218e-01f,-1.24014996e-01f,
+1.60511285e-01f,-1.88647807e-01f,-4.60782796e-02f,-5.66316247e-02f,+6.30130470e-02f,
+1.60588026e-01f,-1.85082972e-01f,+1.08707339e-01f,+1.72462165e-02f,-9.07354653e-02f,
-1.14627928e-02f,+1.06608599e-01f,-2.29012519e-02f,-2.94171274e-02f,-9.92677882e-02f,
-6.66367561e-02f,+6.56688511e-02f,-1.12236537e-01f,+3.01441550e-03f,+1.21315449e-01f,
-3.50387245e-02f,+1.61929935e-01f,+4.19179946e-02f,-8.82163197e-02f,-1.75011635e-01f,
-2.88845599e-03f,-1.00646779e-01f,-1.14453509e-01f,+1.62320584e-01f,-1.03880681e-01f,
+7.12016225e-02f,+7.27004707e-02f,+1.53110772e-02f,+9.15419459e-02f,+6.35967255e-02f,
-1.69524744e-01f,+9.52494740e-02f,+1.14122808e-01f,-1.01716757e-01f,-1.06643789e-01f,
+1.27205640e-01f,+7.63602555e-02f,+9.92847681e-02f,+1.32167757e-01f,+9.19425189e-02f,
-1.79758742e-01f,-1.57681793e-01f,+6.26561046e-02f,-1.46359220e-01f,-4.05430645e-02f,
-4.88019586e-02f,+1.67551279e-01f,+1.83017552e-02f,+1.18967265e-01f,-2.68366039e-02f,
+4.39397544e-02f,-1.53114930e-01f,+5.98733425e-02f,+1.72619224e-01f,+1.12750024e-01f,
-1.57602012e-01f,+1.13119304e-01f,+1.20732844e-01f,-8.55124891e-02f,-1.24492064e-01f,
-1.24508597e-01f,+1.63338304e-01f,+1.62133038e-01f,-1.53842479e-01f,-1.04806423e-01f,
-1.34135783e-03f,+1.69951588e-01f,-1.32622898e-01f,-1.25636011e-01f,-1.49783939e-01f,
-1.54186115e-01f,-1.21103361e-01f,+7.85646737e-02f,-6.07827753e-02f,+1.58077687e-01f,
+8.85859132e-04f,-1.42665654e-01f,-9.59141254e-02f,+1.68927729e-01f,+1.21502042e-01f,
-7.00080618e-02f,+4.63630110e-02f,+2.80001312e-02f,-7.20941350e-02f,+7.62814879e-02f,
+7.79513419e-02f,+1.75581723e-01f,-1.34864330e-01f,-3.56273353e-02f,-1.26691163e-01f,
-1.43173277e-01f,-1.03270873e-01f,+8.41952264e-02f,+2.42939144e-02f,-7.51017034e-03f,
+7.10413456e-02f,-1.71459988e-01f,-1.55980721e-01f,-8.04402083e-02f,+1.35224998e-01f,
+1.33362055e-01f,+1.51689529e-01f,+1.57853961e-01f,+1.22868568e-01f,-1.56924054e-01f,
+8.64734054e-02f,-1.47438988e-01f,+1.95559859e-03f,+9.55182612e-02f,+1.50689006e-01f,
+8.42285156e-03f,+1.32821381e-01f,-9.21742469e-02f,-1.32130265e-01f,+4.78724837e-02f,
-1.82485580e-02f,-1.53208464e-01f,-1.13007873e-02f,+1.62380278e-01f,-4.52668518e-02f,
-1.70350820e-01f,-2.90517509e-03f,-2.35098153e-02f,+1.24209315e-01f,+1.05222613e-01f,
+1.00889504e-01f,-3.13293785e-02f,+5.05254716e-02f,+9.84234512e-02f,+1.49003148e-01f,
+1.49565458e-01f,+1.86570883e-01f,-1.70529157e-01f,+5.79600632e-02f,-8.52419436e-03f,
-4.00946587e-02f,-1.02831803e-01f,+1.11249745e-01f,+9.80011225e-02f,+1.20614767e-02f,
-1.50955021e-02f,+1.23912543e-01f,+1.68757588e-01f,+1.66847467e-01f,+1.89586520e-01f,
-7.34166652e-02f,-8.97489190e-02f,+1.77395463e-01f,-6.13271147e-02f,-5.25344461e-02f,
+6.48175478e-02f,-1.44833863e-01f,-6.95032850e-02f,+1.85126513e-01f,-1.35644272e-01f,
+2.12260336e-02f,-1.77905679e-01f,-4.36492562e-02f,-3.60019654e-02f,+3.98495495e-02f,
-1.79910809e-02f,-1.68536529e-01f,-9.70266759e-03f,+7.03088939e-03f,+7.70218670e-02f,
-4.16629016e-02f,+1.17704362e-01f,-1.72807038e-01f,+1.65878385e-02f,+8.03043246e-02f,
-1.49695128e-02f,-7.88356811e-02f,+1.45286500e-01f,+1.35529786e-02f,+5.20404428e-02f,
+9.15663242e-02f,+5.05263507e-02f,-1.46941409e-01f,-7.85137415e-02f,-1.78905934e-01f,
-1.67987391e-01f,+1.33566290e-01f,-1.68124616e-01f,+2.86289155e-02f,-5.49777448e-02f,
+1.65368795e-01f,+6.73189163e-02f,+3.53667587e-02f,+1.46490604e-01f,-6.18209094e-02f,
-7.40877837e-02f,-1.44264281e-01f,-1.46296427e-01f,+5.42819500e-03f,-7.15644807e-02f,
+9.03832912e-02f,-1.03493184e-02f,-4.67700362e-02f,-7.20562786e-02f,-1.92994252e-01f,
-1.21589661e-01f,+7.92833865e-02f,+6.49435222e-02f,+1.54180050e-01f,-9.95239839e-02f,
+6.01054728e-02f,-1.92470595e-01f,+4.48422134e-03f,-3.17546874e-02f,+1.16768867e-01f,
+1.45977497e-01f,+3.88494134e-03f,-1.07188776e-01f,+7.80979693e-02f,-5.47691435e-02f,
+1.80533797e-01f,+7.68799484e-02f,+1.07517123e-01f,-2.93291658e-02f,-1.82084993e-01f,
+6.80682361e-02f,-1.48002118e-01f,+5.09423316e-02f,+1.64853185e-01f,+2.04412937e-02f,
-1.57794774e-01f,-4.90563065e-02f,+5.91813326e-02f,+5.95403016e-02f,+2.69025564e-03f,
-9.74528491e-03f,+2.00951099e-02f,-9.23818275e-02f,+3.81227583e-02f,-4.27712500e-02f,
+4.01842296e-02f,-1.58814788e-01f,+2.14457661e-02f,+1.18759334e-01f,+1.22176975e-01f,
+6.81711733e-03f,-6.02851659e-02f,+1.88036531e-01f,+1.11211449e-01f,+5.45725524e-02f,
+5.32149374e-02f,-1.57650262e-01f,+1.59050435e-01f,-1.70902401e-01f,-1.77935407e-01f,
-1.02509215e-01f,+2.09876150e-02f,+6.72464669e-02f,+7.78501928e-02f,+1.23329937e-01f,
-1.38726920e-01f,+1.31382495e-01f,-7.23731443e-02f,+1.84985131e-01f,-1.17823102e-01f,
+1.22323394e-01f,-5.84849268e-02f,-1.47925243e-01f,-6.56144768e-02f,-1.51581958e-01f,
-1.64105833e-01f,-1.71852380e-01f,-7.20556825e-02f,+1.45474523e-01f,+1.05885237e-01f,
+8.42611492e-02f,-8.52531567e-02f,-1.27704218e-01f,-4.31318879e-02f,-5.32322973e-02f,
+3.77926528e-02f,-1.08626723e-01f,+9.30999517e-02f,+6.34797215e-02f,+7.25632608e-02f,
-4.03978080e-02f,-5.86358011e-02f,+5.01172394e-02f,-3.15037072e-02f,+8.40251446e-02f,
-6.12722635e-02f,+4.71612364e-02f,+1.58734322e-01f,-9.64455307e-02f,-8.00622627e-02f,
-4.67095077e-02f,+2.78302729e-02f,-8.71989280e-02f,-1.26173615e-01f,+1.36931807e-01f,
-1.46841452e-01f,-1.69766396e-02f,+3.38972807e-02f,-7.71816522e-02f,-1.28741235e-01f,
-1.84231371e-01f,-4.96117771e-02f,-1.06656671e-01f,-1.86082676e-01f,+1.64156288e-01f,
-1.88602507e-03f,-1.48137569e-01f,-1.29503667e-01f,-1.52580842e-01f,+1.61771119e-01f,
-1.25112772e-01f,-1.46026373e-01f,+1.91224962e-01f,-1.62314534e-01f,-1.06215566e-01f,
+1.69484496e-01f,-1.84483826e-03f,-1.52003169e-02f,-1.23238191e-01f,+1.75870210e-01f,
+6.25274777e-02f,+7.70096779e-02f,+2.89141983e-02f,+1.80909753e-01f,+1.93635076e-01f,
+6.24670386e-02f,+1.88865513e-01f,+5.28977811e-03f,+1.44369632e-01f,+1.71200097e-01f,
-3.83825153e-02f,+1.16412938e-01f,+2.49131024e-03f,+5.70374131e-02f,-1.65874854e-01f,
+1.39145225e-01f,+8.43727887e-02f,+1.07056409e-01f,+1.53334707e-01f,-1.66491181e-01f,
+1.77190095e-01f,-1.39879644e-01f,+1.14836454e-01f,+5.44560254e-02f,-5.63225299e-02f,
-5.53404093e-02f,+1.19871348e-02f,-1.66902781e-01f,+8.17930698e-03f,-3.75640690e-02f,
+7.61007369e-02f,-7.77499080e-02f,+4.58908379e-02f,-5.33404797e-02f,-1.50464565e-01f,
-1.30035087e-01f,+1.46397173e-01f,+1.63353443e-01f,-3.01902294e-02f,+1.64804846e-01f,
-2.53864676e-02f,+9.69532728e-02f,+1.06045514e-01f,+1.64917171e-01f,-1.02205232e-01f,
+1.56453073e-01f,-1.49106950e-01f,-5.49450517e-02f,+3.28546762e-03f,-1.33039892e-01f,
+5.25351465e-02f,+7.86069930e-02f,-1.05934069e-01f,+1.63538665e-01f,-5.10916114e-02f,
-1.59768566e-01f,+7.39733875e-02f,-1.22306995e-01f,+1.36697918e-01f,+1.29866809e-01f,
+1.85123831e-01f,-1.18008703e-01f,-1.36675984e-01f,+4.62675095e-03f,+6.28602505e-03f,
+5.81175387e-02f,-7.23164901e-02f,-8.27328041e-02f,-1.18833758e-01f,+1.51670277e-02f,
+1.44919515e-01f,-9.87429768e-02f,-1.35778636e-02f,-1.66345000e-01f,+1.37044400e-01f,
+1.15706474e-02f,+1.13169521e-01f,-2.10742801e-02f,-7.54845515e-02f,-1.44642308e-01f,
+5.93914092e-02f,-1.37929812e-01f,+5.83438873e-02f,-1.06844857e-01f,-1.86419487e-01f,
+1.68754578e-01f,-4.51609343e-02f,-4.95492667e-02f,+2.28065699e-02f,-4.16295677e-02f,
+7.82708526e-02f,-7.67154321e-02f,-1.39856786e-02f,+1.37036622e-01f,+7.36859143e-02f,
-1.33081451e-01f,+1.49230778e-01f,+1.50632441e-01f,-1.11813210e-01f,+3.12479287e-02f,
-4.94730920e-02f,-1.51080608e-01f,+5.58504462e-03f,+1.37282550e-01f,+5.65574467e-02f,
+1.67674422e-02f,+1.18056685e-01f,+4.61523384e-02f,-8.00058916e-02f,-1.57267377e-01f,
+4.52362001e-02f,-1.76097259e-01f,-8.48217458e-02f,-3.57819647e-02f,-1.86412141e-01f,
+1.20387554e-01f,-6.18530810e-02f,-7.37767890e-02f,-1.68600082e-02f,-9.72665697e-02f,
-2.70138681e-03f,-1.62065640e-01f,-1.56288907e-01f,+1.36706769e-01f,-6.08814955e-02f,
+4.49563116e-02f,+1.89162791e-01f,-1.05034411e-02f,+4.31846082e-02f,-5.05046099e-02f,
-3.94814312e-02f,-6.15827590e-02f,+1.20507628e-02f,+1.49210274e-01f,+3.12671810e-02f,
-1.33360952e-01f,-1.75107807e-01f,+4.14279401e-02f,-1.46262586e-01f,-2.86874175e-02f,
+4.34797704e-02f,+1.52156115e-01f,+8.18124712e-02f,-9.20873135e-02f,-1.38872221e-01f,
-7.53869489e-02f,-6.89903870e-02f,+3.85532379e-02f,-1.79830849e-01f,-1.53331563e-01f,
+1.33130401e-01f,-4.85206991e-02f,-4.62442636e-02f,-1.82409793e-01f,-4.07613516e-02f,
-4.60731983e-02f,+1.68352962e-01f,-9.60729495e-02f,-4.32377011e-02f,+1.59868985e-01f,
-1.14485137e-01f,+3.49012762e-02f,+4.28066552e-02f,+9.10307467e-03f,+6.57213628e-02f,
+1.33219033e-01f,+1.77791268e-01f,+1.40876710e-01f,+1.72336161e-01f,-1.62423179e-01f,
+1.63866490e-01f,-3.13929915e-02f,-6.53709471e-03f,+1.46185249e-01f,-7.59035870e-02f,
-2.62463838e-02f,-5.21127433e-02f,-3.22595090e-02f,+8.88274312e-02f,+1.87548041e-01f,
-1.74911618e-01f,-2.44581848e-02f,-5.71022332e-02f,-7.78704584e-02f,-1.34881139e-01f,
+5.32726496e-02f,+4.99771237e-02f,+1.89561367e-01f,+2.45940685e-03f,-1.90350309e-01f,
-9.06460360e-02f,-5.85839599e-02f,-3.32119763e-02f,-1.62293166e-01f,+4.61378396e-02f,
-9.43935737e-02f,-1.71350837e-01f,-6.85837716e-02f,-3.46253663e-02f,-8.34777951e-02f,
+8.11546743e-02f,-1.68424934e-01f,-8.76773372e-02f,-1.48761883e-01f,+1.06432557e-01f,
-1.85198665e-01f,-7.63515756e-02f,+4.03858721e-03f,-8.22703242e-02f,-1.24848485e-02f,
-1.74470663e-01f,+7.15130866e-02f,+5.94680607e-02f,-3.00568938e-02f,+1.55906796e-01f,
+7.67283142e-02f,-5.55956364e-02f,-2.52280682e-02f,+1.63099885e-01f,+1.05401278e-01f,
-7.06703588e-02f,-8.48613158e-02f,+6.47770464e-02f,+3.54978889e-02f,+5.05252928e-02f,
+1.20403975e-01f,-1.62276179e-01f,-9.41454098e-02f,-4.31391746e-02f,+1.86175793e-01f,
+8.23338628e-02f,+1.87937111e-01f,+1.28917605e-01f,+9.30304527e-02f,+1.81096256e-01f,
-1.37688115e-01f,-6.96299747e-02f,+1.88485444e-01f,-1.06036797e-01f,-1.09595828e-01f,
+8.64972174e-03f,+1.18628860e-01f,-2.22181380e-02f,+1.53252482e-01f,-1.29967928e-04f,
+6.08551800e-02f,+7.48158991e-03f,+1.05979562e-01f,+8.14639032e-03f,-1.56688094e-01f,
-7.79986233e-02f,+1.24785006e-01f,-5.26826531e-02f,+1.90861076e-01f,+5.41842729e-02f,
+1.12785399e-01f,-1.65470183e-01f,+5.75177073e-02f,-6.34091347e-02f,-1.81109801e-01f,
+1.77320927e-01f,-6.00698590e-03f,-1.53049231e-01f,+3.73265594e-02f,-9.16429758e-02f,
+1.63434654e-01f,-1.62245512e-01f,-4.91636992e-03f,-9.59110782e-02f,+7.36604035e-02f,
-1.25650972e-01f,-8.40025172e-02f,+1.17021799e-02f,+3.96993160e-02f,-5.17044067e-02f,
-1.42677277e-01f,-1.29561946e-01f,+2.71836221e-02f,-1.46589652e-01f,+6.01001978e-02f,
-8.13970715e-02f,-5.11337072e-02f,-4.56450731e-02f,-1.01224035e-01f,+2.38935798e-02f,
+3.31575871e-02f,-8.58225152e-02f,-7.10369051e-02f,+1.10316545e-01f,-3.52049768e-02f,
+1.52729303e-02f,-1.76508769e-01f,-1.64948374e-01f,-1.19920306e-01f,-6.09673262e-02f,
+4.42806780e-02f,+1.99487656e-02f,-4.65844423e-02f,-4.63858247e-02f,-1.86479226e-01f,
+1.12369180e-01f,+1.76708400e-02f,-9.58868861e-02f,-2.96771526e-02f,+1.58037752e-01f,
+1.63784534e-01f,-1.30914479e-01f,-1.04902185e-01f,+8.01449418e-02f,+1.13472223e-01f,
+1.27621353e-01f,+1.38257056e-01f,+4.76055294e-02f,-1.67224526e-01f,-1.72898442e-01f,
-7.62657002e-02f,+1.51803106e-01f,-1.45320594e-01f,-7.25983083e-02f,+1.30422741e-01f,
-1.33237541e-02f,+1.66393310e-01f,-6.36340678e-02f,-1.63569421e-01f,+1.15061015e-01f,
-4.39986289e-02f,-9.62042958e-02f,-1.48901910e-01f,+1.15570247e-01f,+1.46465212e-01f,
-7.75057077e-03f,-4.02134508e-02f,-8.88421461e-02f,-1.23970993e-01f,+7.65442252e-02f,
+1.38014168e-01f,-1.32963806e-01f,-1.82972506e-01f,-5.55369258e-03f,-3.62561643e-02f,
-1.51309371e-01f,+7.23250210e-03f,-1.52835250e-03f,-2.86725909e-02f,+1.29992157e-01f,
+1.44223183e-01f,+4.76830900e-02f,+1.10657543e-01f,+1.87351555e-01f,+9.27208364e-02f,
-6.49324059e-03f,-6.81585521e-02f,-7.67249912e-02f,-1.02815032e-03f,+3.47461998e-02f,
-1.82548389e-01f,+7.89398253e-02f,+4.81365621e-02f,+8.17023516e-02f,-2.95080692e-02f,
+1.94591284e-02f,+1.44366294e-01f,+4.28112745e-02f,-2.97737867e-02f,-3.04095298e-02f,
-2.06359923e-02f,-1.87297165e-01f,+1.46360785e-01f,-9.04265940e-02f,-5.05301803e-02f,
+1.26150191e-01f,+1.15356177e-01f,+1.51048392e-01f,+1.18416935e-01f,+5.18453270e-02f,
-2.26296932e-02f,+1.54045999e-01f,+9.52751040e-02f,-4.27414775e-02f,+1.49500281e-01f,
+9.56320167e-02f,-1.76044032e-01f,-8.10728222e-02f,-1.82764232e-01f,-1.30384177e-01f,
-1.11394271e-01f,-6.93933666e-03f,+6.41705096e-02f,+1.41918808e-01f,-6.84242100e-02f,
-1.00919090e-01f,-6.12576306e-02f,+1.94158256e-02f,+4.17723656e-02f,+7.75579810e-02f,
-1.73323154e-01f,+1.01317793e-01f,+1.37918085e-01f,+1.86627507e-01f,+5.44564426e-02f,
-1.66525692e-02f,-1.39238954e-01f,+1.16187006e-01f,-1.79118231e-01f,-1.86419383e-01f,
-1.41934648e-01f,+8.95583630e-02f,+9.47302282e-02f,+3.10643017e-03f,-9.71837863e-02f,
-1.75920933e-01f,+4.34800386e-02f,-1.06082000e-01f,+1.88819975e-01f,-1.92676425e-01f,
-8.13450888e-02f,-1.12067163e-03f,+1.49772078e-01f,+3.63990217e-02f,-6.06374890e-02f,
-1.17953025e-01f,+9.02229249e-02f,-7.31115341e-02f,+8.34141374e-02f,+7.38338530e-02f,
-2.08311528e-02f,-1.22213647e-01f,-1.73211992e-01f,+1.61216855e-01f,+2.04804540e-02f,
-1.72512740e-01f,-8.94652978e-02f,-1.68031529e-01f,+1.06752753e-01f,+1.23836607e-01f,
-1.16298951e-01f,+2.18641013e-02f,+1.61105722e-01f,-1.74334601e-01f,+1.08980417e-01f,
-1.49660245e-01f,+1.04843676e-02f,+1.60026133e-01f,-1.65752918e-01f,-2.49147564e-02f,
+1.41281635e-02f,+1.78595304e-01f,+9.25498307e-02f,-1.87623501e-03f,-9.55807790e-02f,
-1.84452698e-01f,-2.17020959e-02f,-7.37278014e-02f,-7.71877021e-02f,-6.86037540e-03f,
-1.60332471e-01f,+1.21435553e-01f,-8.80648345e-02f,+1.19107276e-01f,+1.51313215e-01f,
-1.40445083e-02f,+4.20712680e-02f,+9.08053815e-02f,-3.68714333e-02f,+1.19282693e-01f,
+1.83517158e-01f,-6.73359483e-02f,+1.22945011e-03f,+6.37933016e-02f,+1.53377503e-01f,
-7.77564198e-02f,-1.23502977e-01f,-8.44058543e-02f,-1.75765768e-01f,+4.26219851e-02f,
-2.72432268e-02f,+9.04968679e-02f,+1.26300395e-01f,+9.56347585e-03f,-1.17010936e-01f,
+8.67425501e-02f,-1.58940375e-01f,+3.39618623e-02f,-1.54501170e-01f,+1.53897703e-01f,
+1.48535460e-01f,+7.13425577e-02f,-7.81946629e-02f,-1.55718625e-01f,-1.47310495e-01f,
-1.45883620e-01f,-1.90646350e-01f,-1.63891092e-01f,-1.37333527e-01f,+1.39416099e-01f,
-6.03965223e-02f,-1.52247995e-01f,+1.39155477e-01f,+1.40095532e-01f,-1.79522902e-01f,
+6.20216131e-02f,+1.81452185e-01f,+1.68640822e-01f,+1.07507020e-01f,+1.83891058e-01f,
-1.76145509e-01f,+5.46781421e-02f,-1.73002094e-01f,+1.51531637e-01f,-1.45728737e-02f,
+1.28505230e-01f,-1.71036571e-01f,+1.74995929e-01f,+1.02135062e-01f,+5.44226915e-02f,
-2.57380456e-02f,+1.44088715e-02f,-1.91358924e-02f,-9.42855850e-02f,-1.35695040e-02f,
-1.87082618e-01f,-1.80762559e-02f,+5.69404662e-02f,-5.16745001e-02f,-1.08182065e-01f,
-1.35817736e-01f,+1.79567188e-01f,-1.23921335e-02f,+6.67589307e-02f,+8.69229734e-02f,
+1.58003777e-01f,+1.36372745e-01f,-1.07971624e-01f,+1.30679578e-01f,-7.22551346e-02f,
+1.04187846e-01f,-3.82982045e-02f,+7.98991323e-03f,+1.71116114e-01f,-1.64784983e-01f,
-1.52135953e-01f,+1.80558175e-01f,-1.24921903e-01f,+3.90536785e-02f,+1.00469410e-01f,
+1.76628917e-01f,-9.22682062e-02f,-1.15499109e-01f,-5.15614748e-02f,+7.54403174e-02f,
+6.01001084e-02f,+6.12591505e-02f,-7.24784508e-02f,+7.26027489e-02f,-7.90667534e-03f,
+1.51924670e-01f,+7.08231330e-02f,+1.09494895e-01f,-9.33387876e-02f,-4.98463660e-02f,
-8.21295530e-02f,-1.46224439e-01f,-1.69589341e-01f,-1.43731013e-01f,+1.38828605e-02f,
-4.74967957e-02f,+1.14234477e-01f,+1.60140038e-01f,+1.05305314e-02f,+1.50741726e-01f,
+1.34723186e-01f,+1.70597583e-01f,+1.01671785e-01f,+1.44256413e-01f,-1.79182544e-01f,
-7.89446831e-02f,+7.88535476e-02f,-8.43271762e-02f,-6.14298433e-02f,-1.39726043e-01f,
+1.23193026e-01f,+2.49849409e-02f,-1.55724615e-01f,+1.40329272e-01f,-1.18819810e-01f,
+1.45453542e-01f,+1.39883280e-01f,+1.88560307e-01f,-4.56997901e-02f,+1.56149566e-02f,
+3.64355445e-02f,+1.58680230e-02f,+7.49516785e-02f,+2.73130387e-02f,+5.04665673e-02f,
+1.76954448e-01f,-1.22009158e-01f,-1.69831768e-01f,-1.14305995e-01f,+1.91978216e-01f,
-9.85319838e-02f,-1.69308811e-01f,+7.68236518e-02f,+3.44218016e-02f,-6.06026202e-02f,
-1.30281597e-01f,+3.00871730e-02f,+1.42825395e-01f,+1.12883836e-01f,-4.33760285e-02f,
+1.39021873e-03f,-1.41251802e-01f,+1.15877002e-01f,+1.02907300e-01f,+8.59084427e-02f,
+1.40290409e-01f,-7.03145787e-02f,-1.42504573e-01f,+6.26537502e-02f,+4.00633663e-02f,
+1.76911652e-02f,+7.13414252e-02f,+6.02890849e-02f,+1.43999338e-01f,-6.19369745e-03f,
+1.47122085e-01f,-1.21884316e-01f,-1.14544831e-01f,-1.12599619e-01f,+1.71676487e-01f,
+1.19875520e-02f,+1.64609909e-01f,-2.80828178e-02f,+9.75133777e-02f,+2.33394504e-02f,
+1.74892187e-01f,-6.00190014e-02f,+1.77719384e-01f,+3.20351124e-02f,+4.14210260e-02f,
-1.53768271e-01f,+2.43681073e-02f,+2.76202410e-02f,+8.95369053e-02f,-7.82389343e-02f,
+1.03652358e-01f,-1.51917800e-01f,+1.63551986e-01f,-6.32611662e-02f,-1.62804216e-01f,
+1.33681744e-01f,+5.24550825e-02f,-1.32204682e-01f,-5.57854772e-02f,+8.08089674e-02f,
-2.22856253e-02f,-1.57119170e-01f,-1.57379746e-01f,-6.94084987e-02f,-1.14890456e-01f,
+1.26941323e-01f,+1.32358015e-01f,-1.27403200e-01f,-3.78758013e-02f,+5.51453829e-02f,
-1.81154251e-01f,-1.61770523e-01f,+1.85437202e-02f,+8.81556869e-02f,-5.42690903e-02f,
-1.93567261e-01f,+1.39934421e-02f,-1.37710571e-03f,+1.39418125e-01f,-7.02114403e-03f,
-4.60026115e-02f,-2.81822681e-02f,+1.42273992e-01f,-4.75070924e-02f,+1.54046714e-01f,
-8.09314847e-03f,-7.59934783e-02f,-3.05182636e-02f,+1.34216398e-01f,-1.91142485e-01f,
+1.56570524e-01f,+1.09853446e-01f,-1.62486613e-01f,+1.55195713e-01f,-8.73330235e-03f,
+2.56518126e-02f,-9.08390284e-02f,-1.46560460e-01f,+1.84927613e-01f,-5.82529157e-02f,
-5.60713112e-02f,-1.56509042e-01f,-5.97701967e-02f,-9.75270569e-02f,+8.61330032e-02f,
+3.61355692e-02f,+1.66535676e-01f,-7.43503049e-02f,-9.73038748e-02f,+1.05911404e-01f,
+1.81395084e-01f,+2.44652927e-02f,+7.04140663e-02f,+1.62386894e-03f,-1.15329899e-01f,
+9.69264507e-02f,-1.36855245e-03f,-1.59827560e-01f,-1.56132519e-01f,+1.17497236e-01f,
-1.78323656e-01f,+9.80826020e-02f,+5.43176532e-02f,-6.26773536e-02f,-8.22394341e-02f,
+9.69102383e-02f,+5.22121787e-03f,+1.24126405e-01f,+1.76842451e-01f,+1.71938986e-01f,
+1.14622116e-01f,-2.64853984e-02f,-4.15656269e-02f,+5.90521097e-02f,+1.32197261e-01f,
+6.09460771e-02f,+6.17578626e-03f,+3.32749039e-02f,-1.91005275e-01f,+2.98146456e-02f,
+7.99344182e-02f,+1.57801241e-01f,-1.75916508e-01f,+1.62852108e-02f,+8.22304785e-02f,
-1.89561874e-01f,-8.10416117e-02f,-1.33770108e-01f,+1.23478830e-01f,-1.86161444e-01f,
+1.90119147e-01f,+8.97624791e-02f,+1.44154608e-01f,-1.88596189e-01f,+1.18371874e-01f,
-7.89342076e-02f,-1.01095043e-01f,+1.70267016e-01f,+7.75087178e-02f,+1.53328061e-01f,
+8.69344175e-02f,+5.16885370e-02f,-7.51045346e-02f,-2.05592662e-02f,+1.20405853e-03f,
-6.78066462e-02f,-1.75571665e-01f,-4.44425493e-02f,-1.16069630e-01f,+3.44170630e-03f,
+6.88584745e-02f,-1.56182855e-01f,-1.72895908e-01f,+7.88809359e-02f,-4.09857780e-02f,
+1.16030931e-01f,+1.78383768e-01f,+1.63758129e-01f,+5.05346209e-02f,-6.61136508e-02f,
+8.24545920e-02f,-1.56271905e-01f,-1.58203870e-01f,-1.25964314e-01f,-1.12531655e-01f,
-5.63314557e-03f,-1.10699140e-01f,+3.52324545e-02f,+1.86636120e-01f,+8.42260718e-02f,
+2.64317095e-02f,-2.19907910e-02f,-1.05797499e-02f,-8.92107189e-03f,-4.97170389e-02f,
+1.56981826e-01f,+1.10092610e-01f,+7.09224343e-02f,-9.23859403e-02f,+1.56751812e-01f,
-7.35356435e-02f,+6.85282648e-02f,-3.86599898e-02f,+2.34726071e-03f,-1.79975510e-01f,
-1.82864666e-02f,-3.50122750e-02f,+5.00352681e-03f,+1.74885899e-01f,-5.15816957e-02f,
-1.90929323e-01f,+1.69455171e-01f,+3.93989384e-02f,-1.60204217e-01f,+3.98016274e-02f,
+1.91978484e-01f,+1.06342196e-01f,+4.70755994e-02f,-1.84768602e-01f,+4.87262458e-02f,
-8.43565464e-02f,-9.80700999e-02f,+9.09723639e-02f,-1.85080707e-01f,-1.39547765e-01f,
-5.21035045e-02f,+1.03612840e-02f,+1.31101429e-01f,-1.51610956e-01f,+3.59183550e-02f,
-8.62753019e-02f,+1.31612480e-01f,+3.29703093e-04f,+1.39523000e-02f,+1.71339661e-01f,
+1.86468571e-01f,+2.17908323e-02f,+2.83316225e-02f,+1.72520220e-01f,+1.35964870e-01f,
+7.35359788e-02f,-1.18978634e-01f,-8.64693522e-02f,+1.44655198e-01f,+5.02536297e-02f,
+9.38674808e-02f,+4.00664061e-02f,+1.35585308e-01f,-8.13645720e-02f,-1.55543998e-01f,
+1.41669780e-01f,-3.11863869e-02f,+1.07830465e-02f,-1.97086781e-02f,-2.48749107e-02f,
-3.22951525e-02f,-1.37714982e-01f,+1.64646238e-01f,+1.43760920e-01f,-1.36068478e-01f,
+9.56262052e-02f,+1.33459568e-01f,-4.85972911e-02f,+7.65151083e-02f,+3.19023877e-02f,
+1.75814837e-01f,+1.41361505e-01f,-6.41162246e-02f,-1.57113075e-01f,-6.94353878e-03f,
+1.82131082e-02f,-4.69749868e-02f,-4.29451764e-02f,-1.89041078e-01f,-1.40717432e-01f,
-1.92752928e-01f,+1.80475533e-01f,-1.15642004e-01f,-1.45578906e-01f,-1.50263503e-01f,
+1.89623266e-01f,+1.38008475e-01f,-5.56557029e-02f,+1.82581961e-01f,+6.55424893e-02f,
+9.96492803e-02f,+2.84308493e-02f,-1.87869534e-01f,-7.10440576e-02f,+1.07309043e-01f,
+1.07655317e-01f,-9.08846855e-02f,-3.85238826e-02f,-2.45895833e-02f,+6.92583919e-02f,
-1.62821248e-01f,-1.88281268e-01f,-1.94864571e-02f,-8.26467425e-02f,-5.49235344e-02f,
-1.75478593e-01f,+1.43493116e-02f,-9.28732082e-02f,+1.06867105e-01f,-8.97527933e-02f,
+1.06744856e-01f,+1.90181881e-01f,+1.22680873e-01f,+1.55126542e-01f,+1.92780674e-01f,
-1.64103612e-01f,+1.89247012e-01f,-8.13611969e-02f,+5.78352809e-03f,+1.42677009e-01f,
-6.86380267e-03f,-1.55017301e-01f,+1.79023445e-02f,+1.27090216e-01f,-1.28144816e-01f,
+1.23390377e-01f,+1.04475111e-01f,+1.53722972e-01f,-1.28461584e-01f,+1.16419882e-01f,
-1.25253677e-01f,+5.93805313e-02f,-3.22673470e-02f,+1.64680004e-01f,+1.90677613e-01f,
+1.80169135e-01f,+7.99234211e-02f,-8.93045366e-02f,+1.66142792e-01f,-3.08658332e-02f,
-3.29187065e-02f,-1.68781132e-02f,-1.61347061e-01f,-1.64831653e-01f,+8.82729590e-02f,
+6.82005286e-02f,-1.70823082e-01f,-9.35471952e-02f,-1.06927752e-02f,+9.44140553e-03f,
+1.88709915e-01f,-7.03241825e-02f,-5.73920906e-02f,-8.43038633e-02f,-1.63772389e-01f,
+1.55223399e-01f,-1.77809834e-01f,-1.01466611e-01f,-1.50832817e-01f,+5.01850247e-02f,
-1.09821320e-01f,-1.91703811e-01f,+1.86042458e-01f,+1.83584332e-01f,+1.48598582e-01f,
-1.16649285e-01f,-1.62130833e-01f,+3.04019600e-02f,+4.95791435e-03f,-1.37778789e-01f,
-1.26087636e-01f,-5.00267893e-02f,+1.05824053e-01f,-1.72777444e-01f,+1.33670956e-01f,
-1.87902749e-02f,+1.05703443e-01f,-8.09851065e-02f,+8.76092911e-02f,+1.08506769e-01f,
+9.17336047e-02f,+7.83100724e-02f,-2.02599019e-02f,+3.23826820e-02f,+1.54812574e-01f,
+1.60165012e-01f,+1.37805879e-01f,+1.23406678e-01f,+1.75765246e-01f,-1.17842168e-01f,
+1.65140986e-01f,-8.25899839e-03f,+1.04053259e-01f,-7.49913678e-02f,-2.65844166e-03f,
+1.03734702e-01f,+4.94690239e-02f,-9.80409980e-03f,+1.07138634e-01f,+1.13717794e-01f,
+1.08091563e-01f,+6.00291193e-02f,-3.62619758e-04f,-1.07821807e-01f,+6.76143169e-02f,
-1.37600601e-02f,+1.04945898e-01f,+1.19019538e-01f,+1.54195607e-01f,+1.27669185e-01f,
+2.54246593e-03f,-1.45985842e-01f,-1.69016242e-01f,+1.29333258e-01f,-8.17345083e-03f,
+3.69251668e-02f,+7.16418624e-02f,-8.82566720e-02f,-8.64466876e-02f,+1.34886265e-01f,
+1.16592258e-01f,-1.91042259e-01f,-7.41643384e-02f,+1.76695168e-01f,-3.78830731e-03f,
+1.73591822e-01f,+5.22009730e-02f,+1.50384873e-01f,-1.52783290e-01f,+9.53271091e-02f,
+1.83358729e-01f,-1.16879813e-01f,-1.05960064e-01f,+2.09002197e-02f,+8.37351978e-02f,
+1.54346734e-01f,-1.88933551e-01f,+1.86004102e-01f,-3.14717144e-02f,+1.42560720e-01f,
-3.33532542e-02f,-1.31644100e-01f,-3.12939286e-04f,+9.67982411e-03f,+1.70273334e-01f,
+5.32104224e-02f,-4.10157442e-02f,-1.58272162e-01f,-2.04475224e-03f,-5.44398725e-02f,
-1.24278761e-01f,+8.33711922e-02f,-6.48200512e-05f,+8.27558041e-02f,-1.01773597e-01f,
+1.73106343e-01f,-4.20731157e-02f,+1.14127964e-01f,+1.21177405e-01f,+6.89540207e-02f,
-1.07204892e-01f,-1.38506293e-04f,-1.69754207e-01f,-1.36426851e-01f,-6.99188113e-02f,
-3.59812826e-02f,+2.54172683e-02f,+1.14866585e-01f,+1.16502434e-01f,+1.52861357e-01f,
+2.70464122e-02f,+1.63271904e-01f,+1.68404132e-01f,-5.11961728e-02f,+9.88866091e-02f,
+9.39238071e-02f,-1.86978310e-01f,+1.35556936e-01f,+1.35622978e-01f,-1.47044927e-01f,
-1.63223013e-01f,-1.35434389e-01f,-1.43397853e-01f,+1.92953408e-01f,+5.17093539e-02f,
+1.74081087e-01f,+6.65438175e-02f,+1.83097661e-01f,-6.52171373e-02f,-1.88018098e-01f,
-1.31478012e-02f,+7.15633631e-02f,+1.61913604e-01f,-1.83280781e-01f,+1.75410450e-01f,
-1.01029575e-01f,-1.55193299e-01f,-1.94751918e-02f,-9.45060402e-02f,-2.04763412e-02f,
-1.30487055e-01f,-1.05524458e-01f,+1.03792399e-02f,+1.43141925e-01f,+9.12358165e-02f,
+4.66414094e-02f,+1.72078520e-01f,+6.18367791e-02f,+1.90299511e-01f,-1.22541398e-01f,
+6.60563707e-02f,-1.84954152e-01f,-2.10783929e-02f,-1.74524903e-01f,-1.86830387e-01f,
-1.69918254e-01f,+1.75295949e-01f,+8.54848325e-03f,-5.78299165e-02f,-6.46346211e-02f,
-1.87080681e-01f,+7.44066238e-02f,-1.28760025e-01f,+1.17368996e-02f,-1.01061523e-01f,
-7.16931075e-02f,-6.68883771e-02f,-1.62803754e-01f,-1.35204509e-01f,+8.54072273e-02f,
+7.03768730e-02f,+1.26738667e-01f,-1.82613224e-01f,+7.82335401e-02f,-4.15380150e-02f,
+5.78179955e-04f,-1.32192597e-01f,+3.22245061e-02f,+5.58002144e-02f,-1.55148506e-01f,
+1.34870350e-01f,+1.29439741e-01f,-3.90533507e-02f,-8.69230628e-02f,-5.96312135e-02f,
+1.16678596e-01f,-3.37148160e-02f,+1.24257475e-01f,-8.09088275e-02f,+5.91675937e-02f,
+1.69885844e-01f,-1.39279395e-01f,+3.05458307e-02f,+1.75982863e-01f,+1.24766499e-01f,
-1.22375928e-01f,+7.80956745e-02f,+2.11023092e-02f,+1.77392453e-01f,-1.36857986e-01f,
+1.98128819e-02f,-5.45346141e-02f,-7.58440793e-03f,-8.74676332e-02f,-1.42298654e-01f,
+4.73885685e-02f,+9.08574462e-02f,-9.94387046e-02f,+9.86224711e-02f,+1.31964386e-01f,
+7.01107979e-02f,-1.24795310e-01f,+8.15615356e-02f,-1.74137548e-01f,+1.45023167e-01f,
-4.24256772e-02f,-1.66660801e-01f,+1.16682857e-01f,-1.17019385e-01f,+5.21505922e-02f,
-6.51746988e-02f,-1.67449117e-02f,+5.74184656e-02f,+1.50176585e-02f,-1.62945405e-01f,
+6.40034676e-02f,-1.20454997e-01f,-1.74786881e-01f,+6.38908744e-02f,+7.13736713e-02f,
+4.39486653e-02f,-4.96287197e-02f,-1.32218361e-01f,+1.39978170e-01f,-1.46228597e-01f,
-1.40304029e-01f,+1.80139840e-02f,-1.16088971e-01f,+6.80687428e-02f,-8.74041021e-03f,
-9.99350324e-02f,+9.05727744e-02f,+3.85319591e-02f,+1.03356570e-01f,+7.22965896e-02f,
+1.83763534e-01f,-1.11815751e-01f,-1.79229960e-01f,-1.20207809e-01f,+6.36239946e-02f,
-3.77990603e-02f,+6.55282140e-02f,-1.53061792e-01f,+2.62523293e-02f,-1.53840721e-01f,
+1.56645983e-01f,-1.41648114e-01f,+1.34495854e-01f,+1.42587304e-01f,+8.30022991e-02f,
-1.29926831e-01f,+7.85582960e-02f,-1.03665948e-01f,+1.08539730e-01f,-7.16640204e-02f,
-7.17148185e-04f,+1.83267623e-01f,+1.08023882e-01f,+1.01433039e-01f,-6.60366863e-02f,
+4.91986573e-02f,-1.69122651e-01f,+1.35782748e-01f,-1.45015448e-01f,+6.35598302e-02f,
+1.38023913e-01f,-2.72246599e-02f,+1.23127192e-01f,-1.48654997e-01f,+1.20242447e-01f,
-6.65428489e-02f,+1.49396330e-01f,-9.60665271e-02f,+6.98429048e-02f,+4.88827080e-02f,
+3.11864316e-02f,-2.07302272e-02f,+2.04622746e-04f,+1.42332435e-01f,+1.42148793e-01f,
+1.92882955e-01f,+8.43139291e-02f,-1.23442113e-02f,+6.27355576e-02f,-1.42051727e-02f,
-1.84405744e-01f,-1.89797252e-01f,+1.11512661e-01f,+7.67298341e-02f,-1.05346382e-01f,
-5.47410250e-02f,-6.90560862e-02f,-2.20948160e-02f,+1.32355720e-01f,+8.81607234e-02f,
-6.96710199e-02f,+1.41131759e-01f,-4.54701483e-03f,-3.29463631e-02f,-2.53385454e-02f,
-6.25853390e-02f,-5.38733602e-03f,+1.58233196e-01f,+1.67972475e-01f,-5.03641963e-02f,
-6.21002764e-02f,-1.08014658e-01f,+3.11009288e-02f,-6.69038445e-02f,+3.81495059e-03f,
-1.81183532e-01f,-6.88496679e-02f,+1.74650222e-01f,+1.19336307e-01f,-1.22676402e-01f,
+1.66906267e-02f,-1.90078095e-01f,-1.92996800e-01f,+1.12604916e-01f,+1.65919602e-01f,
-1.00136973e-01f,-1.63046926e-01f,-1.29852295e-02f,+1.00556612e-01f,+1.66940868e-01f,
+1.42683804e-01f,+5.54748029e-02f,+3.10007781e-02f,-1.20067172e-01f,-1.54444471e-01f,
-8.82534832e-02f,+1.39573753e-01f,+3.50654125e-04f,-9.75643620e-02f,-2.45630443e-02f,
+5.97876310e-02f,-8.84087086e-02f,-3.31524760e-02f,+3.56947482e-02f,-1.18973322e-01f,
-1.18070759e-01f,-9.67184454e-02f,+9.07156169e-02f,-2.32295245e-02f,-6.41756505e-02f,
-9.04366598e-02f,+1.90836579e-01f,+2.90566236e-02f,+4.16164994e-02f,+1.04801565e-01f,
+1.28722191e-02f,+3.25411558e-03f,+7.57753849e-03f,-8.29327628e-02f,-8.32963511e-02f,
-4.31705266e-02f,-1.05640620e-01f,+8.17012787e-02f,-1.31366760e-01f,+1.09432280e-01f,
-1.69643313e-01f,+1.52480006e-01f,+1.34090900e-01f,-1.43110454e-02f,-1.38304681e-02f,
+1.40952885e-01f,+2.21609324e-02f,+6.00748658e-02f,-9.71227884e-04f,-7.96771049e-03f,
+2.40169913e-02f,+1.44940108e-01f,+1.44580960e-01f,+1.45543963e-01f,-1.60260782e-01f,
-1.23768911e-01f,-1.68934017e-02f,+1.48223639e-01f,-1.92055210e-01f,+1.82269067e-02f,
+7.51351416e-02f,-1.44503474e-01f,+8.67670178e-02f,-1.81946993e-01f,-6.76033199e-02f,
+6.58533573e-02f,+2.79100239e-03f,+1.29547596e-01f,+6.91341758e-02f,-3.89571786e-02f,
+1.37064219e-01f,-6.13670498e-02f,+1.16770476e-01f,-8.73219222e-02f,+9.87335145e-02f,
-4.70693409e-03f,+1.19406998e-01f,+1.92285091e-01f,-1.17534250e-02f,+1.27958149e-01f,
+5.68738878e-02f,+3.69255245e-03f,+1.46575809e-01f,+1.16031736e-01f,-1.84429392e-01f,
-9.85282883e-02f,-4.82520312e-02f,+1.26867622e-01f,+9.84286070e-02f,-2.51488388e-02f,
+4.72017676e-02f,-8.27098563e-02f,+4.29787338e-02f,-3.94630134e-02f,-2.50769556e-02f,
+1.56835914e-01f,+1.03182584e-01f,-6.37694895e-02f,+1.92470282e-01f,-3.65820825e-02f,
+4.93268222e-02f,+7.55883753e-03f,+6.21604323e-02f,-1.09675378e-01f,+6.80858493e-02f,
+1.87240154e-01f,+1.80016696e-01f,-1.83904469e-02f,+1.15765452e-01f,-6.36905879e-02f,
-3.36541981e-02f,-1.32764682e-01f,+3.57767940e-02f,+1.35156631e-01f,-1.58602327e-01f,
-1.02869108e-01f,+8.85119736e-02f,+1.26108527e-02f,-1.56383634e-01f,-5.79935312e-03f,
-1.23475827e-01f,-4.34013307e-02f,-2.44073123e-02f,+4.42620218e-02f,-1.53785259e-01f,
+5.87992370e-02f,-9.11057964e-02f,+1.43992752e-02f,+2.99561918e-02f,+1.31287843e-01f,
+1.00789666e-01f,-1.41872972e-01f,+7.01718330e-02f,-1.17432229e-01f,+2.63055712e-02f,
-1.22291349e-01f,-1.11162223e-01f,+1.59972459e-02f,-1.05885409e-01f,+5.52281141e-02f,
-5.43982685e-02f,-9.04475972e-02f,+8.97183120e-02f,+8.84094834e-02f,+1.42154127e-01f,
+1.82077408e-01f,+1.68689638e-01f,-7.32946396e-02f,-9.56847072e-02f,+1.48347318e-01f,
-1.55119106e-01f,+7.06449747e-02f,-9.84787941e-02f,-5.71247637e-02f,+5.23756295e-02f,
-8.38874578e-02f,+1.72361553e-01f,+4.78488803e-02f,-8.27585161e-03f,+1.09004200e-01f,
+1.05063826e-01f,+1.17919415e-01f,-1.41771302e-01f,-7.68622532e-02f,+5.96495867e-02f,
+1.47075444e-01f,-1.96229368e-02f,+1.67430967e-01f,-4.29172814e-02f,-1.46526530e-01f,
+1.11458361e-01f,-9.03658569e-03f,+5.04409820e-02f,-4.81350869e-02f,-6.90453798e-02f,
-1.41163021e-02f,+1.06805384e-01f,+9.21458006e-04f,+1.37499273e-01f,+1.86968446e-01f,
+7.77619183e-02f,-8.51626173e-02f,+1.03200912e-01f,+1.30700767e-01f,+1.27893567e-01f,
-2.88683474e-02f,+1.03123456e-01f,-5.66835254e-02f,+7.95423090e-02f,-1.12648740e-01f,
-1.17405958e-01f,+1.20461553e-01f,+3.62450480e-02f,-7.78753534e-02f,-1.03428081e-01f,
+1.78343236e-01f,-1.22244947e-01f,-2.75702924e-02f,-1.51651591e-01f,+1.42256647e-01f,
-1.36893764e-01f,+8.48989189e-03f,+8.02209079e-02f,-5.05635589e-02f,-9.61267352e-02f,
+1.85616583e-01f,-1.60336167e-01f,-2.63919979e-02f,-4.37360108e-02f,-2.53449678e-02f,
-3.63048315e-02f,+1.61169618e-02f,+1.68325484e-01f,-1.80483177e-01f,+2.12359130e-02f,
+2.76550055e-02f,+1.44186616e-01f,-1.44415617e-01f,-7.91005567e-02f,-1.62501067e-01f,
+1.66179031e-01f,-1.73451602e-01f,-1.63459077e-01f,-6.31689131e-02f,-1.44261867e-02f,
+9.10851359e-03f,-1.62432358e-01f,-9.66857076e-02f,+7.49555826e-02f,-5.47168404e-02f,
+1.67854130e-03f,+1.90217704e-01f,+6.22445643e-02f,-1.41875893e-02f,-1.30986273e-02f,
-1.26168296e-01f,-1.48940191e-01f,-1.80629402e-01f,-1.56338811e-01f,-9.74234492e-02f,
+1.71863824e-01f,+8.27363133e-02f,+1.27292991e-01f,+1.74193919e-01f,+3.20467502e-02f,
+1.81335956e-02f,+1.56047344e-01f,-1.32726997e-01f,-1.56486690e-01f,+5.73716462e-02f,
-1.62650332e-01f,+1.32398605e-01f,+1.22669250e-01f,+8.89233649e-02f,+1.67734802e-01f,
-7.16926903e-02f,-1.13429472e-01f,+1.80244446e-01f,-2.22909451e-02f,-1.30090863e-01f,
+1.31261528e-01f,+1.55128241e-01f,-5.21965772e-02f,+6.07856512e-02f,-1.06625095e-01f,
-8.47372562e-02f,-8.76648724e-03f,+1.81077063e-01f,+2.59878337e-02f,-2.84848213e-02f,
-8.79114121e-02f,-1.51282400e-02f,+9.97571051e-02f,+5.69189787e-02f,-2.37848461e-02f,
-1.24099948e-01f,-1.74147293e-01f,-1.53419673e-02f,+1.00923568e-01f,-6.16930574e-02f,
+1.48906171e-01f,-1.34061262e-01f,+1.53394341e-01f,-2.66301930e-02f,+1.41246527e-01f,
-1.62579417e-01f,-6.44162297e-02f,+1.69520646e-01f,-4.74964231e-02f,-1.82087809e-01f,
-2.92562246e-02f,+1.20181292e-01f,-1.30786866e-01f,-8.44986066e-02f,-1.39977932e-01f,
+1.14990056e-01f,+1.11188293e-02f,+9.88060832e-02f,+8.73517394e-02f,+1.40922874e-01f,
-1.66175231e-01f,+1.23827487e-01f,-1.08701892e-01f,+1.92798257e-01f,+1.78004563e-01f,
+1.18961692e-01f,+1.08651817e-02f,-1.61432326e-01f,+5.29994667e-02f,-1.62709102e-01f,
-4.74164188e-02f,-6.59849346e-02f,+7.12099373e-02f,-1.43639237e-01f,-1.25532359e-01f,
+5.35600185e-02f,-2.62164623e-02f,-7.31813833e-02f,-1.13412201e-01f,-4.31383401e-02f,
-6.88800886e-02f,+1.91988319e-01f,-5.06267250e-02f,-1.06028810e-01f,-5.99213988e-02f,
-3.24557722e-03f,-1.76167756e-01f,+1.21022433e-01f,+1.08738989e-02f,-1.62506923e-01f,
+1.20626986e-01f,-3.98845971e-02f,+1.14767313e-01f,-5.04043698e-02f,+1.07324421e-02f,
-7.29810521e-02f,+1.36563420e-01f,-6.91591874e-02f,-6.91676810e-02f,+4.27967310e-02f,
+3.10240090e-02f,-3.14825773e-03f,+1.24983490e-01f,-2.08030343e-02f,-1.21730156e-01f,
+3.96482497e-02f,+1.36590570e-01f,-1.10869087e-01f,-9.98345613e-02f,-1.05825387e-01f,
+1.29975528e-01f,-1.06376559e-02f,-1.28057361e-01f,-7.28427321e-02f,-3.62094492e-02f,
-1.04426913e-01f,-6.98149353e-02f,+1.28397882e-01f,-3.87782305e-02f,-9.30067822e-02f,
+1.61271334e-01f,+1.53015077e-01f,-1.18670173e-01f,+2.95208693e-02f,-7.34807476e-02f,
-5.57100922e-02f,+2.23925561e-02f,+2.34423578e-02f,-5.31277061e-03f,+1.44038469e-01f,
-1.61684453e-02f,-3.66635770e-02f,+2.42651999e-02f,-6.36895299e-02f,-5.92644513e-02f,
-1.15796119e-01f,-1.61817387e-01f,+1.73971951e-01f,+1.93527967e-01f,+9.19178724e-02f,
+5.42237908e-02f,-1.33281797e-02f,-3.10033709e-02f,-1.71690881e-01f,-5.34180850e-02f,
+5.76641560e-02f,+1.72977716e-01f,-5.14295250e-02f,-1.59643486e-01f,-9.34912860e-02f,
+1.90331846e-01f,+1.09844625e-01f,+1.02276653e-02f,+1.57197714e-01f,+1.26631945e-01f,
+8.13584328e-02f,-9.66383815e-02f,-3.12933177e-02f,-9.61310714e-02f,-3.84375006e-02f,
+1.11875802e-01f,+4.93440479e-02f,-7.78031424e-02f,-1.63418546e-01f,+1.51335061e-01f,
+1.28330886e-01f,+1.56462282e-01f,-1.01907253e-02f,-8.36876407e-02f,+1.24228805e-01f,
+1.49932742e-01f,+1.83569491e-01f,-1.46239847e-02f,+1.03116423e-01f,+3.38819921e-02f,
-9.76793692e-02f,-1.67563140e-01f,+1.93408728e-01f,+3.79444659e-03f,+1.81594521e-01f,
-6.96798414e-02f,+1.01920635e-01f,-6.92037866e-02f,+1.50537372e-01f,+1.62185311e-01f,
+1.80563718e-01f,+7.39365816e-02f,-6.30672276e-03f,-1.44119531e-01f,+4.63403910e-02f,
+5.36467284e-02f,-1.20667145e-01f,-5.13273478e-02f,+8.81682634e-02f,+1.33012682e-02f,
-6.53443336e-02f,+1.29990071e-01f,-5.29060215e-02f,+1.74693555e-01f,-9.93817821e-02f,
-1.08707525e-01f,-1.92584738e-01f,+7.05487132e-02f,+1.86116457e-01f,+1.34631455e-01f,
+2.98813134e-02f,-4.69347686e-02f,-7.08411857e-02f,+1.36929691e-01f,-1.67353258e-01f,
-9.84930992e-03f,+4.02968824e-02f,+9.53021049e-02f,+1.05920464e-01f,-1.23777039e-01f,
-1.70859411e-01f,-1.51808202e-01f,-5.66007346e-02f,+8.51519406e-02f,+3.09384465e-02f,
-1.10624574e-01f,+1.51979625e-01f,-1.05662733e-01f,+1.35593504e-01f,-2.82165408e-03f,
+5.95242977e-02f,+9.58361924e-02f,+7.33433068e-02f,-1.29873782e-01f,-1.74137831e-01f,
-6.95196316e-02f,+1.14569068e-01f,+1.88700616e-01f,-1.42102748e-01f,+5.06676733e-02f,
+1.15280300e-02f,-7.67365769e-02f,+1.80949211e-01f,+2.95220613e-02f,+1.12411529e-01f,
+1.77151591e-01f,+1.40879035e-01f,-1.23398773e-01f,-9.37445238e-02f,+6.48876727e-02f,
-8.23935494e-02f,+1.53397113e-01f,-8.99165124e-02f,+4.01380658e-02f,+1.16224080e-01f,
+1.58916086e-01f,-4.68606800e-02f,+1.09021962e-02f,-1.43289581e-01f,+1.42466158e-01f,
-1.13467008e-01f,-4.89477664e-02f,+7.86166191e-02f,-1.06920250e-01f,-6.39240146e-02f,
+1.93638414e-01f,+9.88111198e-02f,+2.09992081e-02f,-1.46391541e-01f,+2.45534778e-02f,
-1.59552068e-01f,+1.63173020e-01f,-1.33861855e-01f,+1.56482726e-01f,-3.54590565e-02f,
-9.16075185e-02f,+9.93283689e-02f,+1.88175082e-01f,-3.09164822e-03f,+1.24895275e-01f,
-1.59021720e-01f,-3.66856009e-02f,+1.49108738e-01f,-1.03994720e-01f,+4.66473252e-02f,
+4.49452847e-02f,+8.84190202e-04f,-1.21037334e-01f,-5.20136058e-02f,-5.78144938e-02f,
-9.24538970e-02f,+1.39847279e-01f,-5.66993207e-02f,-4.10735905e-02f,-1.22176982e-01f,
+8.78710151e-02f,+1.84266865e-01f,+1.47159666e-01f,-1.35736659e-01f,+1.06752008e-01f,
-1.12856641e-01f,+1.50947124e-01f,-9.09732878e-02f,-6.29051030e-02f,+1.39488876e-02f,
-8.36420655e-02f,+1.04813486e-01f,-1.27750486e-01f,+2.34521925e-02f,+1.36738956e-01f,
-4.51744646e-02f,-7.24526942e-02f,+1.56048775e-01f,-1.36508435e-01f,+1.49489105e-01f,
-1.37504682e-01f,+4.07741964e-03f,-1.58073127e-01f,-9.05129313e-02f,-1.65320635e-01f,
+1.60223156e-01f,+6.18547797e-02f,+1.58197284e-02f,-2.51743644e-02f,-1.16912916e-01f,
-1.78681746e-01f,+1.18074179e-01f,-4.98545915e-02f,-1.47460103e-02f,+1.29293233e-01f,
+1.11309975e-01f,+1.24860108e-02f,+1.78621769e-01f,-5.51652908e-03f,-3.07458788e-02f,
-7.69488662e-02f,+3.04267108e-02f,-1.61034256e-01f,+1.57904565e-01f,-2.26639509e-02f,
-9.48247090e-02f,+1.27029419e-01f,-9.49145481e-02f,-5.27846366e-02f,-1.20486945e-01f,
-1.68647289e-01f,-1.41597062e-01f,+1.63243622e-01f,+1.91373765e-01f,-4.64685559e-02f,
+1.82092786e-01f,-1.69875592e-01f,+1.03011549e-01f,+9.32964087e-02f,-5.88199794e-02f,
-5.55088818e-02f,-8.30886811e-02f,+1.29290879e-01f,-1.52363151e-01f,+1.51591748e-02f,
-7.72847086e-02f,+2.55394280e-02f,-3.97099704e-02f,-6.87088445e-02f,+1.26466334e-01f,
+1.37020588e-01f,+1.51706845e-01f,+8.47237706e-02f,-1.71593875e-01f,-1.46716654e-01f,
+3.73051018e-02f,+5.13705611e-02f,-2.08568275e-02f,-1.01958178e-01f,+1.17097169e-01f,
-1.91263825e-01f,+1.38958365e-01f,-1.20200142e-01f,+6.32891953e-02f,-1.39930293e-01f,
+5.10587841e-02f,-7.17347562e-02f,-1.87888041e-01f,-1.34435698e-01f,+1.28816634e-01f,
+7.61432648e-02f,+1.31930709e-01f,-7.12130815e-02f,-1.58340171e-01f,-1.13909677e-01f,
-1.04551524e-01f,-3.58868092e-02f,-6.95676506e-02f,-1.86499774e-01f,+1.01578534e-02f,
+7.15073347e-02f,-1.35046467e-01f,-1.43050849e-02f,+8.91608000e-03f,+1.65201783e-01f,
-5.74870557e-02f,-1.54711902e-02f,+1.11644983e-01f,+1.40123636e-01f,+1.45981282e-01f,
-1.06300429e-01f,+1.57845616e-01f,-8.53431895e-02f,+3.41475010e-03f,+1.68874830e-01f,
-7.23141357e-02f,-9.64999199e-02f,+3.16348225e-02f,-3.12298685e-02f,-1.05756596e-01f,
+7.50747621e-02f,+2.61733383e-02f,+1.33246779e-01f,+4.88065332e-02f,+7.16257989e-02f,
+4.53998744e-02f,+5.97437918e-02f,+1.29854321e-01f,-3.37517262e-03f,-8.96930993e-02f,
+1.37866318e-01f,-1.11448057e-01f,-1.90835640e-01f,+1.84757918e-01f,+1.80624127e-02f,
-1.90216288e-01f,+1.89435095e-01f,+6.23039305e-02f,+1.65340304e-01f,+1.96297765e-02f,
-2.10183710e-02f,-3.17599028e-02f,+5.47837317e-02f,+6.76136613e-02f,-1.20738067e-01f,
-9.10026059e-02f,-3.83237302e-02f,-2.31101215e-02f,+3.94025445e-03f,+4.14487273e-02f,
-6.60912693e-03f,-8.78217965e-02f,-1.83834538e-01f,-1.58047736e-01f,+1.05895460e-01f,
-1.65741473e-01f,+1.19029045e-01f,+1.68496698e-01f,+6.71828985e-02f,+1.71639323e-01f,
-1.34215102e-01f,-6.79238737e-02f,+6.92732632e-03f,+1.14542156e-01f,-4.51844335e-02f,
+1.85921133e-01f,-5.45746833e-02f,-1.67028606e-02f,+5.50543815e-02f,+2.72616744e-03f,
+1.48113012e-01f,+9.02652442e-02f,-7.71763921e-02f,+9.44815278e-02f,+3.06431949e-03f,
-1.13674104e-02f,+3.98651958e-02f,-9.38613340e-02f,-1.51621625e-01f,-1.01054043e-01f,
-7.81294703e-03f,-1.88080668e-01f,+1.17477626e-01f,-2.91334093e-03f,-1.40725613e-01f,
+1.32038474e-01f,-4.77330536e-02f,+1.87222272e-01f,-7.73274601e-02f,+3.19338739e-02f,
+6.74260259e-02f,-7.28553385e-02f,+8.76757503e-02f,+1.38383687e-01f,+1.67540133e-01f,
-1.61486715e-01f,-1.18971847e-01f,-9.96527523e-02f,-3.91016454e-02f,+1.92696005e-01f,
+4.57956344e-02f,-2.35827714e-02f,-1.25801340e-01f,-2.98964977e-02f,-4.29534763e-02f,
-9.04304683e-02f,+2.45677531e-02f,+2.05404162e-02f,+1.03120506e-01f,+5.03757447e-02f,
-6.60721064e-02f,-2.59999931e-03f,+9.32425261e-02f,+1.02546990e-01f,-1.75763369e-02f,
-4.40002829e-02f,+1.33429289e-01f,-5.78509271e-03f,-3.81584018e-02f,-6.45220280e-04f,
+8.90196562e-02f,+1.35488003e-01f,-4.16505337e-03f,-8.95094350e-02f,+1.76404566e-01f,
-1.89028710e-01f,-6.80051744e-02f,+5.30907065e-02f,-1.32067144e-01f,-9.61107016e-03f,
-1.17105812e-01f,+2.13987082e-02f,+8.36131275e-02f,-9.57485586e-02f,-3.46294343e-02f,
-7.06289038e-02f,-1.72954261e-01f,-1.14579275e-01f,+5.23581803e-02f,+1.27020717e-01f,
+8.34999979e-03f,-1.34054989e-01f,+1.34610534e-01f,+7.97851682e-02f,+2.45924443e-02f,
-8.59580711e-02f,+1.81872249e-01f,+9.99841988e-02f,+1.59934372e-01f,+7.93599486e-02f,
-2.22371966e-02f,+3.97759527e-02f,+1.16624027e-01f,-1.79327935e-01f,+1.44342244e-01f,
-7.48501867e-02f,-1.21993504e-01f,+4.58954573e-02f,-1.71525642e-01f,-5.44192344e-02f,
-9.67289507e-03f,+1.38372630e-01f,+1.85425401e-01f,+8.74464512e-02f,-7.51296058e-02f,
-3.55298817e-02f,-1.11380652e-01f,+1.14422888e-01f,-1.18403085e-01f,+8.60294104e-02f,
+8.18361342e-02f,+3.28117311e-02f,-1.00909486e-01f,+1.08612865e-01f,+1.57137543e-01f,
-1.80582225e-01f,-1.62046343e-01f,+1.65324748e-01f,+1.55623406e-01f,+1.54381841e-02f,
+1.37093961e-01f,-1.79675728e-01f,-1.37471899e-01f,-1.66847974e-01f,-1.45721748e-01f,
+1.26407593e-01f,+3.88997942e-02f,-1.43914998e-01f,+1.02979958e-01f,+8.78590643e-02f,
+1.38914913e-01f,-3.79083455e-02f,+6.24123216e-02f,-1.61119580e-01f,-6.59965724e-02f,
+4.09373045e-02f,-1.40353441e-01f,-1.37367398e-02f,+1.08827472e-01f,-4.44079638e-02f,
-4.46960181e-02f,-1.34377941e-01f,+1.92078680e-01f,+4.35353518e-02f,+3.45490575e-02f,
-1.52099699e-01f,-8.54890049e-03f,-1.58715069e-01f,+1.56281620e-01f,-1.92958429e-01f,
+9.70259309e-04f,+1.63269788e-01f,-2.56807953e-02f,-9.98175740e-02f,+5.31532615e-02f,
-3.35362703e-02f,-1.18239552e-01f,-7.61358663e-02f,-3.72357965e-02f,-5.39623350e-02f,
-1.71031401e-01f,-1.14226721e-01f,+1.19719803e-01f,+6.39185309e-03f,+1.49338394e-01f,
+1.23666644e-01f,-1.75299957e-01f,-6.63605183e-02f,+8.21650028e-02f,+1.57650411e-01f,
+1.31033689e-01f,-2.53667533e-02f,-6.58065379e-02f,+5.47148138e-02f,+1.37780815e-01f,
-1.86442435e-02f,-4.04573977e-03f,-1.56607062e-01f,+6.19674027e-02f,+1.08875990e-01f,
+2.62719393e-03f,-2.09988356e-02f,+5.53613603e-02f,-1.48725629e-01f,+1.75953984e-01f,
-1.42818928e-01f,-9.60705876e-02f,-1.58803806e-01f,-1.61339208e-01f,-7.43375719e-03f,
-1.12717487e-01f,-1.66718140e-01f,+5.67587316e-02f,-1.36769012e-01f,-2.31035203e-02f,
+1.41852796e-02f,+1.68982565e-01f,-7.57023692e-03f,-1.03569172e-01f,+7.90419579e-02f,
-1.27302855e-02f,+8.05337131e-02f,-1.10581174e-01f,+3.78049761e-02f,+6.64705038e-02f,
-1.51725650e-01f,-2.88076848e-02f,+3.78732532e-02f,-1.14881732e-01f,+1.46491766e-01f,
-9.93037075e-02f,+1.52207732e-01f,+8.57580304e-02f,+1.45114750e-01f,+1.07785970e-01f,
-1.31364867e-01f,-9.62204114e-02f,-2.42543072e-02f,+7.29157329e-02f,+1.79579824e-01f,
+4.84031588e-02f,+8.81584585e-02f,+5.02948165e-02f,+8.13646615e-03f,-1.21358812e-01f,
+1.16794229e-01f,+9.60015655e-02f,+7.68825412e-03f,+7.69646466e-02f,+1.75255537e-02f,
-9.90045294e-02f,+9.08909142e-02f,-2.02001035e-02f,+1.22797698e-01f,+1.92521065e-01f,
+1.11431122e-01f,-2.14157999e-02f,-1.70707703e-03f,+1.27474666e-02f,+1.62602782e-01f,
+1.19053006e-01f,-8.06020796e-02f,-1.37979448e-01f,-7.38231912e-02f,+1.43865734e-01f,
-1.15390755e-01f,-1.21500790e-02f,-1.75246626e-01f,-9.98567715e-02f,-1.89776793e-01f,
-4.34000343e-02f,-1.22345239e-02f,-7.46161938e-02f,+2.76152641e-02f,+1.06762588e-01f,
+1.89463288e-01f,+7.11668730e-02f,-7.62952939e-02f,-9.11283270e-02f,+2.51366049e-02f,
-4.88374233e-02f,+5.34910411e-02f,+2.08181739e-02f,-7.75198936e-02f,-1.23458192e-01f,
+8.24314058e-02f,-1.53405383e-01f,+3.49726081e-02f,-8.70810077e-02f,-4.68073487e-02f,
+9.25546288e-02f,-1.60701141e-01f,+1.18891090e-01f,-1.65131107e-01f,+3.37692499e-02f,
-1.55411124e-01f,+8.75340700e-02f,+1.53995842e-01f,+1.35383010e-02f,-1.17026173e-01f,
+6.62985444e-03f,+1.01947248e-01f,-1.20906442e-01f,+1.17875218e-01f,+3.75292450e-02f,
+3.14562023e-02f,-5.78678250e-02f,-1.74806312e-01f,-1.15969859e-01f,-1.67710334e-01f,
+3.92720103e-04f,+8.90970230e-03f,+1.19043648e-01f,+1.06565356e-01f,-3.41253132e-02f,
+6.26063347e-03f,+1.16713941e-02f,+6.89249635e-02f,-1.76100910e-01f,-1.47348449e-01f,
+1.03652745e-01f,+1.25844777e-02f,+1.36583447e-02f,+1.80715472e-01f,-1.68522909e-01f,
+1.58219516e-01f,-3.59553695e-02f,+1.47489816e-01f,+4.87255603e-02f,-9.33527723e-02f,
+1.19525850e-01f,+6.03715479e-02f,+4.94462103e-02f,+1.06014013e-02f,+1.71041876e-01f,
+1.58091396e-01f,+1.84901804e-01f,-1.09530956e-01f,-1.82127506e-01f,+9.79764760e-03f,
-1.12027436e-01f,-1.42105252e-01f,-1.47438109e-01f,+6.10340238e-02f,-9.55909342e-02f,
+7.63252676e-02f,-4.67405915e-02f,-4.16779071e-02f,+8.47871602e-02f,+5.76366484e-02f,
-9.10015404e-02f,-7.99823031e-02f,-1.67694405e-01f,+8.33407044e-03f,-1.02953039e-01f,
+4.46092635e-02f,+1.63965017e-01f,+6.70661330e-02f,+1.05697811e-02f,-1.32487267e-02f,
+1.22662783e-01f,-3.02748978e-02f,-1.67930737e-01f,+7.45027661e-02f,+1.60271198e-01f,
+1.61569774e-01f,-1.63200349e-01f,+2.94204950e-02f,-1.70572191e-01f,+1.29949749e-02f,
-9.62235034e-02f,-9.22473371e-02f,+1.17111176e-01f,-1.48965627e-01f,+6.72175288e-02f,
+2.37502158e-02f,-1.46172509e-01f,+9.00875628e-02f,+2.83548534e-02f,-1.37948185e-01f,
-2.60047764e-02f,-9.18999538e-02f,+1.12679601e-02f,+1.89054668e-01f,-1.74237877e-01f,
-1.63832501e-01f,+7.84592927e-02f,-1.02812134e-01f,+7.95539320e-02f,+1.49362326e-01f,
-1.83706880e-02f,+5.84445596e-02f,+1.56298876e-01f,-7.63660669e-02f,-1.70581803e-01f,
+1.35907292e-01f,-1.54916793e-01f,-1.27334818e-01f,-1.71235606e-01f,+1.08014196e-02f,
+4.56897169e-02f,+1.79087162e-01f,+1.68355286e-01f,+1.32285357e-01f,-1.19967863e-01f,
+4.54421192e-02f,+7.37999678e-02f,+1.45456910e-01f,-1.11740723e-01f,-1.67451590e-01f,
+5.20274639e-02f,-4.06375676e-02f,+1.66007549e-01f,+2.67582089e-02f,-1.74477130e-01f,
-1.45309463e-01f,+1.10869706e-02f,+3.52511108e-02f,-3.67832035e-02f,+1.23322725e-01f,
-1.04128286e-01f,-2.39227712e-03f,+1.92774534e-02f,-7.73096085e-03f,-7.96710700e-02f,
+1.93018168e-01f,-9.46794078e-02f,+5.65604270e-02f,-1.15406081e-01f,-1.00974031e-01f,
+1.51779443e-01f,+6.96983039e-02f,+2.53654122e-02f,+7.90109336e-02f,+1.96804702e-02f,
-5.41816950e-02f,+1.11661762e-01f,-1.49706274e-01f,+4.35704440e-02f,+1.83659226e-01f,
-5.39336205e-02f,-2.32864469e-02f,+1.83249861e-01f,-9.24002007e-02f,-8.05811659e-02f,
-1.85727268e-01f,+3.92764509e-02f,+1.19658262e-01f,-3.27986777e-02f,+1.51667595e-01f,
+3.98235619e-02f,+1.45834953e-01f,+9.11432803e-02f,+2.42491812e-02f,-8.40291381e-04f,
+6.30756617e-02f,-5.00320196e-02f,-1.20205775e-01f,+4.30707484e-02f,-1.22957379e-02f,
+1.88641161e-01f,+4.53896672e-02f,-1.38448179e-02f,+5.37590086e-02f,+8.17026794e-02f,
-1.09062061e-01f,+7.35861957e-02f,-1.87620074e-01f,+7.99145699e-02f,+1.43427342e-01f,
+5.88790774e-02f,-1.51176408e-01f,-4.36368883e-02f,-1.65410668e-01f,+1.29857063e-01f,
-1.16308741e-01f,-1.71940655e-01f,-1.51316300e-01f,-2.05941200e-02f,+1.70393854e-01f,
+1.30535752e-01f,+1.46645695e-01f,+5.65511882e-02f,+2.45718509e-02f,-1.74661160e-01f,
+1.13117874e-01f,+1.89841837e-01f,-7.19090477e-02f,-1.10253558e-01f,+1.88683689e-01f,
-4.53964919e-02f,+1.65168315e-01f,-1.47000924e-01f,-1.03172623e-01f,+8.93401802e-02f,
+6.13633692e-02f,-1.51114538e-01f,-1.81939051e-01f,+8.74437094e-02f,-2.73831189e-02f,
+1.15367472e-01f,-1.26601830e-01f,+1.57912463e-01f,+9.40366387e-02f,+2.18442082e-02f,
+1.69995576e-01f,+1.45271450e-01f,+4.21855450e-02f,+1.41474754e-01f,+1.93158537e-01f,
-2.36494839e-03f,-1.31580204e-01f,+1.45769715e-01f,+4.14133966e-02f,+1.67085320e-01f,
-1.66230679e-01f,+8.34075809e-02f,-5.86250871e-02f,+8.41735303e-02f,+1.73647404e-02f,
-7.30795786e-02f,+4.66008782e-02f,-1.38274580e-02f,+2.57194042e-05f,+1.80525333e-02f,
-1.64343223e-01f,+2.68843472e-02f,+6.26715720e-02f,-8.46149996e-02f,-9.63558257e-03f,
-2.44945288e-02f,+1.59721106e-01f,+2.44236588e-02f,-5.71638197e-02f,+1.13805532e-01f,
+1.07039750e-01f,+1.64262354e-01f,-7.86933824e-02f,+1.35092497e-01f,+5.85739911e-02f,
-5.16778678e-02f,-5.28895855e-02f,-7.08212927e-02f,-1.01497635e-01f,+3.82224470e-02f,
-1.73592508e-01f,+1.41580671e-01f,+1.68977588e-01f,+8.32601488e-02f,+7.21672177e-03f,
+5.02239466e-02f,-7.33543858e-02f,-5.46916723e-02f,+3.31252813e-02f,-1.41602635e-01f,
-5.28232455e-02f,-1.16733223e-01f,+1.14733756e-01f,-1.05153203e-01f,+1.54132038e-01f,
-7.25886598e-02f,-1.79286420e-01f,-1.66560382e-01f,+1.45828724e-01f,+5.09258956e-02f,
+2.78274566e-02f,+2.72435546e-02f,+2.34249979e-02f,-7.44093135e-02f,-5.91223389e-02f,
+1.10735297e-01f,-3.41445208e-02f,+7.12450445e-02f,-1.80255979e-01f,+2.94625014e-02f,
+1.65313423e-01f,+3.50873470e-02f,+1.90751284e-01f,+1.41578972e-01f,-3.60575318e-03f,
-1.37789130e-01f,+1.05728745e-01f,+4.63793129e-02f,-8.85967538e-02f,-1.43475920e-01f,
-5.05433381e-02f,+1.75934821e-01f,-9.22511667e-02f,-1.56990260e-01f,-7.96907842e-02f,
-7.09052235e-02f,-1.47816539e-03f,-3.73301655e-02f,+1.62947029e-01f,+1.58881366e-01f,
+1.70210153e-02f,-1.71262518e-01f,-1.37600854e-01f,+7.00901449e-02f,+1.75078660e-01f,
-1.53301001e-01f,+1.74507171e-01f,+1.78315192e-01f,+1.05546862e-02f,+1.51600420e-01f,
-8.38230550e-02f,+4.80460823e-02f,+8.22417140e-02f,+7.51572251e-02f,-1.54062510e-01f,
+1.43655121e-01f,-1.64673805e-01f,+5.70734739e-02f,+4.18929607e-02f,-8.69576409e-02f,
-7.62709156e-02f,+6.44123554e-02f,+8.46676528e-03f,-8.33639875e-02f,+1.17243588e-01f,
+1.52427405e-02f,-1.40791997e-01f,+1.51315898e-01f,+1.93646401e-01f,+6.67490065e-02f,
+1.73820466e-01f,-7.08655640e-02f,-7.02975392e-02f,+1.42089576e-02f,+1.17935121e-01f,
-1.28839940e-01f,+5.69765568e-02f,+1.92394555e-01f,+1.49834663e-01f,+5.97789884e-03f,
-1.77634060e-01f,+7.10538924e-02f,+1.39968872e-01f,+9.58581269e-02f,-5.40810376e-02f,
-9.41918567e-02f,-1.64533824e-01f,-9.06360671e-02f,-3.94815803e-02f,-2.75041759e-02f,
-1.11541688e-01f,-8.39763358e-02f,-1.87482998e-01f,-3.12673151e-02f,+1.05337292e-01f,
+1.20416164e-01f,+1.28347129e-01f,+1.84144974e-02f,+4.45678532e-02f,-2.71895826e-02f,
-5.19437641e-02f,+1.87221259e-01f,-6.58168793e-02f,-2.77937055e-02f,+1.89650238e-01f,
+3.27393413e-02f,-6.62270039e-02f,+5.32977283e-02f,+1.58631533e-01f,-1.75669223e-01f,
+7.93283880e-02f,+1.10319436e-01f,-4.29815501e-02f,-4.95154262e-02f,+1.29589140e-01f,
-1.06899664e-01f,-5.54691702e-02f,+4.73812819e-02f,-1.02183819e-02f,-1.36867255e-01f,
-3.31979990e-02f,-4.20031697e-02f,+1.59203082e-01f,+1.39183044e-01f,-2.75524259e-02f,
+6.69278502e-02f,-1.73716530e-01f,-4.04453129e-02f,+1.47860616e-01f,+5.80859780e-02f,
-3.95385474e-02f,+3.43292803e-02f,+1.41473562e-01f,+1.14897758e-01f,-3.67745161e-02f,
+8.04065466e-02f,+4.66263592e-02f,-1.36202976e-01f,+1.81209713e-01f,+3.73906940e-02f,
+1.78313434e-01f,+5.03398329e-02f,+8.49685669e-02f,-9.59204510e-02f,-1.54077977e-01f,
+3.51479650e-03f,-1.13855056e-01f,-2.60176957e-02f,+9.37287211e-02f,+8.10582936e-02f,
+1.47464365e-01f,-6.70175701e-02f,-1.86801553e-02f,+7.81486630e-02f,-1.36044621e-01f,
+2.57136822e-02f,-1.66218728e-02f,+1.72879100e-01f,-1.32153258e-01f,-1.38680339e-01f,
+1.59771025e-01f,-5.87535352e-02f,+7.94649720e-02f,-6.16468489e-02f,-4.71003801e-02f,
-2.13124305e-02f,-1.18865013e-01f,-8.23276639e-02f,-2.05609649e-02f,+1.79589331e-01f,
-5.81954420e-02f,+1.92022949e-01f,+3.98542136e-02f,+1.09743178e-02f,+3.15926820e-02f,
+1.10005677e-01f,+6.76109493e-02f,-1.19935453e-01f,-1.16681881e-01f,+1.14652127e-01f,
+1.56248361e-02f,-1.93607435e-01f,-5.99578172e-02f,-1.05993904e-01f,+1.36694044e-01f,
+3.00570279e-02f,+1.73043787e-01f,+1.66091383e-01f,-1.76131055e-01f,-7.50076249e-02f,
-1.41834095e-01f,+6.68080449e-02f,+8.26753378e-02f,+1.60659969e-01f,-1.50535256e-01f,
-2.88846940e-02f,-1.37423933e-01f,-7.06268698e-02f,+5.52628338e-02f,-1.42740861e-01f,
+1.04835480e-01f,-7.66951218e-02f,+9.81892347e-02f,+9.60555971e-02f,-7.51202330e-02f,
+8.11449289e-02f,+1.25854582e-01f,+1.25205934e-01f,+6.26970530e-02f,-1.90401047e-01f,
+1.75402492e-01f,+1.16344333e-01f,+1.14367008e-02f,+1.85012788e-01f,+4.81005609e-02f,
-4.16753292e-02f,-1.42218411e-01f,-4.92903888e-02f,+1.01808727e-01f,+6.62038624e-02f,
+7.63687491e-02f,-9.23757777e-02f,+1.77774370e-01f,-6.18529916e-02f,-1.36684015e-01f,
-1.51449412e-01f,-3.39508802e-02f,+3.15666199e-04f,-2.56759971e-02f,+1.69981837e-01f,
-7.00927824e-02f,+1.59263939e-01f,+1.65798306e-01f,-8.48522633e-02f,+1.62096649e-01f,
+1.43862784e-01f,-1.84273869e-02f,-6.67559206e-02f,-7.02181756e-02f,-1.88817248e-01f,
-1.20543368e-01f,-1.77450493e-01f,+1.52095914e-01f,+1.03458822e-01f,+1.89681500e-01f,
+1.40104473e-01f,+1.30042017e-01f,-1.47229239e-01f,-2.10379511e-02f,+6.13869429e-02f,
-1.30788356e-01f,-1.24429643e-01f,-2.38436759e-02f,+1.92958027e-01f,-1.48914695e-01f,
+1.20633960e-01f,+5.37131131e-02f,+4.70007509e-02f,+4.68341261e-02f,-1.58282638e-01f,
+6.84488118e-02f,+1.80562913e-01f,-9.57646742e-02f,-1.52926922e-01f,-1.87661022e-01f,
-7.66246617e-02f,+9.92872715e-02f,-7.79941902e-02f,-3.71089280e-02f,+3.74723673e-02f,
-1.78903341e-04f,+6.74788356e-02f,+1.15287930e-01f,+2.74865329e-03f,+6.09784424e-02f,
+1.81162328e-01f,+1.63384825e-02f,+1.74067080e-01f,-3.03573161e-02f,-1.12891316e-01f,
+1.48981869e-01f,-1.77644640e-01f,+6.93047047e-02f,+1.67544991e-01f,-8.99801329e-02f,
+3.80552113e-02f,+5.42681664e-02f,-8.94391537e-03f,-1.53995112e-01f,+1.72571719e-01f,
+2.66316235e-02f,-1.87285900e-01f,-1.93486556e-01f,+6.37665689e-02f,+1.52629465e-01f,
-1.15845710e-01f,+9.20956731e-02f,+7.61153102e-02f,-1.48747653e-01f,-1.97920203e-02f,
-4.24161106e-02f,+4.93788570e-02f,-7.62172192e-02f,-1.29390702e-01f,-9.91438255e-02f,
+1.83593720e-01f,+5.25217950e-02f,+2.49091685e-02f,-1.48367316e-01f,-1.94512308e-03f,
+1.41884744e-01f,-5.93556315e-02f,-1.21358447e-01f,+1.41849130e-01f,+4.53380942e-02f,
+5.70046306e-02f,-1.01291388e-02f,+7.82712698e-02f,-6.82898164e-02f,+2.12945491e-02f,
+9.63342190e-03f,-8.33956152e-02f,+1.22158438e-01f,+9.12859142e-02f,-9.53489542e-03f,
-1.05798237e-01f,-1.30832076e-01f,-1.42487168e-01f,+1.05337650e-02f,+1.16991878e-01f,
+6.60697818e-02f,-7.50894845e-02f,+6.94724023e-02f,+1.59226775e-01f,+7.47077465e-02f,
-1.13414466e-01f,-1.09931245e-01f,-1.07992887e-02f,+5.79144955e-02f,+1.63579524e-01f,
+9.82888043e-02f,+1.73563719e-01f,-9.88924727e-02f,+4.08162922e-02f,-1.64542034e-01f,
-5.23924828e-04f,-2.53932178e-02f,-2.77488232e-02f,+8.20541680e-02f,-4.64987755e-03f,
+1.85366988e-01f,+1.97690725e-02f,-1.55872822e-01f,-2.37616897e-03f,-1.53965607e-01f,
-9.91778523e-02f,-1.58018917e-01f,+8.15917552e-03f,-1.18405856e-01f,-4.14982140e-02f,
+1.29612774e-01f,-1.92863181e-01f,+1.12414658e-01f,-2.22242326e-02f,-9.73559022e-02f,
-1.73735499e-01f,+1.56717896e-01f,-1.50498137e-01f,+2.91080624e-02f,-1.13117643e-01f,
-1.00776605e-01f,+2.60693580e-02f,+1.12012833e-01f,+1.38580024e-01f,+1.39206111e-01f,
+1.31110758e-01f,+5.21278381e-02f,-5.33845276e-02f,+1.61344290e-01f,+1.79534912e-01f,
-6.34090006e-02f,-1.78095102e-01f,+1.02524787e-01f,-1.65548444e-01f,-7.66137242e-03f,
-7.12005273e-02f,+1.83048189e-01f,-2.69397050e-02f,+1.72351569e-01f,-1.19112529e-01f,
+1.68714881e-01f,+2.01418996e-03f,+4.38047945e-03f,+1.64175719e-01f,+8.20012987e-02f,
-4.84562963e-02f,-5.86872846e-02f,-9.83505398e-02f,+1.73601389e-01f,-4.36950624e-02f,
+1.11650407e-01f,-5.03235757e-02f,+3.02314609e-02f,-1.64355785e-01f,+7.63473809e-02f,
+2.16964632e-02f,-5.26359826e-02f,+1.71742409e-01f,-1.39295042e-01f,+8.57181251e-02f,
+1.19699657e-01f,+1.26017332e-01f,-6.92098811e-02f,-1.20845780e-01f,+1.91303760e-01f,
+2.25380361e-02f,-1.35412514e-02f,-1.05431519e-01f,+4.27838117e-02f,-3.81454825e-04f,
-1.20055631e-01f,-3.50482315e-02f,-1.53288990e-02f,+1.83560997e-01f,-1.56860352e-01f,
+1.49022460e-01f,-1.45048201e-02f,+1.30208701e-01f,+1.44187361e-01f,+1.19994909e-01f,
+4.34525311e-02f,+8.70637894e-02f,+1.39093220e-01f,+1.59545988e-01f,-9.32436734e-02f,
-1.73851117e-01f,+1.30236626e-01f,+1.64792091e-01f,-1.93176270e-02f,+2.45512128e-02f,
-9.34577137e-02f,-1.08109534e-01f,-2.67553329e-03f,-7.53531978e-02f,+1.16485357e-02f,
-1.37511700e-01f,+4.78287488e-02f,-8.13982263e-02f,+6.65144026e-02f,+5.80880940e-02f,
-1.72022283e-02f,-9.26706642e-02f,-5.55348694e-02f,-9.03749764e-02f,+5.72272539e-02f,
-1.53687850e-01f,-1.73929334e-03f,+3.26773822e-02f,-7.89307877e-02f,-1.21953711e-01f,
+1.56656653e-01f,+1.72144264e-01f,+1.41328871e-01f,+4.10595536e-02f,-1.69587314e-01f,
+1.86221749e-02f,+1.91852450e-01f,-8.50491822e-02f,+5.27480245e-02f,+1.18618339e-01f,
+4.00786847e-02f,-4.30334061e-02f,+1.88362390e-01f,-1.56459451e-01f,-7.76153281e-02f,
+3.44876498e-02f,+8.99906158e-02f,-8.08546245e-02f,-1.52184069e-03f,-1.34212971e-01f,
-1.76713675e-01f,+1.77073926e-01f,-5.94833791e-02f,-7.20974654e-02f,+2.20453143e-02f,
-1.24816731e-01f,-6.73897415e-02f,-9.71300453e-02f,+1.51639730e-02f,-1.82089150e-01f,
-1.09952390e-01f,-1.55456975e-01f,-5.44531643e-02f,+7.52988458e-02f,-5.27999252e-02f,
-4.71703708e-02f,-1.49970412e-01f,-6.27908856e-02f,+8.98364484e-02f,+1.88103318e-01f,
+9.73956287e-03f,+5.73512316e-02f,+5.96901178e-02f,-1.91172868e-01f,-9.73464400e-02f,
+1.44614697e-01f,-6.65271282e-03f,+5.35518825e-02f,-1.75633624e-01f,-7.69722313e-02f,
+9.01236236e-02f,-1.75532877e-01f,+1.44414276e-01f,-2.93711871e-02f,+1.04579091e-01f,
+1.74384087e-01f,-2.62262523e-02f,+1.35058612e-01f,+5.90661168e-03f,-8.82185772e-02f,
-1.25205994e-01f,+1.87467307e-01f,-6.81374967e-03f,+4.16195095e-02f,+1.51850909e-01f,
-6.21765852e-03f,+1.09375924e-01f,+2.08986998e-02f,-4.66123223e-02f,-1.38546973e-02f,
+4.69058752e-02f,-9.43599194e-02f,+6.96763694e-02f,+3.04165483e-02f,-1.39293700e-01f,
+4.47670221e-02f,+3.59760076e-02f,+6.73198700e-02f,+8.07550251e-02f,+5.83090186e-02f,
-1.59174085e-01f,+1.88465565e-01f,+1.15800589e-01f,-7.68123567e-03f,+9.49137211e-02f,
-1.04488499e-01f,+8.37519169e-02f,+1.73602581e-01f,-1.68152496e-01f,+9.23325121e-02f,
+1.27810746e-01f,+1.17161065e-01f,+1.03253186e-01f,-6.74035400e-02f,-1.78174987e-01f,
+5.69501519e-02f,+1.39553308e-01f,+7.95723200e-02f,+9.60198641e-02f,+1.07184500e-02f,
-9.33850482e-02f,-3.51147652e-02f,+5.93403876e-02f,-6.00631833e-02f,+6.03760779e-02f,
-9.86905321e-02f,-1.74722522e-01f,-1.05572470e-01f,+1.59018219e-01f,+1.47719502e-01f,
+7.22010136e-02f,-1.12677276e-01f,+1.09082550e-01f,+1.81488335e-01f,-1.88005954e-01f,
-1.28206134e-01f,-1.29378602e-01f,-5.27233332e-02f,-4.97643650e-03f,+1.01951152e-01f,
+1.19255602e-01f,+1.52328491e-01f,-1.35365695e-01f,+1.26950324e-01f,-8.52002949e-02f,
-1.24824531e-01f,-1.91497445e-01f,+1.76653922e-01f,+1.09792322e-01f,-1.66876271e-01f,
-1.59319848e-01f,-1.24314219e-01f,+1.29105091e-01f,+1.81489229e-01f,+5.93836904e-02f,
-6.55247271e-03f,-9.64814574e-02f,+1.39044225e-03f,+7.65742958e-02f,-4.22378480e-02f,
+1.76325947e-01f,-8.37737918e-02f,-3.35989296e-02f,+3.63233984e-02f,-2.00622827e-02f,
+6.72261119e-02f,-9.22903195e-02f,-6.39010668e-02f,+9.25704837e-02f,-1.13184951e-01f,
+5.74414432e-02f,+6.04909062e-02f,+1.64709389e-01f,+1.42865151e-01f,+1.82427853e-01f,
+6.98260069e-02f,-3.49789858e-03f,-1.55680940e-01f,+1.40568674e-01f,+7.95700848e-02f,
-1.88541487e-01f,+2.89244056e-02f,-1.81889087e-01f,-6.40625805e-02f,+1.62533194e-01f,
-1.35187387e-01f,-1.17261589e-01f,-8.77550393e-02f,+1.12658739e-03f,-8.87757093e-02f,
-9.37084183e-02f,+1.66084766e-02f,+5.04166931e-02f,-5.31174392e-02f,-3.26474607e-02f,
-1.19458199e-01f,-2.19440758e-02f,+7.82435536e-02f,+1.05478525e-01f,+1.26734972e-02f,
+9.60419774e-02f,-3.03333551e-02f,-1.68024048e-01f,+1.70056909e-01f,+8.17807019e-02f,
-2.10523456e-02f,+1.77643716e-01f,+9.44242179e-02f,+1.42153800e-02f,+6.78433478e-02f,
-5.09001315e-03f,+1.10336751e-01f,+1.69571161e-01f,+1.49642110e-01f,-9.82588455e-02f,
-1.09999716e-01f,-1.89054102e-01f,-1.70998529e-01f,-1.04428202e-01f,-1.33589312e-01f,
+5.13783246e-02f,+4.74490970e-02f,-6.39267415e-02f,+9.18550193e-02f,-1.78737283e-01f,
+5.78255355e-02f,-2.60750949e-02f,-1.88080966e-03f,+6.21865094e-02f,-1.12831295e-01f,
