#include <math.h> 
 #include <string.h> 
#include "./include/k2c_include.h" 
#include "./include/k2c_tensor_include.h" 

 


void torbeam_EC4_omode(k2c_tensor* input_1_21_input, k2c_tensor* dense_3_21_output) { 

float dense_output_array[100] = {0}; 
k2c_tensor dense_output = {&dense_output_array[0],1,100,{100,  1,  1,  1,  1}}; 
float dense_kernel_array[1400] = {
-8.56388807e-02f,+8.73023719e-02f,+1.06509939e-01f,+7.69575387e-02f,-3.71840894e-02f,
+1.78463474e-01f,-3.33437175e-02f,-1.92333147e-01f,+4.29165512e-02f,+2.14531973e-01f,
+8.98602754e-02f,-1.59905344e-01f,-6.04583174e-02f,+1.19809344e-01f,+1.30285904e-01f,
+2.11444095e-01f,-1.35038018e-01f,+1.50614187e-01f,+1.91877022e-01f,-2.50181258e-02f,
+3.81910056e-02f,+6.99437112e-02f,+6.89726621e-02f,+1.04823187e-01f,-1.00820079e-01f,
+2.76052803e-02f,-4.25800681e-02f,-8.67035687e-02f,+2.09814742e-01f,+3.80788296e-02f,
-4.61296737e-02f,+4.97531444e-02f,-1.24141946e-01f,-7.86036253e-05f,-2.15960816e-01f,
-1.34509146e-01f,-4.96739298e-02f,-2.67888755e-02f,-2.19827354e-01f,-1.89693809e-01f,
-8.33369642e-02f,+1.72742054e-01f,-2.20069498e-01f,-2.22963944e-01f,-1.18913569e-01f,
+6.72921389e-02f,+2.20423058e-01f,-1.41197175e-01f,+2.21773252e-01f,-1.68554962e-01f,
-1.44478887e-01f,+8.29871744e-02f,+2.06524327e-01f,-8.10305625e-02f,-5.27223051e-02f,
-1.62808269e-01f,+1.42907277e-01f,+1.64864808e-02f,-4.53133285e-02f,+5.13238758e-02f,
-1.76372960e-01f,-3.56713980e-02f,+1.16553351e-01f,-1.71021074e-01f,-1.31450325e-01f,
+5.65675944e-02f,+5.23731858e-02f,-1.29259020e-01f,-1.21940821e-02f,+2.17196867e-01f,
-1.47864997e-01f,-1.44940913e-02f,+1.19927421e-01f,-9.64723527e-03f,+1.02831885e-01f,
-2.23411098e-01f,-1.89813212e-01f,-2.48785317e-02f,+1.29133537e-01f,-4.01700586e-02f,
-1.55803397e-01f,+1.45788983e-01f,-1.10319361e-01f,-1.83582023e-01f,-1.43852443e-01f,
-1.87873602e-01f,-1.82279736e-01f,+8.58996660e-02f,+1.28137469e-02f,-1.19401686e-01f,
+6.01519495e-02f,+1.87003925e-01f,-2.24343076e-01f,-1.83297217e-01f,-2.76046246e-02f,
+1.10272750e-01f,+1.15555331e-01f,+1.25522539e-01f,-1.16529331e-01f,+2.43251771e-02f,
-1.46355584e-01f,+1.31256148e-01f,-1.75416201e-01f,-1.60666019e-01f,-2.25182354e-01f,
+8.68443102e-02f,-6.17654026e-02f,-2.24746406e-01f,+5.44239730e-02f,+1.87909707e-01f,
+1.36816666e-01f,-1.37095228e-01f,+5.64471632e-02f,+1.36431381e-01f,+8.43117684e-02f,
+1.37240142e-02f,+3.76056880e-02f,+1.73848867e-02f,+2.75507569e-04f,-1.94530442e-01f,
+5.47944009e-03f,-2.12291360e-01f,-1.69091210e-01f,+1.77828386e-01f,-1.26286119e-01f,
-1.78524852e-01f,-4.27621603e-03f,-1.26983449e-01f,-1.79332614e-01f,-1.81375548e-01f,
+1.93656430e-01f,-2.10243285e-01f,-5.34252673e-02f,+1.21638730e-01f,-1.24640122e-01f,
+2.16184035e-01f,-1.80776879e-01f,-5.61497211e-02f,-2.28886977e-01f,+1.90486208e-01f,
-1.62834197e-01f,-1.42860398e-01f,-1.45177901e-01f,-1.70708209e-01f,+6.17782623e-02f,
-6.94048852e-02f,-1.40181273e-01f,+7.31093436e-02f,+9.34217125e-02f,-1.25786364e-01f,
-1.15296185e-01f,-1.64085716e-01f,-1.13796502e-01f,+1.78754404e-01f,-3.01034153e-02f,
+7.64753968e-02f,+1.96125731e-01f,+1.16883665e-02f,-2.08434314e-02f,-1.59197345e-01f,
+2.27898821e-01f,+1.21430233e-01f,+8.24599415e-02f,-1.97974429e-01f,+3.45397741e-02f,
-1.21387020e-01f,+1.34584472e-01f,+1.11610368e-01f,-9.75410491e-02f,+1.62641510e-01f,
+1.58351064e-02f,-2.11474687e-01f,+1.24294177e-01f,-3.12039107e-02f,-1.90803275e-01f,
+5.24270386e-02f,+6.19244725e-02f,-1.69315904e-01f,+2.14966819e-01f,-7.11168945e-02f,
-1.33431733e-01f,-1.65833116e-01f,-1.93992987e-01f,+8.20689350e-02f,-1.00937486e-03f,
+1.00657791e-02f,+6.20559603e-02f,-2.01751530e-01f,+1.20224014e-01f,+1.06648490e-01f,
-2.22056195e-01f,-1.49577737e-01f,-1.34269029e-01f,-1.83762610e-02f,+1.81724831e-01f,
+6.98998421e-02f,+1.18555263e-01f,-1.78672642e-01f,-8.28793198e-02f,-1.82270005e-01f,
+1.29779890e-01f,-1.18714578e-01f,+1.49923131e-01f,+2.11666390e-01f,+1.53341755e-01f,
+1.75344333e-01f,+1.99885979e-01f,-1.64543211e-01f,-4.52204496e-02f,+7.21816272e-02f,
+1.23707429e-01f,-2.48031616e-02f,-7.35489428e-02f,-1.38097852e-02f,+1.72396973e-01f,
-1.74147934e-01f,-1.98790297e-01f,-1.34877861e-03f,+1.70370683e-01f,+5.81861883e-02f,
-1.55169249e-01f,+8.45995396e-02f,-1.15346454e-01f,-1.27642453e-02f,+1.21790513e-01f,
+1.03584692e-01f,-1.07931241e-01f,-2.26802677e-02f,-1.06187552e-01f,+2.19221637e-01f,
-1.39281303e-01f,-2.27061465e-01f,-1.51255935e-01f,-1.26521528e-01f,-1.16831474e-01f,
+1.85636580e-02f,-2.21611783e-01f,-2.83269584e-02f,+1.01918682e-01f,-1.65334731e-01f,
+4.60695773e-02f,-6.58554286e-02f,+2.04795912e-01f,+1.99283436e-01f,-7.38531053e-02f,
-2.27057964e-01f,+1.92579821e-01f,+9.06507820e-02f,+1.63123861e-01f,-1.03153586e-02f,
-1.34540319e-01f,-9.51987654e-02f,+1.24248937e-01f,+1.13647953e-01f,-4.85132635e-02f,
-1.94114476e-01f,+1.93370029e-01f,+1.83286265e-01f,-1.21725157e-01f,-1.54227257e-01f,
+1.99239805e-01f,+1.78403407e-02f,-2.27405071e-01f,+1.64408222e-01f,-7.89512992e-02f,
-1.90361887e-02f,+9.40670818e-02f,+1.69669390e-02f,+2.21629784e-01f,-1.32567197e-01f,
+1.18472889e-01f,-1.60454556e-01f,+5.56875765e-03f,-1.62698880e-01f,-1.26568019e-01f,
-9.14469957e-02f,-3.75445485e-02f,+3.97528857e-02f,+1.06956765e-01f,+1.98223248e-01f,
-1.31787002e-01f,+1.58986226e-01f,+7.16320425e-02f,-1.57419354e-01f,+5.88809103e-02f,
+9.66405123e-02f,+2.62201279e-02f,+1.11470118e-01f,+1.90022424e-01f,+1.51584551e-01f,
+3.90203744e-02f,-9.56158340e-02f,-5.66014051e-02f,-2.53050029e-02f,+4.97856736e-03f,
+1.04252994e-03f,-1.71760023e-02f,-1.98622316e-01f,-1.96637914e-01f,+5.86269945e-02f,
+1.45807043e-01f,+1.76499471e-01f,-3.10410261e-02f,-1.88244998e-01f,+1.29590377e-01f,
+1.97988376e-01f,-6.24631196e-02f,+1.07886866e-01f,-3.57767493e-02f,+1.74327567e-01f,
-2.28067666e-01f,+6.29899651e-02f,+1.55570015e-01f,+1.27098814e-01f,+2.19654277e-01f,
-1.05815344e-01f,-2.01628417e-01f,-1.76602036e-01f,-6.03993982e-02f,-1.86082438e-01f,
-1.04000762e-01f,-6.92803264e-02f,-6.00918978e-02f,-1.36410266e-01f,-1.64318979e-02f,
-9.06042755e-02f,+2.26003066e-01f,+1.22963712e-01f,-1.31764412e-02f,+1.42200544e-01f,
-2.22191021e-01f,-1.01475075e-01f,-1.69761240e-01f,-2.23132581e-01f,-1.37277365e-01f,
+2.10141763e-01f,+1.40539721e-01f,+1.99210599e-01f,+5.89160174e-02f,+3.30601484e-02f,
-2.28284106e-01f,-1.69043243e-01f,+2.31800824e-02f,-1.79106295e-02f,-1.48730814e-01f,
-2.12489098e-01f,-6.81327283e-03f,+2.03852937e-01f,-2.35483646e-02f,+1.79795519e-01f,
-5.54070473e-02f,-2.09435478e-01f,-2.87399739e-02f,+1.96567580e-01f,-1.40293300e-01f,
-1.40320599e-01f,+1.91224292e-01f,+2.20353708e-01f,-2.27689281e-01f,+1.27665088e-01f,
-1.32751584e-01f,-1.84403077e-01f,+3.88899297e-02f,-2.17084467e-01f,-1.02434471e-01f,
+1.29262879e-01f,-1.94680750e-01f,-1.43962979e-01f,-1.19000919e-01f,+1.72200456e-01f,
-1.38063088e-01f,+1.20755121e-01f,-1.62762269e-01f,+6.05308861e-02f,-2.25578681e-01f,
+9.82736200e-02f,-5.84944189e-02f,-6.65611774e-02f,+1.47422060e-01f,-4.81179655e-02f,
+1.95810452e-01f,+7.84073323e-02f,-1.37506336e-01f,+1.41625062e-01f,-1.77476734e-01f,
-1.48688197e-01f,+1.91339865e-01f,+2.07800910e-01f,-1.41512930e-01f,-1.54719949e-01f,
+2.60377973e-02f,-1.85572878e-01f,+8.18567127e-02f,-4.34195995e-02f,+1.30033359e-01f,
+1.63431272e-01f,+2.04132929e-01f,+2.24901810e-01f,+1.91260532e-01f,-9.95409936e-02f,
-1.54386014e-02f,-2.03928143e-01f,+5.62643260e-02f,-1.82413146e-01f,+2.04434916e-01f,
+8.71471018e-02f,-1.49069369e-01f,+1.81768581e-01f,+2.84358859e-03f,+4.63093668e-02f,
+4.98963147e-02f,+3.68763059e-02f,+6.11898452e-02f,+1.14546195e-01f,-5.96866459e-02f,
-4.01983410e-02f,+5.76846451e-02f,+5.45008332e-02f,-7.51946867e-03f,+1.60078779e-01f,
-7.01418668e-02f,-9.97685343e-02f,+1.66415587e-01f,-1.06387526e-01f,-8.29673707e-02f,
-3.94713581e-02f,+8.73994082e-02f,-1.62172034e-01f,+5.96233755e-02f,-5.67908883e-02f,
+2.04559848e-01f,+7.09761530e-02f,+4.11128253e-02f,+1.01656124e-01f,-2.26967111e-01f,
-2.24538624e-01f,+1.60317823e-01f,-1.12885140e-01f,-1.90473780e-01f,-2.14345887e-01f,
+1.96094662e-02f,-1.54709220e-02f,+1.23609915e-01f,-1.45166814e-01f,+9.61428434e-02f,
-1.37523726e-01f,-1.28945321e-01f,+2.23241106e-01f,-1.22854762e-01f,+1.14999786e-01f,
+1.51278809e-01f,-9.95305479e-02f,-1.92072406e-01f,-1.40859634e-01f,-2.14001834e-02f,
+2.10150406e-01f,+2.75209397e-02f,-1.35429054e-01f,+3.96989435e-02f,-1.04242474e-01f,
+1.82231829e-01f,-5.94130009e-02f,+7.31085092e-02f,+4.76156324e-02f,-1.03487268e-01f,
+8.00653845e-02f,+1.05138123e-03f,-1.25970572e-01f,-8.86828303e-02f,+1.03504226e-01f,
-1.22652330e-01f,-2.05650777e-02f,+3.21433395e-02f,+1.14346638e-01f,+6.30963892e-02f,
+1.17954239e-01f,-1.54767543e-01f,+1.99379876e-01f,+1.64430305e-01f,-2.09559143e-01f,
+1.03228882e-01f,-1.27840400e-01f,+1.27772287e-01f,+1.86213925e-01f,+8.06720555e-03f,
-5.89686930e-02f,+2.26426169e-01f,+2.03857139e-01f,+1.33726761e-01f,+1.38957754e-01f,
-2.13659555e-02f,-1.42515361e-01f,-1.99971139e-01f,+5.93460947e-02f,-4.11173701e-03f,
-1.87579706e-01f,+1.43422678e-01f,+1.02011815e-01f,-9.72582698e-02f,-2.28885442e-01f,
+1.75502881e-01f,-1.26513332e-01f,+1.27637342e-01f,+2.13180915e-01f,-2.07617015e-01f,
-2.19276279e-01f,-2.93328911e-02f,+1.08079612e-02f,+2.26850286e-01f,-2.20305845e-01f,
+2.45605260e-02f,+9.56603140e-02f,+2.23350659e-01f,+2.85790116e-02f,+2.19772056e-01f,
-1.98774919e-01f,+1.25482008e-01f,-5.32601923e-02f,-1.72368586e-01f,+1.21127054e-01f,
+2.02589169e-01f,+2.18008414e-01f,+1.25161991e-01f,-2.06328526e-01f,-6.75053149e-02f,
-1.69238612e-01f,-2.07925349e-01f,-6.36218190e-02f,-1.91989869e-01f,-2.23732829e-01f,
-3.48239243e-02f,+3.27027589e-02f,-1.06209047e-01f,-1.19257830e-01f,-1.28398299e-01f,
+1.04677811e-01f,-2.22450450e-01f,+2.22860858e-01f,+2.25730732e-01f,+7.06643313e-02f,
-1.89786300e-01f,-4.17903960e-02f,-7.33973235e-02f,+9.57443565e-02f,-1.69115767e-01f,
+8.88608545e-02f,-1.51677489e-01f,-8.17978978e-02f,+2.55383402e-02f,+8.05490166e-02f,
-7.33568370e-02f,-1.55492827e-01f,+1.46100268e-01f,+1.06730983e-01f,+1.62499681e-01f,
-3.61157507e-02f,-2.50972062e-02f,+1.79892376e-01f,-7.00239390e-02f,-1.08926296e-02f,
-6.81309253e-02f,-1.94877163e-01f,+9.57363695e-02f,-2.41501927e-02f,-1.22621201e-01f,
-1.17670201e-01f,-1.99682504e-01f,-1.74909160e-01f,+1.23433903e-01f,-1.08079247e-01f,
+4.77934927e-02f,+7.63801783e-02f,+6.47442490e-02f,+1.13025889e-01f,+2.08609268e-01f,
-1.07517295e-01f,+1.30553022e-01f,+2.59610862e-02f,+7.82625526e-02f,-1.17729165e-01f,
-1.93842679e-01f,-8.34802687e-02f,+1.00459263e-01f,-4.26766574e-02f,-1.39324516e-01f,
+1.30572006e-01f,-9.40617770e-02f,+2.28322223e-01f,+7.07926005e-02f,+4.74057049e-02f,
+1.14246920e-01f,-2.01456279e-01f,-2.66012549e-03f,-4.84546274e-02f,-1.32027268e-01f,
+2.23428458e-02f,-2.06667691e-01f,-1.21303171e-01f,-1.26989961e-01f,-1.54691845e-01f,
-2.17692360e-01f,-2.09609300e-01f,+1.09756246e-01f,+4.20784801e-02f,+2.20202520e-01f,
+7.36197680e-02f,-1.50756285e-01f,+1.52008384e-02f,+6.54741973e-02f,+1.98369846e-01f,
+1.61206320e-01f,-3.46204638e-03f,-2.04897478e-01f,+1.23672798e-01f,+1.69923410e-01f,
+1.22244462e-01f,-1.17260627e-01f,-1.58445477e-01f,-4.58155572e-02f,-1.66737646e-01f,
+1.13292351e-01f,-1.21848278e-01f,+9.54352319e-03f,-1.17087290e-01f,+1.37977645e-01f,
-2.17958689e-02f,-2.10874557e-01f,-1.74051940e-01f,-1.42131284e-01f,+1.20837048e-01f,
+8.79520625e-02f,+1.66874662e-01f,+1.79213211e-01f,+9.96632874e-03f,-4.32449579e-02f,
-1.31587833e-02f,+7.44457096e-02f,+2.00510904e-01f,-9.74838436e-02f,-6.61862344e-02f,
+1.29899517e-01f,-1.80297643e-02f,+1.47367641e-01f,+1.30962864e-01f,+1.76015779e-01f,
+7.15595484e-03f,-1.61949247e-01f,-1.71100825e-01f,+1.87841222e-01f,-1.16920300e-01f,
+3.18412334e-02f,+1.52678058e-01f,+1.37512878e-01f,-1.02683887e-01f,+1.11870959e-01f,
+1.39944270e-01f,-1.60899997e-01f,-1.78719997e-01f,-1.36197150e-01f,-1.27899185e-01f,
+8.69065374e-02f,+3.13728601e-02f,-9.26578194e-02f,+3.18496674e-02f,-3.42679769e-02f,
-1.52174473e-01f,-1.95401222e-01f,+6.12130761e-03f,-6.84993118e-02f,+2.06458703e-01f,
+1.26358703e-01f,-1.75555125e-01f,-1.51653379e-01f,+3.14278454e-02f,-2.11435556e-02f,
-7.46202320e-02f,+1.98145971e-01f,-5.52767664e-02f,-1.76163733e-01f,-5.76003492e-02f,
-2.19668627e-01f,+2.24162534e-01f,+1.12426952e-01f,-8.99141133e-02f,-2.17569351e-01f,
+1.48389637e-02f,-1.95076749e-01f,-1.37479469e-01f,-1.65573806e-02f,-2.11476877e-01f,
-1.90811872e-01f,+5.18665165e-02f,+6.44889921e-02f,+2.11712405e-01f,-6.72974586e-02f,
-5.54612577e-02f,-6.34389669e-02f,+3.62859666e-03f,-3.88001651e-02f,+1.34688392e-01f,
+6.20907992e-02f,-8.08168054e-02f,+3.89681906e-02f,-5.62864542e-03f,+2.28900418e-01f,
-2.27558270e-01f,+2.97919065e-02f,+4.62808460e-02f,-7.43097067e-03f,-1.23999462e-01f,
+8.05006474e-02f,+1.36082247e-01f,+1.37876406e-01f,+1.06936857e-01f,+7.22488910e-02f,
+1.94332898e-02f,-5.70156276e-02f,-1.07142456e-01f,+2.43506581e-02f,+1.88644812e-01f,
-3.29757631e-02f,+1.80651620e-01f,+1.56621948e-01f,+1.13873079e-01f,+5.45677096e-02f,
-1.91885352e-01f,+8.06975514e-02f,+4.80447263e-02f,+1.49305627e-01f,+1.88239068e-02f,
-1.53267860e-01f,+1.69197157e-01f,+6.21128827e-02f,-1.64668679e-01f,+9.82169956e-02f,
+9.12679732e-03f,-1.09416917e-01f,+3.30892652e-02f,-1.88371181e-01f,-1.03101611e-01f,
-6.33013248e-03f,+1.02657974e-02f,+1.20984778e-01f,+1.97783872e-01f,-3.00234407e-02f,
-1.46537900e-01f,-1.44569725e-01f,-1.27817154e-01f,+1.60719290e-01f,+7.59207755e-02f,
-2.16163635e-01f,+2.26645753e-01f,-2.71903574e-02f,-1.73067898e-01f,+1.99317083e-01f,
-1.48136631e-01f,-6.39818907e-02f,-5.05899936e-02f,-1.60156637e-02f,-1.65500954e-01f,
-1.58331543e-01f,+2.21038565e-01f,+2.22568378e-01f,+8.39094669e-02f,-5.51362485e-02f,
+2.13807061e-01f,+9.08273906e-02f,-2.15087473e-01f,+1.31900206e-01f,+1.17372528e-01f,
+1.48495063e-01f,+1.45162210e-01f,+9.51476246e-02f,+8.04210156e-02f,-2.15598404e-01f,
-9.44043994e-02f,-1.62680283e-01f,-2.05118358e-01f,-1.36900842e-01f,-6.22769296e-02f,
+1.43039241e-01f,-6.14691079e-02f,-1.96227580e-01f,-1.71884894e-03f,-6.25573099e-02f,
-1.35852069e-01f,+2.01387092e-01f,-1.41169995e-01f,+8.72148573e-03f,+2.84868330e-02f,
+2.02794388e-01f,-1.33707404e-01f,-5.56492954e-02f,-1.18281543e-01f,-7.27888197e-02f,
-2.16350317e-01f,+4.38133031e-02f,-6.11285716e-02f,+2.06219003e-01f,+8.56763572e-02f,
-8.44587386e-03f,+1.96547821e-01f,+2.27543131e-01f,-1.19700603e-01f,+1.89116433e-01f,
+1.36168048e-01f,-1.83430567e-01f,+3.29453498e-02f,-2.25929290e-01f,-2.01002628e-01f,
+1.21797428e-01f,+1.01386353e-01f,+2.06944630e-01f,-8.47652107e-02f,-1.18477523e-01f,
+1.92225888e-01f,+1.11327961e-01f,+1.34463385e-01f,-1.35890365e-01f,+3.56197357e-03f,
-2.30088830e-03f,-1.94284171e-02f,+1.12404972e-02f,+1.32287100e-01f,+1.70463279e-01f,
+1.66243687e-01f,+1.51030168e-01f,+3.23630869e-03f,-2.18547940e-01f,-7.01166689e-03f,
+1.81014493e-01f,+1.97245553e-01f,+1.06457368e-01f,+1.32214561e-01f,+1.39739946e-01f,
-1.46815032e-01f,-1.84787273e-01f,+1.29681870e-01f,-2.13739797e-01f,-1.82735473e-01f,
+1.82935104e-01f,+4.26996201e-02f,+6.51914626e-02f,+1.21560201e-01f,-1.58278316e-01f,
+2.19892994e-01f,+2.14487627e-01f,+2.06867769e-01f,-8.96613598e-02f,-1.08773246e-01f,
-9.71572995e-02f,+2.08558694e-01f,+1.47805959e-02f,-1.05989225e-01f,-2.06280991e-01f,
-4.03229892e-02f,+8.64454359e-02f,+1.27352625e-02f,+1.30358204e-01f,+6.70282394e-02f,
-2.17555344e-01f,-2.20300421e-01f,+2.19415918e-01f,-1.01338834e-01f,-2.19897032e-01f,
+1.72183290e-01f,+7.03259856e-02f,+1.86353922e-04f,-2.06489444e-01f,-5.62149286e-02f,
-1.68153808e-01f,+1.26447424e-01f,-2.02905148e-01f,+1.30912215e-02f,+1.19802162e-01f,
-5.35994768e-05f,+3.40146869e-02f,-9.00565386e-02f,+1.95246801e-01f,-1.16307586e-01f,
+2.11656615e-01f,+1.82494804e-01f,-1.90556705e-01f,+1.44792184e-01f,+2.18106851e-01f,
-1.14615485e-01f,-8.50849748e-02f,+5.30813187e-02f,+2.18193218e-01f,+7.61228055e-02f,
+2.09650844e-02f,-4.29406762e-02f,+1.67275771e-01f,+6.08052462e-02f,+7.11776763e-02f,
-4.41507995e-03f,+3.71042341e-02f,-3.21865976e-02f,+1.82904109e-01f,-1.81955814e-01f,
+8.91392678e-02f,+1.97418928e-02f,-1.89265370e-01f,+1.32752016e-01f,+1.17006406e-01f,
-1.45073876e-01f,+2.05904469e-01f,-1.84894919e-01f,+1.88475415e-01f,+1.94730356e-01f,
+1.50348842e-02f,-1.11981332e-01f,+1.97798535e-01f,+1.08885214e-01f,+2.18272522e-01f,
-4.21641469e-02f,-2.14449659e-01f,+1.04530081e-01f,+1.34527162e-01f,-4.54962254e-02f,
+1.70875028e-01f,-7.60090351e-03f,+1.67493299e-01f,-1.85426459e-01f,-1.68688312e-01f,
+1.25870362e-01f,+1.90638974e-01f,+3.03723961e-02f,-1.77597567e-01f,-2.03564018e-02f,
+1.58138409e-01f,+2.06424728e-01f,-1.02067500e-01f,+2.57181972e-02f,-8.48224163e-02f,
+2.14574203e-01f,-2.04754785e-01f,-2.27317333e-01f,+5.75157851e-02f,+1.13638535e-01f,
-8.47263783e-02f,-1.34522006e-01f,+8.29029530e-02f,-1.25159353e-01f,+1.97124436e-01f,
-9.46923345e-02f,-1.45269141e-01f,+2.23563746e-01f,+2.04281166e-01f,+1.60162002e-02f,
-7.98934549e-02f,+2.27945760e-01f,-7.17028975e-04f,-2.15514392e-01f,-1.59617633e-01f,
-1.25870377e-01f,-1.31173790e-01f,-9.03139412e-02f,-1.69352293e-02f,+2.27266148e-01f,
-2.09107235e-01f,-1.64790764e-01f,-1.94050089e-01f,+1.27274975e-01f,-2.21409619e-01f,
+1.48962721e-01f,+5.18704504e-02f,+8.01758021e-02f,+5.08070737e-02f,-3.76200825e-02f,
+4.19794768e-02f,+5.22038192e-02f,-1.55292854e-01f,+4.31125909e-02f,-1.10889636e-01f,
-1.65016055e-01f,-5.31437993e-02f,+6.18643016e-02f,+6.87744468e-02f,-1.05940431e-01f,
-1.95549116e-01f,+6.35225028e-02f,+2.09591791e-01f,+3.74155194e-02f,+2.26295277e-01f,
+1.12132683e-01f,+1.06951013e-01f,-4.61466908e-02f,-5.25218397e-02f,+6.82508200e-02f,
-2.08906934e-01f,-1.70666963e-01f,+8.29889327e-02f,+3.78073603e-02f,-5.91985285e-02f,
+1.32725760e-01f,-5.82500845e-02f,+1.96074590e-01f,-1.73188508e-01f,+2.03257725e-01f,
+2.28341207e-01f,+1.58644840e-01f,-1.97644055e-01f,+1.34676144e-01f,+1.00257397e-02f,
+1.77856013e-01f,+1.53801873e-01f,+1.18722126e-01f,+7.02811331e-02f,-1.58746988e-02f,
+5.46319336e-02f,-2.12683871e-01f,-1.24178484e-01f,-1.44825816e-01f,-1.50511801e-01f,
+1.23711690e-01f,-1.76727772e-05f,+3.33061963e-02f,-1.69338867e-01f,+1.67830661e-01f,
-1.17548719e-01f,+2.00934693e-01f,+5.98327368e-02f,-4.55795377e-02f,+1.59765586e-01f,
+2.17948392e-01f,-7.85952806e-02f,-1.42255336e-01f,+1.93841085e-01f,-1.52990222e-01f,
+5.64374030e-03f,+3.46928686e-02f,+2.24573180e-01f,-9.96433347e-02f,-2.19182029e-01f,
+9.83863026e-02f,-7.49880224e-02f,+1.82334110e-01f,+1.00028113e-01f,-2.10869953e-01f,
+1.10680923e-01f,-1.50045887e-01f,-1.84830308e-01f,-1.92381725e-01f,+4.87386733e-02f,
+6.11609370e-02f,+8.84227008e-02f,-2.10136473e-01f,-7.02992231e-02f,+1.70603141e-01f,
+2.08621755e-01f,+1.41760856e-02f,+1.08775496e-03f,-7.11421669e-03f,+1.09363601e-01f,
-8.21657330e-02f,+5.41281700e-03f,-1.97387189e-02f,+6.79645985e-02f,-2.24329457e-01f,
+9.85840708e-02f,-1.68894947e-01f,+1.66872814e-01f,+1.51787117e-01f,+1.40093490e-01f,
+1.58435509e-01f,-4.59331572e-02f,-1.28686875e-01f,-1.09501585e-01f,+2.16836587e-01f,
-1.60094425e-01f,+1.86553553e-01f,-1.20686144e-02f,+1.87348023e-01f,+1.48351803e-01f,
+2.69439369e-02f,-1.52180493e-01f,+8.85787457e-02f,-7.94594884e-02f,+1.85852394e-01f,
+1.36373177e-01f,-7.30042607e-02f,+8.85938853e-02f,+8.61759037e-02f,-1.60190642e-01f,
-7.50180483e-02f,-1.85469881e-01f,+1.42632917e-01f,-4.25768942e-02f,-2.21413776e-01f,
+2.88076848e-02f,+7.27720708e-02f,+5.26049286e-02f,-3.49323899e-02f,+2.77032107e-02f,
+1.20118752e-01f,-1.89405829e-02f,-5.62513024e-02f,-6.46541715e-02f,-4.98370826e-03f,
-3.93802822e-02f,-1.76974028e-01f,-2.66860425e-03f,-5.38907349e-02f,-1.97237715e-01f,
-1.26104146e-01f,-1.22169681e-01f,-1.70157090e-01f,+4.68215495e-02f,+1.35738567e-01f,
-1.11553438e-01f,-2.30608433e-02f,-9.40345377e-02f,-1.88715383e-01f,-9.04725641e-02f,
+1.16509631e-01f,+1.36106238e-01f,-8.45521688e-02f,-4.68035489e-02f,+2.09819868e-01f,
-9.07975435e-03f,+2.03011036e-02f,+1.10710010e-01f,+2.25181207e-01f,-2.23772049e-01f,
+2.86962837e-02f,+3.58811170e-02f,-1.28906369e-01f,+1.06922850e-01f,-6.38906062e-02f,
+1.87394574e-01f,-5.82864583e-02f,+1.94928303e-01f,+5.27612418e-02f,-1.86260849e-01f,
+1.03872076e-01f,+1.55409470e-01f,-1.76338553e-01f,+4.33735549e-03f,+2.16010168e-01f,
+2.14378223e-01f,-5.93345612e-02f,+1.40666351e-01f,+1.57826409e-01f,+1.96911678e-01f,
+4.70544845e-02f,-2.28099778e-01f,+1.37009844e-01f,+3.03264707e-02f,+1.44826099e-01f,
-1.17222339e-01f,+8.13026875e-02f,-5.75495809e-02f,-3.39349806e-02f,+2.25058571e-01f,
-1.90117925e-01f,+1.94108889e-01f,+1.63471028e-01f,-1.74575284e-01f,-1.63882732e-01f,
-2.91838944e-02f,-3.50272357e-02f,+1.25125065e-01f,-2.20941961e-01f,-1.97451308e-01f,
-1.82355225e-01f,-1.41616464e-02f,+1.32650778e-01f,+1.09452084e-01f,-4.89699841e-02f,
-7.47698247e-02f,-1.17204890e-01f,+1.60584524e-01f,+5.36810309e-02f,-8.30560923e-02f,
+2.13185385e-01f,+3.69390100e-02f,-9.81502235e-02f,-1.27401888e-01f,-1.95054814e-01f,
+2.01189086e-01f,-1.43729210e-01f,+1.95282891e-01f,+1.99015692e-01f,-8.16918463e-02f,
+1.80160627e-01f,-1.50340587e-01f,+2.41176933e-02f,-3.28938812e-02f,+1.22504428e-01f,
-2.07860425e-01f,+9.84077901e-02f,+4.40212041e-02f,-7.38097727e-03f,-3.14276814e-02f,
+1.28181145e-01f,+5.01347929e-02f,-1.64826423e-01f,+3.42398882e-04f,+1.40753835e-02f,
+2.01265886e-01f,+2.94891149e-02f,-3.08593810e-02f,+6.67980760e-02f,-4.18093204e-02f,
-1.34269297e-01f,+1.24652609e-01f,+1.40793666e-01f,-6.67163581e-02f,+9.85765457e-03f,
+1.04346827e-01f,-5.57408631e-02f,+1.52157947e-01f,-2.28555650e-02f,-2.24383920e-02f,
-1.47897869e-01f,-9.93493944e-02f,+6.59044236e-02f,+5.76958507e-02f,+1.30093992e-02f,
-2.00901821e-01f,+2.08043173e-01f,+7.16976076e-02f,+1.74188808e-01f,+1.03597805e-01f,
-2.03140616e-01f,-3.52460146e-02f,+9.66819972e-02f,-1.34633422e-01f,-1.28269374e-01f,
+1.58818468e-01f,-1.24038570e-01f,-5.33105731e-02f,-8.19776356e-02f,-5.32301068e-02f,
+1.29238382e-01f,-1.09639764e-03f,+8.83037299e-02f,-1.53812379e-01f,+2.14675561e-01f,
-1.03209034e-01f,+1.88607350e-01f,-1.84210479e-01f,+1.02337822e-01f,-8.83353949e-02f,
+1.56197324e-01f,+3.97621244e-02f,-1.82038635e-01f,+1.20816216e-01f,-1.74340472e-01f,
-8.57475102e-02f,-1.39259577e-01f,+1.09917834e-01f,-1.05318747e-01f,-1.61830395e-01f,
-7.44620562e-02f,-1.45807147e-01f,-1.72744200e-01f,+1.91777810e-01f,-7.10651577e-02f,
-1.10378541e-01f,+1.12438753e-01f,+1.32046655e-01f,-2.15270430e-01f,+2.24173471e-01f,
+5.20152897e-02f,-1.07708402e-01f,-1.28113106e-01f,-1.05709009e-01f,-1.20704785e-01f,
-8.81495923e-02f,+1.26436099e-01f,+1.27083227e-01f,-1.01748571e-01f,-5.55484444e-02f,
-4.15959507e-02f,+2.25822672e-01f,+1.76234409e-01f,+2.20059708e-01f,+4.19411510e-02f,
+1.96439430e-01f,-8.58311504e-02f,-4.09890860e-02f,+2.09495142e-01f,-9.46755707e-03f,
-2.31461674e-02f,-1.24150366e-01f,+1.57437697e-01f,-2.69104242e-02f,+1.87027439e-01f,
+9.59675461e-02f,+6.63514286e-02f,-5.96182793e-02f,-1.06994607e-01f,+7.06608444e-02f,
+4.32641655e-02f,-2.20165700e-02f,-3.80084366e-02f,-2.11720929e-01f,+1.56676248e-01f,
+1.77212059e-03f,+2.12370232e-01f,-6.13441914e-02f,-3.44071239e-02f,-1.17050864e-01f,
-1.77029043e-01f,+5.14719337e-02f,+2.15227887e-01f,+4.08763140e-02f,-3.40345949e-02f,
+5.89821488e-02f,-1.31606609e-01f,+1.20969728e-01f,-1.56223953e-01f,+1.89158663e-01f,
+8.59318823e-02f,-1.38583913e-01f,-3.83287966e-02f,+7.02402741e-02f,+1.76356122e-01f,
-2.08252102e-01f,-2.29111448e-01f,+1.51688114e-01f,-1.47322193e-01f,+1.57689795e-01f,
-1.78621113e-02f,-5.99125475e-02f,-1.53778240e-01f,+5.67629784e-02f,+2.06460789e-01f,
+6.90878481e-02f,-4.23523784e-03f,+1.98972270e-01f,+4.02732044e-02f,-1.76982880e-01f,
+2.38895565e-02f,+1.36812493e-01f,+1.17482796e-01f,-1.86592326e-01f,-1.90963864e-01f,
-1.55300617e-01f,+7.18594044e-02f,-3.72965485e-02f,-8.94011110e-02f,+1.41501233e-01f,
+1.31224170e-01f,-1.06813945e-01f,-1.95947856e-01f,-4.79317755e-02f,-1.44350454e-01f,
-1.16523586e-01f,-1.08004645e-01f,+2.11845592e-01f,+1.05805844e-02f,+1.84439555e-01f,
+1.79231867e-01f,+1.08582124e-01f,+5.96686453e-02f,+5.30957133e-02f,+1.28078654e-01f,
+3.31296176e-02f,+2.01874599e-01f,+1.13554791e-01f,-1.82340726e-01f,-1.01660341e-01f,
-2.55357772e-02f,-1.36332482e-01f,-2.07690477e-01f,-2.23263636e-01f,-1.38838440e-02f,
+4.24520224e-02f,+2.02530131e-01f,+1.19792119e-01f,-1.08645856e-01f,-8.31927210e-02f,
-3.45942527e-02f,-1.30911350e-01f,-4.91200686e-02f,+2.09202915e-02f,-8.02522749e-02f,
-9.62814391e-02f,-1.52804583e-01f,+2.07822666e-01f,-3.37168574e-03f,-1.97308883e-01f,
-4.15889025e-02f,+2.03585371e-01f,-1.29784644e-03f,+6.06652945e-02f,+1.00125477e-01f,
+1.10781893e-01f,-7.64379799e-02f,-1.84671253e-01f,+1.99307516e-01f,+5.17435521e-02f,
-9.69750583e-02f,-1.63420707e-01f,+1.07361391e-01f,-2.54839659e-04f,-2.00340897e-01f,
}; 
k2c_tensor dense_kernel = {&dense_kernel_array[0],2,1400,{ 14,100,  1,  1,  1}}; 
float dense_bias_array[100] = {0}; 
k2c_tensor dense_bias = {&dense_bias_array[0],1,100,{100,  1,  1,  1,  1}}; 
float dense_fwork[1414] = {0}; 

 
float dense_1_output_array[100] = {0}; 
k2c_tensor dense_1_output = {&dense_1_output_array[0],1,100,{100,  1,  1,  1,  1}}; 
float dense_1_kernel_array[10000] = {
-6.70623034e-02f,+1.66123152e-01f,+1.31840318e-01f,+1.20252311e-01f,-1.08414598e-01f,
-1.70423508e-01f,+1.25512600e-01f,+1.45523012e-01f,-5.42495251e-02f,-9.71282199e-02f,
+1.63824677e-01f,+5.13331294e-02f,+2.42137462e-02f,-4.64483500e-02f,-9.77054238e-04f,
+1.27635360e-01f,-1.59356534e-01f,-7.73499534e-02f,+8.86536241e-02f,+1.45339221e-01f,
+1.10102832e-01f,+4.07163501e-02f,-8.41994584e-03f,+1.67557538e-01f,+8.68088603e-02f,
-6.11609966e-02f,-1.61695495e-01f,+7.17918128e-02f,-1.15818530e-02f,+6.88069910e-02f,
+5.71748465e-02f,-1.76387578e-02f,+4.36564088e-02f,+1.26708090e-01f,+2.11858153e-02f,
+1.43640637e-01f,-1.48482367e-01f,+1.31441057e-01f,-3.01270187e-03f,-1.63264513e-01f,
+1.56299472e-02f,+2.76749134e-02f,+8.31601024e-03f,-1.56637236e-01f,-1.50255039e-01f,
+1.26387924e-01f,+1.49227232e-01f,-3.12777758e-02f,+7.19304830e-02f,+5.86563051e-02f,
-1.84211284e-02f,+4.67343181e-02f,-5.43195605e-02f,-1.61198422e-01f,-1.30966097e-01f,
-1.29557788e-01f,+1.48094386e-01f,-1.32879376e-01f,+1.52514338e-01f,+1.72799677e-01f,
+1.70305252e-01f,+1.69077694e-01f,-7.33324960e-02f,+1.24663651e-01f,-2.67135203e-02f,
-4.64658588e-02f,+7.40960836e-02f,-6.00246340e-02f,-1.81649029e-02f,+1.24887377e-02f,
-1.26621410e-01f,-1.51787996e-02f,+7.27061331e-02f,+6.11535609e-02f,-1.41091168e-01f,
+4.94471639e-02f,+1.67381018e-02f,-9.28482860e-02f,+1.00946009e-01f,-1.11601278e-01f,
+5.23238778e-02f,+1.04960233e-01f,+8.31690133e-02f,+4.21608984e-02f,-1.56856835e-01f,
+1.55506939e-01f,-2.90615708e-02f,-5.83114102e-02f,-1.01701304e-01f,-9.77489352e-03f,
-1.60220802e-01f,+1.58225089e-01f,-1.29387572e-01f,+1.22643322e-01f,-3.17948759e-02f,
+2.62096524e-03f,+6.62031174e-02f,+6.03893548e-02f,+3.31261903e-02f,+1.66576385e-01f,
+1.69224113e-01f,+1.23662949e-02f,-2.14785337e-03f,-8.52976516e-02f,-1.11731559e-01f,
+8.60956311e-02f,-5.17512858e-03f,+1.04159743e-01f,+4.65558320e-02f,+4.66828644e-02f,
+9.87508893e-02f,+2.08742023e-02f,+6.96176291e-03f,-1.50281593e-01f,-5.84838614e-02f,
-1.33525699e-01f,-1.63824975e-01f,+1.61100835e-01f,-1.98293924e-02f,+8.30726027e-02f,
-3.47252190e-03f,+1.60065413e-01f,+3.28355879e-02f,-8.53861049e-02f,+1.37994498e-01f,
-1.69004560e-01f,+1.56309009e-01f,+2.11741030e-03f,+6.46412820e-02f,-1.35381296e-01f,
+8.00882578e-02f,-1.85545236e-02f,+1.33808106e-01f,-1.50335163e-01f,-1.31573543e-01f,
+6.48121238e-02f,+1.59289062e-01f,+8.91414583e-02f,-5.89348078e-02f,-8.48986208e-03f,
-1.33695662e-01f,-1.09956771e-01f,-1.19303018e-01f,+3.45531851e-02f,-6.13650754e-02f,
-1.16949014e-01f,-1.13195270e-01f,-9.24106389e-02f,+2.75517404e-02f,+1.39568388e-01f,
-1.24535792e-01f,-6.57470450e-02f,-2.95820981e-02f,+1.01233840e-01f,-3.71214747e-02f,
+7.66912103e-03f,-1.56284571e-01f,+1.12211108e-01f,-1.08092450e-01f,+1.16181493e-01f,
-1.40754893e-01f,+8.16994309e-02f,-1.70376152e-02f,-8.27901587e-02f,+2.21940428e-02f,
-1.68806225e-01f,-3.35464925e-02f,-2.00485885e-02f,-9.56050381e-02f,-1.73155025e-01f,
-1.07455015e-01f,-1.45300314e-01f,-8.81103128e-02f,+1.66006058e-01f,+9.97713506e-02f,
+1.23467654e-01f,-9.61302742e-02f,+6.50452375e-02f,-9.14939269e-02f,-1.29439279e-01f,
+5.68944812e-02f,-7.90414512e-02f,-7.58274794e-02f,-2.89186090e-02f,-5.45269847e-02f,
+7.66003132e-03f,-5.51137477e-02f,-5.32904789e-02f,+1.16132289e-01f,+5.68259358e-02f,
-1.01037189e-01f,-6.93996176e-02f,-1.42913237e-01f,+1.41518980e-01f,-2.42569894e-02f,
-1.01641752e-01f,-3.01763415e-02f,-1.31682694e-01f,-1.23586953e-01f,+5.49401939e-02f,
+2.99269557e-02f,+1.41162634e-01f,-1.53895766e-01f,-1.65305078e-01f,+2.23623663e-02f,
+1.60282195e-01f,+1.20820045e-01f,+1.68939263e-01f,-3.09021026e-02f,+1.29862130e-02f,
+9.35507715e-02f,-5.68428263e-02f,-2.28291601e-02f,+1.05636030e-01f,-1.86223686e-02f,
-1.49261504e-02f,-7.42290169e-02f,-8.41040909e-02f,+1.36502802e-01f,-1.12681188e-01f,
-4.25465554e-02f,+4.56654280e-02f,+1.24162316e-01f,+9.73781049e-02f,-3.88654172e-02f,
-1.05010256e-01f,-8.10083449e-02f,+1.19305789e-01f,-3.88091654e-02f,+1.39251649e-01f,
-1.50550142e-01f,-8.76089856e-02f,+9.08013582e-02f,-6.70013055e-02f,-6.35351837e-02f,
-5.96135855e-04f,-7.95862600e-02f,+2.08574831e-02f,+8.70833695e-02f,-2.75528878e-02f,
+1.44778967e-01f,-1.51937917e-01f,+4.24887240e-03f,+4.64137793e-02f,-3.96852493e-02f,
+1.26102716e-02f,+7.49146789e-02f,-4.21675444e-02f,+1.21600181e-02f,-9.96369869e-02f,
+7.09483176e-02f,-7.84530342e-02f,-9.02720392e-02f,-1.23757750e-01f,-8.54518414e-02f,
+4.33405340e-02f,+1.53655976e-01f,-1.60572633e-01f,+9.25674736e-02f,+1.24287367e-01f,
-7.90202692e-02f,+3.63968164e-02f,-1.46033347e-01f,-4.87039313e-02f,+6.25251085e-02f,
-7.45235384e-02f,-1.27731353e-01f,+3.31425369e-02f,+2.52185464e-02f,-6.57454729e-02f,
-4.01189327e-02f,-7.11213797e-02f,-1.05565920e-01f,+4.34754491e-02f,-1.72102943e-01f,
+1.65454149e-02f,+1.67776883e-01f,-1.10392019e-01f,+7.18343407e-02f,-6.82715103e-02f,
+4.13066298e-02f,+8.90285969e-02f,+1.51603341e-01f,+1.64005667e-01f,+5.89573383e-03f,
-1.27966762e-01f,-7.25233182e-02f,-2.72795558e-02f,-1.67462304e-01f,-1.23352431e-01f,
-1.03325076e-01f,-6.00818247e-02f,+1.39339745e-01f,+1.56579494e-01f,-4.29079384e-02f,
-1.71604961e-01f,-2.68481374e-02f,-9.95618105e-03f,-3.85622680e-02f,+5.66444844e-02f,
+1.50902838e-01f,+1.06065691e-01f,-1.10396527e-01f,+3.83853465e-02f,+6.04525357e-02f,
-2.78538913e-02f,+1.44149870e-01f,+2.12538242e-03f,+1.10244215e-01f,-1.79228634e-02f,
-9.20700356e-02f,+1.58283591e-01f,+1.44385219e-01f,+1.10752642e-01f,+7.85448253e-02f,
-6.35530055e-03f,-1.00785203e-01f,-2.09806561e-02f,+7.76548088e-02f,-9.55853388e-02f,
-1.32167071e-01f,-1.51666313e-01f,-1.25565827e-01f,-1.44769877e-01f,+2.08824128e-02f,
+1.10692203e-01f,-1.44371957e-01f,-1.40894562e-01f,+8.31307173e-02f,+8.59484971e-02f,
+4.92095500e-02f,+1.11602694e-02f,-1.71409309e-01f,-8.39024037e-02f,-9.19379741e-02f,
+9.86033678e-02f,-1.72921881e-01f,+1.38291389e-01f,-6.58988059e-02f,-6.04444817e-02f,
-3.06204706e-02f,+2.64512599e-02f,+1.68839753e-01f,+1.61376953e-01f,+3.42371166e-02f,
+6.07142597e-02f,+8.62519741e-02f,-1.61596060e-01f,-6.96788728e-03f,+1.11790001e-01f,
-1.53623417e-01f,-1.56218082e-01f,-9.34623107e-02f,+1.06371969e-01f,-2.72983909e-02f,
+1.47854745e-01f,-1.29472017e-01f,+9.21922028e-02f,+4.33826149e-02f,+5.94685525e-02f,
-2.51012295e-02f,-1.35583892e-01f,-1.68676928e-01f,-4.74477261e-02f,-1.16137072e-01f,
-1.28560215e-01f,+1.00897372e-01f,+6.26354814e-02f,+5.29543012e-02f,+1.11043841e-01f,
-1.29012764e-02f,+1.49820298e-01f,+9.73088741e-02f,+4.12470400e-02f,-6.69878051e-02f,
+9.99073684e-03f,+5.42680621e-02f,-1.40021905e-01f,+1.18009150e-02f,+1.27788693e-01f,
-7.67917261e-02f,+1.64415509e-01f,-8.79421607e-02f,-2.46841908e-02f,-9.93632004e-02f,
-2.53331065e-02f,+8.35105181e-02f,-9.74674970e-02f,+1.09873235e-01f,-6.90137520e-02f,
+1.33471310e-01f,-1.48504585e-01f,-1.67710692e-01f,-9.29260105e-02f,-7.05935434e-02f,
-4.97146770e-02f,-1.18270218e-02f,+1.73410773e-03f,+7.63699263e-02f,+1.33439094e-01f,
-1.07248090e-01f,+1.58805698e-02f,-7.04392642e-02f,+1.05052114e-01f,-5.47963157e-02f,
+3.18882763e-02f,+7.44146407e-02f,-6.07660040e-02f,-1.08820572e-01f,-9.85132605e-02f,
+1.25209093e-02f,+2.51189917e-02f,-1.22017063e-01f,-8.41204822e-02f,+1.59095913e-01f,
+1.12043589e-01f,+5.86408228e-02f,-1.08385652e-01f,-3.18434685e-02f,-1.12625025e-01f,
+8.44318569e-02f,-7.52863288e-03f,-6.34446219e-02f,+1.20114386e-02f,+1.16715252e-01f,
+6.83033019e-02f,-7.29245842e-02f,+1.09153837e-01f,-6.11747056e-02f,+1.42279267e-02f,
+1.30917430e-01f,+1.56271070e-01f,-1.70798093e-01f,+1.18126810e-01f,+2.92740315e-02f,
+1.44067824e-01f,-1.04908198e-02f,+1.40238136e-01f,-9.89956707e-02f,-1.15473658e-01f,
-1.60762146e-01f,+8.91969502e-02f,-1.12637207e-01f,-2.62513757e-03f,-9.87202749e-02f,
-3.28667313e-02f,+3.56858820e-02f,-1.72609016e-01f,-1.01203196e-01f,+1.88762993e-02f,
+3.64208072e-02f,+4.44728583e-02f,+9.50480402e-02f,+1.36089712e-01f,+5.53287566e-03f,
+1.70120180e-01f,-1.01291776e-01f,+1.61843121e-01f,+1.20998681e-01f,-9.27573591e-02f,
+7.16126710e-02f,-8.84345621e-02f,-1.07781500e-01f,-1.52027905e-02f,-7.63009712e-02f,
-1.35678262e-01f,+6.97386116e-02f,+1.36009723e-01f,+1.33758038e-02f,+6.46965206e-03f,
+9.84193683e-02f,+2.66716480e-02f,-1.17022440e-01f,-4.53071445e-02f,-4.61873114e-02f,
-1.04419112e-01f,-3.45211774e-02f,-1.60366327e-01f,-1.16813689e-01f,+1.54255658e-01f,
+1.27421170e-01f,-1.53973982e-01f,-1.24204770e-01f,-3.63431275e-02f,-1.70223013e-01f,
+1.03369474e-01f,+9.76872444e-02f,+1.01500362e-01f,-2.82746851e-02f,-1.00257546e-02f,
-5.61759919e-02f,+1.33895248e-01f,+1.27749592e-01f,+1.37628675e-01f,+1.19995564e-01f,
-1.61230803e-01f,+4.02556211e-02f,+1.90897435e-02f,-1.58564731e-01f,+1.67112827e-01f,
-1.02066517e-01f,+1.34296507e-01f,-1.12859786e-01f,+1.59918159e-01f,+7.60936290e-02f,
-4.25422639e-02f,+3.83444130e-03f,+5.12912869e-02f,-6.49071410e-02f,-1.51930928e-01f,
+6.86833858e-02f,-1.02820568e-01f,+2.75141895e-02f,+1.19590968e-01f,+2.08932310e-02f,
-1.35321379e-01f,+3.44088972e-02f,+1.34893656e-01f,-1.40040934e-01f,+1.21019214e-01f,
+8.26118290e-02f,-1.79312974e-02f,+1.27162635e-02f,-7.62088820e-02f,+5.61547279e-02f,
+1.47940099e-01f,-1.90007985e-02f,-4.80487049e-02f,+1.04668856e-01f,-2.36362815e-02f,
+9.11325216e-03f,+1.55412674e-01f,+1.18081450e-01f,-7.52746612e-02f,+1.47277743e-01f,
+1.54524684e-01f,-5.33280149e-02f,+2.57340819e-02f,+7.59865493e-02f,+1.44177377e-01f,
+1.23237699e-01f,-1.28583878e-01f,-1.18102431e-01f,+1.26520604e-01f,-1.00546181e-02f,
+8.43752325e-02f,-1.56432748e-01f,+1.27948523e-02f,+1.02143496e-01f,-6.27157614e-02f,
-1.84248090e-02f,-8.90979767e-02f,+1.48091882e-01f,+2.20144391e-02f,-1.25823423e-01f,
-4.68540192e-03f,-1.47369578e-01f,-1.62047043e-01f,+2.64719874e-02f,+4.03719395e-02f,
-9.19579193e-02f,+5.89683801e-02f,+1.02641314e-01f,+2.38503069e-02f,-1.56537339e-01f,
+5.41120917e-02f,+1.51532024e-01f,+1.24630243e-01f,-1.59285665e-01f,+2.14086920e-02f,
-8.37255344e-02f,+2.41910368e-02f,+2.52220035e-03f,-3.03403586e-02f,+1.84345543e-02f,
-1.26644403e-01f,+1.30790323e-01f,-3.94567847e-03f,-1.57000676e-01f,-5.20531833e-03f,
-2.07081586e-02f,-8.22319239e-02f,+1.60821855e-01f,+6.51383102e-02f,+1.70571804e-01f,
-6.14995733e-02f,+7.55059570e-02f,-6.21199161e-02f,+5.63049167e-02f,-8.25603083e-02f,
+7.53622055e-02f,+6.41805083e-02f,-7.50832111e-02f,+6.20526820e-02f,+1.61056221e-03f,
-6.17563725e-03f,-5.67796901e-02f,+2.80802697e-02f,-2.19546556e-02f,+2.78357267e-02f,
-2.49023885e-02f,-7.74160698e-02f,-1.67227298e-01f,-6.18939027e-02f,-4.94959354e-02f,
-3.98877114e-02f,-9.58670601e-02f,-9.98807177e-02f,+5.92513382e-03f,+5.54303676e-02f,
-5.62078282e-02f,-1.14608556e-02f,+1.23455673e-02f,-5.88777363e-02f,-1.63469955e-01f,
+1.40289485e-01f,+1.28953934e-01f,+4.21385169e-02f,+1.62226021e-01f,-1.16576448e-01f,
+5.63095808e-02f,+6.57263100e-02f,-4.96774912e-03f,-1.57609731e-02f,+1.12722158e-01f,
+1.52473062e-01f,-4.36630100e-02f,-1.32452011e-01f,-1.10481136e-01f,-7.73691162e-02f,
-1.28326416e-02f,-5.31658530e-02f,+6.30121380e-02f,+1.38536215e-01f,+1.71134323e-02f,
+6.57840520e-02f,-1.56312987e-01f,+1.22629255e-02f,+6.76765293e-02f,-1.03722088e-01f,
+1.14929765e-01f,-6.41852617e-04f,+1.57686621e-02f,+3.17760408e-02f,+2.80662775e-02f,
+8.98536444e-02f,+6.80145621e-03f,-1.72249049e-01f,+8.62923265e-02f,+1.02185875e-01f,
-1.15005374e-02f,+4.20701802e-02f,-1.27459407e-01f,+1.52169615e-01f,+6.22561425e-02f,
+2.36037821e-02f,-1.40226364e-01f,-1.71139687e-01f,+1.02473944e-02f,-1.14454165e-01f,
+2.97577679e-03f,-8.00844431e-02f,-5.39169684e-02f,-1.41394436e-01f,-1.63330540e-01f,
+1.42839432e-01f,+2.72677094e-02f,+1.54290795e-02f,+4.19934541e-02f,+1.54235512e-01f,
-5.19591644e-02f,+3.78784984e-02f,-1.36091173e-01f,-1.62064552e-01f,-1.35833353e-01f,
+7.22497702e-04f,-1.11055076e-02f,-1.72342867e-01f,+5.94259351e-02f,-1.22359157e-01f,
+1.20543033e-01f,-8.74606520e-02f,-1.46415204e-01f,+6.75315410e-02f,-6.50569201e-02f,
-1.21595711e-02f,+5.34725934e-02f,-1.57623693e-01f,-1.30401134e-01f,+1.27154320e-01f,
+9.21875536e-02f,-5.73619530e-02f,+1.22596323e-02f,+5.73054105e-02f,+1.06253535e-01f,
-7.74087161e-02f,+7.31419623e-02f,-1.61216304e-01f,+2.70549506e-02f,-1.04089864e-01f,
-2.17252970e-02f,+9.51074660e-02f,-5.97382039e-02f,+1.50612175e-01f,-1.33400410e-01f,
-9.86595303e-02f,+5.66480309e-02f,-2.53997892e-02f,-3.32356989e-02f,+2.57000178e-02f,
+1.35321289e-01f,+5.66975027e-02f,-1.72579288e-02f,+1.63782865e-01f,+1.26979083e-01f,
-1.67432979e-01f,+1.22474372e-01f,+5.81155419e-02f,+1.28392518e-01f,-1.26451403e-01f,
-1.18070431e-01f,+3.80422324e-02f,+1.34836495e-01f,-1.01356566e-01f,-5.40561751e-02f,
-1.49781674e-01f,+1.17024750e-01f,+1.34156525e-01f,-5.43427691e-02f,-8.28924775e-03f,
-4.97743934e-02f,+1.69861168e-02f,+8.01428854e-02f,-2.16374248e-02f,-9.57356542e-02f,
+9.17710066e-02f,-8.87021422e-04f,+1.46962851e-01f,-1.33423120e-01f,+1.07464790e-01f,
-5.94255626e-02f,-1.50003582e-02f,-1.25967950e-01f,-4.86446917e-03f,+8.45760405e-02f,
-1.63847357e-02f,+1.60049677e-01f,-1.28098011e-01f,-9.97358933e-02f,-1.13423675e-01f,
-1.16808034e-01f,-9.37316343e-02f,+5.62141538e-02f,+9.93163586e-02f,+1.32906467e-01f,
-1.03183635e-01f,-8.04180279e-02f,-8.95108283e-03f,+5.51469475e-02f,-1.35792345e-01f,
-1.18982047e-02f,+1.60322249e-01f,-1.00527607e-01f,-4.62815464e-02f,+9.24281478e-02f,
+4.37577069e-02f,+1.66478455e-01f,-4.96362969e-02f,-3.99048626e-03f,+9.62393284e-02f,
-8.32195431e-02f,+2.72234827e-02f,-9.81243402e-02f,-6.49779215e-02f,+1.54681087e-01f,
+1.01097077e-01f,-2.55758315e-02f,-5.43629229e-02f,+2.16375291e-03f,-6.89470768e-03f,
+6.69829249e-02f,-2.96784043e-02f,-1.27483860e-01f,+1.42111868e-01f,+1.22249216e-01f,
-1.16335735e-01f,-1.70656592e-02f,-1.00806229e-01f,-4.62465286e-02f,+1.09051943e-01f,
-1.47411078e-01f,-1.34045437e-01f,+1.14706308e-01f,-9.64150056e-02f,-5.13754115e-02f,
+8.38896334e-02f,-9.16169062e-02f,+6.83941543e-02f,-5.38125783e-02f,+1.17248237e-01f,
+7.68003166e-02f,+5.70286959e-02f,+1.09620005e-01f,-1.24685362e-01f,-9.43106413e-03f,
-5.19530103e-02f,-4.22227234e-02f,-1.35947540e-01f,+9.57262814e-02f,-1.05097800e-01f,
+1.25281900e-01f,+1.11976445e-01f,+1.88037306e-02f,-9.18047130e-02f,-1.41883865e-01f,
+6.52521998e-02f,+1.60900980e-01f,-4.70635146e-02f,-1.62717059e-01f,+1.21519953e-01f,
+1.09538108e-01f,+9.07075703e-02f,+1.24009967e-01f,-7.55227581e-02f,+4.07845676e-02f,
-5.49707487e-02f,+1.35434061e-01f,+1.03903443e-01f,-1.12251341e-01f,-1.66409239e-01f,
-1.25248760e-01f,-8.26700702e-02f,-8.10121447e-02f,-4.39920574e-02f,-1.27351254e-01f,
-1.64974228e-01f,-2.25859284e-02f,+3.92630398e-02f,-8.43505412e-02f,+7.76483119e-02f,
-1.38063803e-01f,-1.09474361e-03f,-8.26580971e-02f,-7.87546933e-02f,+9.60013568e-02f,
-5.21318167e-02f,+1.30295783e-01f,-2.13330388e-02f,-1.25450030e-01f,-7.25204274e-02f,
+1.03339106e-01f,-1.67010993e-01f,-1.15981504e-01f,+1.33502156e-01f,+9.32276249e-02f,
-8.74339789e-02f,+3.01100314e-03f,+1.64051265e-01f,+7.83882737e-02f,-1.35057583e-01f,
-8.40796530e-03f,+1.25364721e-01f,+1.70196682e-01f,-1.43388376e-01f,+4.48344350e-02f,
-9.16387513e-02f,+8.26033950e-03f,-1.39192447e-01f,+1.07377142e-01f,-7.46540725e-03f,
-1.15349233e-01f,+1.23782843e-01f,-7.48728961e-02f,-1.38473749e-01f,+1.59694493e-01f,
+1.59883052e-02f,-1.73123151e-01f,+5.37852049e-02f,-1.40346557e-01f,-9.26307440e-02f,
+1.37893260e-01f,-8.89849514e-02f,-1.59181058e-02f,-3.79503518e-02f,+2.44651586e-02f,
+3.21816057e-02f,-1.24791242e-01f,-1.55312359e-01f,+1.01182371e-01f,-9.58478153e-02f,
-1.16745554e-01f,+6.23739660e-02f,-6.11560419e-02f,+4.87934202e-02f,-1.43048525e-01f,
+1.09244138e-01f,-6.57764077e-02f,+7.70519376e-02f,-3.91401350e-03f,-1.45382851e-01f,
+1.65724069e-01f,-3.45368832e-02f,+1.36039644e-01f,+6.38266951e-02f,-6.58091158e-02f,
-1.24292187e-01f,+7.59642422e-02f,-5.94220087e-02f,+5.54215312e-02f,+9.03776288e-02f,
-1.63102761e-01f,+1.43461883e-01f,+1.32986367e-01f,+7.50218034e-02f,-1.63214594e-01f,
+5.85208982e-02f,+7.79801607e-02f,-6.46275282e-03f,+1.56899571e-01f,-1.67843789e-01f,
-1.17337562e-01f,+1.13044530e-01f,-1.51728258e-01f,+1.28728330e-01f,-1.64313614e-02f,
+1.25932723e-01f,-1.15993194e-01f,-2.31278986e-02f,+1.24769241e-01f,+9.63609219e-02f,
-5.21247163e-02f,-1.49522379e-01f,+1.67804629e-01f,-7.08921254e-03f,-5.07452041e-02f,
-4.62400466e-02f,-7.63790309e-03f,+7.81114101e-02f,+3.82200480e-02f,+1.00149453e-01f,
+1.24276489e-01f,-1.62013426e-01f,+5.22842854e-02f,-4.05145437e-02f,-5.59114516e-02f,
+4.09691036e-03f,-6.38313591e-02f,+3.96235883e-02f,+1.52090132e-01f,+1.12994730e-01f,
+8.00544620e-02f,-1.55189663e-01f,-1.35751367e-02f,+1.55117661e-01f,-1.03445701e-01f,
-6.44526407e-02f,+1.33500546e-01f,+1.51289523e-01f,+5.65984845e-02f,+9.43712890e-02f,
-1.46249726e-01f,+9.87108648e-02f,-1.16178855e-01f,+1.72786415e-01f,+6.53267801e-02f,
-1.37642339e-01f,-2.92708576e-02f,-2.25700289e-02f,-1.49745002e-01f,+8.72151554e-02f,
+4.44025695e-02f,+1.21749789e-01f,-1.30734220e-01f,-6.61521107e-02f,-1.71683848e-01f,
+1.19393378e-01f,-1.21651851e-01f,-5.93155473e-02f,-9.55881104e-02f,-6.82488382e-02f,
-1.34034991e-01f,-8.04631636e-02f,-2.07585394e-02f,-8.79520699e-02f,-6.09213114e-03f,
-5.12731671e-02f,-1.08385235e-01f,-5.38706779e-02f,+3.35498005e-02f,+2.10845172e-02f,
+7.22513795e-02f,+1.17215455e-01f,-6.02795035e-02f,-1.35308698e-01f,+6.07270598e-02f,
-3.22474688e-02f,+2.40593851e-02f,-6.49930537e-03f,+1.61729515e-01f,-7.19438195e-02f,
-1.04194544e-01f,+9.96207893e-02f,-1.36059076e-01f,+5.93598634e-02f,-3.81825119e-02f,
+1.26629502e-01f,-3.99097204e-02f,-6.87035397e-02f,-1.69422135e-01f,-1.09731212e-01f,
-3.04158479e-02f,+9.04745162e-02f,-1.40269011e-01f,+7.90299177e-02f,-3.66037935e-02f,
-2.76855677e-02f,-1.29971772e-01f,-1.55928582e-02f,+1.86154693e-02f,+9.65248942e-02f,
+7.62699544e-03f,-8.51142555e-02f,+1.02881432e-01f,-1.40022397e-01f,+3.73903364e-02f,
-1.41839176e-01f,+6.79576695e-02f,+9.94981229e-02f,+1.25736296e-01f,+1.25216722e-01f,
-7.89165497e-05f,-1.39534250e-01f,-1.43220350e-01f,-1.43334240e-01f,+2.74447352e-02f,
-1.17852807e-01f,+6.68694079e-02f,-1.02677524e-01f,-9.21299160e-02f,-4.65349406e-02f,
+9.73823369e-02f,-8.56365189e-02f,-7.13407397e-02f,-3.65103334e-02f,+1.21249706e-01f,
+4.00029272e-02f,-4.85098436e-02f,+1.10710740e-01f,-1.45002455e-01f,-2.84680724e-02f,
+1.72575295e-01f,+1.45332903e-01f,-2.95489430e-02f,-7.13024214e-02f,+8.06950927e-02f,
+1.49149656e-01f,-1.06709182e-01f,+8.91049206e-03f,-6.43795505e-02f,+1.02028936e-01f,
+1.18969768e-01f,+7.28566945e-02f,+1.51586205e-01f,-1.52478382e-01f,-8.96737128e-02f,
-1.10865846e-01f,-6.12187237e-02f,-9.04780179e-02f,-1.18484624e-01f,+1.38508499e-01f,
+1.29640937e-01f,+5.44925034e-03f,+1.64306462e-01f,-4.87224758e-02f,+1.50831819e-01f,
-1.34164572e-01f,+1.69426978e-01f,+1.72533572e-01f,-1.52098179e-01f,-1.07539959e-01f,
+4.13939357e-04f,+4.88827825e-02f,+1.16140991e-02f,-5.92022762e-02f,-4.78666723e-02f,
+2.70639062e-02f,+1.62138790e-01f,+7.05650449e-03f,+6.18330389e-02f,-7.33530596e-02f,
-1.69728637e-01f,-9.07551944e-02f,-9.13968831e-02f,+3.32803428e-02f,+9.04738903e-03f,
-5.09443879e-03f,-1.10189095e-01f,+1.15573913e-01f,+8.56955349e-02f,-2.66561210e-02f,
+1.14699751e-01f,+1.53045982e-01f,-2.13493407e-02f,-1.51428282e-02f,+1.67680264e-01f,
-1.48392588e-01f,-7.57146999e-02f,-3.40205133e-02f,-4.18280959e-02f,-5.69250882e-02f,
-1.31778657e-01f,-1.11377537e-01f,-1.07862853e-01f,+6.88094646e-02f,-3.57566923e-02f,
-1.40128613e-01f,-4.00655717e-02f,+4.83220816e-03f,+1.13751560e-01f,-8.32387060e-02f,
-7.30295554e-02f,+1.19085580e-01f,+1.32191330e-01f,-4.08968925e-02f,+1.26754999e-01f,
+5.50274849e-02f,-9.99147445e-02f,+1.22270405e-01f,+7.65254050e-02f,-1.23220786e-01f,
+5.09570092e-02f,-7.95735419e-03f,+1.15953177e-01f,+9.62756276e-02f,-1.48967415e-01f,
+5.86447120e-03f,-1.39824271e-01f,-2.63890624e-02f,-6.01407886e-03f,+1.37977302e-01f,
+3.74037176e-02f,-6.72871545e-02f,-7.57092908e-02f,-3.27010900e-02f,-1.44494325e-02f,
+3.27765942e-04f,+1.02737516e-01f,+1.50993407e-01f,+1.19265735e-01f,-4.22969311e-02f,
-1.09124795e-01f,+4.94697988e-02f,-1.32494718e-02f,-5.99618629e-02f,+8.88765156e-02f,
-5.58145717e-02f,-5.23087233e-02f,+5.14124483e-02f,-1.55271307e-01f,-2.55024582e-02f,
+8.47432613e-02f,+4.05577719e-02f,-6.57990575e-03f,+2.65746862e-02f,+1.32115424e-01f,
-5.02639860e-02f,+1.40173703e-01f,-6.54552951e-02f,-1.34203523e-01f,-4.10505533e-02f,
-6.15279898e-02f,-4.84013557e-03f,-3.66324037e-02f,-7.68740252e-02f,+1.68018997e-01f,
-5.63473627e-02f,-7.34837204e-02f,-1.53064072e-01f,-1.44496918e-01f,+7.51677006e-02f,
-4.05311584e-04f,+7.05218166e-02f,+5.17570674e-02f,-4.57871258e-02f,+1.00442857e-01f,
+4.13393229e-02f,-4.81873304e-02f,-5.03358021e-02f,+1.18294209e-01f,+6.42070621e-02f,
+1.31174922e-01f,-1.20639369e-01f,-4.82949018e-02f,+1.28359079e-01f,+2.43037343e-02f,
+1.23748034e-02f,+1.31010562e-02f,-1.17545813e-01f,+8.20395350e-02f,+1.07352585e-02f,
-7.29151070e-03f,+2.54210234e-02f,+1.56864882e-01f,+4.74077165e-02f,+1.52385086e-02f,
+1.70794874e-01f,+1.46697789e-01f,-1.48027867e-01f,-9.95640606e-02f,+7.12987036e-02f,
-5.36488816e-02f,+3.43110710e-02f,-2.16187537e-02f,-1.40946209e-02f,+8.59157145e-02f,
-6.32725880e-02f,-1.41706258e-01f,+1.43379033e-01f,+9.46878791e-02f,+1.34831935e-01f,
-8.76426473e-02f,-5.25773540e-02f,-1.40503854e-01f,+1.04153961e-01f,+1.01870239e-01f,
-8.68352354e-02f,-6.99220002e-02f,+1.22252852e-01f,+1.67984098e-01f,+1.22224361e-01f,
-9.30797085e-02f,-1.48625165e-01f,-9.15255994e-02f,+1.30256563e-01f,-1.67247534e-01f,
-4.77339029e-02f,-1.08113304e-01f,-1.08710065e-01f,-1.48393065e-02f,+7.43359774e-02f,
+1.44167364e-01f,+2.12537795e-02f,+9.38688219e-03f,-1.16841070e-01f,-5.04831001e-02f,
-5.20652905e-02f,-8.93398002e-02f,+1.63706005e-01f,-1.71030626e-01f,-1.57735363e-01f,
-1.62692323e-01f,-1.26686335e-01f,-1.65302515e-01f,+7.68914819e-02f,+4.07882035e-02f,
+5.67601919e-02f,-1.42195359e-01f,-9.74314064e-02f,-2.71174312e-03f,+1.90634429e-02f,
+1.17392242e-02f,+1.65733069e-01f,+7.75649846e-02f,-1.09841518e-01f,-3.45154405e-02f,
-1.00228794e-01f,-9.65585932e-02f,+1.44963682e-01f,+2.78339088e-02f,+8.44794512e-02f,
+1.51808321e-01f,+4.61127758e-02f,+7.89808333e-02f,-1.32423073e-01f,+9.00232494e-02f,
-9.83874798e-02f,-5.71316481e-02f,-8.68538618e-02f,+4.85853404e-02f,-1.43979281e-01f,
-4.52477187e-02f,+1.24645829e-01f,+1.08962208e-02f,-1.03521802e-01f,-5.55731356e-03f,
+7.60185868e-02f,+1.23782247e-01f,+1.33220106e-01f,+8.72887671e-03f,+1.05328351e-01f,
-6.31353259e-02f,-3.96005958e-02f,-1.20154023e-01f,-1.42659023e-01f,-7.78729990e-02f,
-1.32626086e-01f,+1.63417399e-01f,+6.04085922e-02f,-9.31910798e-02f,+1.90275162e-02f,
-1.38414145e-01f,-7.59948790e-03f,+8.47182274e-02f,-1.59150928e-01f,-5.62369823e-02f,
-6.75796866e-02f,-1.48036748e-01f,-4.68937606e-02f,+7.58177042e-03f,-9.13436562e-02f,
+3.13059390e-02f,-1.66717172e-01f,+1.52856410e-01f,-1.06593929e-01f,-4.59180772e-02f,
+6.43673241e-02f,-1.08331963e-01f,-1.01964325e-02f,-2.75558233e-02f,-4.61739302e-03f,
+1.08155757e-02f,-2.66348571e-02f,+5.35551012e-02f,-8.68317261e-02f,+1.81208402e-02f,
+1.51585668e-01f,+1.62581563e-01f,-1.60246044e-02f,+1.09472007e-01f,+7.90824294e-02f,
+1.30716711e-01f,+1.25375062e-01f,-5.88411465e-02f,-1.19463488e-01f,-8.22085515e-02f,
+1.28277361e-01f,-9.79162529e-02f,-7.42169991e-02f,+9.64173079e-02f,-5.16542792e-03f,
+6.40638173e-03f,+8.86054039e-02f,-1.66173130e-02f,-3.88951451e-02f,+7.05415010e-03f,
+2.80974507e-02f,-7.61343464e-02f,+1.70896500e-01f,+9.40045118e-02f,+1.28506452e-01f,
+9.37063694e-02f,+1.56121939e-01f,+1.00473911e-02f,+6.20402098e-02f,-1.48269325e-01f,
+5.59188426e-02f,+9.97598171e-02f,+7.62865990e-02f,-1.63766205e-01f,+1.55166209e-01f,
-1.33565873e-01f,-1.13641769e-02f,+1.49649560e-01f,-1.23811059e-01f,+1.21140361e-01f,
-8.69933590e-02f,-1.21923700e-01f,+1.13107026e-01f,+1.23474091e-01f,-1.57224000e-01f,
+6.12617135e-02f,-9.53414142e-02f,-1.25016749e-01f,-8.42987150e-02f,+8.64591897e-02f,
-1.14490293e-01f,-7.59438500e-02f,+1.00663006e-01f,+2.34281868e-02f,-6.73363805e-02f,
+1.42158240e-01f,-1.49452433e-01f,+1.42889529e-01f,+2.95447707e-02f,-4.05143797e-02f,
+1.12906218e-01f,-1.48211718e-02f,-1.07146621e-01f,+1.13363683e-01f,+1.33999139e-01f,
+9.94664133e-02f,-7.97915384e-02f,+1.57415539e-01f,-1.33932292e-01f,-1.09821558e-02f,
-7.88806453e-02f,-1.24044746e-01f,-1.09577887e-01f,-1.56569511e-01f,-1.46455497e-01f,
-8.52000713e-03f,+4.70595956e-02f,+8.73327255e-02f,-1.28375053e-01f,+1.35055065e-01f,
+7.17964768e-02f,-1.67833343e-01f,-1.28205538e-01f,+1.64798170e-01f,+9.45580304e-02f,
-1.04087636e-01f,+9.11445320e-02f,+7.44284689e-02f,+1.16143107e-01f,-1.44659117e-01f,
-1.49106175e-01f,+1.50108874e-01f,+1.16421014e-01f,-1.97476298e-02f,+1.04663819e-01f,
-1.65902704e-01f,+5.68322092e-02f,-4.82375473e-02f,+1.58670038e-01f,-1.22399375e-01f,
-1.08839527e-01f,-1.50854737e-01f,+1.47563815e-02f,-1.70472324e-01f,-7.06677139e-02f,
-3.85191441e-02f,-9.95866954e-02f,+4.63231355e-02f,+2.83859670e-03f,-1.78648829e-02f,
-7.41405636e-02f,-2.97640264e-03f,+1.47744209e-01f,-7.41913989e-02f,+6.99725896e-02f,
+2.35045105e-02f,+1.10504806e-01f,-7.80759230e-02f,-2.82104313e-02f,+3.12639773e-02f,
+1.31998807e-01f,+9.69529748e-02f,-7.34643936e-02f,+2.19474286e-02f,+1.51150316e-01f,
-1.11576453e-01f,+1.56707019e-02f,+3.11497897e-02f,+1.20484024e-01f,+7.75840878e-02f,
+1.65195882e-01f,-1.71806693e-01f,+6.63226247e-02f,-8.12927857e-02f,+6.02950305e-02f,
+8.65947008e-02f,-1.18192375e-01f,+1.71051294e-01f,+1.12533092e-01f,-1.05185799e-01f,
+1.34575427e-01f,+8.96684825e-02f,-1.55978322e-01f,-1.65781707e-01f,-1.40019014e-01f,
-1.57466605e-01f,-2.36679614e-03f,-4.03398573e-02f,+1.45019710e-01f,+2.69521624e-02f,
+1.00873083e-01f,+6.89804554e-03f,-1.16919652e-01f,-9.35373455e-02f,-1.40175611e-01f,
+1.02334678e-01f,+4.70628142e-02f,-1.39522269e-01f,+5.35671562e-02f,+5.85467517e-02f,
-7.24676102e-02f,-1.38708010e-01f,+1.41905546e-01f,+6.87611103e-02f,+1.68260336e-01f,
+5.73330820e-02f,-1.18617177e-01f,+1.20569915e-02f,+1.23675644e-01f,-5.32187074e-02f,
+1.64160550e-01f,+1.67260796e-01f,+2.11650431e-02f,-1.10541388e-01f,-3.64658237e-03f,
+3.30044925e-02f,-1.21011153e-01f,+1.53524160e-01f,+7.32448697e-02f,-8.29528272e-03f,
+5.71519583e-02f,-1.28640175e-01f,-2.30803639e-02f,+1.54310524e-01f,+1.20269626e-01f,
-1.38241708e-01f,+5.84143549e-02f,+1.49087578e-01f,-6.99265301e-03f,+4.22348976e-02f,
-1.32875130e-01f,-1.68745056e-01f,+1.68542713e-01f,-5.74453250e-02f,+2.85920501e-03f,
-1.03616536e-01f,-3.32035124e-03f,-1.67087585e-01f,-1.61165223e-01f,-1.21265076e-01f,
-4.41285968e-03f,+8.17752481e-02f,-9.55324396e-02f,+1.33475184e-01f,-3.15504819e-02f,
+5.60413301e-02f,+1.32069290e-01f,-2.42720991e-02f,+8.00524354e-02f,+9.24083292e-02f,
-1.35887176e-01f,+1.60783708e-01f,+1.49775863e-01f,+1.00475162e-01f,-1.72421664e-01f,
-1.59880698e-01f,+8.19568932e-02f,+2.10621357e-02f,-1.00267403e-01f,-1.11218542e-02f,
+5.63220531e-02f,+1.19207323e-01f,+1.62566453e-01f,-1.72618061e-01f,-8.21681321e-03f,
+3.17958146e-02f,+1.72507077e-01f,-1.17322326e-01f,+1.11563057e-02f,+3.56815457e-02f,
-6.27621785e-02f,+7.97814727e-02f,+1.31144285e-01f,-1.63838431e-01f,-5.87446019e-02f,
+2.27340609e-02f,+9.50832665e-02f,-1.49738148e-01f,-3.89383733e-02f,-8.43785405e-02f,
+5.00497520e-02f,+5.34153581e-02f,-4.12752032e-02f,+2.54916698e-02f,-1.19104385e-01f,
+1.50875270e-01f,-1.62731096e-01f,-7.34894201e-02f,+1.33438110e-01f,-2.29050666e-02f,
+6.41910434e-02f,-6.08562380e-02f,-9.52385366e-03f,+7.75983930e-03f,+1.31491482e-01f,
+1.00418866e-01f,+3.29767466e-02f,-1.05481446e-02f,+9.01412666e-02f,+4.07022685e-02f,
+2.09543109e-02f,+1.15284413e-01f,-1.34114325e-02f,+4.56057191e-02f,+1.57320231e-01f,
+5.61106205e-02f,+1.63708240e-01f,+3.32287997e-02f,+1.44390583e-01f,+1.10133171e-01f,
-6.29188567e-02f,-1.12971902e-01f,-6.27460703e-02f,+1.57841086e-01f,+1.26600504e-01f,
-1.34843260e-01f,-1.26926661e-01f,-1.52291805e-01f,-1.56396806e-01f,+1.16800725e-01f,
-1.15410186e-01f,-1.60455152e-01f,+5.66402376e-02f,-1.00307174e-01f,+1.12723917e-01f,
-9.08738747e-02f,-1.44710615e-01f,+7.20650256e-02f,-8.13005492e-02f,+8.69794190e-03f,
-7.95658976e-02f,-6.63406253e-02f,+7.07155764e-02f,-2.00422704e-02f,+8.13121498e-02f,
-1.44773632e-01f,-1.32866248e-01f,-1.14829205e-01f,-7.18499124e-02f,+1.43211782e-02f,
-1.18049413e-01f,+8.68157744e-02f,-9.03315023e-02f,-7.15166628e-02f,+5.15361130e-03f,
+1.47987902e-01f,-3.88374180e-02f,+1.27484888e-01f,-1.54121116e-01f,+7.80808330e-02f,
+7.52934515e-02f,-1.56992614e-01f,+3.45328301e-02f,-3.77975106e-02f,+5.96854687e-02f,
-1.03186667e-02f,+1.48285419e-01f,-1.47090882e-01f,-1.04758061e-01f,+3.77675295e-02f,
+7.21823424e-02f,+3.11429054e-02f,+1.31670743e-01f,-3.27699780e-02f,+1.00941271e-01f,
+1.36598885e-01f,+1.15881532e-01f,-1.01989418e-01f,-1.94342285e-02f,+1.20503902e-02f,
+1.05102867e-01f,+6.06685877e-03f,+5.13083935e-02f,+3.66008580e-02f,-3.66808474e-02f,
-1.71589360e-01f,+9.31654274e-02f,+6.72977269e-02f,+3.82751375e-02f,-1.21516690e-01f,
-2.12653875e-02f,-1.14646100e-01f,-1.46723837e-02f,+6.42306060e-02f,+3.44907939e-02f,
-6.66086748e-02f,-1.41034052e-01f,-4.88177836e-02f,-1.19183876e-01f,+1.47224188e-01f,
-4.17855233e-02f,+2.76301950e-02f,-5.83000556e-02f,-1.06854625e-01f,+2.68815458e-02f,
-2.39588320e-02f,-1.46248654e-01f,+1.02292389e-01f,+7.72790909e-02f,+1.95142627e-02f,
-2.35756636e-02f,-1.38577968e-01f,-7.55994841e-02f,-2.64896601e-02f,+6.05619699e-02f,
+1.70793235e-02f,+1.65674388e-01f,+6.60654902e-03f,-1.28960609e-03f,-1.69158101e-01f,
+1.51775032e-01f,-1.41442746e-01f,+9.66318846e-02f,+5.12222499e-02f,-1.21170387e-01f,
+2.30041295e-02f,+3.75181139e-02f,+5.12838215e-02f,-7.57146627e-02f,-2.65410691e-02f,
-1.21761203e-01f,-3.28665227e-02f,-9.43888947e-02f,-1.50008142e-01f,+9.86162126e-02f,
+1.42502874e-01f,-1.42411992e-01f,-6.81285858e-02f,+5.00703603e-02f,+1.63545102e-01f,
+1.34962946e-01f,-1.33722186e-01f,+4.46186662e-02f,-1.64591327e-01f,-6.15655258e-02f,
+6.33758307e-02f,-8.01148415e-02f,+6.79880530e-02f,-1.06418714e-01f,-4.75994051e-02f,
-1.54275432e-01f,+1.25097781e-01f,+8.20832253e-02f,+1.22819752e-01f,-2.43648589e-02f,
+1.71914846e-01f,-1.40132695e-01f,-8.38608593e-02f,+6.45476282e-02f,-1.59069449e-01f,
-1.67198509e-01f,+1.28439277e-01f,-1.18942335e-01f,+8.88512731e-02f,+4.37575877e-02f,
+8.09670091e-02f,+1.63815975e-01f,-6.26515895e-02f,+1.65280253e-01f,+8.81196558e-03f,
-1.39856309e-01f,+1.53952658e-01f,+1.11904442e-02f,-1.48156092e-01f,-4.88147140e-03f,
-5.35560921e-02f,+1.53630346e-01f,+6.73719794e-02f,+4.99771982e-02f,+8.04143846e-02f,
+1.42940044e-01f,-5.52643985e-02f,+9.58768129e-02f,-5.20050004e-02f,+2.81280130e-02f,
+2.48558968e-02f,+1.57629997e-02f,-7.33800679e-02f,-1.41605049e-01f,-4.40987200e-02f,
+1.22283787e-01f,+1.00411177e-02f,-7.44561851e-02f,-1.67732164e-01f,-1.81303322e-02f,
+4.16790247e-02f,+1.51342928e-01f,-1.03338659e-02f,-2.39156485e-02f,-1.32486910e-01f,
-1.68774709e-01f,+5.15647084e-02f,+8.36902261e-02f,-9.56527367e-02f,+4.44082320e-02f,
+1.69802755e-01f,-6.68446347e-02f,+1.72932804e-01f,+1.96625143e-02f,+1.37053281e-02f,
-1.20232530e-01f,+1.31022692e-01f,-1.15146309e-01f,+8.57790709e-02f,+2.59199142e-02f,
+6.83695525e-02f,-1.41193569e-01f,-8.10571164e-02f,+1.19240791e-01f,-1.42960727e-01f,
+4.83193994e-02f,-2.85207629e-02f,+4.46519554e-02f,-1.57102838e-01f,+3.82448733e-03f,
-4.17361706e-02f,-1.65091172e-01f,-1.06419004e-01f,+5.16790897e-02f,+7.70004690e-02f,
-6.31896257e-02f,-1.39794737e-01f,+6.36199266e-02f,+6.37856424e-02f,-1.68140367e-01f,
+1.56869739e-01f,-9.58003700e-02f,+1.49361134e-01f,-1.46725491e-01f,-2.48184800e-03f,
-1.51705876e-01f,+1.00179404e-01f,-1.52520835e-03f,-4.66494113e-02f,-5.38940951e-02f,
-1.57434687e-01f,+1.21578336e-01f,+2.86093056e-02f,-9.78343263e-02f,-5.22122979e-02f,
-1.40898734e-01f,-9.18348581e-02f,+1.05224907e-01f,+2.95397341e-02f,-1.15338869e-01f,
+3.36407274e-02f,+1.00781024e-03f,-2.57636458e-02f,-6.95933700e-02f,+2.74830163e-02f,
-3.13511491e-02f,-1.72871664e-01f,+1.26122773e-01f,-1.85073167e-02f,+1.17815584e-01f,
-9.42392647e-03f,-9.30680633e-02f,-5.86949661e-02f,+1.87211484e-02f,-2.17718780e-02f,
+1.45353049e-01f,-5.05970418e-03f,-6.74381852e-03f,+9.20389891e-02f,+8.04399252e-02f,
+9.89748240e-02f,+5.94904721e-02f,+1.17158085e-01f,+1.51069194e-01f,-6.80245459e-03f,
-4.95653972e-02f,+1.42853439e-01f,-8.45829099e-02f,-1.46079957e-01f,-1.09939553e-01f,
+1.72565669e-01f,+9.41882730e-02f,+1.58375651e-01f,+1.60617441e-01f,+1.66204005e-01f,
+6.06567860e-02f,+6.45503104e-02f,-1.72982290e-01f,+1.86146796e-02f,-1.64795041e-01f,
+1.63727790e-01f,+4.42757607e-02f,-1.07130811e-01f,-2.41148472e-03f,+3.18206400e-02f,
-1.36039749e-01f,+3.61860842e-02f,-6.72606006e-02f,+1.04912132e-01f,-5.64205796e-02f,
-5.01770601e-02f,-7.72352740e-02f,+1.46941096e-02f,-8.29138383e-02f,-1.87121332e-03f,
+5.53799421e-02f,+1.04170591e-01f,-8.48546773e-02f,-1.47380978e-01f,-9.92769748e-02f,
-1.15371615e-01f,+4.58388627e-02f,-1.56881779e-01f,-8.54548216e-02f,+6.98105842e-02f,
+1.34660214e-01f,-2.62212455e-02f,+1.64847910e-01f,-3.66665423e-03f,+5.66159189e-03f,
-6.24506474e-02f,+8.51077735e-02f,+9.55577195e-02f,-1.33353785e-01f,+1.53413683e-01f,
+1.09008461e-01f,-1.55746415e-01f,-1.10346228e-01f,-6.48141429e-02f,-1.48505852e-01f,
+6.22392595e-02f,+1.10024780e-01f,+1.15112662e-01f,+6.86763674e-02f,-9.44265574e-02f,
+1.97765231e-02f,+3.20266187e-03f,-1.65194288e-01f,-6.13106936e-02f,-9.62970257e-02f,
+2.48170346e-02f,-8.94753709e-02f,-1.29391372e-01f,-2.00318992e-02f,+1.39361292e-01f,
-1.11222677e-01f,-1.00178041e-01f,-2.64822245e-02f,-4.53209430e-02f,+9.41041112e-02f,
+1.02430612e-01f,-1.46109581e-01f,-2.06863433e-02f,-1.79578364e-02f,-1.48343727e-01f,
+2.95244455e-02f,-5.58839068e-02f,-1.30872145e-01f,-1.68656200e-01f,-8.48231241e-02f,
+8.90207887e-02f,+3.81999016e-02f,-6.79238886e-02f,-5.59592247e-03f,-6.22283518e-02f,
+9.70300138e-02f,-2.41757184e-02f,-1.14887267e-01f,+7.64465779e-02f,+1.36397839e-01f,
+9.08547640e-02f,-8.27599689e-02f,+1.14309371e-01f,-9.77504998e-02f,-3.67264748e-02f,
+1.89596266e-02f,-1.29525989e-01f,+4.58918959e-02f,+9.38185155e-02f,-1.65840343e-01f,
+5.46057373e-02f,-3.20187658e-02f,+2.47795433e-02f,-1.21427745e-01f,+1.20457172e-01f,
+2.16444880e-02f,-2.35193372e-02f,-2.61930823e-02f,+1.31341726e-01f,-1.45270243e-01f,
-1.14275679e-01f,+1.06826425e-02f,+8.89301896e-02f,-2.59200335e-02f,-1.59068212e-01f,
+1.72644824e-01f,+3.21698189e-03f,-8.43348056e-02f,-5.29228300e-02f,+1.71038389e-01f,
+1.45378858e-01f,+1.11406326e-01f,-3.33819687e-02f,+1.50326520e-01f,-4.13721651e-02f,
+6.24503940e-02f,+1.31109804e-01f,+1.32797837e-01f,-6.15452230e-03f,-1.60931662e-01f,
+1.71266645e-01f,+9.63495970e-02f,+1.51885957e-01f,-1.34071082e-01f,-1.02148861e-01f,
+1.26029313e-01f,+1.58445954e-01f,-8.60033035e-02f,-4.62105274e-02f,-1.53035879e-01f,
-1.70137331e-01f,+8.67329538e-02f,-6.60835579e-02f,+6.10407442e-02f,+3.60923856e-02f,
-1.68022841e-01f,-9.74780321e-02f,-1.38925105e-01f,-2.94884890e-02f,+5.79290092e-03f,
+1.09667778e-01f,+1.59460306e-01f,-1.01840794e-01f,-1.43110126e-01f,-1.40811712e-01f,
+8.86756778e-02f,+1.67087376e-01f,-4.36017811e-02f,-4.15482074e-02f,-8.84460434e-02f,
-8.19517374e-02f,+1.12249404e-01f,+6.61322474e-02f,-3.60347033e-02f,-3.29743475e-02f,
+1.68318063e-01f,+1.97038502e-02f,-9.19216648e-02f,+1.63373441e-01f,+1.36192173e-01f,
+7.90495872e-02f,-5.14915735e-02f,-5.64939231e-02f,-4.20850813e-02f,-2.98390388e-02f,
+9.91829336e-02f,+5.97612858e-02f,+6.49246424e-02f,+1.98261738e-02f,+1.08840138e-01f,
+1.48214519e-01f,-8.75638127e-02f,-1.31933764e-01f,+4.31770980e-02f,-1.35124564e-01f,
-1.60483807e-01f,-4.95823696e-02f,-3.16734612e-02f,-1.52244449e-01f,-1.61057696e-01f,
+1.40923381e-01f,+7.21420348e-03f,+6.33425415e-02f,-1.96141154e-02f,+1.73046708e-01f,
+9.75966156e-02f,-1.44345760e-01f,+1.63998991e-01f,-5.81797212e-02f,-4.65700477e-02f,
-1.68788418e-01f,+8.50126147e-02f,-8.23208317e-02f,+3.56160104e-03f,-7.14553371e-02f,
-6.90939873e-02f,-8.48086327e-02f,+1.08254492e-01f,+2.95916051e-02f,+4.30735201e-02f,
+8.83815885e-02f,+1.72909737e-01f,-4.57482189e-02f,+1.41611397e-01f,-1.31694078e-02f,
+1.51422352e-01f,+1.71124667e-01f,+1.50879920e-01f,-2.90955603e-02f,-2.59698331e-02f,
-4.04570550e-02f,-5.79093993e-02f,-1.00198068e-01f,+1.11992657e-03f,+2.32244432e-02f,
+3.91738862e-02f,-1.56905323e-01f,+1.01674795e-01f,+8.39039683e-04f,-2.69422084e-02f,
-1.56255990e-01f,-1.48886979e-01f,+1.33940637e-01f,-1.37210846e-01f,-5.21762073e-02f,
-7.74258524e-02f,+1.08973384e-02f,+5.00915349e-02f,+8.06826055e-02f,+1.57476425e-01f,
+5.64053059e-02f,-3.59834582e-02f,-9.83641446e-02f,-1.63089961e-01f,-1.25627548e-01f,
+1.46395117e-01f,-1.40035480e-01f,+6.68216348e-02f,+1.69404924e-01f,+4.25439477e-02f,
+6.59178495e-02f,+2.31439173e-02f,-1.11180395e-01f,+7.25028366e-02f,-4.32031453e-02f,
-7.52085000e-02f,-1.61578804e-01f,+1.73366070e-03f,+1.05390757e-01f,-4.30925190e-03f,
+1.13201082e-01f,+3.15202773e-03f,-3.79468799e-02f,-8.13077763e-02f,+2.51285732e-02f,
+1.33339703e-01f,+6.62604719e-02f,-6.73001632e-02f,+3.95215154e-02f,+1.23554558e-01f,
+1.00243568e-01f,+1.12764359e-01f,+2.02574581e-02f,+5.55169582e-03f,-1.55684710e-01f,
-2.28892118e-02f,-1.22410484e-01f,+1.59041435e-02f,+1.66167110e-01f,-2.44059861e-02f,
-1.44521028e-01f,+6.76402748e-02f,-1.05858497e-01f,+2.23209858e-02f,+2.86668688e-02f,
-1.04032919e-01f,+1.36463314e-01f,-1.61574706e-01f,-4.90126610e-02f,+9.86148417e-03f,
+1.96181983e-02f,-3.86258513e-02f,-1.69576794e-01f,-1.43306658e-01f,-5.59923053e-03f,
-3.75965238e-02f,+4.52743620e-02f,-1.58793971e-01f,-3.93412560e-02f,-6.38136417e-02f,
-1.17626294e-01f,+1.51479691e-01f,+2.66574770e-02f,-1.69474497e-01f,+7.34121203e-02f,
-6.07419685e-02f,-1.18215665e-01f,-1.33546472e-01f,-2.06782073e-02f,+3.48043889e-02f,
-3.72859091e-02f,-1.72187358e-01f,-3.82205844e-02f,-1.40734404e-01f,-3.93659025e-02f,
+1.50807947e-01f,+1.17713749e-01f,+2.26050466e-02f,-8.09602439e-03f,+1.18695319e-01f,
+2.51781195e-02f,+3.14181745e-02f,+3.92514318e-02f,+2.84754634e-02f,+2.89458632e-02f,
-4.10943180e-02f,-1.20241076e-01f,+1.21926636e-01f,+8.76278579e-02f,+2.05243528e-02f,
+3.40284109e-02f,-1.54260814e-01f,-4.14536744e-02f,-1.00223139e-01f,-8.05301890e-02f,
-7.74858966e-02f,-2.41618007e-02f,-7.70361498e-02f,+1.24023020e-01f,+6.57205284e-02f,
+1.45430237e-01f,-1.53340504e-01f,+5.08113652e-02f,-3.05700451e-02f,-6.92443028e-02f,
+3.04054916e-02f,+1.44555867e-02f,-3.04540992e-03f,+1.10888183e-02f,-4.52106446e-02f,
+1.00364089e-02f,+3.06991041e-02f,-1.42653525e-01f,-1.54925331e-01f,+1.80135071e-02f,
-1.71850473e-01f,-4.81149405e-02f,+1.04247153e-01f,-1.19142339e-01f,-8.97689015e-02f,
-1.45461366e-01f,+1.55590862e-01f,-1.54879004e-01f,-1.04649164e-01f,-7.78267905e-02f,
-7.77716190e-02f,-1.08351417e-01f,+1.62802428e-01f,-6.09007925e-02f,+4.83733416e-03f,
+1.02418900e-01f,+5.22568524e-02f,-7.48176873e-02f,+1.21786028e-01f,-7.46622682e-04f,
-5.44672757e-02f,-1.63266495e-01f,-1.58235326e-01f,+1.29148901e-01f,-1.69983596e-01f,
-2.61899829e-02f,+1.27705246e-01f,-1.72833174e-01f,+9.67965424e-02f,-3.20703536e-02f,
-7.08985925e-02f,-9.62379575e-03f,+1.82212293e-02f,+1.44563437e-01f,+6.19285107e-02f,
+8.49033594e-02f,+8.18840265e-02f,+2.63070166e-02f,-1.06122792e-02f,+1.24155909e-01f,
-1.32540509e-01f,+5.09985089e-02f,+6.94724619e-02f,+4.83454466e-02f,+2.80912966e-02f,
-6.57757074e-02f,+9.66758132e-02f,-1.09136112e-01f,+1.02069825e-01f,-2.31416076e-02f,
-9.91056859e-02f,+4.78304178e-02f,+1.66911095e-01f,-1.47127301e-01f,+1.19386792e-01f,
+5.29303402e-02f,-4.38680947e-02f,+4.30753082e-02f,+5.83860725e-02f,+7.37311244e-02f,
+9.48305428e-02f,-9.16351974e-02f,-6.38943315e-02f,-1.66884542e-01f,-1.55550465e-01f,
-1.01785131e-01f,+7.02378750e-02f,+8.86683464e-02f,-1.22881949e-01f,+4.91239429e-02f,
+5.00401258e-02f,+1.89594626e-02f,-1.23280868e-01f,+2.21038163e-02f,-1.63201287e-01f,
+9.69991088e-04f,+1.42304450e-01f,-5.00218570e-03f,+6.97163492e-02f,-1.18310563e-01f,
-1.42921820e-01f,+1.08247846e-02f,+1.56660736e-01f,+8.77083838e-02f,-1.66124165e-01f,
+4.31391895e-02f,+1.26670092e-01f,-1.07382335e-01f,+2.84363329e-03f,+1.63414508e-01f,
+1.46858215e-01f,+7.19368458e-02f,+1.68340653e-01f,+1.44374400e-01f,-4.31839079e-02f,
-1.29133463e-04f,-3.86664867e-02f,+1.11912489e-01f,+1.31610632e-01f,+1.44823879e-01f,
-8.80278498e-02f,+1.38026714e-01f,+8.91591311e-02f,+1.14959091e-01f,+1.05776787e-01f,
-5.72772101e-02f,+1.42871439e-02f,+1.26354367e-01f,-6.61629289e-02f,+1.23421729e-01f,
+1.03070021e-01f,-7.69681334e-02f,+1.28781825e-01f,-2.28933692e-02f,-1.30497470e-01f,
-3.15160453e-02f,+9.13468003e-02f,+3.29016149e-03f,-1.02801695e-01f,+4.58997339e-02f,
+7.33800679e-02f,-7.54229724e-03f,+6.17371947e-02f,+1.47879541e-01f,+1.28795564e-01f,
+1.56019926e-02f,-1.15394443e-02f,-1.37158900e-01f,-1.04936413e-01f,-4.80114520e-02f,
-7.97425658e-02f,+1.83023214e-02f,-5.68473265e-02f,+5.68266362e-02f,+4.88484204e-02f,
+1.11948699e-01f,+1.53911710e-01f,-1.62543416e-01f,+1.41068548e-02f,+7.66387582e-02f,
+8.07003975e-02f,+2.78183818e-02f,+1.59521163e-01f,+7.44488388e-02f,+8.76257122e-02f,
+5.47148436e-02f,+1.21020943e-01f,+3.76521051e-02f,-7.15836436e-02f,-2.64123976e-02f,
-1.67773917e-01f,+1.55423611e-01f,+4.09883261e-02f,-7.56517649e-02f,-6.03209659e-02f,
-1.70099467e-01f,+5.39195687e-02f,+8.88109207e-06f,+1.36106074e-01f,+5.67013919e-02f,
-4.50502336e-03f,-1.20748520e-01f,+1.11485362e-01f,-1.22458786e-02f,-1.06862888e-01f,
-1.56539530e-01f,-1.65792450e-01f,-9.37406421e-02f,-1.22781858e-01f,-1.27387941e-01f,
-5.48497513e-02f,+1.26193017e-01f,-6.28610849e-02f,-1.34172425e-01f,+9.95774567e-02f,
-1.47144109e-01f,+1.34494156e-01f,+5.07128239e-02f,+2.34921277e-03f,-1.01046070e-01f,
+3.75501513e-02f,+1.08641624e-01f,+5.77525198e-02f,-7.33293593e-02f,-1.01040743e-01f,
+1.07836872e-01f,-1.01107307e-01f,-1.31517962e-01f,+6.89223707e-02f,-1.25701800e-01f,
-1.62410736e-03f,+1.42731756e-01f,-5.37548885e-02f,-8.00792426e-02f,-7.81150758e-02f,
+1.94458365e-02f,+2.52126008e-02f,+1.51492983e-01f,-5.66674769e-03f,-3.00945789e-02f,
+4.81039137e-02f,-4.12945598e-02f,+1.53895617e-02f,-1.20733812e-01f,-1.57105848e-01f,
+9.45798755e-02f,+6.76082075e-03f,+3.72298658e-02f,-5.52953705e-02f,+8.58739316e-02f,
-1.53813586e-01f,+1.11425608e-01f,+1.22526437e-01f,-8.70399401e-02f,-6.72766641e-02f,
+1.73726082e-02f,-5.55897206e-02f,+1.96549147e-02f,-5.04814088e-03f,+1.23845041e-01f,
-1.56754553e-01f,+7.92403817e-02f,+6.47972077e-02f,+1.55842334e-01f,+1.36240989e-01f,
+5.18320948e-02f,+6.93047941e-02f,-1.67776734e-01f,-1.37708902e-01f,+3.29014957e-02f,
+2.49741673e-02f,+1.46480769e-01f,+1.65280104e-01f,-1.44667506e-01f,-8.01947862e-02f,
+3.08869481e-02f,-1.40159741e-01f,-6.76726475e-02f,+2.97344029e-02f,+1.62701190e-01f,
+8.31619799e-02f,+1.64349049e-01f,-1.62471846e-01f,+8.51740837e-02f,+1.32865727e-01f,
-1.30850419e-01f,-1.12898402e-01f,-3.21726799e-02f,+6.23903573e-02f,-8.17434043e-02f,
+5.65082878e-02f,-1.26308352e-01f,-1.69431135e-01f,+1.84838474e-03f,-5.59625030e-03f,
+8.63704681e-02f,-3.67056727e-02f,+7.63283521e-02f,-6.60651028e-02f,+5.44786751e-02f,
-1.22148633e-01f,+4.95085716e-02f,-1.30873218e-01f,+3.97156775e-02f,+1.18005306e-01f,
-3.97375226e-02f,-5.56323379e-02f,+2.01903880e-02f,-1.26317188e-01f,+8.43009055e-02f,
-1.09022379e-01f,-4.21071351e-02f,-7.52447993e-02f,+1.33574873e-01f,+1.14280105e-01f,
+1.68303668e-01f,+6.29982650e-02f,-4.36543822e-02f,-6.24493286e-02f,-9.76603106e-02f,
-5.90128526e-02f,+8.77701640e-02f,-6.20769262e-02f,-1.70151994e-01f,+1.64643317e-01f,
+1.69653028e-01f,+1.31693721e-01f,-2.37659514e-02f,-1.38467014e-01f,+1.63184017e-01f,
-1.23821214e-01f,-1.28135949e-01f,+6.20481074e-02f,-2.76485234e-02f,-1.42208070e-01f,
+6.06436431e-02f,+9.08537209e-02f,+1.71709538e-01f,-3.01151872e-02f,+5.92322648e-03f,
-1.47916198e-01f,+9.50095057e-02f,-4.44626957e-02f,+1.05520219e-01f,-1.10236295e-01f,
-1.44477487e-02f,-2.57720649e-02f,+4.66976464e-02f,-1.27476007e-01f,+1.07192963e-01f,
-1.09525479e-01f,-5.23064956e-02f,+9.93444026e-02f,-1.45354658e-01f,-5.34164757e-02f,
+1.37176603e-01f,-1.05893061e-01f,-1.73077881e-01f,-9.42011625e-02f,+8.19998085e-02f,
+9.31322873e-02f,+1.49860084e-01f,-9.45364013e-02f,-1.30067468e-01f,-6.83925077e-02f,
+9.45335627e-02f,-3.43118608e-02f,-3.41339558e-02f,+1.62646741e-01f,-1.63981274e-01f,
+1.43835306e-01f,-5.55184484e-02f,+6.28254414e-02f,-1.11809820e-01f,-8.58750790e-02f,
-7.75820315e-02f,-8.75102505e-02f,+1.43257856e-01f,-2.54386067e-02f,+1.66289449e-01f,
-7.04630539e-02f,+1.20079339e-01f,-2.37991512e-02f,+1.26238346e-01f,-2.73872167e-02f,
-1.63159043e-01f,-1.10889055e-01f,-1.95741355e-02f,-5.85834682e-02f,-7.17626959e-02f,
-1.56353042e-01f,+1.13262743e-01f,-1.44823477e-01f,-6.49388954e-02f,+2.69768238e-02f,
+9.11697447e-02f,+1.41152889e-01f,+1.46042705e-01f,-6.61031753e-02f,-1.65342912e-01f,
+7.79206455e-02f,-1.00643605e-01f,-8.52809846e-03f,-3.82930189e-02f,-1.43610984e-02f,
-9.76388305e-02f,-7.16110170e-02f,-1.31437629e-02f,+5.80977947e-02f,-8.47792625e-03f,
-1.69583976e-01f,+2.80974954e-02f,+1.71898693e-01f,-1.01978101e-01f,+5.45427650e-02f,
+1.11150920e-01f,+1.51198983e-01f,+1.36377811e-02f,+7.13763833e-02f,+1.29896790e-01f,
-9.82609093e-02f,+1.52486563e-01f,-7.06687570e-04f,-1.62668407e-01f,-1.67963654e-02f,
+5.38189709e-02f,-1.70348883e-01f,-7.03625381e-02f,-9.61036012e-02f,-1.01020589e-01f,
+3.91429216e-02f,-8.59236866e-02f,+3.52722704e-02f,+1.65159523e-01f,-1.15649492e-01f,
-5.97282127e-02f,+7.78818727e-02f,+1.39905155e-01f,-6.55580759e-02f,-8.73787701e-02f,
+1.07046366e-01f,+1.40709877e-01f,+2.22919434e-02f,+1.15271926e-01f,-1.03282705e-01f,
-2.41033733e-02f,-1.43677235e-01f,-1.40946582e-01f,-3.16320062e-02f,-1.48316801e-01f,
+5.04955649e-04f,-1.32386938e-01f,+1.19390547e-01f,-1.31364048e-01f,-7.69130886e-02f,
+1.46617949e-01f,-1.64022729e-01f,+7.89044201e-02f,-7.86687210e-02f,+4.25060391e-02f,
-8.22361410e-02f,-1.47571310e-01f,-1.64930731e-01f,+1.55561835e-01f,-1.57322362e-01f,
-5.58006540e-02f,-1.44121498e-02f,+4.31337357e-02f,+9.18196142e-02f,+7.37846792e-02f,
-4.61712480e-02f,-1.56813398e-01f,+1.13149792e-01f,-1.18613258e-01f,+1.53453529e-01f,
-1.59564748e-01f,-1.65436730e-01f,+3.36341560e-02f,-9.68658254e-02f,-9.41767618e-02f,
-3.88363749e-02f,-1.37214646e-01f,-2.70073414e-02f,-1.69551805e-01f,-1.13735043e-01f,
-3.59357148e-02f,-1.50521517e-01f,+2.16494501e-03f,+7.63874352e-02f,-5.89650720e-02f,
+7.33428150e-02f,+3.37505788e-02f,-1.32632896e-01f,+1.63809270e-01f,+1.40899122e-02f,
-8.40542018e-02f,-6.96215779e-02f,-1.57630309e-01f,+7.58372992e-02f,-1.38172075e-01f,
+1.53453797e-02f,+1.46592975e-01f,+1.35015041e-01f,-3.25936079e-03f,-8.06644782e-02f,
-5.86395413e-02f,+1.48276865e-01f,-2.48946249e-02f,-3.35739106e-02f,-1.66726217e-01f,
+3.41661274e-02f,-7.09915459e-02f,-5.80934137e-02f,+4.81271595e-02f,+9.57167149e-02f,
-7.41423368e-02f,+4.29945290e-02f,-6.33369684e-02f,+1.64320171e-02f,-5.52886352e-02f,
+1.50645822e-01f,-7.72465467e-02f,-1.49878308e-01f,+8.02955925e-02f,-1.40526325e-01f,
-3.55314314e-02f,+4.04714197e-02f,-1.06311962e-01f,-1.61910206e-02f,-1.39745384e-01f,
+4.64052707e-02f,+1.40822500e-01f,+1.80092901e-02f,+4.62573916e-02f,+9.58912969e-02f,
+3.49907577e-03f,+3.59011889e-02f,+5.20388186e-02f,+8.43694508e-02f,+8.02004933e-02f,
+7.10324347e-02f,+1.14176005e-01f,+1.53824985e-01f,+1.57005966e-01f,+1.59714550e-01f,
-5.58482707e-02f,-1.61228031e-01f,+1.16419792e-03f,-6.78151846e-03f,+1.20524943e-01f,
-3.30460817e-02f,+1.42517239e-01f,-1.44727543e-01f,+1.57459766e-01f,-8.12166408e-02f,
-8.07488486e-02f,-1.32796288e-01f,-1.40225589e-02f,-5.71838468e-02f,-1.37536705e-01f,
+1.55319005e-01f,-1.35088593e-01f,+2.44435668e-03f,+5.73656708e-02f,-4.24327105e-02f,
-1.02391101e-01f,+1.10166460e-01f,+9.32762325e-02f,+2.06180513e-02f,+1.47079438e-01f,
+2.16342062e-02f,+1.34649128e-02f,+1.63946986e-01f,-7.14003742e-02f,+1.11403584e-01f,
+2.38237977e-02f,+1.34635746e-01f,+7.66640455e-02f,-2.70231962e-02f,-1.58208847e-01f,
-7.16955960e-02f,+1.34066015e-01f,+7.37445056e-02f,-1.64231449e-01f,-1.33530736e-01f,
-1.05208591e-01f,-2.87495852e-02f,+3.49378586e-02f,-1.71367109e-01f,+1.15094721e-01f,
-1.49562687e-01f,-2.96484977e-02f,+7.35917091e-02f,-1.63833559e-01f,+1.66106373e-01f,
-7.70238042e-02f,-1.28285781e-01f,-1.07938960e-01f,+1.12832576e-01f,+1.61646962e-01f,
+1.51926458e-01f,-9.78562161e-02f,-2.42538154e-02f,-8.77397731e-02f,+5.55165410e-02f,
+6.91565871e-02f,+7.79814124e-02f,+6.88263476e-02f,-6.06842339e-03f,+1.59075588e-01f,
-3.71357501e-02f,-4.21086997e-02f,-9.29841474e-02f,+1.17015213e-01f,+8.20376873e-02f,
-8.50255564e-02f,+9.71318781e-03f,+8.75698328e-02f,+1.43707931e-01f,+4.97432947e-02f,
-1.11798748e-01f,-7.49173686e-02f,-7.83188641e-02f,+3.36680710e-02f,-6.86250776e-02f,
-1.57921970e-01f,+3.20411175e-02f,-1.21652469e-01f,+9.00397897e-02f,+2.18104869e-02f,
-1.56578094e-01f,-7.52326623e-02f,+1.29548013e-01f,-1.11454546e-01f,-1.03198297e-01f,
+1.21748120e-01f,-3.92250568e-02f,+9.43681300e-02f,+2.19899565e-02f,-4.98908758e-03f,
+1.12502694e-01f,-5.32474518e-02f,-1.40624970e-01f,-9.81793478e-02f,+8.99091661e-02f,
-1.52323365e-01f,+1.50031894e-01f,+3.81796956e-02f,-1.49989128e-02f,-9.34691206e-02f,
+1.01896256e-01f,-4.40214574e-02f,-1.17654383e-01f,-1.02936529e-01f,+1.52460515e-01f,
+1.67390406e-01f,+4.19680029e-02f,+1.25705808e-01f,+1.13210231e-02f,-1.40610904e-01f,
-1.48714483e-01f,+9.49924588e-02f,-5.28907850e-02f,+7.66746551e-02f,+1.59396023e-01f,
-2.90970802e-02f,-9.28897113e-02f,-1.72933146e-01f,+1.60524696e-01f,-1.79786086e-02f,
-1.52038798e-01f,+5.20128906e-02f,+1.30529940e-01f,+1.11269355e-01f,+1.37244910e-01f,
+1.35982037e-01f,+1.57691538e-02f,+1.26328081e-01f,+2.38710791e-02f,+1.04420185e-02f,
+1.44977927e-01f,-5.62202930e-03f,+1.44470364e-01f,-9.84060988e-02f,-1.34382322e-01f,
-6.46764264e-02f,+4.37140465e-03f,-3.22304070e-02f,+6.22330606e-02f,-1.29496425e-01f,
+1.68439835e-01f,-7.88513646e-02f,-8.34955648e-02f,-3.96047682e-02f,+5.17077595e-02f,
-1.65299013e-01f,+2.10599005e-02f,+9.17528570e-03f,-1.12827212e-01f,-1.32526755e-01f,
+1.02673918e-01f,+6.93578720e-02f,-1.28869563e-01f,-4.17521149e-02f,-1.03716224e-01f,
-7.02931210e-02f,+3.93903106e-02f,+4.87975031e-02f,+1.48761600e-01f,+1.09945565e-01f,
+2.51632929e-03f,-1.70325637e-01f,-6.05583340e-02f,-2.98892558e-02f,+4.88084108e-02f,
-1.62017316e-01f,+7.06207156e-02f,+9.41201150e-02f,-7.84800798e-02f,-1.41994908e-01f,
-7.63063133e-03f,+7.62570351e-02f,-1.42519280e-01f,-1.19810656e-01f,-1.14830852e-01f,
-9.30778906e-02f,-1.41647160e-01f,-8.58729333e-02f,-2.96006799e-02f,-3.27809602e-02f,
+8.03549588e-03f,-2.46286094e-02f,-1.22411929e-01f,+6.79025352e-02f,+1.59390688e-01f,
+7.74011314e-02f,-4.71408665e-02f,+2.26668715e-02f,+1.79371089e-02f,+1.65105700e-01f,
-1.55359358e-01f,+1.18769974e-01f,+1.30598575e-01f,-1.44161582e-02f,+1.33697271e-01f,
-1.59919679e-01f,-1.95973516e-02f,+1.11812085e-01f,+5.08658737e-02f,-5.63913882e-02f,
-4.26315367e-02f,+6.83998168e-02f,+8.00296366e-02f,-1.02822967e-01f,-6.74030706e-02f,
+1.35320187e-01f,+1.05134219e-01f,-3.13530862e-03f,+1.04850054e-01f,+1.54735148e-02f,
-3.19248289e-02f,-1.21147387e-01f,+1.33856028e-01f,+9.36495364e-02f,-1.63721740e-01f,
+4.34408039e-02f,-9.92977098e-02f,+1.45665199e-01f,-1.34163469e-01f,+1.17928177e-01f,
+9.26969051e-02f,+1.01935208e-01f,+7.12245405e-02f,-1.71224922e-01f,+1.48000240e-01f,
+1.34535909e-01f,-8.16712976e-02f,-1.07718356e-01f,+6.91062510e-02f,+1.03875667e-01f,
+6.38175160e-02f,+9.72301066e-02f,-1.34933949e-01f,-1.24251723e-01f,+8.45333040e-02f,
+3.09957266e-02f,+1.19532198e-02f,+2.67449021e-03f,+1.69046730e-01f,+1.21447265e-01f,
-1.34159297e-01f,+1.56137854e-01f,+5.78301996e-02f,+1.24556452e-01f,-2.04120278e-02f,
+1.11585259e-02f,+7.09503293e-02f,+6.35371208e-02f,+1.09277368e-02f,-7.58059248e-02f,
-1.35596097e-02f,+1.33736730e-01f,-1.58131719e-01f,+1.58317953e-01f,-1.06419496e-01f,
-1.03107572e-01f,+1.18607312e-01f,+1.44145280e-01f,+6.93678856e-04f,-8.57916251e-02f,
+1.16328716e-01f,+1.13016963e-02f,-5.29125482e-02f,+1.55221641e-01f,-1.56489104e-01f,
-1.34274170e-01f,+6.05162978e-02f,+1.30575597e-01f,+1.12305224e-01f,-9.25349817e-02f,
-4.05305624e-02f,+1.31817669e-01f,-1.54603809e-01f,+1.63025916e-01f,+1.41853929e-01f,
-2.18564123e-02f,+1.17130786e-01f,+5.04609197e-02f,+6.75967336e-03f,+1.35945141e-01f,
-1.44876495e-01f,+1.28649771e-02f,+1.55270845e-02f,+3.40460837e-02f,-5.33429235e-02f,
+1.55435115e-01f,-1.51049495e-02f,+2.35991925e-02f,-1.69449061e-01f,-1.61556572e-01f,
-1.35701790e-01f,-3.78402919e-02f,-1.29618660e-01f,-6.43406510e-02f,+2.35619843e-02f,
+1.45662129e-01f,-1.08032696e-01f,-2.72148103e-02f,+5.17102331e-02f,+3.73043716e-02f,
-8.39664936e-02f,+1.39201403e-01f,-1.18665203e-01f,-2.51188278e-02f,-1.05575547e-01f,
+6.94027543e-02f,-2.19371766e-02f,-8.51709098e-02f,+7.57222921e-02f,+1.26218408e-01f,
-4.92539480e-02f,-6.42625168e-02f,+8.10190737e-02f,+9.51530635e-02f,-1.04447439e-01f,
+6.27631694e-02f,-1.15587920e-01f,-3.16004902e-02f,-1.18941352e-01f,+5.00143170e-02f,
+2.18282044e-02f,-5.31636178e-03f,+1.44649565e-01f,-1.49520904e-01f,+7.99062252e-02f,
-1.41533971e-01f,+1.67852342e-01f,-5.22842407e-02f,-1.53499126e-01f,+1.32961988e-01f,
-3.81044596e-02f,-1.37550622e-01f,+2.85149813e-02f,+6.83398098e-02f,+1.44695342e-01f,
+1.21542215e-01f,-3.01615149e-02f,+1.48052484e-01f,-1.15105227e-01f,+1.18142515e-02f,
-7.31756985e-02f,-1.14201307e-01f,-8.78126174e-02f,-1.28065422e-01f,-2.85357237e-02f,
-3.77222300e-02f,-3.86888385e-02f,-1.37191683e-01f,-1.38489842e-01f,+2.71289498e-02f,
-6.06093332e-02f,-5.13644665e-02f,-1.58112511e-01f,+3.03906202e-02f,-2.19124407e-02f,
-1.95875168e-02f,-9.11659971e-02f,-9.15534347e-02f,-1.20834619e-01f,+7.68058002e-02f,
+1.13552153e-01f,-1.16850443e-01f,-1.21019907e-01f,+1.04354978e-01f,+7.91876018e-02f,
+1.03802234e-01f,+1.23207808e-01f,-7.88991898e-02f,+1.70775265e-01f,+5.50442934e-02f,
+2.63174623e-02f,-5.53296879e-02f,-3.51183116e-02f,+9.18732584e-02f,+1.30015135e-01f,
+1.27082795e-01f,-8.94379988e-02f,+9.73752141e-03f,-1.72603279e-02f,+1.55664057e-01f,
-1.51423782e-01f,-1.51060387e-01f,+7.27701038e-02f,-1.16925895e-01f,-9.86970663e-02f,
-4.75275069e-02f,-7.83526450e-02f,-7.41897076e-02f,+1.08854473e-01f,+5.02866656e-02f,
-1.27904996e-01f,+1.03081048e-01f,-1.72397956e-01f,-7.19043389e-02f,+1.32339656e-01f,
+1.25263125e-01f,+1.26257032e-01f,-1.00595333e-01f,-1.49938762e-02f,-5.07093966e-02f,
+5.11743873e-02f,+4.99064475e-02f,+3.19724828e-02f,-1.69692129e-01f,+6.35325909e-04f,
+1.25935167e-01f,-7.52471387e-03f,-6.56006113e-02f,+1.34548903e-01f,+5.87528646e-02f,
-3.98619473e-03f,-1.62860975e-01f,+4.91240323e-02f,-9.47802886e-02f,-4.17950600e-02f,
-6.31100535e-02f,+1.35435402e-01f,+7.57906437e-02f,-5.25981188e-04f,-1.41068250e-01f,
-1.63319305e-01f,+1.69871897e-01f,-1.06555440e-01f,+1.08440727e-01f,-5.73149174e-02f,
-1.45056397e-02f,-5.04066646e-02f,-9.26619247e-02f,+4.26390171e-02f,-3.71936560e-02f,
-5.49381599e-02f,+1.11736059e-02f,+8.73430073e-02f,+7.33647048e-02f,+1.16969407e-01f,
+1.16414368e-01f,-1.65160596e-02f,+2.79608816e-02f,-9.80396494e-02f,+2.06814706e-02f,
+1.15724117e-01f,-1.31863475e-01f,-8.42231438e-02f,-1.45081162e-01f,-1.57456115e-01f,
+5.50006777e-02f,-1.57964632e-01f,-2.46333182e-02f,+1.68993771e-01f,-1.27794489e-01f,
+6.21555895e-02f,+1.32075310e-01f,-1.43966064e-01f,+6.30705655e-02f,+8.98443460e-02f,
+4.44966406e-02f,-8.16709697e-02f,+1.25105828e-02f,+1.30337149e-01f,+1.63495481e-01f,
-1.62624359e-01f,-1.66415632e-01f,-6.37863874e-02f,+9.07464325e-02f,-1.47378892e-02f,
-1.18232474e-01f,+8.11654329e-02f,-8.96739960e-03f,+2.09189653e-02f,+7.67400265e-02f,
-5.51328063e-04f,-4.84319031e-03f,-8.37610066e-02f,-5.20651042e-03f,-1.66224554e-01f,
+1.51245385e-01f,-3.13075781e-02f,-5.28686047e-02f,+1.20572954e-01f,-1.65133908e-01f,
-1.35794669e-01f,-1.12687334e-01f,+1.23056501e-01f,+5.47742695e-02f,+9.95785296e-02f,
+1.33263975e-01f,+8.71749222e-02f,-1.13598064e-01f,+1.37127131e-01f,-3.31139266e-02f,
-1.25720963e-01f,-1.03663117e-01f,-1.45269632e-01f,-2.71987766e-02f,-1.02397054e-02f,
+9.13572907e-02f,-1.58328399e-01f,+1.30530328e-01f,+1.06950194e-01f,-6.76304847e-02f,
+1.53811246e-01f,+1.66446924e-01f,+4.40649688e-03f,+7.29658306e-02f,-6.93817735e-02f,
+1.10660911e-01f,-1.60498425e-01f,+4.01579589e-02f,-6.05653226e-03f,+9.43546593e-02f,
+1.33058488e-01f,+1.01133406e-01f,+1.73015654e-01f,-1.03082426e-01f,+2.05904543e-02f,
+1.61072999e-01f,+8.52736831e-02f,+4.53841984e-02f,+4.80586290e-03f,+6.22075796e-02f,
-4.50601131e-02f,+1.22131109e-01f,-9.60921571e-02f,+8.59412551e-03f,+1.57414168e-01f,
-1.52149543e-01f,-2.19737738e-02f,-1.23057790e-01f,-1.67145029e-01f,-1.00532807e-01f,
+6.03038222e-02f,-1.59444526e-01f,+5.37496805e-02f,+8.62334073e-02f,-9.14500728e-02f,
-6.10949248e-02f,+9.15358365e-02f,-9.31067988e-02f,-2.01657414e-03f,+1.18580252e-01f,
-1.22648388e-01f,-1.56815961e-01f,+2.61286497e-02f,+1.43268496e-01f,-9.37932730e-03f,
-9.31385159e-02f,-1.48898035e-01f,+2.54929066e-03f,-8.70847702e-03f,+8.02924931e-02f,
-7.54905939e-02f,+4.54397500e-02f,+7.68445730e-02f,-1.37452468e-01f,-1.54276177e-01f,
-6.41615912e-02f,-1.88845992e-02f,-9.01833773e-02f,+6.74610436e-02f,+9.08161402e-02f,
-1.06883243e-01f,-1.26391396e-01f,-6.62843361e-02f,-2.99703181e-02f,+1.68519765e-01f,
+1.41179562e-02f,-1.44767970e-01f,+2.49879211e-02f,+1.07119769e-01f,-3.90471518e-02f,
-1.01076834e-01f,+4.50703949e-02f,+4.39047217e-02f,-1.31624132e-01f,-1.52105153e-01f,
+3.38745117e-03f,+1.71395302e-01f,+7.14348108e-02f,-1.44883811e-01f,+1.33918166e-01f,
+1.35397762e-02f,+1.55184537e-01f,-8.22795779e-02f,-6.54385686e-02f,+7.12800771e-02f,
+1.58615142e-01f,-3.31452489e-03f,-7.77202472e-02f,-2.43581235e-02f,+2.01068074e-02f,
-2.49921679e-02f,-2.67643183e-02f,-1.71479508e-01f,-2.33460069e-02f,+8.30244124e-02f,
+1.07648969e-01f,+8.73988867e-02f,-1.00776285e-01f,+5.52711338e-02f,-1.66175619e-01f,
+8.10714066e-02f,-2.23519504e-02f,+8.80080760e-02f,+8.80593657e-02f,-1.48531497e-01f,
-4.41183001e-02f,-1.55821294e-02f,+1.91594958e-02f,+5.26442975e-02f,+1.34064794e-01f,
-1.25224307e-01f,-2.11544335e-02f,+1.22841030e-01f,+1.48810029e-01f,-6.55443668e-02f,
+1.59927607e-02f,+1.00158095e-01f,-1.48635074e-01f,+1.51394099e-01f,-1.11911356e-01f,
+9.22095478e-02f,-4.35710996e-02f,-8.81634653e-03f,-3.83290201e-02f,+1.47757679e-01f,
+1.54183716e-01f,-4.00174260e-02f,-1.68332011e-02f,-6.32497966e-02f,-3.32111716e-02f,
-1.67793661e-01f,-2.26721615e-02f,-1.73960626e-02f,-1.19608641e-01f,-5.18395677e-02f,
-8.22838321e-02f,+8.49978924e-02f,-5.99372461e-02f,+6.72844350e-02f,-1.18551403e-02f,
-1.67679310e-01f,-3.47810984e-02f,+9.61298645e-02f,+8.58440399e-02f,-1.97602808e-03f,
+7.38571584e-02f,-1.07528068e-01f,+5.51581830e-02f,-7.88912177e-02f,+1.47201061e-01f,
-1.09211765e-01f,-5.99953532e-02f,-8.93176198e-02f,+1.52646452e-02f,-1.46602109e-01f,
-1.03689544e-01f,-1.11325257e-01f,+1.36307478e-01f,-1.28971040e-02f,-5.36546633e-02f,
-1.12141043e-01f,-1.23180062e-01f,-2.70340592e-02f,+1.40495807e-01f,-1.10133305e-01f,
+9.14994478e-02f,+3.64251882e-02f,+5.16624600e-02f,-9.93028283e-02f,+1.53199881e-01f,
+8.26961398e-02f,-1.13191970e-01f,+9.72456336e-02f,+1.86459869e-02f,-3.64509523e-02f,
+3.84733975e-02f,+1.83337927e-02f,-7.33123720e-03f,-9.12797302e-02f,-5.41018546e-02f,
-3.29175293e-02f,-1.44046292e-01f,-5.90716973e-02f,+4.93604541e-02f,-6.24901056e-03f,
+1.51808828e-01f,-1.11780539e-01f,+7.49886036e-04f,+1.20868176e-01f,+4.34555113e-03f,
-1.15441531e-01f,-1.40708104e-01f,+1.13474309e-01f,-2.71303952e-02f,-6.60097599e-03f,
-1.72578096e-02f,-1.16843134e-01f,+9.84466970e-02f,-1.03071645e-01f,-1.25291169e-01f,
-1.39125377e-01f,+4.85597700e-02f,+1.61331058e-01f,-1.02227733e-01f,-1.96150690e-02f,
+1.83791816e-02f,+3.13702673e-02f,-1.65935114e-01f,+1.38440609e-01f,+6.30756468e-02f,
+1.20319963e-01f,-9.07918662e-02f,+3.04849446e-02f,-3.71280313e-02f,-8.07191581e-02f,
-1.66621029e-01f,-2.21680254e-02f,+1.25616401e-01f,-1.99919641e-02f,+9.47183967e-02f,
+4.45460379e-02f,-4.12295610e-02f,+4.45194393e-02f,-5.61371297e-02f,-3.31150740e-02f,
-1.71530724e-01f,-1.32793859e-01f,-8.13458115e-02f,-2.94078290e-02f,-4.58092988e-02f,
+4.98715937e-02f,-1.04673199e-01f,-1.17762037e-01f,-6.50248304e-02f,+1.39033675e-01f,
+2.20495909e-02f,+3.68358642e-02f,-4.05106992e-02f,-1.67677209e-01f,-1.61555260e-01f,
-6.52303994e-02f,+1.48220927e-01f,+1.24615818e-01f,+1.04491591e-01f,-1.22142851e-01f,
+5.59527427e-02f,+1.00126714e-01f,+3.73728722e-02f,-1.62173569e-01f,+1.00209922e-01f,
-1.06969841e-01f,-2.54852772e-02f,-7.20524788e-03f,+7.40531832e-02f,-4.49723005e-03f,
-6.81936294e-02f,-3.08478773e-02f,+5.65722138e-02f,-1.21523127e-01f,+7.39463866e-02f,
-7.68345445e-02f,-1.71164930e-01f,+5.70960939e-02f,-3.28567326e-02f,-1.12167887e-01f,
+9.03426111e-03f,+1.41987532e-01f,+6.49024695e-02f,-7.92859569e-02f,-1.28849164e-01f,
+1.28912479e-01f,+1.48888707e-01f,-1.14149235e-01f,+3.84302437e-02f,-1.53631687e-01f,
+1.42067790e-01f,+1.71730369e-01f,+1.50103748e-01f,-1.34220734e-01f,+1.04076475e-01f,
+1.75358504e-02f,+6.25374019e-02f,-1.08445607e-01f,+4.11304981e-02f,-3.72045487e-02f,
-8.34587663e-02f,+8.23638141e-02f,+5.32729328e-02f,+1.00444943e-01f,-1.65710017e-01f,
-1.36735409e-01f,+1.46482766e-01f,+1.69797927e-01f,+1.02853477e-01f,+1.37048721e-01f,
+1.21334791e-01f,+1.50901556e-01f,-7.72804543e-02f,-1.13577954e-01f,-7.74803609e-02f,
-1.22129887e-01f,+1.00272208e-01f,+5.16002178e-02f,-6.95889145e-02f,-1.65616423e-02f,
-1.37433231e-01f,+1.13518685e-02f,-1.36057973e-01f,+5.41602075e-02f,+6.83897734e-02f,
+5.84139824e-02f,-7.11258426e-02f,+1.05582207e-01f,-1.41216815e-01f,+1.44497126e-01f,
-1.07866935e-01f,+1.39641941e-01f,+1.52296573e-01f,+7.85233080e-02f,+7.06830323e-02f,
+1.84082538e-02f,+6.88599199e-02f,+4.38050777e-02f,-8.24125484e-02f,+1.69386506e-01f,
+4.08457667e-02f,+1.09380901e-01f,-1.60885990e-01f,-1.19345099e-01f,-1.39295727e-01f,
-5.49537316e-02f,+3.89299542e-02f,+1.46855563e-01f,+1.83911175e-02f,+1.55158281e-01f,
-7.20380545e-02f,+1.44701123e-01f,-1.63006917e-01f,-8.20713714e-02f,+2.49761939e-02f,
+9.44142938e-02f,+1.21950656e-01f,-6.83997720e-02f,-5.79318255e-02f,-5.18780574e-02f,
+7.90163875e-02f,+9.29581821e-02f,+1.08796299e-01f,+3.75337601e-02f,+1.25619352e-01f,
+8.32774341e-02f,-1.99964643e-03f,+9.97434855e-02f,+1.24425918e-01f,+9.19635296e-02f,
-3.65592390e-02f,-2.78562903e-02f,+1.02214515e-03f,-1.38576150e-01f,-1.04857787e-01f,
-3.94245535e-02f,+9.49537158e-02f,-1.17734075e-04f,+3.28852683e-02f,-1.49467006e-01f,
-1.29132211e-01f,+1.24303013e-01f,+5.24756759e-02f,+1.60860658e-01f,+4.50113863e-02f,
-1.03275351e-01f,-8.92286748e-02f,-1.61131322e-01f,-1.50970161e-01f,-8.44140947e-02f,
+1.00275576e-01f,+7.23876208e-02f,+1.48569375e-01f,-1.26514986e-01f,+2.55337954e-02f,
+1.58528507e-01f,-1.37342080e-01f,-3.28979045e-02f,-1.67814836e-01f,-3.81412208e-02f,
+3.08273137e-02f,+2.16321647e-03f,+1.66595429e-01f,-1.29244477e-02f,-1.33383349e-01f,
-4.83923182e-02f,-5.23102954e-02f,+1.12914741e-01f,+1.39047086e-01f,-1.79973692e-02f,
-9.38425586e-02f,+1.68539584e-01f,-4.05167341e-02f,+1.26963794e-01f,-9.04306993e-02f,
+2.25575268e-02f,-9.31107625e-02f,+1.44739985e-01f,+1.19894117e-01f,-2.68185735e-02f,
-1.48531422e-01f,+1.58453822e-01f,+1.91561133e-02f,-7.15351105e-03f,+1.50008231e-01f,
-8.63838792e-02f,+1.06037050e-01f,-1.47515804e-01f,-2.80389786e-02f,+1.06634229e-01f,
+1.40344620e-01f,+1.83304846e-02f,-1.52718231e-01f,-1.10410273e-01f,+6.50256872e-03f,
-1.25160918e-01f,-1.52555764e-01f,+1.66022927e-01f,-7.03300834e-02f,-1.06275998e-01f,
+1.60449207e-01f,-3.94986719e-02f,-3.78525555e-02f,-1.46159947e-01f,+7.75998831e-02f,
+1.27018988e-01f,+1.59231156e-01f,+2.79428810e-02f,-1.67873442e-01f,-1.38380334e-01f,
+1.32912397e-03f,+1.03296965e-01f,-8.73417631e-02f,-3.44948471e-03f,-1.12700343e-01f,
+1.75293684e-02f,+1.26806259e-01f,-9.89170074e-02f,-2.54314691e-02f,-5.51343560e-02f,
+6.56141341e-03f,-1.07103884e-01f,+1.09935045e-01f,+4.70273048e-02f,+4.28346694e-02f,
+1.92828923e-02f,+1.11766607e-02f,-1.16515994e-01f,+4.66950387e-02f,-2.63940990e-02f,
+5.01641780e-02f,+4.37709689e-02f,+1.50246114e-01f,+1.25511736e-02f,+5.65593392e-02f,
-5.49814031e-02f,-1.04830906e-01f,-9.05367807e-02f,+5.13841212e-03f,+6.76760674e-02f,
-8.76354203e-02f,+1.17723316e-01f,-1.29646584e-01f,+1.55013800e-03f,+7.98738003e-02f,
-6.64361790e-02f,-7.79049173e-02f,-1.01975463e-01f,-6.46710992e-02f,+1.53314412e-01f,
+4.21523899e-02f,-5.21486625e-02f,-9.12091136e-02f,+2.37122178e-03f,-3.06988955e-02f,
-1.27805844e-01f,-1.45416602e-01f,-1.16439968e-01f,+1.37510538e-01f,-6.50321022e-02f,
-1.44289151e-01f,-1.31137580e-01f,+1.72956347e-01f,+7.64116794e-02f,+1.59204632e-01f,
+1.08581066e-01f,-1.05984367e-01f,+5.29917926e-02f,+1.58592850e-01f,-7.88851082e-02f,
+7.04174638e-02f,+3.95293534e-02f,+9.79121327e-02f,-5.28644770e-02f,+1.47478998e-01f,
+3.36701721e-02f,-6.57393038e-03f,-1.04195923e-02f,+5.52399457e-03f,-1.16206035e-01f,
-2.20723450e-03f,+1.13570720e-01f,-1.53553709e-01f,-7.34242946e-02f,+1.47346407e-01f,
+1.58269048e-01f,+1.41108930e-01f,-1.15508221e-01f,-1.71845466e-01f,+1.23904288e-01f,
-1.64210588e-01f,+7.67138004e-02f,+1.12030804e-02f,+9.29885805e-02f,+1.47759289e-01f,
+8.12739134e-02f,+8.43330622e-02f,+3.23845595e-02f,+1.59920514e-01f,+9.43621695e-02f,
-9.69375148e-02f,+7.50045478e-02f,+1.64296031e-01f,-8.61042291e-02f,+7.25537091e-02f,
+3.94035876e-03f,+5.45437932e-02f,+2.96009779e-02f,+1.07010692e-01f,+1.04492068e-01f,
+6.91351146e-02f,-1.11832611e-01f,-1.06433742e-01f,-2.98160762e-02f,+1.01660997e-01f,
+8.42596889e-02f,+6.44107163e-03f,+1.69786066e-02f,-3.59530151e-02f,+1.68420136e-01f,
+1.69615179e-01f,-1.72975764e-01f,-5.63649982e-02f,-6.82759285e-02f,-1.48570776e-01f,
+2.42951512e-02f,-1.16907179e-01f,+7.05878884e-02f,+1.23234481e-01f,+4.37663347e-02f,
+1.09090477e-01f,+5.84751964e-02f,-1.53232887e-01f,-9.08043385e-02f,+5.59069961e-02f,
-1.40135884e-01f,-4.23238873e-02f,+5.03681749e-02f,+1.26593620e-01f,-1.48631334e-02f,
-1.03932820e-01f,-5.34442663e-02f,-1.30189687e-01f,-1.38616994e-01f,+1.39989763e-01f,
+1.57918304e-01f,+1.14364833e-01f,-7.36970976e-02f,+1.53305829e-01f,+2.66301036e-02f,
-1.26329780e-01f,-8.36249441e-02f,-6.92317933e-02f,-8.79468247e-02f,-1.46325588e-01f,
+1.03206396e-01f,+1.41436547e-01f,+3.69924605e-02f,-1.17372990e-01f,+7.30217993e-02f,
+1.56649500e-01f,+1.64108306e-01f,+3.11898440e-02f,+1.69617891e-01f,+1.57265007e-01f,
-2.43189782e-02f,-9.42726880e-02f,-1.00955799e-01f,+5.85317165e-02f,+9.84103084e-02f,
-1.40914053e-01f,+1.69399887e-01f,-5.71071580e-02f,+1.12815678e-01f,+5.44232577e-02f,
+1.06356859e-01f,-7.55879208e-02f,+1.28245890e-01f,-3.59862596e-02f,-1.19003668e-01f,
-1.26572683e-01f,-1.53855875e-01f,+1.28193945e-01f,-2.93212831e-02f,-3.60033512e-02f,
+1.64682269e-01f,+1.69462800e-01f,-1.35497630e-01f,+8.21712315e-02f,+1.14859432e-01f,
+8.34739208e-03f,+2.62968093e-02f,-4.21401709e-02f,+2.54127979e-02f,+1.21250004e-01f,
-1.53735742e-01f,+8.71129930e-02f,-8.73995796e-02f,-1.41170979e-01f,-1.72416627e-01f,
+1.47566646e-02f,-6.27812743e-03f,-9.52197984e-02f,+4.11229879e-02f,+1.30940229e-01f,
+5.83641082e-02f,+1.63971394e-01f,-1.73013553e-01f,+3.09139490e-04f,+1.34177715e-01f,
-3.26131731e-02f,-9.32715684e-02f,+2.06630528e-02f,+3.01724970e-02f,-1.48834646e-01f,
-1.50890335e-01f,+2.20522285e-02f,-1.37299627e-01f,+1.06748134e-01f,-3.53113711e-02f,
-1.16509795e-01f,+8.13773274e-03f,-3.90158147e-02f,-7.94753432e-03f,+3.41787636e-02f,
+1.79399997e-02f,-4.77127582e-02f,-1.10077433e-01f,-3.45092118e-02f,+1.57253981e-01f,
+1.34575129e-01f,-9.83509272e-02f,+1.06486261e-01f,-1.27404004e-01f,+1.37303591e-01f,
+1.61447972e-01f,-1.96735412e-02f,-3.23677212e-02f,+1.47139013e-01f,-2.64674872e-02f,
-1.23890221e-01f,+4.52530533e-02f,-6.54080510e-03f,-1.62268341e-01f,+1.28382236e-01f,
+7.96867907e-03f,+9.21184719e-02f,-6.50776103e-02f,-1.30662277e-01f,+1.53120458e-02f,
+1.07160926e-01f,-6.95253983e-02f,-1.19267106e-02f,-7.05915615e-02f,+3.65311056e-02f,
-5.96118867e-02f,+9.53840315e-02f,-9.43594873e-02f,-6.56446740e-02f,-1.36220425e-01f,
-1.62549615e-01f,+1.43013954e-01f,+9.67881978e-02f,-6.25590980e-03f,+8.81101191e-03f,
+1.67639703e-01f,+1.09507650e-01f,-1.60169095e-01f,+1.10195100e-01f,+1.41132742e-01f,
-4.78740633e-02f,-4.64089960e-02f,+1.41720265e-01f,+1.67795509e-01f,+1.19890839e-01f,
-1.56130195e-02f,+1.25598460e-02f,-1.04735099e-01f,+9.28877294e-02f,-8.53117332e-02f,
+4.98296916e-02f,+5.64729869e-02f,+2.62982547e-02f,-2.37099975e-02f,-1.12317912e-01f,
-8.27588141e-02f,-5.71535751e-02f,+8.39698017e-02f,-1.12678170e-01f,-8.99163634e-02f,
-2.89439261e-02f,-1.49462134e-01f,-2.01880932e-03f,+1.58587784e-01f,-5.82137108e-02f,
+8.89331102e-03f,+7.67097920e-02f,+8.75847936e-02f,-1.24159709e-01f,+1.65750414e-01f,
+1.00463629e-01f,+4.89474535e-02f,-1.28253356e-01f,+6.93877190e-02f,-1.24884695e-01f,
-1.20163731e-01f,-1.43858492e-01f,+1.57314271e-01f,+9.40346122e-02f,-5.92878386e-02f,
-4.50881571e-02f,+1.52232587e-01f,+6.87844455e-02f,+9.14624929e-02f,-1.06853180e-01f,
+1.55238509e-02f,-6.08923659e-02f,-8.92894566e-02f,-1.61659405e-01f,-1.30861282e-01f,
-4.07758504e-02f,-3.24524194e-02f,-1.09403417e-01f,+1.29335284e-01f,-9.78565440e-02f,
+3.06901336e-02f,+4.54585403e-02f,-3.79888713e-02f,+5.95143884e-02f,-1.23084426e-01f,
+1.59303516e-01f,-9.43779051e-02f,-1.30926818e-01f,+7.72826374e-02f,+1.10040694e-01f,
-1.41634196e-01f,-1.17518812e-01f,+2.61065364e-03f,+1.39232099e-01f,-2.44210511e-02f,
-1.50384635e-01f,+3.20755541e-02f,-6.97437301e-02f,+1.99349225e-03f,-6.48469701e-02f,
-4.79264259e-02f,-1.05687372e-01f,-1.02228723e-01f,+6.05618060e-02f,-9.82414186e-02f,
+1.30427718e-01f,+8.83463025e-03f,-3.90256941e-03f,+1.68656886e-01f,+6.66380376e-02f,
-5.21872342e-02f,+8.45551193e-02f,-3.00212801e-02f,+1.25686526e-01f,-1.23690233e-01f,
+2.22012252e-02f,+5.00227064e-02f,-1.19460642e-01f,-6.33204505e-02f,+8.29066932e-02f,
+1.18363142e-01f,-2.81912386e-02f,+8.60099792e-02f,+4.55026031e-02f,+5.73907793e-02f,
+8.22990239e-02f,+1.27626032e-01f,-5.34606203e-02f,-1.05508730e-01f,+1.24360412e-01f,
+5.06461412e-02f,+8.24734271e-02f,-7.54081234e-02f,+1.70612365e-01f,+6.10408187e-02f,
+1.66864187e-01f,-9.54917222e-02f,+3.94833535e-02f,-7.69934505e-02f,-1.48429424e-02f,
+7.24481642e-02f,+1.06410176e-01f,-3.99079472e-02f,-4.18466330e-03f,-1.57250598e-01f,
+1.66956902e-01f,-1.70734584e-01f,+1.47848010e-01f,+1.27252847e-01f,-7.72573054e-03f,
+9.72174108e-03f,-1.38485104e-01f,+7.48717785e-02f,+5.99183738e-02f,-3.56076658e-03f,
+2.17174143e-02f,-1.63890719e-01f,-2.15576440e-02f,+2.07005441e-03f,+1.46435142e-01f,
-1.44617409e-02f,-1.53012782e-01f,+1.36783034e-01f,-6.71699569e-02f,+9.94535685e-02f,
-7.02442676e-02f,-1.60356492e-01f,+1.03325725e-01f,+3.02739143e-02f,-4.40117121e-02f,
+1.28803343e-01f,-2.55753398e-02f,+3.25206816e-02f,+1.59607232e-02f,+1.29453808e-01f,
-1.53884947e-01f,-1.30547687e-01f,+4.76561040e-02f,-1.11221977e-01f,-2.19774097e-02f,
+3.46142054e-03f,-1.38681203e-01f,+2.78121829e-02f,-1.57430306e-01f,+1.30909592e-01f,
+9.48157907e-02f,-5.81339672e-02f,+2.33714134e-02f,+1.46583796e-01f,+2.94959247e-02f,
-1.40388519e-01f,+9.47629511e-02f,+6.24226034e-02f,+1.50533468e-01f,-1.03577927e-01f,
+1.27113312e-01f,+3.80301774e-02f,-1.52285859e-01f,+6.72365725e-02f,-8.16501603e-02f,
+1.66184217e-01f,-1.40837282e-02f,+5.74978143e-02f,+9.14345086e-02f,+1.39810175e-01f,
+4.79787439e-02f,+5.08096814e-03f,+1.22354418e-01f,-1.62388057e-01f,-1.20351374e-01f,
+5.51771373e-02f,+1.35739177e-01f,+7.07141310e-02f,+1.40316308e-01f,+5.52412271e-02f,
-1.55585811e-01f,+2.37557888e-02f,-1.13309830e-01f,+9.83363390e-02f,-3.48260701e-02f,
+1.24960303e-01f,-5.07097319e-02f,+1.19141132e-01f,-2.17209607e-02f,-1.03031136e-01f,
+4.76064235e-02f,-1.01642370e-01f,+2.60893852e-02f,+4.12710011e-03f,+9.54316854e-02f,
+1.25055075e-01f,-1.56131610e-01f,-1.23757452e-01f,+1.59704685e-01f,-1.36230379e-01f,
-1.10038042e-01f,+4.58715260e-02f,+1.26701146e-01f,+1.27841055e-01f,-1.51830584e-01f,
-6.23650402e-02f,-8.40094015e-02f,+2.40231752e-02f,-1.54708162e-01f,+6.02075756e-02f,
+1.60793155e-01f,+9.97229815e-02f,+4.57071364e-02f,-1.21050626e-01f,+5.16226888e-02f,
+1.72675580e-01f,-7.17456862e-02f,-1.27947778e-01f,+1.57658309e-01f,-6.53375164e-02f,
+9.05705988e-02f,-1.38085321e-01f,-8.81033763e-02f,+6.34112954e-02f,+1.32842183e-01f,
-1.98416114e-02f,-1.26109675e-01f,-1.59706101e-01f,+1.02150768e-01f,-3.81744504e-02f,
+9.52724516e-02f,+1.34025484e-01f,-1.60491362e-01f,+6.16263896e-02f,+1.03517026e-02f,
-6.30441010e-02f,-1.36507139e-01f,-7.70147145e-02f,+2.74450332e-02f,-6.04780540e-02f,
-4.99900356e-02f,+1.41878575e-01f,-7.40498379e-02f,+7.73444474e-02f,+6.15942180e-02f,
-3.33476961e-02f,+5.80747128e-02f,+4.18029130e-02f,+1.12987339e-01f,+1.13022238e-01f,
+1.90844238e-02f,-1.47424832e-01f,+6.16699457e-04f,+6.96292520e-02f,-2.77999192e-02f,
-1.01877056e-01f,+1.10864639e-01f,-9.10701156e-02f,+1.45116597e-01f,-3.39437127e-02f,
+1.08056992e-01f,-6.93239197e-02f,-8.70480314e-02f,-6.99820891e-02f,-1.27009258e-01f,
-7.36715347e-02f,-1.37302563e-01f,+1.49729341e-01f,+7.05493987e-02f,-1.43190622e-01f,
-1.01357847e-01f,-6.93895817e-02f,+1.31560236e-01f,+8.85469317e-02f,-4.59174067e-02f,
-9.22155231e-02f,+1.38250053e-01f,-1.64442465e-01f,+7.76919723e-02f,+3.20052654e-02f,
-1.00047834e-01f,-4.28516418e-02f,-7.43325055e-02f,-6.72151372e-02f,+1.60591960e-01f,
+2.07649320e-02f,+1.21828914e-01f,-8.10641795e-02f,+7.12119490e-02f,-3.95575613e-02f,
-1.70357525e-01f,+6.99407905e-02f,+1.24773949e-01f,-1.18241601e-01f,+4.36891615e-02f,
-1.10512443e-01f,-5.48003614e-02f,+1.24713778e-01f,+9.86106694e-02f,+1.66305751e-02f,
-1.41792983e-01f,-1.61180705e-01f,-1.15756243e-01f,-1.34047791e-01f,-1.08740337e-01f,
-1.49807855e-01f,-6.47789165e-02f,+1.95815712e-02f,+4.74141240e-02f,-3.79160792e-02f,
+1.44761235e-01f,+1.42672807e-01f,+1.59667403e-01f,-8.35659280e-02f,-2.04163641e-02f,
-1.29620686e-01f,+1.33130282e-01f,+7.95866847e-02f,-1.54886022e-01f,+1.50524169e-01f,
+1.47180527e-01f,+5.33522516e-02f,-1.60722911e-01f,-9.75366309e-02f,-1.64154515e-01f,
+1.24822915e-01f,-8.03132653e-02f,+2.35730410e-03f,+1.29492879e-01f,+1.19070679e-01f,
-1.31139651e-01f,-1.08609632e-01f,-1.64508402e-01f,+9.18391645e-02f,-1.45522654e-02f,
-1.68562204e-01f,-1.55358151e-01f,+1.19522333e-01f,-1.55203938e-02f,+1.65289551e-01f,
-7.73921162e-02f,+2.65326053e-02f,-2.17697769e-02f,-1.13666505e-02f,-3.02764028e-02f,
-7.68235624e-02f,-2.07556486e-02f,-5.22136241e-02f,-1.11891910e-01f,-1.41738385e-01f,
+1.55208677e-01f,+3.01596224e-02f,+1.18721694e-01f,-6.91869408e-02f,-1.59367934e-01f,
-4.11698222e-03f,+1.28288835e-01f,+1.08324140e-02f,+1.43228978e-01f,-7.98079297e-02f,
-7.25215673e-03f,+1.08253270e-01f,-8.79616067e-02f,+8.79527330e-02f,-1.42175615e-01f,
+1.26441389e-01f,+1.42426848e-01f,-3.36667448e-02f,-1.38982415e-01f,+7.65289366e-03f,
-1.67149752e-02f,+7.40007460e-02f,-9.67206359e-02f,-1.54098481e-01f,-2.84039825e-02f,
-4.43666428e-02f,+2.41848081e-02f,-5.57788983e-02f,+1.49352789e-01f,+1.63266897e-01f,
-9.87423286e-02f,-2.93163955e-03f,+4.73670810e-02f,+1.19118840e-01f,-7.03940094e-02f,
+1.32818431e-01f,-7.94778168e-02f,-4.82474267e-03f,-8.63559544e-03f,-1.16815262e-01f,
-9.63169709e-02f,-9.61183012e-02f,-1.63774431e-01f,+3.30541730e-02f,+3.10022086e-02f,
+5.09886444e-02f,+1.07910782e-01f,-1.09376527e-01f,+1.02360219e-01f,+1.65165633e-01f,
+6.51867092e-02f,+4.27735597e-02f,+2.49196142e-02f,-9.19642821e-02f,+8.10455084e-02f,
-1.33470356e-01f,+1.33523762e-01f,-2.25572288e-02f,+1.58717930e-01f,-1.54280514e-02f,
-4.78335470e-02f,-6.61121383e-02f,+1.51148915e-01f,+5.14455736e-02f,-1.54620871e-01f,
+1.29950345e-01f,+1.20825648e-01f,+3.13893855e-02f,-9.64955762e-02f,-1.72656387e-01f,
+1.47134274e-01f,-2.09158659e-02f,+4.22108173e-03f,+5.23303300e-02f,-8.02633390e-02f,
-8.82439837e-02f,+1.69592857e-01f,-2.71892548e-03f,-1.17172383e-01f,-1.54596254e-01f,
-7.77022019e-02f,+1.03460312e-01f,+6.77081943e-02f,+1.14488393e-01f,+6.49673492e-02f,
