#include <math.h> 
 #include <string.h> 
#include "./include/k2c_include.h" 
#include "./include/k2c_tensor_include.h" 

 


void torbeam_EC5_omode(k2c_tensor* input_1_23_input, k2c_tensor* dense_3_23_output) { 

float dense_output_array[100] = {0}; 
k2c_tensor dense_output = {&dense_output_array[0],1,100,{100,  1,  1,  1,  1}}; 
float dense_kernel_array[1400] = {
-6.32154942e-03f,-2.03918353e-01f,+6.55104965e-02f,-1.77148998e-01f,-5.01903743e-02f,
+1.14786029e-02f,-1.79415151e-01f,-2.04086006e-01f,-8.08550268e-02f,-2.17790321e-01f,
-1.57373101e-02f,-9.68294442e-02f,-9.78808403e-02f,+1.55183360e-01f,-9.77167934e-02f,
+1.63250014e-01f,+8.98129791e-02f,-3.45083773e-02f,-1.61650121e-01f,+1.47598520e-01f,
+3.99024338e-02f,-2.16948986e-02f,+3.28289717e-02f,+2.15127721e-01f,-1.18025675e-01f,
+6.04024082e-02f,+1.81781784e-01f,-1.11213222e-01f,-1.16632268e-01f,-1.09763741e-02f,
-2.16593236e-01f,+1.98208109e-01f,-2.84435749e-02f,-2.06351116e-01f,-1.03148207e-01f,
-1.26665652e-01f,-1.92701966e-01f,-2.88189650e-02f,+6.18949383e-02f,-2.83488929e-02f,
-1.78969651e-02f,+9.99854505e-03f,-8.74047279e-02f,+1.34763122e-03f,-4.73478884e-02f,
-1.15689896e-01f,+3.70470136e-02f,-2.03675494e-01f,+1.53499737e-01f,-1.62042946e-01f,
+5.84248453e-02f,+1.61787286e-01f,-6.44276142e-02f,+2.98053175e-02f,-1.91706926e-01f,
+7.53626972e-02f,-1.36688799e-02f,-1.87373757e-02f,-1.85285062e-01f,+1.08123675e-01f,
-1.62529796e-02f,-1.10337906e-01f,+2.89466977e-03f,-7.00743645e-02f,-3.15213203e-02f,
+6.50430173e-02f,+1.55957595e-01f,+1.54090077e-02f,-2.13421300e-01f,+1.44109234e-01f,
-3.69447917e-02f,+1.34284630e-01f,+5.41651398e-02f,-2.02046677e-01f,+1.83736101e-01f,
+3.03393155e-02f,-2.10927665e-01f,-2.00165212e-02f,+1.47211984e-01f,+8.38798434e-02f,
-9.71149057e-02f,+8.29714090e-02f,-4.82805818e-02f,+1.11218676e-01f,-2.13096619e-01f,
-1.95385784e-01f,+2.01621205e-02f,+4.08132821e-02f,+4.41865772e-02f,+7.27735013e-02f,
-1.98384330e-01f,+2.00406030e-01f,-6.44837916e-02f,-1.26350492e-01f,-7.13472217e-02f,
+1.91581100e-02f,+8.32919329e-02f,+4.37638611e-02f,+1.84107170e-01f,+1.07360736e-01f,
+2.12645099e-01f,+1.75186694e-02f,-5.76923937e-02f,-1.34386301e-01f,-3.32082212e-02f,
+1.28648207e-01f,+2.07587913e-01f,+5.56755066e-03f,-6.00096285e-02f,-7.17098713e-02f,
+1.55637220e-01f,+2.13285580e-01f,+6.05708212e-02f,+1.72703817e-01f,+1.68771282e-01f,
+1.47528842e-01f,+2.06397325e-02f,+1.76629499e-01f,+5.43941706e-02f,-1.28711283e-01f,
-7.92286694e-02f,-9.57596898e-02f,-3.15994322e-02f,-6.56016916e-02f,-7.36865103e-02f,
+1.69469640e-01f,-2.14283258e-01f,-1.53183520e-01f,-1.70060381e-01f,+2.12160572e-01f,
-1.26730531e-01f,+2.18601525e-03f,+1.10528514e-01f,-9.85975862e-02f,+1.64014682e-01f,
-1.64589763e-01f,+2.36071497e-02f,-1.51970506e-01f,-6.51492327e-02f,+2.20891848e-01f,
+9.20997411e-02f,-1.59910813e-01f,+5.69304079e-02f,+9.43532139e-02f,-1.14597976e-01f,
+2.07704648e-01f,+1.85193881e-01f,-1.65361196e-01f,+1.23817429e-01f,+1.34318754e-01f,
-1.38024092e-01f,+2.12892100e-01f,+1.16313890e-01f,-1.58879817e-01f,-2.14476570e-01f,
+1.92499802e-01f,-2.13652119e-01f,-1.18697897e-01f,+1.55154511e-01f,-4.81852442e-02f,
-1.39869720e-01f,-1.35632455e-01f,-1.53803408e-01f,-3.07856947e-02f,-4.21862453e-02f,
+2.09353313e-01f,+9.89229828e-02f,-1.32303223e-01f,-8.84591639e-02f,+2.21634433e-01f,
+9.45965499e-02f,+1.87321261e-01f,+1.23554185e-01f,+2.08880737e-01f,+1.54572919e-01f,
+5.91102391e-02f,-1.15844302e-01f,+6.09194189e-02f,-2.23800048e-01f,-2.09480673e-02f,
-1.70383304e-01f,+4.54830378e-02f,+1.81351975e-01f,+9.46610421e-02f,-1.13669604e-01f,
+1.56823978e-01f,+1.10136464e-01f,-9.52949822e-02f,+2.17587009e-01f,-2.29320660e-01f,
+1.41076460e-01f,-9.77037251e-02f,-1.90836534e-01f,-6.77077472e-02f,+5.13898879e-02f,
+4.98841852e-02f,+4.74787802e-02f,-1.54981524e-01f,+1.14009395e-01f,-2.02600151e-01f,
+4.23670262e-02f,+2.23533943e-01f,-1.43720955e-01f,+3.65146548e-02f,-1.10791177e-01f,
+1.89032510e-01f,+1.54533491e-01f,+1.91748932e-01f,+1.67159736e-03f,-2.08163828e-01f,
+2.08379999e-01f,-1.48630977e-01f,+1.86884299e-01f,-1.03230193e-01f,+1.79218724e-01f,
-1.03037834e-01f,-2.15833321e-01f,-1.86520070e-01f,-1.65487558e-01f,-2.15376988e-01f,
-1.53275400e-01f,+1.01115450e-01f,+3.97284478e-02f,+1.24638543e-01f,-2.26234883e-01f,
+1.12662032e-01f,-1.74102381e-01f,-2.38537788e-04f,-7.07746595e-02f,-1.39466286e-01f,
+9.48610753e-02f,-1.65709183e-01f,+5.41746765e-02f,-5.83401173e-02f,-1.14006706e-01f,
-1.23332374e-01f,+1.14542544e-02f,+1.70769647e-01f,-2.06314519e-01f,-1.81505173e-01f,
-2.73024291e-02f,-1.17899545e-01f,-2.13208079e-01f,+5.76454550e-02f,+2.01422974e-01f,
+3.20825726e-02f,+2.28594095e-02f,-5.13817817e-02f,+9.78737324e-02f,+2.02829555e-01f,
-1.38015181e-01f,-9.92224365e-02f,-2.07115769e-01f,-6.14729375e-02f,+2.17976198e-01f,
-1.09251514e-01f,+1.20513663e-01f,-1.96872130e-01f,+7.36259073e-02f,+5.27043492e-02f,
-3.70413065e-04f,+8.66916329e-02f,-1.39693663e-01f,+1.25568762e-01f,-2.01139301e-01f,
+2.07327083e-01f,-9.04846191e-03f,+1.87519714e-01f,-6.64713234e-02f,+1.34945199e-01f,
-1.57052234e-01f,+2.22642764e-01f,-1.73766911e-03f,-8.78921300e-02f,-1.25789195e-01f,
-1.09926090e-01f,+1.24690816e-01f,-2.00203121e-01f,+6.48269057e-03f,+5.95895201e-02f,
-1.53833047e-01f,+2.26020262e-01f,+9.93234068e-02f,+7.95452744e-02f,-7.13573992e-02f,
+4.08387929e-02f,-6.82233721e-02f,-2.19352573e-01f,-1.92169666e-01f,-2.12559983e-01f,
+2.04432234e-01f,-1.08164303e-01f,-1.59160495e-02f,-2.20010743e-01f,+1.41953364e-01f,
+7.25805908e-02f,-1.01179779e-01f,+1.00997642e-01f,+7.02831596e-02f,+1.87142149e-01f,
+1.92533568e-01f,-1.11051917e-01f,+9.75359827e-02f,-1.07339360e-01f,+1.09164879e-01f,
-1.36090964e-02f,-1.83231249e-01f,-2.03773841e-01f,+1.14987686e-01f,+4.03581709e-02f,
+1.33887365e-01f,+1.30159214e-01f,+7.85727948e-02f,+1.39904901e-01f,-3.47903371e-02f,
+2.03386858e-01f,-9.54853743e-02f,+6.79633468e-02f,-4.24986780e-02f,-7.28658289e-02f,
+1.97850332e-01f,-1.96027935e-01f,-1.28945485e-01f,-2.28369817e-01f,-2.15397879e-01f,
-2.63427794e-02f,-1.91700637e-01f,+1.93958476e-01f,-1.21089906e-01f,+7.02738017e-02f,
-4.40458804e-02f,+7.64344186e-02f,+1.09963283e-01f,-8.47159773e-02f,-1.39338136e-01f,
-2.04899758e-02f,-1.94943562e-01f,-1.72972992e-01f,-5.69003820e-02f,+1.69597760e-01f,
+2.12021172e-03f,-1.89375356e-01f,+1.39347002e-01f,-6.30337149e-02f,-1.06722601e-01f,
-6.55311346e-02f,-2.00239331e-01f,-1.69548035e-01f,-1.18270993e-01f,-1.96681395e-01f,
-1.80529058e-02f,+1.05475768e-01f,+4.23562378e-02f,-4.23885137e-02f,-4.72523272e-02f,
-1.75423861e-01f,-1.78922653e-01f,-5.21924049e-02f,+1.32641956e-01f,-6.31753355e-02f,
+7.64111727e-02f,-2.17845291e-01f,+4.34803814e-02f,-1.37352914e-01f,-1.63684249e-01f,
+1.14494666e-01f,-1.50074869e-01f,+3.97199541e-02f,+2.01291576e-01f,+9.55443829e-02f,
-2.28365541e-01f,+4.31775600e-02f,+8.78106207e-02f,-2.15990409e-01f,-8.30813050e-02f,
-9.70430970e-02f,+2.28617594e-01f,-2.07839161e-02f,+5.72676957e-03f,+1.89284876e-01f,
+2.25558177e-01f,+1.57595441e-01f,-1.31971985e-01f,-1.13849781e-01f,+1.43515840e-01f,
+2.23070458e-01f,+7.50692338e-02f,-1.54257596e-01f,-1.05060630e-01f,+1.99882761e-01f,
+7.89601058e-02f,+1.59578696e-01f,+1.92826539e-02f,+4.81943339e-02f,-9.82652605e-03f,
+1.46051899e-01f,-2.76360810e-02f,-7.16178119e-02f,+3.20806950e-02f,-2.07244307e-01f,
+1.20946810e-01f,+1.39229223e-01f,-6.52120262e-02f,+1.94960043e-01f,+9.39788073e-02f,
-1.41250491e-01f,-1.47309273e-01f,-1.10817380e-01f,+2.69439965e-02f,+1.18430927e-01f,
+7.59316534e-02f,+1.79176927e-02f,-1.44203216e-01f,-9.56149548e-02f,+1.16687998e-01f,
-6.52805567e-02f,-1.41739100e-01f,+1.11783013e-01f,+4.84000891e-02f,-2.22072333e-01f,
-1.09830812e-01f,-1.47199288e-01f,-2.21783310e-01f,+6.72534853e-02f,+4.41393703e-02f,
+2.23394856e-01f,+7.78576881e-02f,+1.04457274e-01f,+1.01350591e-01f,-1.77000225e-01f,
+1.87701091e-01f,-2.11333454e-01f,+6.02602512e-02f,+8.88977200e-02f,-1.07959516e-01f,
-2.20765620e-01f,+1.66683599e-01f,-5.63979149e-04f,-3.16633731e-02f,-2.20622256e-01f,
-2.77523100e-02f,-9.78290290e-02f,-1.52013302e-02f,+7.32048005e-02f,+1.57693282e-01f,
-3.67543995e-02f,+6.45442456e-02f,-1.86156273e-01f,+1.12013862e-01f,-1.21732652e-01f,
+1.15705267e-01f,-1.51980132e-01f,+1.49686024e-01f,+1.75793543e-01f,+2.07907110e-02f,
-1.96340412e-01f,-1.29464060e-01f,-1.43575341e-01f,+6.62064105e-02f,+1.02973506e-01f,
+1.41833529e-01f,+1.05086997e-01f,-4.63372469e-02f,+1.66639373e-01f,+4.90542203e-02f,
-1.70505196e-02f,-1.49485946e-01f,+2.22035423e-01f,-5.90882599e-02f,-1.47549897e-01f,
-8.08762610e-02f,+2.36965865e-02f,+1.79010883e-01f,-6.82275295e-02f,-1.72690749e-01f,
-9.67167169e-02f,-2.24634394e-01f,-1.45335495e-03f,-2.16308311e-01f,+8.41544718e-02f,
-1.41805083e-01f,-4.35803086e-02f,+2.04638943e-01f,-1.35174215e-01f,-2.02951699e-01f,
+9.34574455e-02f,-7.84212351e-03f,-6.31847382e-02f,+1.55441836e-01f,-9.05275345e-02f,
+2.08235517e-01f,-1.73998833e-01f,-3.31831723e-02f,-1.27628386e-01f,+9.36159939e-02f,
+1.38857350e-01f,+2.05639824e-01f,-5.66388220e-02f,+7.39374608e-02f,-9.00025070e-02f,
-2.08098128e-01f,+1.54365584e-01f,+1.97944835e-01f,+1.12956241e-01f,-1.78930148e-01f,
-2.23456711e-01f,-1.66436270e-01f,-1.09281436e-01f,-1.41282499e-01f,-4.36607599e-02f,
+1.07538298e-01f,+7.51118511e-02f,+2.64806002e-02f,+2.18814537e-01f,+1.64731368e-01f,
+1.23561069e-01f,+1.15173161e-02f,-1.08805895e-02f,-1.93215087e-01f,-2.11557329e-01f,
-1.37217477e-01f,+8.41593295e-02f,+1.22074768e-01f,-1.66418940e-01f,+1.09399810e-01f,
-1.71983808e-01f,-1.40120462e-01f,-2.21837088e-01f,-3.79718393e-02f,-1.19613804e-01f,
-7.25532323e-02f,+2.18105718e-01f,-1.52504563e-01f,+9.58117992e-02f,+1.55117646e-01f,
+4.65798229e-02f,-1.98935121e-02f,-7.21610039e-02f,-1.17955662e-01f,+2.02519432e-01f,
-7.30813891e-02f,+1.36255369e-01f,+3.81232947e-02f,+9.10188109e-02f,-1.09609015e-01f,
+1.81702837e-01f,+2.05025077e-02f,+1.31772608e-02f,-9.62805152e-02f,-8.88253599e-02f,
-1.20841473e-01f,-1.99542984e-01f,+1.20103434e-01f,-3.99164259e-02f,+4.57930714e-02f,
-7.23800063e-03f,-4.32532728e-02f,+1.76561937e-01f,-2.02572867e-01f,+1.34781644e-01f,
-1.69074252e-01f,+1.53518692e-01f,+1.77255869e-02f,-1.37831837e-01f,+1.60655513e-01f,
+2.16755077e-01f,-1.92864925e-01f,+2.17155352e-01f,+1.15527377e-01f,-1.17854528e-01f,
-1.26583606e-01f,+4.94695753e-02f,+3.60996872e-02f,+3.15677673e-02f,-1.87792540e-01f,
-5.11511266e-02f,-1.12154394e-01f,-1.41465783e-01f,+1.64373219e-02f,-2.04944849e-01f,
-1.12303056e-01f,+4.46935445e-02f,-5.39018959e-02f,-7.91539550e-02f,+8.51783901e-02f,
+1.75001368e-01f,+1.97739676e-01f,-1.98167950e-01f,-1.47389144e-01f,-6.57184124e-02f,
+1.02643475e-01f,+9.87612456e-02f,-2.24867463e-01f,+2.36216933e-02f,+1.67679325e-01f,
-5.77474833e-02f,-1.22768611e-01f,-8.59481394e-02f,+1.01642892e-01f,+1.19591251e-01f,
+8.36358815e-02f,+1.83808848e-01f,-8.31387937e-02f,+6.79571480e-02f,+1.17150262e-01f,
+1.80739745e-01f,-2.43219882e-02f,-7.03182071e-02f,+9.49730426e-02f,+1.87864855e-01f,
-1.58138126e-01f,+1.87248245e-01f,-5.21239787e-02f,-1.66375771e-01f,+1.99868038e-01f,
+2.03937218e-01f,-2.69024819e-02f,+1.76002339e-01f,-5.56313545e-02f,+6.42530173e-02f,
-1.55756623e-01f,-5.70781529e-02f,-2.20206514e-01f,-2.27363065e-01f,-1.20240353e-01f,
+1.35975525e-01f,+1.36732742e-01f,+4.68187481e-02f,-7.09028095e-02f,-5.84234297e-02f,
+2.16637418e-01f,+1.76049903e-01f,+1.80083811e-02f,+1.08034506e-01f,-1.11702375e-01f,
+1.67840168e-01f,-1.82373211e-01f,-1.38560057e-01f,-1.51175156e-01f,+1.81751654e-01f,
+2.09612742e-01f,-1.44925326e-01f,+2.01441959e-01f,-2.84225196e-02f,+1.28674790e-01f,
+6.30684048e-02f,+1.53683558e-01f,+2.24874958e-01f,-3.81628424e-02f,+1.98566034e-01f,
+4.37245518e-02f,+2.20078230e-03f,+1.95638046e-01f,-7.44180679e-02f,-2.26370588e-01f,
-5.39878309e-02f,-2.13741705e-01f,+1.89457610e-01f,+8.37947279e-02f,-6.50916398e-02f,
-2.76252031e-02f,+1.96456000e-01f,+9.80621427e-02f,+1.26668364e-02f,-4.89294976e-02f,
-1.84092879e-01f,+1.80828020e-01f,+6.62394017e-02f,-2.02853456e-01f,-9.53078270e-03f,
-1.80340081e-01f,-1.27610549e-01f,+1.77056834e-01f,+2.00459585e-01f,+1.97184220e-01f,
+7.87529200e-02f,+7.17980415e-02f,+2.01666310e-01f,-9.68489796e-02f,+8.10207576e-02f,
-2.58686543e-02f,-6.29632175e-02f,+1.96310714e-01f,-8.32323283e-02f,-1.28265470e-02f,
+2.13885739e-01f,+1.49886176e-01f,-1.43228441e-01f,+1.69758126e-01f,+8.43378752e-02f,
+5.18896431e-02f,+1.07006028e-01f,-1.04233727e-01f,-1.39019683e-01f,+1.62825897e-01f,
+1.43471256e-01f,+5.73202521e-02f,-7.26634562e-02f,-8.78439993e-02f,+7.27715939e-02f,
-1.03897288e-01f,-9.46492851e-02f,-9.10370350e-02f,+1.35956094e-01f,+1.33196577e-01f,
+2.07372084e-01f,+3.10701281e-02f,-5.31222522e-02f,-1.32226154e-01f,+5.57917804e-02f,
+2.11000696e-01f,+4.42445427e-02f,+2.09779888e-02f,+1.96765795e-01f,+1.97923616e-01f,
+9.38665122e-02f,+9.26092416e-02f,-1.83175460e-01f,-1.95274919e-01f,+2.09770486e-01f,
+2.14770272e-01f,+1.18485734e-01f,+2.05837891e-01f,+1.75575927e-01f,+1.23809919e-01f,
-1.10004857e-01f,-1.44018829e-01f,+2.07618013e-01f,+9.07951742e-02f,+2.28960380e-01f,
+1.51053563e-01f,+1.65502325e-01f,-1.31677270e-01f,+1.09365389e-01f,+2.29213461e-01f,
+5.29712439e-03f,-1.80619031e-01f,+4.27628011e-02f,-1.36536807e-02f,-1.76605582e-02f,
-1.71093762e-01f,-5.34202904e-02f,-1.61567852e-01f,-2.16240481e-01f,+2.07922295e-01f,
+2.01584771e-01f,+1.82759598e-01f,-9.41596925e-02f,+1.77404001e-01f,-1.42270446e-01f,
+1.10142961e-01f,-4.36472595e-02f,-1.87164664e-01f,+5.18827587e-02f,-2.02830434e-01f,
+6.59274012e-02f,+2.93033570e-02f,+1.76796690e-01f,+1.88344166e-01f,+1.83495000e-01f,
-9.34479684e-02f,+1.16966292e-01f,+7.27610439e-02f,-2.14584485e-01f,+1.66929916e-01f,
+2.24514559e-01f,-4.28164601e-02f,+2.03855082e-01f,+1.44186616e-02f,-2.08329007e-01f,
+1.86597183e-01f,-1.51110560e-01f,+2.12111190e-01f,+1.94954351e-01f,+2.55620927e-02f,
+1.87133715e-01f,+2.05988750e-01f,+4.86416966e-02f,+6.25548512e-02f,-8.49899650e-02f,
-6.42966777e-02f,+8.19797069e-02f,-4.55126911e-02f,+2.19683930e-01f,-1.57455027e-01f,
-1.28081605e-01f,-1.95449024e-01f,-7.76749551e-02f,-2.29004949e-01f,-1.02405801e-01f,
+5.76664507e-03f,-1.10541105e-01f,+1.71023443e-01f,+1.36008397e-01f,+2.01281413e-01f,
+9.72036272e-02f,+5.58297485e-02f,+1.46668255e-02f,-1.53664023e-01f,-1.79673269e-01f,
+2.75981873e-02f,-2.40723044e-02f,-5.44541776e-02f,-2.14034170e-02f,-8.70497376e-02f,
-1.38237298e-01f,+1.29936829e-01f,+1.58444658e-01f,+1.37676150e-02f,-9.24103111e-02f,
-1.96493417e-02f,+1.78677440e-02f,+1.29583374e-01f,+1.18411079e-01f,-1.86766043e-01f,
+1.44000724e-01f,+5.44938296e-02f,+2.20377550e-01f,-1.09304681e-01f,+6.62326664e-02f,
-7.48779625e-02f,+1.55849710e-01f,-1.03759944e-01f,+1.01820216e-01f,+2.07023069e-01f,
+2.75159031e-02f,-7.42892623e-02f,+6.61184043e-02f,-3.52074206e-03f,-1.66848078e-01f,
-2.01946139e-01f,-1.34887278e-01f,-1.87108934e-01f,-2.22399533e-02f,-1.89155042e-01f,
-2.68108696e-02f,+1.93935230e-01f,+1.16707310e-01f,+1.34414032e-01f,+2.16958717e-01f,
-1.90719590e-01f,-1.49257094e-01f,-8.01626295e-02f,-1.05691552e-02f,+1.77368984e-01f,
+1.65752873e-01f,-1.37668461e-01f,-1.92599967e-01f,-1.82895184e-01f,+2.16176942e-01f,
-5.49467802e-02f,+1.79092929e-01f,+1.61093518e-01f,-4.32165712e-02f,-8.78432840e-02f,
+1.79724887e-01f,+1.23494670e-01f,-1.02223992e-01f,-9.40952599e-02f,+1.08537123e-01f,
-2.07544103e-01f,+1.20420352e-01f,-3.29858810e-02f,+1.61856100e-01f,+6.08596206e-03f,
+7.37115592e-02f,-2.20772848e-01f,+1.48814157e-01f,+1.56147316e-01f,-1.66442007e-01f,
-2.23824933e-01f,-1.20289415e-01f,-9.73160863e-02f,+1.66418537e-01f,+8.72056931e-02f,
-2.06012532e-01f,-4.89623845e-02f,-2.73669809e-02f,+1.51565537e-01f,-5.00261784e-04f,
-2.37433612e-02f,-2.99881101e-02f,+8.54587704e-02f,-3.70997041e-02f,+1.72231421e-01f,
+1.81316584e-02f,-1.94868952e-01f,-7.25153834e-02f,+2.06052810e-02f,-1.56482786e-01f,
+1.36219248e-01f,-1.77421659e-01f,+2.26965085e-01f,-1.62709489e-01f,-1.72792673e-02f,
-1.40494972e-01f,+6.91840053e-03f,-1.78705573e-01f,+8.44322592e-02f,-1.72592416e-01f,
+1.54619381e-01f,+4.54427451e-02f,-6.87055290e-02f,-2.08733827e-01f,-2.91580260e-02f,
+1.44568965e-01f,-4.73792851e-02f,+1.22086987e-01f,+1.12631574e-01f,+2.42610127e-02f,
+1.77134737e-01f,+7.61083812e-02f,-9.66790915e-02f,+2.27947131e-01f,-3.46683562e-02f,
-2.02853739e-01f,+4.66986746e-02f,-2.13842466e-01f,+1.78477809e-01f,+1.24275193e-01f,
-8.70499015e-02f,-1.46704942e-01f,-7.73533285e-02f,+3.36437672e-02f,+1.26904026e-01f,
+1.79079026e-02f,-1.78936213e-01f,+5.47064990e-02f,+1.69954970e-01f,+1.00068644e-01f,
-8.96500945e-02f,-1.91031143e-01f,-1.02160811e-01f,+4.16166931e-02f,-1.65216029e-01f,
+6.14932328e-02f,+1.00724086e-01f,-1.12783790e-01f,-1.92212313e-02f,-7.59161115e-02f,
+1.35240570e-01f,-1.52388453e-01f,-1.49607047e-01f,+1.12770841e-01f,-1.51360095e-01f,
-1.47358567e-01f,-6.29745424e-02f,+1.05815008e-01f,-4.96242046e-02f,-3.01690996e-02f,
+5.52875251e-02f,+2.17499390e-01f,-9.78519469e-02f,-1.16817579e-01f,-1.09328963e-01f,
+3.95956784e-02f,-1.25540271e-01f,+2.18509138e-03f,-1.28940076e-01f,+1.68909445e-01f,
+1.97144195e-01f,+1.67079568e-02f,-2.74054259e-02f,-1.14908658e-01f,-1.81898117e-01f,
+1.23634622e-01f,-2.02333346e-01f,+1.36760488e-01f,+1.68856725e-01f,+3.27596515e-02f,
-2.21890032e-01f,-1.65079951e-01f,-1.86931014e-01f,-7.75225610e-02f,-1.67692930e-01f,
-2.14473933e-01f,+7.11698979e-02f,+9.82584208e-02f,+6.29313141e-02f,+1.11818716e-01f,
+1.69477478e-01f,+1.08145818e-01f,-1.57689154e-02f,-1.99263260e-01f,-2.14472413e-04f,
+9.13625956e-03f,-1.41281903e-01f,+8.37658495e-02f,-2.08603799e-01f,-9.54086334e-02f,
+1.31775066e-01f,-2.42668390e-03f,+1.95344940e-01f,+7.60131031e-02f,-1.40137747e-01f,
+1.42581210e-01f,-8.39323997e-02f,-1.68541551e-01f,-1.25067979e-02f,+7.49534369e-03f,
-1.55278474e-01f,+1.95647672e-01f,-1.79256201e-01f,+1.07375666e-01f,+7.32096583e-02f,
-8.75985175e-02f,+5.92255443e-02f,+1.63902745e-01f,-1.93327814e-01f,-8.93566459e-02f,
+1.99704781e-01f,+5.16353697e-02f,+9.22737271e-02f,-4.40199077e-02f,+2.17190847e-01f,
+1.15027949e-01f,+2.27377012e-01f,+9.87088829e-02f,-6.77118450e-02f,+1.29093677e-02f,
+1.94688246e-01f,-4.16085273e-02f,+6.20941371e-02f,+1.78858042e-02f,+1.46267697e-01f,
+1.85838476e-01f,-1.48846328e-01f,-2.17304885e-01f,+2.06781730e-01f,-1.00726187e-02f,
+2.20954493e-01f,-2.01704651e-01f,+8.07788521e-02f,+1.25435814e-01f,+6.44285977e-03f,
-2.10097417e-01f,-1.00696519e-01f,+4.10943776e-02f,-8.78255665e-02f,+7.57611543e-02f,
+1.69560313e-04f,+1.75481662e-01f,-2.22361192e-01f,+2.06219688e-01f,-1.97753787e-01f,
+4.87114340e-02f,+6.81033581e-02f,+1.02999583e-01f,+1.10364065e-01f,+1.26001433e-01f,
+1.95015058e-01f,+1.99099049e-01f,+1.11470833e-01f,-1.06041841e-01f,-3.03020179e-02f,
+1.43812224e-01f,+3.38004977e-02f,+6.20086342e-02f,-2.91836262e-02f,+1.16002411e-02f,
+9.82999355e-02f,+6.60659522e-02f,-1.91068009e-01f,-6.97016120e-02f,-1.46647066e-01f,
-2.09320337e-02f,+9.55764502e-02f,-7.54572451e-03f,+2.07412988e-02f,-7.89138973e-02f,
-2.52068192e-02f,+1.22512802e-01f,-1.79389939e-01f,-2.04511166e-01f,+2.21017554e-01f,
-4.16608751e-02f,-1.39878213e-01f,-2.42594779e-02f,+1.67368755e-01f,-8.27344805e-02f,
-1.82869703e-01f,+1.37784466e-01f,-2.28604138e-01f,+1.25334188e-01f,+1.31494477e-01f,
-1.12533443e-01f,-1.40557319e-01f,+8.53447616e-03f,-1.18914880e-01f,+3.40349227e-02f,
-2.19355583e-01f,-1.44094795e-01f,+1.06216803e-01f,-7.43944943e-02f,+1.47156402e-01f,
-8.56726915e-02f,+1.40629813e-01f,-1.92598701e-01f,+1.67931095e-01f,+1.54491886e-01f,
-2.00925991e-01f,+7.54611343e-02f,+2.25822344e-01f,+1.09890804e-01f,-2.16948807e-01f,
-6.55986369e-03f,+9.44424719e-02f,+1.59162283e-03f,+1.63878635e-01f,+8.85066539e-02f,
-1.53132260e-01f,+7.85258859e-02f,+1.68536410e-01f,+1.43393859e-01f,+1.10331401e-01f,
-1.92152217e-01f,+1.11823097e-01f,+1.98257372e-01f,-6.78814650e-02f,+2.26423815e-01f,
+1.75653681e-01f,-1.26737088e-01f,+7.96806961e-02f,-1.31290078e-01f,+2.69096047e-02f,
-9.58999842e-02f,+1.19940564e-01f,-1.84258670e-01f,-7.41344690e-02f,+1.26438245e-01f,
-4.50973809e-02f,+1.83225408e-01f,-5.93537092e-02f,-2.89106369e-03f,+5.82680255e-02f,
+7.88621455e-02f,+7.35649616e-02f,-9.32232291e-02f,-1.36642396e-01f,-9.14602280e-02f,
-1.26688033e-02f,-1.90163493e-01f,-1.08084336e-01f,-1.24876522e-01f,-5.35223037e-02f,
+2.24957749e-01f,-1.76082626e-01f,-4.15785611e-02f,-2.07042262e-01f,+1.98650882e-01f,
+2.19794959e-02f,+8.42414945e-02f,+6.19845241e-02f,-1.57251954e-04f,+2.07039908e-01f,
-8.13109875e-02f,-5.18396050e-02f,-1.90076143e-01f,+1.19829640e-01f,+2.02446029e-01f,
+1.93084702e-01f,-1.35599703e-01f,-5.47733903e-02f,-1.73370540e-01f,-1.20184287e-01f,
+1.33816749e-02f,-1.56596556e-01f,+2.36250907e-02f,-1.52975291e-01f,-1.17956698e-02f,
+1.00659981e-01f,+2.04512477e-02f,-4.45298404e-02f,-1.81955218e-01f,-3.08223516e-02f,
-2.17576191e-01f,-1.58954591e-01f,-4.14665937e-02f,-3.66105437e-02f,-9.94020104e-02f,
-1.83382317e-01f,-1.42986625e-02f,+1.00581154e-01f,+1.89456269e-01f,-1.70361489e-01f,
+7.26436079e-03f,-2.67510265e-02f,-5.39185852e-02f,-1.97236627e-01f,+1.71818331e-01f,
-1.25700235e-02f,+1.61597654e-01f,-1.01212204e-01f,-1.19704381e-01f,+2.10083798e-01f,
-1.97286397e-01f,+2.21629992e-01f,+1.06616333e-01f,+1.80604532e-01f,-1.26532525e-01f,
+7.11911768e-02f,+1.90666467e-02f,+2.05688015e-01f,-1.07392803e-01f,+4.46919650e-02f,
+4.08109277e-02f,-2.03443855e-01f,-1.44421458e-01f,+1.32224634e-01f,-1.41119942e-01f,
+1.63356707e-01f,-8.81074667e-02f,-1.09533861e-01f,+1.57205597e-01f,-5.74681908e-02f,
+1.66330799e-01f,-2.09698081e-01f,+3.62668782e-02f,-1.82935834e-01f,+1.50340751e-01f,
-1.90628022e-01f,-8.13830793e-02f,-3.03126723e-02f,-2.74615437e-02f,+1.75109193e-01f,
-3.95123214e-02f,+7.55697340e-02f,+2.63415724e-02f,+3.64431292e-02f,+1.05993912e-01f,
+1.76247641e-01f,-1.94364324e-01f,-1.02757841e-01f,-2.02620894e-01f,+2.05782652e-02f,
+1.61914751e-01f,-7.84120411e-02f,+3.39496881e-02f,-1.01220414e-01f,+1.03482082e-01f,
+5.77434748e-02f,-1.92879200e-01f,+8.29086453e-02f,+5.79559952e-02f,-2.26163387e-01f,
-4.51404750e-02f,-1.59323424e-01f,+1.78438425e-02f,-8.81513953e-02f,+1.25282481e-01f,
+1.23470709e-01f,-1.55734539e-01f,-2.75889933e-02f,-1.40028134e-01f,-1.50639623e-01f,
+1.84498146e-01f,+2.04855099e-01f,+7.94217139e-02f,+2.20983908e-01f,+3.70680243e-02f,
-1.27518505e-01f,-1.35927171e-01f,-4.97432798e-02f,-1.84306696e-01f,+2.07066670e-01f,
+1.90618142e-01f,+1.62841097e-01f,+1.88669220e-01f,-7.26408064e-02f,+2.17414215e-01f,
-4.08469290e-02f,+1.68015137e-01f,+8.70157778e-03f,-1.32457256e-01f,+1.56777099e-01f,
-4.30237651e-02f,-9.15456712e-02f,-1.13193363e-01f,-1.90751866e-01f,+9.28330272e-02f,
-8.08528960e-02f,+2.12772802e-01f,+2.24150047e-01f,+1.68508515e-01f,+1.28943905e-01f,
-1.55651554e-01f,-2.20319957e-01f,-1.96055710e-01f,-1.83831483e-01f,+9.36531872e-02f,
-5.26433140e-02f,+4.81453538e-03f,+1.13679573e-01f,-2.44843960e-02f,-1.39060467e-02f,
+7.04724044e-02f,+1.02966711e-01f,+2.08848968e-01f,+7.50265867e-02f,+1.18943051e-01f,
-1.23720832e-01f,+1.71819374e-01f,+2.12169871e-01f,+1.07988492e-01f,+1.88424990e-01f,
-1.73541397e-01f,-6.87194169e-02f,-4.44188714e-04f,-1.63970083e-01f,+2.19436333e-01f,
+5.39049655e-02f,-3.00853550e-02f,+6.10783547e-02f,-9.98154283e-03f,-3.16485912e-02f,
+2.10321620e-01f,-2.27771252e-02f,+1.68954358e-01f,+2.88840383e-02f,-1.65049478e-01f,
+8.64477009e-02f,-7.26571679e-02f,-4.21109200e-02f,+1.21664658e-01f,-5.51467389e-02f,
+5.39850444e-02f,+1.43538818e-01f,+9.90133435e-02f,+3.85235101e-02f,+3.93802971e-02f,
-1.14195302e-01f,-7.28081316e-02f,+3.93783599e-02f,+1.45028427e-01f,-1.57693505e-01f,
+1.04787350e-02f,+1.32773072e-02f,+1.90288857e-01f,-4.58703041e-02f,-1.13656752e-01f,
-5.49114943e-02f,-1.23580918e-01f,-4.05325890e-02f,+6.93575591e-02f,-6.67506009e-02f,
-3.60608995e-02f,+1.99178383e-01f,-4.38498557e-02f,-1.80057555e-01f,+1.34057805e-01f,
+6.71461076e-02f,-1.53629571e-01f,-6.45698905e-02f,-1.63077161e-01f,-3.38398069e-02f,
-8.95616412e-02f,-1.48259968e-01f,+2.20053047e-02f,+1.47595242e-01f,+1.00798413e-01f,
+1.02331296e-01f,+1.37467876e-01f,-1.82451710e-01f,+1.32434323e-01f,-4.26751375e-03f,
-1.02156490e-01f,+4.23092097e-02f,+1.25684068e-01f,-3.36228907e-02f,+1.11412480e-01f,
+3.41096967e-02f,-3.75290662e-02f,-3.43830585e-02f,-1.73853278e-01f,-1.56307757e-01f,
+1.28368214e-01f,+1.44146547e-01f,+2.55393237e-02f,+1.18116304e-01f,-1.33536100e-01f,
+1.13738969e-01f,-1.58833325e-01f,+1.14281788e-01f,+6.76153451e-02f,-1.89905643e-01f,
-6.51468784e-02f,-1.82827801e-01f,+2.10068002e-01f,-6.96227401e-02f,-1.56037003e-01f,
+3.19089442e-02f,-1.80105746e-01f,+1.17130876e-02f,+1.74834058e-01f,-2.29084656e-01f,
-5.85423261e-02f,-1.10413827e-01f,-1.22709051e-01f,+3.31929773e-02f,+3.25718373e-02f,
}; 
k2c_tensor dense_kernel = {&dense_kernel_array[0],2,1400,{ 14,100,  1,  1,  1}}; 
float dense_bias_array[100] = {0}; 
k2c_tensor dense_bias = {&dense_bias_array[0],1,100,{100,  1,  1,  1,  1}}; 
float dense_fwork[1414] = {0}; 

 
float dense_1_output_array[100] = {0}; 
k2c_tensor dense_1_output = {&dense_1_output_array[0],1,100,{100,  1,  1,  1,  1}}; 
float dense_1_kernel_array[10000] = {
-7.32158795e-02f,+2.93533653e-02f,-1.50932163e-01f,-1.31911173e-01f,-5.79728335e-02f,
-1.66857287e-01f,+5.17928302e-02f,+8.78003538e-02f,+1.22899741e-01f,+1.13300741e-01f,
-5.32947332e-02f,-1.06463969e-01f,-2.40547210e-02f,-1.28984407e-01f,+1.87623948e-02f,
+1.46843195e-01f,+1.16794437e-01f,-4.41095233e-03f,-1.61982208e-01f,-1.73080742e-01f,
+1.39450222e-01f,-1.51396945e-01f,+5.94082177e-02f,-1.32750914e-01f,+1.58089250e-02f,
-1.19844392e-01f,+1.71363354e-01f,+1.63023174e-01f,-1.56612694e-03f,-1.06657356e-01f,
-1.55617774e-01f,-3.69246155e-02f,-1.31695241e-01f,+1.34148359e-01f,+9.15057361e-02f,
+1.24717623e-01f,+6.37291968e-02f,-9.60059315e-02f,+1.69193149e-01f,-1.55684382e-01f,
+4.97151762e-02f,-5.78780621e-02f,+9.90177691e-02f,-6.78257272e-02f,+4.86415029e-02f,
-3.43187153e-02f,+6.94468915e-02f,+6.59426153e-02f,+4.30446118e-02f,-1.65459275e-01f,
+6.35214299e-02f,+8.04166794e-02f,+1.52899981e-01f,-1.16072521e-01f,+9.74457860e-02f,
+3.73422801e-02f,+1.52853638e-01f,+6.82154298e-02f,+7.08207935e-02f,-2.55628675e-02f,
+9.89709496e-02f,-9.31124538e-02f,-1.71788648e-01f,+1.49662077e-01f,-1.11079261e-01f,
+9.81825590e-03f,+7.72290826e-02f,+6.20220453e-02f,+1.06293082e-01f,+1.22149795e-01f,
+7.15251267e-02f,-6.38572052e-02f,+2.93433666e-02f,+1.36401504e-01f,-4.31843251e-02f,
+1.06610000e-01f,+8.32083225e-02f,+2.14773417e-03f,-5.65380678e-02f,-3.70281935e-03f,
+1.23459637e-01f,+5.25643080e-02f,-9.87612829e-02f,-1.32307202e-01f,-8.23440850e-02f,
-5.06388694e-02f,+5.65051138e-02f,-1.30272657e-02f,-4.42857444e-02f,+3.75601649e-03f,
-1.69930771e-01f,-1.32601961e-01f,+1.46900862e-01f,+6.25415742e-02f,+7.99229443e-02f,
+8.97370577e-02f,+5.50681651e-02f,+1.83786899e-02f,-1.65288970e-01f,-2.67527550e-02f,
+1.29477233e-01f,+1.72144294e-01f,-1.96714699e-03f,-1.60265937e-01f,+6.24708384e-02f,
-3.29343230e-02f,-7.39710033e-03f,-1.24006510e-01f,+1.18468612e-01f,-9.39996839e-02f,
-1.47125930e-01f,-7.27200061e-02f,-2.26142555e-02f,-1.16786152e-01f,-1.38521597e-01f,
-6.17493689e-02f,+1.41545534e-01f,-2.06872970e-02f,+4.86387759e-02f,+6.20948076e-02f,
+1.24289870e-01f,-1.20169267e-01f,-6.15018085e-02f,+1.79187804e-02f,-5.46142459e-03f,
-1.27356350e-02f,-8.11436772e-03f,+7.50046968e-03f,+1.24944746e-02f,-2.21681893e-02f,
-1.02650099e-01f,-9.91835669e-02f,-7.04267099e-02f,-1.56047955e-01f,+1.23948157e-01f,
-1.07772782e-01f,-1.57286197e-01f,-7.53875971e-02f,-1.42952338e-01f,+7.08116293e-02f,
-9.68055800e-02f,+4.45773751e-02f,-1.18529551e-01f,+1.68219119e-01f,-1.41933665e-01f,
-4.92082536e-03f,-1.66696116e-01f,-1.36078209e-01f,+7.65022486e-02f,+1.05804741e-01f,
-5.06778061e-02f,+9.42254961e-02f,+9.08421278e-02f,+5.09833992e-02f,-2.74174809e-02f,
+9.02412832e-02f,-1.13293678e-02f,-4.38914597e-02f,+4.70096767e-02f,-1.31141990e-02f,
-5.07345870e-02f,-5.40561751e-02f,-1.71594515e-01f,-6.71790019e-02f,-4.70541418e-02f,
-3.13802212e-02f,+5.12715131e-02f,+1.62227184e-01f,+1.18134081e-01f,+6.51673824e-02f,
-7.26395249e-02f,+1.11661881e-01f,+5.04238904e-02f,+1.60626233e-01f,+1.43061906e-01f,
+2.41498649e-02f,+1.23633355e-01f,+1.04376376e-02f,+1.14977151e-01f,-8.87186751e-02f,
+2.59055346e-02f,+9.53853130e-02f,+4.82804924e-02f,+1.20382398e-01f,+1.70530468e-01f,
+2.42712796e-02f,-1.52978346e-01f,+1.01638049e-01f,-1.78097636e-02f,+1.38610601e-02f,
-1.07032441e-01f,-4.46004570e-02f,-1.67969450e-01f,-8.04950446e-02f,+1.59860760e-01f,
-1.03319868e-01f,+2.77300477e-02f,-1.16160937e-01f,-1.05059192e-01f,+1.02852941e-01f,
+6.84259832e-03f,-1.21534199e-01f,+1.21802151e-01f,-1.41375065e-01f,+9.41594839e-02f,
-1.17773563e-01f,-1.60510406e-01f,-3.62002999e-02f,-4.48243320e-03f,-1.71376228e-01f,
+5.41719794e-03f,+6.76279664e-02f,+1.72008961e-01f,-1.26761794e-02f,-1.09387763e-01f,
-3.85930687e-02f,-3.47411186e-02f,+3.29904109e-02f,+4.24023122e-02f,+1.85585022e-03f,
+1.27208352e-01f,-1.17573358e-01f,+5.53662330e-02f,+7.22247362e-03f,+7.94412196e-02f,
+3.12755853e-02f,-1.59922034e-01f,+2.39972025e-02f,+5.72117567e-02f,+2.38269567e-03f,
+1.71344072e-01f,+1.63063109e-01f,+1.05091155e-01f,+1.76266581e-02f,+1.52052879e-01f,
-8.39324221e-02f,-1.08452544e-01f,-1.55607745e-01f,-3.35067660e-02f,+8.33781958e-02f,
-8.34964290e-02f,+1.07278675e-02f,-9.62903798e-02f,-1.49438635e-01f,-3.97180319e-02f,
-1.33019373e-01f,-1.39447942e-01f,-1.01890765e-01f,-1.65918186e-01f,+1.01853848e-01f,
-1.31480590e-01f,+1.03857905e-01f,+1.51357830e-01f,+5.99230826e-02f,-1.23245522e-01f,
-1.60746902e-01f,+1.67911261e-01f,+1.58986181e-01f,-4.72770631e-02f,-1.37385771e-01f,
+5.28520495e-02f,-4.36834097e-02f,+3.66403013e-02f,+1.14334315e-01f,+1.58012092e-01f,
+1.39282495e-01f,+9.88890231e-03f,-4.19947207e-02f,-3.29593122e-02f,-1.57263353e-01f,
-1.32875875e-01f,-3.04582566e-02f,+1.23502761e-01f,+1.18412495e-01f,-2.25372016e-02f,
+1.51766002e-01f,-1.33946419e-01f,-1.51447698e-01f,-5.00837341e-02f,-9.11879689e-02f,
+8.16251338e-03f,-1.03032246e-01f,-3.77180576e-02f,-1.44158334e-01f,+1.34837389e-01f,
-1.39932826e-01f,-7.39756301e-02f,+1.46765590e-01f,+5.52637726e-02f,-1.02413848e-01f,
+9.45815444e-03f,+4.19588834e-02f,-6.27933592e-02f,-1.62635997e-01f,+4.27939594e-02f,
+9.54829752e-02f,-4.78737354e-02f,+1.60534233e-01f,+1.45953119e-01f,+1.68629467e-01f,
+1.57721192e-01f,+9.38892663e-02f,+7.39474595e-03f,-6.33733496e-02f,+3.39772850e-02f,
-3.80810499e-02f,-1.30757585e-01f,+1.02233589e-02f,-1.24148577e-02f,+1.49479657e-01f,
-4.70204949e-02f,+3.59613597e-02f,-3.07033509e-02f,+1.02059960e-01f,+3.80087793e-02f,
-6.38194382e-03f,+1.47989392e-01f,-4.27811146e-02f,+1.45392895e-01f,-1.30589724e-01f,
+2.37075090e-02f,-3.45536023e-02f,-8.72002915e-02f,-4.30087298e-02f,-7.25682452e-02f,
+1.22844905e-01f,+5.81891835e-02f,-1.12393357e-01f,-9.25912634e-02f,+1.61558181e-01f,
-8.52038264e-02f,-8.95548612e-02f,+2.33255327e-02f,+4.40035313e-02f,+1.41964436e-01f,
+3.22479159e-02f,+7.62045085e-02f,+1.38926953e-01f,-4.74237353e-02f,+1.42120719e-02f,
+1.48626983e-01f,-2.61598378e-02f,+1.31418258e-02f,-3.05002630e-02f,-1.26020312e-01f,
+1.25260651e-01f,-6.78780079e-02f,-1.09816574e-01f,+2.61855274e-02f,-1.40827537e-01f,
+1.64275169e-01f,-1.32359028e-01f,+1.50360882e-01f,+1.64171726e-01f,-3.73932719e-03f,
-1.30424798e-01f,-1.54768914e-01f,+6.35706633e-02f,+1.39378756e-01f,+1.63315803e-01f,
+5.44251502e-02f,+3.55515927e-02f,+7.99283981e-02f,-1.26347005e-01f,-7.29744285e-02f,
+2.26565897e-02f,-3.76606584e-02f,-6.94331080e-02f,+8.59906375e-02f,-8.69139880e-02f,
-1.17831372e-01f,-9.63328704e-02f,-3.96196246e-02f,+7.96160698e-02f,-1.30541205e-01f,
+2.26728618e-02f,+1.41716361e-01f,+1.53467685e-01f,+9.87524390e-02f,+1.38865829e-01f,
+1.33058399e-01f,+3.48838866e-02f,-1.28332734e-01f,-5.98027930e-02f,-6.54297769e-02f,
+8.35285485e-02f,-5.14556468e-03f,-9.25003737e-02f,-1.25125200e-01f,-1.94729716e-02f,
-1.55243516e-01f,-1.63302511e-01f,-9.81760472e-02f,-7.20392168e-03f,+1.06255978e-01f,
-1.64893121e-01f,+1.72391921e-01f,-1.51560724e-01f,-6.61460832e-02f,+6.27565682e-02f,
+5.21373451e-02f,-1.53310850e-01f,+1.22041523e-01f,-6.74365163e-02f,-7.40545467e-02f,
+8.71697366e-02f,-1.50878683e-01f,+1.07226163e-01f,-7.21737519e-02f,-6.60626665e-02f,
-1.55011892e-01f,+4.57350463e-02f,-1.69444025e-01f,+3.41575444e-02f,+1.07263327e-01f,
+1.18660778e-01f,+1.49925590e-01f,-1.02727860e-02f,+1.61830336e-01f,+2.80742496e-02f,
+3.69049162e-02f,-7.16147348e-02f,+1.19042367e-01f,+2.63759792e-02f,+2.77940929e-02f,
+7.25980550e-02f,+1.39833629e-01f,-1.56091303e-02f,+2.39715129e-02f,-6.94965795e-02f,
-4.47313637e-02f,+5.06617427e-02f,+6.68462813e-02f,-7.37105981e-02f,-9.57223997e-02f,
-4.73032892e-03f,-5.84760979e-02f,-1.09137431e-01f,+1.49934024e-01f,+6.49521053e-02f,
+1.56804204e-01f,-6.35821819e-02f,-1.55751899e-01f,-5.68255633e-02f,-8.17140862e-02f,
+8.69722664e-02f,-6.97335303e-02f,+6.69583678e-02f,+3.89258713e-02f,+1.35448456e-01f,
+1.55393630e-01f,+1.08637840e-01f,+3.91092151e-02f,+1.71787232e-01f,-1.45796925e-01f,
-5.78415096e-02f,+1.34579271e-01f,+9.11907256e-02f,-4.26662266e-02f,-8.38647038e-02f,
-4.90191430e-02f,+1.39064729e-01f,+7.13643581e-02f,+9.38563943e-02f,+6.64569438e-03f,
-1.16836324e-01f,+1.43168688e-01f,-8.65136683e-02f,-1.25082701e-01f,+4.04987186e-02f,
+1.54880524e-01f,-3.40956748e-02f,+3.21536809e-02f,-5.62088639e-02f,-1.57822907e-01f,
-6.00537434e-02f,-1.84137821e-02f,+1.08639002e-01f,+1.50701791e-01f,+2.85246521e-02f,
+1.16732866e-01f,-1.06797963e-02f,-2.48441100e-03f,+5.26524335e-02f,-1.41417146e-01f,
-2.78328657e-02f,-1.58755481e-01f,-7.93665275e-02f,+6.04456812e-02f,-9.42462161e-02f,
+7.59176314e-02f,+1.09770447e-01f,-6.28832132e-02f,+1.65003240e-01f,-8.77487734e-02f,
+1.14919513e-01f,-6.01053238e-02f,+7.36202002e-02f,-8.18481296e-02f,-1.38523579e-01f,
+1.25470728e-01f,-3.33702564e-03f,+1.55058056e-01f,-5.86554036e-02f,-1.42507255e-02f,
-7.02427030e-02f,+1.37797445e-02f,-6.36367723e-02f,-4.64096963e-02f,-6.97452128e-02f,
+5.92556298e-02f,-1.61887065e-01f,+7.97894001e-02f,-1.17336988e-01f,+1.13698900e-01f,
+1.12145543e-01f,+1.12542182e-01f,-1.07320562e-01f,-8.38687494e-02f,+8.82301629e-02f,
+1.02516830e-01f,-8.01225230e-02f,+4.75470871e-02f,-5.84476069e-02f,-1.18830845e-01f,
+5.57664037e-03f,-6.01221323e-02f,-1.55548364e-01f,+1.29801929e-02f,+1.20306075e-01f,
+1.64395183e-01f,-8.04954991e-02f,-1.04070209e-01f,-7.39373490e-02f,+1.17849946e-01f,
+1.39671773e-01f,+1.02112740e-01f,+1.45371497e-01f,-8.26139897e-02f,+3.82224023e-02f,
-2.85324156e-02f,+5.01065701e-02f,-5.17840311e-02f,-1.55172199e-01f,-9.56134200e-02f,
+1.22059315e-01f,-8.15048367e-02f,+1.11969411e-02f,+8.59834254e-02f,-6.35392740e-02f,
-1.29186347e-01f,-4.58345264e-02f,-9.78359580e-03f,-1.24382168e-01f,-5.49741313e-02f,
+1.85624957e-02f,-1.31487653e-01f,-1.15999386e-01f,-7.80914947e-02f,-7.42765889e-02f,
-7.56620467e-02f,+1.48010254e-03f,-7.27406964e-02f,-8.69523138e-02f,+5.70405126e-02f,
-8.79447609e-02f,+9.81218219e-02f,+1.60075933e-01f,+2.88461298e-02f,+2.46130377e-02f,
-4.94767800e-02f,+1.35448486e-01f,+6.96614683e-02f,+1.38577133e-01f,+6.76038414e-02f,
-1.13612682e-01f,+7.71664381e-02f,-1.16433799e-02f,+3.91057879e-02f,-1.51292384e-01f,
-6.42955303e-03f,+7.74118602e-02f,+1.70248508e-01f,+4.47120070e-02f,-1.59731001e-01f,
-1.25452012e-01f,-5.21968305e-03f,-5.21302447e-02f,+8.50155950e-02f,-2.16004997e-02f,
-1.42608970e-01f,-1.42623335e-01f,+1.09624565e-02f,+8.18518102e-02f,-2.28424966e-02f,
+8.22102129e-02f,-4.98945639e-02f,-1.35442466e-02f,+9.78529155e-02f,+6.54101223e-02f,
+3.35882008e-02f,+1.98888481e-02f,+1.24934345e-01f,+2.83826441e-02f,+1.04393303e-01f,
+1.10087097e-01f,+1.04729980e-01f,-7.26106167e-02f,-2.83448547e-02f,-1.45871192e-02f,
+6.20475709e-02f,-1.52559191e-01f,+1.26024306e-01f,-1.31820783e-01f,-1.37696683e-01f,
-1.03033982e-01f,+1.02723151e-01f,-1.65848449e-01f,-3.46443653e-02f,+9.21788514e-02f,
+9.19267535e-02f,-1.57207981e-01f,+1.45415992e-01f,-1.72064289e-01f,-1.32643431e-02f,
-2.14847028e-02f,+5.73744178e-02f,-4.71618474e-02f,+2.21810788e-02f,-1.58807844e-01f,
-1.13785863e-02f,-1.61615133e-01f,+1.28003120e-01f,+1.10978544e-01f,+5.65246940e-02f,
-1.18476078e-01f,-2.73798704e-02f,-5.73730171e-02f,-9.09748673e-03f,+1.16567582e-01f,
-6.89003989e-02f,-2.87903398e-02f,+7.31154978e-02f,+1.14701778e-01f,-9.81036127e-02f,
+1.59851342e-01f,-1.95718706e-02f,-1.28418416e-01f,-4.39600050e-02f,-7.35739544e-02f,
+8.99899602e-02f,-8.42719972e-02f,+8.31289291e-02f,+1.06478810e-01f,+1.42572016e-01f,
+4.05104458e-02f,-5.13506755e-02f,-6.02392852e-02f,-1.70677185e-01f,-4.38974500e-02f,
-8.73194635e-02f,+9.14558172e-02f,-1.49203256e-01f,-1.93252116e-02f,-9.99766886e-02f,
+1.90290064e-02f,+1.26163334e-01f,-8.60122219e-02f,+1.60869420e-01f,+1.55980229e-01f,
+4.94153649e-02f,+1.38747185e-01f,-1.68615058e-01f,-1.35877714e-01f,+9.17224586e-02f,
+9.98912752e-03f,-2.91812122e-02f,+9.71777439e-02f,-6.98116571e-02f,+4.72496003e-02f,
+9.52546000e-02f,+1.07828647e-01f,+1.31984800e-02f,-1.39937788e-01f,+1.37888461e-01f,
+5.41634709e-02f,+3.25618833e-02f,-9.20851529e-02f,-1.66608363e-01f,-4.39868122e-02f,
+3.07506770e-02f,-1.18980207e-01f,+3.44734043e-02f,+1.53622031e-01f,-6.00997880e-02f,
+9.95274782e-02f,-1.38437808e-01f,+2.36621350e-02f,-7.39245042e-02f,+1.72803283e-01f,
-1.21404156e-01f,+4.10990715e-02f,+1.34310097e-01f,+7.13795125e-02f,-1.04725979e-01f,
+1.51518643e-01f,-5.43169603e-02f,-9.16622430e-02f,-1.29478917e-01f,+3.45661193e-02f,
-1.46446824e-02f,+1.61022186e-01f,+1.61582798e-01f,+1.13939285e-01f,+6.86002672e-02f,
-9.19322371e-02f,+3.82089764e-02f,+1.00084841e-01f,+8.20731521e-02f,-5.66655844e-02f,
-3.04732174e-02f,-1.62873775e-01f,+1.40028268e-01f,+1.00762546e-01f,-1.70948625e-01f,
+2.89269090e-02f,-1.65602401e-01f,+6.03301674e-02f,-9.74980146e-02f,-2.27220058e-02f,
+1.51394010e-02f,-1.67356014e-01f,+5.70898503e-02f,+5.68699539e-02f,+7.33369142e-02f,
-3.02345306e-02f,+1.32979512e-01f,-1.30021125e-02f,-2.84524709e-02f,+1.47726983e-02f,
-5.96902594e-02f,+2.05205530e-02f,-6.98342100e-02f,+7.55807757e-02f,-1.00739039e-01f,
+1.32547617e-02f,+1.34797394e-01f,-1.64038673e-01f,+1.04461968e-01f,-8.97407308e-02f,
-1.14372313e-01f,-5.39784208e-02f,-1.11355737e-01f,-2.35198289e-02f,-6.33267686e-02f,
+1.41819119e-01f,+3.71496379e-03f,-1.25780135e-01f,-1.56428739e-01f,+1.68164849e-01f,
-9.56169739e-02f,-1.19850755e-01f,+1.57204002e-01f,+1.44081593e-01f,-1.28155783e-01f,
+7.39186853e-02f,-6.43288419e-02f,-3.25787365e-02f,-6.37685433e-02f,+1.23138100e-01f,
-7.26574659e-03f,+9.93682444e-02f,-1.30866274e-01f,+1.10389084e-01f,-4.06601429e-02f,
-1.63362384e-01f,+7.19242841e-02f,-1.62170142e-01f,+5.34117222e-02f,-1.54418886e-01f,
+9.13690627e-02f,-6.23234585e-02f,-1.14850923e-01f,+5.14581203e-02f,+3.88940275e-02f,
-6.03251383e-02f,-4.85185161e-02f,-3.58702540e-02f,+1.26156479e-01f,+1.29655212e-01f,
-1.54030010e-01f,+1.27766788e-01f,+4.75119054e-02f,-1.80079788e-02f,-8.33801031e-02f,
-6.96724132e-02f,-3.12999487e-02f,-1.74996257e-02f,+6.63700700e-02f,+3.53778154e-02f,
+5.10895699e-02f,+9.16948318e-02f,+8.11685026e-02f,-4.96819690e-02f,+1.41535431e-01f,
+1.21538877e-01f,+1.73174113e-01f,-4.02446687e-02f,+1.84533000e-02f,-4.78438735e-02f,
+3.23006511e-02f,-1.37248129e-01f,-5.86748943e-02f,-1.35499895e-01f,-5.37612438e-02f,
+3.34071219e-02f,+5.95532358e-03f,+4.73480374e-02f,+9.62784290e-02f,+1.59776390e-01f,
-1.00918882e-01f,+1.26231074e-01f,+7.85687566e-02f,+1.71583176e-01f,+1.95258707e-02f,
+1.08021170e-01f,-9.20366272e-02f,-1.24438167e-01f,-6.34317026e-02f,-7.12790862e-02f,
-1.02713533e-01f,-2.27666795e-02f,+5.64295053e-02f,-1.11156806e-01f,-2.81698406e-02f,
+5.50714582e-02f,-1.59971043e-01f,-8.59010145e-02f,-1.15971513e-01f,+1.12525105e-01f,
-1.24198660e-01f,+4.46010381e-02f,-1.83410197e-02f,-8.67103040e-03f,-1.31592453e-02f,
-1.66990057e-01f,-1.68268755e-01f,+4.96325046e-02f,+6.53003156e-03f,+9.57217813e-02f,
+4.71355766e-02f,+2.04671174e-02f,+8.22099149e-02f,-1.20425709e-01f,+4.57927585e-04f,
-1.23497874e-01f,-1.00587152e-01f,+6.47134185e-02f,-1.28111929e-01f,-1.51775822e-01f,
-9.93898362e-02f,-8.35246369e-02f,-6.71354383e-02f,+1.68303788e-01f,-8.53346288e-03f,
+1.02114379e-01f,+1.15939558e-01f,-8.75615403e-02f,-1.11841947e-01f,-7.54527226e-02f,
+1.32686853e-01f,+1.64154828e-01f,+8.01515877e-02f,+8.44935477e-02f,+1.27021015e-01f,
+6.66811019e-02f,+9.69501138e-02f,-1.47446349e-01f,-6.71455488e-02f,-1.42259032e-01f,
-1.61164939e-01f,+1.11548901e-02f,-5.07401675e-02f,-1.54856712e-01f,-4.86106873e-02f,
-1.67744800e-01f,+6.75822049e-02f,+1.50121003e-01f,-1.21198922e-01f,-1.64036810e-01f,
+1.66069776e-01f,+1.55650020e-01f,-3.45890373e-02f,+5.77571392e-02f,+1.19342148e-01f,
+8.83391798e-02f,-7.24217743e-02f,+1.26528740e-03f,-1.05509929e-01f,+5.04530370e-02f,
+5.16468287e-03f,+4.34127301e-02f,-7.43528605e-02f,-1.22828811e-01f,-2.63906270e-02f,
-5.33489138e-02f,+4.99609709e-02f,-1.67421252e-01f,+1.29705727e-01f,-7.78099447e-02f,
-1.42521217e-01f,-8.00313428e-02f,-6.46651462e-02f,+1.01961076e-01f,+2.09909827e-02f,
+9.59335268e-03f,-1.62522346e-01f,+1.52604759e-01f,+1.68443769e-01f,-7.34256208e-02f,
+6.55442476e-04f,+1.24582827e-01f,-1.37503922e-01f,-1.40483052e-01f,+2.22977251e-02f,
-1.24838933e-01f,-5.67222461e-02f,+1.41567290e-02f,-1.39950216e-02f,+9.12680924e-02f,
-1.50687605e-01f,-5.86326867e-02f,-6.85836375e-03f,+2.59663314e-02f,-1.22361921e-01f,
-4.39465046e-02f,+1.52321219e-01f,+1.56044781e-01f,-1.24873370e-02f,-2.41048187e-02f,
+6.98815733e-02f,-1.73069835e-02f,+7.98882842e-02f,-7.24586919e-02f,-1.04737826e-01f,
+2.01127082e-02f,-6.46059737e-02f,+5.52578717e-02f,-1.66734964e-01f,+5.91069311e-02f,
+5.35578281e-02f,+1.15787268e-01f,-1.53365538e-01f,+3.09756100e-02f,+1.27638459e-01f,
-2.64674425e-03f,-7.27652684e-02f,-3.66380662e-02f,-1.61192849e-01f,+1.47392303e-01f,
+8.96908045e-02f,+9.59435403e-02f,+1.35601401e-01f,-1.29531980e-01f,+1.28256232e-02f,
-1.65188879e-01f,+3.89077365e-02f,-1.33761778e-01f,-7.41638169e-02f,+1.26792490e-03f,
+1.06694430e-01f,-3.24590653e-02f,+1.51492089e-01f,-1.12941310e-01f,-1.16629638e-01f,
-1.71342328e-01f,+1.88016891e-03f,+7.63322413e-03f,+1.61397308e-01f,+1.51077658e-01f,
-3.34585309e-02f,+4.34523225e-02f,-6.62252828e-02f,+4.70873713e-03f,-1.59622967e-01f,
-5.99429458e-02f,-2.94874161e-02f,+1.60838217e-02f,-4.28669602e-02f,-1.12539709e-01f,
-1.66080892e-01f,+7.29660094e-02f,+1.57853097e-01f,-1.46436423e-01f,-3.13317478e-02f,
+3.39308679e-02f,-8.25763270e-02f,+7.43467957e-02f,+1.38867706e-01f,-4.99829724e-02f,
-1.01637952e-01f,+2.44925022e-02f,+5.97073585e-02f,+1.30302191e-01f,+5.13833463e-02f,
+7.48106241e-02f,-1.29347056e-01f,-1.66111335e-01f,+1.40474141e-01f,+1.48405105e-01f,
-1.28118411e-01f,-4.16920781e-02f,-1.03374794e-01f,-1.22078061e-02f,+1.45223618e-01f,
+5.57085276e-02f,+1.07082427e-02f,-1.60309628e-01f,+2.59774327e-02f,-9.21791792e-02f,
+2.84964442e-02f,-1.38335228e-02f,-1.09525733e-01f,+3.27384621e-02f,-1.15703255e-01f,
+1.54313207e-01f,+3.22923064e-02f,-9.12294313e-02f,-1.33894086e-01f,+1.11602515e-01f,
-1.61163986e-01f,-2.20803171e-02f,+5.39856106e-02f,-1.81818753e-02f,+1.46218836e-02f,
+1.32423520e-01f,+5.45957088e-02f,-1.06834322e-02f,-7.05540255e-02f,+4.64258343e-02f,
+5.86311519e-03f,+1.18507296e-01f,+1.38345510e-01f,+9.22988653e-02f,+4.29652631e-03f,
+1.52331978e-01f,+1.28250301e-01f,-1.13255024e-01f,+1.38097912e-01f,+1.63811415e-01f,
-1.03621654e-01f,-1.66877657e-02f,-6.48614690e-02f,+1.67150527e-01f,+1.25371367e-01f,
+4.28693593e-02f,-6.00870699e-02f,+5.63210249e-03f,-4.12185490e-03f,-6.95233345e-02f,
+8.40174258e-02f,-4.13482487e-02f,+5.86204678e-02f,+8.70651603e-02f,-1.80882961e-02f,
-2.01669335e-02f,+1.25924677e-01f,+1.04433447e-01f,+6.99127913e-02f,+1.00049585e-01f,
-1.03020668e-02f,+6.11044168e-02f,-1.23303704e-01f,-9.55602378e-02f,+2.90696323e-02f,
-2.48672068e-03f,-1.51863500e-01f,-6.12996221e-02f,-1.18466243e-01f,-1.35303125e-01f,
-1.42840177e-01f,+1.15852118e-01f,-3.54355872e-02f,-8.38759318e-02f,-7.46583268e-02f,
+5.85202873e-02f,+1.51413143e-01f,+1.35129303e-01f,-1.11350156e-01f,+1.09766424e-03f,
+1.42012954e-01f,-6.27367198e-03f,-1.64177671e-01f,+1.19334966e-01f,-3.60558033e-02f,
+7.56695867e-04f,+1.67528719e-01f,-7.86961392e-02f,-5.10323048e-03f,+4.95339632e-02f,
-4.60603386e-02f,-5.94803169e-02f,+8.53010714e-02f,+6.04471713e-02f,-1.00742921e-01f,
+4.40185666e-02f,-5.15309274e-02f,-1.21943973e-01f,-1.49419636e-01f,+2.65824944e-02f,
+1.69434071e-01f,-4.33735400e-02f,+1.64771229e-02f,-8.93323272e-02f,+9.89816189e-02f,
+1.18892789e-01f,-5.64197972e-02f,+1.20075017e-01f,-9.96042415e-02f,+4.23103869e-02f,
-1.74295157e-02f,-1.81292593e-02f,-5.33560589e-02f,-1.73028216e-01f,+1.60882175e-01f,
-3.69770974e-02f,+6.11509234e-02f,-6.48039579e-03f,+1.68446541e-01f,+1.63364649e-01f,
-1.82283670e-02f,+3.27086151e-02f,-1.16840199e-01f,-1.52303129e-01f,+6.65243119e-02f,
+1.22351557e-01f,-1.63206905e-01f,-1.10290229e-01f,-9.91134495e-02f,-1.19775265e-01f,
+7.94240832e-02f,+1.03997737e-01f,-9.33468491e-02f,+7.19303638e-02f,+6.28533214e-02f,
-5.32417968e-02f,+1.69993043e-01f,-1.56780526e-01f,+1.55837834e-01f,-8.64907950e-02f,
+5.99521995e-02f,+4.55109030e-02f,-1.13437846e-01f,-1.17401078e-01f,+1.61290973e-01f,
-1.65869042e-01f,+1.18023813e-01f,-6.07107580e-03f,-1.11383855e-01f,+6.58544898e-02f,
+6.61340207e-02f,+6.11312687e-02f,-1.57311171e-01f,+2.29554027e-02f,-6.93264380e-02f,
+9.91676152e-02f,-3.43597978e-02f,-9.05039907e-03f,+2.68981904e-02f,-3.09040844e-02f,
+1.34847015e-01f,+6.13897294e-02f,-1.40866220e-01f,+1.30638659e-01f,+1.35876298e-01f,
-9.34128761e-02f,+1.26196533e-01f,+1.22283489e-01f,+1.32003188e-01f,+1.28835708e-01f,
-1.49189129e-01f,+1.41379267e-01f,-6.75096512e-02f,-6.68319985e-02f,-4.16566879e-02f,
+3.63869518e-02f,+1.11631989e-01f,+8.41807723e-02f,+1.23086989e-01f,+1.17509067e-02f,
-6.21350259e-02f,+1.65573388e-01f,-1.14303023e-01f,-1.04134381e-02f,+1.27913117e-01f,
-1.00455381e-01f,-1.25737309e-01f,+5.61713725e-02f,-6.63754344e-02f,+1.88611001e-02f,
+1.40638977e-01f,-4.10363823e-02f,+3.35606486e-02f,-3.01793218e-04f,+1.17130011e-01f,
-5.74462339e-02f,-1.57209635e-02f,-8.07474852e-02f,+8.15416276e-02f,+9.12374258e-03f,
+1.19424343e-01f,-1.65802404e-01f,-1.69733167e-02f,+1.39672011e-01f,+7.18655288e-02f,
+7.83512890e-02f,-1.87248588e-02f,-8.89755338e-02f,-9.10565257e-03f,-1.58018067e-01f,
-5.78762442e-02f,+7.60320574e-02f,+1.14721656e-01f,+3.18490863e-02f,-1.17838353e-01f,
-1.47444904e-01f,-3.25182825e-02f,-1.55069500e-01f,-8.66478384e-02f,-7.94104263e-02f,
-5.79281524e-02f,-3.02126408e-02f,+1.59085631e-01f,+1.42148972e-01f,-7.52635077e-02f,
+1.08704120e-02f,-1.48341805e-02f,+9.52504575e-03f,+4.46886271e-02f,+5.50536215e-02f,
-1.22555107e-01f,-3.66153568e-02f,-3.97545099e-03f,+1.67620480e-02f,-1.34233460e-01f,
+3.23357582e-02f,+2.89057642e-02f,+6.78107142e-04f,-1.08435407e-01f,+1.37499124e-01f,
+1.04051411e-01f,+8.81420970e-02f,-5.76225221e-02f,+9.87299085e-02f,-7.33512044e-02f,
+5.70794493e-02f,+8.05921257e-02f,-6.37336075e-02f,-1.57689929e-01f,-4.00482118e-03f,
-8.86054859e-02f,+1.49293303e-01f,+1.55684233e-01f,-2.66368389e-02f,+4.55630571e-02f,
+7.99051821e-02f,+5.37456721e-02f,+1.16686136e-01f,-1.13963202e-01f,+1.39581501e-01f,
+1.18704766e-01f,-3.99459451e-02f,+4.38514352e-03f,+1.27884895e-01f,-7.93676004e-02f,
+1.43828392e-01f,+1.40642583e-01f,+1.68284714e-01f,-1.05116300e-01f,+1.26323313e-01f,
-1.38630792e-01f,-1.22628443e-01f,-1.04097299e-01f,-3.51623744e-02f,+1.47701025e-01f,
+5.78436255e-03f,+1.09139085e-01f,+1.71227127e-01f,+8.35991204e-02f,+8.71909261e-02f,
+1.28399432e-02f,-1.21028826e-01f,-8.21257159e-02f,+1.48037851e-01f,+6.66574389e-02f,
+5.41767627e-02f,+1.00890756e-01f,+5.04048020e-02f,+5.49726486e-02f,-1.58668160e-02f,
+1.17555529e-01f,-3.14045101e-02f,-1.32217959e-01f,+1.42510474e-01f,-2.60718167e-03f,
+5.11022359e-02f,+1.33148581e-01f,+8.85320604e-02f,-1.50975764e-01f,-5.98333478e-02f,
-6.41534179e-02f,+3.20592523e-03f,+4.79156971e-02f,-8.13227892e-03f,+7.86906183e-02f,
+1.36647075e-02f,-1.57537177e-01f,-8.59731138e-02f,+1.35800064e-01f,-1.59098804e-02f,
+1.47388488e-01f,+9.06058848e-02f,-2.29259133e-02f,+7.94188380e-02f,+1.50699973e-01f,
+1.66477382e-01f,+1.61712438e-01f,-8.38063657e-03f,-1.51241466e-01f,+9.97943282e-02f,
+1.13409638e-01f,-1.34228796e-01f,-1.33027017e-01f,-1.48855552e-01f,-9.57970247e-02f,
+1.39053077e-01f,+1.12929493e-01f,+1.41314417e-01f,-1.55907542e-01f,-1.31656304e-01f,
-3.92045230e-02f,+1.33041352e-01f,+7.34943002e-02f,-1.34692207e-01f,-2.42612064e-02f,
-6.68157265e-02f,-2.22751796e-02f,-9.86470282e-03f,+1.25986397e-01f,+8.02647471e-02f,
+3.57960165e-03f,+3.28865945e-02f,-6.69146702e-02f,+5.20053357e-02f,+6.17335737e-03f,
+5.77249378e-02f,+1.51923627e-01f,-3.96094322e-02f,-1.35480866e-01f,-7.71967098e-02f,
-7.31586888e-02f,-1.48445904e-01f,-1.29595906e-01f,+3.20328921e-02f,-7.64417425e-02f,
-7.07962215e-02f,+1.57667458e-01f,-1.56433582e-02f,+3.63395810e-02f,+1.26895040e-01f,
+5.20130992e-02f,+5.86780906e-03f,+1.27059758e-01f,-1.46914870e-01f,-8.92985836e-02f,
+1.20507300e-01f,+3.11222970e-02f,+1.47856683e-01f,+1.51476711e-01f,-1.11610115e-01f,
-6.11029714e-02f,+1.10152274e-01f,+6.01726770e-02f,+1.14544958e-01f,+5.41840494e-03f,
-8.19809362e-02f,-1.71741322e-01f,-1.08966552e-01f,+5.27677685e-02f,+9.87655818e-02f,
+2.64425427e-02f,-7.95845240e-02f,-1.49148375e-01f,-8.05958062e-02f,-1.47413105e-01f,
+1.53912157e-01f,-1.06930196e-01f,+2.99373269e-02f,-1.51272148e-01f,-7.37375617e-02f,
+4.85223979e-02f,+1.00290418e-01f,-1.52718887e-01f,+3.58894169e-02f,+1.43525243e-01f,
-1.49610966e-01f,+9.37441885e-02f,-1.04210816e-01f,+1.07656091e-01f,+3.72463018e-02f,
+1.03204072e-01f,-6.93874732e-02f,-3.37583721e-02f,-4.85932231e-02f,-8.53149071e-02f,
-1.47825643e-01f,+1.53923839e-01f,+2.89141536e-02f,+1.18481070e-01f,-1.20247349e-01f,
-1.33490920e-01f,+5.32527715e-02f,+3.08950394e-02f,+1.18079334e-02f,+9.96121168e-02f,
-1.35217652e-01f,-8.75002146e-02f,-6.02896661e-02f,-2.00672448e-02f,+1.03106201e-02f,
-1.19674258e-01f,+7.36066103e-02f,+1.52209789e-01f,-8.80379602e-02f,-7.78345987e-02f,
-7.17642680e-02f,+1.15827173e-02f,+7.86514878e-02f,-3.75671685e-02f,-1.29964516e-01f,
+1.25809222e-01f,-8.59797671e-02f,+2.85107791e-02f,-3.38943303e-03f,+7.36536980e-02f,
+3.94233167e-02f,-1.53698370e-01f,-6.37620240e-02f,-2.30519474e-02f,-9.31713432e-02f,
-1.04463376e-01f,+1.11858368e-01f,-8.75318870e-02f,+1.32831722e-01f,-5.75349778e-02f,
+1.10979527e-01f,-1.32285565e-01f,+1.18380010e-01f,+9.38788056e-02f,+2.84859240e-02f,
-5.64680994e-03f,-1.55183390e-01f,+4.41869348e-02f,+7.72864521e-02f,+1.22003853e-01f,
-1.68088377e-01f,+1.41675472e-02f,-9.66814458e-02f,-5.78629002e-02f,-1.66383684e-02f,
-1.12156868e-02f,+1.35080010e-01f,-1.72419146e-01f,+1.02883995e-01f,+7.78649151e-02f,
+5.35935163e-04f,-6.94579631e-02f,-1.40802115e-02f,+7.66661912e-02f,+5.66604286e-02f,
+1.49777710e-01f,-3.13945562e-02f,+6.35789931e-02f,-1.21179387e-01f,+1.24003232e-01f,
-3.89881432e-02f,-8.91334862e-02f,-1.26385540e-01f,-1.03756525e-01f,+1.66609287e-02f,
+9.16467607e-02f,+1.60618722e-01f,-7.33661950e-02f,-1.28481686e-02f,+1.23911649e-01f,
-1.72756821e-01f,-3.76342386e-02f,+6.73537254e-02f,-1.36718452e-02f,-1.16182409e-01f,
-1.09603286e-01f,-4.21440899e-02f,+1.72331274e-01f,-6.32328242e-02f,-1.66081890e-01f,
-8.45986009e-02f,-1.46158487e-02f,+6.32032156e-02f,-1.53748840e-01f,+1.65589094e-01f,
-8.68928060e-02f,+2.66713649e-02f,+5.49394488e-02f,-1.11428455e-01f,+1.87135488e-02f,
-5.56380376e-02f,-1.63946420e-01f,+3.56171578e-02f,-1.06775917e-01f,-1.39305174e-01f,
-1.64753824e-01f,-1.04292929e-02f,-5.47349900e-02f,-1.54056072e-01f,+1.16010278e-01f,
-9.16483700e-02f,-1.28087059e-01f,+9.32019055e-02f,+9.93021727e-02f,+1.55318558e-01f,
-1.04407877e-01f,-4.74450886e-02f,+4.05619889e-02f,-8.79913568e-04f,-6.64790496e-02f,
+4.24178839e-02f,+9.79221165e-02f,-1.65524155e-01f,-2.84020454e-02f,+1.25005603e-01f,
-1.44553438e-01f,-9.10314620e-02f,+3.52162272e-02f,-1.04151368e-02f,-1.41942173e-01f,
-4.26471084e-02f,+4.85894680e-02f,+1.47388935e-01f,+1.29309595e-02f,+1.38899624e-01f,
+1.33700967e-02f,+7.47258067e-02f,+8.16090405e-02f,-9.98355374e-02f,-4.55127507e-02f,
-2.74543464e-03f,-3.01473439e-02f,-3.21925879e-02f,+6.78220987e-02f,+1.05260342e-01f,
-1.61100268e-01f,-4.57151383e-02f,-1.25252426e-01f,-7.63967782e-02f,-7.03608021e-02f,
-1.54048502e-02f,+7.78490007e-02f,-8.02862123e-02f,-6.02029860e-02f,-1.05981976e-01f,
-1.43661380e-01f,-1.51419908e-01f,-1.47636145e-01f,+5.51886559e-02f,+9.98300314e-02f,
+7.05895871e-02f,-1.39725506e-02f,-8.21843147e-02f,-1.36608675e-01f,+8.56473446e-02f,
+3.72311026e-02f,+6.63233697e-02f,+1.36670381e-01f,+7.87660480e-04f,-4.23502773e-02f,
-1.60183921e-01f,-6.03350922e-02f,-1.97617412e-02f,+5.08503467e-02f,+3.51953655e-02f,
+1.31795555e-02f,-3.71872038e-02f,+6.36509359e-02f,-1.77966207e-02f,+1.26678675e-01f,
+1.24321878e-01f,-1.20617524e-01f,-2.31482536e-02f,-1.19788602e-01f,+9.21228826e-02f,
+3.02660763e-02f,-9.51708183e-02f,+1.74409449e-02f,-8.48091245e-02f,+4.94106114e-03f,
+1.65887415e-01f,-5.75823858e-02f,+9.85625982e-02f,+6.47547990e-02f,-1.27962649e-01f,
-1.31435618e-01f,-1.12653062e-01f,-5.66337109e-02f,+1.63449258e-01f,+1.53859049e-01f,
+6.71582669e-02f,+1.28718019e-01f,-8.94723535e-02f,+5.97607195e-02f,+7.67996907e-02f,
+1.21765405e-01f,-6.15205541e-02f,+1.11303657e-01f,+1.72467083e-01f,-8.41853619e-02f,
-1.18378907e-01f,+5.78315258e-02f,+1.45503968e-01f,+6.12266511e-02f,+1.66409642e-01f,
-1.29857883e-01f,+1.62093997e-01f,-2.98680365e-02f,+1.12586409e-01f,+5.27731776e-02f,
+7.65688121e-02f,+2.59585679e-02f,+1.00703865e-01f,+7.69828260e-02f,+1.70686841e-01f,
+1.01667613e-01f,+3.24292928e-02f,+9.57337022e-03f,-1.54682398e-01f,+2.53355354e-02f,
+2.11799145e-02f,+1.67942077e-01f,+1.09676987e-01f,+6.37950599e-02f,-1.59245402e-01f,
-2.52281278e-02f,+1.04632616e-01f,+1.32360339e-01f,+1.34968132e-01f,-1.03395604e-01f,
+1.20771527e-01f,-5.23675308e-02f,-1.64124116e-01f,-1.48026004e-01f,-8.27312693e-02f,
-9.53888148e-02f,+1.30223900e-01f,-4.38701957e-02f,-3.19793820e-04f,-4.63395268e-02f,
-7.80406967e-02f,+3.76568139e-02f,+7.04488903e-02f,+1.71849310e-01f,-1.83556974e-03f,
+5.34149855e-02f,+3.46537828e-02f,-9.39252973e-03f,-1.71092287e-01f,-1.06842980e-01f,
-9.13327932e-02f,-1.05263643e-01f,-6.81388378e-03f,+1.03139132e-01f,-9.48147699e-02f,
-8.15232992e-02f,-3.50156575e-02f,+5.78187555e-02f,+1.06916636e-01f,-9.68891382e-03f,
+1.64813280e-01f,-7.34124035e-02f,+8.43411982e-02f,+1.60659850e-01f,-1.90021247e-02f,
+4.16016430e-02f,-3.11787874e-02f,-6.02468401e-02f,+6.76461309e-02f,-1.35613009e-01f,
-1.22382939e-01f,-4.90135700e-02f,-2.56845206e-02f,-9.93712097e-02f,-1.18220329e-01f,
+1.49491757e-01f,+1.10544264e-01f,+3.50197405e-02f,+1.52262449e-01f,-9.91150141e-02f,
+8.74462426e-02f,+4.00596261e-02f,-7.66267478e-02f,-5.81128895e-03f,+2.13279128e-02f,
-6.80584684e-02f,-1.71130300e-02f,-3.24182212e-02f,-4.48615253e-02f,+1.60115689e-01f,
+1.18626982e-01f,+1.70417935e-01f,-8.43127966e-02f,+6.70112967e-02f,+1.08914673e-01f,
+1.19563371e-01f,-3.11312079e-02f,+5.81204593e-02f,-4.37568873e-02f,+1.00698829e-01f,
-8.81416127e-02f,+9.75450873e-02f,-1.54457673e-01f,-1.16671719e-01f,+2.12149322e-02f,
+1.32710904e-01f,+1.69578403e-01f,-1.60192847e-01f,+7.26908892e-02f,-1.14929013e-01f,
+1.58382714e-01f,+1.57462448e-01f,+7.65804946e-02f,+3.51258665e-02f,+1.52913630e-01f,
-1.10603869e-01f,-1.67645529e-01f,+5.06372601e-02f,-1.38823435e-01f,-1.14626609e-01f,
+1.07884735e-01f,+1.70841098e-01f,+1.22179121e-01f,-2.37513334e-02f,-2.94433832e-02f,
-7.37860426e-02f,-7.97912106e-02f,+8.62736702e-02f,+5.87202758e-02f,+6.12425804e-03f,
-1.34681106e-01f,+8.23903084e-03f,-5.10413945e-03f,-1.11999109e-01f,+1.22870505e-03f,
+1.65380031e-01f,-1.08918443e-01f,+1.55277461e-01f,-1.47848025e-01f,-7.82265291e-02f,
-9.47728157e-02f,-2.22437978e-02f,-1.01292148e-01f,+1.12603158e-02f,-4.92610484e-02f,
+4.61942106e-02f,-7.99096450e-02f,+1.20149553e-01f,+1.64899111e-01f,+5.16572148e-02f,
-1.51115477e-01f,-1.20524153e-01f,+7.01226592e-02f,+5.38261980e-02f,-3.31223011e-02f,
-9.24626291e-02f,-8.34541842e-02f,-9.43936035e-02f,-1.79449618e-02f,+4.08198386e-02f,
+6.56815469e-02f,+1.27082318e-01f,-4.58766073e-02f,-1.64154515e-01f,-1.59696266e-01f,
+5.57841808e-02f,+1.28287226e-02f,+3.47025990e-02f,+7.47968704e-02f,-1.13292783e-02f,
-7.85328597e-02f,+6.33219332e-02f,+1.38340652e-01f,-3.81903946e-02f,-9.24420357e-03f,
-5.29732928e-02f,-5.73264807e-02f,-2.39535570e-02f,-7.07540587e-02f,-2.30222940e-04f,
+3.48223448e-02f,+1.72026634e-01f,-1.28758490e-01f,-4.87658381e-02f,-3.52099836e-02f,
+1.03617042e-01f,-1.10742331e-01f,-1.22510836e-01f,-1.18877098e-01f,-1.05059311e-01f,
+1.70709074e-01f,-1.39176831e-01f,+1.06033534e-02f,+1.29907310e-01f,-4.84263897e-02f,
-5.49998581e-02f,-1.10770211e-01f,+2.05592811e-02f,-4.24117744e-02f,+1.75426900e-03f,
-3.78392637e-03f,-7.07828403e-02f,+6.13015890e-03f,+4.89739180e-02f,+9.16456580e-02f,
+2.50007510e-02f,+1.24047816e-01f,+1.58380687e-01f,-2.44134218e-02f,-1.12944692e-01f,
-1.14651471e-02f,-2.47857273e-02f,+1.44459993e-01f,-8.00648704e-02f,-5.18661663e-02f,
-1.29085124e-01f,-1.04955621e-01f,+1.12162232e-01f,-4.35748994e-02f,-2.26160735e-02f,
-8.15443993e-02f,+1.40650749e-01f,-4.15695906e-02f,-5.78960255e-02f,-2.55386233e-02f,
+8.46921802e-02f,+1.47772282e-01f,+1.12865984e-01f,+4.73822355e-02f,+4.99383360e-02f,
+8.55484009e-02f,+6.63392991e-02f,-1.00537807e-01f,+1.22468621e-01f,-6.34174496e-02f,
-1.59233600e-01f,+1.27186120e-01f,+5.09257615e-03f,-5.07724136e-02f,-1.04697198e-02f,
-5.34331948e-02f,-7.36816078e-02f,-7.10658431e-02f,+1.27827466e-01f,-4.41107750e-02f,
-1.49039030e-01f,-4.80468869e-02f,+7.13450760e-02f,+2.88435370e-02f,+1.42470390e-01f,
-1.37063265e-01f,-5.13422117e-02f,-2.91810334e-02f,+1.70329362e-01f,+7.19727278e-02f,
-9.52169448e-02f,-1.40160412e-01f,-6.90795481e-03f,-1.03039600e-01f,-8.53362158e-02f,
+1.63401455e-01f,-4.77518141e-03f,+2.03374028e-02f,-8.65644664e-02f,+4.94282544e-02f,
-6.28766492e-02f,-1.72841549e-02f,-6.08510748e-02f,+1.34692997e-01f,-5.06842062e-02f,
-1.35301307e-01f,+1.25607967e-01f,+1.24307007e-01f,-1.41374245e-01f,+1.86568499e-02f,
-1.45035028e-01f,+1.68667227e-01f,+1.42807841e-01f,-7.55752027e-02f,-1.13031492e-01f,
-4.41628993e-02f,-2.97909379e-02f,-4.93495837e-02f,+1.45590156e-01f,+1.35673434e-01f,
-1.19242474e-01f,-1.47340789e-01f,+1.50631726e-01f,+9.94865596e-03f,+1.45379692e-01f,
+1.10554487e-01f,-1.15089655e-01f,-1.20723248e-03f,-3.49009335e-02f,+9.86045599e-03f,
-2.70112157e-02f,+1.48990244e-01f,-1.46495476e-01f,-9.88074914e-02f,-8.11581314e-03f,
-6.14049286e-02f,+2.29084492e-02f,+9.27947462e-03f,+5.47693968e-02f,+1.38794899e-01f,
+1.70433968e-01f,+1.08561993e-01f,-2.38364935e-03f,-1.21374309e-01f,-1.02209896e-01f,
-1.39780983e-01f,+3.06066424e-02f,-1.13102049e-02f,-8.55019763e-02f,-9.60075036e-02f,
+5.02384752e-02f,-8.15973431e-02f,+1.63385183e-01f,-1.05090946e-01f,+1.62243813e-01f,
+3.16405892e-02f,-8.86127353e-03f,+1.58822626e-01f,+1.13727540e-01f,-1.61238357e-01f,
+4.73932624e-02f,+7.34615326e-03f,-2.06609517e-02f,+1.56626612e-01f,-3.31598073e-02f,
+1.15654200e-01f,+5.54105788e-02f,+2.36857980e-02f,+1.43160790e-01f,-1.13513738e-01f,
+1.08812153e-01f,-1.45562127e-01f,+1.53688639e-01f,-4.80558872e-02f,+1.23823613e-01f,
-1.60488486e-02f,-8.76986831e-02f,-5.68774715e-02f,+7.64558613e-02f,+1.49156660e-01f,
-4.20097560e-02f,-4.73552644e-02f,-5.46163917e-02f,+1.78401172e-02f,-5.03180027e-02f,
-4.09806371e-02f,+3.20203006e-02f,-3.45165581e-02f,-1.26309916e-01f,-1.50939673e-02f,
+8.58018100e-02f,-1.29908919e-02f,+1.43676758e-01f,+2.36956179e-02f,-4.48070616e-02f,
+1.71551853e-01f,-3.86399776e-02f,-9.25237462e-02f,-4.99761179e-02f,-3.11208814e-02f,
-2.07030773e-02f,-4.17237878e-02f,-1.21291384e-01f,+6.71009123e-02f,+3.38739157e-02f,
-3.12591046e-02f,-1.70330182e-01f,+1.61206394e-01f,+6.60001040e-02f,-6.16615787e-02f,
+9.67132747e-02f,+1.29582047e-01f,-1.54436365e-01f,-3.58835161e-02f,-1.26082927e-01f,
-1.26681328e-01f,-6.70043230e-02f,+1.33018553e-01f,+4.19406742e-02f,+7.91897774e-02f,
+9.08361673e-02f,-1.11153841e-01f,-1.57666475e-01f,-5.38130328e-02f,-6.06405884e-02f,
+1.13000929e-01f,-9.53792781e-02f,-1.64650545e-01f,+1.16580248e-01f,-1.40131995e-01f,
-1.32622242e-01f,+1.31631404e-01f,+5.79863787e-04f,+1.60158902e-01f,-7.33819678e-02f,
-1.30810827e-01f,-6.89670071e-02f,-1.31770432e-01f,-6.15681633e-02f,-5.01657054e-02f,
-3.39352936e-02f,+1.36023819e-01f,-5.00777066e-02f,-1.20645687e-01f,+2.76097953e-02f,
-1.38873607e-01f,-6.38513863e-02f,-6.45254478e-02f,+1.00502998e-01f,+1.36261761e-01f,
-3.77919376e-02f,+1.27680063e-01f,-1.81091428e-02f,+8.88574719e-02f,-1.07051194e-01f,
-1.16956413e-01f,+1.01807505e-01f,-6.75670505e-02f,-2.37506628e-02f,-1.50515988e-01f,
+2.62980461e-02f,+1.23096645e-01f,-6.55974746e-02f,-1.40403509e-01f,-1.07145719e-01f,
-1.69602931e-01f,-4.61680293e-02f,+9.34687853e-02f,-4.46451455e-02f,+2.98015922e-02f,
-4.67589200e-02f,+1.15802288e-01f,-6.30820096e-02f,+2.40917206e-02f,+4.37000096e-02f,
+1.59218609e-01f,+1.44867659e-01f,+1.57453507e-01f,-1.02145843e-01f,-1.45016819e-01f,
-1.31433800e-01f,+1.50509775e-02f,+3.59133780e-02f,-1.43430710e-01f,-4.33196872e-02f,
+5.25020659e-02f,-1.57356799e-01f,+1.08639359e-01f,+1.47586256e-01f,-8.50856379e-02f,
-1.63687989e-01f,+4.55381125e-02f,-1.96295530e-02f,+1.97492689e-02f,+3.20798904e-02f,
+1.46277517e-01f,-9.64310691e-02f,+2.49782056e-02f,+9.92769301e-02f,-2.55704671e-02f,
+1.22235715e-02f,+8.03422928e-02f,-1.11826792e-01f,+1.42730802e-01f,-1.50361627e-01f,
+4.32825089e-03f,+1.28095448e-01f,+9.35932100e-02f,+7.00770169e-02f,+1.40492618e-01f,
+6.61865920e-02f,-9.50661749e-02f,+3.28409672e-03f,+1.68828279e-01f,+1.67621374e-02f,
+1.38634592e-01f,-1.96589231e-02f,-4.16246355e-02f,+1.40119940e-01f,-5.13723567e-02f,
-8.64003599e-02f,+7.13594854e-02f,-1.33265331e-01f,-8.58294517e-02f,+3.27450335e-02f,
+6.25502914e-02f,+8.90892744e-02f,+1.19150251e-01f,-2.66742557e-02f,+7.47115165e-02f,
+9.09723341e-03f,-1.03038609e-01f,+7.52398521e-02f,-1.28982723e-01f,+1.11404300e-01f,
-7.13734925e-02f,+3.64744663e-03f,-6.68015629e-02f,-6.54512048e-02f,-6.40322194e-02f,
+1.21117771e-01f,+1.16839290e-01f,-1.26416788e-01f,-1.27724200e-01f,+7.19495565e-02f,
-3.62165272e-02f,+1.00477517e-01f,+1.57666922e-01f,+1.16660774e-01f,+1.39727145e-01f,
+1.38617545e-01f,+7.21681118e-03f,-1.66433305e-02f,-2.01698691e-02f,-1.30265146e-01f,
+8.28944147e-02f,-7.66646862e-03f,+5.11520803e-02f,-4.72181737e-02f,+1.09279722e-01f,
+1.49554610e-02f,-1.31946892e-01f,-1.22706041e-01f,-9.92099121e-02f,-5.03678620e-03f,
+4.03503031e-02f,+1.21373266e-01f,-1.08152494e-01f,-1.08869299e-01f,+2.52006650e-02f,
+1.38388604e-01f,-1.60080895e-01f,-2.95377523e-02f,-5.00138626e-02f,+8.43119025e-02f,
+3.44077945e-02f,+2.38083899e-02f,-5.56783378e-02f,-1.00681514e-01f,-3.68590355e-02f,
+2.20641196e-02f,+1.25975221e-01f,+1.18314326e-02f,+9.88808274e-02f,+1.56535238e-01f,
+6.46529645e-02f,-6.29689023e-02f,-1.51807576e-01f,-1.60161093e-01f,+1.54552728e-01f,
+6.89258724e-02f,+1.63479537e-01f,+6.56138659e-02f,-1.85994506e-02f,-3.51604819e-03f,
-7.29819015e-02f,+8.16554427e-02f,-1.19896509e-01f,-9.81260762e-02f,-5.71051762e-02f,
-1.19413190e-01f,+1.37365907e-01f,-2.26177275e-02f,+1.20888352e-01f,+4.40365076e-03f,
-1.26029685e-01f,+6.21294528e-02f,-3.59619707e-02f,-9.96011868e-02f,-5.26517630e-04f,
+6.13612831e-02f,+1.81927681e-02f,-1.53112143e-01f,-1.50531933e-01f,-1.31253749e-01f,
-2.06913054e-02f,-8.79558697e-02f,-9.67515633e-02f,+9.96703207e-02f,-9.25903022e-03f,
+7.06054270e-03f,-1.22288331e-01f,-5.51614463e-02f,+1.50366783e-01f,-1.24992803e-01f,
-9.22510773e-02f,-9.11471695e-02f,-1.06365524e-01f,+2.71987468e-02f,+1.25876606e-01f,
+5.25879264e-02f,+4.73605990e-02f,+1.40071958e-01f,-1.25861779e-01f,-9.99958888e-02f,
+1.64942950e-01f,-1.04710989e-01f,-1.70592070e-01f,+6.11291528e-02f,-1.55895278e-01f,
+1.66586399e-01f,-1.40003279e-01f,-2.38455832e-03f,+1.54638410e-01f,-5.22501245e-02f,
+5.72726727e-02f,-1.75811052e-02f,-6.94300085e-02f,-3.66327316e-02f,-1.11299902e-01f,
-2.30436474e-02f,+1.32072359e-01f,-3.33290696e-02f,-1.39021024e-01f,-9.26004350e-02f,
-4.59392071e-02f,-4.73153740e-02f,+4.00136262e-02f,-9.03629735e-02f,-5.18913120e-02f,
+7.54088610e-02f,+1.30451143e-01f,+9.14749503e-03f,+6.86396956e-02f,-8.05038810e-02f,
+7.92336464e-02f,+1.11110359e-01f,-8.85797590e-02f,+3.59920859e-02f,-1.17748864e-01f,
-2.10432708e-03f,-2.79931873e-02f,+1.00293636e-01f,+9.61882174e-02f,+1.10111326e-01f,
+1.11704350e-01f,-9.09166038e-03f,+3.70137393e-03f,+1.72081590e-01f,-1.26885623e-01f,
+6.44420236e-02f,+4.11362797e-02f,-9.54836309e-02f,+8.39814544e-03f,+2.62670368e-02f,
+1.43789202e-01f,+1.38581693e-02f,+3.69598866e-02f,-4.32661325e-02f,-1.14563674e-01f,
+1.17723435e-01f,-5.08174673e-02f,+3.20227742e-02f,-1.42477408e-01f,-4.39886302e-02f,
-3.66702825e-02f,+9.71355736e-02f,-9.39208493e-02f,+1.03886425e-03f,+1.34901702e-01f,
-1.35627180e-01f,-1.72011852e-02f,+7.82328844e-02f,-2.18782127e-02f,+1.12166107e-01f,
-1.72572225e-01f,-8.43846500e-02f,+6.04544729e-02f,+2.38686800e-03f,-1.60079151e-01f,
-3.31320912e-02f,-9.63603333e-02f,-2.89501995e-02f,+2.29610950e-02f,+5.35559207e-02f,
+1.32014900e-02f,-2.55157053e-02f,+1.03081554e-01f,-4.74695414e-02f,-1.40744075e-01f,
+1.56417429e-01f,-2.19823569e-02f,-1.41356647e-01f,-1.36174336e-01f,-1.34982884e-01f,
+4.78883535e-02f,-5.27418703e-02f,-7.46053457e-02f,-8.16241428e-02f,+1.69936389e-01f,
+1.08287483e-02f,+1.50254250e-01f,+1.67691320e-01f,-3.15276086e-02f,+2.19682753e-02f,
-3.03610563e-02f,-1.65533692e-01f,+9.88776088e-02f,+1.60357654e-01f,+4.98561114e-02f,
+1.38367444e-01f,+5.65981865e-02f,+1.20290250e-01f,-9.12646949e-02f,-1.60390139e-02f,
+3.38314772e-02f,-7.02147037e-02f,-1.58625513e-01f,-2.36228555e-02f,+8.04315209e-02f,
+1.37095749e-01f,-3.19802463e-02f,+1.68543041e-01f,+1.18321121e-01f,+1.71557635e-01f,
+7.36902356e-02f,+3.01224440e-02f,-1.46319851e-01f,-6.66897744e-02f,+1.54388100e-01f,
-4.60983664e-02f,+6.34834021e-02f,+7.86650777e-02f,-5.69754690e-02f,+2.95558423e-02f,
-1.37494877e-01f,-1.21229976e-01f,+5.55025488e-02f,-2.84036547e-02f,-3.27049345e-02f,
-1.39027387e-01f,-1.57661557e-01f,-1.07255146e-01f,+1.83011293e-02f,+1.72826231e-01f,
-1.08400062e-01f,-8.87747556e-02f,-1.51985481e-01f,-1.16579920e-01f,+1.29261315e-02f,
+1.57358736e-01f,+3.97451669e-02f,-1.29981399e-01f,+9.79183316e-02f,-1.53235123e-01f,
+1.38844520e-01f,+1.42413825e-02f,+1.30447716e-01f,-1.33782387e-01f,+1.15690917e-01f,
+1.34564281e-01f,-1.25467375e-01f,+5.15209138e-03f,+1.15997434e-01f,+1.22647941e-01f,
-1.36991948e-01f,+3.90784889e-02f,-3.49449515e-02f,-1.07362024e-01f,-1.61146685e-01f,
+3.57514173e-02f,+1.40418261e-01f,-9.65065584e-02f,-1.31610751e-01f,-1.12388447e-01f,
+1.48545384e-01f,-1.29087687e-01f,+1.67293459e-01f,+3.94461900e-02f,+1.53844148e-01f,
-1.51251853e-02f,+1.30086124e-01f,+1.20388240e-01f,+4.83231097e-02f,+1.65027380e-01f,
+1.25597894e-01f,+1.41111553e-01f,+1.29761010e-01f,+3.84863615e-02f,-7.69369975e-02f,
-1.19542442e-01f,-1.02686197e-01f,+1.17418081e-01f,+2.81511843e-02f,+6.30784631e-02f,
+1.10499978e-01f,-1.30402610e-01f,+4.44902927e-02f,+1.26562178e-01f,+4.51111197e-02f,
+9.79682505e-02f,-1.19560324e-01f,+1.57848001e-01f,-2.29886919e-02f,-6.11668155e-02f,
-8.69995505e-02f,+8.29353929e-03f,+1.60333455e-01f,-1.37698874e-01f,+1.49515033e-01f,
+1.49237990e-01f,-1.55951381e-02f,-1.57418668e-01f,-1.78877264e-02f,-1.77903473e-02f,
-5.42420894e-02f,-1.70742601e-01f,+6.30926639e-02f,+1.65936112e-01f,-7.26149902e-02f,
+5.98287284e-02f,-1.03904985e-01f,+4.41423357e-02f,+1.44486308e-01f,+4.05967236e-04f,
-1.64576009e-01f,+1.31619424e-01f,-1.07138038e-01f,-5.09409010e-02f,-1.48989961e-01f,
+8.74536633e-02f,-3.34070325e-02f,+2.01383233e-02f,+1.20881230e-01f,+1.01401746e-01f,
+1.21698886e-01f,-4.97807488e-02f,+5.57693094e-02f,+1.68485761e-01f,-1.10127032e-01f,
-1.00625806e-01f,+1.48230910e-01f,-7.20485821e-02f,-8.75731036e-02f,+1.65180326e-01f,
-1.29636675e-02f,-2.23031789e-02f,-3.23259681e-02f,+1.54684186e-01f,+8.50058198e-02f,
+7.98221529e-02f,+2.90451795e-02f,-2.58928537e-02f,-1.10986099e-01f,+1.33351415e-01f,
+1.29684001e-01f,+2.88622379e-02f,+1.11682415e-01f,-1.10419899e-01f,-1.19587213e-01f,
-1.17647365e-01f,+1.09888464e-02f,-1.55950695e-01f,+1.89152807e-02f,-1.39003247e-02f,
-3.60722840e-02f,+5.94443530e-02f,+3.97079587e-02f,+9.96051729e-03f,-1.44307122e-01f,
-1.24707371e-01f,+1.41959935e-01f,-3.00075263e-02f,+7.91661143e-02f,-2.12126225e-02f,
+2.97265053e-02f,+1.28299147e-02f,+1.11058891e-01f,-3.51161659e-02f,-1.42190486e-01f,
+1.03763491e-02f,-1.07443623e-01f,-1.04214698e-01f,-1.63405955e-01f,-9.24371928e-02f,
+1.03787959e-01f,+1.55474275e-01f,+1.38280839e-01f,-3.01991403e-02f,+1.30774111e-01f,
+5.84060252e-02f,+6.72895014e-02f,+2.81405300e-02f,+9.38697755e-02f,-1.40939444e-01f,
-7.25089461e-02f,+8.17886293e-02f,-1.60926908e-01f,+3.54726613e-03f,-1.19440734e-01f,
+5.19561768e-03f,-1.49459898e-01f,-1.69154704e-01f,+1.65196419e-01f,+8.83584619e-02f,
-1.68406188e-01f,-7.30635002e-02f,+3.32294255e-02f,-8.06454420e-02f,+8.34912658e-02f,
-2.87105292e-02f,-5.46848178e-02f,-6.60345405e-02f,-5.19640744e-02f,+9.04545784e-02f,
-1.72364518e-01f,-5.32793701e-02f,+6.11354262e-02f,+1.97535753e-03f,-6.19742647e-02f,
+7.92859495e-02f,-1.17897615e-01f,-3.64469886e-02f,-8.87601376e-02f,-8.98036361e-03f,
+3.53869796e-02f,-1.53023481e-01f,-5.60493767e-02f,+1.55447364e-01f,+3.93998623e-03f,
-7.63820335e-02f,+6.56715035e-03f,+6.06974065e-02f,-3.38181704e-02f,+1.46574765e-01f,
-2.83941627e-04f,-3.13198417e-02f,+4.61525917e-02f,+6.86783046e-02f,-1.88307464e-02f,
+1.35372698e-01f,+1.72066033e-01f,-1.48439914e-01f,-1.21537954e-01f,+8.60458016e-02f,
-1.66918978e-01f,-1.31226182e-02f,+1.45513117e-02f,+2.83213109e-02f,+4.26274538e-02f,
-5.93677163e-03f,-1.57723546e-01f,+2.53029168e-02f,+6.73492551e-02f,+3.74007225e-03f,
-1.00072920e-02f,+1.14594728e-01f,-1.37247309e-01f,+1.06668741e-01f,+1.35526031e-01f,
+1.30833775e-01f,-5.49572408e-02f,+8.83858502e-02f,+8.30771923e-02f,+9.50168669e-02f,
-3.33423764e-02f,+9.54527557e-02f,-9.41231996e-02f,+1.20597750e-01f,-2.38340050e-02f,
-1.47764981e-02f,-6.43090606e-02f,+5.33881783e-03f,-1.35875821e-01f,+5.57584465e-02f,
-1.24406040e-01f,+6.06559068e-02f,+1.54602706e-01f,-8.21115896e-02f,-1.68218181e-01f,
-1.72796920e-01f,-1.35451093e-01f,-1.16369188e-01f,+2.19037682e-02f,+1.11315459e-01f,
+1.55081391e-01f,-1.37520969e-01f,+1.03685081e-01f,-1.54696897e-01f,+8.35725665e-03f,
-5.98079115e-02f,+1.60087049e-02f,+1.01285100e-01f,-1.60887390e-01f,+5.45382947e-02f,
+6.93106651e-02f,+1.40023857e-01f,-1.27466142e-01f,+1.42111689e-01f,-1.37659431e-01f,
-2.22182870e-02f,+3.98508757e-02f,-7.63723254e-02f,+1.69254243e-02f,-3.27069610e-02f,
-9.51095372e-02f,-8.71662199e-02f,+6.94756061e-02f,-9.95183513e-02f,-1.53527081e-01f,
+8.77427757e-02f,-1.29199564e-01f,+1.03729516e-01f,-1.53563589e-01f,+3.30335200e-02f,
-9.60963294e-02f,-1.13757670e-01f,+7.21113980e-02f,-1.82571858e-02f,-6.70469776e-02f,
-1.16919614e-01f,+1.19192004e-01f,-4.56564277e-02f,-5.51349372e-02f,+1.61780864e-01f,
+1.49495780e-01f,-1.54741660e-01f,-8.50670561e-02f,-1.67507976e-01f,+1.50419772e-01f,
+1.70566320e-01f,-1.48808926e-01f,+1.29810482e-01f,-1.10061787e-01f,+1.53282493e-01f,
-1.93297863e-04f,+4.51128930e-02f,+1.51299000e-01f,+6.08488023e-02f,+8.07369053e-02f,
-1.48900852e-01f,+8.02235603e-02f,+1.00359648e-01f,-1.51455626e-01f,+1.24199510e-01f,
-1.66043848e-01f,-1.62152231e-01f,+1.77575648e-02f,+1.00355953e-01f,+1.38373941e-01f,
+1.04668200e-01f,-8.13852102e-02f,+2.85710245e-02f,-9.66714919e-02f,-8.28313679e-02f,
+1.18618339e-01f,-1.30926400e-01f,-1.25944912e-01f,-1.39769167e-01f,-8.79171342e-02f,
+5.58416247e-02f,-9.89984423e-02f,-5.61387837e-02f,+6.00471348e-02f,-8.62890482e-03f,
+1.23624533e-01f,+4.35851812e-02f,-4.14088219e-02f,+7.38302320e-02f,+1.53478116e-01f,
-1.50275275e-01f,-1.28942281e-01f,+6.51376545e-02f,-6.41380548e-02f,+1.07394278e-01f,
+1.12912029e-01f,+7.01370239e-02f,-1.19455010e-02f,-1.44551620e-01f,+4.48015630e-02f,
-4.85695153e-02f,-5.21154702e-03f,+3.92993838e-02f,+1.69030935e-01f,-4.34484035e-02f,
-1.38817132e-02f,+1.56997412e-01f,+6.21413440e-02f,-3.99794728e-02f,-9.83824804e-02f,
+8.94584954e-02f,+7.59958327e-02f,+8.96043777e-02f,-1.57008484e-01f,+7.06565231e-02f,
-1.00772403e-01f,+5.30745089e-02f,+1.15996450e-01f,-2.17255503e-02f,+1.60467297e-01f,
-4.39402759e-02f,+1.06574893e-02f,+2.98556834e-02f,-1.23494565e-01f,+5.16131073e-02f,
+6.39772117e-02f,+1.36279434e-01f,-1.35551557e-01f,-9.01697502e-02f,-1.24079064e-01f,
+1.13300174e-01f,-8.92335847e-02f,-1.23167016e-01f,-7.93887451e-02f,-2.71698833e-02f,
+1.00339592e-01f,+1.23732418e-01f,+1.01095051e-01f,-1.28734037e-01f,-9.83159244e-03f,
-1.00488812e-02f,-8.14183056e-03f,-1.12484396e-03f,+1.43344641e-01f,+2.42524445e-02f,
-1.49914443e-01f,-5.69588244e-02f,-2.50735581e-02f,+1.16461068e-01f,-1.69090986e-01f,
-1.60763294e-01f,+6.13107383e-02f,-9.15286168e-02f,+1.31311357e-01f,+1.21891111e-01f,
+1.51277810e-01f,-6.74375892e-02f,-1.20121568e-01f,+7.83760846e-03f,+1.66823626e-01f,
-1.22717604e-01f,+3.26095819e-02f,-1.65999338e-01f,-1.25193000e-01f,+5.35620451e-02f,
-8.10362399e-03f,+2.78615952e-03f,+1.51072770e-01f,-3.62290293e-02f,+4.91575152e-02f,
+1.60250813e-01f,-1.73116907e-01f,-1.53128207e-01f,-1.33819312e-01f,+3.28275859e-02f,
+1.24797553e-01f,+5.99838793e-02f,-6.64441958e-02f,-1.13263041e-01f,-7.62626454e-02f,
-1.21602714e-02f,+8.04924965e-02f,+6.80481493e-02f,+1.10044718e-01f,-3.73198092e-03f,
+1.67618304e-01f,-1.17002428e-03f,-1.69951007e-01f,-1.12502791e-01f,-3.71475220e-02f,
-1.23076454e-01f,+1.63660705e-01f,-9.83742997e-02f,-1.18022814e-01f,+1.48784876e-01f,
-1.08566932e-01f,-1.08845599e-01f,+1.63131118e-01f,-4.77734208e-02f,-1.03902049e-01f,
-1.56861797e-01f,+1.27555311e-01f,+1.03230774e-02f,+1.17100030e-01f,+3.52732539e-02f,
-9.22971219e-02f,+1.34175390e-01f,-1.57426968e-01f,+4.59260345e-02f,+2.81495601e-02f,
+3.25885713e-02f,-1.53460681e-01f,-1.67393833e-02f,-6.87914565e-02f,-1.96392834e-03f,
-1.47372186e-01f,+1.16448700e-02f,+1.35364532e-01f,-5.31629175e-02f,+1.69116259e-01f,
+4.44740951e-02f,-9.11071971e-02f,+1.52110189e-01f,-4.07336503e-02f,-7.77285472e-02f,
+4.04671729e-02f,-1.29992098e-01f,+6.02100044e-02f,+1.13593817e-01f,+1.21900856e-01f,
-1.47686005e-02f,-1.39414787e-01f,+8.16746354e-02f,+1.05469167e-01f,+1.40064925e-01f,
+1.32061660e-01f,+4.30202484e-02f,+1.35362178e-01f,+1.66159391e-01f,-1.12936676e-01f,
+1.39279485e-01f,-1.62848011e-01f,+9.08538699e-04f,-1.32681698e-01f,+1.44702673e-01f,
+3.10025364e-02f,+5.10996431e-02f,+4.92250025e-02f,-6.24847561e-02f,-1.68268755e-01f,
+1.43727213e-01f,+9.65525210e-02f,-1.29047051e-01f,-1.66587293e-01f,-1.06814735e-01f,
-1.69358999e-01f,+9.66265500e-02f,-3.10506821e-02f,+1.53915346e-01f,-1.61019117e-02f,
-6.65538311e-02f,+6.28244132e-02f,-4.69322801e-02f,-1.41451880e-01f,+3.15556377e-02f,
-9.29953158e-03f,-1.08207420e-01f,+6.46747351e-02f,+1.37967497e-01f,-4.06285077e-02f,
-9.34082121e-02f,-7.53828064e-02f,-3.27478796e-02f,-1.30611151e-01f,+9.71872807e-02f,
+1.17501974e-01f,+1.36587590e-01f,-1.19042024e-01f,-1.61108777e-01f,+2.41451561e-02f,
-1.72234342e-01f,-3.67420912e-02f,-1.68388516e-01f,-9.37803686e-02f,+3.22204232e-02f,
+1.10781729e-01f,-1.72607780e-01f,-4.64134961e-02f,+4.76782769e-02f,+1.69790983e-02f,
+1.40384644e-01f,-1.38934106e-01f,-5.64053059e-02f,-3.04254740e-02f,+6.80532157e-02f,
+1.54751152e-01f,+1.53810889e-01f,-7.66763464e-02f,-1.57650173e-01f,-7.51108006e-02f,
-1.37242824e-02f,-1.64519697e-02f,-4.79508340e-02f,+1.28865153e-01f,+1.68767810e-01f,
+9.96574759e-02f,+4.91258055e-02f,+7.64113963e-02f,+9.52029526e-02f,-6.69758320e-02f,
+3.47632170e-02f,+9.36490297e-03f,+6.85649514e-02f,-8.19301829e-02f,+9.23404396e-02f,
+7.52120167e-02f,-2.58326530e-03f,-8.22771043e-02f,-1.69339925e-01f,+1.43897891e-01f,
-2.05581188e-02f,-1.50042504e-01f,-1.43328041e-01f,+1.54617429e-01f,-1.84440166e-02f,
-1.69094548e-01f,-2.75679678e-02f,+9.99672711e-03f,-6.98100105e-02f,-5.89396805e-02f,
-8.20136368e-02f,+1.02836430e-01f,+2.99950987e-02f,+2.87890434e-03f,-4.48767245e-02f,
-1.70471489e-01f,-7.41756260e-02f,-3.41975987e-02f,+1.31691068e-01f,+1.59215182e-01f,
-1.36257008e-01f,+1.07710630e-01f,+1.66723460e-01f,+1.10835254e-01f,-6.58978522e-02f,
+7.18686581e-02f,+6.23009950e-02f,+9.72123742e-02f,-1.62078306e-01f,-3.99449915e-02f,
+1.51128262e-01f,-1.66832179e-01f,-3.81603390e-02f,+1.26272172e-01f,-1.41894028e-01f,
-1.33123696e-02f,-1.25248790e-01f,-1.70663849e-01f,-1.72802240e-01f,-4.34987396e-02f,
+8.82420838e-02f,-9.15343985e-02f,+4.71896827e-02f,-9.00990516e-02f,-5.58159351e-02f,
+1.26343191e-01f,+5.47409803e-02f,+5.64724952e-02f,-1.08032227e-02f,+1.06066465e-01f,
-6.99010193e-02f,-5.81873581e-02f,-1.66396394e-01f,+7.93547630e-02f,+1.25143617e-01f,
-1.09504707e-01f,-4.37164158e-02f,-9.83027369e-02f,-1.42000616e-01f,-8.26435164e-02f,
+3.06548327e-02f,-7.40380660e-02f,-1.40467554e-01f,-1.14105418e-01f,+1.39313191e-01f,
-8.37060884e-02f,+1.10566944e-01f,+6.67199641e-02f,-1.25145808e-01f,-1.36073455e-01f,
+1.10201150e-01f,+3.21360081e-02f,+1.68343991e-01f,-3.55975032e-02f,+8.40373635e-02f,
-1.69717520e-02f,+1.42289549e-02f,+9.18735862e-02f,+1.47610545e-01f,-1.32388711e-01f,
+3.99397910e-02f,-1.62609562e-01f,-4.26907986e-02f,+1.35341376e-01f,+3.31062376e-02f,
-1.48131937e-01f,+5.62923253e-02f,-1.70565352e-01f,-8.49528313e-02f,+5.77796549e-02f,
-1.12829804e-01f,-1.56881213e-01f,-1.20146260e-01f,+1.23250961e-01f,+1.00378901e-01f,
+3.90921682e-02f,+1.16596431e-01f,-1.57031685e-01f,-1.23556435e-01f,+2.50905752e-03f,
+7.50865042e-03f,-1.18664503e-02f,-1.15016639e-01f,+3.64851952e-02f,-1.55874178e-01f,
+1.72529072e-01f,+7.14334846e-02f,-1.27268970e-01f,+9.93503630e-03f,-7.06999600e-02f,
+1.47103727e-01f,-6.47409707e-02f,-1.16022080e-02f,+8.83098543e-02f,+9.38941240e-02f,
-1.21931501e-01f,-8.99953172e-02f,-1.07981943e-01f,-1.38033569e-01f,+1.62387371e-01f,
-7.47804344e-03f,+1.23087883e-01f,-1.33565068e-02f,+6.44645095e-03f,+1.17803067e-02f,
-9.02641118e-02f,-1.59960985e-03f,-1.23641908e-01f,+1.22282237e-01f,+3.39270234e-02f,
+7.19766021e-02f,+2.79848427e-02f,+1.55879378e-01f,-1.57067403e-01f,-2.40566581e-02f,
+1.52991146e-01f,-9.70365852e-02f,-1.30932644e-01f,+8.39776993e-02f,+6.82084560e-02f,
+1.44838840e-01f,-2.08651572e-02f,-9.44920108e-02f,+1.29617214e-01f,+1.07668787e-02f,
+4.37138081e-02f,+2.10421830e-02f,+1.15291506e-01f,+4.12773937e-02f,+2.72395760e-02f,
+1.28064096e-01f,+3.56393754e-02f,-1.11206368e-01f,+1.64740622e-01f,-4.36206162e-03f,
+1.37653738e-01f,+1.72104031e-01f,+3.94803286e-03f,-4.43298966e-02f,+1.07839465e-01f,
+3.09246182e-02f,-1.09584905e-01f,+2.15326548e-02f,-2.03177333e-04f,+4.61449027e-02f,
+1.02078706e-01f,-1.22594982e-02f,+1.03288293e-01f,+5.67276478e-02f,-3.66917253e-03f,
-9.67474729e-02f,+5.52318096e-02f,-4.32431698e-03f,-1.02775805e-01f,-6.65849671e-02f,
-7.68155530e-02f,-1.20265365e-01f,-8.07069764e-02f,-1.53523445e-01f,-3.20128649e-02f,
-9.38542038e-02f,+5.39589673e-02f,-1.48792371e-01f,-6.96672499e-02f,-7.44246766e-02f,
-8.81203488e-02f,-1.38974324e-01f,-9.24366191e-02f,+7.40204751e-02f,-1.09373555e-01f,
+1.37466997e-01f,+1.17689520e-01f,-3.46015394e-02f,+1.35464966e-03f,-1.44365177e-01f,
+1.56666666e-01f,-1.21202886e-01f,-8.31789896e-02f,+1.41888916e-01f,-9.16947871e-02f,
+9.43673849e-02f,-8.25652182e-02f,+4.02333140e-02f,-7.77498186e-02f,-2.52564996e-02f,
-1.10757366e-01f,+5.86831570e-02f,+4.37898338e-02f,+1.62081599e-01f,-1.52065560e-01f,
+1.10317141e-01f,-8.93105194e-02f,-1.67464986e-01f,-1.39098004e-01f,+1.61337107e-02f,
-1.54083073e-02f,+1.31340355e-01f,+1.07064456e-01f,+1.34924710e-01f,-1.13162525e-01f,
+8.91197324e-02f,-8.47746879e-02f,+1.40619516e-01f,+1.42265886e-01f,+5.71787357e-03f,
-1.44127116e-01f,+1.12789184e-01f,-7.56198838e-02f,+1.62587225e-01f,+1.62211150e-01f,
-1.63694471e-01f,+1.59993112e-01f,+7.67625719e-02f,-3.97914201e-02f,+2.72969902e-02f,
+1.38864905e-01f,+2.58297175e-02f,-1.06744736e-01f,+3.92484665e-02f,+3.04762721e-02f,
-1.53625026e-01f,-1.32687241e-01f,-1.41034842e-01f,-4.68280613e-02f,+1.01541698e-01f,
-7.68712163e-02f,+1.71179056e-01f,+1.24513209e-01f,-5.45898825e-02f,+5.92135489e-02f,
+2.78097093e-02f,+1.26907408e-01f,-2.33640671e-02f,-5.63073084e-02f,+1.00175232e-01f,
+4.39887941e-02f,+8.24576020e-02f,-1.03614263e-01f,+4.80164438e-02f,+1.28905565e-01f,
+1.12062305e-01f,-1.01556271e-01f,-1.30035549e-01f,+4.86607850e-02f,-1.61537677e-02f,
-2.87061483e-02f,+5.77180386e-02f,-1.29370317e-01f,-2.64402330e-02f,+9.01381671e-03f,
-8.79740790e-02f,+4.73790169e-02f,-1.23310223e-01f,-1.24987558e-01f,-5.33605590e-02f,
-1.52269900e-02f,+1.17075384e-01f,+5.55990487e-02f,+1.73775256e-02f,-2.64621526e-02f,
+9.63549316e-02f,-7.99323544e-02f,-1.24095872e-01f,+1.61679506e-01f,-1.26003057e-01f,
-1.48928478e-01f,-5.33326864e-02f,+1.39821768e-02f,-8.06842595e-02f,-1.08903408e-01f,
+8.12668204e-02f,-6.33948222e-02f,-9.33138505e-02f,+1.17980421e-01f,-1.30641133e-01f,
+9.95394588e-02f,+1.11141950e-01f,-1.69854507e-01f,-6.11451343e-02f,-9.95858684e-02f,
-8.39790478e-02f,-8.70749131e-02f,+1.23589426e-01f,+1.11926347e-01f,-1.13232106e-01f,
-1.21686995e-01f,-5.67535460e-02f,-4.52948809e-02f,+1.71866685e-01f,+3.52080911e-02f,
+8.64234865e-02f,-7.44402409e-02f,+9.21806395e-02f,-3.66751850e-03f,-6.71095848e-02f,
-7.45220482e-02f,-6.44946843e-02f,-1.24058783e-01f,-1.72479898e-01f,-7.56736100e-03f,
-1.02372102e-01f,+7.65764862e-02f,+5.05059361e-02f,-1.47825688e-01f,+1.25472337e-01f,
+4.64327335e-02f,-1.26758873e-01f,+1.35000318e-01f,+9.41723585e-03f,-1.04668990e-01f,
-8.48750770e-02f,+1.51197046e-01f,+6.79625869e-02f,+1.00565523e-01f,+1.09287292e-01f,
-1.93594545e-02f,-6.96621686e-02f,+1.37552232e-01f,+1.32530481e-01f,-6.19337559e-02f,
-8.14971551e-02f,-4.81207967e-02f,-4.92366031e-02f,+5.90930134e-02f,+2.32948959e-02f,
-4.33879942e-02f,+3.12496424e-02f,+1.48772120e-01f,+4.15298343e-03f,-1.60571933e-01f,
-4.53633964e-02f,-5.22745326e-02f,-5.50727472e-02f,-9.97613296e-02f,-1.69402033e-01f,
-1.46345243e-01f,+1.26237571e-01f,+1.46353126e-01f,-1.56917915e-01f,-1.18941218e-02f,
-3.08964103e-02f,-1.49774909e-01f,+7.42670447e-02f,+9.29740369e-02f,-7.09189922e-02f,
+1.21409208e-01f,+1.62512124e-01f,-4.29297388e-02f,+1.46686554e-01f,-4.46063280e-02f,
-2.06279904e-02f,+4.07272428e-02f,-1.24458283e-01f,+5.82856089e-02f,+6.06676787e-02f,
-1.50180459e-01f,-5.86696491e-02f,+1.47806108e-01f,-1.06439486e-01f,+1.17019147e-01f,
-3.50684673e-02f,-4.10735607e-03f,-1.04508057e-01f,-5.49262315e-02f,+2.48440057e-02f,
+7.78289139e-03f,-8.04384723e-02f,-1.01014972e-04f,+1.08545750e-01f,-5.85840419e-02f,
-7.66137391e-02f,-1.51048705e-01f,-9.29127634e-03f,+6.60447031e-02f,-1.57844916e-01f,
+1.41754746e-03f,-1.34530529e-01f,+1.63059324e-01f,-5.35361022e-02f,-2.26980895e-02f,
+5.80289960e-02f,-5.65977395e-03f,-1.58717409e-01f,-1.41186565e-02f,+6.70441985e-03f,
+8.71672630e-02f,-1.33522764e-01f,-1.50970563e-01f,-1.16889924e-01f,-1.86798126e-02f,
-5.91933578e-02f,+1.26731455e-01f,-9.68280435e-02f,+1.44833595e-01f,-2.93976367e-02f,
-2.91956663e-02f,+4.72547561e-02f,+1.04461312e-01f,-2.99522281e-02f,+8.91878307e-02f,
-1.10343993e-01f,-1.13669671e-01f,-1.59690365e-01f,-1.59234628e-01f,+1.45795405e-01f,
-1.35191053e-01f,+5.30198663e-02f,+1.07455254e-01f,+5.45183122e-02f,-1.16101056e-01f,
-1.17411733e-01f,-9.39954743e-02f,-6.01485968e-02f,-5.75609952e-02f,+1.78219825e-02f,
+1.65142536e-01f,-2.75045335e-02f,-4.09330279e-02f,+2.97747403e-02f,+1.32929057e-01f,
-8.68552253e-02f,-8.18455294e-02f,-1.14197463e-01f,-1.43209606e-01f,-5.08912653e-02f,
+3.02488953e-02f,-1.45789534e-01f,-3.90082449e-02f,-5.74961603e-02f,+6.00463152e-02f,
-4.33613062e-02f,-8.22029337e-02f,+9.35507715e-02f,-1.37677610e-01f,-1.60834774e-01f,
+7.10263252e-02f,-4.29260582e-02f,+8.19887519e-02f,-7.28001595e-02f,-2.80356258e-02f,
+1.59295201e-01f,+9.74509716e-02f,+8.74706507e-02f,-9.18256938e-02f,-1.55721888e-01f,
-6.69102520e-02f,-9.01922584e-03f,+5.42226881e-02f,+5.31440526e-02f,+5.03026843e-02f,
-1.28741845e-01f,+2.89657712e-03f,-7.33920932e-03f,-1.27236426e-01f,+2.77071744e-02f,
+1.63653582e-01f,+1.28655106e-01f,+8.87575746e-02f,+1.04729384e-02f,-1.38608739e-01f,
+7.79622793e-02f,+1.01727784e-01f,+7.29032755e-02f,-1.20833665e-01f,-6.09230921e-02f,
+2.91882306e-02f,+1.38467133e-01f,-4.35039401e-04f,-3.10494006e-02f,+1.55651569e-02f,
+1.66804552e-01f,-1.04442030e-01f,-9.80406776e-02f,-7.06210062e-02f,-1.15467422e-01f,
-8.76874477e-02f,+1.34943902e-01f,-5.44210672e-02f,+4.56514210e-02f,+1.14820659e-01f,
-9.74610597e-02f,+1.65617764e-01f,-9.22419056e-02f,-1.60570279e-01f,+8.12867284e-02f,
+1.37924969e-01f,-1.24274760e-01f,+1.29223645e-01f,-6.16186261e-02f,+1.55369312e-01f,
-1.99390650e-02f,-1.14137754e-01f,-7.29054660e-02f,-5.20083457e-02f,-1.43551826e-01f,
-7.24678189e-02f,+2.51612663e-02f,-1.40592307e-01f,-9.16834325e-02f,+3.19043398e-02f,
+5.09107560e-02f,+4.25643176e-02f,-1.99871808e-02f,+1.07552201e-01f,-7.22781494e-02f,
+1.12405628e-01f,-5.16050160e-02f,+1.61870331e-01f,-2.88043022e-02f,+1.23858094e-01f,
+1.35539085e-01f,-1.38413861e-01f,+1.30095541e-01f,+1.04597598e-01f,-4.19477671e-02f,
-1.58766299e-01f,-4.21385616e-02f,+1.01069063e-01f,+1.04127765e-01f,+1.26440078e-01f,
-2.40107477e-02f,-1.20261766e-01f,+1.87878758e-02f,-5.75016439e-03f,-5.50733209e-02f,
-9.06133875e-02f,-3.14395577e-02f,+9.90997255e-03f,+9.88599062e-02f,+6.83613718e-02f,
-3.97400409e-02f,-1.14785880e-01f,+1.16861999e-01f,-2.77109742e-02f,-1.37750864e-01f,
-1.81055218e-02f,-1.64472818e-01f,-1.25008285e-01f,-2.50645131e-02f,+8.61829519e-02f,
+5.93543053e-04f,+3.77525836e-02f,-6.54230043e-02f,-4.28999960e-03f,+6.64835870e-02f,
+6.30006641e-02f,-1.63742334e-01f,-1.27790853e-01f,-1.47834420e-04f,-6.99898899e-02f,
+3.11155617e-03f,-1.12722859e-01f,-1.21953845e-01f,-1.35692865e-01f,+1.11860067e-01f,
-1.38687730e-01f,-1.62543327e-01f,-3.80842686e-02f,-7.99842253e-02f,-3.89435887e-02f,
-9.95492786e-02f,-1.33095399e-01f,-9.36378166e-02f,+1.62581623e-01f,-1.11806184e-01f,
-8.78764689e-03f,-1.25601739e-02f,+2.68813074e-02f,-1.10273339e-01f,-1.18619949e-01f,
-9.18336213e-02f,+7.63019621e-02f,+9.24709439e-03f,+6.73755705e-02f,-5.77296466e-02f,
-1.48697674e-01f,-1.43302530e-01f,+4.43192869e-02f,+1.66657925e-01f,-1.27258152e-02f,
-5.28333858e-02f,-8.71585831e-02f,-3.14115584e-02f,-3.18306684e-02f,+6.48180246e-02f,
+4.40618396e-02f,-3.59165519e-02f,-1.09443717e-01f,-1.03960931e-03f,+7.98825026e-02f,
-9.63022709e-02f,-9.94573534e-02f,+1.25727057e-03f,-1.05211936e-01f,-4.08720672e-02f,
+5.72881103e-02f,-1.39678940e-01f,+1.65255785e-01f,+8.15337598e-02f,+1.19535595e-01f,
-4.43495810e-03f,-1.56876668e-01f,+1.12904638e-01f,-1.04647636e-01f,-9.32626426e-02f,
-1.83579475e-02f,+6.09529465e-02f,+1.51758641e-02f,-1.57820091e-01f,-1.45091891e-01f,
+1.86016709e-02f,-7.53328428e-02f,-1.06486894e-01f,+2.08469927e-02f,+8.72483253e-02f,
-8.66451114e-02f,+3.03968191e-02f,-9.27040875e-02f,-5.02127856e-02f,+4.88814265e-02f,
-9.01530683e-03f,-4.09661829e-02f,-1.57034621e-01f,+8.30849707e-02f,-6.49117231e-02f,
+8.28824937e-02f,+8.60205293e-02f,-1.03577390e-01f,+1.54703885e-01f,-1.17109612e-01f,
-1.04731634e-01f,+2.70763487e-02f,+6.44615591e-02f,-1.09791510e-01f,+1.36558414e-01f,
-4.79924530e-02f,-1.53240323e-01f,-4.76894379e-02f,+1.63947374e-01f,+4.92016226e-02f,
+7.82493651e-02f,-6.68230355e-02f,-8.18058848e-04f,-1.35333642e-01f,+1.10752374e-01f,
-5.41997626e-02f,+1.55511469e-01f,+1.09823376e-01f,+6.37421608e-02f,-1.13790795e-01f,
-1.53831989e-02f,+1.28878474e-01f,-9.78287905e-02f,-1.34339795e-01f,-4.82691750e-02f,
+7.11752772e-02f,+1.14733398e-01f,+1.79176182e-02f,+1.14054501e-01f,-1.88492835e-02f,
-2.16981173e-02f,-1.32946327e-01f,+5.57735264e-02f,+2.78478563e-02f,+1.49069786e-01f,
+5.02195209e-02f,-8.99931341e-02f,+1.05650127e-01f,+2.80037075e-02f,-1.68166682e-01f,
-1.95057690e-03f,-1.09109581e-02f,-1.72962591e-01f,-1.17815517e-01f,+9.34330821e-02f,
+1.05647027e-01f,-6.49668947e-02f,-1.73069671e-01f,-9.19592828e-02f,+1.92476958e-02f,
-9.22825858e-02f,+1.31764084e-01f,+5.17661870e-02f,+1.70165122e-01f,-1.59250855e-01f,
-2.75639594e-02f,-8.14324096e-02f,+1.45585030e-01f,-4.35502380e-02f,-1.14568546e-01f,
+1.32748365e-01f,+5.80686331e-02f,-1.12545609e-01f,-6.97968379e-02f,+1.85083896e-02f,
-1.70516521e-02f,+1.58536047e-01f,+6.49315417e-02f,-1.72466308e-01f,-8.01256299e-03f,
+1.23167127e-01f,+1.20656222e-01f,+8.84647071e-02f,-1.56942576e-01f,+4.04316187e-02f,
-1.66900113e-01f,-6.60081580e-02f,-9.34879929e-02f,+1.64664507e-01f,-1.40041307e-01f,
+2.47377455e-02f,-1.43566862e-01f,-2.58539617e-02f,+1.55461431e-01f,+8.10714364e-02f,
-1.61376655e-01f,-3.79515886e-02f,-1.55866370e-01f,+2.12814957e-02f,+7.33083785e-02f,
+1.24525040e-01f,+8.47874880e-02f,+1.66855305e-02f,-6.38424680e-02f,-1.63537726e-01f,
-9.77965370e-02f,+1.33192331e-01f,+8.21103156e-03f,-1.97973847e-02f,+5.92131764e-02f,
-1.27312273e-01f,-1.30935013e-03f,+1.24135733e-01f,-6.77622855e-03f,-1.52113616e-01f,
+5.64175248e-02f,-6.74187616e-02f,+2.84949541e-02f,-5.14247566e-02f,-1.59049705e-01f,
+3.98532748e-02f,+1.25113249e-01f,+1.60971463e-01f,-1.63336456e-01f,-3.37710977e-02f,
+1.24169141e-02f,+5.04410267e-02f,-1.31169140e-01f,-3.34186405e-02f,-3.73234451e-02f,
-1.43757686e-01f,+4.85912412e-02f,+1.70694649e-01f,+1.03913844e-02f,-4.04454172e-02f,
-1.06247209e-01f,+1.10071212e-01f,+5.52278459e-02f,+1.36454642e-01f,-3.48952860e-02f,
-1.38292417e-01f,+4.29342687e-03f,+1.07584149e-01f,+1.32022709e-01f,+1.75133795e-02f,
+2.25014836e-02f,+2.11141258e-02f,+2.16771662e-03f,+9.65702534e-03f,+9.46206450e-02f,
-1.01207860e-01f,+1.31046027e-01f,+5.39073050e-02f,-8.19228292e-02f,+8.49410892e-03f,
-1.57243118e-01f,+2.25833654e-02f,-3.52782160e-02f,-1.69712156e-01f,+1.24680609e-01f,
+6.97552115e-02f,+4.04073745e-02f,-2.41140723e-02f,-9.51020196e-02f,-1.04545429e-01f,
-5.78868166e-02f,+9.52410102e-02f,-1.06518313e-01f,-1.32718742e-01f,+1.62189871e-01f,
-5.49103320e-02f,-6.10872805e-02f,-3.49954665e-02f,-5.11202887e-02f,+1.21502399e-01f,
+1.52546078e-01f,+1.08204812e-01f,+1.62492543e-01f,-7.61853829e-02f,+1.13455951e-02f,
-1.45474210e-01f,+4.64508682e-02f,-6.42836094e-03f,-3.49659771e-02f,+1.39488190e-01f,
+1.71539724e-01f,+1.65819734e-01f,-1.36920989e-01f,+4.80458587e-02f,-9.93937999e-02f,
+4.68063802e-02f,-1.30066797e-01f,+8.52339268e-02f,-9.01866406e-02f,+1.61603838e-02f,
+1.14903748e-01f,-1.33236289e-01f,+3.80879045e-02f,-1.84124559e-02f,+1.52261078e-01f,
+1.47472680e-01f,-1.14781111e-02f,-1.63358048e-01f,-1.43722996e-01f,-5.25197834e-02f,
+2.73640901e-02f,-5.21269888e-02f,+7.45192021e-02f,+1.29518867e-01f,-5.28869033e-02f,
+7.68814981e-02f,+1.29051208e-02f,-1.65045172e-01f,+4.06005979e-02f,+2.51161009e-02f,
-6.91914037e-02f,+4.49786484e-02f,-1.03212133e-01f,+1.71488047e-01f,-1.36787206e-01f,
+1.05524719e-01f,+2.93551385e-02f,-1.23431221e-01f,+9.49714780e-02f,-9.70532671e-02f,
-1.72265366e-01f,-5.04242554e-02f,-8.88180733e-02f,+1.38360918e-01f,-1.57489568e-01f,
+1.47602707e-02f,-6.90044165e-02f,-3.11842710e-02f,+1.07073814e-01f,-1.01277858e-01f,
+4.00437266e-02f,-3.44896764e-02f,-3.91925871e-02f,+8.85980427e-02f,+3.61178666e-02f,
-5.70645034e-02f,+1.38269246e-01f,-1.66169882e-01f,+8.60072970e-02f,-2.19298899e-03f,
-1.72012717e-01f,+1.66610539e-01f,-9.14780721e-02f,+1.52951926e-01f,+2.06229538e-02f,
-1.48766428e-01f,+1.17635429e-01f,-6.10244721e-02f,-1.54620662e-01f,+1.06128991e-01f,
-9.43797231e-02f,+1.22671306e-01f,-9.04856175e-02f,-7.41722807e-02f,-4.66780663e-02f,
-9.05595347e-02f,+8.19730461e-02f,-1.36439249e-01f,+6.50992841e-02f,-2.98395306e-02f,
-1.21131569e-01f,-1.70759693e-01f,-3.68022621e-02f,+1.65140033e-01f,-1.27659157e-01f,
+8.13575387e-02f,-6.63121268e-02f,+9.38127935e-02f,-5.06667867e-02f,+8.25854540e-02f,
+8.65540206e-02f,+5.34271747e-02f,+6.98027015e-02f,-6.20308816e-02f,+8.32037628e-02f,
+1.71666592e-02f,-1.03238769e-01f,+9.65653062e-02f,+1.18470550e-01f,-8.13280940e-02f,
-3.51541638e-02f,+6.55534118e-02f,+1.15122139e-01f,-1.02403760e-03f,+6.59751147e-02f,
-3.82684022e-02f,+1.65432185e-01f,+6.47232980e-02f,+3.40855122e-03f,+1.12539470e-01f,
-3.29751670e-02f,+9.95674431e-02f,+1.03260130e-02f,+1.49853945e-01f,+1.18336082e-01f,
-1.72843620e-01f,-1.50782764e-01f,+7.78789520e-02f,-1.47316933e-01f,+1.59981787e-01f,
+1.46527827e-01f,+5.05631715e-02f,+9.96889472e-02f,-1.28612503e-01f,-2.08366662e-02f,
-1.42177194e-01f,-1.34961322e-01f,-1.57424450e-01f,-1.55309469e-01f,+1.21278793e-01f,
+2.57491469e-02f,-5.89682162e-02f,-1.16128974e-01f,-1.63512662e-01f,+1.26283854e-01f,
+1.54027998e-01f,-1.10895619e-01f,-1.64243132e-01f,-3.10780704e-02f,-7.96009228e-02f,
-1.24262124e-02f,+3.75035405e-03f,+1.68619603e-01f,+1.06472135e-01f,-9.74286422e-02f,
-1.61418036e-01f,+8.37080181e-02f,-1.62987918e-01f,+1.03039980e-01f,-1.23484865e-01f,
-7.15477541e-02f,-1.02807768e-01f,-4.65631485e-02f,+1.56287789e-01f,-3.02690417e-02f,
+1.46836996e-01f,-4.74545509e-02f,-1.13772705e-01f,-3.39338481e-02f,-1.64138198e-01f,
+9.04824734e-02f,+7.63947964e-02f,+1.18336856e-01f,+1.12823248e-01f,+4.80833948e-02f,
-5.42742610e-02f,-1.27052158e-01f,-9.18470845e-02f,-1.03390448e-01f,+2.29225308e-02f,
+2.76131332e-02f,+3.61123383e-02f,-5.24438024e-02f,-6.63643256e-02f,+1.06103122e-01f,
-3.46412659e-02f,+1.11119479e-01f,+4.43811864e-02f,+4.21260446e-02f,-3.89223993e-02f,
+1.79979354e-02f,-1.34362787e-01f,-1.56567112e-01f,-9.47924331e-02f,-2.90587246e-02f,
-1.66211843e-01f,-1.13996483e-01f,-6.30268008e-02f,-1.30889267e-02f,+3.24531645e-02f,
+2.73569822e-02f,+8.17981362e-03f,-9.77576002e-02f,-5.88207468e-02f,-1.68464750e-01f,
+5.05150259e-02f,+3.76458317e-02f,+5.92384487e-02f,+1.06561810e-01f,-1.00123942e-01f,
+4.35797721e-02f,+9.72853601e-02f,+3.79938781e-02f,+1.10344440e-02f,+3.39293778e-02f,
-3.11972052e-02f,-4.91375774e-02f,-1.39930680e-01f,+2.28080153e-02f,-1.71082750e-01f,
+6.54288232e-02f,-1.08474493e-03f,+3.91715765e-02f,-4.86732498e-02f,-1.16340533e-01f,
+1.61088496e-01f,+4.03282195e-02f,-3.83565277e-02f,+1.87046826e-03f,+1.44031972e-01f,
+6.70637041e-02f,-3.46990079e-02f,+1.20946318e-01f,-4.90501970e-02f,+1.40776753e-01f,
-8.10270533e-02f,-1.63149595e-01f,+6.04985356e-02f,+1.45110071e-01f,+1.31800264e-01f,
+8.71809125e-02f,+1.14687383e-02f,-5.86588308e-02f,+5.18747121e-02f,+1.17277175e-01f,
+1.02824420e-01f,-1.07281126e-01f,+9.81476605e-02f,-1.05144545e-01f,+1.16818905e-01f,
+1.66361004e-01f,+7.67721236e-03f,-1.44037992e-01f,-6.96730614e-03f,+8.10831785e-02f,
-1.36006922e-02f,-1.67421713e-01f,+4.17102426e-02f,-7.54733384e-03f,-1.00423992e-02f,
+1.10197186e-01f,-6.83669448e-02f,-5.79005629e-02f,+1.63955539e-02f,-5.27296886e-02f,
+3.99754345e-02f,-1.31056905e-01f,-1.38353363e-01f,-5.13553023e-02f,-1.31356239e-01f,
-8.85679498e-02f,-4.57896441e-02f,-2.64031887e-02f,-3.01323235e-02f,-4.44401056e-02f,
-1.43513978e-02f,-4.81159687e-02f,+1.14841968e-01f,-5.26524708e-02f,+1.72559887e-01f,
+4.61909473e-02f,-1.39513686e-01f,-1.02178633e-01f,-1.64719760e-01f,-1.39593840e-01f,
+6.63631260e-02f,+1.91536695e-02f,-6.20052218e-04f,+5.04462719e-02f,-1.23999491e-01f,
+1.04745299e-01f,+6.36291355e-02f,-1.69658512e-01f,+1.53811961e-01f,-6.53118342e-02f,
-7.37791061e-02f,+1.42851919e-01f,+1.47623599e-01f,+6.90547526e-02f,-1.38376027e-01f,
+1.71462238e-01f,-5.81274033e-02f,-1.26333043e-01f,+1.67324454e-01f,-1.70770437e-01f,
+5.50423861e-02f,+6.00473434e-02f,+7.49990046e-02f,-3.99369001e-02f,+1.23433113e-01f,
+1.57941669e-01f,+1.20566815e-01f,-1.59021422e-01f,-2.18813866e-02f,-5.35448194e-02f,
-1.17372915e-01f,+1.65112793e-01f,+1.29648596e-01f,+2.47849524e-02f,+1.09586358e-01f,
-6.72589466e-02f,-6.85417429e-02f,-5.80760837e-03f,+3.26818079e-02f,-5.56681380e-02f,
-1.17405988e-01f,+1.24159753e-01f,-1.43611789e-01f,-3.02427411e-02f,-5.21710441e-02f,
-6.38362318e-02f,-1.28762528e-01f,+9.08950567e-02f,+1.37930661e-01f,+9.40531194e-02f,
+9.03433859e-02f,+1.59227103e-01f,-8.79935697e-02f,+1.04732543e-01f,+1.86773241e-02f,
+6.67733997e-02f,+8.45646858e-02f,+1.29854500e-01f,-1.45978749e-01f,+1.20224237e-01f,
-1.10488832e-02f,-1.93301737e-02f,+1.25775874e-01f,-1.03177071e-01f,+5.90611249e-02f,
+1.36376739e-01f,-1.59629449e-01f,-1.18836790e-01f,+1.10531360e-01f,-3.34586203e-02f,
-1.32484674e-01f,-5.71537837e-02f,-1.19532451e-01f,+2.39283592e-02f,+1.08878225e-01f,
-6.14761189e-02f,-3.44730318e-02f,+3.77230644e-02f,-5.50955012e-02f,-4.66703922e-02f,
+3.35734636e-02f,+1.25684351e-01f,+1.67030931e-01f,-2.50176936e-02f,+1.64660543e-01f,
+3.50149125e-02f,+1.24430001e-01f,+1.42317355e-01f,-4.69044149e-02f,-1.68818280e-01f,
+6.53446615e-02f,+1.43395305e-01f,+1.30702019e-01f,+1.50950581e-01f,+2.75667012e-03f,
-1.62076771e-01f,-1.38360709e-02f,-2.69598067e-02f,+1.60597593e-01f,-1.55594572e-01f,
-7.64793158e-03f,+1.64096832e-01f,-7.14794099e-02f,-1.27522185e-01f,+1.60331100e-01f,
-1.70665294e-01f,-8.10013637e-02f,-2.08007842e-02f,-1.85497701e-02f,-4.20896262e-02f,
+3.40177119e-02f,+1.07508332e-01f,+1.34100556e-01f,-1.09185621e-01f,-1.64718807e-01f,
+1.01220012e-01f,-2.96970308e-02f,-1.24260023e-01f,-1.64693207e-01f,-1.56861797e-01f,
+1.50059849e-01f,+6.79877698e-02f,-1.29958734e-01f,+1.57645375e-01f,-9.31428522e-02f,
+3.14302742e-02f,-1.66624263e-01f,+1.65143996e-01f,-7.91912302e-02f,-1.27692819e-01f,
+1.00582361e-01f,+8.39308202e-02f,+7.61048496e-03f,-1.51752204e-01f,-1.47761464e-01f,
+1.05210245e-01f,+1.51959270e-01f,+1.34355932e-01f,-1.57660201e-01f,-1.23341739e-01f,
+1.16614103e-01f,+1.12176299e-01f,-1.00164413e-01f,+1.50044471e-01f,+1.55193001e-01f,
-3.16970050e-03f,+1.52799964e-01f,+1.73121542e-01f,-1.49488926e-01f,+5.89327067e-02f,
+1.04519010e-01f,+1.15308076e-01f,-1.46586537e-01f,-5.20155728e-02f,-1.18659467e-01f,
-6.01855144e-02f,-1.56199932e-02f,-8.43001902e-03f,+9.82889831e-02f,-1.56517476e-02f,
-1.90639496e-03f,-1.06033884e-01f,-2.58746892e-02f,+6.61992729e-02f,-4.81152683e-02f,
-1.69205517e-02f,-8.63489509e-03f,-7.70737305e-02f,-1.58458605e-01f,-3.83749455e-02f,
-1.33363247e-01f,-1.62134632e-01f,-6.41441643e-02f,+1.03515536e-01f,-2.89737433e-02f,
-9.42737609e-02f,-1.29467726e-01f,-1.51111484e-02f,-7.61672109e-02f,-2.82910466e-02f,
+3.41693461e-02f,-1.59607559e-01f,-1.73174843e-01f,-1.13660835e-01f,-1.93452835e-02f,
+1.36920780e-01f,-1.47044912e-01f,+2.43176073e-02f,+9.51968431e-02f,+1.69094801e-02f,
+1.43373877e-01f,-1.06359787e-01f,+1.16847187e-01f,+6.34515584e-02f,+1.25286222e-01f,
+1.50287390e-01f,+1.69796646e-01f,-1.06275208e-01f,+1.05208814e-01f,+1.57428950e-01f,
+1.71367019e-01f,-7.67846629e-02f,+3.55775207e-02f,+1.69656277e-01f,+1.26520395e-01f,
+2.06222534e-02f,+7.52783716e-02f,-1.59901261e-01f,+3.63193452e-02f,+1.66142881e-01f,
-2.18119770e-02f,-1.16071701e-01f,+9.80713964e-02f,+1.58257633e-01f,+5.42853624e-02f,
+2.34319866e-02f,+6.38294965e-02f,+7.38807321e-02f,-3.07432413e-02f,-9.78316441e-02f,
+1.52086437e-01f,+7.19488114e-02f,-6.09977990e-02f,-6.67327642e-03f,+1.08174890e-01f,
-4.84895706e-02f,-1.14233494e-02f,+5.69052994e-03f,-9.70502496e-02f,-1.69867516e-01f,
-1.05161645e-01f,-1.00598097e-01f,+3.34090143e-02f,-6.66563660e-02f,-2.65631229e-02f,
-7.35202283e-02f,+1.13923550e-01f,-1.70587942e-01f,+5.10855168e-02f,-1.24976084e-01f,
-1.26478076e-01f,-9.28880274e-03f,+2.74592787e-02f,-1.12513609e-01f,-9.33266953e-02f,
+1.05852395e-01f,+8.94758999e-02f,-2.49218047e-02f,+1.24541044e-01f,+3.55348587e-02f,
-8.59383419e-02f,+1.34648979e-01f,-2.18655765e-02f,+1.59231037e-01f,-9.72843170e-03f,
+7.68015385e-02f,+1.17344707e-02f,-2.82761753e-02f,-1.32092461e-01f,-5.59816137e-02f,
+1.23699099e-01f,+1.63331240e-01f,-1.27539694e-01f,-9.25893709e-02f,-2.39194036e-02f,
+1.47376716e-01f,+1.05441511e-01f,-9.77838635e-02f,-9.30339545e-02f,+1.51779860e-01f,
+1.34826750e-01f,-8.28131586e-02f,+1.66733563e-01f,-6.32302165e-02f,-5.03706113e-02f,
+1.32959783e-01f,-5.45505658e-02f,+1.38370514e-01f,+3.10268551e-02f,+1.07975394e-01f,
-2.01190263e-02f,+4.88093197e-02f,-1.31844968e-01f,-3.66656482e-03f,+7.86632299e-02f,
-6.69622868e-02f,+1.50864094e-01f,+1.55790627e-01f,+7.87650943e-02f,+9.80002582e-02f,
-8.92934203e-02f,+1.10221267e-01f,-2.03289390e-02f,-5.19935191e-02f,-3.26666236e-03f,
+1.04950428e-01f,-8.53180513e-02f,-1.21854238e-01f,-1.02740414e-01f,+6.74034804e-02f,
-6.81723654e-03f,-1.38471395e-01f,-1.19758047e-01f,+7.19259828e-02f,-4.87665385e-02f,
-1.10870555e-01f,-1.70809627e-01f,+5.59763759e-02f,+6.96987659e-02f,-7.77243748e-02f,
-1.16338015e-01f,+3.75774950e-02f,+3.36588621e-02f,+5.53708076e-02f,-1.34314105e-01f,
+3.44064236e-02f,+1.56649649e-02f,+6.32701814e-03f,-1.34327948e-01f,+5.03690839e-02f,
+1.62564427e-01f,+6.47109896e-02f,+6.00181520e-02f,-6.93644285e-02f,+7.61764199e-02f,
-1.40931100e-01f,+1.59791797e-01f,-1.45626009e-01f,-1.08942889e-01f,-6.89904392e-03f,
-9.30645093e-02f,-5.67414090e-02f,-1.71088114e-01f,+7.29194582e-02f,+1.04305297e-02f,
+1.18084729e-01f,-8.65850300e-02f,-1.84423178e-02f,-9.76836383e-02f,-7.06217885e-02f,
-3.72388959e-03f,-1.05269462e-01f,+3.71738374e-02f,-1.29997551e-01f,-1.23120353e-01f,
