#include <math.h> 
 #include <string.h> 
#include "./include/k2c_include.h" 
#include "./include/k2c_tensor_include.h" 

 


void torbeam_EC5_xmode(k2c_tensor* input_1_10_input, k2c_tensor* dense_3_10_output) { 

float dense_output_array[60] = {0}; 
k2c_tensor dense_output = {&dense_output_array[0],1,60,{60, 1, 1, 1, 1}}; 
float dense_kernel_array[840] = {
-1.24943256e-03f,+1.68630064e-01f,+2.67910689e-01f,-1.13258064e-02f,+1.20308191e-01f,
+1.47418886e-01f,-6.83811903e-02f,+1.87693447e-01f,-9.69564915e-03f,-1.78238750e-01f,
+2.67452806e-01f,+9.99340117e-02f,+9.50928926e-02f,+2.66024739e-01f,+1.70431018e-01f,
+5.74155450e-02f,-2.18078434e-01f,+2.10651845e-01f,-1.37394711e-01f,-1.73607409e-01f,
+1.94576591e-01f,+1.45408064e-01f,-5.12679964e-02f,+1.77227408e-01f,+1.68775409e-01f,
+2.21824497e-01f,+1.26374811e-01f,+6.41424656e-02f,+1.72831714e-01f,-2.76506603e-01f,
+1.80079937e-02f,+3.58491540e-02f,+1.32381231e-01f,-9.45267081e-03f,-9.16418284e-02f,
-2.55900979e-01f,-2.49054432e-02f,-1.15784198e-01f,+2.50504106e-01f,-4.35563922e-03f,
-5.38992882e-03f,+3.50665450e-02f,+2.72688776e-01f,-1.97555363e-01f,+2.67017752e-01f,
-2.46317431e-01f,-1.20147973e-01f,+8.60182941e-02f,-2.75736064e-01f,+5.52356243e-02f,
+2.28076905e-01f,-2.42694020e-02f,+2.37573951e-01f,+1.45517558e-01f,+1.21739209e-02f,
+9.97079909e-02f,+1.50723785e-01f,+1.12702996e-01f,+1.53979003e-01f,+8.43590200e-02f,
+1.88523233e-02f,-8.40265751e-02f,-1.38707757e-01f,+4.64879274e-02f,-2.28269994e-01f,
-2.11104870e-01f,-1.36595249e-01f,-9.65408385e-02f,-1.52337432e-01f,-2.15441272e-01f,
+4.10212874e-02f,+1.71242446e-01f,+1.54781640e-01f,-1.53235674e-01f,+7.00548589e-02f,
-1.27020657e-01f,+1.86907977e-01f,-1.72562599e-01f,-1.19071797e-01f,-2.32063919e-01f,
+7.44163990e-05f,+1.84897244e-01f,-1.72049373e-01f,-1.45067811e-01f,-1.12269029e-01f,
-1.66422099e-01f,-1.67317703e-01f,+1.45253360e-01f,+9.72462595e-02f,-2.53524870e-01f,
+5.63995242e-02f,-2.08843648e-02f,+1.44087881e-01f,+8.51349831e-02f,-5.58169633e-02f,
-4.37314212e-02f,+2.53773600e-01f,-6.42819256e-02f,-6.95698708e-02f,+8.51505995e-03f,
-1.53096095e-01f,-6.36180937e-02f,-7.54476339e-02f,+1.92550302e-01f,-1.31457537e-01f,
-9.55373645e-02f,-1.09015927e-01f,+2.64552981e-01f,+8.44089091e-02f,-2.12631762e-01f,
+2.22639292e-01f,-1.64921820e-01f,-9.63345915e-02f,-1.00922734e-01f,-1.64559633e-01f,
+5.97926974e-02f,+4.54732478e-02f,-2.16401696e-01f,-2.43070364e-01f,-2.27454305e-02f,
-6.93681687e-02f,-2.83378601e-01f,+6.52319491e-02f,+2.03270733e-01f,+2.42786318e-01f,
-2.53693163e-02f,+1.62742257e-01f,-2.58658856e-01f,-6.88325912e-02f,+8.32398832e-02f,
+5.78400493e-03f,-1.72923371e-01f,+1.89038068e-01f,-1.26142845e-01f,-1.38290435e-01f,
+2.68653840e-01f,-2.36453831e-01f,-1.86373681e-01f,-1.70063272e-01f,+1.98750556e-01f,
+2.07948983e-02f,+1.53428197e-01f,+1.64514780e-02f,-4.13874239e-02f,+1.16127640e-01f,
+1.75751835e-01f,-2.56592900e-01f,+1.69243306e-01f,-2.59260237e-02f,-1.98060393e-01f,
-2.72983640e-01f,-2.49227971e-01f,-1.31041408e-02f,-8.18332732e-02f,+1.58835500e-01f,
+9.16822851e-02f,-2.43811503e-01f,+5.72185218e-02f,+6.27212822e-02f,+5.31868637e-02f,
-8.27822983e-02f,-2.79914916e-01f,-2.14149743e-01f,-2.79674709e-01f,+1.20466977e-01f,
-1.11474395e-02f,-6.47876859e-02f,-1.93032995e-01f,+2.20870405e-01f,-9.38675702e-02f,
+4.11294401e-02f,-2.72437930e-03f,-1.25363544e-01f,+1.01104259e-01f,+1.45124018e-01f,
-1.84550941e-01f,-1.56419873e-02f,-1.61800563e-01f,-1.58449009e-01f,-2.45398760e-01f,
-1.51349112e-01f,-2.32352912e-01f,-2.19972998e-01f,+9.40805376e-02f,+2.51337618e-01f,
+1.60198390e-01f,+1.08454287e-01f,-4.04077023e-02f,+6.36525750e-02f,-4.63336855e-02f,
+2.10304707e-01f,+2.46165723e-01f,+2.11129487e-02f,+3.37517262e-03f,-3.74248624e-02f,
+1.11716270e-01f,-2.51763761e-02f,-2.82344401e-01f,+1.79696262e-01f,+2.45407730e-01f,
+4.45479155e-02f,+2.38476425e-01f,-2.52430767e-01f,+2.53131658e-01f,+1.90041244e-01f,
-2.73559600e-01f,+2.42290765e-01f,+7.61995018e-02f,-2.07653850e-01f,-1.57807186e-01f,
+1.88995421e-01f,+2.42118508e-01f,+4.05050516e-02f,+1.94376439e-01f,+2.05878407e-01f,
+5.53027689e-02f,-1.42899022e-01f,-9.11334753e-02f,-1.68734401e-01f,-7.76478499e-02f,
-1.28765270e-01f,-3.88020724e-02f,+7.89189935e-02f,+2.60414273e-01f,-2.61814594e-01f,
-2.49863416e-01f,-1.56974807e-01f,-2.10299700e-01f,-7.95823485e-02f,+1.78549409e-01f,
-1.34940252e-01f,+2.46121973e-01f,+3.27630639e-02f,+1.24682486e-02f,+1.73035175e-01f,
+2.46321291e-01f,+1.15392476e-01f,+2.14585662e-01f,-2.66481966e-01f,+1.24942690e-01f,
+2.50016421e-01f,+8.51514935e-02f,+2.11613625e-01f,+1.29270017e-01f,-1.42684907e-01f,
+1.83227569e-01f,-9.34645832e-02f,-1.91249013e-01f,+4.40342128e-02f,-1.02141201e-01f,
+6.90157413e-02f,-6.42253011e-02f,+1.20682925e-01f,+1.68990791e-02f,+4.24484611e-02f,
+1.41640842e-01f,-1.00099042e-01f,-9.89540815e-02f,+1.90471888e-01f,-1.15798652e-01f,
+4.99944687e-02f,-5.23677319e-02f,+2.53659636e-01f,-1.18420124e-02f,-1.51705742e-03f,
+1.89525992e-01f,+2.24243551e-01f,+2.71203369e-01f,-2.46515661e-01f,+2.57861018e-02f,
-1.47959605e-01f,-1.23293132e-01f,-1.24491110e-01f,-2.10349932e-01f,-2.67675251e-01f,
-1.07735813e-01f,-7.05683827e-02f,+1.88598603e-01f,+1.89247698e-01f,+1.68306291e-01f,
+1.53717130e-01f,-1.12032980e-01f,-2.50282764e-01f,-8.46241266e-02f,+1.30824149e-02f,
-1.58793420e-01f,-2.79758841e-01f,-6.70817345e-02f,-4.64053005e-02f,-2.45533377e-01f,
-3.08507681e-03f,-1.92672640e-01f,+2.93184519e-02f,+6.61676824e-02f,-2.76627541e-02f,
+2.05366194e-01f,-2.28795946e-01f,+2.11238950e-01f,+2.36954182e-01f,+7.46710598e-02f,
+1.58195257e-01f,-1.05229557e-01f,+1.33820564e-01f,+1.99256986e-01f,+2.37872452e-01f,
-2.12149873e-01f,-3.23988497e-02f,-1.50164232e-01f,+1.22916490e-01f,-2.42898196e-01f,
-1.19395480e-01f,+2.06501514e-01f,-2.66518295e-01f,-1.15173534e-01f,+2.86732316e-02f,
+1.12964571e-01f,-2.68136501e-01f,+3.01834941e-03f,-1.51104361e-01f,-5.32066375e-02f,
-1.47579312e-02f,+2.48915851e-02f,+1.55001402e-01f,+3.09169590e-02f,+7.72259831e-02f,
-2.45230854e-01f,-1.02561444e-01f,-1.86446398e-01f,+2.50202417e-02f,+2.72472292e-01f,
-8.35792571e-02f,+2.75834233e-01f,-1.11414656e-01f,+2.45608181e-01f,+1.40590936e-01f,
-1.67090610e-01f,-2.82525301e-01f,+1.03351861e-01f,+8.44422579e-02f,+2.62340516e-01f,
+2.84056336e-01f,-2.55769491e-02f,-1.02602243e-01f,+9.03519392e-02f,-1.79968968e-01f,
-9.16489959e-03f,-1.85284823e-01f,+2.21546203e-01f,+1.64416045e-01f,+1.05295002e-01f,
-4.45879847e-02f,-2.83499360e-02f,-1.61143064e-01f,+2.19256014e-01f,+2.38534003e-01f,
-1.34235501e-01f,-1.22463390e-01f,+2.68861145e-01f,-1.62617743e-01f,+9.52836871e-03f,
+1.26021326e-01f,+2.61464626e-01f,-2.80829787e-01f,-7.35586882e-02f,-1.71169937e-01f,
-4.17356193e-02f,-1.45369634e-01f,-8.23238492e-02f,-2.47194007e-01f,-8.37161839e-02f,
-1.70301348e-01f,+8.58335197e-02f,-2.00375527e-01f,-1.39397845e-01f,+7.68608153e-02f,
+2.82647878e-01f,+2.60900408e-01f,-1.87962025e-01f,+2.31197149e-01f,+5.15588224e-02f,
-1.43948451e-01f,+2.98373103e-02f,-2.45122313e-01f,-1.74158603e-01f,-9.02832896e-02f,
-2.69030333e-01f,-1.92885697e-02f,+2.14730829e-01f,+2.30853230e-01f,-1.84887052e-02f,
+1.26283586e-01f,+1.66545391e-01f,-2.41617948e-01f,+1.46881998e-01f,+2.48410672e-01f,
+2.52723783e-01f,+7.46160746e-02f,-8.17953944e-02f,+1.23044789e-01f,-1.37787715e-01f,
-1.63822472e-02f,+8.13703537e-02f,-1.90237194e-01f,+1.92202508e-01f,+7.07911253e-02f,
+1.29456788e-01f,-5.17635196e-02f,+5.93728721e-02f,+2.28675276e-01f,+2.33384162e-01f,
-2.02439979e-01f,+2.14557350e-01f,-8.50070268e-02f,-1.20601401e-01f,-2.33645260e-01f,
+1.10209763e-01f,-2.68719524e-01f,+1.61923289e-01f,-1.69998094e-01f,-1.04164377e-01f,
+1.10689402e-01f,-1.23967528e-02f,-1.29064620e-02f,-2.04730421e-01f,-1.29385427e-01f,
+2.40844578e-01f,-2.02289402e-01f,+2.64765918e-02f,+9.84651446e-02f,-1.74361259e-01f,
+5.90918064e-02f,-1.86872870e-01f,+8.64565372e-04f,+7.91265368e-02f,-1.26208022e-01f,
-4.87294197e-02f,-1.48746029e-01f,-2.01279402e-01f,-1.68846428e-01f,-1.10763386e-01f,
+2.62015969e-01f,-1.28360033e-01f,+2.38282889e-01f,-2.67689317e-01f,+2.28470653e-01f,
+4.30036485e-02f,+6.57916963e-02f,-1.74713671e-01f,+1.42939091e-01f,+2.52023488e-01f,
+6.74118102e-02f,-2.75410473e-01f,-1.51057795e-01f,-1.14877537e-01f,+1.62243456e-01f,
-1.90272480e-01f,+2.48116165e-01f,-7.44595826e-02f,+2.81825215e-01f,+1.01541817e-01f,
+1.14574552e-01f,-8.75127465e-02f,+4.45780158e-03f,-4.52011526e-02f,+2.22967416e-01f,
+2.31416076e-01f,-1.50607556e-01f,-3.37763727e-02f,+1.98197782e-01f,-6.71411306e-02f,
+1.99247152e-01f,-2.11855710e-01f,+1.78194612e-01f,-2.89500058e-02f,-2.38583714e-01f,
+1.99255109e-01f,+1.73404038e-01f,-4.45602089e-02f,+2.28657037e-01f,-2.00754225e-01f,
-1.38488546e-01f,+2.19577461e-01f,-2.62466878e-01f,-1.10271573e-03f,-9.63865966e-02f,
+9.22442675e-02f,+3.45194042e-02f,+2.40556926e-01f,+2.76523739e-01f,-6.86640888e-02f,
-1.70682430e-01f,+1.34276450e-02f,+2.51355201e-01f,-1.99074656e-01f,-2.01989263e-01f,
+1.35415882e-01f,-1.07663870e-03f,+2.63764054e-01f,-2.29609042e-01f,-3.47036123e-03f,
-9.21996683e-02f,+7.09228814e-02f,-1.10002160e-02f,-1.26907274e-01f,-1.71815962e-01f,
+2.39792079e-01f,+2.58922070e-01f,-1.70618325e-01f,+4.14578915e-02f,+8.12548101e-02f,
+2.21327692e-01f,+2.08888650e-02f,-2.28113040e-01f,+8.70447755e-02f,+2.83114523e-01f,
-2.36338481e-01f,-1.28698319e-01f,+3.92779708e-02f,+1.58944070e-01f,+6.90739453e-02f,
-1.53005868e-01f,-7.83441961e-02f,-2.13117436e-01f,+8.48139524e-02f,-1.72545835e-01f,
+2.14253813e-01f,-1.65833384e-01f,-2.35387087e-01f,+1.79210097e-01f,-1.81758180e-01f,
-1.39131859e-01f,+1.24007404e-01f,+1.82559401e-01f,+6.57141209e-02f,-2.51304418e-01f,
-1.41543552e-01f,-2.41568998e-01f,-2.59291649e-01f,-2.66489863e-01f,+8.75802934e-02f,
-2.12601602e-01f,+1.06288493e-02f,+2.89963186e-02f,+2.79008955e-01f,+5.29151261e-02f,
+1.28817469e-01f,+1.97402120e-01f,-9.63806212e-02f,+1.53163314e-01f,-2.52137750e-01f,
-2.40989834e-01f,+1.82723701e-01f,-1.62296563e-01f,-2.14149952e-01f,-3.49856168e-02f,
-5.31822592e-02f,-1.64418027e-01f,+1.58115953e-01f,+2.44610101e-01f,-3.89873981e-04f,
-1.88038319e-01f,-2.59889066e-01f,+2.77281553e-01f,+2.76019275e-02f,+9.13714170e-02f,
-2.25576028e-01f,-5.60121536e-02f,-3.09156775e-02f,+1.80018306e-01f,+2.21752733e-01f,
+6.44746423e-02f,-2.29267836e-01f,+2.68983334e-01f,-2.17520863e-01f,-5.32584935e-02f,
-4.81611788e-02f,-2.13304669e-01f,-2.65665740e-01f,+1.94218665e-01f,+2.77934164e-01f,
-2.17376530e-01f,+2.73066670e-01f,+2.28073388e-01f,-1.94435179e-01f,-1.35325313e-01f,
-2.69757360e-01f,-2.25639567e-01f,+1.96978152e-01f,-2.21474856e-01f,+2.22183377e-01f,
+2.61498839e-01f,+6.45841658e-02f,-1.77394405e-01f,+1.05935335e-02f,-2.42790461e-01f,
-7.12161809e-02f,-1.26351476e-01f,-1.40467644e-01f,+2.04341412e-01f,+1.07605606e-01f,
-2.72552192e-01f,-2.45463654e-01f,-2.51516849e-01f,-1.24070734e-01f,-7.97919184e-02f,
-2.28090972e-01f,-1.88312948e-01f,+1.86133623e-01f,-2.57254630e-01f,-6.65971637e-03f,
+2.75063723e-01f,+7.89479911e-02f,-8.54963064e-02f,+5.59862852e-02f,-1.43397808e-01f,
+3.70363295e-02f,+9.24286544e-02f,-1.96067095e-01f,+4.49760258e-02f,+1.42331660e-01f,
+1.43529981e-01f,-2.44644165e-01f,+6.08436167e-02f,-5.79978377e-02f,-5.06104231e-02f,
+1.54832095e-01f,-2.36455455e-01f,-2.65193373e-01f,-5.20774275e-02f,+2.13847160e-02f,
+2.71160692e-01f,+1.76964343e-01f,-1.90176368e-02f,+2.05748886e-01f,-2.30603278e-01f,
+2.71429926e-01f,+2.31816381e-01f,+2.61729807e-01f,-1.53513342e-01f,+1.38116091e-01f,
-2.43390054e-01f,+2.07060993e-01f,+5.39055467e-02f,-8.85723531e-02f,+1.38787806e-01f,
+1.38323218e-01f,+9.26223993e-02f,-2.42838383e-01f,+6.80221915e-02f,-2.49446779e-01f,
-1.36247933e-01f,+2.62855798e-01f,-2.71345198e-01f,+2.20389277e-01f,+9.24260914e-02f,
-1.87282860e-01f,+2.52827436e-01f,-2.44056523e-01f,-1.41008198e-02f,-1.64968058e-01f,
-8.21681023e-02f,+2.21483141e-01f,-1.65669888e-01f,+1.95922703e-01f,-1.20037168e-01f,
+2.68677503e-01f,+5.68487346e-02f,+2.64243811e-01f,+1.86028272e-01f,+1.38321728e-01f,
-1.77460879e-01f,-9.29059833e-02f,+2.07120776e-02f,-2.41231441e-01f,-1.42528281e-01f,
-7.60653615e-02f,-1.76196516e-01f,+1.76553726e-01f,+5.11256158e-02f,-1.87828481e-01f,
+1.32444233e-01f,-1.03729263e-01f,+1.59036309e-01f,-8.02158862e-02f,+2.10454613e-01f,
+1.96001917e-01f,+2.10360467e-01f,+4.52402532e-02f,+1.15486830e-01f,-2.37207666e-01f,
-2.63934493e-01f,+5.46549857e-02f,-9.30705667e-03f,-1.32499769e-01f,+1.69573456e-01f,
-3.79447639e-02f,+7.66615570e-02f,-1.35355592e-01f,-1.49405241e-01f,+5.86871207e-02f,
-1.78890139e-01f,+7.40563869e-02f,+5.93090355e-02f,-1.68018386e-01f,+8.73860717e-02f,
-6.52548671e-03f,+1.21284425e-01f,+2.82241315e-01f,-2.56665409e-01f,+2.74968594e-01f,
-1.36753500e-01f,-1.80822611e-01f,-5.14697582e-02f,+8.27338398e-02f,+1.52738243e-01f,
+2.25359172e-01f,-2.61487097e-01f,+3.17526758e-02f,+1.98842794e-01f,+1.80575550e-01f,
-9.35940444e-02f,-2.14792520e-01f,-2.63731122e-01f,-1.84819296e-01f,+2.33123034e-01f,
-1.31984502e-01f,+2.63787180e-01f,-1.68253347e-01f,-7.51615465e-02f,+1.59375757e-01f,
+1.31523132e-01f,+1.83458656e-01f,+2.37333506e-01f,-7.78906196e-02f,+1.84152633e-01f,
-4.50736582e-02f,+1.55204535e-02f,+1.76440418e-01f,+1.92034066e-01f,+7.09317923e-02f,
-4.19272631e-02f,+1.30972743e-01f,-8.68052095e-02f,+2.53645986e-01f,+1.36415154e-01f,
-1.07297108e-01f,+2.16802031e-01f,-1.67480171e-01f,+3.15016210e-02f,-2.77043343e-01f,
-9.98076499e-02f,-2.60279149e-01f,-2.06756562e-01f,-5.73177189e-02f,+1.85955763e-02f,
-1.27822489e-01f,-2.82891452e-01f,-6.80758953e-02f,-7.59568065e-02f,+2.81637162e-01f,
-2.17874885e-01f,+1.23318583e-01f,+9.13436413e-02f,-1.89836100e-01f,-2.66802669e-01f,
-2.24648654e-01f,+1.69174939e-01f,-8.30873251e-02f,+1.03222877e-01f,-2.12557614e-01f,
+2.58259207e-01f,+1.10360801e-01f,-1.50989771e-01f,+1.93641335e-01f,+9.04498994e-02f,
-5.75970113e-02f,+1.80566669e-01f,+8.54635239e-02f,-2.25542158e-01f,+1.08427316e-01f,
-6.41238689e-03f,+1.24371886e-01f,+1.11424029e-01f,-1.36100128e-01f,+4.39931452e-02f,
+1.41999215e-01f,+7.14090466e-02f,+2.44055539e-01f,+1.50046527e-01f,+1.71193421e-01f,
-5.81931472e-02f,-1.78924978e-01f,+1.19405866e-01f,+2.55050212e-01f,-9.24555361e-02f,
+2.70574600e-01f,+1.68036044e-01f,+1.37534022e-01f,+1.65644020e-01f,-1.28117949e-01f,
+1.05059475e-01f,+2.08346516e-01f,+2.77995974e-01f,+1.52561665e-01f,+6.69119358e-02f,
-9.09934789e-02f,+1.90807194e-01f,-9.74867344e-02f,-2.67565340e-01f,-1.58384591e-01f,
+1.49997979e-01f,+2.28566229e-02f,-6.17734194e-02f,-2.07368582e-01f,-1.83196887e-01f,
-1.69625998e-01f,+1.18043125e-01f,+4.85975146e-02f,+2.33061522e-01f,-5.68779409e-02f,
-1.73459560e-01f,-1.59303874e-01f,+2.04599261e-01f,+2.41472930e-01f,-4.51817364e-02f,
+8.54664445e-02f,+2.80501038e-01f,-9.01647657e-02f,-1.42505065e-01f,+2.07759440e-02f,
-2.78741300e-01f,-1.21742189e-02f,+1.02631718e-01f,+1.66814327e-02f,-3.77561003e-02f,
-1.89578325e-01f,-1.25337481e-01f,-8.22184086e-02f,-9.99956429e-02f,+2.33417898e-01f,
}; 
k2c_tensor dense_kernel = {&dense_kernel_array[0],2,840,{14,60, 1, 1, 1}}; 
float dense_bias_array[60] = {0}; 
k2c_tensor dense_bias = {&dense_bias_array[0],1,60,{60, 1, 1, 1, 1}}; 
float dense_fwork[854] = {0}; 

 
float dense_1_output_array[60] = {0}; 
k2c_tensor dense_1_output = {&dense_1_output_array[0],1,60,{60, 1, 1, 1, 1}}; 
float dense_1_kernel_array[3600] = {
+1.97643787e-01f,+3.22510004e-02f,-8.22025985e-02f,-1.12362638e-01f,-1.13363788e-01f,
+8.10894966e-02f,+5.65884709e-02f,+1.91430748e-01f,-3.64845991e-03f,-6.19463772e-02f,
+3.33345234e-02f,-1.96869701e-01f,-1.16394944e-01f,+1.93496227e-01f,+1.24304205e-01f,
+7.80070424e-02f,-2.07333833e-01f,+1.78368509e-01f,-1.00443676e-01f,+5.76725006e-02f,
-2.23160416e-01f,-4.06638384e-02f,+4.53460217e-02f,-8.41100961e-02f,-9.61779058e-02f,
+1.38182729e-01f,-1.12013929e-01f,+8.37755203e-03f,-1.35804832e-01f,-1.75527990e-01f,
-2.28177607e-02f,-2.08882809e-01f,+1.88332945e-01f,+1.70927346e-02f,-3.37732136e-02f,
-1.77833945e-01f,+1.57344341e-01f,+1.47420466e-02f,-1.89429417e-01f,+1.49615377e-01f,
+6.02695942e-02f,+1.27854645e-01f,-7.25804716e-02f,-1.67948410e-01f,+4.60572541e-02f,
+2.02618241e-02f,+1.75256521e-01f,-6.84627593e-02f,+1.20459408e-01f,+7.93792903e-02f,
-1.08697861e-02f,-4.92190421e-02f,+1.29225016e-01f,+1.68728828e-02f,+3.70442271e-02f,
+1.09527975e-01f,-3.93923521e-02f,+1.34121329e-02f,-4.91125137e-02f,+2.05442846e-01f,
-1.16207980e-01f,+1.32907391e-01f,-1.71774194e-01f,+4.05333340e-02f,+1.01540685e-02f,
-1.59797370e-01f,+2.18830049e-01f,-6.37874007e-02f,+1.74961537e-02f,+1.74256176e-01f,
+2.20383763e-01f,-2.05809757e-01f,-1.34924024e-01f,+1.82848275e-01f,-1.27463222e-01f,
-8.27430785e-02f,+1.36167258e-01f,+1.53742790e-01f,-1.40482113e-01f,-2.46028006e-02f,
+1.92314774e-01f,-9.27849263e-02f,+7.18027651e-02f,-8.40786994e-02f,-2.09767416e-01f,
-1.34005129e-01f,+1.67602897e-01f,-1.88869536e-02f,+3.95586789e-02f,-7.91889727e-02f,
+1.04593307e-01f,+5.77297211e-02f,+2.69061327e-02f,+7.63545930e-02f,+1.46189123e-01f,
+5.90345263e-03f,-2.45909691e-02f,+1.16795450e-02f,-6.68635070e-02f,-3.49861234e-02f,
-1.52896881e-01f,-5.11795282e-04f,+1.08714402e-03f,+1.51253045e-02f,-1.85305580e-01f,
+4.40808833e-02f,+4.23076749e-02f,+6.58760965e-02f,-3.30436379e-02f,-4.19003069e-02f,
-1.19810060e-01f,-1.59995854e-01f,+2.04060853e-01f,+1.62574202e-01f,+5.68147600e-02f,
+8.54117572e-02f,+1.17459804e-01f,-1.92576438e-01f,+1.66896194e-01f,-1.45844728e-01f,
-1.86797887e-01f,-1.39592141e-02f,-1.47737354e-01f,+2.14162260e-01f,+1.44200295e-01f,
+1.40692741e-01f,-1.77144632e-01f,+1.51831776e-01f,+3.86584699e-02f,-1.20537721e-01f,
-1.41697362e-01f,-1.11934222e-01f,+3.87786925e-02f,-1.42829508e-01f,-1.32356882e-01f,
-9.74870920e-02f,-9.25862789e-02f,+2.20810741e-01f,-1.87519312e-01f,+8.59480798e-02f,
+2.05791295e-02f,-2.06215560e-01f,-1.09406166e-01f,+1.62448853e-01f,-1.20649196e-01f,
-2.03935355e-01f,-1.40143484e-01f,+2.09519774e-01f,-2.12917686e-01f,-3.89636755e-02f,
-9.99946892e-03f,+2.16000408e-01f,-2.80797035e-02f,+1.02000982e-01f,+1.41946107e-01f,
-2.58235335e-02f,+1.58964634e-01f,-1.22186765e-01f,-2.09504381e-01f,-7.65359551e-02f,
-4.72585410e-02f,+2.16912180e-02f,-1.57081664e-01f,-1.56970724e-01f,+1.82994783e-01f,
-6.10853881e-02f,+1.11418277e-01f,+1.01141691e-01f,-3.41868550e-02f,-1.90153241e-01f,
-1.48639083e-03f,-6.69437349e-02f,+1.16206229e-01f,+8.94942880e-02f,+7.29233623e-02f,
+1.77156240e-01f,+2.06270784e-01f,-1.09797694e-01f,+1.19778812e-02f,+9.97072160e-02f,
+2.16784447e-01f,-1.21750191e-01f,-8.77678394e-02f,+1.96690738e-01f,-3.85284424e-04f,
+1.61136419e-01f,-1.34271681e-02f,+1.35061234e-01f,-2.09706068e-01f,-2.10235402e-01f,
-5.91693819e-03f,+3.28142941e-02f,+1.74434394e-01f,+2.62637883e-02f,+2.15991110e-01f,
+6.80742562e-02f,-9.52367485e-02f,+3.05877626e-02f,+2.16941446e-01f,-2.29208618e-02f,
+2.17080772e-01f,+4.62505221e-02f,+1.74491137e-01f,-3.76473516e-02f,+3.63716483e-02f,
+1.65438950e-02f,-2.33405828e-03f,-2.71961093e-02f,-1.53691649e-01f,+1.73276365e-01f,
-5.45474142e-02f,+2.58770585e-03f,-4.36831117e-02f,+1.42000377e-01f,-9.31712985e-03f,
-1.56730816e-01f,-1.22458763e-01f,-9.30972397e-03f,+9.15747285e-02f,-1.30443946e-01f,
-8.28330219e-03f,-1.06631704e-01f,-1.09317884e-01f,+1.73683822e-01f,+3.72567177e-02f,
-8.81490707e-02f,+1.32837862e-01f,-1.69274226e-01f,-2.17430383e-01f,+1.01733983e-01f,
-5.61562628e-02f,+6.67685270e-03f,-2.15694711e-01f,+1.44044518e-01f,-7.31513947e-02f,
-1.11548454e-02f,+1.59814060e-01f,-1.32003278e-01f,+1.15994215e-01f,+2.34177858e-02f,
+1.47731811e-01f,+1.55240536e-01f,-8.85232687e-02f,-7.90230632e-02f,+1.85256749e-01f,
-1.36836693e-01f,+1.71050847e-01f,-6.54397458e-02f,-1.00909516e-01f,+1.86784506e-01f,
-2.83808112e-02f,+2.09173530e-01f,-1.16476141e-01f,-2.20987901e-01f,-1.49268255e-01f,
-1.78574502e-01f,-1.22458175e-01f,-1.96580693e-01f,+1.30651861e-01f,+3.27511728e-02f,
+2.02195138e-01f,-1.19832605e-02f,-8.02135766e-02f,+1.55537099e-01f,+6.90266788e-02f,
-2.04932511e-01f,-7.75411576e-02f,-9.40023363e-03f,+1.34209245e-02f,-4.68404740e-02f,
+2.16685832e-01f,+7.60164857e-03f,+2.04600960e-01f,+2.16350228e-01f,+3.48464847e-02f,
-6.02876842e-02f,-1.77448615e-01f,-2.00910166e-01f,+1.37068331e-01f,+1.88122094e-01f,
+2.20157415e-01f,-1.41208500e-01f,-5.23512214e-02f,+6.13474250e-02f,+1.44119650e-01f,
+1.79349393e-01f,+1.04119122e-01f,-4.94866669e-02f,+1.88604802e-01f,-1.43258497e-01f,
-2.46681124e-02f,+6.90791011e-02f,-1.82916716e-01f,-1.94559634e-01f,-1.60689130e-01f,
-1.33504853e-01f,-7.33227879e-02f,-2.04733282e-01f,+1.10267103e-01f,+1.45240635e-01f,
+7.95560181e-02f,+1.45886511e-01f,-1.78950951e-01f,+5.60024977e-02f,+1.97178364e-01f,
-1.86083674e-01f,-1.70856535e-01f,+7.25873411e-02f,-1.00604676e-01f,-1.31587163e-01f,
+1.66357040e-01f,-1.55083105e-01f,-5.01344055e-02f,-1.53624535e-01f,-9.35840160e-02f,
+8.39883387e-02f,+8.17082822e-02f,-2.05532849e-01f,+1.78904772e-01f,-1.53554648e-01f,
-3.85739058e-02f,-7.76551813e-02f,+1.73982739e-01f,-4.43497300e-02f,+9.38585699e-02f,
+9.69995558e-02f,-1.33443445e-01f,-1.04897946e-01f,+5.03025055e-02f,+1.74856216e-01f,
+4.33987379e-02f,-3.89626622e-02f,+1.43555224e-01f,+1.47930384e-01f,-1.91856772e-01f,
+1.46230608e-02f,+1.07928574e-01f,+3.33341956e-02f,-2.03487694e-01f,+2.13801056e-01f,
+8.88700187e-02f,-2.20130160e-01f,+3.79531384e-02f,-2.19875872e-02f,-1.89900547e-02f,
-1.18090160e-01f,+1.50650680e-01f,-2.04090819e-01f,+6.84148073e-03f,-3.03435326e-03f,
-3.64059806e-02f,-1.46665126e-02f,-2.23342046e-01f,+5.19852936e-02f,-4.80377525e-02f,
+5.21332920e-02f,+5.17346859e-02f,+1.57785416e-02f,-1.11852124e-01f,-2.03253120e-01f,
+1.21973366e-01f,-1.96151853e-01f,-5.20341843e-02f,+1.27578318e-01f,+2.03678817e-01f,
-1.07770234e-01f,-5.37276864e-02f,-1.07877605e-01f,-1.37054890e-01f,+5.58490753e-02f,
+6.09061420e-02f,+1.96899861e-01f,+8.03374648e-02f,-2.08640456e-01f,-1.11340113e-01f,
+1.20962143e-01f,-1.25494242e-01f,+1.74256116e-01f,-8.09431076e-04f,-2.80532092e-02f,
+5.76127470e-02f,-1.51425898e-02f,-2.80921310e-02f,-1.66441709e-01f,-3.13099325e-02f,
-2.16678947e-01f,+9.68173146e-03f,-6.52027279e-02f,-1.91618577e-01f,-1.93215534e-01f,
+1.12428218e-01f,+2.12133825e-01f,+1.83227837e-01f,-1.99139565e-01f,+4.67468500e-02f,
-1.59265801e-01f,+2.18130440e-01f,-1.42709315e-02f,+5.60868084e-02f,-3.33775878e-02f,
-2.21871436e-01f,-1.82850078e-01f,+1.54641151e-01f,-8.83822590e-02f,-1.70655653e-01f,
+1.51225060e-01f,+1.00101888e-01f,-1.21109277e-01f,-1.84376836e-01f,-8.59326124e-03f,
+5.24449348e-02f,+8.76105726e-02f,-1.36679471e-01f,-4.79053259e-02f,+1.42240137e-01f,
-5.86029142e-02f,+1.32648796e-02f,-1.31626725e-01f,+1.68269515e-01f,-5.74877858e-02f,
-4.00151461e-02f,+8.52494836e-02f,-5.41713834e-03f,+1.03292465e-01f,+1.73667580e-01f,
+1.61615759e-01f,-1.95102349e-01f,+1.94962084e-01f,+1.35634303e-01f,-1.02022029e-01f,
-8.72100890e-02f,+3.79224122e-03f,+1.63372815e-01f,+5.69413304e-02f,+1.17584169e-01f,
-1.61947012e-02f,-7.52882361e-02f,+4.06173468e-02f,-2.04111233e-01f,-9.72779989e-02f,
-5.45614362e-02f,-1.52754381e-01f,+6.48181438e-02f,+1.58394992e-01f,+5.62949181e-02f,
+4.30499911e-02f,-1.97106883e-01f,+5.68774045e-02f,-1.22272596e-01f,+1.98393166e-02f,
+2.23541230e-01f,-1.35042965e-01f,-2.09235579e-01f,+1.65424258e-01f,-1.06116869e-01f,
-8.77883583e-02f,+3.04054916e-02f,-2.22269729e-01f,+1.46989375e-01f,+6.36806190e-02f,
-1.12516180e-01f,+1.95257425e-01f,+8.26640129e-02f,+6.60214424e-02f,-1.35975540e-01f,
-1.33093923e-01f,-1.55856609e-01f,+1.21970803e-01f,-1.50358006e-01f,-8.65684152e-02f,
+2.36580074e-02f,+5.13117015e-03f,-2.97720730e-03f,+4.42293584e-02f,-1.35041624e-01f,
-9.57288593e-02f,+1.27795190e-01f,+1.25294685e-01f,+1.26072407e-01f,-3.54191214e-02f,
+9.47433412e-02f,-1.30034611e-01f,+1.98169559e-01f,+1.40682101e-01f,+7.42695928e-02f,
+1.04721367e-01f,-1.35968879e-01f,+4.01911139e-02f,+7.85078108e-02f,-1.32011801e-01f,
+8.78304839e-02f,+1.17800564e-01f,-5.27836382e-03f,-1.34014189e-01f,+1.02187574e-01f,
-3.65682542e-02f,-1.35474995e-01f,+7.91279972e-02f,-1.30491227e-01f,+2.17066258e-02f,
+1.92057490e-01f,-1.54940814e-01f,-4.99592721e-02f,-1.78610116e-01f,-1.34624675e-01f,
-1.83502883e-01f,-9.46205109e-02f,+2.01485991e-01f,+2.00503558e-01f,+1.01526231e-01f,
-9.49699730e-02f,+6.37863278e-02f,+7.02014267e-02f,-9.49311107e-02f,-9.58810747e-02f,
+2.57620215e-02f,-1.00137606e-01f,-9.62495804e-03f,-1.94856316e-01f,-4.35777158e-02f,
+1.36759073e-01f,-1.09919406e-01f,+3.98204923e-02f,-1.15256093e-01f,-7.15275109e-02f,
-1.61969095e-01f,+7.56796002e-02f,+9.62702930e-03f,+2.05780923e-01f,+1.41331047e-01f,
-7.16302842e-02f,+1.43161207e-01f,+1.72980011e-01f,+2.10781157e-01f,-2.19126344e-01f,
-8.09066892e-02f,-2.94816047e-02f,+8.19692910e-02f,+1.18295401e-01f,-1.44835740e-01f,
-6.38740808e-02f,-1.61851019e-01f,-7.15730786e-02f,+1.76996052e-01f,-1.45281956e-01f,
+2.12291807e-01f,-2.20223963e-02f,+1.26317531e-01f,-2.14180350e-03f,-1.34037763e-01f,
+2.01844603e-01f,-1.40816659e-01f,+4.48454916e-03f,-8.26902986e-02f,+1.84468061e-01f,
-1.64210126e-01f,+1.62412167e-01f,+1.50872737e-01f,-5.90255111e-02f,-3.38595212e-02f,
+2.21620977e-01f,+1.82009339e-01f,+1.16454244e-01f,-3.68965566e-02f,-1.76610649e-01f,
+9.92321968e-02f,-1.67362511e-01f,-2.72662640e-02f,+1.75466478e-01f,-2.07125694e-02f,
+1.99880809e-01f,-1.22145183e-01f,-2.05872387e-01f,-7.58605450e-02f,+1.71053797e-01f,
-1.10730544e-01f,+1.04796052e-01f,-1.28210425e-01f,-4.80756015e-02f,-2.66858041e-02f,
+2.02137679e-01f,-1.27814859e-01f,-2.03674659e-01f,+1.43946171e-01f,+2.60952115e-02f,
-1.19452342e-01f,+8.63357186e-02f,+1.59741938e-01f,+4.99947667e-02f,-3.93025726e-02f,
-3.96883488e-02f,+1.58820003e-01f,+2.52767652e-02f,+1.62207723e-01f,+3.44689190e-03f,
+1.39340132e-01f,+1.87232703e-01f,-8.13983828e-02f,+2.88478136e-02f,-2.19853625e-01f,
-5.85844070e-02f,-1.07523084e-01f,-5.22865057e-02f,+6.55519664e-02f,-8.71104449e-02f,
-1.06322281e-01f,-1.99479699e-01f,+1.42993003e-01f,-1.25299543e-01f,-1.41671658e-01f,
+1.78837985e-01f,-1.88356191e-01f,-2.12797299e-01f,+8.36725533e-02f,+3.50583494e-02f,
+1.68479025e-01f,-4.58078086e-03f,-9.19734538e-02f,+8.20094943e-02f,-1.20159790e-01f,
-5.79454750e-02f,-2.06186399e-01f,+1.29874200e-01f,-2.08517522e-01f,-1.73601508e-01f,
+2.19415337e-01f,-1.32508188e-01f,+5.70470095e-02f,+9.46222246e-02f,-7.26743042e-02f,
+3.91385257e-02f,+1.06465429e-01f,-7.62703568e-02f,-2.01313317e-01f,-4.01812792e-03f,
-1.34705067e-01f,+2.02354968e-01f,-1.02438718e-01f,-2.23550335e-01f,-1.59549743e-01f,
+2.12784469e-01f,+1.22086018e-01f,+1.45081222e-01f,+1.86216742e-01f,+3.77067924e-02f,
+2.10012883e-01f,-2.32594460e-02f,-5.30998409e-03f,-1.82228416e-01f,+1.30894631e-01f,
-1.34436965e-01f,-1.06197372e-01f,+1.18714273e-01f,+5.06103635e-02f,+9.33772624e-02f,
-1.60804987e-02f,-1.99728295e-01f,+1.76535010e-01f,-1.88481808e-01f,+1.81347311e-01f,
+2.22054631e-01f,+3.44336033e-02f,-2.04877168e-01f,-1.25157684e-01f,+2.06684023e-01f,
+1.47570372e-02f,+1.65707976e-01f,-2.23535895e-01f,+8.32268298e-02f,+1.78357840e-01f,
-1.36941507e-01f,-4.48798686e-02f,+1.63992763e-01f,+2.43683904e-02f,-8.09673071e-02f,
-1.42661348e-01f,-1.46292269e-01f,-3.19998413e-02f,-1.61695600e-01f,+1.12249196e-01f,
+1.26948208e-01f,+2.19255030e-01f,-2.00005919e-02f,-1.94090337e-01f,-3.10879946e-02f,
-7.84847140e-02f,-2.19289854e-01f,+1.57691032e-01f,-2.07941055e-01f,-4.08696830e-02f,
-2.74534971e-02f,+1.31482422e-01f,+2.21154720e-01f,-1.36254579e-01f,+1.22243911e-01f,
+2.12694138e-01f,-1.46068096e-01f,+1.10392064e-01f,+5.98165393e-03f,-6.38336688e-02f,
-2.14003861e-01f,+1.74183518e-01f,-3.75187546e-02f,+5.88766634e-02f,+1.24286294e-01f,
-1.42221153e-03f,+6.59416914e-02f,+4.96270359e-02f,+1.22369796e-01f,-1.73374936e-01f,
-1.68268383e-01f,+1.62879556e-01f,-9.94648039e-03f,+5.60321510e-02f,-8.07640254e-02f,
-2.16130316e-01f,+2.17017651e-01f,-8.70166719e-02f,-1.14537291e-01f,-1.18953228e-01f,
+1.57950670e-02f,-1.89258233e-01f,+1.19542181e-01f,-8.21902305e-02f,-2.03924060e-01f,
-1.25305206e-01f,+2.07520008e-01f,+5.05869687e-02f,-1.27194047e-01f,-9.38265920e-02f,
-1.33148313e-01f,+9.34099555e-02f,+2.10397691e-01f,-1.25139356e-02f,+1.51848614e-01f,
-8.41398537e-02f,-1.12492137e-01f,+3.28803360e-02f,-8.31118226e-03f,-1.01569839e-01f,
+6.63290620e-02f,-2.14686841e-01f,-1.30156159e-01f,+1.98744208e-01f,+1.09399706e-01f,
-1.76182136e-01f,-1.44007325e-01f,-2.56173760e-02f,+1.69965059e-01f,+1.32508576e-02f,
-5.80293834e-02f,-2.08346024e-01f,+9.67469513e-02f,-1.08979888e-01f,+9.36008096e-02f,
+1.17725819e-01f,+2.19280303e-01f,-1.57520205e-01f,-4.94228303e-03f,-9.97907594e-02f,
-3.39655131e-02f,-1.02754213e-01f,-1.09409101e-01f,-2.13985682e-01f,+1.71646088e-01f,
+7.04993308e-03f,-6.14417791e-02f,+2.16629535e-01f,+1.01051122e-01f,+1.32186562e-02f,
+7.01597929e-02f,+2.19092399e-01f,+1.28962070e-01f,+8.53717327e-03f,+6.87249303e-02f,
-1.78638697e-01f,-1.17432237e-01f,-2.02022195e-02f,+8.85872543e-02f,-1.54491723e-01f,
-1.34845972e-01f,+3.07714939e-02f,-1.06834620e-02f,-1.19704559e-01f,+2.56168991e-02f,
-1.52052253e-01f,-1.20534144e-01f,-8.16786438e-02f,-2.19726965e-01f,+3.62730026e-02f,
+1.22547269e-01f,-1.32513940e-01f,+1.99678332e-01f,-5.12999594e-02f,+1.68989450e-01f,
-2.13765770e-01f,-4.20518816e-02f,+1.00630224e-02f,-1.86669290e-01f,-7.23532587e-02f,
-1.83759958e-01f,+9.28205848e-02f,+5.34785092e-02f,+1.26402587e-01f,-5.19543737e-02f,
+4.31623161e-02f,-1.81767687e-01f,+1.18413329e-01f,+1.96880639e-01f,+5.38545847e-02f,
+1.40915930e-01f,+1.36151850e-01f,-2.23517597e-01f,-7.65518397e-02f,+1.01612419e-01f,
-1.57129273e-01f,+2.39987820e-02f,+2.16351032e-01f,+3.81958187e-02f,-1.95270613e-01f,
-1.84688598e-01f,+1.33383781e-01f,-3.41580808e-03f,-2.48471349e-02f,-2.13488340e-01f,
+1.02264166e-01f,+1.23859227e-01f,+6.82199299e-02f,+9.36339796e-03f,-6.43706322e-02f,
-2.02772722e-01f,-2.20738947e-02f,-1.66053221e-01f,-2.02862978e-01f,-1.22444369e-01f,
-5.36617637e-03f,+2.07561314e-01f,+2.11932689e-01f,+1.65317476e-01f,+3.93397808e-02f,
-1.28789842e-01f,-2.13658512e-01f,+1.62891924e-01f,+2.20666319e-01f,-6.99413717e-02f,
+9.55268741e-02f,-1.69247955e-01f,+1.07679814e-01f,-8.23704749e-02f,-1.58288389e-01f,
+9.46966410e-02f,+1.61744237e-01f,+2.83939838e-02f,-3.05274129e-02f,-5.95948398e-02f,
+4.23529744e-02f,-1.49523780e-01f,+1.91009700e-01f,+1.70606911e-01f,+5.52124679e-02f,
-2.10576326e-01f,+2.04423964e-01f,-8.12734216e-02f,+1.62134796e-01f,+1.30436271e-01f,
+1.70386463e-01f,+1.67964578e-01f,-6.61234707e-02f,-5.90012521e-02f,+2.01183766e-01f,
-2.22889915e-01f,-1.13949031e-02f,-1.92588538e-01f,+2.13085026e-01f,-1.21309571e-01f,
-1.83611691e-01f,+6.82066977e-02f,+1.19338453e-01f,+5.65450788e-02f,-1.16189167e-01f,
-2.13395417e-01f,-1.04738593e-01f,+6.22286201e-02f,-2.17404589e-01f,+2.09757775e-01f,
-2.20441610e-01f,+1.27371192e-01f,-1.68129519e-01f,-1.71255782e-01f,+1.95466697e-01f,
-1.72958076e-02f,-8.79360735e-03f,+2.15382308e-01f,-6.17126524e-02f,-1.85993895e-01f,
+7.78834522e-03f,-9.10066962e-02f,-1.06575489e-02f,+1.55708760e-01f,+1.69266075e-01f,
-8.26874077e-02f,+2.57067829e-02f,+2.07582057e-01f,+7.93984234e-02f,+1.14566624e-01f,
+7.19686747e-02f,-1.35486782e-01f,+2.97583342e-02f,-8.86771828e-02f,-2.21496060e-01f,
+1.24584407e-01f,+1.97408468e-01f,+1.87049955e-01f,+1.43697709e-02f,-2.33676732e-02f,
+4.22892869e-02f,+4.64273989e-02f,+7.44021833e-02f,+8.25483203e-02f,-1.78207353e-01f,
-2.21979663e-01f,-9.58064348e-02f,+2.61608958e-02f,-1.58482760e-01f,+2.09255934e-01f,
-2.96458453e-02f,-1.20169014e-01f,-4.37503457e-02f,-1.51887104e-01f,-1.07290111e-01f,
+1.66128069e-01f,+1.62308753e-01f,+2.84585953e-02f,+1.92735791e-02f,-1.85988083e-01f,
+8.36640894e-02f,-1.47436082e-01f,-2.21039236e-01f,-1.47100866e-01f,-8.11901987e-02f,
+1.92754418e-02f,+1.17866576e-01f,+1.91588670e-01f,-4.86135781e-02f,-1.75814033e-02f,
+1.94510579e-01f,-2.84845531e-02f,+9.53160226e-03f,-9.72471982e-02f,-9.53328609e-02f,
-1.64395913e-01f,-1.85858533e-01f,-5.11842221e-02f,-8.87005776e-02f,-8.11172724e-02f,
+2.13694185e-01f,+8.07707012e-02f,-1.58310980e-01f,+1.44718409e-01f,+1.21887803e-01f,
-9.88363177e-02f,-1.22052364e-01f,-1.28829479e-02f,+2.03346312e-01f,+5.15150726e-02f,
-1.83529496e-01f,-6.47816211e-02f,-1.63758993e-01f,+1.28534347e-01f,+1.31992936e-01f,
-2.16016397e-01f,-7.50829875e-02f,-1.06192894e-01f,-1.35976940e-01f,-9.55775380e-04f,
+2.01279819e-01f,-9.68597233e-02f,-1.38615981e-01f,-6.55024946e-02f,+2.01674134e-01f,
-2.02353641e-01f,+1.79314256e-01f,+3.85138690e-02f,+1.89176083e-01f,-1.09579273e-01f,
+1.68125242e-01f,+1.61776543e-01f,-7.69318491e-02f,+2.42205560e-02f,-2.59459019e-03f,
+2.45678425e-03f,+2.14725286e-01f,+2.51096338e-02f,+9.62143838e-02f,-6.21510893e-02f,
+7.74266422e-02f,+2.04185665e-01f,-8.56686234e-02f,+1.98514372e-01f,+5.48926592e-02f,
+2.02440262e-01f,+8.86092186e-02f,-8.22318047e-02f,-3.69393080e-02f,+3.88196707e-02f,
+7.74973929e-02f,-7.60550201e-02f,-1.48553401e-02f,+4.85422015e-02f,+4.65772748e-02f,
-3.98794115e-02f,-2.12667868e-01f,-6.58723265e-02f,+1.63541704e-01f,+6.64318204e-02f,
-3.08761895e-02f,+3.43154371e-02f,+1.64393842e-01f,+1.89816743e-01f,+1.15066469e-01f,
-4.24929857e-02f,+2.12978363e-01f,-1.06989108e-01f,-2.22922593e-01f,-1.37750417e-01f,
-1.77121758e-02f,+7.59767592e-02f,-1.13571703e-01f,-5.80913275e-02f,-1.56929299e-01f,
+1.94068968e-01f,-1.06829815e-01f,-9.13046151e-02f,+4.22628820e-02f,-1.43435538e-01f,
-9.10383612e-02f,+3.69426608e-02f,-2.21403196e-01f,+1.85734779e-01f,+1.56090647e-01f,
+4.17185724e-02f,-9.98268500e-02f,+9.95909870e-02f,+1.28617197e-01f,-1.26355708e-01f,
-1.44940913e-01f,-1.32949084e-01f,-1.70956641e-01f,-6.02266937e-02f,-1.84034303e-01f,
-3.03911567e-02f,+3.55553329e-02f,+8.59290361e-04f,-3.39647681e-02f,+1.97829157e-02f,
-1.25934497e-01f,+3.64603400e-02f,-1.81439877e-01f,+1.98028922e-01f,+1.26110613e-02f,
+1.45693004e-01f,+5.11181653e-02f,-3.07453126e-02f,-2.55018026e-02f,-7.56840855e-02f,
-1.80719733e-01f,-3.86802107e-02f,-1.54619217e-02f,+1.52427167e-01f,-2.21555293e-01f,
-1.40810043e-01f,-1.15664788e-01f,-1.68453172e-01f,-4.50433791e-03f,-1.15289845e-01f,
-1.72575310e-01f,+1.95957810e-01f,+5.02794683e-02f,+1.12856686e-01f,-5.38133085e-02f,
+1.20758057e-01f,+2.12606668e-01f,-7.73683190e-02f,-2.17742473e-01f,-5.57442755e-02f,
-1.67042792e-01f,-1.10866122e-01f,-1.98510319e-01f,-7.38563836e-02f,-4.58430052e-02f,
+1.06299102e-01f,-8.26143175e-02f,+1.13623887e-02f,+1.53399676e-01f,+3.98177803e-02f,
+1.34809554e-01f,+2.25950181e-02f,+9.46015120e-04f,+9.16862190e-02f,-1.68495551e-01f,
-5.99853992e-02f,-1.73820361e-01f,-2.03828201e-01f,-9.52363014e-04f,+6.64854646e-02f,
+1.70104295e-01f,+2.21241832e-01f,-1.69703975e-01f,+7.80607164e-02f,+1.02816701e-01f,
+7.24906921e-02f,+5.28768897e-02f,-7.25154877e-02f,-1.81977302e-01f,-1.82190090e-02f,
+1.52456194e-01f,-2.21111417e-01f,+1.91086352e-01f,+1.71475381e-01f,+3.78838778e-02f,
-6.07116520e-03f,+2.01483488e-01f,+8.94752741e-02f,-6.21425062e-02f,+2.21434057e-01f,
-1.52412057e-02f,-9.94390622e-02f,+8.50944519e-02f,+8.08266699e-02f,+4.89006042e-02f,
-8.54883790e-02f,-1.31953746e-01f,-1.22647807e-01f,-6.96872324e-02f,-2.51349062e-02f,
+9.45121050e-04f,+1.80082321e-01f,-1.43847376e-01f,+8.83130431e-02f,-1.62121564e-01f,
+1.33311123e-01f,-1.46216750e-02f,+7.28291571e-02f,+8.44841897e-02f,+1.17299110e-01f,
+8.92682970e-02f,-5.66149056e-02f,-2.14730665e-01f,-2.88689286e-02f,-1.80960745e-02f,
+1.84680164e-01f,+4.14810777e-02f,-1.72741219e-01f,-1.57863796e-02f,-2.11323708e-01f,
+1.16271466e-01f,+1.26119107e-02f,-1.87985152e-02f,+1.66359544e-03f,+2.29281634e-02f,
+7.52242208e-02f,-2.85838693e-02f,+1.32367343e-01f,-1.31030917e-01f,-1.71791524e-01f,
-2.64888257e-02f,+7.19284713e-02f,-2.18334556e-01f,-1.63306326e-01f,-1.11482777e-01f,
-1.10581115e-01f,-1.93179175e-01f,-8.89282823e-02f,-1.39161900e-01f,+7.30584562e-02f,
-3.71276587e-02f,-1.74601004e-01f,-7.49159157e-02f,-1.07146010e-01f,-1.53255835e-01f,
+1.72504336e-01f,+7.22415745e-02f,-4.39310670e-02f,-1.29817262e-01f,-1.99048087e-01f,
+1.16717070e-01f,+1.11233979e-01f,+1.17202401e-01f,-1.36052430e-01f,+2.25188881e-02f,
+1.13628149e-01f,-1.55652642e-01f,-1.29026920e-01f,+1.91931993e-01f,+2.42862850e-02f,
-1.52137294e-01f,-5.47150224e-02f,+1.08581007e-01f,-8.99501592e-02f,+2.48180181e-02f,
+1.99560612e-01f,-1.99692413e-01f,+4.40864861e-02f,-1.88421026e-01f,+1.23091638e-01f,
+1.85691118e-02f,-5.62755764e-02f,+2.13444471e-01f,-6.19842857e-02f,-6.51728213e-02f,
+1.42005026e-01f,-8.77554715e-02f,+1.39015138e-01f,-1.22290619e-01f,+8.23513269e-02f,
-9.25521106e-02f,-5.52236736e-02f,-1.03985034e-01f,+1.64440423e-02f,+1.31834120e-01f,
-1.74849123e-01f,-1.63881451e-01f,-2.10233897e-01f,-3.45477313e-02f,+1.97645545e-01f,
+2.02672869e-01f,-1.91689536e-01f,-1.58766121e-01f,+2.88157165e-03f,-1.23116739e-01f,
-3.03294659e-02f,+9.54113901e-03f,-1.92763552e-01f,+1.25286758e-01f,-2.15108693e-02f,
-1.59399986e-01f,+1.90105617e-01f,-3.31145972e-02f,+7.35449493e-02f,+9.67051685e-02f,
-1.92536712e-01f,-1.12259053e-01f,-6.65911883e-02f,-8.32824856e-02f,+1.16243660e-02f,
-9.08162743e-02f,+1.61594272e-01f,-7.95560777e-02f,+1.27934396e-01f,-1.60931945e-02f,
-1.18140221e-01f,+2.04142690e-01f,-1.02614962e-01f,-1.21594414e-01f,-1.64350227e-01f,
+1.28539950e-01f,-1.20844103e-01f,+2.19692826e-01f,-2.14123979e-01f,+2.12203473e-01f,
-1.45094573e-01f,-1.38279527e-01f,-9.29341465e-02f,-2.08003908e-01f,+5.64137101e-02f,
-2.17694342e-02f,-3.03032398e-02f,+1.16425455e-01f,+6.68251216e-02f,+1.29942536e-01f,
-1.73543081e-01f,-2.14202508e-01f,-1.08332895e-01f,+1.98073536e-01f,+1.78883731e-01f,
+7.59983063e-02f,-1.87280893e-01f,+2.21481502e-01f,+1.19212270e-01f,-1.37930974e-01f,
-4.50599492e-02f,-1.96659759e-01f,+1.91444784e-01f,+9.15088356e-02f,-1.81455866e-01f,
-1.67023867e-01f,+6.17178679e-02f,+1.94785595e-02f,-7.71963894e-02f,+1.35723263e-01f,
-7.15143979e-03f,-1.27239093e-01f,+1.54965222e-01f,+2.03660637e-01f,-2.21437961e-01f,
-3.85726243e-02f,-3.99885923e-02f,-1.46808386e-01f,+1.68474227e-01f,+1.58639908e-01f,
-2.01813802e-01f,+1.10033005e-01f,-1.16936602e-01f,-1.53120160e-01f,-1.31506771e-01f,
+1.66817993e-01f,-1.52987242e-01f,+2.20030367e-01f,-2.21671939e-01f,-1.48451626e-02f,
+5.68735301e-02f,-1.10898912e-03f,+2.44247913e-02f,-1.64439827e-02f,-1.99613452e-01f,
-1.44774169e-01f,-2.75191218e-02f,+2.13036358e-01f,-1.61416993e-01f,-1.97547451e-01f,
-1.74947679e-02f,-7.38374591e-02f,+1.15034223e-01f,+2.17401862e-01f,-1.15164772e-01f,
-1.42064735e-01f,-7.75602907e-02f,+2.44440883e-02f,+1.09630078e-01f,+1.72280073e-01f,
-2.17847124e-01f,+2.02097118e-01f,-4.11260128e-02f,+1.94193870e-01f,+6.69670999e-02f,
+2.10808277e-01f,+2.08747983e-01f,-2.10831150e-01f,+2.03861624e-01f,+1.01920217e-01f,
-6.97314739e-04f,-2.16554686e-01f,+3.53708863e-03f,+1.68917626e-01f,-1.05607420e-01f,
-1.84074491e-01f,-1.36399865e-02f,+7.87325203e-02f,+1.89507157e-02f,+1.03627801e-01f,
+1.35249317e-01f,+1.63905859e-01f,-1.57047659e-01f,+8.98888409e-02f,-1.74952328e-01f,
+2.19483525e-01f,-1.02923319e-01f,+2.07229406e-01f,+6.77021146e-02f,-1.70739934e-01f,
-2.48352885e-02f,+2.18083948e-01f,-1.99150980e-01f,-2.95164138e-02f,+6.37686849e-02f,
+1.99730247e-02f,+6.34225309e-02f,-1.62455514e-01f,+5.60670197e-02f,+2.08576381e-01f,
+1.36910737e-01f,+7.81574845e-02f,+1.55706108e-01f,-1.62819371e-01f,+4.72060740e-02f,
-7.26366043e-03f,+1.89598799e-02f,-1.80279270e-01f,+8.72305036e-02f,+1.36635005e-02f,
-7.32517242e-02f,+1.33220285e-01f,-2.20090151e-02f,-1.48404971e-01f,-1.24361470e-01f,
+9.94806588e-02f,+9.80544984e-02f,+2.22524464e-01f,+3.70673537e-02f,+2.12323308e-01f,
+7.30534494e-02f,-1.18662894e-01f,+3.88433039e-02f,+3.79849672e-02f,-1.21122748e-02f,
+1.10123098e-01f,+1.06797189e-01f,-5.20204753e-02f,+1.72668338e-01f,+1.79895043e-01f,
+8.05829763e-02f,-2.21735120e-01f,-1.71046257e-02f,-7.79133737e-02f,-4.04493511e-03f,
-1.06749527e-01f,-1.36843741e-01f,+1.09239101e-01f,-2.11561158e-01f,-1.00577593e-01f,
-1.30065054e-01f,-4.01887894e-02f,-1.60922050e-01f,-1.67304873e-02f,-1.48221686e-01f,
-1.08536929e-02f,+4.05144095e-02f,-8.40625465e-02f,+3.23225558e-03f,+6.33360147e-02f,
-1.21559069e-01f,+5.10486662e-02f,-3.09301913e-02f,+1.80392236e-01f,-1.76509097e-01f,
-5.91731071e-03f,+1.53524309e-01f,+2.18726397e-02f,+3.54639590e-02f,-1.62230328e-01f,
+1.18269235e-01f,-1.01778232e-01f,-1.43088222e-01f,-5.07870466e-02f,-2.56649852e-02f,
+1.63684189e-01f,+6.55686557e-02f,-1.72658160e-01f,-1.51158601e-01f,-1.69198632e-01f,
+2.89921463e-03f,+1.92141235e-02f,+4.13595140e-02f,+6.74128532e-04f,-8.04626495e-02f,
+2.10246593e-02f,+1.20585799e-01f,-1.33536369e-01f,+1.61558479e-01f,-2.16416717e-01f,
+1.18262202e-01f,+3.06366086e-02f,-3.24739516e-03f,-1.35489926e-01f,-1.89297631e-01f,
+7.86500275e-02f,-1.90432861e-01f,+1.90072089e-01f,-1.95074201e-01f,-9.66012627e-02f,
-1.19520202e-01f,+2.20307112e-02f,+9.50901210e-02f,-7.02811778e-03f,+3.65510583e-04f,
-2.32342333e-02f,+1.54922605e-02f,-1.39603913e-01f,-6.15111291e-02f,-2.00627610e-01f,
-1.97673216e-01f,+1.08905286e-02f,-1.23192869e-01f,+1.63472772e-01f,+3.96831036e-02f,
-1.38753057e-02f,-1.31887630e-01f,-1.54425442e-01f,+1.82447642e-01f,+4.24043834e-02f,
+1.76286936e-01f,-1.91087261e-01f,-1.33542389e-01f,-4.81972098e-03f,+3.80250514e-02f,
-1.78175256e-01f,+1.35349929e-01f,-2.03434542e-01f,+1.30855978e-01f,+8.61506760e-02f,
+8.06472600e-02f,+1.47636950e-01f,-3.68081033e-02f,+1.76156342e-01f,+3.43715847e-02f,
+1.48653775e-01f,+1.68247879e-01f,-1.79067969e-01f,+1.72830939e-01f,+1.33239090e-01f,
+2.20637947e-01f,-1.83205932e-01f,+6.52312934e-02f,-2.08909839e-01f,-1.27659678e-01f,
-2.50697583e-02f,-2.16761485e-01f,-1.87487632e-01f,+5.79024851e-02f,+2.04102874e-01f,
-1.73099518e-01f,+5.04492223e-02f,-6.95151091e-03f,+6.95023537e-02f,+6.67483509e-02f,
-1.85805172e-01f,-1.57207251e-05f,+1.35664195e-02f,+5.64566851e-02f,-1.55483842e-01f,
-9.05073285e-02f,-7.88503289e-02f,-8.13031644e-02f,-1.51809052e-01f,-1.91168249e-01f,
+2.16426104e-01f,+3.73544097e-02f,+7.90153444e-03f,+4.21574712e-03f,+3.31684351e-02f,
+7.66247809e-02f,-2.21059337e-01f,+3.27163637e-02f,-8.45171958e-02f,-8.41085464e-02f,
+1.67800426e-01f,-5.87663054e-03f,+5.53324819e-03f,-1.98994875e-01f,-2.47151852e-02f,
+1.25156552e-01f,+7.24700093e-02f,-1.22304961e-01f,+9.39768255e-02f,-8.75636488e-02f,
-1.27820671e-03f,+3.66924107e-02f,-1.88330024e-01f,-1.08169973e-01f,-1.05903305e-01f,
+1.17934376e-01f,+1.68857276e-01f,+1.70440495e-01f,-1.19660258e-01f,+1.40171200e-01f,
+5.47378957e-02f,-2.09284365e-01f,-1.56788975e-01f,-5.71632683e-02f,+1.89921647e-01f,
-3.35488766e-02f,+1.56946421e-01f,-1.58533901e-02f,-1.17626190e-01f,-2.27274448e-02f,
-3.15472186e-02f,+9.43060219e-02f,-1.60731778e-01f,-3.50931734e-02f,-1.49801373e-03f,
+1.66648567e-01f,-9.70508456e-02f,+2.08725214e-01f,+1.98288709e-01f,+1.21810436e-01f,
-1.79770991e-01f,-1.03058524e-01f,+1.00518107e-01f,-2.16568857e-01f,+1.24394625e-01f,
-1.78937301e-01f,-1.09322667e-02f,-1.84805930e-01f,-1.67289898e-01f,-5.70702404e-02f,
+1.77448124e-01f,-2.02073380e-01f,-5.99467456e-02f,-1.40498847e-01f,-2.07935572e-02f,
+4.49186265e-02f,+6.26074970e-02f,-1.26049966e-01f,+1.47523880e-01f,+1.39797479e-02f,
+2.03384638e-01f,-3.53469253e-02f,-2.06652299e-01f,+9.89221931e-02f,+8.67380500e-02f,
+1.12030894e-01f,-1.94159001e-01f,-1.66923910e-01f,+4.84246314e-02f,+1.66539580e-01f,
+2.29452252e-02f,+1.62519962e-01f,+1.88352138e-01f,-2.20393896e-01f,+8.00313950e-02f,
-5.45315295e-02f,-8.83727074e-02f,+8.87097120e-02f,-2.19297588e-01f,-1.48906589e-01f,
+1.37987375e-01f,+1.74435794e-01f,-8.88932496e-02f,+9.84628201e-02f,-8.35178494e-02f,
+4.25269008e-02f,-4.23783064e-03f,-2.62826085e-02f,-8.19630176e-02f,+1.66559041e-01f,
+1.73321307e-01f,+1.35641009e-01f,+1.30487502e-01f,-1.12472460e-01f,-7.40501732e-02f,
+1.48737431e-01f,-8.77708793e-02f,+1.89280510e-01f,+3.30248773e-02f,+3.03980410e-02f,
-1.92044318e-01f,-8.63015950e-02f,+1.64140761e-01f,-9.59364027e-02f,-1.74866438e-01f,
+5.38594127e-02f,-9.17901695e-02f,-2.86178887e-02f,-6.38045669e-02f,+8.44623744e-02f,
+1.33077800e-03f,+1.50121629e-01f,+1.43361866e-01f,+1.28786892e-01f,+1.35289192e-01f,
+1.47580117e-01f,-1.95900545e-01f,-8.44603628e-02f,+9.64884162e-02f,+1.74115330e-01f,
-1.23206839e-01f,+1.15583688e-02f,-1.26057208e-01f,+6.75221682e-02f,+1.07292414e-01f,
-6.94528073e-02f,-5.44439852e-02f,+2.03076661e-01f,-1.59598678e-01f,+1.36407912e-02f,
+9.94626284e-02f,-1.92641094e-01f,-1.29841626e-01f,-1.48124978e-01f,+1.88973457e-01f,
+7.16555715e-02f,+2.01398760e-01f,+8.24401975e-02f,-5.79506159e-05f,+1.72992915e-01f,
+1.31584018e-01f,-3.35186422e-02f,-1.45890355e-01f,+1.26801580e-02f,-2.04910383e-01f,
+1.97450906e-01f,+5.38475811e-02f,+1.98875308e-01f,+1.17631525e-01f,+3.29183042e-02f,
-7.46081322e-02f,-3.74577641e-02f,+1.16351247e-01f,+2.11087316e-02f,+1.39120430e-01f,
-1.99105129e-01f,-2.07231641e-01f,+1.67051226e-01f,+1.84825063e-01f,-4.73460853e-02f,
-7.77441114e-02f,+1.44260556e-01f,-1.17477074e-01f,+4.52874303e-02f,+3.26151252e-02f,
+3.00882459e-02f,+1.67420685e-01f,-1.45520002e-01f,+1.98874384e-01f,-1.25778884e-01f,
-1.81704134e-01f,-4.82262075e-02f,+6.24240041e-02f,-6.01136684e-02f,+7.39452541e-02f,
-3.74322832e-02f,-2.09229663e-01f,+9.10356343e-02f,+1.16057545e-02f,+1.45517796e-01f,
-5.14415652e-02f,+2.77681053e-02f,+6.19082153e-02f,+1.91265166e-01f,+1.88850731e-01f,
-4.04775739e-02f,+8.00388753e-02f,-1.45900056e-01f,-1.50387973e-01f,-3.70073915e-02f,
+2.92955339e-03f,+1.74032062e-01f,+5.97262084e-02f,-5.95716983e-02f,+2.20453829e-01f,
+5.45619726e-02f,-1.68284863e-01f,+2.03579962e-02f,-1.79398820e-01f,+6.82130456e-04f,
-2.02078655e-01f,-1.97449997e-01f,-3.83478403e-03f,+4.98791039e-02f,-8.16655159e-03f,
-7.54529685e-02f,+1.73960775e-01f,+1.64383590e-01f,-7.91659951e-02f,-1.71784699e-01f,
-1.94108993e-01f,-1.32768929e-01f,+1.54071301e-01f,+7.40903318e-02f,+1.02180481e-01f,
+4.25774157e-02f,-1.14294134e-01f,-1.15414433e-01f,-1.42009079e-01f,-8.96010250e-02f,
+1.93738371e-01f,+1.65435225e-02f,+2.59333104e-02f,-1.00011952e-01f,+1.12207383e-02f,
+1.24742657e-01f,+2.09101677e-01f,-1.06262788e-01f,-1.90929249e-01f,+8.46910477e-02f,
+1.75149679e-01f,-4.45051342e-02f,-1.62119165e-01f,+7.05632567e-02f,+2.83609331e-03f,
-1.34439096e-01f,+6.61669672e-02f,+9.86978710e-02f,-1.05110928e-01f,-1.46483988e-01f,
-3.70920002e-02f,-1.86228096e-01f,-2.04237789e-01f,-2.39813477e-02f,+1.44496500e-01f,
+1.60938799e-02f,-1.53635740e-01f,+1.81948543e-02f,+1.00772917e-01f,-1.81208283e-01f,
-4.94792610e-02f,+3.29856873e-02f,-1.34812295e-02f,-2.00927809e-01f,+2.92179286e-02f,
+5.88740706e-02f,-3.51843238e-03f,+2.40650773e-03f,-9.90424231e-02f,-2.18618870e-01f,
+1.32151991e-02f,-9.85711813e-05f,+1.61813378e-01f,-3.72049659e-02f,+3.29575539e-02f,
+1.93455815e-01f,+1.40107930e-01f,-1.28693223e-01f,+5.60070872e-02f,+1.41430527e-01f,
+1.03066683e-01f,+1.94333375e-01f,-1.07252046e-01f,-2.05159292e-01f,+1.87822431e-01f,
-7.78233260e-02f,-1.16461270e-01f,+7.74080753e-02f,+6.73119724e-02f,+1.02589428e-02f,
+4.02054787e-02f,-5.62142730e-02f,-2.14443415e-01f,+7.46503472e-02f,+1.82769537e-01f,
-4.49983329e-02f,-1.28006190e-01f,+2.05057293e-01f,-2.10907161e-02f,+2.07048297e-01f,
+2.14312971e-01f,-1.55336112e-01f,-5.16115278e-02f,+1.22040153e-01f,+1.10430628e-01f,
-1.72630906e-01f,-9.80127454e-02f,+3.82510424e-02f,-3.60700041e-02f,+2.20978558e-01f,
-1.94839627e-01f,-7.17190504e-02f,-1.91111147e-01f,+1.71430707e-01f,-1.28486812e-01f,
-2.02586398e-01f,-1.25018209e-02f,+1.93324447e-01f,+8.69971514e-03f,+7.90972710e-02f,
-2.23565534e-01f,+2.75830925e-02f,+3.92949581e-02f,+6.42805994e-02f,-9.77074951e-02f,
-2.08704323e-02f,+1.17786437e-01f,-1.50323570e-01f,+1.63415134e-01f,+1.47119164e-03f,
+2.00365186e-02f,+6.53190017e-02f,+5.43802381e-02f,+2.09925026e-01f,-7.28346109e-02f,
+5.18495142e-02f,+2.98978388e-03f,+9.21959877e-02f,-1.14149019e-01f,+1.62723929e-01f,
+4.39696014e-03f,+5.69340587e-03f,+1.34857178e-01f,-2.11511791e-01f,-6.26279712e-02f,
-1.04703411e-01f,-4.44729924e-02f,+2.02143759e-01f,-1.56390309e-01f,-1.40049487e-01f,
-6.84422255e-02f,+4.47450876e-02f,+1.77360535e-01f,+4.02036309e-03f,+8.48349929e-02f,
+8.75959992e-02f,-7.07176924e-02f,-1.97308451e-01f,-2.17142656e-01f,+1.28627807e-01f,
-6.09811097e-02f,+4.36757505e-02f,-2.85595059e-02f,+2.54719406e-02f,+4.48665917e-02f,
-5.40222973e-02f,-1.52088195e-01f,+1.41812116e-02f,+2.16233730e-03f,+1.61766738e-01f,
+9.40287411e-02f,+9.77146327e-02f,-1.86956704e-01f,-1.32872045e-01f,-9.19531286e-03f,
+1.01073027e-01f,+9.73162353e-02f,-5.12222350e-02f,+6.30911887e-02f,+1.27464324e-01f,
+1.46240830e-01f,+1.10574603e-01f,-1.10573433e-01f,-7.07925409e-02f,-2.11952999e-01f,
+2.15255946e-01f,-2.20185444e-01f,+1.15421951e-01f,+5.07459044e-02f,+1.28618926e-02f,
-1.71947718e-01f,-2.09259942e-01f,+2.45289654e-02f,-1.28496408e-01f,-2.01520532e-01f,
-9.50123519e-02f,+7.81195462e-02f,-1.07076913e-01f,+2.06314355e-01f,-1.30650476e-01f,
-1.20655432e-01f,+1.26239449e-01f,+2.17944056e-01f,+1.69579089e-02f,-1.07615687e-01f,
-8.53739083e-02f,-9.72364247e-02f,+9.98322964e-02f,+6.93740845e-02f,-1.84206814e-02f,
-1.47063747e-01f,-1.07000358e-01f,+1.22900397e-01f,+1.18616521e-02f,+2.96183825e-02f,
-8.43702108e-02f,-8.63062888e-02f,-1.86118111e-01f,-1.18152380e-01f,+1.69292837e-02f,
-1.84950575e-01f,-1.46528870e-01f,-6.09674007e-02f,-2.52602994e-03f,-6.90570772e-02f,
-1.30704045e-02f,-1.32792816e-01f,+2.15668976e-02f,+1.44726545e-01f,+3.23414803e-02f,
+3.71905565e-02f,-2.89060473e-02f,+2.08751023e-01f,+1.63325846e-01f,+1.95271403e-01f,
-1.56482220e-01f,-8.07981193e-03f,-7.18831420e-02f,+1.58829868e-01f,+1.93540782e-01f,
-1.05409101e-01f,+5.57183623e-02f,-3.10589373e-02f,-2.06870496e-01f,-4.77097780e-02f,
+7.40596652e-02f,+2.21172929e-01f,-2.13270977e-01f,+3.53690982e-02f,+1.82681501e-01f,
-1.62267864e-01f,+1.94963634e-01f,+1.67427123e-01f,+8.14493001e-02f,-1.54358000e-02f,
+1.26767933e-01f,-1.73816741e-01f,+1.11046165e-01f,+1.89598411e-01f,+1.35475546e-01f,
-1.50520235e-01f,-2.00344950e-01f,+1.76686794e-01f,+9.55422223e-02f,+3.85653973e-03f,
+4.62967157e-03f,+8.90271664e-02f,+9.95325148e-02f,+1.54295117e-02f,-6.20367974e-02f,
+1.27778172e-01f,+2.22189933e-01f,+1.89131260e-01f,-7.64505565e-03f,-1.22532971e-01f,
+9.65174437e-02f,+3.28801572e-03f,+2.00246871e-02f,-1.80503502e-01f,+5.89697957e-02f,
-1.49911195e-02f,-6.49782866e-02f,-4.36050147e-02f,+1.49386704e-01f,-1.16253778e-01f,
-1.08411312e-01f,+1.36812329e-01f,+4.77063656e-02f,+1.61647737e-01f,+6.02283478e-02f,
+2.15435624e-01f,+2.14176863e-01f,+1.68272555e-01f,-1.08041167e-01f,-1.40443787e-01f,
+1.61947519e-01f,+1.88750863e-01f,+2.50625163e-02f,-3.54459286e-02f,-2.22981930e-01f,
+6.36513531e-03f,+1.20287210e-01f,+1.87000483e-01f,-6.75866753e-02f,+1.48601383e-02f,
-1.54538304e-01f,+1.58467293e-01f,-2.70178914e-02f,+1.61308348e-01f,+1.76145345e-01f,
+1.25652939e-01f,+2.07448930e-01f,+1.53141707e-01f,+1.69106722e-01f,-2.95886993e-02f,
-1.02032959e-01f,+7.08274543e-02f,-1.53331637e-01f,+1.45746619e-01f,+1.34251922e-01f,
-1.07939556e-01f,+2.12865055e-01f,-1.48467720e-01f,-6.06583506e-02f,-5.55948913e-02f,
-1.41339749e-02f,+8.65900815e-02f,+9.45639908e-02f,-1.47161305e-01f,+1.36390835e-01f,
-1.20437115e-01f,-1.84693068e-01f,+3.07656229e-02f,-5.56790829e-03f,-4.15027589e-02f,
+1.62215352e-01f,+9.43303108e-03f,-1.27218142e-01f,+1.20639175e-01f,+9.60427523e-02f,
-1.53579235e-01f,-1.73878625e-01f,+1.35302961e-01f,-7.81514198e-02f,-1.20758906e-01f,
+1.44868135e-01f,+1.73364282e-02f,+2.07592934e-01f,-1.29144996e-01f,-1.12354010e-02f,
-2.00610712e-01f,-7.45414495e-02f,-6.74671531e-02f,-6.20102435e-02f,+2.00451255e-01f,
-3.32548618e-02f,+4.63765562e-02f,+2.06432760e-01f,-4.71985191e-02f,+2.14455962e-01f,
-2.47588456e-02f,-6.47372603e-02f,-1.35007396e-01f,-1.21471800e-01f,-1.03585832e-01f,
+1.70868993e-01f,-8.69073272e-02f,-7.16499090e-02f,-1.27025202e-01f,-4.72737402e-02f,
-4.97189462e-02f,+3.49977314e-02f,+1.64649993e-01f,-1.00558698e-02f,+7.18139410e-02f,
+1.33144617e-01f,-1.62522316e-01f,+1.00937009e-01f,+1.44317210e-01f,-1.94785729e-01f,
+1.42364830e-01f,+2.02159911e-01f,-1.58385888e-01f,-1.43644214e-01f,+2.00893998e-01f,
-2.00233787e-01f,+1.05279237e-01f,+6.58120215e-02f,+1.55407518e-01f,+7.59956241e-02f,
+1.67817205e-01f,+4.54529822e-02f,+3.11790407e-03f,-1.92386478e-01f,+1.51308030e-02f,
-9.64938402e-02f,+1.61055058e-01f,-2.88459510e-02f,+2.16114491e-01f,+2.28575319e-02f,
+2.32315660e-02f,-1.77134931e-01f,-1.93030596e-01f,+7.93246627e-02f,-2.05844671e-01f,
+1.35588884e-01f,-4.05625552e-02f,-1.88122109e-01f,+5.01084328e-03f,-2.13390559e-01f,
-8.26634169e-02f,-1.90891832e-01f,-1.90697014e-02f,+7.97739625e-02f,+1.69331282e-02f,
-3.95215750e-02f,+1.47821695e-01f,-6.85410202e-02f,+8.92406404e-02f,-1.38980478e-01f,
-1.54103756e-01f,+1.60577863e-01f,-1.82729065e-02f,+1.43134028e-01f,+1.27965301e-01f,
-7.25995004e-02f,-1.49998575e-01f,-7.59509653e-02f,-1.74670577e-01f,+2.15930402e-01f,
-7.07663596e-03f,-2.04183206e-01f,+2.44154036e-02f,-1.78009346e-01f,+1.56557560e-01f,
+7.96192586e-02f,-4.17541265e-02f,-5.86014688e-02f,+1.86367810e-01f,-1.99065998e-01f,
-1.54569715e-01f,+3.64648402e-02f,+7.90310204e-02f,+1.78066939e-02f,+7.48586655e-03f,
+1.08145446e-01f,-1.88929737e-02f,+2.16555327e-01f,+2.07345605e-01f,-1.60537988e-01f,
+1.82749540e-01f,-7.42387325e-02f,-1.42486915e-01f,-5.01952320e-02f,-1.23458952e-01f,
-5.42215705e-02f,-6.15811348e-02f,-1.40547797e-01f,+1.28706247e-01f,+1.91881448e-01f,
+5.24319410e-02f,+7.53506124e-02f,-5.69340289e-02f,-7.21977353e-02f,-8.30969512e-02f,
-1.78161338e-01f,+1.98173136e-01f,+7.71424770e-02f,-2.38843262e-03f,-1.61176667e-01f,
-3.36871147e-02f,-1.80297494e-01f,-1.50619388e-01f,-1.43346339e-02f,-1.24022081e-01f,
+1.52505904e-01f,-2.00471088e-01f,-1.23392843e-01f,+1.78775817e-01f,+8.18231106e-02f,
-8.44179094e-03f,+1.19448751e-02f,-8.19986165e-02f,+1.65766358e-01f,-1.97239265e-01f,
+1.52824074e-01f,-1.55990481e-01f,-1.10988840e-01f,-5.70219457e-02f,+9.89490151e-02f,
+2.07027048e-02f,-1.92596480e-01f,+1.30493790e-01f,-7.30486065e-02f,-6.91960156e-02f,
+1.24868721e-01f,-1.74985111e-01f,-1.39075637e-01f,-1.16640292e-01f,+1.45778298e-01f,
-8.75204653e-02f,-1.44260824e-01f,-9.34682190e-02f,-1.17680512e-01f,+1.24455988e-01f,
+1.96529508e-01f,+2.17029274e-01f,-5.82917333e-02f,+1.76478535e-01f,+1.80223495e-01f,
-9.84783322e-02f,+1.45569086e-01f,-1.90373793e-01f,-1.31966740e-01f,-1.79487154e-01f,
+2.03470141e-02f,-1.91868499e-01f,-3.18820775e-02f,+1.77077889e-01f,+1.42275840e-02f,
+6.61522150e-03f,-3.04452181e-02f,+1.43153995e-01f,+1.54462487e-01f,-9.86920521e-02f,
+5.74141145e-02f,+2.21124947e-01f,+1.57102346e-01f,+5.87493479e-02f,-1.87466681e-01f,
+1.48224831e-01f,-1.59176886e-02f,+1.76865011e-01f,+8.28366876e-02f,+1.35536790e-01f,
+1.92991674e-01f,+7.37932026e-02f,-1.37091160e-01f,+1.51669949e-01f,-2.21037641e-01f,
+1.24311298e-01f,-5.54054230e-02f,+1.85097128e-01f,-8.01733285e-02f,-1.14102907e-01f,
+2.12456793e-01f,-1.67802125e-01f,+2.82500386e-02f,-2.00367868e-02f,+1.56405121e-02f,
-1.94282100e-01f,-4.66964245e-02f,-2.21694231e-01f,+7.04425573e-02f,+3.07373703e-02f,
+1.26562983e-01f,-2.14010850e-01f,+1.88543469e-01f,-2.05189735e-01f,+4.47883308e-02f,
-7.18837827e-02f,+7.76540637e-02f,+1.74691170e-01f,+1.58049852e-01f,+1.63001746e-01f,
-2.10771874e-01f,+2.60679722e-02f,-3.92464995e-02f,+1.21735752e-01f,-1.97698593e-01f,
-1.18717380e-01f,+2.06862181e-01f,-2.21941814e-01f,+1.22231096e-02f,+8.66061151e-02f,
-2.83465832e-02f,+1.59356266e-01f,+6.87364042e-02f,+1.47949308e-02f,-1.08813070e-01f,
+1.33900315e-01f,+7.95708895e-02f,+1.17326051e-01f,-1.33899301e-01f,+2.06423014e-01f,
+2.23164886e-01f,+4.53697443e-02f,-2.09667459e-01f,-2.12002054e-01f,+1.23841316e-01f,
+3.25827599e-02f,-2.13524967e-01f,-5.97369671e-02f,+1.60132170e-01f,-9.85809565e-02f,
+1.22097999e-01f,-8.69034827e-02f,+6.11942410e-02f,-7.61859119e-02f,-1.27772629e-01f,
-1.66861534e-01f,+1.82278693e-01f,-6.66327178e-02f,-1.17548570e-01f,+1.54976547e-01f,
+2.61440575e-02f,-1.21573411e-01f,-7.07453638e-02f,-1.62382856e-01f,-1.03162214e-01f,
-1.33807182e-01f,-1.22294135e-01f,-1.69321671e-01f,-4.78321314e-03f,+1.13021523e-01f,
-2.19536722e-02f,+9.37754512e-02f,-7.92712867e-02f,+7.21716285e-02f,-1.13400415e-01f,
-1.26238525e-01f,-8.56302679e-03f,+8.43620896e-02f,-1.00612886e-01f,+4.68404591e-02f,
-1.74364671e-01f,-6.18030131e-03f,+3.46649587e-02f,-1.09595269e-01f,-1.10478431e-01f,
+1.36772931e-01f,+1.14473164e-01f,+1.87217653e-01f,-1.81185201e-01f,-3.05262953e-02f,
+6.47273362e-02f,-1.32734284e-01f,-1.25122011e-01f,-1.30262971e-03f,+1.98488086e-01f,
-1.86827749e-01f,+1.56258672e-01f,-9.10410881e-02f,+1.05887264e-01f,-1.16178766e-01f,
-1.68681562e-01f,+1.48279488e-01f,+8.43922198e-02f,-1.64577961e-02f,-1.68861270e-01f,
-7.84429759e-02f,+1.63500816e-01f,+1.26812279e-01f,-1.97712511e-01f,+6.86771274e-02f,
-6.47143871e-02f,-5.33968359e-02f,+1.89338416e-01f,+2.14182079e-01f,-5.58312684e-02f,
+8.99239480e-02f,+9.36519504e-02f,+1.13521755e-01f,+3.80404294e-02f,-1.08815365e-01f,
-1.21330731e-01f,+2.07133502e-01f,+5.57297170e-02f,+2.05269337e-01f,-2.07128584e-01f,
+9.99051332e-03f,+5.75922728e-02f,+1.47153109e-01f,+1.26832098e-01f,+5.00775874e-02f,
-2.22116292e-01f,+1.78541780e-01f,+1.69699967e-01f,-1.62996635e-01f,+2.21186697e-01f,
+1.56610340e-01f,+1.49524480e-01f,+8.09929371e-02f,+7.36021399e-02f,-2.12456882e-02f,
-5.43612987e-02f,+7.22491741e-02f,-1.16250739e-01f,-1.88585550e-01f,+9.17738676e-02f,
+6.70134127e-02f,-2.22917944e-01f,-7.39883333e-02f,-9.21668112e-03f,+2.10834205e-01f,
-2.78509408e-02f,-8.94089341e-02f,-2.37670839e-02f,-2.73682028e-02f,-7.36457556e-02f,
+2.22222805e-01f,-1.66588053e-01f,+2.64083743e-02f,-7.61994421e-02f,-1.75923511e-01f,
-1.14564799e-01f,+1.65687889e-01f,+1.78982019e-01f,+1.46048635e-01f,-1.45068765e-01f,
+1.64446831e-02f,+1.82269514e-01f,-1.60848588e-01f,-1.28161609e-01f,-1.48923814e-01f,
-5.65876663e-02f,+5.65529168e-02f,+9.84118879e-02f,+1.52458876e-01f,+1.49121970e-01f,
-6.08326942e-02f,-2.55629569e-02f,+2.22599417e-01f,+1.85666919e-01f,-9.31083113e-02f,
-5.28215915e-02f,-1.42017454e-01f,-1.01036236e-01f,+1.87050432e-01f,-4.02563810e-03f,
+1.01181090e-01f,+7.27950931e-02f,+1.28257781e-01f,+6.68931305e-02f,+1.93397373e-01f,
-6.38840497e-02f,-1.85952887e-01f,-1.24515697e-01f,-1.12879448e-01f,-8.69244933e-02f,
+9.16678309e-02f,+8.34931731e-02f,+1.44627392e-01f,-6.34297282e-02f,-5.69423437e-02f,
-2.08881751e-01f,-1.66824654e-01f,+1.53637975e-01f,-1.49889827e-01f,+1.49896204e-01f,
-9.55580026e-02f,+1.16958886e-01f,-1.94982409e-01f,+1.45116001e-01f,+1.74818724e-01f,
+1.79980397e-01f,-8.68821591e-02f,+8.50864649e-02f,+3.85205448e-03f,+1.17345601e-02f,
-7.23121017e-02f,+6.39004111e-02f,-1.73972130e-01f,-2.04879567e-01f,+5.84024489e-02f,
-6.25498593e-03f,+2.15482414e-01f,-4.99054343e-02f,-1.05646074e-01f,-4.05323803e-02f,
-2.11452022e-01f,+1.24490529e-01f,-9.74806994e-02f,-1.77226841e-01f,+6.38705790e-02f,
+1.86432600e-01f,-1.65762141e-01f,+1.44055307e-01f,+5.41200042e-02f,-6.33444339e-02f,
-1.05321936e-01f,-5.19776642e-02f,+8.57105255e-02f,-5.59564531e-02f,+1.16500944e-01f,
+2.33453810e-02f,+1.23816997e-01f,-4.04833257e-02f,+1.18757367e-01f,-1.34875610e-01f,
-3.84965539e-03f,-1.24090433e-01f,-7.12232590e-02f,-2.08739936e-01f,+6.93866611e-02f,
+5.37715554e-02f,+1.77639514e-01f,+1.95282817e-01f,-1.46467566e-01f,+1.56095117e-01f,
-5.80146909e-03f,-1.22390419e-01f,-4.57420796e-02f,+1.08333796e-01f,-2.17733786e-01f,
+2.22289979e-01f,-1.64244622e-01f,+3.09720337e-02f,+1.47016615e-01f,+1.96499974e-01f,
+2.13995010e-01f,-1.22678146e-01f,-5.65600991e-02f,-9.14706290e-03f,+3.58693302e-03f,
-1.12360559e-01f,+1.16064906e-01f,-1.67590365e-01f,-2.02244774e-01f,-1.74986243e-01f,
+1.76776797e-02f,+6.10444546e-02f,-1.62949935e-01f,+2.03461796e-01f,-1.08594865e-01f,
-1.41009271e-01f,-2.05375955e-01f,-3.78707200e-02f,-1.25778452e-01f,-1.86585173e-01f,
+1.73854679e-02f,-1.74502850e-01f,-7.77209252e-02f,-1.27295494e-01f,-2.91675329e-02f,
-2.09349662e-01f,-5.43515384e-02f,-1.45328611e-01f,+2.93209255e-02f,-1.12773195e-01f,
+8.58992040e-02f,+2.10283577e-01f,-9.52428728e-02f,-1.05493173e-01f,-1.89167932e-01f,
-3.69196832e-02f,+1.25633806e-01f,+1.21071637e-01f,+6.90962076e-02f,-7.92984813e-02f,
+6.13869727e-02f,-2.07242519e-02f,-2.05276579e-01f,-4.13383991e-02f,-6.36314601e-02f,
+1.29447818e-01f,+1.32547379e-01f,-1.77736580e-03f,-2.02662587e-01f,+2.09530711e-01f,
+9.66398716e-02f,-1.96449921e-01f,-8.42074454e-02f,+1.56097054e-01f,-2.07088381e-01f,
+1.69817150e-01f,+1.61970377e-01f,+2.02580869e-01f,-8.88119489e-02f,-1.43252015e-02f,
+1.66915864e-01f,-1.33303121e-01f,+1.98741019e-01f,+1.94141090e-01f,+7.19045699e-02f,
-4.89272624e-02f,-1.73475161e-01f,+3.43523324e-02f,+3.45669687e-03f,-2.10997328e-01f,
+1.23042196e-01f,+8.83908868e-02f,-6.60578907e-03f,+2.22530693e-01f,-1.08918741e-01f,
-8.41875076e-02f,-1.55744702e-01f,-3.95243615e-02f,+1.95745230e-02f,+1.41541481e-01f,
-5.86573929e-02f,+3.75791490e-02f,-1.80133879e-01f,-1.16142407e-01f,-1.35328114e-01f,
+1.64705127e-01f,-3.30475867e-02f,+4.87200916e-02f,+1.53244644e-01f,+9.93793011e-02f,
+1.08433872e-01f,-4.21167016e-02f,+2.16230541e-01f,-3.36202681e-02f,+1.34336561e-01f,
+4.37184572e-02f,+4.72244322e-02f,+1.61409736e-01f,-1.77445263e-02f,+2.03000963e-01f,
-2.66414583e-02f,-9.33355242e-02f,-3.29209119e-02f,-5.92331141e-02f,-1.96975678e-01f,
+2.25107372e-02f,+2.15434372e-01f,+1.69584036e-01f,+1.53708190e-01f,+6.88652694e-02f,
+5.59653938e-02f,-7.79152364e-02f,+2.90708244e-02f,+1.92254573e-01f,+1.70830667e-01f,
-4.31390703e-02f,+1.57059550e-01f,-2.12897807e-02f,-1.39852926e-01f,-1.01561733e-01f,
-1.15761071e-01f,+1.12957507e-01f,+7.56040215e-02f,+5.20298183e-02f,+9.54885781e-02f,
-1.33903146e-01f,-1.24114208e-01f,-1.70241207e-01f,-7.67613053e-02f,-1.30685508e-01f,
-9.98205617e-02f,+6.61295056e-02f,+4.42708433e-02f,-1.09062046e-02f,+1.14139527e-01f,
-1.40618056e-01f,+7.41915107e-02f,-3.03538889e-02f,+1.57569140e-01f,+2.19045699e-01f,
-1.53176248e-01f,+1.64841652e-01f,-2.79470682e-02f,-9.87667441e-02f,+8.83758068e-02f,
+6.19102418e-02f,+1.30915314e-01f,-6.01028502e-02f,-1.25618830e-01f,-1.28295422e-01f,
+8.29761624e-02f,-9.43146050e-02f,+5.33631444e-02f,+1.87671512e-01f,+4.19524014e-02f,
-4.07055318e-02f,-1.11330360e-01f,+5.32768369e-02f,+1.64865375e-01f,+1.85867637e-01f,
-1.98080048e-01f,+1.03560358e-01f,+1.92844868e-03f,+1.28398836e-01f,+1.67234987e-02f,
+2.16935217e-01f,-3.16944122e-02f,-1.75814033e-02f,+2.90246606e-02f,-5.37663996e-02f,
-1.51747957e-01f,-9.13886279e-02f,+1.23915404e-01f,+1.34596407e-01f,+1.54726952e-02f,
+1.21815175e-01f,+2.22450018e-01f,+3.99046242e-02f,-1.35699809e-01f,+7.90544152e-02f,
+8.99764001e-02f,-4.79109138e-02f,+2.03777611e-01f,-1.07629761e-01f,-8.57617557e-02f,
+9.76828635e-02f,-1.01910129e-01f,-3.24969292e-02f,-3.35221142e-02f,-6.19004667e-02f,
-2.12905630e-01f,-2.02732846e-01f,-1.31515831e-01f,+1.89848989e-01f,-7.23406672e-03f,
+2.39479095e-02f,+2.75161564e-02f,-1.95351750e-01f,+1.78135008e-01f,+1.04648650e-01f,
-7.24780560e-02f,+1.58072799e-01f,-1.81733996e-01f,+2.15206802e-01f,+6.57444298e-02f,
-4.47948873e-02f,-1.06577218e-01f,+9.37952399e-02f,+7.28704929e-02f,+9.53540802e-02f,
+1.39475107e-01f,+1.06835842e-01f,-1.01003505e-01f,+1.19234502e-01f,+1.78664833e-01f,
-1.80561334e-01f,+1.64700925e-01f,-1.98370695e-01f,-5.74699193e-02f,+2.04208672e-01f,
-2.09479809e-01f,-7.85288662e-02f,+2.11973846e-01f,+2.05387533e-01f,-1.11901969e-01f,
-1.47388205e-01f,+1.50313437e-01f,-1.91262603e-01f,+9.41288769e-02f,-1.92243159e-02f,
+1.23988062e-01f,+1.72708929e-03f,+2.06118643e-01f,+1.56890690e-01f,-1.09013312e-01f,
+7.93694854e-02f,-1.46833539e-01f,+4.34446633e-02f,-1.63815022e-01f,+9.05424356e-03f,
+1.75961733e-01f,-2.01566011e-01f,+9.72642004e-02f,+1.73679888e-01f,+5.36383986e-02f,
-1.88059673e-01f,-1.51629329e-01f,-1.33845687e-01f,+2.26714164e-02f,-2.26372480e-02f,
-1.07128203e-01f,+1.97360486e-01f,-1.24457054e-01f,-1.80179179e-02f,-2.08648995e-01f,
-1.85136631e-01f,+2.13272154e-01f,-4.69301939e-02f,+1.60859138e-01f,+1.45276845e-01f,
+2.06391066e-01f,+1.46628022e-01f,-1.97270498e-01f,+5.26441634e-02f,-1.61492005e-01f,
-8.07539523e-02f,-2.36831754e-02f,-8.70217383e-02f,+1.58539742e-01f,+1.32317007e-01f,
+6.26582503e-02f,-2.00962469e-01f,+8.52859020e-02f,+1.04954839e-02f,-5.42418808e-02f,
+1.59105510e-02f,+6.88814819e-02f,-1.70098215e-01f,-1.75130665e-01f,+7.98524916e-02f,
+2.08428055e-01f,-2.92994231e-02f,+1.61072075e-01f,-4.58334088e-02f,+8.53963196e-03f,
+3.11046243e-02f,+8.77407491e-02f,-4.12363559e-02f,-1.30072951e-01f,+1.29683286e-01f,
+1.26651645e-01f,-1.08165063e-01f,+1.72266215e-01f,-6.95240349e-02f,-6.69830739e-02f,
+4.80784774e-02f,+3.56296003e-02f,-1.84298605e-02f,-5.89031726e-02f,+6.22104406e-02f,
+1.54429972e-02f,-6.62271231e-02f,-4.40157354e-02f,+1.38301551e-01f,-1.40778959e-01f,
+7.99776316e-02f,+1.16171151e-01f,+1.38713717e-01f,+1.54170990e-01f,+2.78904438e-02f,
-1.07855536e-01f,-7.14541972e-02f,-1.71219051e-01f,-2.00734347e-01f,+1.31841958e-01f,
-6.11655712e-02f,-2.00302303e-02f,+7.14556873e-03f,+4.78922725e-02f,-1.57579601e-01f,
+5.54040074e-03f,-1.68364242e-01f,+1.74974233e-01f,+4.53552008e-02f,+2.07893938e-01f,
-1.05832368e-02f,+4.82186377e-02f,-5.69543391e-02f,+1.21648580e-01f,+1.52050436e-01f,
-4.47131097e-02f,+1.60064191e-01f,+7.09226131e-02f,-1.62021071e-01f,+1.03599250e-01f,
-2.06357166e-01f,+2.07121700e-01f,-1.72272816e-01f,-2.20866457e-01f,+2.11462915e-01f,
-1.03002436e-01f,-1.27615958e-01f,-2.04937831e-01f,+2.58537084e-02f,+4.55170870e-04f,
+1.47081882e-01f,-1.83478847e-01f,+1.74778700e-03f,+2.98197567e-02f,+1.30451679e-01f,
+3.68889868e-02f,-1.64607823e-01f,+9.57937539e-03f,+2.04549462e-01f,+1.93477362e-01f,
-1.30152106e-01f,+2.02242553e-01f,+1.31547183e-01f,+6.63451850e-03f,+2.40743160e-02f,
-4.88283187e-02f,+7.74894953e-02f,-6.89411759e-02f,-1.10999189e-01f,+5.67295849e-02f,
+1.58230066e-01f,-1.97385550e-01f,-2.14153349e-01f,+1.52140439e-01f,-2.14938074e-02f,
-1.05299547e-01f,+2.19019502e-01f,+6.75894618e-02f,+4.74708974e-02f,-1.72833800e-02f,
-1.10205315e-01f,+1.30498707e-01f,+7.23945200e-02f,+3.48350406e-02f,+2.30629891e-02f,
+7.74634778e-02f,+1.95873290e-01f,-7.92617947e-02f,+1.05371147e-01f,-1.99304879e-01f,
+1.64785475e-01f,+2.06100047e-02f,-1.13228478e-01f,-7.06580877e-02f,-7.89983273e-02f,
+5.51538765e-02f,+1.42952174e-01f,+8.97172987e-02f,+8.52035284e-02f,+7.14483261e-02f,
+1.78936064e-01f,-1.82194397e-01f,-2.23239690e-01f,+2.60002911e-03f,+1.51527196e-01f,
-1.19550541e-01f,-1.46773189e-01f,-2.10937202e-01f,-6.44579530e-02f,-7.80503303e-02f,
+1.21731043e-01f,-1.03929743e-01f,-1.76287949e-01f,-1.86111018e-01f,-1.19354941e-01f,
+2.04655111e-01f,+1.22103810e-01f,+6.43392205e-02f,+1.50888503e-01f,+9.65374410e-02f,
+1.46942884e-02f,+2.11468726e-01f,-2.08062395e-01f,+2.20593929e-01f,-2.17978328e-01f,
-3.43513787e-02f,+1.72819704e-01f,+1.19138449e-01f,+7.92185664e-02f,-1.59142226e-01f,
+1.29015863e-01f,-1.71355218e-01f,-1.55161738e-01f,-4.56205904e-02f,+2.52898932e-02f,
+2.85870731e-02f,+4.56706285e-02f,-1.23271793e-02f,+3.90207767e-02f,-1.19092375e-01f,
-6.16391450e-02f,-1.86461955e-02f,+1.01049453e-01f,-4.76369560e-02f,-9.85071659e-02f,
+1.87393606e-01f,+3.70419323e-02f,-1.68932080e-01f,+5.66065311e-04f,-1.85498938e-01f,
-1.09555706e-01f,+7.92907476e-02f,-2.07400203e-01f,+1.17602557e-01f,-9.62119848e-02f,
+2.00171888e-01f,+8.20534825e-02f,-1.50933400e-01f,+6.29522800e-02f,-1.04090124e-02f,
+5.70439100e-02f,-1.81122661e-01f,+9.56975818e-02f,+1.39884055e-01f,-2.03860879e-01f,
-1.22102052e-02f,-1.28792167e-01f,-1.17738545e-02f,+3.60856354e-02f,-7.20658004e-02f,
-1.99092224e-01f,-1.87943771e-01f,+6.39331043e-02f,-1.45788431e-01f,-1.89761341e-01f,
+6.03183210e-02f,+2.08580047e-01f,+7.95108080e-02f,-2.06385255e-02f,+3.36101949e-02f,
-5.23857176e-02f,-1.84176862e-03f,-4.20875996e-02f,+2.41806805e-02f,+5.52562475e-02f,
-1.08800277e-01f,-8.22073370e-02f,+1.35230869e-01f,+2.19283551e-01f,+4.70101535e-02f,
-8.16086382e-02f,-3.23821455e-02f,+1.23841465e-01f,-1.16410144e-01f,-2.04044864e-01f,
+1.41416609e-01f,-3.38516384e-02f,-4.31933999e-03f,+3.18722725e-02f,-8.44813585e-02f,
-1.84851632e-01f,-3.45731080e-02f,-4.03200388e-02f,-1.43452346e-01f,+1.95961952e-01f,
-1.14310607e-01f,+1.85130179e-01f,-1.56990170e-01f,-1.64540559e-02f,+1.28530622e-01f,
+1.83398724e-01f,-1.55597299e-01f,+5.39644361e-02f,-2.04150572e-01f,-8.02052021e-02f,
+1.77296460e-01f,-1.99858531e-01f,+4.48878706e-02f,+9.44205821e-02f,+1.10541493e-01f,
+1.28710121e-02f,-1.28786311e-01f,+4.94568646e-02f,+1.15533173e-03f,-3.81501317e-02f,
-1.17790975e-01f,-3.66455019e-02f,-1.23091467e-01f,-2.14938521e-01f,-9.81238037e-02f,
-1.77474946e-01f,-2.11480603e-01f,+1.51525259e-01f,-2.17554554e-01f,+1.50329173e-02f,
-2.68054456e-02f,-3.02125067e-02f,-2.11517438e-01f,-2.11237669e-02f,+8.51606131e-02f,
+1.34690076e-01f,+1.88371122e-01f,-6.47370964e-02f,-1.09699175e-01f,+1.20037705e-01f,
+6.99506998e-02f,-1.23763092e-01f,+1.20253950e-01f,+2.70414650e-02f,-1.68899983e-01f,
+6.92356825e-02f,+1.52029455e-01f,+1.69304609e-02f,+1.84456915e-01f,-5.06347418e-03f,
-9.39491987e-02f,-1.55415028e-01f,+1.88881844e-01f,+9.11960006e-03f,-2.15548038e-01f,
+4.19843197e-03f,-1.02698237e-01f,-1.20971680e-01f,-1.29257798e-01f,-7.13046640e-02f,
-4.33625579e-02f,-1.44701228e-01f,+2.77654231e-02f,-9.55447555e-03f,-1.30866438e-01f,
+1.12259686e-02f,+1.63233876e-01f,-1.70820013e-01f,-1.82160705e-01f,-9.45385098e-02f,
-1.55599803e-01f,+1.25114083e-01f,-6.08278364e-02f,-1.27771467e-01f,-2.01795727e-01f,
-1.78728580e-01f,-1.98927119e-01f,-2.14403704e-01f,+1.63023114e-01f,+7.30263293e-02f,
+1.78446025e-01f,-1.34871930e-01f,+1.30018085e-01f,+4.42185402e-02f,+2.08409607e-01f,
+1.73145950e-01f,+1.66060895e-01f,-5.88365793e-02f,+6.49077594e-02f,+5.02992570e-02f,
+1.63099676e-01f,-1.94101796e-01f,-5.85951805e-02f,+1.30249202e-01f,+6.29051924e-02f,
-3.56051773e-02f,+7.29831457e-02f,-1.73595548e-01f,-1.20985165e-01f,+4.17847335e-02f,
+1.99938983e-01f,-8.13572258e-02f,-1.15351737e-01f,+9.46481228e-02f,-1.20562509e-01f,
-9.62622017e-02f,-1.69653296e-02f,-1.73430324e-01f,-9.42356437e-02f,-8.24979395e-02f,
+1.04801178e-01f,-1.08409554e-01f,-1.17138967e-01f,+2.72309780e-02f,-1.45882726e-01f,
-5.31361848e-02f,-3.25656980e-02f,+1.58092082e-01f,+1.96260780e-01f,+2.04359442e-01f,
+6.87644482e-02f,+4.52829003e-02f,-1.81822971e-01f,-1.37076914e-01f,+5.46216369e-02f,
-1.16260119e-01f,+1.09276354e-01f,+1.80196851e-01f,+1.10991240e-01f,+6.97859526e-02f,
+2.65429914e-02f,+4.32422161e-02f,+1.20538950e-01f,+3.81371677e-02f,-7.04451650e-02f,
-1.90900713e-02f,-2.13709369e-01f,+4.78799939e-02f,-1.76664397e-01f,+9.22167301e-02f,
+9.79650915e-02f,-3.34559381e-03f,-1.55410230e-01f,-1.78755239e-01f,+2.22849965e-01f,
-6.33287579e-02f,+1.36602700e-01f,+1.60531640e-01f,+1.55731857e-01f,+4.88800406e-02f,
+8.76336098e-02f,-4.80134934e-02f,+1.10558927e-01f,+8.69680941e-02f,+8.99426639e-03f,
+1.40911192e-02f,+1.46118969e-01f,+1.72597229e-01f,+1.33019775e-01f,-8.13667625e-02f,
-8.78780335e-02f,+1.67855382e-01f,+1.73295438e-01f,+5.39567769e-02f,-1.91250503e-01f,
+4.07795310e-02f,-1.25137538e-01f,+1.64040923e-01f,+1.44645184e-01f,-1.73753709e-01f,
-8.10621977e-02f,-1.14670679e-01f,-2.02300549e-01f,+2.13342696e-01f,-1.01873502e-01f,
-1.46036118e-01f,-1.55672461e-01f,-1.48327142e-01f,+9.87725556e-02f,-6.09047711e-03f,
+8.39270651e-02f,+1.74353272e-02f,+2.19723135e-01f,-1.04565971e-01f,-1.55886412e-01f,
+3.90791595e-02f,+4.86192107e-02f,-5.05246520e-02f,-6.67948425e-02f,+1.62935317e-01f,
+1.12857103e-01f,-6.62429035e-02f,-1.74063146e-02f,+1.34642690e-01f,-8.51629525e-02f,
-1.00383326e-01f,-1.93107367e-01f,-2.63590664e-02f,-1.11118816e-01f,-1.39762729e-01f,
-1.50182873e-01f,-1.98597282e-01f,+8.82546902e-02f,+1.43739581e-01f,-7.85969943e-02f,
-1.30367756e-01f,+5.85094690e-02f,-8.94825161e-02f,+6.14372492e-02f,+4.33713496e-02f,
+1.63019985e-01f,-1.40159741e-01f,-8.49634409e-04f,+1.84454232e-01f,+6.41057193e-02f,
+4.57915664e-02f,+7.27445185e-02f,+3.93854678e-02f,+1.69037431e-02f,+2.62897015e-02f,
-2.12569982e-02f,-2.15544477e-01f,-2.05717146e-01f,+1.42482430e-01f,+1.50736243e-01f,
+3.91825736e-02f,+5.29550910e-02f,+1.52731031e-01f,-1.25444710e-01f,+1.81443721e-01f,
+1.10532165e-01f,-1.35280132e-01f,+2.16104507e-01f,+9.45031643e-02f,-1.73769608e-01f,
+1.19685262e-01f,-1.75073937e-01f,+6.16294444e-02f,-2.14042455e-01f,-1.94905579e-01f,
+2.63880044e-02f,-1.11125693e-01f,-4.69162315e-02f,-1.50613695e-01f,-1.05621174e-01f,
+1.42849058e-01f,-2.11545318e-01f,-4.91760224e-02f,-3.63443494e-02f,+4.92592752e-02f,
+2.04326123e-01f,+1.83440626e-01f,-1.46382838e-01f,+8.60333741e-02f,-1.56865954e-01f,
+1.24115705e-01f,-2.10002691e-01f,-4.50936407e-02f,-2.00952917e-01f,-4.99542654e-02f,
-9.54355448e-02f,+6.17354214e-02f,-7.35842288e-02f,+6.82373941e-02f,-2.06901744e-01f,
+3.42760682e-02f,+1.17072433e-01f,-6.01572245e-02f,-1.89300999e-01f,-8.33840370e-02f,
+2.01056927e-01f,+2.20122099e-01f,-1.32426023e-02f,+2.14398950e-01f,-2.08626017e-01f,
+4.23157215e-02f,+1.06757641e-01f,-1.72202021e-01f,+4.92860377e-02f,+8.01133513e-02f,
+6.02708459e-02f,-1.05373599e-01f,-2.39584148e-02f,-2.15921491e-01f,-1.24854922e-01f,
+1.97453588e-01f,-9.07980949e-02f,+9.71312821e-03f,-1.68321654e-01f,-1.62037075e-01f,
-1.85514092e-02f,-9.36750174e-02f,+1.02747351e-01f,+1.24788404e-01f,+6.86897635e-02f,
-2.12223932e-01f,-4.34192270e-02f,+4.40089703e-02f,-3.19163501e-03f,+1.67490631e-01f,
-6.73381388e-02f,-1.49672151e-01f,-9.42696035e-02f,-1.32704645e-01f,-1.85101449e-01f,
+3.65180969e-02f,+1.38905108e-01f,-2.01976880e-01f,+1.33402288e-01f,+1.49731100e-01f,
+1.11200333e-01f,+2.02326626e-01f,-1.44259185e-02f,+1.79534823e-01f,+2.01818019e-01f,
-1.12346701e-01f,-1.79155394e-01f,+1.33352637e-01f,+8.68039131e-02f,-2.01174647e-01f,
+2.19812214e-01f,+1.80665880e-01f,+1.75438583e-01f,+2.76503265e-02f,-1.02440476e-01f,
+6.22948706e-02f,-1.75007507e-01f,-1.84529513e-01f,-5.36665320e-02f,+1.02262050e-02f,
-2.12651491e-01f,-1.00044206e-01f,-1.27028406e-01f,-4.58730161e-02f,+1.15519345e-01f,
-1.99559718e-01f,-1.53341889e-02f,-2.39864141e-02f,+2.19315618e-01f,-1.62710086e-01f,
+2.05552667e-01f,-8.93582404e-02f,-3.75825763e-02f,+5.93120754e-02f,+1.74188524e-01f,
-2.04852581e-01f,-1.34106636e-01f,-1.19942226e-01f,-7.78995454e-03f,+1.24692380e-01f,
-4.66941744e-02f,-1.35214299e-01f,-7.05421418e-02f,+1.12519383e-01f,+9.29334462e-02f,
-1.85946435e-01f,+2.00539708e-01f,-7.19371587e-02f,-8.83783698e-02f,-1.24412328e-01f,
-8.99390727e-02f,+7.82045722e-02f,+7.35783577e-02f,-1.06063880e-01f,-2.75165141e-02f,
+1.76639557e-01f,+7.95712769e-02f,-4.47580516e-02f,-1.13642611e-01f,-1.99096352e-02f,
+1.06051832e-01f,-2.19686821e-01f,+6.40586913e-02f,-8.72143507e-02f,+1.73429698e-01f,
-6.67359233e-02f,+1.07268095e-02f,-1.44969493e-01f,+2.07433850e-02f,+5.28742075e-02f,
+1.10575050e-01f,-2.01088488e-01f,-1.64148226e-01f,+2.12827474e-01f,+1.45189047e-01f,
-1.18671581e-01f,+8.90243053e-02f,+1.88811868e-01f,+9.08589661e-02f,+2.10930854e-01f,
+2.70301104e-02f,+1.02363974e-01f,-1.72108829e-01f,-1.50405556e-01f,-3.16796005e-02f,
+9.68638659e-02f,-2.02736318e-01f,-1.13048553e-01f,+8.92955363e-02f,-1.44710660e-01f,
+5.36692142e-02f,-7.80274123e-02f,+1.70473158e-01f,+8.01026821e-02f,-1.33185193e-01f,
-7.71103352e-02f,+9.08313692e-03f,-9.75628495e-02f,-1.20863885e-01f,+1.88036442e-01f,
+1.84025884e-01f,+5.55991530e-02f,+2.18206227e-01f,+1.43999964e-01f,-1.32292211e-02f,
+1.38936341e-01f,-5.78082502e-02f,-1.74493477e-01f,+1.91336274e-01f,-2.34313160e-02f,
-9.89172459e-02f,+1.15232319e-02f,+2.14378655e-01f,+1.05266690e-01f,+7.33151734e-02f,
-1.73038214e-01f,+1.73453957e-01f,+8.98442864e-02f,-1.41265690e-01f,-7.14522749e-02f,
+6.97527528e-02f,-1.76707312e-01f,+2.05021471e-01f,-1.33231997e-01f,-2.06930697e-01f,
+1.47511184e-01f,-3.26484889e-02f,-1.18591562e-01f,-9.21305716e-02f,-5.28904796e-02f,
-4.96228039e-03f,-3.42662930e-02f,-1.23221874e-01f,+9.82514024e-03f,+3.65146697e-02f,
-1.71090245e-01f,-9.23821032e-02f,+3.74063849e-03f,+2.13751048e-01f,-1.04319833e-01f,
-1.92413449e-01f,+1.22532398e-02f,+1.42206490e-01f,-2.15375364e-01f,+1.20997161e-01f,
+6.93008304e-03f,+1.63682133e-01f,-4.47998494e-02f,-1.71377704e-01f,-1.25025734e-01f,
-1.02878436e-01f,+5.11085093e-02f,-1.43904597e-01f,+1.18901461e-01f,-2.22398475e-01f,
-1.16336092e-01f,-7.86874741e-02f,-3.95753235e-02f,+1.67185038e-01f,+3.57553363e-03f,
+1.91961437e-01f,+1.75085038e-01f,-1.26097351e-01f,+1.27379149e-01f,+1.23185724e-01f,
+2.07530081e-01f,-4.97764647e-02f,+1.26332104e-01f,-2.99822539e-02f,-3.42177898e-02f,
-1.24510229e-02f,+2.21322477e-01f,+1.49420947e-01f,-6.50239140e-02f,+1.78279430e-01f,
-1.31117642e-01f,-1.86389089e-01f,-4.17837650e-02f,-1.67303234e-01f,-1.83570534e-01f,
+1.41840726e-01f,-2.20709592e-02f,-1.71531826e-01f,+5.95624149e-02f,-1.46027848e-01f,
-5.46698719e-02f,+1.63075894e-01f,-2.48699486e-02f,-9.82897133e-02f,+1.89200610e-01f,
+6.62379861e-02f,-2.76421756e-02f,+1.75884217e-01f,-1.26787335e-01f,-1.06891334e-01f,
-1.67294323e-01f,-1.52068257e-01f,+1.53600872e-01f,+1.05540395e-01f,-1.64680228e-01f,
-1.37429208e-01f,+6.69592619e-02f,+1.31098121e-01f,+1.29161298e-01f,-6.18317723e-03f,
-1.66188747e-01f,-1.31606013e-02f,-5.02522737e-02f,+3.93435061e-02f,+1.74529195e-01f,
-1.44084677e-01f,+4.64063883e-02f,-1.96454287e-01f,+1.75158381e-01f,-2.13594794e-01f,
-2.68805027e-03f,+3.20729911e-02f,+7.63881207e-03f,-6.68995380e-02f,+3.97372842e-02f,
-3.84454280e-02f,+1.70297235e-01f,+1.31980032e-01f,-1.20881796e-02f,+1.89335763e-01f,
+1.90251708e-01f,+2.11458743e-01f,+1.83133543e-01f,-8.62050503e-02f,-1.82992473e-01f,
-2.21602529e-01f,+1.08580530e-01f,+2.76143551e-02f,+1.80470973e-01f,+2.10444421e-01f,
-1.88872784e-01f,+1.75984621e-01f,-4.55844402e-02f,+6.09624982e-02f,+1.16118193e-01f,
-6.48857355e-02f,+1.83701158e-01f,+1.44605368e-01f,-2.15882316e-01f,+1.97315127e-01f,
-1.57990634e-01f,-4.35266495e-02f,+1.79965675e-01f,+4.87400889e-02f,+6.30471110e-02f,
+5.33472002e-02f,-1.71665162e-01f,+5.79816699e-02f,-1.58064961e-01f,-5.85198551e-02f,
}; 
k2c_tensor dense_1_kernel = {&dense_1_kernel_array[0],2,3600,{60,60, 1, 1, 1}}; 
float dense_1_bias_array[60] = {0}; 
k2c_tensor dense_1_bias = {&dense_1_bias_array[0],1,60,{60, 1, 1, 1, 1}}; 
float dense_1_fwork[3660] = {0}; 

 
float dense_2_output_array[60] = {0}; 
k2c_tensor dense_2_output = {&dense_2_output_array[0],1,60,{60, 1, 1, 1, 1}}; 
float dense_2_kernel_array[3600] = {
-3.59051675e-02f,-2.19151825e-02f,-1.36881590e-01f,+1.81395411e-01f,-1.66426137e-01f,
+1.59614086e-01f,+5.91783226e-02f,+2.14587212e-01f,+7.50078857e-02f,+6.40478730e-02f,
-9.75246876e-02f,+8.35676491e-03f,+1.96182072e-01f,+2.09271610e-01f,+7.59230256e-02f,
+4.53058183e-02f,-2.09960148e-01f,-2.08200693e-01f,-2.13454157e-01f,-1.66948542e-01f,
-1.16298348e-01f,+6.72951639e-02f,-1.45269960e-01f,+1.92840070e-01f,+1.30862445e-01f,
+1.53432399e-01f,+1.99486941e-01f,-4.77567911e-02f,+1.74612314e-01f,+1.56549931e-01f,
+3.80689800e-02f,+1.20256394e-02f,+5.97723126e-02f,-2.21646875e-02f,+1.66252941e-01f,
+1.32002354e-01f,-2.13693962e-01f,-1.87220648e-01f,-2.21324399e-01f,-1.15755953e-01f,
-9.68765169e-02f,+3.26710939e-02f,-1.95119843e-01f,-1.60080194e-01f,-6.53002411e-02f,
+5.57686985e-02f,+1.67460829e-01f,-2.10549772e-01f,-2.19559774e-01f,-2.54993439e-02f,
-1.48516342e-01f,+2.13573784e-01f,+1.84321225e-01f,+2.48958617e-02f,+1.47112161e-01f,
-5.34091443e-02f,-8.14431906e-03f,+1.97687656e-01f,-3.86943966e-02f,-2.17292845e-01f,
-9.34880078e-02f,-1.03325829e-01f,-7.14519620e-03f,-8.22470039e-02f,-3.20735574e-03f,
-6.76481426e-03f,-2.17657179e-01f,-1.43840611e-02f,-1.13749124e-01f,-7.77710378e-02f,
+2.08255053e-01f,+4.57957685e-02f,-1.31063372e-01f,-1.61513865e-01f,+1.70870394e-01f,
+1.09185725e-01f,+1.95069879e-01f,+7.64366984e-02f,-8.43778849e-02f,-1.00994170e-01f,
-5.31607121e-02f,+2.19635159e-01f,+8.68967772e-02f,+1.24405771e-01f,-9.98338386e-02f,
-1.84684068e-01f,-6.64797574e-02f,+5.95950484e-02f,-2.02152714e-01f,-8.08919668e-02f,
-9.37268436e-02f,+1.86581373e-01f,-1.32323191e-01f,-7.84518868e-02f,+2.24545896e-02f,
-2.30916142e-02f,+3.39213014e-02f,-6.96574301e-02f,+1.30418241e-01f,+4.91401255e-02f,
+4.37302589e-02f,-1.62399381e-01f,+1.68747067e-01f,+1.87360227e-01f,+2.12946206e-01f,
-2.99610347e-02f,+2.18361586e-01f,-2.19974965e-01f,+1.30965114e-01f,+1.42199457e-01f,
-1.09304667e-01f,+1.86291784e-01f,-7.52128065e-02f,-4.01418656e-02f,-1.49908960e-01f,
-7.88510889e-02f,+1.00064516e-01f,-1.93434268e-01f,-1.22144811e-01f,-1.12602331e-01f,
+1.39237881e-01f,-4.06952947e-02f,-1.33376688e-01f,+1.85415894e-01f,+2.03872621e-02f,
+1.56319290e-01f,-9.62746143e-03f,-1.86175898e-01f,-2.53845751e-02f,-1.10942945e-01f,
-8.69819075e-02f,-1.82906210e-01f,+1.07681423e-01f,-2.19210103e-01f,-2.07067803e-01f,
+2.76947320e-02f,+1.04957163e-01f,+4.38186228e-02f,+2.16978878e-01f,+8.35665762e-02f,
+1.07203901e-01f,+2.03428745e-01f,+9.31499004e-02f,-8.33518356e-02f,-1.04183353e-01f,
+2.22158134e-02f,+1.56471670e-01f,-9.61031169e-02f,-1.42414153e-01f,+1.11702114e-01f,
-1.52659699e-01f,-1.69792533e-01f,+1.53833270e-01f,-1.00269765e-02f,+7.24829733e-03f,
-1.30855888e-02f,+6.76063597e-02f,+5.36334813e-02f,+5.35414219e-02f,-4.89148945e-02f,
-2.20733583e-02f,-1.39534384e-01f,+2.76742578e-02f,+1.55333251e-01f,-1.32138252e-01f,
+4.43199277e-02f,+6.89632893e-02f,-6.00049049e-02f,+8.73949826e-02f,-2.11380854e-01f,
-6.67717010e-02f,-6.93587661e-02f,-1.26779109e-01f,+1.96838677e-02f,-4.41493094e-03f,
+1.32666945e-01f,+2.41193175e-02f,-8.00316781e-02f,+2.14762092e-02f,-2.22735628e-01f,
+1.56969547e-01f,-4.25997078e-02f,-1.83397591e-01f,-1.50594875e-01f,-1.82000935e-01f,
-2.05336824e-01f,+1.68665022e-01f,-5.85258156e-02f,-4.08598185e-02f,-3.12149376e-02f,
-1.71637505e-01f,-2.12057337e-01f,-4.93200123e-02f,+1.59092218e-01f,-6.86408579e-03f,
+2.43863612e-02f,-7.37817585e-03f,+2.13145852e-01f,-1.88972384e-01f,+4.65252399e-02f,
+4.73763049e-02f,-1.97039768e-01f,+9.19905603e-02f,-1.36935741e-01f,-1.42335892e-04f,
-1.00236662e-01f,+1.95685863e-01f,+1.41424775e-01f,-4.74397540e-02f,+8.21341872e-02f,
+7.47859478e-02f,-2.20115662e-01f,+1.85456246e-01f,+6.89006150e-02f,+1.92559898e-01f,
+1.43523127e-01f,-1.95385069e-01f,-1.98860750e-01f,+1.33688301e-01f,-6.10443950e-02f,
+1.93133861e-01f,-3.71008962e-02f,-2.72508562e-02f,-1.49202734e-01f,+8.36653709e-02f,
+1.39700443e-01f,-1.95432514e-01f,-1.41195863e-01f,-1.09826803e-01f,+1.86101466e-01f,
+1.27151608e-01f,+1.59332663e-01f,+7.31767118e-02f,-1.37052074e-01f,+1.01153523e-01f,
+1.67381227e-01f,-4.34982777e-03f,+1.70784712e-01f,-1.56303793e-01f,-8.30875784e-02f,
-3.27816159e-02f,+1.39862031e-01f,+1.99098825e-01f,+1.02587610e-01f,+8.02309513e-02f,
+1.06366098e-01f,-1.59536421e-01f,+3.35822403e-02f,-1.33184403e-01f,+5.15001118e-02f,
-1.99373707e-01f,-1.79125220e-02f,+2.03996241e-01f,-1.63822919e-01f,-1.28442407e-01f,
-7.27713108e-04f,-1.53605729e-01f,-1.63178265e-01f,+1.04046166e-01f,-4.59362417e-02f,
-1.75066292e-03f,-2.02574253e-01f,+1.73090994e-01f,+1.37957513e-01f,+2.07135290e-01f,
+7.79962838e-02f,-1.33715808e-01f,-9.54046696e-02f,+2.04188704e-01f,-2.09347010e-01f,
+1.63520783e-01f,+5.04358113e-03f,-9.94482860e-02f,+9.40655768e-02f,-1.54933512e-01f,
+9.26156640e-02f,+2.84546018e-02f,+1.69300139e-01f,-1.84266895e-01f,-6.39615655e-02f,
-1.70616508e-02f,+1.88238323e-02f,+2.06392497e-01f,+6.23212755e-02f,-1.26193315e-02f,
-2.28287876e-02f,-7.29948282e-04f,-2.20018625e-01f,-1.49731159e-01f,-6.64349198e-02f,
+1.96907818e-01f,-1.98487774e-01f,-1.14942037e-01f,-1.77839816e-01f,+3.45251262e-02f,
+2.10401684e-01f,+8.73470008e-02f,+1.62934482e-01f,-1.04905941e-01f,-4.66427356e-02f,
+5.92240393e-02f,-3.17589790e-02f,-3.00943851e-04f,-1.40395015e-02f,-2.21333951e-01f,
+8.23310316e-02f,+7.29081333e-02f,-7.58363456e-02f,+1.14729106e-02f,+1.86969668e-01f,
-1.50067508e-01f,-2.20638171e-01f,-8.03599209e-02f,+1.15902394e-01f,-1.57801375e-01f,
+1.25633508e-01f,+1.89987481e-01f,-2.08958417e-01f,-2.15906247e-01f,+7.68125355e-02f,
-2.47904658e-02f,-1.83483481e-01f,+1.41728222e-01f,+2.93593109e-02f,+1.99631602e-02f,
-5.79168946e-02f,-8.22952539e-02f,+1.96100235e-01f,-1.61853299e-01f,-2.20063791e-01f,
-1.55794069e-01f,-1.31955653e-01f,-1.71374083e-01f,-1.38657689e-02f,+1.76005363e-01f,
+8.80419016e-02f,-2.18829513e-03f,+1.08956754e-01f,-1.44286186e-01f,-2.15336829e-02f,
-6.89555258e-02f,-2.07413062e-01f,-1.55479223e-01f,-1.97447971e-01f,+2.15133488e-01f,
+5.38513064e-02f,-1.58298880e-01f,+2.49213427e-02f,+4.30062413e-03f,-1.31968454e-01f,
+7.92254508e-03f,-1.35142058e-01f,-2.14869916e-01f,-1.55813158e-01f,+1.25062138e-01f,
+1.31045580e-01f,+9.35061276e-02f,-9.23094898e-02f,-1.08201101e-01f,-1.76321492e-01f,
-1.96109518e-01f,-1.86874449e-01f,+4.55680192e-02f,-1.11691356e-02f,+2.10039526e-01f,
-1.21813156e-01f,+2.52950042e-02f,-1.16319619e-01f,+1.82999939e-01f,-2.23142654e-01f,
+1.10130578e-01f,+1.71302706e-02f,+1.81082577e-01f,-6.96064532e-02f,+1.17595524e-01f,
+8.88949633e-02f,-2.14681298e-01f,+2.55807638e-02f,-7.12867975e-02f,-1.03933692e-01f,
+1.12271249e-01f,-1.41956091e-01f,-2.06293344e-01f,-1.86678946e-01f,+7.33357370e-02f,
+8.05112720e-02f,+2.13540941e-01f,+2.00358540e-01f,-2.10305452e-01f,-1.20935000e-01f,
-1.93864107e-03f,+1.32396877e-01f,-1.46751881e-01f,-8.09794515e-02f,-1.81431442e-01f,
-1.12098373e-01f,+1.56533152e-01f,-1.44533783e-01f,-1.60807490e-01f,+1.69719160e-01f,
+5.11077344e-02f,+1.52448207e-01f,+1.86905950e-01f,+3.36312950e-02f,-1.34945452e-01f,
+1.47576243e-01f,-1.26545399e-01f,-3.81678343e-02f,-3.41623873e-02f,-5.15914261e-02f,
-1.28079876e-01f,-1.67227790e-01f,-7.91838020e-02f,-8.05456042e-02f,+6.47031963e-02f,
+2.10190386e-01f,-1.96465492e-01f,+1.77013904e-01f,-2.19413429e-01f,+1.21618032e-01f,
+8.11532438e-02f,-1.30334049e-02f,+2.21726418e-01f,-6.55499995e-02f,-1.81011081e-01f,
+3.56190503e-02f,+4.90465760e-02f,-1.45889446e-01f,+4.96132672e-03f,-1.94097906e-01f,
-9.10181105e-02f,-1.49564147e-02f,+1.36127651e-01f,+3.70515883e-02f,+1.62261575e-02f,
+4.85919714e-02f,+6.09708726e-02f,-6.20411634e-02f,+8.57766867e-02f,-1.03317775e-01f,
+5.76494932e-02f,+1.13681644e-01f,+6.62772954e-02f,-1.54633418e-01f,+1.25342190e-01f,
+2.08158135e-01f,+1.39901072e-01f,+1.30364358e-01f,+1.70090437e-01f,-8.10666233e-02f,
+8.37461948e-02f,+1.45784110e-01f,-3.83951068e-02f,-1.83494687e-02f,-1.80613965e-01f,
-2.16905162e-01f,+6.82420433e-02f,+3.28151882e-02f,+2.03005701e-01f,+5.46142757e-02f,
-3.42295617e-02f,+9.03958082e-03f,+1.20009243e-01f,-1.24934629e-01f,-1.21644959e-01f,
+3.28449309e-02f,-7.31697828e-02f,-1.91000521e-01f,-8.87101293e-02f,+6.31743073e-02f,
-9.51382220e-02f,-4.80604023e-02f,+3.82788181e-02f,+4.30515409e-02f,-1.86836809e-01f,
-1.89891636e-01f,+5.41712344e-02f,+1.84543967e-01f,-1.09472699e-01f,+1.27790779e-01f,
+1.59991920e-01f,-2.03184187e-01f,+5.09477854e-02f,-2.03325734e-01f,-4.92497385e-02f,
-4.63044196e-02f,+1.76728904e-01f,+5.77763617e-02f,-1.32570088e-01f,-3.09721529e-02f,
+1.98328167e-01f,-1.84286565e-01f,-5.77963591e-02f,-1.64018124e-02f,+1.11040354e-01f,
+1.73453689e-01f,-1.68561980e-01f,-5.00982553e-02f,+2.15622246e-01f,+5.88192046e-02f,
-1.44050658e-01f,+2.19609618e-01f,+2.42102146e-02f,+1.94057703e-01f,+1.95438594e-01f,
-6.69712424e-02f,-7.29182065e-02f,+1.79929435e-01f,+1.09852672e-01f,+1.50806457e-01f,
-1.19753607e-01f,+2.03092277e-01f,+1.42702907e-02f,-2.22358927e-01f,+1.56864166e-01f,
-5.74165583e-03f,-1.13903627e-01f,-2.32839137e-02f,+5.12296855e-02f,+1.25116259e-01f,
-3.19845974e-02f,+2.04053432e-01f,-1.50649190e-01f,-1.81194961e-01f,+1.84619427e-03f,
-1.26725644e-01f,+1.45581454e-01f,-1.71614841e-01f,-1.14585593e-01f,+1.98981375e-01f,
+1.08893216e-01f,-2.12513357e-01f,-2.13320509e-01f,+3.02337706e-02f,-1.66976377e-01f,
+3.80816758e-02f,-2.22626179e-02f,+9.31548476e-02f,+1.15179598e-01f,+1.06037050e-01f,
+4.28153574e-02f,+7.63667822e-02f,+8.23110342e-02f,+2.19582051e-01f,+1.46341860e-01f,
-2.00111598e-01f,-2.30624527e-02f,+6.96139336e-02f,-3.94104421e-03f,+1.64196312e-01f,
-2.68989503e-02f,+1.76996261e-01f,-8.69815946e-02f,+2.87766457e-02f,-1.47090882e-01f,
+1.96437061e-01f,+4.07869816e-02f,-2.23032981e-02f,-2.07892805e-02f,-8.39187056e-02f,
+1.48037076e-01f,+1.56254202e-01f,+4.47216928e-02f,+4.43433225e-03f,+5.68070412e-02f,
+1.96722656e-01f,+4.46914136e-02f,+1.69770509e-01f,-1.98015064e-01f,-1.70389682e-01f,
-1.59371629e-01f,+9.62133110e-02f,+8.04798603e-02f,-9.79341120e-02f,-9.14516896e-02f,
+1.85478836e-01f,-3.83052677e-02f,+1.99968666e-01f,+1.78058833e-01f,-1.70368776e-01f,
+7.13401735e-02f,-1.14311352e-01f,+1.48236990e-01f,-1.65337667e-01f,-3.70738655e-02f,
-5.68257570e-02f,-1.98857546e-01f,-1.73749074e-01f,-1.05744168e-01f,+8.82826149e-02f,
+9.88729894e-02f,-1.98069543e-01f,-1.95139825e-01f,-2.44191438e-02f,-1.25409693e-01f,
+1.36936754e-01f,-9.79174376e-02f,+2.02506900e-01f,-2.20571160e-01f,+6.64305091e-02f,
+1.89425945e-01f,+2.14164436e-01f,+8.22235346e-02f,+1.03680819e-01f,-1.50441229e-02f,
-2.17735216e-01f,-5.46704084e-02f,-6.40127957e-02f,+1.10769302e-01f,-1.19739316e-01f,
-1.70233682e-01f,-1.60526961e-01f,+4.68177497e-02f,+1.55908853e-01f,+7.64542818e-02f,
-1.59461468e-01f,+1.83296621e-01f,+9.01385546e-02f,-5.89356869e-02f,-1.70407325e-01f,
-3.00162584e-02f,-1.42700434e-01f,-1.00252390e-01f,-1.42926425e-01f,-6.65667206e-02f,
-2.22094178e-01f,-1.46037072e-01f,+8.68279040e-02f,-1.11573249e-01f,+1.04897141e-01f,
-2.16658160e-01f,+1.03448033e-01f,-1.73239946e-01f,-1.30947798e-01f,+8.25226903e-02f,
+1.71247095e-01f,-1.53742522e-01f,+7.86423683e-02f,-1.76300004e-01f,-4.55166847e-02f,
+1.55584604e-01f,+5.35712242e-02f,+1.33710623e-01f,-1.59489557e-01f,-9.19113010e-02f,
+6.40424490e-02f,-4.34165597e-02f,+6.38439655e-02f,-3.99097800e-04f,-1.88835740e-01f,
+1.47513211e-01f,-5.69638908e-02f,+1.41410083e-02f,+1.40557915e-01f,-1.76758170e-01f,
-1.92534149e-01f,+1.61438763e-01f,-1.87286228e-01f,+1.00634575e-01f,-1.64694190e-02f,
+1.63124740e-01f,+1.66735023e-01f,-1.55587763e-01f,-1.71683401e-01f,-1.88895449e-01f,
+2.08742917e-01f,+1.85941160e-02f,+8.89170170e-02f,-1.08210593e-01f,+1.21090680e-01f,
-1.19905621e-02f,-1.70097739e-01f,-2.17954278e-01f,-1.52454972e-01f,-2.01372206e-02f,
-1.43637598e-01f,-6.95068240e-02f,+1.12621218e-01f,-1.35103315e-02f,-2.00778246e-04f,
-1.23624481e-01f,+1.69919103e-01f,+1.19393051e-01f,+8.23401809e-02f,+8.40877593e-02f,
+2.78352201e-02f,-1.82630867e-01f,-8.43741000e-02f,-1.27737671e-02f,-1.25251725e-01f,
-1.65098727e-01f,+1.05309635e-01f,+5.45604825e-02f,+1.45876110e-01f,+3.74315381e-02f,
+2.05339223e-01f,+1.97947025e-03f,-1.94190770e-01f,-3.87428701e-03f,+1.92437708e-01f,
-2.13332400e-01f,-4.47681248e-02f,+1.41906768e-01f,-1.43288523e-01f,-1.44498959e-01f,
+1.15710407e-01f,-1.27066791e-01f,+6.30838275e-02f,+7.95181692e-02f,+1.75927669e-01f,
-1.85060292e-01f,-1.94091082e-01f,+1.55669868e-01f,-8.71422738e-02f,-8.21490735e-02f,
+5.70607483e-02f,+3.26189995e-02f,+9.98246670e-03f,+1.31993026e-01f,+4.57175672e-02f,
+2.07775265e-01f,-1.28360093e-01f,-1.21994525e-01f,-9.72962379e-02f,-2.22772628e-01f,
-2.11990744e-01f,+3.21955979e-02f,-7.08897263e-02f,+5.00813127e-03f,+7.57408142e-02f,
+1.98649198e-01f,-1.02898322e-01f,-1.51331425e-01f,-1.82940662e-01f,-1.42797410e-01f,
+4.98452485e-02f,-1.65336654e-01f,-1.16906211e-01f,+1.63465977e-01f,-5.05345613e-02f,
-5.64753413e-02f,+6.19233847e-02f,+8.95299017e-02f,-1.20885044e-01f,+1.08280331e-01f,
+2.29306221e-02f,+3.83383334e-02f,+2.01480985e-01f,-1.55860394e-01f,+5.09813130e-02f,
-1.78938046e-01f,+2.20439196e-01f,-1.23158909e-01f,+1.76695138e-02f,-8.17468762e-02f,
+1.35923147e-01f,-1.68113261e-01f,+1.34582967e-02f,+1.52478486e-01f,-1.86359987e-01f,
+1.97151303e-01f,+1.50191039e-01f,-1.77214354e-01f,-4.04920280e-02f,+1.77679449e-01f,
+7.19419122e-02f,+9.12510753e-02f,+1.79917276e-01f,-5.77315241e-02f,+2.11989194e-01f,
+1.17639571e-01f,-1.85926288e-01f,+1.63909167e-01f,+2.09054202e-01f,+2.54027545e-02f,
+1.32004499e-01f,-1.66169822e-01f,-4.53887880e-02f,-2.18958199e-01f,-3.74937505e-02f,
+1.24655873e-01f,+1.65472060e-01f,+1.54256672e-01f,+2.13372439e-01f,+1.87462062e-01f,
+2.10514218e-01f,-1.70152783e-02f,-1.75192446e-01f,+1.61354452e-01f,+1.36369735e-01f,
-1.58872306e-01f,+7.27566779e-02f,+1.03759885e-01f,-1.69554919e-01f,-2.96641439e-02f,
+2.99461484e-02f,+3.87826264e-02f,+5.52490056e-02f,+1.28006339e-02f,-1.21220380e-01f,
-5.58741391e-03f,-1.05127186e-01f,-1.00904346e-01f,+9.32685137e-02f,-6.20132238e-02f,
-1.92873165e-01f,+5.10463119e-03f,-5.97356260e-02f,+2.11188734e-01f,+1.77629381e-01f,
+8.12051892e-02f,+1.22815460e-01f,-7.21202791e-02f,-1.37025625e-01f,+7.91370869e-04f,
-2.14408770e-01f,+1.80868477e-01f,+1.29590005e-01f,+4.40374911e-02f,+1.78755760e-01f,
-1.65719166e-01f,-1.92411378e-01f,+1.22586936e-01f,+1.62832439e-02f,+2.05814004e-01f,
+1.09571874e-01f,+1.19999588e-01f,+1.36327624e-01f,-1.79786935e-01f,+6.58816099e-02f,
-1.53459758e-02f,-6.29593581e-02f,-4.94328737e-02f,+1.24739140e-01f,+1.73981994e-01f,
+7.81188309e-02f,-1.02690771e-01f,-1.90620512e-01f,-2.17550397e-01f,+8.69526565e-02f,
-1.43762559e-01f,+1.56607836e-01f,-1.16405822e-01f,-6.09615892e-02f,-2.04784036e-01f,
+1.63426846e-02f,+2.12565571e-01f,-1.39042482e-01f,+1.80863738e-01f,+1.00430548e-01f,
+8.21879804e-02f,-1.81436718e-01f,+2.05872864e-01f,+5.91154099e-02f,-1.55764103e-01f,
-4.01642621e-02f,-1.70823365e-01f,-1.05176769e-01f,+6.80479407e-02f,+7.05501735e-02f,
-9.49604809e-02f,-1.94758922e-01f,+2.09994912e-02f,+9.44149792e-02f,+3.65134478e-02f,
-7.27055371e-02f,-1.15782768e-01f,-2.03503743e-01f,-1.81502253e-01f,+1.45969838e-02f,
+7.96031654e-02f,-1.20025128e-02f,+1.50790781e-01f,+1.34044945e-01f,-1.95149004e-01f,
+7.32796490e-02f,-8.62329304e-02f,+4.16570902e-02f,-6.40750676e-02f,-9.41793025e-02f,
-1.18235439e-01f,+1.82672232e-01f,-1.15029946e-01f,-1.53759271e-01f,-1.71750203e-01f,
+1.74013495e-01f,-7.70538300e-02f,+4.31127846e-02f,+1.90918952e-01f,+3.72856855e-04f,
-8.89896452e-02f,+2.54457742e-02f,+1.27380908e-01f,+1.68196887e-01f,-1.98956966e-01f,
-9.09691751e-02f,-1.00788072e-01f,-1.28687844e-01f,-1.13901116e-01f,+8.06227326e-03f,
+7.42202401e-02f,+6.36185706e-02f,+1.09822482e-01f,-1.91303134e-01f,-1.48191139e-01f,
-2.03511208e-01f,+2.00039685e-01f,+2.20433086e-01f,-7.05125034e-02f,+1.97616220e-01f,
+5.80735803e-02f,-9.20894146e-02f,-7.61199594e-02f,+9.01981592e-02f,+1.14076465e-01f,
+1.54138207e-01f,+2.90064216e-02f,+6.06707931e-02f,-1.53832823e-01f,-7.08400458e-02f,
-1.31464273e-01f,+2.29537487e-02f,-4.69750762e-02f,+1.71911955e-01f,+1.52748823e-01f,
-1.54410303e-02f,-1.22178338e-01f,-1.22058712e-01f,+4.37068343e-02f,-9.06964242e-02f,
-8.22156072e-02f,+5.16631901e-02f,-1.02140859e-01f,+1.20510906e-01f,+1.10700279e-01f,
-3.99765372e-03f,+6.96962476e-02f,+1.59845352e-02f,-7.71493614e-02f,-2.53616422e-02f,
-1.06620669e-01f,+1.56507760e-01f,+1.15110248e-01f,+1.02238625e-01f,+6.04507625e-02f,
-1.93417907e-01f,-1.66487098e-02f,+2.22459882e-01f,+5.14466166e-02f,+6.29920959e-02f,
-1.10593587e-02f,-1.34966075e-01f,+2.10441977e-01f,+1.41452551e-01f,+1.35098249e-01f,
-1.83245867e-01f,+1.46254539e-01f,+1.16645664e-01f,-2.08527386e-01f,+1.13928944e-01f,
-5.76546043e-02f,+7.86571205e-03f,-2.88284123e-02f,-1.53178051e-01f,+1.58078611e-01f,
-2.06090018e-01f,-2.10468054e-01f,+5.74612916e-02f,-2.12363824e-01f,-1.38803482e-01f,
+1.21892124e-01f,-8.38046670e-02f,+1.13668263e-01f,-5.95763326e-04f,-2.00171635e-01f,
-9.68388170e-02f,+2.13883579e-01f,-6.34304285e-02f,-1.48317009e-01f,-1.59183919e-01f,
+6.84511364e-02f,-7.79764950e-02f,+2.87050605e-02f,+2.01894462e-01f,+1.97561592e-01f,
-3.19211483e-02f,+2.93225050e-02f,+8.55823159e-02f,-2.87500024e-02f,+2.00906128e-01f,
-2.42953449e-02f,-9.39623117e-02f,+1.25102729e-01f,-7.78103173e-02f,+6.93180263e-02f,
-1.94701284e-01f,+1.23983741e-01f,+1.92716360e-01f,-1.12250365e-01f,+1.48930848e-02f,
+8.22626054e-03f,+6.24572039e-02f,+1.84303373e-01f,+2.01485187e-01f,-2.09200293e-01f,
+1.51159823e-01f,-1.10550247e-01f,-2.08242059e-01f,+1.26645297e-01f,-1.92523807e-01f,
-1.76321283e-01f,+1.88497573e-01f,-1.39662594e-01f,+2.12808549e-01f,-9.84107256e-02f,
+7.78230131e-02f,+1.13338083e-01f,-2.05554068e-02f,-1.23893976e-01f,+1.58102095e-01f,
-3.92800719e-02f,-1.43051267e-01f,+6.02925718e-02f,+1.97854280e-01f,+1.84963346e-02f,
-5.76492697e-02f,+1.53023601e-01f,+8.79231989e-02f,-1.17653646e-01f,+8.86321962e-02f,
+7.68910050e-02f,-7.88561404e-02f,+1.41401649e-01f,+1.09038860e-01f,-6.19420558e-02f,
-1.44678742e-01f,+6.59843385e-02f,-1.79054737e-01f,+1.54390275e-01f,-2.23439828e-01f,
-1.69903785e-01f,-7.82866627e-02f,-1.10129774e-01f,+1.08728141e-01f,+9.63373780e-02f,
-5.74017912e-02f,-6.90127760e-02f,-1.47038221e-01f,+1.66863829e-01f,+1.26523972e-01f,
-2.15181947e-01f,-8.03886354e-03f,-1.64269805e-02f,-1.18925512e-01f,+1.82369262e-01f,
-1.34069428e-01f,+2.15380073e-01f,+6.57607317e-02f,+1.91169381e-01f,+1.07679933e-01f,
-1.13867156e-01f,+8.59360397e-02f,-1.19224213e-01f,-1.01057827e-01f,+1.43242180e-01f,
+1.65917754e-01f,+2.03774989e-01f,-8.31122547e-02f,-4.71171737e-03f,+7.97894299e-02f,
-1.99127629e-01f,+8.20573866e-02f,+1.94799483e-01f,-5.86265773e-02f,-1.64613634e-01f,
-6.19426370e-02f,+1.77225888e-01f,+1.88318074e-01f,-3.46976519e-02f,-7.18033314e-03f,
+1.13019884e-01f,-1.56902641e-01f,-2.44912207e-02f,-1.26113355e-01f,-6.94980770e-02f,
-2.85598338e-02f,+3.76600325e-02f,-6.83782548e-02f,-1.79243147e-01f,+1.90792978e-02f,
-1.64261028e-01f,-1.00642473e-01f,-1.67019337e-01f,+1.33737564e-01f,+8.23400915e-02f,
+1.21520638e-01f,+1.64099187e-02f,+5.46020567e-02f,-1.23939343e-01f,+2.39248574e-03f,
+1.76081955e-01f,-1.57891363e-01f,+9.52289104e-02f,+1.43326223e-02f,-6.58535957e-03f,
-7.60317892e-02f,-2.11616173e-01f,+1.61431432e-01f,+3.70379984e-02f,+6.48461878e-02f,
+1.95328116e-01f,-1.34498686e-01f,+5.13683558e-02f,-6.29784912e-02f,+1.34581923e-01f,
+6.48414791e-02f,+3.30627263e-02f,-1.36012703e-01f,+1.62311047e-01f,+2.10364908e-02f,
-1.50377199e-01f,+1.69356555e-01f,+5.18216193e-02f,+1.04876459e-01f,+1.86434180e-01f,
-1.95452824e-01f,-1.26444474e-01f,+8.91080499e-02f,+1.87357247e-01f,+9.07191932e-02f,
+2.29613781e-02f,-1.99714959e-01f,+2.04877555e-03f,-2.02478662e-01f,+1.94580972e-01f,
+1.75691992e-01f,-4.30968404e-03f,+1.39410764e-01f,-2.99647599e-02f,-1.39031231e-01f,
-8.83568227e-02f,-2.11531624e-01f,+1.03085220e-01f,+3.00388038e-02f,-1.10882699e-01f,
+1.28917396e-01f,-1.56317919e-01f,+1.92067355e-01f,-1.92425296e-01f,+4.33921814e-05f,
-1.08381994e-01f,-5.16044348e-02f,-8.20607841e-02f,+1.84083134e-01f,-7.61067867e-02f,
-1.36725962e-01f,-1.73146173e-01f,-1.31276250e-01f,+8.22971761e-02f,-9.96926129e-02f,
-6.13260865e-02f,-8.74794722e-02f,+1.75156951e-01f,+2.19995558e-01f,-1.28284752e-01f,
+6.33027852e-02f,-2.02311903e-01f,-1.18997693e-02f,+2.07584202e-01f,-7.32986927e-02f,
+1.78722829e-01f,-1.66305974e-01f,+1.18273556e-01f,-1.95581153e-01f,+1.56179667e-02f,
+1.07527673e-02f,-8.87228549e-03f,+1.89774662e-01f,-1.65901706e-01f,-3.74418795e-02f,
+4.29098904e-02f,+6.30628765e-02f,+9.88274813e-02f,+1.96718127e-01f,-2.33911723e-02f,
-1.60046771e-01f,+2.08378643e-01f,+6.32537901e-02f,-7.56423920e-02f,+1.53353810e-01f,
+1.63074374e-01f,-7.67428577e-02f,+2.17471659e-01f,+1.50062829e-01f,-1.20920926e-01f,
+7.08954036e-03f,+1.55938119e-02f,+1.83394551e-01f,+3.05495858e-02f,+3.61824334e-02f,
+2.12123930e-01f,+2.11118340e-01f,-6.16672933e-02f,+2.14855790e-01f,-3.56706381e-02f,
+6.44460022e-02f,+1.79465771e-01f,-1.34290829e-01f,-2.14602605e-01f,-5.08368462e-02f,
-1.75569206e-02f,+2.12001830e-01f,-1.30427092e-01f,+2.19813794e-01f,+9.19339955e-02f,
-1.94571525e-01f,+1.10856414e-01f,+6.68564439e-03f,-1.89410076e-01f,+2.14693189e-01f,
-1.62779495e-01f,+1.09360278e-01f,+1.38084769e-01f,+1.16434604e-01f,+2.09290504e-01f,
+1.90260887e-01f,-2.08104461e-01f,+1.15773320e-01f,-1.85208872e-01f,+8.26859176e-02f,
+4.04462218e-03f,+1.75998747e-01f,-4.22193259e-02f,+5.63270152e-02f,-6.09690547e-02f,
-3.07969600e-02f,-2.22508892e-01f,+8.97496939e-03f,-1.03236638e-01f,-4.42185253e-02f,
-1.85205251e-01f,+1.51164085e-02f,+1.51864767e-01f,+1.41512424e-01f,+2.13337302e-01f,
-1.29840076e-01f,+1.31097019e-01f,-1.15670867e-01f,+7.26779699e-02f,-2.11656004e-01f,
+2.12237835e-02f,+1.26732260e-01f,-2.23451287e-01f,+4.37520444e-02f,-7.33493418e-02f,
+7.43265450e-02f,+1.57331914e-01f,+1.83631837e-01f,-9.56815779e-02f,+1.48690581e-01f,
+1.10867560e-01f,+3.21224034e-02f,-1.89823389e-01f,-1.34091824e-01f,-1.76183254e-01f,
-1.87245712e-01f,+1.53000474e-01f,+1.10302776e-01f,-1.65022641e-01f,-1.49908006e-01f,
+1.53034657e-01f,-9.31381732e-02f,-1.28558129e-02f,+1.14960968e-01f,-1.12098426e-01f,
+1.09466583e-01f,+1.09526604e-01f,-1.73409477e-01f,-3.24414670e-03f,-1.20837972e-01f,
-2.59201974e-02f,+1.65790915e-01f,-9.90015268e-02f,+1.78729743e-01f,-1.83709264e-01f,
-1.48617059e-01f,+6.39998019e-02f,+8.66136253e-02f,+9.57115889e-02f,+1.23193711e-01f,
+1.02388561e-01f,+2.12309450e-01f,+1.64211035e-01f,+1.80235237e-01f,-1.28687888e-01f,
+1.63400084e-01f,+9.43625867e-02f,-2.11170807e-01f,-1.71915740e-02f,+1.21595472e-01f,
+1.62444055e-01f,+1.00640357e-02f,-1.08008169e-01f,-1.32448971e-02f,+1.06558174e-01f,
