#include <math.h> 
 #include <string.h> 
#include "./include/k2c_include.h" 
#include "./include/k2c_tensor_include.h" 

 


void torbeam_EC4_xmode(k2c_tensor* input_1_8_input, k2c_tensor* dense_3_8_output) { 

float dense_output_array[60] = {0}; 
k2c_tensor dense_output = {&dense_output_array[0],1,60,{60, 1, 1, 1, 1}}; 
float dense_kernel_array[840] = {
-1.48203880e-01f,-8.90567452e-02f,-1.27855420e-01f,-4.30475771e-02f,+2.64957517e-01f,
+1.05096966e-01f,-8.45708400e-02f,-1.12749755e-01f,-1.26685351e-01f,-2.72445023e-01f,
-1.08887553e-01f,-1.69963807e-01f,-6.26167655e-03f,+2.20692486e-01f,+2.51523107e-01f,
-8.64484906e-03f,-1.09503850e-01f,-5.83675653e-02f,+2.40414292e-01f,-1.36840641e-02f,
-1.06385231e-01f,-1.91808760e-01f,-2.53862083e-01f,+4.64302301e-02f,+2.63216943e-01f,
-1.28743947e-01f,+1.71859473e-01f,+3.42711806e-03f,+6.85873032e-02f,+3.82703543e-03f,
+2.54711509e-02f,+1.95782244e-01f,-1.02602318e-01f,+3.42061818e-02f,+7.38667548e-02f,
+2.12713689e-01f,-2.73751616e-01f,+1.98789656e-01f,-6.18124604e-02f,+2.57675737e-01f,
+1.14797562e-01f,-1.02209702e-01f,-3.57084274e-02f,-1.02406859e-01f,-2.21416116e-01f,
-2.37294734e-02f,+1.53697044e-01f,+1.45570993e-01f,-2.84146160e-01f,+2.24485904e-01f,
+1.53357983e-02f,-8.18336010e-03f,+2.57573992e-01f,-2.20219314e-01f,-7.59599209e-02f,
-1.86758071e-01f,+4.26550508e-02f,+9.01067257e-02f,-5.90795726e-02f,-2.84077674e-01f,
-3.95506173e-02f,+1.64879262e-01f,-8.01851302e-02f,+1.22381240e-01f,+2.70403624e-02f,
-4.86199856e-02f,+2.09890813e-01f,-1.44197598e-01f,-1.44803107e-01f,+1.20008647e-01f,
+1.00469589e-01f,-1.01820022e-01f,+4.05049324e-02f,+9.17441249e-02f,-2.16770470e-02f,
-7.96872377e-02f,+3.52402031e-02f,+1.98112935e-01f,-3.82948667e-02f,-2.65238583e-02f,
+1.25788867e-01f,-2.76511908e-01f,-1.21094748e-01f,+8.25465322e-02f,+7.53239393e-02f,
+2.48276621e-01f,-1.52533025e-01f,-1.36916637e-01f,+1.60385698e-01f,+1.16027445e-01f,
+1.68406904e-01f,+1.31705612e-01f,+2.27520913e-01f,-2.21822023e-01f,+1.05266631e-01f,
-1.37735784e-01f,-6.21598959e-03f,+8.08751583e-02f,+2.08744705e-01f,+1.08272076e-01f,
-7.32248724e-02f,+4.40158844e-02f,-2.34470919e-01f,+1.74934179e-01f,-1.17187604e-01f,
+1.95748746e-01f,+1.21386528e-01f,-2.22806960e-01f,-1.58701763e-01f,-9.95301902e-02f,
+1.54699832e-01f,+1.41848028e-02f,-1.17217883e-01f,-2.18069404e-01f,+2.44078040e-02f,
-2.06195056e-01f,+8.77075791e-02f,+1.65701509e-02f,+2.02146173e-03f,-5.85526973e-02f,
-1.17761672e-01f,+2.13412672e-01f,-1.53934523e-01f,+1.01499051e-01f,-6.10182881e-02f,
-1.09624624e-01f,-8.91213119e-02f,-9.34292823e-02f,+1.06015801e-03f,+1.42380834e-01f,
+2.17246443e-01f,-8.48495215e-02f,-9.57615376e-02f,+2.44982928e-01f,+1.42205745e-01f,
+2.21295804e-01f,-1.27918139e-01f,-2.52173662e-01f,-1.31378457e-01f,+1.39395416e-01f,
-6.27403557e-02f,-4.11651433e-02f,-2.78316587e-01f,-2.48169377e-01f,+7.53078461e-02f,
-2.64609337e-01f,+1.52489036e-01f,+1.08818501e-01f,-2.65769005e-01f,+2.33265251e-01f,
+1.22871399e-01f,+2.46449798e-01f,-1.14103600e-01f,+2.01045334e-01f,-2.62465060e-01f,
-7.78268129e-02f,+2.82301158e-01f,+2.32960582e-02f,-2.53045857e-01f,+2.05597490e-01f,
-1.81096196e-02f,+4.94202673e-02f,+5.56139648e-02f,-1.03959069e-01f,+1.75657392e-01f,
-3.16608250e-02f,+2.41705924e-01f,-2.43202209e-01f,+8.71201456e-02f,-2.13480771e-01f,
+2.37230688e-01f,-1.07694805e-01f,-3.13056111e-02f,-1.39989913e-01f,-9.86501426e-02f,
-1.85820788e-01f,-1.46420300e-02f,+8.99386108e-02f,-9.08092260e-02f,-2.43554741e-01f,
+2.40317315e-01f,-4.10307348e-02f,+6.77295923e-02f,-1.01046860e-02f,-2.58277237e-01f,
-2.69499511e-01f,+4.91149724e-02f,+6.85420632e-03f,+2.15312511e-01f,-2.63323963e-01f,
-2.75213540e-01f,-5.59856743e-02f,-1.40952840e-01f,+7.03169107e-02f,-1.90304726e-01f,
-1.55942410e-01f,-6.49596602e-02f,+2.39316374e-01f,+7.14232326e-02f,-1.23895168e-01f,
+2.55804271e-01f,-1.25438571e-01f,+1.06000364e-01f,-1.44106567e-01f,+1.00000590e-01f,
+2.95238793e-02f,-2.20661402e-01f,-1.02301568e-01f,-4.89114970e-02f,+5.23062944e-02f,
-2.65596151e-01f,-2.53247678e-01f,+2.68441468e-01f,+1.26232177e-01f,+2.42489368e-01f,
-2.70556003e-01f,+2.75745600e-01f,-1.03445217e-01f,+2.40537673e-01f,+2.44189531e-01f,
+2.74535507e-01f,-2.14367330e-01f,+2.21551567e-01f,+1.11432970e-02f,-1.88854486e-01f,
-2.27990448e-02f,-2.49164999e-02f,-5.39159328e-02f,+4.49249744e-02f,+1.39234781e-01f,
-3.81311178e-02f,+1.77140236e-01f,-1.30177766e-01f,-2.42264047e-01f,-9.48256850e-02f,
+2.26030022e-01f,-9.08387005e-02f,-2.02902302e-01f,-2.68739611e-01f,+1.15039527e-01f,
+1.26413465e-01f,-1.09108195e-01f,+5.16079068e-02f,+2.54174501e-01f,+1.17714018e-01f,
-2.70594686e-01f,+1.92301214e-01f,-9.73985493e-02f,-4.97538000e-02f,-1.39788479e-01f,
-2.31612861e-01f,-1.51367769e-01f,-1.74047351e-01f,+1.45904213e-01f,+3.93661559e-02f,
-1.48638695e-01f,-1.47333741e-01f,-2.61624455e-01f,+4.00987566e-02f,-2.74467826e-01f,
+8.39712322e-02f,-1.51924193e-02f,-1.24028981e-01f,-1.76154211e-01f,+2.73538619e-01f,
-2.46163324e-01f,-2.24949613e-01f,+1.85306132e-01f,+2.78028101e-01f,-1.74940497e-01f,
+7.58878887e-02f,+2.30135947e-01f,+6.31483793e-02f,-6.57798946e-02f,+1.30813003e-01f,
-1.18961677e-01f,-8.20725262e-02f,+2.26315290e-01f,-1.18252710e-01f,+1.75508171e-01f,
+2.93717980e-02f,-5.68066537e-02f,-5.83658665e-02f,+1.32867396e-01f,+1.59866393e-01f,
-2.07097173e-01f,+2.17252284e-01f,-2.46942282e-01f,-1.42463446e-01f,+2.36264199e-01f,
-1.16445914e-01f,-1.61674142e-01f,+6.57149255e-02f,-2.38540873e-01f,-1.13422260e-01f,
+1.65959924e-01f,-6.17650002e-02f,+1.22966766e-02f,-8.10412914e-02f,+1.42913133e-01f,
+9.24780965e-02f,-8.50147009e-02f,-2.36454904e-01f,-2.57848531e-01f,+7.48342276e-03f,
+1.67596251e-01f,-2.93810964e-02f,-1.83854789e-01f,-1.90807313e-01f,+6.70163631e-02f,
-2.56940722e-01f,-2.53044009e-01f,+1.93370581e-02f,-2.31076673e-01f,-2.64286727e-01f,
+8.31070840e-02f,-1.09091625e-01f,-1.42601669e-01f,-1.56774119e-01f,-1.25601426e-01f,
+1.94263488e-01f,+6.99258745e-02f,+1.42369151e-01f,+2.19196081e-02f,+2.48337835e-01f,
+1.78700924e-01f,+1.41231120e-02f,+1.12422526e-01f,-2.21772075e-01f,-1.94330692e-01f,
+2.24532872e-01f,+2.79053837e-01f,+2.74426609e-01f,+6.78863525e-02f,+1.45004064e-01f,
+2.74036229e-02f,+4.86051142e-02f,-2.80215591e-01f,+8.39009881e-02f,+2.59845227e-01f,
-1.84455812e-01f,+1.45635009e-01f,-2.24447846e-01f,-1.94024920e-01f,-2.48405829e-01f,
+1.91944331e-01f,+1.19265616e-01f,-1.04479313e-01f,+2.23647684e-01f,-1.73085928e-02f,
-3.34361792e-02f,+1.82227105e-01f,+5.79008758e-02f,-1.46737605e-01f,-2.55174041e-02f,
+2.50150353e-01f,+1.89863861e-01f,+1.02481276e-01f,+1.80216491e-01f,+2.50129074e-01f,
-2.35083759e-01f,+1.09930128e-01f,+1.14399046e-01f,-4.66018468e-02f,-1.24330342e-01f,
+1.41206264e-01f,-8.80648196e-02f,+2.76256591e-01f,-1.23457149e-01f,+1.64630324e-01f,
+7.48713315e-02f,-2.23458499e-01f,+3.13411355e-02f,-2.08164155e-02f,-2.80748874e-01f,
+8.96916389e-02f,-2.30555281e-01f,+1.64076209e-01f,-6.10787123e-02f,+1.02938354e-01f,
+1.39477402e-01f,-1.76104724e-01f,+1.30796850e-01f,-1.30702615e-01f,-1.81645542e-01f,
-1.88578993e-01f,-1.18481159e-01f,-1.49475336e-02f,-2.40805507e-01f,+1.53772742e-01f,
-1.56916007e-01f,-1.99052930e-01f,-1.41677216e-01f,+1.99744910e-01f,-9.11735296e-02f,
+7.07577765e-02f,-2.55865544e-01f,-1.14043593e-01f,-2.55433023e-01f,-2.38765717e-01f,
+5.35721481e-02f,-4.71471250e-02f,+7.89342821e-02f,+1.51951969e-01f,+1.91804409e-01f,
-1.82167828e-01f,+2.46646911e-01f,-2.17563823e-01f,+4.06126678e-02f,-8.46510082e-02f,
+2.31090516e-01f,-8.42760652e-02f,+2.70184785e-01f,-1.54544652e-01f,+1.52674109e-01f,
+3.66283357e-02f,-1.04099944e-01f,-1.84845716e-01f,+2.62100607e-01f,+1.87701136e-01f,
-1.95462197e-01f,+1.83472306e-01f,-5.11787236e-02f,+1.75741315e-01f,-5.30502796e-02f,
+6.77239895e-03f,+1.18353516e-01f,-1.18595958e-02f,-3.83503288e-02f,-2.14845240e-02f,
-2.66540557e-01f,-1.81011140e-01f,-1.71619087e-01f,-2.54099369e-02f,-9.58398134e-02f,
-1.12172976e-01f,+2.03691244e-01f,-1.42545924e-01f,-6.31096810e-02f,-3.52368057e-02f,
-2.17982903e-01f,-1.78810924e-01f,+8.25603008e-02f,+1.41027123e-01f,-1.55475467e-01f,
-1.86130777e-01f,+5.90828359e-02f,-2.77774990e-01f,-1.56289533e-01f,+1.22283697e-02f,
-1.65260315e-01f,+9.58612561e-03f,+2.26775914e-01f,+1.56265020e-01f,+1.65528476e-01f,
+9.27099288e-02f,-1.80321306e-01f,+6.86756968e-02f,+3.74126434e-02f,-1.73411071e-02f,
-2.89160013e-02f,-1.91559196e-02f,-2.30770156e-01f,-2.89933980e-02f,-2.76938170e-01f,
-6.08125180e-02f,-2.81783074e-01f,-2.25040615e-02f,-8.34582001e-02f,-1.45211324e-01f,
+1.07303232e-01f,-1.96835876e-01f,+2.03018397e-01f,-3.51639539e-02f,+1.02724165e-01f,
-3.48966718e-02f,+9.31287408e-02f,-1.35857224e-01f,+2.13067234e-02f,+4.11635041e-02f,
-6.24951720e-03f,-2.47123271e-01f,-1.19625151e-01f,-2.55358964e-01f,+8.55723321e-02f,
+1.04865670e-01f,+2.02584773e-01f,+2.29717106e-01f,+9.33612585e-02f,-2.30221063e-01f,
+1.19493932e-01f,-1.09857813e-01f,-3.22291255e-02f,-2.73299932e-01f,-2.77442932e-01f,
+1.08485848e-01f,+2.62008160e-01f,-6.15298748e-03f,+6.06115758e-02f,-2.26835027e-01f,
+3.52598131e-02f,+1.86531246e-02f,+2.04775035e-02f,-1.22627318e-02f,+1.48110449e-01f,
+2.63529032e-01f,-6.62673414e-02f,+1.24013156e-01f,+1.61653250e-01f,-5.99737465e-02f,
+2.10758835e-01f,+1.44303650e-01f,-5.37581593e-02f,-2.20131055e-01f,-1.06711090e-01f,
+2.35875994e-01f,-2.10412055e-01f,-2.76521266e-01f,-2.48886019e-01f,-2.62446225e-01f,
-3.65916640e-02f,-1.74938172e-01f,+1.98969543e-01f,+2.44598538e-01f,+6.56075776e-02f,
+8.86695087e-02f,+3.36342156e-02f,+1.01653576e-01f,+2.72141725e-01f,+1.88447833e-02f,
+1.99067980e-01f,+2.68992215e-01f,+1.40768588e-02f,-1.83556557e-01f,+9.99229252e-02f,
-2.31475726e-01f,-1.32551908e-01f,+2.55954236e-01f,-1.48624793e-01f,+3.81752849e-03f,
-1.03050783e-01f,+2.82837540e-01f,+4.77231741e-02f,+8.06615949e-02f,-1.79749727e-03f,
-5.22415936e-02f,-6.24141544e-02f,-1.74022496e-01f,+1.17811084e-01f,+1.91026330e-01f,
-2.36288786e-01f,-1.36505231e-01f,+1.61767781e-01f,+2.16206819e-01f,-1.66191757e-01f,
+1.97279453e-01f,-4.26045060e-03f,-3.27261388e-02f,+2.32753962e-01f,-1.97623923e-01f,
+1.10722512e-01f,-6.29710555e-02f,+9.83981490e-02f,-2.41615221e-01f,-2.33503774e-01f,
-4.40782607e-02f,-2.38197684e-01f,+2.78406948e-01f,+2.44184703e-01f,+1.87750876e-01f,
+3.73942554e-02f,+1.86064720e-01f,-1.09421089e-01f,-2.70939827e-01f,-1.74202204e-01f,
-1.99104786e-01f,-2.12689593e-01f,+1.68893665e-01f,+2.12868154e-01f,+1.87096715e-01f,
-2.78469145e-01f,+4.14914787e-02f,-9.04200971e-02f,-2.49919623e-01f,-3.24439108e-02f,
-2.51590788e-01f,+5.18897176e-03f,-1.97553992e-01f,-1.48843110e-01f,-1.47944942e-01f,
+9.01859999e-03f,-2.26117983e-01f,-7.72595257e-02f,+1.25726461e-02f,-2.37378538e-01f,
+2.16205865e-01f,+1.40391886e-02f,+1.99740976e-01f,-2.75210530e-01f,-1.21308863e-02f,
+2.82795459e-01f,+1.26024991e-01f,+2.53805667e-01f,+2.18486458e-01f,-1.66235894e-01f,
-2.61164755e-01f,+1.74068123e-01f,+2.51514882e-01f,+1.00283146e-01f,+2.29804903e-01f,
+1.71011269e-01f,-2.30764508e-01f,+1.20042741e-01f,+7.16294944e-02f,+3.05505693e-02f,
+8.16461146e-02f,-1.92893550e-01f,-1.86312795e-02f,+1.58168346e-01f,+1.00917429e-01f,
+3.13193202e-02f,+1.21857762e-01f,-1.08985245e-01f,+1.92375481e-01f,-2.56118178e-01f,
-5.82242459e-02f,-8.95598531e-03f,-2.24019125e-01f,+9.18720961e-02f,-3.88867259e-02f,
-1.82579637e-01f,-2.59715885e-01f,+5.96600175e-02f,-2.60052055e-01f,+1.01498693e-01f,
-2.47673690e-02f,-1.18351087e-01f,-1.86059356e-01f,-2.13407040e-01f,+2.57936031e-01f,
+1.62755072e-01f,+2.18355656e-02f,-1.42777026e-01f,-2.60118455e-01f,+2.55277485e-01f,
+1.98183864e-01f,-2.74163187e-02f,+1.87584639e-01f,+8.47861767e-02f,-2.10797802e-01f,
-6.34331703e-02f,+1.33362710e-02f,+4.37546372e-02f,-9.03032571e-02f,+2.82890230e-01f,
-2.82558918e-01f,+1.46947801e-01f,-5.52209020e-02f,-2.00385585e-01f,+2.04107672e-01f,
+5.59840500e-02f,+9.39323902e-02f,+2.26615459e-01f,+5.18152416e-02f,-2.37220824e-02f,
+6.39955699e-02f,+6.14556372e-02f,+1.71213597e-01f,+2.49885470e-01f,-4.73918021e-02f,
-8.35364759e-02f,-2.49031425e-01f,+9.34524238e-02f,-9.98517871e-03f,-1.75249189e-01f,
+2.55374581e-01f,-2.51505852e-01f,+1.70269668e-01f,-5.19586951e-02f,+2.30054885e-01f,
-8.01485777e-03f,-1.41691610e-01f,+1.69472098e-01f,+1.75294936e-01f,+7.32541084e-05f,
-2.56175250e-01f,-2.96343863e-02f,+2.43069857e-01f,-1.91458642e-01f,-2.42212653e-01f,
-2.83483833e-01f,+6.61063194e-03f,+2.76471287e-01f,+2.25234121e-01f,+1.89756542e-01f,
+2.06482351e-01f,-7.63307959e-02f,-9.53983366e-02f,-4.72855568e-02f,-1.11019194e-01f,
+1.03476644e-03f,+2.39583641e-01f,-1.66233778e-01f,-9.16408747e-02f,-1.09432966e-01f,
+2.59226829e-01f,+1.10647559e-01f,+1.25578493e-01f,+7.14893043e-02f,+1.21732503e-01f,
-2.64098108e-01f,-1.40967578e-01f,-1.06747001e-01f,-3.07512283e-02f,-2.06377476e-01f,
+1.46371067e-01f,+4.34353948e-03f,-1.30100578e-01f,-6.70291185e-02f,+1.76782668e-01f,
+6.83059096e-02f,-2.49514326e-01f,+1.27252370e-01f,+2.53344089e-01f,+2.76326567e-01f,
+2.16725439e-01f,-1.96870297e-01f,-1.14942983e-01f,+1.93163812e-01f,-2.45282859e-01f,
-5.20900637e-02f,-5.72298765e-02f,-1.20749474e-02f,-2.24696800e-01f,-1.02030203e-01f,
-3.01573575e-02f,-2.33959720e-01f,-1.23681128e-02f,+1.41914845e-01f,+3.59850228e-02f,
-8.94629955e-03f,+8.83102417e-03f,+1.03625596e-01f,-2.15632170e-01f,+4.34849858e-02f,
-1.04183510e-01f,+1.50503427e-01f,-2.82440782e-01f,+7.32804239e-02f,-2.03363597e-02f,
+3.92858982e-02f,+1.46095991e-01f,-1.38703614e-01f,-2.61127979e-01f,-1.78910851e-01f,
-1.75008923e-01f,-2.44289368e-01f,-9.27507877e-02f,+1.83115900e-02f,-1.55190140e-01f,
-1.93364978e-01f,-1.79451317e-01f,-1.30479932e-02f,-2.63222218e-01f,+4.12300527e-02f,
+2.51018494e-01f,+1.99661940e-01f,-2.07067370e-01f,+3.00377309e-02f,-1.23103797e-01f,
-2.62045830e-01f,-1.47759810e-01f,+2.67874628e-01f,-2.70236909e-01f,-1.83825195e-02f,
-6.31001741e-02f,-3.81645560e-03f,-1.06944501e-01f,-4.39356267e-02f,+2.52130061e-01f,
+1.13850296e-01f,-1.52657464e-01f,-1.52307749e-02f,+8.40876698e-02f,+5.29353619e-02f,
+2.58252591e-01f,+2.24765092e-01f,+2.47165769e-01f,+5.31671941e-02f,+1.97651625e-01f,
+2.55498677e-01f,-3.75903100e-02f,+9.44588780e-02f,+1.66253000e-01f,-8.05579871e-02f,
+1.06877953e-01f,-2.13155121e-01f,+9.96613503e-02f,-1.56638324e-02f,+1.97171837e-01f,
+1.25850588e-01f,+1.40093714e-01f,+5.13685346e-02f,-2.66319722e-01f,-2.19168723e-01f,
+1.67157680e-01f,-9.34636295e-02f,+2.18442351e-01f,-1.29057169e-02f,+1.44306421e-02f,
+2.06776530e-01f,+2.40945786e-01f,+5.78144193e-03f,-8.73462856e-02f,-7.37965703e-02f,
+6.35671914e-02f,-1.17329955e-01f,+8.68253112e-02f,+7.37473369e-03f,-1.65109634e-02f,
+2.27206677e-01f,+4.21459377e-02f,-1.78142875e-01f,-2.78983057e-01f,+8.77446532e-02f,
-1.74249321e-01f,-9.42655951e-02f,-7.27562457e-02f,+2.47141391e-01f,+3.69670093e-02f,
+1.10384911e-01f,-1.68107450e-02f,-8.01054388e-02f,+1.86351746e-01f,-2.18325853e-03f,
+2.36326247e-01f,+2.09899276e-01f,-1.86662555e-01f,-1.75392359e-01f,+2.27578431e-01f,
}; 
k2c_tensor dense_kernel = {&dense_kernel_array[0],2,840,{14,60, 1, 1, 1}}; 
float dense_bias_array[60] = {0}; 
k2c_tensor dense_bias = {&dense_bias_array[0],1,60,{60, 1, 1, 1, 1}}; 
float dense_fwork[854] = {0}; 

 
float dense_1_output_array[60] = {0}; 
k2c_tensor dense_1_output = {&dense_1_output_array[0],1,60,{60, 1, 1, 1, 1}}; 
float dense_1_kernel_array[3600] = {
+7.50283897e-02f,+2.71911919e-02f,+1.45317197e-01f,+2.30923593e-02f,+2.19956934e-01f,
-1.47675782e-01f,-1.39623731e-01f,-1.34971887e-01f,+9.76263881e-02f,-9.32213813e-02f,
-1.19995698e-01f,+1.69881225e-01f,+4.54749465e-02f,-2.46887356e-02f,+1.64902061e-02f,
+5.95613420e-02f,+7.40861595e-02f,+2.31176615e-03f,+1.56773031e-01f,+1.73130929e-01f,
+1.69604868e-01f,-1.90046504e-01f,+1.46201372e-01f,-1.09473877e-01f,-1.81841046e-01f,
+1.91748589e-01f,+1.84382319e-01f,-2.17094034e-01f,+1.38468951e-01f,-1.05576023e-01f,
-6.60387129e-02f,-7.35677034e-02f,-7.12371618e-02f,+3.34060490e-02f,+2.11424887e-01f,
-5.37782311e-02f,-6.26599044e-02f,+1.58266574e-01f,+5.98507822e-02f,+2.75009871e-03f,
+2.56260782e-02f,+3.90313864e-02f,-6.90595806e-02f,-1.57245070e-01f,+7.60439336e-02f,
-5.90169877e-02f,+2.19994575e-01f,+9.48316753e-02f,+9.65270996e-02f,-9.56471860e-02f,
+9.76641476e-02f,+7.81428814e-02f,+4.96422946e-02f,+3.01410258e-03f,-2.15314373e-01f,
-5.37853688e-02f,-1.11326724e-02f,+7.86802769e-02f,+4.69727218e-02f,+1.08231694e-01f,
+1.66014880e-01f,+3.88602018e-02f,+1.85808271e-01f,-2.10430831e-01f,-1.27967283e-01f,
-5.55432886e-02f,+1.34818673e-01f,+6.44776225e-02f,+1.01154119e-01f,+1.30467564e-01f,
+1.69801712e-01f,+1.24347121e-01f,-2.07296565e-01f,-1.89718693e-01f,+8.75813365e-02f,
-1.13118872e-01f,+2.07039863e-01f,-4.75848615e-02f,+9.38521326e-03f,-1.54837817e-01f,
-1.91077590e-04f,-1.56409621e-01f,-4.38286662e-02f,-1.00363068e-01f,-1.28025115e-01f,
-4.35842276e-02f,+1.53268903e-01f,-1.46881372e-01f,+2.05116421e-02f,-1.74473107e-01f,
-1.09563865e-01f,+1.72176540e-01f,+1.49008185e-02f,+1.88327134e-01f,-1.28009558e-01f,
-1.37327969e-01f,+2.03769177e-01f,+2.89034247e-02f,-1.11042954e-01f,-1.22054711e-01f,
-3.58815938e-02f,+1.21242404e-01f,+6.95651472e-02f,-1.25609398e-01f,+1.04546338e-01f,
+1.89085782e-01f,-4.26906347e-03f,-1.36263058e-01f,+1.03874147e-01f,-8.98169875e-02f,
+1.39588296e-01f,+1.34388179e-01f,+7.95916915e-02f,-3.89627069e-02f,+1.73369229e-01f,
+1.56722456e-01f,+9.29063559e-03f,-1.78426415e-01f,-2.15475693e-01f,+9.66277122e-02f,
+1.92857325e-01f,-9.99858305e-02f,+7.38105178e-03f,-1.77322894e-01f,+1.33119524e-03f,
+1.10524178e-01f,-7.52906948e-02f,+1.35869294e-01f,+2.17215687e-01f,+1.19661212e-01f,
+1.17094606e-01f,+1.27050370e-01f,+1.95127577e-01f,+1.75208300e-02f,-2.88422257e-02f,
+1.67578846e-01f,+1.00838870e-01f,-1.14026509e-01f,+1.68869436e-01f,-1.26502007e-01f,
+1.53836548e-01f,-1.33823395e-01f,-1.86124608e-01f,-2.27770209e-02f,+1.31796271e-01f,
+1.75174385e-01f,+1.47577584e-01f,-1.09375410e-01f,-9.36064571e-02f,-1.02150939e-01f,
+1.54054224e-01f,-1.83541059e-01f,-2.10305333e-01f,-2.71338969e-02f,-3.65805626e-03f,
-1.41129196e-02f,-6.79681748e-02f,-1.35640651e-02f,-1.22363068e-01f,+8.56196284e-02f,
+1.54953718e-01f,-5.13125956e-02f,+2.18868464e-01f,+1.95411950e-01f,-5.98124564e-02f,
-5.91800660e-02f,+2.20941365e-01f,-1.78775340e-01f,+1.36282742e-01f,+8.81583989e-03f,
-8.00524205e-02f,-1.52641833e-02f,+3.38335037e-02f,+9.73712504e-02f,-2.12565720e-01f,
-3.19600254e-02f,+6.68220818e-02f,+1.49664998e-01f,-1.90762758e-01f,-1.08626485e-01f,
-2.11729631e-01f,+9.30873752e-02f,-1.39789805e-01f,-2.13992894e-02f,+2.02140987e-01f,
+5.19657731e-02f,+3.31829488e-02f,-1.29160821e-01f,-9.74104404e-02f,+1.58762485e-01f,
+6.79802895e-03f,+5.77825904e-02f,-1.60064742e-01f,+5.11516631e-02f,-1.67165577e-01f,
-1.32679790e-01f,+1.14205688e-01f,+1.43424392e-01f,+1.57467544e-01f,+4.52241600e-02f,
-2.10504889e-01f,-4.28293198e-02f,+1.44299626e-01f,+4.09464538e-02f,-3.46708894e-02f,
-4.34726477e-02f,-2.12613478e-01f,+8.54130387e-02f,+1.00659847e-01f,-1.34339660e-01f,
-2.94476449e-02f,-6.62962645e-02f,-5.13840914e-02f,+2.65929401e-02f,-7.73684680e-02f,
+6.18135631e-02f,+2.20272124e-01f,+2.78036594e-02f,+1.95006877e-01f,+8.12128186e-03f,
+2.04614878e-01f,-1.78800076e-01f,+1.25930339e-01f,+1.26080811e-02f,-1.26406997e-02f,
+5.45382500e-04f,+1.32099003e-01f,+1.74553782e-01f,-9.49160755e-02f,+5.24006486e-02f,
+1.83156580e-01f,-1.17920846e-01f,-7.05752969e-02f,+1.54226542e-01f,+8.26475024e-03f,
+1.10460252e-01f,-1.69179887e-02f,+1.81432635e-01f,-1.80142194e-01f,-4.93820608e-02f,
+1.57024741e-01f,-2.00103074e-01f,-1.90602124e-01f,+1.95959389e-01f,+1.32379800e-01f,
+8.27565491e-02f,+8.44615400e-02f,+1.40775591e-01f,-1.96482331e-01f,+2.07744330e-01f,
-2.01752767e-01f,-1.10885739e-01f,+1.53683990e-01f,+1.64301693e-03f,-2.82883644e-03f,
-1.11526333e-01f,+6.14427924e-02f,+1.02579683e-01f,+9.32070017e-02f,-5.82422614e-02f,
+9.74971652e-02f,-1.68901473e-01f,+3.43621075e-02f,-1.79714695e-01f,-9.26522315e-02f,
-3.21153104e-02f,-1.20565228e-01f,+1.63471371e-01f,+5.96447289e-02f,+1.80766433e-01f,
-1.11165576e-01f,-2.14206234e-01f,+2.11899221e-01f,+1.16863817e-01f,+1.35433823e-02f,
+6.06800020e-02f,-9.35115069e-02f,+8.08186829e-02f,-8.96237344e-02f,+1.19206578e-01f,
-1.80806994e-01f,+9.84400511e-03f,+3.08200717e-04f,+9.26160216e-02f,+5.31325638e-02f,
+1.69457048e-02f,+3.09651494e-02f,+5.29199541e-02f,+6.25527501e-02f,-1.28984258e-01f,
+8.06813240e-02f,-7.09218234e-02f,+1.09391510e-01f,+2.00363129e-01f,+8.95803869e-02f,
-1.49317414e-01f,+1.55228525e-01f,+2.86372006e-02f,+2.97846794e-02f,+1.33341253e-01f,
-7.79456794e-02f,-1.16460465e-01f,+7.47009516e-02f,-1.56719416e-01f,-1.20011099e-01f,
-2.00723514e-01f,+1.95281208e-03f,-2.47421563e-02f,+1.08805716e-01f,+1.12812638e-01f,
-7.21056163e-02f,-1.98064417e-01f,-9.43872631e-02f,+1.33002877e-01f,+1.11134171e-01f,
-2.10381523e-01f,+1.51307613e-01f,-7.22717941e-02f,-1.19610406e-01f,+1.83424771e-01f,
+1.88429028e-01f,+1.37634039e-01f,-8.47170055e-02f,-1.41536832e-01f,-2.22922117e-02f,
-1.17866628e-01f,+3.11673284e-02f,+1.32975578e-02f,+5.09584546e-02f,+1.61419779e-01f,
+1.73000365e-01f,-6.44624829e-02f,+6.53587580e-02f,-4.24002111e-02f,-3.48790139e-02f,
-1.01674758e-01f,-1.15532197e-01f,-2.40566730e-02f,-1.61757976e-01f,-3.53943259e-02f,
-8.83522928e-02f,-6.90566450e-02f,-1.66306034e-01f,+4.97498214e-02f,+1.02017164e-01f,
-2.54763663e-02f,+4.06109095e-02f,-1.12843089e-01f,+7.99407363e-02f,+1.04573965e-01f,
+6.09105825e-02f,+1.02344632e-01f,+3.77316177e-02f,+1.21031761e-01f,-2.03028038e-01f,
-3.52382213e-02f,-1.70581758e-01f,-1.36027947e-01f,-1.27055749e-01f,+4.56157923e-02f,
+1.09407514e-01f,+1.27877623e-01f,+1.15906984e-01f,+2.58190632e-02f,-1.13320053e-02f,
-6.37115389e-02f,-2.17649177e-01f,+9.19701159e-03f,+1.12069219e-01f,+1.98419690e-01f,
-6.06554300e-02f,-1.04594603e-01f,-9.39079374e-02f,+1.39602900e-01f,+1.58720970e-01f,
+1.44882262e-01f,+5.38995564e-02f,+9.92217660e-02f,-3.09186280e-02f,+1.43484175e-01f,
+1.49242550e-01f,+1.92860961e-01f,+1.42887443e-01f,-1.21836983e-01f,+2.17477828e-02f,
-7.30624795e-03f,+1.93012029e-01f,-1.51504591e-01f,-1.66725218e-01f,+1.55109435e-01f,
-1.34104773e-01f,+1.75463438e-01f,+3.45182419e-02f,-1.05822533e-01f,+5.15811443e-02f,
-1.37090236e-01f,-1.78374752e-01f,-2.00996578e-01f,-7.91365653e-02f,-1.27466843e-01f,
-6.48891479e-02f,+1.67928100e-01f,+8.31260681e-02f,+4.58717346e-03f,+6.62961602e-02f,
+1.44588739e-01f,-1.72730982e-02f,-4.31761742e-02f,-6.70854896e-02f,+3.13450098e-02f,
-1.92471147e-01f,+1.18424386e-01f,+4.46537733e-02f,+1.75900340e-01f,-1.73752338e-01f,
-1.08222485e-01f,+1.77959800e-02f,+1.97687894e-01f,+1.36661679e-01f,+1.44049317e-01f,
+1.64857537e-01f,-4.68584299e-02f,-2.12380722e-01f,-1.40096352e-01f,+2.02316165e-01f,
-1.46239489e-01f,-9.69931036e-02f,-9.28358883e-02f,-1.40999466e-01f,-1.44179255e-01f,
-6.40884489e-02f,-2.10122317e-01f,-5.83598614e-02f,-7.44245797e-02f,+1.10938787e-01f,
-1.42361686e-01f,+2.14606225e-01f,-1.28145516e-02f,+1.41624391e-01f,+1.18171424e-02f,
+1.36188745e-01f,-1.70248404e-01f,+2.18598992e-01f,+1.28303826e-01f,+1.25281483e-01f,
+8.33028555e-02f,-8.43615234e-02f,-8.71665776e-02f,-1.06447943e-01f,+2.17914462e-01f,
-7.25336373e-03f,+1.78208888e-01f,-5.94621450e-02f,-1.21531717e-01f,-2.70387530e-03f,
-2.13605195e-01f,-8.57398957e-02f,-8.76076370e-02f,+1.56692207e-01f,-9.12487507e-04f,
-2.12556168e-01f,+1.55100495e-01f,+1.35482460e-01f,-1.59076273e-01f,-7.33259320e-03f,
+5.91899753e-02f,+1.31818712e-01f,-5.29942214e-02f,-8.01267773e-02f,+1.27190620e-01f,
+1.13169104e-02f,-9.25496519e-02f,+1.30362421e-01f,+5.39686978e-02f,-1.58006996e-01f,
-8.78263712e-02f,-6.60271943e-02f,+9.03504789e-02f,-7.18899667e-02f,+9.52724516e-02f,
-2.59614587e-02f,-9.71328318e-02f,-2.01133281e-01f,-8.35895538e-02f,+1.15816087e-01f,
-1.74722135e-01f,+8.56236815e-02f,+2.13001549e-01f,-1.66572154e-01f,+1.51166648e-01f,
-1.13199003e-01f,+2.13298023e-01f,-8.15473348e-02f,+1.59439027e-01f,-1.60358325e-01f,
+1.24218047e-01f,+2.13782728e-01f,+1.82776004e-02f,+2.16106385e-01f,+1.43655449e-01f,
+1.65138483e-01f,+1.33629441e-01f,+5.88687658e-02f,-1.07357338e-01f,-1.80374265e-01f,
-9.74425673e-03f,+8.76994431e-02f,+6.69623911e-02f,+1.35419548e-01f,-8.88437778e-02f,
+1.51807189e-01f,-2.08256185e-01f,+1.25612289e-01f,+1.58111393e-01f,+1.85487539e-01f,
+9.13740695e-02f,+7.88556635e-02f,+7.05075860e-02f,-1.47800475e-01f,-1.03424132e-01f,
+2.02068955e-01f,+1.21531397e-01f,-1.44775927e-01f,+1.94799334e-01f,-1.77464455e-01f,
-7.79653043e-02f,+1.31112158e-01f,-2.14005142e-01f,+1.45757437e-01f,+7.15456307e-02f,
-2.00605750e-01f,+8.94268453e-02f,+2.01074094e-01f,+1.00921929e-01f,+2.42689103e-02f,
-1.61772847e-01f,+2.03970820e-01f,+1.42501533e-01f,-3.08213830e-02f,-1.11737289e-01f,
-4.28645164e-02f,-7.84520358e-02f,+1.06078446e-01f,+8.15574229e-02f,+1.61866397e-02f,
-1.01525851e-01f,+5.06107509e-03f,-2.03811824e-02f,-2.38757879e-02f,-9.36157852e-02f,
+1.33293837e-01f,+1.67469412e-01f,-1.43034011e-02f,+1.27666712e-01f,-2.15408266e-01f,
+4.15888131e-02f,-1.82097107e-01f,+1.00636989e-01f,+6.98021650e-02f,+1.86923385e-01f,
+9.18036103e-02f,+1.26861542e-01f,-1.50520653e-01f,-1.67504907e-01f,-1.27653167e-01f,
-6.98505789e-02f,-1.15602732e-01f,-9.98034999e-02f,-2.40533203e-02f,-1.70889050e-01f,
-5.82535565e-02f,+1.48156703e-01f,+5.07287681e-02f,-3.09897363e-02f,+2.05982953e-01f,
-1.00625791e-01f,+7.01964200e-02f,+7.26896524e-02f,+1.66872263e-01f,+1.17532581e-01f,
-1.66001290e-01f,-1.68150365e-02f,+1.89657271e-01f,+5.07013202e-02f,-1.22202709e-01f,
+1.01218939e-01f,-7.52061605e-03f,+1.39229149e-02f,-9.63428617e-03f,+1.68130487e-01f,
-7.31353462e-02f,-2.87228674e-02f,-1.00089200e-01f,+3.57543826e-02f,+9.22242999e-02f,
-1.65678814e-01f,+7.21567869e-02f,-3.76526266e-02f,-1.91869438e-02f,+1.22384489e-01f,
-1.44717544e-02f,-1.12869851e-01f,-8.30939114e-02f,-4.55291569e-02f,-5.47358692e-02f,
-6.70772791e-02f,-2.19863176e-01f,+7.30231702e-02f,-4.67421114e-02f,+2.00356632e-01f,
+6.81769550e-02f,-9.91126820e-02f,-1.52466178e-01f,+1.57044828e-01f,+3.97274792e-02f,
-1.58717752e-01f,+8.66778791e-02f,-1.25052124e-01f,-1.19028613e-01f,+4.47162986e-02f,
+8.36990774e-02f,+4.32783663e-02f,+1.73642039e-01f,-1.87010020e-01f,+1.44589096e-02f,
-1.15028240e-01f,+9.74097550e-02f,+1.97850049e-01f,+1.19690537e-01f,+1.25933975e-01f,
+1.35596991e-01f,+2.11653322e-01f,-1.71982422e-01f,-1.74103022e-01f,-1.73405111e-01f,
+7.28505552e-02f,+1.32340461e-01f,-1.46157652e-01f,-8.75511169e-02f,+1.73824042e-01f,
-8.06765854e-02f,-2.10062027e-01f,+7.77734220e-02f,+3.80557775e-03f,-1.69108748e-01f,
+7.27986693e-02f,+1.72721744e-01f,-1.06402785e-02f,+5.25050163e-02f,-2.26629972e-02f,
-2.18544871e-01f,+7.89318979e-02f,+1.81716621e-01f,+2.20939010e-01f,+5.44173717e-02f,
+1.93626314e-01f,+7.02605844e-02f,+7.35398233e-02f,+1.25254244e-01f,+1.85818166e-01f,
-1.85174495e-02f,-1.62560910e-01f,+1.73459202e-02f,-1.96521193e-01f,-1.28389776e-01f,
-1.67129815e-01f,-1.29682705e-01f,+2.76623368e-02f,+1.98371410e-02f,-5.72794378e-02f,
+1.13503158e-01f,-7.93386698e-02f,+1.05484337e-01f,+1.26947999e-01f,+1.05762571e-01f,
-5.37734330e-02f,-1.31536633e-01f,-2.06347406e-02f,+2.07051754e-01f,+6.33980632e-02f,
-5.67986071e-03f,-1.11372106e-01f,-1.82043999e-01f,-1.67892277e-01f,+1.99912101e-01f,
-1.20427631e-01f,-2.12738663e-01f,+1.32230908e-01f,+1.16171151e-01f,+1.76293671e-01f,
-1.67877823e-01f,+8.11933577e-02f,+2.92904675e-02f,-1.15287341e-01f,-2.22337246e-03f,
+6.34613037e-02f,-9.93167609e-02f,+1.55114293e-01f,+1.19362622e-01f,+1.33343488e-02f,
+2.01435298e-01f,-1.75983757e-01f,-1.85947120e-03f,+4.99790013e-02f,+5.04882336e-02f,
+2.11960793e-01f,-1.69831216e-02f,-1.29585460e-01f,-1.98702991e-01f,+1.65026635e-01f,
+1.73291504e-01f,-9.13932920e-04f,-1.90348476e-01f,+1.09081507e-01f,-1.16448902e-01f,
-6.32738471e-02f,+2.03024089e-01f,-6.03754371e-02f,+8.54608715e-02f,+3.11913192e-02f,
-1.59351692e-01f,-2.11192131e-01f,+1.54929131e-01f,-1.66683167e-01f,-6.76871687e-02f,
-1.90339401e-01f,-1.83360428e-01f,+3.53567004e-02f,+2.19090939e-01f,+5.72288930e-02f,
+1.82903886e-01f,+4.30352688e-02f,-8.23050141e-02f,-2.17156574e-01f,-1.95495531e-01f,
+3.68440449e-02f,-4.77125496e-02f,+6.65352643e-02f,+1.37256593e-01f,-1.89850211e-01f,
-8.98014158e-02f,+1.58907175e-01f,-3.48446220e-02f,-1.67222783e-01f,+1.83896542e-01f,
+2.98246741e-02f,-1.95557266e-01f,+1.36087388e-02f,-1.25227839e-01f,-1.05731159e-01f,
-1.92719251e-02f,-8.56066197e-02f,-6.61927909e-02f,+1.07518882e-01f,+2.07228273e-01f,
+1.07598096e-01f,-1.18328258e-01f,+1.14568323e-01f,+1.69360489e-01f,-3.35202962e-02f,
+1.48612142e-01f,-2.02920243e-01f,+1.44710928e-01f,-1.92318827e-01f,-1.30640566e-01f,
+2.22505897e-01f,+2.19260216e-01f,+9.91412997e-02f,-2.19026506e-02f,-1.89135522e-02f,
+1.46031678e-01f,+9.74595249e-02f,+1.99686378e-01f,-5.85470349e-02f,+6.37158453e-02f,
-1.36811793e-01f,+5.74103892e-02f,-8.76908004e-03f,+6.83909953e-02f,-1.56859726e-01f,
+2.20081747e-01f,-7.43253231e-02f,+1.69197410e-01f,+2.17844307e-01f,+2.19501227e-01f,
-1.63856611e-01f,+3.77934277e-02f,+9.62841511e-02f,+1.16554230e-01f,+1.08830780e-01f,
-2.07621008e-02f,+1.92934573e-01f,-6.42608553e-02f,+1.87373668e-01f,-1.77547827e-01f,
-9.11987275e-02f,+1.12146258e-01f,-1.60718128e-01f,-1.90652728e-01f,-7.69615471e-02f,
-1.40993595e-01f,-4.68120575e-02f,+1.17794722e-01f,+2.22091883e-01f,-1.92597166e-01f,
+2.21843719e-01f,+1.00991935e-01f,-5.74829876e-02f,-1.29638076e-01f,-2.01464504e-01f,
+1.54665112e-02f,+7.13903904e-02f,+2.21785605e-01f,+1.67560041e-01f,-2.45674551e-02f,
+6.39604032e-02f,+2.16149181e-01f,+1.55368060e-01f,+2.35435516e-02f,+1.40740842e-01f,
-5.00351340e-02f,-2.98862308e-02f,+1.10292166e-01f,+1.56272560e-01f,-1.81499898e-01f,
+1.72049612e-01f,-4.99038249e-02f,+1.68966353e-01f,+1.24027669e-01f,-1.56769693e-01f,
-8.74814987e-02f,+1.33246869e-01f,+8.14712644e-02f,-1.84610754e-01f,-1.99912861e-01f,
-1.66198447e-01f,+1.97019726e-01f,-1.75260738e-01f,-1.72609851e-01f,-5.19295782e-02f,
-8.06735009e-02f,+1.46932930e-01f,+1.23691708e-01f,-2.13724822e-01f,+5.00962436e-02f,
+4.38729525e-02f,+2.11062968e-01f,-7.04790652e-03f,+3.13242078e-02f,-8.86272788e-02f,
+1.76665306e-01f,-5.45597225e-02f,+1.53438330e-01f,+7.64159560e-02f,-3.34113389e-02f,
-1.86853707e-01f,-5.01905382e-03f,+1.21649176e-01f,-2.60990560e-02f,-1.35411620e-01f,
+1.62921399e-01f,-8.00236762e-02f,-1.69991374e-01f,+1.32657409e-01f,+1.77678287e-01f,
-1.56656772e-01f,-8.24200511e-02f,-1.48292646e-01f,+8.22041929e-02f,+4.87946272e-02f,
-6.65089190e-02f,+7.98622072e-02f,+8.31548572e-02f,-1.51830003e-01f,-9.61619765e-02f,
+7.47391880e-02f,-4.96223569e-04f,+1.66416585e-01f,+2.47800052e-02f,-1.98115289e-01f,
-5.32148331e-02f,+1.92835629e-01f,+1.87360585e-01f,-3.14196497e-02f,-4.69952822e-04f,
+1.54830188e-01f,+8.18232894e-02f,-2.19043449e-01f,-6.40786439e-02f,-6.12075180e-02f,
+1.04387552e-02f,-1.66826040e-01f,+8.65325332e-02f,+1.30124241e-01f,+6.91137612e-02f,
-1.94291919e-02f,+1.36332482e-01f,+8.46221745e-02f,-9.64523107e-02f,-1.05485179e-01f,
+5.43803275e-02f,+2.00193912e-01f,+1.33341402e-01f,+3.68712246e-02f,+2.17580497e-01f,
+6.06109500e-02f,-2.01423466e-03f,+8.71423185e-02f,+7.94315338e-02f,-1.24304444e-02f,
-1.88235655e-01f,-2.22851470e-01f,-1.44724846e-01f,+1.38518780e-01f,-9.09870863e-02f,
-2.00821877e-01f,+1.65954977e-02f,-1.19076006e-01f,+2.14202225e-01f,+2.00968653e-01f,
-2.08834991e-01f,-1.60259008e-01f,+3.29759419e-02f,+3.78119648e-02f,-1.96960121e-02f,
+1.36482060e-01f,-3.87434959e-02f,+5.31566739e-02f,-1.94983780e-01f,+1.79116130e-02f,
+1.15843862e-02f,+1.73186362e-01f,-1.34797662e-01f,-1.27609447e-01f,+2.59554386e-03f,
+3.49074304e-02f,-1.77799568e-01f,+1.81727171e-01f,-2.01020420e-01f,+7.32947290e-02f,
+1.55219376e-01f,-6.38110191e-02f,+2.44148225e-02f,-2.13905498e-01f,-4.84880805e-02f,
-1.14972264e-01f,-8.22922140e-02f,-7.58858621e-02f,-4.47505862e-02f,-5.93454987e-02f,
-1.15653165e-01f,+1.63518727e-01f,-1.05608329e-01f,+1.86994940e-01f,-3.33434641e-02f,
-3.72445136e-02f,+3.06610763e-02f,-4.43697721e-02f,-9.34472233e-02f,+1.69436723e-01f,
+5.38596809e-02f,-1.88923016e-01f,-4.37155366e-02f,-3.41320038e-02f,-8.45825523e-02f,
+7.65934289e-02f,+1.57637507e-01f,-1.54263645e-01f,+2.17637718e-02f,-5.72365224e-02f,
+1.40403062e-01f,-1.26131266e-01f,-1.55320078e-01f,-2.67444551e-02f,+2.09636807e-01f,
-9.34502035e-02f,-1.94014788e-01f,-1.81877717e-01f,+6.60720170e-02f,-1.54005989e-01f,
+1.86297715e-01f,-6.76646829e-03f,+2.17974216e-01f,+2.29176134e-02f,+2.04926968e-01f,
-1.05816871e-02f,+1.58216625e-01f,+1.50792986e-01f,-1.08963042e-01f,-6.97222054e-02f,
-6.17682040e-02f,+1.47273630e-01f,+1.77965045e-01f,-1.45994738e-01f,-4.15716916e-02f,
+2.98785567e-02f,-2.05696523e-01f,-2.09235430e-01f,+1.14849925e-01f,+1.30909353e-01f,
+3.36367786e-02f,+1.42891556e-01f,+1.81226462e-01f,-1.16750114e-01f,+2.19024360e-01f,
+1.69454306e-01f,-8.23846459e-03f,-4.71247882e-02f,+1.08488947e-01f,-2.20479667e-01f,
-1.65672898e-01f,-1.62204206e-01f,+5.93458116e-02f,+1.47469461e-01f,+1.76765949e-01f,
-3.58035564e-02f,-1.80176213e-01f,-2.00650156e-01f,+1.84320092e-01f,+9.47840810e-02f,
+6.04642928e-03f,-1.83242455e-01f,-3.63484472e-02f,+1.83680207e-02f,+8.55176449e-02f,
-2.08006576e-01f,+2.08760738e-01f,+1.26173913e-01f,+1.49589360e-01f,-1.29580021e-01f,
-7.64852017e-02f,-1.99699849e-02f,+1.62104726e-01f,-1.79564461e-01f,+1.80266112e-01f,
+9.36933160e-02f,-1.14648491e-02f,-1.96760461e-01f,-2.13695914e-02f,+6.54975474e-02f,
+2.02550322e-01f,-1.88882649e-01f,-1.96615458e-01f,-1.88106149e-02f,-1.80250317e-01f,
-1.41800046e-01f,+1.12506211e-01f,+1.46080524e-01f,+1.09554976e-01f,+1.97305113e-01f,
-1.34984955e-01f,-8.86392146e-02f,-2.12689191e-01f,+1.86739713e-02f,-1.86373636e-01f,
-1.04895703e-01f,-1.23907410e-01f,-2.14410633e-01f,-2.83382684e-02f,+1.13612175e-01f,
-9.11726058e-03f,+4.52632904e-02f,+5.53545058e-02f,+1.87704027e-01f,+3.84170711e-02f,
-1.55888319e-01f,-1.57280475e-01f,+7.80597329e-04f,-3.49630862e-02f,+8.20952356e-02f,
+4.49399948e-02f,+4.57188487e-03f,+1.68334603e-01f,-2.14651659e-01f,-5.47415763e-02f,
+9.53561068e-02f,-3.89913917e-02f,-1.57355219e-01f,-8.66521746e-02f,+1.04814470e-01f,
-1.95292622e-01f,+1.93048149e-01f,-1.94629163e-01f,+1.23557001e-02f,+5.88787496e-02f,
-8.93511474e-02f,+2.03477472e-01f,-2.17971444e-01f,+4.62333560e-02f,-5.86847961e-02f,
-6.80913776e-02f,+1.34883434e-01f,+2.16117352e-02f,-1.80710033e-01f,+6.85807467e-02f,
-1.22193694e-01f,-1.85017377e-01f,+1.85712457e-01f,+5.66714704e-02f,-1.73657432e-01f,
-2.00807273e-01f,-1.52024269e-01f,+1.48532122e-01f,+1.20108396e-01f,-7.76910186e-02f,
+1.22049063e-01f,+1.86107904e-02f,-4.17305678e-02f,+2.55359709e-03f,-1.89356387e-01f,
-7.27921724e-03f,+1.94526047e-01f,-2.08342552e-01f,-7.77993351e-02f,+1.76346809e-01f,
+1.31096959e-01f,-1.31914765e-01f,+2.11722791e-01f,+1.13249153e-01f,+6.54372573e-03f,
+1.96350604e-01f,+1.80358112e-01f,-2.14710772e-01f,+1.88396782e-01f,+1.33628100e-01f,
-1.57480657e-01f,+1.03868395e-01f,-4.96873260e-03f,+1.94957256e-02f,+2.06731260e-01f,
+8.32855701e-03f,+2.94495523e-02f,-2.85820663e-02f,-1.05097651e-01f,+6.85027242e-03f,
+2.14535117e-01f,-1.15225390e-01f,+1.14308596e-01f,-2.19447926e-01f,+2.51839012e-02f,
-7.67316669e-02f,-4.01154757e-02f,+7.10560679e-02f,-9.19258595e-02f,+1.36339664e-03f,
-6.43305480e-02f,+8.80281031e-02f,-8.24631900e-02f,+1.61418170e-01f,-1.43758893e-01f,
+1.74725711e-01f,+1.68420076e-01f,-4.27072942e-02f,+8.67393911e-02f,+1.38416857e-01f,
+4.63573635e-02f,+9.16004479e-02f,-1.25686824e-02f,-1.50893793e-01f,+1.83676958e-01f,
+7.91442394e-02f,-2.47118771e-02f,+8.95904005e-02f,-6.54396415e-02f,-1.87424898e-01f,
+1.91853732e-01f,+1.28282249e-01f,-8.31992030e-02f,-3.77629250e-02f,+1.91242456e-01f,
-2.20114321e-01f,-1.40487611e-01f,+2.05156356e-02f,-1.58075035e-01f,+8.58612359e-02f,
+1.02320462e-01f,+2.02715516e-01f,+1.15612864e-01f,-1.88465491e-01f,+2.02078551e-01f,
+2.13186800e-01f,+1.96883827e-01f,-1.36523902e-01f,+1.28914267e-01f,+6.85672462e-03f,
-2.18573287e-01f,+2.05460787e-02f,-7.94898719e-02f,-1.14334442e-01f,+1.38305962e-01f,
-1.07975006e-02f,-1.52358860e-01f,-4.61292267e-03f,-1.82243764e-01f,+1.02334797e-01f,
-3.46247703e-02f,+5.77833951e-02f,+1.17636591e-01f,+1.38789833e-01f,+1.67385608e-01f,
+6.11190200e-02f,-1.07279338e-01f,-1.94687098e-01f,+2.01868445e-01f,-1.51755527e-01f,
-1.07891098e-01f,-1.24236025e-01f,+2.31537819e-02f,-6.85894191e-02f,+3.79991531e-03f,
+1.71019822e-01f,-6.48655742e-02f,+1.85104281e-01f,+2.03562379e-01f,-1.81553960e-01f,
+1.79712355e-01f,+2.21388340e-02f,+4.84304428e-02f,+1.96126848e-01f,+3.94962728e-03f,
+1.79803312e-01f,+1.93276852e-02f,+1.06274903e-01f,+7.95336366e-02f,+7.98965394e-02f,
-1.98952019e-01f,-1.81092858e-01f,-2.15913981e-01f,+1.19957000e-01f,-1.46829396e-01f,
+1.36105478e-01f,-9.31120962e-02f,+1.16816163e-02f,+6.64764643e-02f,-2.22207829e-01f,
+2.03548521e-02f,-1.39875636e-01f,+4.41530049e-02f,-1.40926689e-01f,+1.15376115e-01f,
+2.10519969e-01f,+7.85850585e-02f,+1.86189801e-01f,+4.01062965e-02f,-1.78314835e-01f,
+1.17306322e-01f,+1.66468889e-01f,+1.95357978e-01f,+1.74631238e-01f,-3.57982665e-02f,
+1.38687432e-01f,-1.58462226e-01f,-1.04706503e-01f,+1.34202868e-01f,+1.65314645e-01f,
+1.05551988e-01f,+1.91891581e-01f,+1.50974602e-01f,-1.55653179e-01f,+6.49414361e-02f,
-1.75461143e-01f,+1.17678910e-01f,+1.14975631e-01f,-9.32974070e-02f,-2.16939375e-01f,
+1.47462040e-02f,-1.67806178e-01f,-3.29598933e-02f,-6.83736652e-02f,+3.02533507e-02f,
+3.58768106e-02f,-1.12362854e-01f,-1.63847506e-02f,-2.91669518e-02f,-2.13425592e-01f,
+7.92763531e-02f,+9.47474837e-02f,-1.75052822e-01f,-1.63162485e-01f,-4.68218327e-03f,
+1.23658538e-01f,+2.70627141e-02f,-8.64010155e-02f,-1.46180540e-02f,-1.05849355e-02f,
+1.34996355e-01f,+2.13553637e-01f,+3.58549356e-02f,-3.81584466e-02f,+2.16705441e-01f,
+1.01825565e-01f,+3.50850224e-02f,-6.26655519e-02f,+9.34538245e-03f,+7.91479349e-02f,
+1.70300543e-01f,+6.42146468e-02f,-8.16599876e-02f,+1.34343565e-01f,+9.92910564e-02f,
-2.05044985e-01f,+2.03042656e-01f,+4.06444073e-04f,-1.64932340e-01f,-2.94337273e-02f,
+1.86846852e-02f,-5.43233454e-02f,-1.34635717e-02f,+1.30561918e-01f,-6.35823011e-02f,
+1.17588818e-01f,+2.18694985e-01f,+6.20164871e-02f,-2.66501904e-02f,+4.82572317e-02f,
-9.74595845e-02f,+4.47389483e-03f,+1.92340732e-01f,-1.84182614e-01f,+1.52941495e-02f,
+1.77520514e-02f,+1.70074344e-01f,-1.46086484e-01f,+1.61675096e-01f,+1.88894928e-01f,
-1.09144993e-01f,+5.18787801e-02f,+2.18413711e-01f,+6.83614612e-02f,-1.72156870e-01f,
+9.45522785e-02f,-4.90550995e-02f,+2.16504097e-01f,-1.85337886e-01f,-1.71635479e-01f,
-2.03686059e-02f,-7.90935457e-02f,-1.11410752e-01f,-1.07497916e-01f,+7.71443546e-02f,
+2.11354345e-02f,+2.23408639e-01f,+1.24056458e-01f,+7.71724880e-02f,+1.36990339e-01f,
-1.86128616e-01f,-4.88237292e-02f,+1.62454993e-01f,+1.61041617e-01f,+2.21082300e-01f,
+1.56422675e-01f,-2.17420742e-01f,+2.13438541e-01f,-1.88360363e-02f,-2.14388400e-01f,
+7.58880973e-02f,+8.72990489e-02f,-1.41985938e-01f,-1.65768057e-01f,-5.53285480e-02f,
+1.13227636e-01f,+5.91767132e-02f,-5.36880791e-02f,+1.53081715e-02f,-1.52658731e-01f,
-9.04166996e-02f,+3.71491313e-02f,+1.81945175e-01f,-2.07160950e-01f,+2.21291244e-01f,
+1.48960650e-02f,-7.07763433e-02f,-1.34042710e-01f,-1.71985939e-01f,-1.29170716e-02f,
-1.90107226e-01f,-2.11651042e-01f,+1.07914299e-01f,+2.09674805e-01f,-1.30338654e-01f,
-1.23800732e-01f,+1.43051267e-01f,-3.19772959e-02f,-1.68020919e-01f,+2.01992840e-02f,
+1.88279748e-01f,-2.03611702e-01f,+1.69900954e-01f,-1.82439521e-01f,-9.87167358e-02f,
+2.16680825e-01f,+2.11668432e-01f,+2.13350356e-02f,+9.24955308e-02f,-1.60520673e-01f,
-1.52341530e-01f,+9.66704488e-02f,-1.50647461e-02f,+3.00566852e-02f,-1.23568177e-02f,
+1.99983776e-01f,-2.57886201e-02f,-1.24816276e-01f,+1.13208592e-02f,+3.98133993e-02f,
+1.90094709e-02f,-1.70089632e-01f,+2.98577547e-02f,-1.03839971e-01f,-1.92518055e-01f,
+1.11825615e-01f,+9.58973765e-02f,-5.57321161e-02f,+1.42283678e-01f,+2.36087441e-02f,
-1.20337456e-02f,+2.18519986e-01f,-1.18929505e-01f,+8.32492113e-02f,+6.79931045e-03f,
+1.04783803e-01f,+2.16745377e-01f,+1.32238120e-01f,-1.33781552e-01f,+1.64371014e-01f,
+4.57525253e-04f,+1.17486179e-01f,+2.05732435e-01f,+1.44806355e-01f,-7.58435875e-02f,
-7.14745671e-02f,-8.98573995e-02f,-1.95989415e-01f,-1.94934905e-02f,+1.84886187e-01f,
+7.10505247e-02f,-7.79300630e-02f,+1.66584373e-01f,-1.73989996e-01f,+5.43569922e-02f,
+1.62546039e-01f,-9.02882218e-03f,-1.29295126e-01f,-3.15584242e-02f,+1.66123390e-01f,
+1.95740432e-01f,-2.17797339e-01f,+1.33819550e-01f,+1.27532423e-01f,-1.42145604e-01f,
-3.33892554e-02f,-5.55767119e-02f,-1.23098493e-02f,-5.60294390e-02f,-1.72443688e-01f,
-1.19060338e-01f,-1.08723722e-01f,+1.63844973e-01f,-6.71880096e-02f,+6.96237981e-02f,
-2.13301748e-01f,-1.87361717e-01f,+5.34354746e-02f,-1.22403800e-01f,-3.27669531e-02f,
-1.28636777e-01f,+2.56382823e-02f,+2.19229519e-01f,-2.04527110e-01f,-2.05097765e-01f,
-1.82764038e-01f,+1.45205498e-01f,-4.58407551e-02f,+3.74546349e-02f,-1.33512467e-02f,
+2.10848957e-01f,-1.56640291e-01f,+1.12375319e-01f,+2.19703496e-01f,+1.95603698e-01f,
-9.83721763e-02f,-1.47020355e-01f,+2.11587995e-02f,-1.98312968e-01f,-1.59799621e-01f,
-1.89530179e-01f,+7.24707544e-02f,-9.05789286e-02f,+1.42415851e-01f,-3.14240158e-02f,
-1.18897147e-01f,-8.93916190e-02f,+3.95701528e-02f,-1.78593695e-02f,-1.09567329e-01f,
-6.56963438e-02f,-8.49059373e-02f,+1.58322334e-01f,-9.91897732e-02f,+1.21686548e-01f,
-5.42789847e-02f,-1.81152314e-01f,-1.51784271e-01f,-1.42562687e-02f,-2.05426067e-01f,
+1.89389825e-01f,+1.86582714e-01f,-5.91320843e-02f,+1.13697469e-01f,+6.15815520e-02f,
-6.27676398e-02f,+7.67503083e-02f,-1.84801817e-02f,+4.90523875e-03f,-3.37438434e-02f,
-4.54478562e-02f,-1.84709877e-01f,+3.91549170e-02f,+1.99671954e-01f,-1.44103602e-01f,
-1.17095150e-01f,-9.02214199e-02f,-6.19832128e-02f,-1.38543531e-01f,+1.34033859e-02f,
-1.67059705e-01f,+2.10773945e-01f,+2.06754774e-01f,+1.55439973e-01f,-8.96951258e-02f,
-1.31538808e-01f,+4.28045392e-02f,-1.20287575e-01f,-1.38580739e-01f,-1.10467561e-01f,
-2.96069831e-02f,+8.02310705e-02f,+1.25489324e-01f,+6.91180527e-02f,+1.86413884e-01f,
-1.35676563e-01f,+1.56158954e-01f,-1.67482942e-02f,-1.16774634e-01f,-1.31305635e-01f,
-1.29615262e-01f,-7.45574385e-02f,+1.29428566e-01f,-1.79581046e-01f,+1.05772436e-01f,
+2.19304502e-01f,+1.17154270e-01f,-1.47566110e-01f,-6.24182820e-03f,+1.65380895e-01f,
+1.95277631e-02f,+3.03815007e-02f,-4.68738377e-02f,+1.28534794e-01f,+1.85807258e-01f,
-1.31193250e-01f,-1.02120496e-01f,+4.74530756e-02f,+1.66658163e-02f,+1.39026761e-01f,
-1.28027737e-01f,+1.96829885e-01f,-3.32333297e-02f,+1.04949832e-01f,+5.38797975e-02f,
-1.57310098e-01f,-9.90878418e-02f,-1.89643472e-01f,-2.02616036e-01f,+1.26851827e-01f,
+1.95459336e-01f,-1.17763363e-01f,+3.71289253e-02f,+7.90458918e-02f,+1.60482764e-01f,
+1.67223781e-01f,-1.03325345e-01f,-4.34922129e-02f,-7.13329613e-02f,+1.19069725e-01f,
-1.64464414e-01f,-1.01901546e-01f,+2.03173757e-02f,+9.70230699e-02f,-1.39546171e-01f,
+2.00100780e-01f,+6.24657273e-02f,-5.70322871e-02f,-1.63554907e-01f,-1.53295994e-02f,
+8.65359008e-02f,-2.18779132e-01f,-1.76669404e-01f,-9.05553102e-02f,+1.72277570e-01f,
-1.45598203e-01f,-1.82774812e-01f,-5.05798757e-02f,+2.20612139e-01f,+1.01601183e-01f,
-1.19389482e-01f,-2.02954888e-01f,-1.04681075e-01f,-1.15274541e-01f,-5.83339036e-02f,
-1.30917877e-01f,+2.16555744e-01f,+2.96734273e-03f,-4.97093946e-02f,+1.64379507e-01f,
+1.44665390e-01f,-1.45486414e-01f,+9.12556648e-02f,-1.54462442e-01f,-1.08506531e-01f,
+1.58654898e-01f,-4.15613055e-02f,+1.25675350e-01f,-8.06267411e-02f,-1.07617125e-01f,
-9.62044150e-02f,-1.20380074e-01f,+8.22801590e-02f,-4.39377427e-02f,+1.82594210e-02f,
+1.54325217e-01f,-4.07563895e-02f,-1.66644454e-01f,-3.41208130e-02f,+1.40822023e-01f,
+2.04302818e-02f,-1.20847091e-01f,+1.06484830e-01f,+6.97779655e-03f,-1.50700107e-01f,
+8.26832652e-03f,+6.31026924e-03f,-1.75983071e-01f,-7.35102892e-02f,+5.92335463e-02f,
-1.50659323e-01f,-1.58371717e-01f,+2.64953673e-02f,-2.14691266e-01f,+2.68171132e-02f,
+1.69321626e-01f,+1.22993231e-01f,+1.86091602e-01f,-2.01511845e-01f,+4.56931293e-02f,
+1.47228003e-01f,+2.51349658e-02f,-4.91300672e-02f,-4.46005613e-02f,+1.73276365e-01f,
-1.27656847e-01f,+2.13569164e-01f,+1.45441532e-01f,+2.92551816e-02f,-2.18201593e-01f,
+2.21018612e-01f,-1.50412321e-02f,+1.34476423e-02f,+1.64981335e-01f,-5.06879985e-02f,
-1.29401639e-01f,-2.08005831e-01f,-6.96664304e-02f,-5.39935082e-02f,+6.71187043e-03f,
-3.70733291e-02f,-1.94450930e-01f,-2.01088920e-01f,-1.01543449e-01f,+6.66740835e-02f,
+7.69138336e-04f,+1.36255324e-02f,+2.46223658e-02f,-1.56695738e-01f,-1.33203059e-01f,
+8.03596079e-02f,-1.04188628e-01f,-1.61489233e-01f,-1.47414863e-01f,+1.78540796e-02f,
-6.58235401e-02f,+2.66500413e-02f,-2.18709871e-01f,-1.46144778e-02f,-1.34994715e-01f,
-1.83558464e-03f,+1.65939927e-01f,+1.06974393e-01f,-8.24306160e-02f,+9.96228158e-02f,
+1.55894846e-01f,-2.22583950e-01f,+4.68144417e-02f,+1.62679374e-01f,+7.67198801e-02f,
+8.67214799e-02f,+6.81503117e-03f,+9.11501646e-02f,-8.03803951e-02f,+1.31233037e-03f,
+1.01265311e-01f,+1.76302195e-01f,-8.94223154e-03f,-1.41797274e-01f,-8.14195424e-02f,
-8.36438835e-02f,+1.47031486e-01f,-6.45177215e-02f,+1.91361725e-01f,-1.84082285e-01f,
-2.11690977e-01f,+1.10968590e-01f,-4.57600951e-02f,-2.19199121e-01f,+6.34304285e-02f,
-1.90712065e-02f,+2.37820148e-02f,-6.32593930e-02f,+2.04894274e-01f,+1.55907422e-01f,
+9.81421471e-02f,+6.33651018e-03f,+1.42654151e-01f,+8.05371702e-02f,-2.04336315e-01f,
+1.33583635e-01f,+1.71528906e-01f,+1.88896447e-01f,-8.52815807e-03f,-1.73977464e-01f,
-8.79035890e-03f,-1.56781197e-01f,-3.45470309e-02f,-1.85777277e-01f,+9.04096663e-03f,
-9.23480242e-02f,+1.59905106e-02f,-1.82793677e-01f,-2.20797196e-01f,+1.39823407e-01f,
+8.27589631e-02f,+4.09874022e-02f,+6.38845265e-02f,-1.87191218e-01f,-1.01221494e-01f,
-1.00560531e-01f,-3.60830128e-02f,+2.83060074e-02f,-1.24932118e-01f,-3.11942399e-02f,
+9.00827646e-02f,+2.47349590e-02f,-1.99448943e-01f,+8.51958990e-02f,-6.24009669e-02f,
-1.59526020e-02f,-1.24988310e-01f,+2.75971889e-02f,-1.68588787e-01f,-4.84564602e-02f,
-1.83496490e-01f,+1.81965142e-01f,-2.10732102e-01f,+2.14033782e-01f,+1.74112469e-01f,
-1.71367317e-01f,+1.34316802e-01f,+1.10597908e-01f,-1.31853610e-01f,+7.76943564e-02f,
-1.77100167e-01f,-1.68606445e-01f,+1.45106137e-01f,-1.80113420e-01f,-1.49237812e-01f,
-1.21529430e-01f,-1.95130557e-01f,+1.73683017e-02f,+1.58373773e-01f,+1.61811829e-01f,
-9.74954665e-02f,+4.87257540e-02f,+1.30157709e-01f,+9.97188985e-02f,-1.63335919e-01f,
+1.42058671e-01f,-1.70025766e-01f,-5.29002249e-02f,-1.68084472e-01f,+1.43527091e-02f,
-1.79889455e-01f,+1.66981876e-01f,-2.06176490e-01f,+1.64753944e-01f,-1.59686118e-01f,
+1.28527761e-01f,-1.60828799e-01f,-1.23102345e-01f,+8.78394246e-02f,-2.08060697e-01f,
+1.73428416e-01f,-7.67955333e-02f,+5.96103370e-02f,-5.56582212e-03f,+1.40121043e-01f,
-1.70374006e-01f,+7.79277086e-02f,-6.06667846e-02f,-4.74970639e-02f,+1.73237920e-01f,
-1.75403774e-01f,-7.76230395e-02f,-6.55206293e-02f,+6.36240542e-02f,+1.02028519e-01f,
-1.43671617e-01f,-5.33263534e-02f,+3.67954671e-02f,+1.80676550e-01f,+1.16107076e-01f,
-1.57417893e-01f,-1.41420886e-01f,+1.74482971e-01f,+2.27751583e-02f,+2.01261342e-02f,
+1.55402660e-01f,-1.15409791e-02f,-4.17048186e-02f,-1.41113490e-01f,-2.11249396e-01f,
-2.04480633e-01f,-1.02563947e-01f,-1.55530870e-02f,-6.76686764e-02f,+2.16020226e-01f,
+1.37506723e-01f,+2.06639230e-01f,+1.50850624e-01f,+1.55942649e-01f,-4.78672087e-02f,
+2.07600564e-01f,-1.50096357e-01f,+8.40482712e-02f,+1.00209475e-01f,+4.74815071e-02f,
-5.00895232e-02f,+2.99248993e-02f,-1.86597914e-01f,-1.37389123e-01f,+3.60536277e-02f,
+1.47474527e-01f,-4.07478064e-02f,+8.66872072e-02f,-2.24805623e-02f,+1.40421808e-01f,
-2.91644037e-03f,+6.43573105e-02f,-2.10826993e-01f,+1.92988306e-01f,+1.94903404e-01f,
-1.33456081e-01f,+2.26103663e-02f,-1.07437462e-01f,-3.16577405e-02f,+8.45726728e-02f,
-1.57727301e-02f,-5.77672422e-02f,+1.12636656e-01f,-1.72367454e-01f,-7.98720568e-02f,
+1.73201352e-01f,+1.06368124e-01f,-2.51958966e-02f,+2.12163091e-01f,-1.10684432e-01f,
+1.23278379e-01f,+1.75837159e-01f,+1.78298354e-02f,-5.76453209e-02f,-2.00310141e-01f,
+2.07565635e-01f,-3.65825444e-02f,+1.37449503e-01f,+8.79029334e-02f,+5.83862662e-02f,
+1.68899804e-01f,-1.03916824e-02f,+9.85226929e-02f,-5.67207783e-02f,+1.76045060e-01f,
-4.21890020e-02f,-8.11557472e-03f,+4.72325385e-02f,+1.99157894e-01f,-1.89311236e-01f,
+5.74484468e-03f,+1.68055981e-01f,-1.83357775e-01f,-2.05464184e-01f,-3.45779061e-02f,
+1.96004272e-01f,-4.12157923e-02f,+6.77883625e-03f,-8.18713158e-02f,-2.85881907e-02f,
-1.09810166e-01f,+9.48753953e-02f,-5.48575819e-02f,+6.30915165e-02f,-1.47643685e-01f,
+2.67891884e-02f,-4.20494229e-02f,+1.49030060e-01f,-7.69280046e-02f,-2.24628597e-02f,
-5.03465831e-02f,-5.20773232e-03f,+2.33173370e-02f,-2.09429055e-01f,-1.17638342e-01f,
+7.23513961e-02f,-3.96249592e-02f,-1.98582515e-01f,-3.66901755e-02f,+1.91637456e-01f,
+7.94497132e-02f,-1.35550648e-02f,-8.33219290e-03f,+3.02031338e-02f,+1.52371079e-01f,
+2.10460275e-01f,+5.27823567e-02f,+2.14220524e-01f,-2.79840827e-03f,-7.41569698e-03f,
-1.93655416e-01f,-1.85381770e-01f,-4.82379347e-02f,+1.84876889e-01f,-7.10326135e-02f,
+1.20266795e-01f,+1.62082911e-02f,+1.73731655e-01f,-2.02327624e-01f,-1.76268339e-01f,
-1.76795378e-01f,-2.11917460e-02f,+3.70806456e-03f,-1.16506420e-01f,-1.24858178e-01f,
-1.87361777e-01f,+1.29322112e-01f,+7.22542107e-02f,-1.74634650e-01f,-1.19776472e-01f,
-1.59699172e-01f,+1.93720192e-01f,-7.36123174e-02f,-1.98368400e-01f,-1.83247998e-01f,
-1.43799186e-03f,+4.99466956e-02f,-1.25902399e-01f,+1.11733824e-01f,-6.76148236e-02f,
-3.11879069e-02f,-1.55749977e-01f,-1.71854481e-01f,+6.76871240e-02f,-1.57690853e-01f,
+1.51549041e-01f,-8.56973082e-02f,+1.94097251e-01f,-1.73703447e-01f,+7.74185359e-02f,
-1.51418656e-01f,+3.84099782e-02f,-6.80782646e-02f,+1.01434320e-01f,+8.50359201e-02f,
+5.76777458e-02f,+9.79300141e-02f,-2.32120454e-02f,+1.68177485e-03f,-1.11541741e-01f,
+2.06125259e-01f,+1.79464400e-01f,+1.40549600e-01f,+2.13600248e-01f,-2.09597096e-01f,
-9.81703997e-02f,-1.07805155e-01f,-1.73933432e-01f,-1.92463994e-01f,+4.29578125e-03f,
-1.82656184e-01f,+8.48759711e-03f,-1.26737535e-01f,+1.77405119e-01f,+5.44246435e-02f,
-1.26318544e-01f,-1.45921111e-01f,+6.90837801e-02f,+2.21222639e-01f,-1.95622474e-01f,
+2.01668531e-01f,-2.22480252e-01f,-1.79371357e-01f,+8.48029554e-02f,-1.36236250e-01f,
-8.63750577e-02f,+1.46404803e-01f,+6.37700260e-02f,-1.61537752e-01f,+6.59538507e-02f,
+1.21330142e-01f,-1.91661432e-01f,-1.99764013e-01f,+4.40672040e-03f,-3.71424258e-02f,
-1.12313539e-01f,+2.14592963e-01f,-1.11267932e-01f,+1.36735201e-01f,+1.49809688e-01f,
+2.06747234e-01f,+4.74294722e-02f,-1.40184581e-01f,-1.18360773e-01f,+1.57292634e-01f,
-5.97114265e-02f,+1.52559727e-02f,+7.13703334e-02f,-2.01408476e-01f,-1.67958319e-01f,
-3.09514701e-02f,+5.95533550e-02f,+1.51582807e-01f,+1.67010874e-01f,-1.03158638e-01f,
-1.13952778e-01f,+1.48282796e-01f,+2.21391797e-01f,-4.88525182e-02f,+3.96774709e-03f,
+3.85256112e-02f,+2.03679293e-01f,+1.97291970e-01f,+1.58498794e-01f,-1.53136894e-01f,
-2.55066603e-02f,-2.20885217e-01f,-1.46688223e-01f,-1.59935832e-01f,-1.08587086e-01f,
-2.15824097e-02f,+1.90384775e-01f,-3.89228910e-02f,+1.78912610e-01f,-1.16311565e-01f,
+2.64500082e-02f,-1.20426193e-01f,-2.06654429e-01f,+1.57816410e-02f,+2.00984329e-01f,
+2.10473001e-01f,-6.85176104e-02f,+8.66904557e-02f,+1.58724695e-01f,+1.05630130e-01f,
+2.12294996e-01f,+2.56630182e-02f,+1.40107125e-01f,+1.27344161e-01f,-5.94762117e-02f,
+4.60753739e-02f,+3.99397612e-02f,-1.03148833e-01f,-5.84910661e-02f,+2.33638883e-02f,
-5.95330000e-02f,-1.96750119e-01f,-1.94173604e-01f,-4.15074080e-02f,-9.38187987e-02f,
+1.70240402e-01f,+2.16789961e-01f,+4.72407937e-02f,+9.27146673e-02f,-1.86036050e-01f,
+1.07549578e-01f,+2.48458534e-02f,-1.64697602e-01f,-1.89917490e-01f,-4.13795114e-02f,
-2.95987725e-03f,+1.14321589e-01f,+1.82748139e-01f,-9.28287506e-02f,-1.54662877e-02f,
-7.39464760e-02f,-1.37835070e-01f,+2.19410598e-01f,-1.15687869e-01f,+1.70945346e-01f,
-1.60857052e-01f,-1.26228839e-01f,+1.66188091e-01f,-1.16944492e-01f,-2.12268561e-01f,
+4.12455797e-02f,-1.55835181e-01f,-1.05206251e-01f,-4.92134988e-02f,-7.37954974e-02f,
+1.51351005e-01f,+1.47134662e-01f,+2.05834806e-01f,-1.99461043e-01f,-1.47242770e-01f,
+6.42063916e-02f,+2.46459842e-02f,+1.94933504e-01f,+2.01043934e-02f,-2.10627764e-02f,
+1.88319892e-01f,+1.35829359e-01f,+4.94008362e-02f,+1.28311902e-01f,-1.06227398e-02f,
+7.79598653e-02f,+1.41569525e-02f,+1.46151036e-01f,-1.55802816e-01f,+1.35763258e-01f,
+1.89200938e-01f,+2.38716304e-02f,+1.57523513e-01f,-2.12493584e-01f,+2.65513957e-02f,
-1.19946063e-01f,+1.99161381e-01f,+2.00907886e-01f,-1.84544921e-03f,+2.10496306e-01f,
-1.76805466e-01f,+1.43632472e-01f,-1.13500744e-01f,-7.89185166e-02f,-1.41533047e-01f,
-2.47163028e-02f,-1.52961925e-01f,+1.98458821e-01f,+2.44121253e-03f,-1.30180359e-01f,
-1.05281897e-01f,+1.66421890e-01f,-1.93060711e-01f,+6.29080832e-02f,-1.55237079e-01f,
+1.34326607e-01f,+6.67645037e-02f,-2.12163106e-01f,-1.79230511e-01f,+1.87639147e-02f,
-1.87092066e-01f,+4.83472347e-02f,+1.09847009e-01f,-7.09565878e-02f,-2.07361400e-01f,
+7.47746229e-02f,+6.96071088e-02f,+1.97556078e-01f,-1.16888940e-01f,+2.06779242e-02f,
+1.63540363e-01f,+1.13247365e-01f,+9.28357840e-02f,-7.97732174e-02f,+8.48124921e-03f,
-1.61407351e-01f,+1.31348282e-01f,+1.31826222e-01f,-2.77356356e-02f,-8.47454220e-02f,
-2.22122163e-01f,-1.05278060e-01f,+1.85685158e-01f,+2.01474577e-02f,-1.32489204e-01f,
-8.29823315e-03f,-1.87496752e-01f,+7.80089200e-02f,-1.33858263e-01f,-2.20111713e-01f,
+1.18180156e-01f,-1.18867449e-01f,-1.87676102e-01f,+2.09926128e-01f,+7.19947815e-02f,
-2.09303662e-01f,+1.52446777e-02f,-3.46275419e-02f,+1.35138333e-01f,+1.24602318e-01f,
+4.75409627e-03f,+8.88348818e-02f,+1.25037670e-01f,-1.37766778e-01f,+8.94658864e-02f,
+1.78211331e-02f,-1.30055934e-01f,+5.35241365e-02f,-4.80170101e-02f,+6.77340925e-02f,
-1.05507836e-01f,+1.37955934e-01f,+1.25652164e-01f,-9.47228074e-02f,+9.55092609e-02f,
-1.51904374e-01f,+3.66967916e-02f,+2.02975750e-01f,-1.54733419e-01f,-1.07885495e-01f,
+1.71420902e-01f,-2.05205187e-01f,-6.34690672e-02f,+1.82895601e-01f,+1.02324188e-01f,
-2.12564066e-01f,+1.01716936e-01f,+1.42244279e-01f,+1.10645413e-01f,-6.04713410e-02f,
-1.46822572e-01f,+6.68758750e-02f,+6.64567947e-02f,-4.37923074e-02f,-1.29035711e-01f,
+2.62793005e-02f,-1.53168723e-01f,-1.70480102e-01f,+5.06233871e-02f,+9.36777890e-02f,
+1.25850111e-01f,+2.16859728e-01f,+3.17703784e-02f,+2.19146550e-01f,+2.61033773e-02f,
+5.55431247e-02f,-4.18659747e-02f,-2.22211614e-01f,-2.18341947e-02f,+4.14395332e-02f,
+8.91115665e-02f,-1.87419087e-01f,+6.00688457e-02f,-1.25953108e-01f,-8.18129927e-02f,
-1.38625368e-01f,-1.83980674e-01f,-1.17989138e-01f,+1.11024082e-01f,-1.09745339e-01f,
-8.82941335e-02f,+2.17447460e-01f,+4.41304445e-02f,+2.15982914e-01f,-9.71805453e-02f,
+9.99730825e-02f,+1.09907687e-01f,+3.86850536e-02f,-6.66225851e-02f,-2.16537356e-01f,
+1.68678939e-01f,+1.26014203e-01f,-7.99031407e-02f,+1.26906157e-01f,-7.09225684e-02f,
+1.49011731e-01f,+1.73632383e-01f,-1.95627376e-01f,+2.75725126e-03f,-1.21380903e-01f,
+1.37053132e-01f,-1.17107466e-01f,-6.64340705e-02f,+1.59202218e-01f,-1.55439228e-02f,
-1.38350815e-01f,+1.61590248e-01f,+3.19412649e-02f,+1.53645873e-01f,-1.18644126e-01f,
+7.09084868e-02f,+7.83410370e-02f,-8.89313221e-03f,-1.59915894e-01f,-9.52622294e-02f,
-2.11590648e-01f,+7.39960670e-02f,+1.53990328e-01f,+1.81570053e-02f,+1.49463743e-01f,
+1.67820036e-01f,-2.00233102e-01f,-4.67250496e-02f,-1.58558488e-02f,+2.23378181e-01f,
-1.61640272e-01f,-9.67726558e-02f,-1.07874408e-01f,+2.01498568e-02f,-7.22280741e-02f,
-7.12679327e-02f,+9.47181880e-02f,-1.39956996e-01f,-4.27054763e-02f,+2.02796996e-01f,
-8.88753980e-02f,-9.01933163e-02f,+4.09592986e-02f,-7.80466199e-03f,+9.32465494e-02f,
+7.68695772e-03f,+1.51607692e-02f,+1.91839486e-02f,-2.23335281e-01f,-1.58903226e-01f,
-1.24162190e-01f,+1.47717237e-01f,+1.96748942e-01f,+6.66173995e-02f,+1.88650101e-01f,
-2.09924161e-01f,-1.43901289e-01f,-7.13799894e-02f,-1.25117689e-01f,+1.59418166e-01f,
+1.55878305e-01f,-2.04091400e-01f,-1.87545106e-01f,+1.77087635e-01f,+1.89813972e-01f,
+1.52110964e-01f,+5.47607243e-02f,-4.11456227e-02f,+1.91053241e-01f,-4.39880043e-02f,
+1.70281768e-01f,+2.23192334e-01f,+1.73014492e-01f,-1.04226105e-01f,+1.42107278e-01f,
+1.97685361e-01f,+2.18156606e-01f,-1.64910376e-01f,+1.39598042e-01f,+2.11785495e-01f,
-4.43406403e-03f,+1.97823614e-01f,+1.61714524e-01f,+2.12683380e-01f,-1.17682964e-01f,
+5.04880846e-02f,-2.09904596e-01f,+2.09620714e-01f,-1.87671632e-02f,+1.35406852e-04f,
+3.31634879e-02f,+6.10831380e-02f,+1.61734194e-01f,-1.03877604e-01f,-6.42183125e-02f,
-1.14867665e-01f,+1.61186010e-01f,-1.62130952e-01f,+1.39189035e-01f,-2.04617485e-01f,
+2.87832022e-02f,+1.98260248e-01f,-1.16462760e-01f,+2.22662002e-01f,-8.60010237e-02f,
-7.27857202e-02f,-1.17336757e-01f,-8.08507055e-02f,-8.88113678e-03f,+1.02908134e-01f,
-1.08929135e-01f,+4.74455655e-02f,+1.47848994e-01f,+1.36017054e-02f,-8.12906325e-02f,
+2.22164690e-01f,-9.66771245e-02f,+1.94041878e-01f,-5.05477935e-02f,+9.09374952e-02f,
-1.21254660e-01f,+1.28116876e-01f,+1.08819306e-01f,-3.37975770e-02f,+1.30773902e-01f,
-2.06698090e-01f,-6.61695898e-02f,-2.17847764e-01f,+3.27655077e-02f,+8.03919733e-02f,
-6.16163164e-02f,+9.65502858e-02f,+5.12637198e-02f,-1.36701345e-01f,+7.87737370e-02f,
+1.29616648e-01f,+4.15239930e-02f,+1.60167456e-01f,-9.36485827e-02f,+8.27161372e-02f,
-1.43564820e-01f,-1.64626479e-01f,-8.99410993e-02f,+6.56168461e-02f,+3.23821008e-02f,
+8.99766088e-02f,-7.09168613e-02f,-1.88688114e-01f,-1.42301708e-01f,-3.99634838e-02f,
-1.33503571e-01f,-1.46905482e-02f,+1.73009008e-01f,-2.14691967e-01f,-1.66868418e-01f,
+1.81851655e-01f,+2.51147151e-03f,+9.47438180e-02f,+1.68289542e-01f,+2.79619396e-02f,
-4.53816950e-02f,+7.63479769e-02f,+4.14562225e-02f,-3.29722613e-02f,-5.77872843e-02f,
+2.44087428e-02f,+1.93008482e-01f,-4.16037887e-02f,-1.79323971e-01f,-2.11334854e-01f,
-2.01256007e-01f,+6.91289902e-02f,-2.68682986e-02f,+1.02327138e-01f,-4.84083146e-02f,
+1.21140629e-01f,-5.09071052e-02f,+2.19993204e-01f,-1.98784083e-01f,-1.98750764e-01f,
-1.85050637e-01f,-3.22387815e-02f,-2.14467883e-01f,+2.07681149e-01f,-2.80594975e-02f,
+8.53403807e-02f,+1.31250978e-01f,+1.12516552e-01f,-1.52159423e-01f,-1.78088248e-03f,
-4.56228703e-02f,-1.60075188e-01f,-1.62259057e-01f,-8.39399844e-02f,+6.39934540e-02f,
+1.35647029e-01f,+2.02938110e-01f,+9.07335877e-02f,-1.60966620e-01f,-1.70730233e-01f,
-2.93855816e-02f,+1.18261874e-01f,-2.12949082e-01f,+1.78267598e-01f,+1.26257181e-01f,
-1.60093844e-01f,+5.70293963e-02f,+2.17601687e-01f,-1.83840454e-01f,+7.71663189e-02f,
+1.03435129e-01f,+2.88372040e-02f,-1.59582421e-01f,-1.49173439e-02f,+2.19674557e-01f,
+1.40463710e-01f,-1.11622140e-01f,+1.46936655e-01f,+6.72524273e-02f,+1.04798138e-01f,
+4.28746939e-02f,+1.38317853e-01f,-4.33870256e-02f,-1.06545180e-01f,+2.41505504e-02f,
-1.49932683e-01f,+9.55553353e-03f,-2.37279981e-02f,+1.21281207e-01f,+2.76682973e-02f,
-3.72153074e-02f,-4.17023599e-02f,+3.91339362e-02f,-1.28134459e-01f,+1.64142847e-02f,
-9.46091563e-02f,-1.50904626e-01f,+1.13195151e-01f,+1.72785878e-01f,-2.10019276e-01f,
+1.20018393e-01f,-7.72833824e-02f,+1.72660351e-01f,+9.88635719e-02f,+3.25303376e-02f,
-1.24238588e-01f,+3.85329127e-03f,+1.71076596e-01f,-8.46183151e-02f,+2.03156888e-01f,
-1.21299490e-01f,-6.89378232e-02f,+1.72974288e-01f,-1.04349203e-01f,-3.77181917e-02f,
+8.36166441e-02f,+2.02596694e-01f,+3.09896767e-02f,+1.36862934e-01f,+6.66511655e-02f,
+1.47679865e-01f,+1.44632757e-02f,+3.26193273e-02f,-6.14091456e-02f,-2.04704329e-01f,
+1.23084009e-01f,+4.33470905e-02f,+4.74408269e-03f,-6.38090968e-02f,+2.14267433e-01f,
-1.59192234e-01f,+5.99983931e-02f,+1.57458037e-02f,-1.10535532e-01f,-1.38295308e-01f,
-8.62632096e-02f,-1.87907949e-01f,+3.07422578e-02f,-1.53914079e-01f,+2.08042979e-01f,
+8.03455114e-02f,+8.33630860e-02f,+2.02128977e-01f,-1.49488449e-02f,+9.87104475e-02f,
-1.87011138e-01f,+4.10178900e-02f,-6.08070940e-02f,+8.63198936e-02f,+4.02279794e-02f,
-9.01953876e-03f,-2.16094762e-01f,-2.21279293e-01f,+1.25133902e-01f,+5.38031757e-02f,
+4.54223156e-02f,-4.29602116e-02f,-3.41311544e-02f,+1.85929716e-01f,-1.75201774e-01f,
+2.87799537e-02f,-1.25256002e-01f,-2.08447516e-01f,+1.30978018e-01f,-7.68094957e-02f,
+2.12069273e-01f,-1.14913993e-01f,+1.40026033e-01f,+3.51376235e-02f,+2.98386812e-02f,
-2.00722605e-01f,-1.26549989e-01f,-1.22855403e-01f,+1.81458384e-01f,-1.79117113e-01f,
-2.14543328e-01f,+2.10781723e-01f,-9.42460448e-02f,+6.52143359e-02f,-2.59027034e-02f,
-1.96165070e-01f,-5.66415042e-02f,-1.80851370e-02f,-6.43826872e-02f,-2.10159719e-02f,
-8.35684985e-02f,+7.48209655e-02f,-2.20059410e-01f,+7.49215186e-02f,+9.20604765e-02f,
-4.18514758e-02f,+4.02535498e-02f,+8.23780298e-02f,+1.24651700e-01f,-1.37006909e-01f,
+2.92342305e-02f,-2.07469091e-01f,+1.41681522e-01f,+2.88653076e-02f,+3.21159661e-02f,
-2.38351673e-02f,-7.64245838e-02f,-4.67391312e-03f,-1.44534320e-01f,-8.30277652e-02f,
+5.76226115e-02f,-1.94964483e-01f,+5.81718981e-03f,-1.07518658e-01f,-1.17967278e-02f,
+1.12453163e-01f,-2.98681110e-02f,-4.44047451e-02f,-1.34223491e-01f,-1.75641552e-01f,
+1.62674695e-01f,-1.28492400e-01f,+1.80180699e-01f,+1.44879937e-01f,-4.45241630e-02f,
+1.07661486e-01f,+1.34154886e-01f,+7.27479756e-02f,-3.47361416e-02f,+4.04048562e-02f,
-3.85283828e-02f,+1.94023222e-01f,+1.14367336e-01f,+5.60230017e-03f,-1.96423903e-01f,
-7.26524889e-02f,-1.24752350e-01f,-1.59675241e-01f,+1.59183800e-01f,+1.31419033e-01f,
+4.19118702e-02f,+2.19051003e-01f,+3.19707990e-02f,+1.65032357e-01f,+1.29452616e-01f,
+4.58883047e-02f,-6.40356690e-02f,+2.21575350e-01f,+1.58449292e-01f,-2.14096621e-01f,
+1.33332402e-01f,+1.57098889e-01f,+1.31540030e-01f,-1.66150093e-01f,-9.86469015e-02f,
+1.90165728e-01f,-2.07428783e-01f,-1.20150410e-01f,-4.06430513e-02f,+9.04752314e-03f,
+2.20041543e-01f,+1.31956786e-02f,+1.31725252e-01f,+7.59643912e-02f,+6.31248355e-02f,
+4.30333018e-02f,+1.95425749e-03f,+8.42164159e-02f,-3.19789499e-02f,-7.63682276e-02f,
-1.91741079e-01f,-1.86085165e-01f,+1.47698164e-01f,+1.74497783e-01f,+1.22922748e-01f,
-1.21254764e-01f,+1.93134278e-01f,-1.72018200e-01f,+2.07351804e-01f,-4.25713509e-02f,
+2.23073572e-01f,+1.76720053e-01f,+1.07430547e-01f,+5.53995967e-02f,+1.80612504e-02f,
-1.36694163e-02f,+4.84679639e-02f,-1.02675050e-01f,+1.88970357e-01f,-1.60912246e-01f,
+2.42253989e-02f,-1.56571567e-02f,-1.27017796e-01f,+8.33626688e-02f,-3.72734666e-02f,
+4.88878489e-02f,+1.94648564e-01f,-1.77414224e-01f,-2.31066495e-02f,-1.43187016e-01f,
+8.05269480e-02f,-1.54427886e-02f,+2.07515270e-01f,-1.95999920e-01f,-1.24280117e-01f,
+2.20336467e-02f,+2.05279082e-01f,+3.06762755e-03f,-1.58919126e-01f,-2.63617784e-02f,
+2.26277560e-02f,+1.28785074e-01f,+5.32835424e-02f,+2.16081470e-01f,-1.35450363e-02f,
-1.22407958e-01f,-1.69483587e-01f,-1.09270327e-01f,-2.02310935e-01f,-9.43885446e-02f,
+1.45810544e-02f,+2.43737251e-02f,+1.78027213e-01f,-1.76750332e-01f,+1.17505342e-01f,
-1.20358162e-01f,-2.09614158e-01f,-2.10383445e-01f,+7.15247989e-02f,-1.65777594e-01f,
-9.49507803e-02f,-9.65032279e-02f,-2.05031991e-01f,-1.24137133e-01f,-2.16408968e-02f,
-3.43123525e-02f,-1.57591641e-01f,+3.77583802e-02f,-9.61502939e-02f,+6.60172403e-02f,
+2.22240448e-01f,-8.42833072e-02f,+4.56689894e-02f,-1.59152895e-02f,-4.45527434e-02f,
+8.62333179e-03f,-1.81849092e-01f,-1.46887988e-01f,+2.20207512e-01f,-1.93180934e-01f,
+2.17274725e-02f,+8.57488513e-02f,+4.21087742e-02f,-2.83777714e-02f,-7.24486858e-02f,
+2.73796022e-02f,-3.83714885e-02f,+4.01858091e-02f,-1.85377181e-01f,+8.76018703e-02f,
-4.96658981e-02f,-1.36404485e-01f,-1.58711731e-01f,-1.70283854e-01f,-3.93355191e-02f,
-1.36878043e-02f,+2.02176541e-01f,-1.55888170e-01f,-1.01889066e-01f,+4.24354970e-02f,
-4.38209772e-02f,+8.45123827e-03f,+1.05300277e-01f,-1.58339232e-01f,+7.34295547e-02f,
-6.14313334e-02f,-1.27746046e-01f,-7.01093525e-02f,+2.19162822e-01f,+3.46197188e-03f,
+4.90912795e-03f,+3.77229452e-02f,+2.68717110e-02f,+2.05180079e-01f,+1.03251129e-01f,
-1.73311502e-01f,+3.90726924e-02f,+3.48115265e-02f,-9.91470739e-02f,-1.32285506e-01f,
+6.27394021e-02f,-1.11163549e-01f,-1.97600499e-01f,-1.13792844e-01f,+1.54000819e-01f,
+1.73492700e-01f,+2.17243671e-01f,-1.03619844e-01f,-2.16943175e-02f,+1.64376199e-03f,
+5.62897623e-02f,+1.10904127e-01f,-1.65165529e-01f,+1.95148051e-01f,+1.32325292e-03f,
-1.75022811e-01f,-1.09078459e-01f,-1.44262999e-01f,-2.21912056e-01f,-1.84791535e-01f,
-3.74753028e-02f,-1.38876081e-01f,+9.53489542e-02f,-8.15977156e-02f,-7.73700178e-02f,
-1.07945636e-01f,-3.79398614e-02f,+1.32172316e-01f,+9.34072435e-02f,-2.17725739e-01f,
+1.93839610e-01f,+2.20693231e-01f,+1.67517215e-01f,-1.28628775e-01f,+2.79892385e-02f,
-1.67026281e-01f,+4.22196090e-02f,-8.87612998e-02f,+5.05968332e-02f,-1.98638916e-01f,
+9.10760462e-03f,+1.01668686e-02f,-3.43973935e-03f,-4.84126806e-03f,+1.74385577e-01f,
-6.21453822e-02f,+3.11159194e-02f,-2.18661875e-02f,-1.91026330e-01f,+1.93389177e-01f,
+1.10446960e-02f,+1.57471597e-01f,+5.91975152e-02f,+5.87660074e-02f,-2.02719197e-01f,
-6.02427870e-02f,+1.59511149e-01f,-1.85317144e-01f,-2.13430166e-01f,+2.00452805e-01f,
+3.15718353e-03f,+8.31719637e-02f,+5.30874729e-02f,+3.19900811e-02f,-1.62089214e-01f,
-7.97818601e-02f,-2.20809355e-01f,-2.15022713e-01f,+2.16278881e-02f,+1.04815960e-01f,
-2.04405993e-01f,-1.11729205e-02f,+7.49843121e-02f,+1.29181623e-01f,+1.12057149e-01f,
-1.22916698e-03f,+2.83001065e-02f,-2.06137672e-01f,+1.39373928e-01f,+1.66402042e-01f,
+9.69992876e-02f,-5.30326664e-02f,+6.92058802e-02f,-3.18435282e-02f,-6.00966662e-02f,
+8.57481062e-02f,-3.06882113e-02f,-2.16108263e-02f,-1.76503554e-01f,+1.53747380e-01f,
+1.07005000e-01f,+1.08103693e-01f,-6.42559081e-02f,-5.67052215e-02f,-1.35997504e-01f,
-1.75381541e-01f,+2.59976089e-03f,+2.16892570e-01f,-1.43542334e-01f,+1.55962229e-01f,
-2.04669148e-01f,-9.89437923e-02f,+5.40739596e-02f,-2.22163945e-02f,+1.97712511e-01f,
+2.10421085e-01f,-1.91265702e-01f,+1.04547471e-01f,-1.49339050e-01f,+2.75297463e-02f,
-1.49181575e-01f,+1.55356586e-01f,-1.98310509e-01f,+1.58985555e-02f,-2.03579977e-01f,
+1.91427469e-02f,+1.18339717e-01f,-2.22601816e-01f,+1.11265481e-01f,+1.07508302e-01f,
-1.64627075e-01f,-2.18189925e-01f,-1.89103469e-01f,-2.16152877e-01f,-1.01683922e-01f,
-2.16721922e-01f,-8.49910229e-02f,-1.89018711e-01f,-5.75226545e-03f,-1.62723660e-02f,
-1.06765777e-02f,-3.61679941e-02f,+1.70326710e-01f,+7.14362860e-02f,-2.06245527e-01f,
+1.32784277e-01f,+1.39049739e-01f,-6.12142384e-02f,+3.20367217e-02f,+1.49986535e-01f,
-1.12680592e-01f,+7.24504888e-03f,+2.58289278e-02f,-9.98386368e-02f,+1.77290052e-01f,
+1.10031992e-01f,+2.21814930e-01f,-8.58836323e-02f,-1.11067638e-01f,-3.99488211e-02f,
+2.16742337e-01f,+2.65979469e-02f,+1.53938174e-01f,-2.23327547e-01f,-2.02326506e-01f,
+1.25836194e-01f,-1.22302189e-01f,-3.04836035e-02f,+1.83930069e-01f,+1.67794526e-03f,
-1.17611155e-01f,-5.46918362e-02f,-1.43960893e-01f,+2.97945440e-02f,-1.82264149e-02f,
-1.76918685e-01f,-1.06790364e-01f,+8.70473385e-02f,+2.09274620e-01f,+1.31559163e-01f,
+1.41809046e-01f,+9.36962366e-02f,-2.11685956e-01f,+6.89646900e-02f,+1.30295217e-01f,
+2.88766623e-02f,-1.42784119e-01f,+7.01079071e-02f,+1.67585403e-01f,-2.15708360e-01f,
-8.80751759e-02f,-9.21143591e-02f,-1.86493471e-01f,+8.03733468e-02f,-2.01884061e-02f,
+4.27435040e-02f,-1.58048853e-01f,-1.77145004e-03f,+6.58655465e-02f,+1.02653891e-01f,
+1.87248319e-01f,-6.21335059e-02f,-1.56397939e-01f,+1.01257175e-01f,+1.35639995e-01f,
+2.09261537e-01f,-1.93166867e-01f,-1.56050920e-01f,+2.12348521e-01f,-1.79384381e-01f,
+3.16224992e-02f,+6.77872002e-02f,-1.66988105e-01f,+3.05799246e-02f,-4.12059724e-02f,
+6.95688128e-02f,+2.02665836e-01f,-1.02501519e-01f,-7.30524957e-02f,-1.72106802e-01f,
+1.89637184e-01f,+2.00041085e-01f,-4.06519026e-02f,+1.89318955e-01f,-4.28682566e-03f,
-9.04046446e-02f,-1.36670783e-01f,+1.53676629e-01f,+8.36930871e-02f,-2.01069564e-01f,
-1.21700615e-01f,+1.50330245e-01f,+9.49172676e-03f,-8.14219415e-02f,+7.07845390e-03f,
+6.25723600e-03f,+3.29141021e-02f,+1.91826910e-01f,-1.11254394e-01f,+2.06821889e-01f,
-1.85790509e-01f,-1.91359818e-02f,-1.88984215e-01f,-1.07662603e-01f,-5.52726239e-02f,
+1.78484678e-01f,+1.32031679e-01f,-1.61877275e-03f,-1.85590327e-01f,-1.40771493e-01f,
-2.15528473e-01f,-5.41830808e-02f,+1.21479928e-02f,-1.07022107e-01f,-1.89592615e-01f,
+1.10352308e-01f,-5.45667112e-02f,-1.64310291e-01f,+1.57126755e-01f,+1.92745864e-01f,
-4.68240529e-02f,-6.21569008e-02f,+5.13383746e-03f,+8.46609175e-02f,+1.92907065e-01f,
+2.40111500e-02f,+1.86230749e-01f,-5.14621884e-02f,+2.10679471e-01f,+6.65244460e-02f,
+9.11708474e-02f,+6.20589554e-02f,+1.34182811e-01f,-1.41033888e-01f,-1.39732122e-01f,
+4.92943823e-03f,-1.76178396e-01f,-4.74527478e-04f,-1.08300693e-01f,-1.34608090e-01f,
+5.84385097e-02f,+1.93231940e-01f,+1.36339784e-01f,+1.32766902e-01f,-6.75196648e-02f,
+1.35889500e-01f,-6.17167056e-02f,+8.65378678e-02f,+1.69882089e-01f,-1.38856471e-03f,
-1.72026187e-01f,-1.61826462e-02f,-1.78978503e-01f,+3.08978260e-02f,+1.14301801e-01f,
+1.92162991e-01f,+8.80182981e-02f,-5.70672005e-02f,+1.40739173e-01f,+1.73497498e-01f,
-4.58225757e-02f,-7.08642006e-02f,+1.13839984e-01f,-7.62890279e-03f,+1.55024886e-01f,
-1.05859697e-01f,-1.68842509e-01f,+1.23162478e-01f,+6.65677786e-02f,+2.09419191e-01f,
+1.00297451e-01f,+3.51052284e-02f,-2.85282731e-02f,-6.10798597e-04f,-3.07979286e-02f,
-4.71550226e-03f,+1.45042330e-01f,+1.00084513e-01f,-1.96259856e-01f,-9.86447930e-03f,
-8.57265145e-02f,+1.63463652e-02f,-1.45461515e-01f,+3.70073318e-02f,+1.47297412e-01f,
+9.16579068e-02f,+1.55753493e-01f,-1.43037140e-02f,+1.25800520e-01f,-1.67472810e-02f,
+2.99272239e-02f,-7.38165081e-02f,-1.71956405e-01f,+1.68204159e-01f,+8.65232944e-03f,
+1.20471388e-01f,+7.96860456e-03f,-2.18354493e-01f,+5.17624617e-02f,+1.17025673e-01f,
+8.25544596e-02f,+4.09615934e-02f,-1.88871413e-01f,+1.73485726e-01f,-6.82246685e-02f,
-4.85738516e-02f,-2.97301412e-02f,-1.63918555e-01f,-1.56906426e-01f,+2.17017919e-01f,
-2.18751431e-02f,+7.93268979e-02f,-6.41104728e-02f,-8.23282450e-02f,-1.99314430e-01f,
-3.83213162e-02f,-2.79301107e-02f,+2.00328261e-01f,-5.34994602e-02f,-1.51317507e-01f,
+2.11723000e-01f,+1.06360465e-01f,-8.55449438e-02f,-1.93063915e-03f,+1.99715376e-01f,
-6.04422837e-02f,+1.39863223e-01f,+2.71810293e-02f,+1.44910902e-01f,+2.16321826e-01f,
+4.72443700e-02f,+1.71655625e-01f,-1.69799358e-01f,+5.60076237e-02f,+4.98536229e-03f,
+2.63568759e-03f,+5.44835925e-02f,-1.51503682e-02f,-4.47056442e-02f,-1.24845594e-01f,
+7.37558901e-02f,-2.51072943e-02f,-1.92800403e-01f,+1.90948665e-01f,-1.49942443e-01f,
+2.00367808e-01f,-9.08535421e-02f,+1.78290904e-02f,-8.63398612e-03f,-2.58118063e-02f,
-1.90035850e-01f,+1.08965218e-01f,+8.88366401e-02f,+1.38806373e-01f,-1.50152326e-01f,
-9.36392993e-02f,-4.22544032e-02f,-1.28205374e-01f,+9.00928676e-02f,+4.92712259e-02f,
+7.75299072e-02f,-2.10210711e-01f,-8.65863413e-02f,-1.48421392e-01f,-1.75719976e-01f,
+1.15845948e-02f,-1.28618121e-01f,-1.86341912e-01f,-2.07098722e-01f,-9.79197770e-02f,
+2.21546084e-01f,+1.33417845e-01f,+3.39525640e-02f,-4.85009253e-02f,-7.54141062e-02f,
-3.10726911e-02f,+9.22616124e-02f,+1.28770947e-01f,+2.01472014e-01f,+2.16094106e-01f,
+1.73747540e-01f,-1.67286381e-01f,+2.02904731e-01f,-3.87664735e-02f,-5.89626133e-02f,
-1.94132656e-01f,-2.06916347e-01f,+1.85213774e-01f,+5.34360707e-02f,-3.23553234e-02f,
-1.74545616e-01f,-2.05709040e-01f,-2.18809307e-01f,+1.72254205e-01f,-1.58109203e-01f,
-1.21778078e-01f,-1.30460575e-01f,+1.41837955e-01f,-8.12782645e-02f,-2.11201727e-01f,
-2.11740434e-02f,-2.19905123e-01f,-3.49294990e-02f,-1.03005767e-02f,+2.12724209e-01f,
-1.35402277e-01f,-3.86468321e-02f,-1.83319807e-01f,+1.11395419e-02f,-2.33322233e-02f,
+8.39535892e-03f,+1.68655068e-01f,+4.51826155e-02f,+8.18230808e-02f,+1.92142040e-01f,
-5.90115786e-04f,-1.70254469e-01f,-1.64110109e-01f,+1.21700138e-01f,+3.21103036e-02f,
-1.59776583e-01f,+2.17323482e-01f,+1.50087833e-01f,-1.01512529e-01f,-7.36503899e-02f,
+1.72316790e-01f,-4.94470000e-02f,-1.99602842e-02f,+4.98269498e-02f,-2.65582800e-02f,
+1.93605989e-01f,-8.49847943e-02f,+1.81295246e-01f,+1.79091007e-01f,+1.96300179e-01f,
+1.44136220e-01f,+1.62653029e-01f,+1.32703841e-01f,+1.23757720e-01f,-1.41071081e-02f,
+7.05671906e-02f,+5.66901267e-02f,-1.61198795e-01f,-2.04353482e-02f,-2.28095055e-03f,
+8.38367641e-02f,+1.75640643e-01f,-1.10911861e-01f,+1.10150516e-01f,-1.54199839e-01f,
-1.59748435e-01f,+1.18402839e-01f,-1.94188535e-01f,+1.84398353e-01f,+1.33458585e-01f,
-3.99522334e-02f,+1.79498315e-01f,-1.91554606e-01f,+6.95871115e-02f,+1.57171696e-01f,
-3.40100825e-02f,-1.72417983e-01f,+7.34870434e-02f,+1.56465471e-01f,+4.63817120e-02f,
+1.57589197e-01f,-1.59918457e-01f,-1.99480981e-01f,+2.12534219e-02f,+1.21594667e-01f,
+1.29133642e-01f,-1.04262576e-01f,-1.61552146e-01f,+1.37130708e-01f,-1.31666809e-01f,
-2.17634410e-01f,+1.40860140e-01f,+1.13653243e-02f,+7.66859353e-02f,-7.28028268e-02f,
+5.78068495e-02f,+2.13639915e-01f,-1.69982687e-01f,-7.95204192e-02f,+1.46512121e-01f,
+7.47820437e-02f,+1.40118152e-01f,-7.90697336e-03f,+1.28316462e-01f,+3.10326517e-02f,
+3.72533500e-03f,+1.53759807e-01f,+1.85078144e-01f,+1.51097298e-01f,-2.43707299e-02f,
+1.00046933e-01f,-1.58075124e-01f,+6.93263710e-02f,-1.51552558e-01f,+1.78628027e-01f,
-3.34765911e-02f,-1.98712170e-01f,-6.46886975e-02f,-1.82926267e-01f,-1.47845209e-01f,
-1.98786274e-01f,+1.48041546e-03f,-1.55518353e-01f,+2.09793866e-01f,-7.90391713e-02f,
-1.89790726e-02f,-5.89993596e-03f,+6.13947511e-02f,+1.08184844e-01f,+1.60905719e-03f,
+9.78053212e-02f,+1.26872510e-01f,-1.42519861e-01f,+8.86924863e-02f,-2.89964080e-02f,
-9.95228663e-02f,+1.26722604e-02f,+1.65717751e-02f,+6.69085383e-02f,+1.09105378e-01f,
-1.16461642e-01f,+6.94874525e-02f,-1.28405511e-01f,-5.78695536e-02f,+1.81907356e-01f,
+1.50994182e-01f,+1.72351301e-02f,-1.88126057e-01f,+6.65348768e-02f,-3.49217653e-02f,
+5.76949120e-02f,+1.47415549e-01f,-1.19434893e-02f,-4.08888757e-02f,-1.99513972e-01f,
+8.30515921e-02f,-2.05713317e-01f,+2.30367631e-02f,-6.98771179e-02f,+8.56749713e-02f,
-6.68054968e-02f,-1.05903946e-01f,-2.34055519e-03f,-1.26111433e-01f,+2.62884796e-02f,
+5.23769259e-02f,-1.66494489e-01f,-5.52641898e-02f,-1.04293443e-01f,-2.04597965e-01f,
+1.83934867e-01f,-1.62468687e-01f,-5.49081266e-02f,-5.59719056e-02f,-9.85168219e-02f,
+3.30224633e-03f,-6.85998797e-02f,+9.28889811e-02f,-1.76107764e-01f,-1.34742543e-01f,
-2.19177634e-01f,+1.19139731e-01f,-1.08472571e-01f,+1.38869971e-01f,-1.71674967e-01f,
+1.59394443e-01f,+4.09344435e-02f,+1.23175979e-01f,-5.05578518e-03f,-1.70245841e-01f,
-1.01529106e-01f,+7.41420984e-02f,-2.16952384e-01f,-1.72835052e-01f,-2.08011165e-01f,
+1.04231507e-01f,-7.46504217e-02f,+1.58647537e-01f,+6.28288388e-02f,+1.40020072e-01f,
-2.13269278e-01f,-1.18442930e-01f,-2.05847651e-01f,-1.09674118e-01f,-7.49201179e-02f,
+2.01308310e-01f,-1.48054779e-01f,+9.96683538e-03f,+2.02325225e-01f,-1.36670038e-01f,
+1.18604571e-01f,+2.11791158e-01f,+1.61312729e-01f,-5.88808805e-02f,-2.02488944e-01f,
-8.99877995e-02f,-9.04151499e-02f,+2.17207909e-01f,+4.35361266e-02f,-9.08189863e-02f,
-1.51288807e-02f,+1.04193062e-01f,-2.14973986e-01f,+3.69231105e-02f,-2.56792754e-02f,
+1.11183584e-01f,-1.01069875e-01f,+4.03126180e-02f,-2.20720381e-01f,-1.87854484e-01f,
+1.72643334e-01f,-1.89975709e-01f,+1.84370577e-01f,+1.26603603e-01f,-1.78619772e-02f,
-4.37871814e-02f,-1.67120636e-01f,+2.19844609e-01f,+5.26644886e-02f,-1.98099345e-01f,
+1.40347034e-01f,-1.81323290e-02f,-1.89718485e-01f,-1.61987811e-01f,-6.58498704e-03f,
+1.38740957e-01f,+1.18821561e-01f,-6.96508735e-02f,+1.46820545e-01f,+1.32528722e-01f,
-2.19359696e-02f,+2.09171772e-01f,-2.09440514e-01f,+6.08235598e-02f,-9.45728421e-02f,
+1.85041249e-01f,+2.02099502e-01f,-7.07025528e-02f,-1.61898568e-01f,-1.40879869e-01f,
-2.13072717e-01f,+1.70080364e-01f,-1.40726119e-02f,+1.33010983e-01f,+2.02968121e-01f,
+1.36769205e-01f,+8.49225223e-02f,-1.97434068e-01f,-7.23657310e-02f,-2.83582509e-03f,
-1.56404674e-02f,+1.72331184e-01f,+3.47567797e-02f,+8.37629437e-02f,+2.09276050e-01f,
+2.20396250e-01f,-7.42828846e-02f,+1.81847394e-01f,-9.12623256e-02f,-1.85409322e-01f,
+7.14844167e-02f,+1.32416755e-01f,+1.19694173e-01f,-1.69764489e-01f,+1.07135624e-01f,
+1.70271337e-01f,+4.01758254e-02f,-6.89388812e-02f,+8.00356269e-02f,-9.82243419e-02f,
+1.66106790e-01f,+1.58172280e-01f,+1.68496579e-01f,+1.10126048e-01f,+1.12443894e-01f,
+8.53257179e-02f,-1.48876041e-01f,-2.00330928e-01f,+1.28315955e-01f,-5.74987084e-02f,
+8.90948176e-02f,+1.85959250e-01f,+6.34669960e-02f,-1.11829311e-01f,+7.09701180e-02f,
-1.97754040e-01f,-1.66328847e-01f,-5.56444079e-02f,+2.32352465e-02f,+2.06334919e-01f,
+1.70822442e-03f,+1.38153881e-02f,-1.44867837e-01f,+1.59902394e-01f,+2.18918324e-01f,
+2.17736959e-02f,-3.32106650e-03f,+1.77391738e-01f,-7.90128857e-02f,-2.08611891e-01f,
+1.37835592e-01f,-2.01299876e-01f,+1.51155502e-01f,+1.74881965e-01f,+1.10923856e-01f,
-1.81950226e-01f,+1.48815632e-01f,-1.96042195e-01f,+1.54160172e-01f,-9.18467939e-02f,
-4.02282327e-02f,-9.91757512e-02f,+4.40067649e-02f,-1.82923913e-01f,+5.06481826e-02f,
-3.16334367e-02f,-1.64563060e-02f,-7.46463090e-02f,+1.85268730e-01f,-7.16244727e-02f,
-1.08232401e-01f,-7.56074786e-02f,-1.59170538e-01f,+1.08879864e-01f,+1.80147171e-01f,
-5.17838746e-02f,+1.90213472e-02f,-1.34605318e-01f,-1.54318511e-01f,+9.50984955e-02f,
+1.66375160e-01f,-1.79244578e-02f,-3.51615697e-02f,-1.20088294e-01f,-2.22259313e-02f,
+4.72219586e-02f,+1.06648713e-01f,+3.40809226e-02f,+1.54780388e-01f,+1.93115830e-01f,
+1.05551064e-01f,+4.97144461e-03f,+1.32440478e-01f,+1.24390036e-01f,-8.19971263e-02f,
-1.71919733e-01f,-8.80232602e-02f,-1.43310577e-01f,+8.65383148e-02f,-6.95972294e-02f,
}; 
k2c_tensor dense_1_kernel = {&dense_1_kernel_array[0],2,3600,{60,60, 1, 1, 1}}; 
float dense_1_bias_array[60] = {0}; 
k2c_tensor dense_1_bias = {&dense_1_bias_array[0],1,60,{60, 1, 1, 1, 1}}; 
float dense_1_fwork[3660] = {0}; 

 
float dense_2_output_array[60] = {0}; 
k2c_tensor dense_2_output = {&dense_2_output_array[0],1,60,{60, 1, 1, 1, 1}}; 
float dense_2_kernel_array[3600] = {
-9.01918858e-02f,-1.89435452e-01f,-9.48591530e-03f,+1.17929548e-01f,+2.12168694e-01f,
-6.11945689e-02f,+8.87529850e-02f,-8.20340812e-02f,-4.08096015e-02f,-2.18762442e-01f,
-1.86131895e-02f,+1.05876029e-02f,-2.88804471e-02f,+8.90919864e-02f,-1.72622010e-01f,
-5.84306121e-02f,+1.07973188e-01f,-7.80316293e-02f,-2.11536899e-01f,+1.33134276e-01f,
+3.08017731e-02f,-1.72657788e-01f,+1.94525510e-01f,-1.26089633e-01f,-1.80099666e-01f,
+2.12229788e-03f,+5.79888225e-02f,-1.47034705e-01f,+8.49632621e-02f,+5.18729091e-02f,
-1.50508404e-01f,+2.00990826e-01f,+1.40360415e-01f,-5.36566228e-02f,+2.17462271e-01f,
-6.26215786e-02f,+1.74052626e-01f,-1.82471827e-01f,-7.31372535e-02f,-2.21305370e-01f,
+7.72812068e-02f,+2.06122160e-01f,-1.84331253e-01f,-2.94041336e-02f,-2.21535787e-01f,
+1.43903375e-01f,+2.09726274e-01f,+9.01269019e-02f,-1.66339621e-01f,-1.40680820e-02f,
-1.36625141e-01f,-1.22826099e-02f,-2.31016427e-02f,-1.53268948e-01f,+1.01999730e-01f,
+1.93855166e-01f,-7.28044808e-02f,-9.30801034e-03f,+1.81937963e-02f,-1.00938782e-01f,
-1.72683418e-01f,+4.39200401e-02f,+6.14065230e-02f,-1.51255354e-01f,-7.55317658e-02f,
+1.69369221e-01f,+1.87732220e-01f,+2.02162832e-01f,-6.40798211e-02f,-1.08288430e-01f,
+7.31025636e-03f,-4.94656116e-02f,+1.94796920e-01f,+8.05708170e-02f,-2.09380910e-01f,
+1.37056112e-02f,+1.35650277e-01f,-1.32712901e-01f,+2.10581452e-01f,-1.20348565e-01f,
-6.47012144e-02f,+2.02892452e-01f,-1.67338997e-02f,+1.86693609e-01f,+7.54498839e-02f,
+1.02726668e-01f,+1.08204782e-02f,+1.61065310e-01f,-4.45282161e-02f,+1.42963588e-01f,
+4.17747200e-02f,-1.64105415e-01f,+6.40813112e-02f,-2.20172599e-01f,+2.08502710e-02f,
+2.00732470e-01f,+1.23835444e-01f,-7.31289983e-02f,+1.48178250e-01f,-2.10269406e-01f,
+2.09732920e-01f,-2.07806662e-01f,+1.83864981e-01f,+7.15304911e-02f,-1.06685713e-01f,
+2.01596022e-01f,+1.17299557e-01f,+1.62616521e-02f,-9.37170833e-02f,-1.63826808e-01f,
-7.99294710e-02f,+2.01151401e-01f,+1.70884401e-01f,-2.16980800e-01f,+7.08368421e-02f,
+7.85348415e-02f,-1.51123524e-01f,-2.09262565e-01f,-7.75070786e-02f,+1.66771084e-01f,
+7.83033669e-02f,-1.51666611e-01f,+1.08651429e-01f,+1.44035220e-02f,+5.88870049e-02f,
-1.70651644e-01f,+2.00812131e-01f,+1.52723730e-01f,+8.31880569e-02f,-8.59117806e-02f,
+3.64706516e-02f,+1.29366606e-01f,-1.38199449e-01f,-9.47728753e-02f,-3.78136188e-02f,
-9.10121948e-02f,-1.87888548e-01f,+1.41797602e-01f,-2.06451088e-01f,-1.82445824e-01f,
+2.21581519e-01f,-1.75873995e-01f,+6.10579848e-02f,-4.75182831e-02f,-1.05815336e-01f,
+7.88902044e-02f,+1.10246152e-01f,+1.69551730e-01f,+1.19594961e-01f,+1.10108286e-01f,
+4.09776270e-02f,-2.14600846e-01f,+2.13436723e-01f,-6.84243441e-03f,-1.75089449e-01f,
-1.08314767e-01f,+2.10830241e-01f,-1.08118415e-01f,-7.68462270e-02f,-2.03520700e-01f,
+5.52944243e-02f,+1.25718206e-01f,+4.62537110e-02f,-2.00928748e-02f,-2.07304239e-01f,
-2.14634970e-01f,+3.50742340e-02f,+1.44104451e-01f,-1.34756625e-01f,+7.64937699e-02f,
-2.13646889e-01f,-1.76764667e-01f,-1.88418999e-01f,+2.12223083e-01f,+9.01471376e-02f,
-6.69062138e-04f,+2.02221155e-01f,-1.33807823e-01f,-1.28229573e-01f,+1.54531389e-01f,
-1.37605563e-01f,+1.16826177e-01f,-6.46833032e-02f,+6.07237220e-02f,+5.08340299e-02f,
+6.03885055e-02f,+1.09690011e-01f,-2.17775583e-01f,+1.41591817e-01f,-1.50287792e-01f,
-7.05611110e-02f,+7.28249550e-02f,+1.85509980e-01f,-2.19331980e-02f,-2.03347743e-01f,
+1.51659846e-01f,+1.95690125e-01f,+1.96586132e-01f,-1.63081348e-01f,-1.11244619e-02f,
+8.39615762e-02f,-8.40565264e-02f,-1.78099230e-01f,-6.84529543e-04f,+4.24435139e-02f,
+1.07205987e-01f,+1.62616789e-01f,+5.43229282e-02f,-1.49418443e-01f,+6.38443232e-03f,
+1.27688140e-01f,+1.56982452e-01f,+2.01977462e-01f,-1.81510240e-01f,-3.95183265e-02f,
-2.98470557e-02f,+1.99032426e-02f,+4.79714274e-02f,+1.80610240e-01f,+4.86151874e-02f,
-1.37133107e-01f,+1.99768692e-02f,+1.59778506e-01f,+5.00748456e-02f,+1.27720118e-01f,
-2.06489861e-01f,+9.95508432e-02f,+1.56840116e-01f,+1.11653596e-01f,-4.36386615e-02f,
-1.38890803e-01f,-1.08645886e-01f,+3.55719030e-03f,-1.14715993e-01f,-7.85835087e-03f,
+1.43674374e-01f,+1.71898454e-01f,-6.08310848e-02f,+5.67012727e-02f,+1.57681108e-03f,
-1.99140042e-01f,-4.70834076e-02f,-1.07368320e-01f,+3.66779268e-02f,-6.18013740e-03f,
-1.73731059e-01f,-1.14337370e-01f,-2.09507585e-01f,+2.62191147e-02f,+1.88839108e-01f,
+3.38877738e-02f,-1.06714018e-01f,-1.99245334e-01f,+1.65563881e-01f,+1.46123856e-01f,
+1.52523071e-01f,-1.56891286e-01f,-1.76867411e-01f,+1.94470078e-01f,-6.16230369e-02f,
-1.62544340e-01f,+1.70535117e-01f,-1.69036388e-02f,-1.08423792e-01f,-6.42309040e-02f,
+1.69080168e-01f,-7.20322579e-02f,+1.62947208e-01f,+5.31584620e-02f,-5.24304509e-02f,
+8.10840130e-02f,+7.87015855e-02f,+1.04213208e-02f,-4.18307334e-02f,+1.56763434e-01f,
-1.11464262e-02f,+1.86305344e-01f,-9.83598083e-02f,+1.34818316e-01f,-1.91999644e-01f,
-1.17283449e-01f,+4.19450402e-02f,+2.20522434e-01f,-1.10715777e-02f,-2.55232304e-02f,
-2.54787654e-02f,-1.79878473e-01f,+1.58635825e-02f,-9.46838409e-02f,+8.01776052e-02f,
+1.25865072e-01f,-1.40737593e-01f,+2.03266621e-01f,-2.23333672e-01f,+2.22306341e-01f,
-1.89488113e-01f,-2.52307653e-02f,-6.25212938e-02f,+1.91342205e-01f,-1.53439075e-01f,
+1.22252911e-01f,-1.95683450e-01f,+9.50037241e-02f,+1.21463597e-01f,-1.21973462e-01f,
-1.47589296e-01f,-7.08242655e-02f,+6.33135736e-02f,+1.42616242e-01f,+1.27816677e-01f,
-1.30371898e-02f,-6.74229562e-02f,+1.14040047e-01f,-1.17129855e-01f,-1.41925007e-01f,
+6.46668673e-03f,+1.96049064e-01f,-8.48817825e-02f,+1.71080649e-01f,+1.63105875e-01f,
-2.03582048e-01f,+1.18507385e-01f,-2.61186808e-02f,+6.13221526e-03f,-6.11871630e-02f,
-1.59397483e-01f,-3.35825235e-02f,+1.33276254e-01f,+3.36314440e-02f,-1.98927283e-01f,
+1.66928887e-01f,-1.13902077e-01f,-1.28103122e-01f,-1.08266681e-01f,+2.06828982e-01f,
+8.01716745e-02f,+1.29268050e-01f,+9.89925861e-02f,+1.76490486e-01f,-1.47029161e-02f,
-2.20850855e-02f,+2.00036317e-02f,+8.56526196e-03f,-2.14644670e-01f,-1.37371778e-01f,
+7.66259432e-02f,+1.33432239e-01f,+2.16163427e-01f,+1.79966480e-01f,-6.42540455e-02f,
+4.87247407e-02f,-1.14426725e-01f,-4.84313071e-03f,-1.15135662e-01f,+1.09306097e-01f,
+1.33599907e-01f,-9.89286527e-02f,-1.73624903e-02f,-5.70777655e-02f,+1.50947362e-01f,
+6.79851472e-02f,+1.44705594e-01f,+8.84340107e-02f,+2.20801741e-01f,-1.30552530e-01f,
-5.20048589e-02f,-7.29511678e-03f,+7.92368352e-02f,-1.58819646e-01f,+1.68745428e-01f,
+1.23814553e-01f,+8.76421332e-02f,-1.27360374e-01f,+7.14395344e-02f,+1.47022426e-01f,
-1.22734547e-01f,+1.45193785e-01f,-9.90547910e-02f,+1.35340542e-02f,-1.82290375e-03f,
-5.18318564e-02f,-1.80685878e-01f,-2.24353373e-03f,+1.53205037e-01f,+2.04603940e-01f,
+5.98265231e-02f,-1.63215250e-02f,-6.81119114e-02f,+1.24535918e-01f,+2.18486279e-01f,
-2.88978815e-02f,+1.16448253e-01f,+1.77308947e-01f,-1.52004123e-01f,+1.26648188e-01f,
+6.51872158e-02f,-1.72408864e-01f,+1.52941465e-01f,-8.75231922e-02f,+6.57753646e-03f,
-1.85657233e-01f,+1.33342445e-02f,+1.35290712e-01f,-3.07582617e-02f,+1.23802751e-01f,
+1.57265097e-01f,+2.12173223e-01f,-1.92490965e-02f,-1.59211636e-01f,-1.94399059e-01f,
-1.43606305e-01f,+1.77869231e-01f,+6.26854300e-02f,-9.02407616e-02f,+1.39086246e-02f,
-5.73197454e-02f,+1.20016068e-01f,+1.52174771e-01f,-1.88593015e-01f,-1.43604219e-01f,
+1.28903478e-01f,+2.06794679e-01f,+8.99703801e-02f,-8.96647573e-04f,+7.99173713e-02f,
+1.05353028e-01f,+2.87396610e-02f,+1.55891210e-01f,-1.91615745e-01f,+5.14941216e-02f,
-4.67436612e-02f,-2.28315145e-02f,+1.31882370e-01f,-1.64077103e-01f,+1.44490212e-01f,
+1.48773253e-01f,+1.88136756e-01f,-7.35376328e-02f,+6.85144067e-02f,-1.84542149e-01f,
+2.04191148e-01f,+8.45079720e-02f,-1.90167725e-02f,-1.21372424e-01f,-1.17297947e-01f,
-1.23219490e-02f,-1.12598173e-01f,+1.08483076e-01f,+1.73191071e-01f,+9.63745713e-02f,
+1.98685288e-01f,+1.36387050e-01f,+2.18390495e-01f,-1.74375013e-01f,-1.15080699e-01f,
+1.89628541e-01f,-2.02961564e-02f,+1.20792180e-01f,+5.30897081e-02f,-3.36587578e-02f,
-1.15395188e-01f,+1.28450602e-01f,+8.56236219e-02f,+8.54897499e-02f,+1.66507870e-01f,
+1.67259455e-01f,-1.47512421e-01f,+4.02192771e-02f,-7.23513365e-02f,-1.85410917e-01f,
+1.00642413e-01f,+5.46019375e-02f,+9.17686522e-03f,+2.90993452e-02f,+6.97587729e-02f,
+2.14759678e-01f,+9.42438543e-02f,+1.59609735e-01f,-1.16750434e-01f,-8.83331001e-02f,
+5.99113405e-02f,-1.46153986e-01f,+1.23697639e-01f,-1.42608404e-01f,+1.85902417e-01f,
-4.98988181e-02f,+1.35895014e-02f,+6.21572137e-04f,+5.51043749e-02f,+9.21913385e-02f,
-1.24671534e-01f,+1.24282181e-01f,-1.15854576e-01f,+3.62844169e-02f,+2.17265189e-02f,
-1.95644215e-01f,+7.63353705e-03f,-1.45832777e-01f,-1.18323833e-01f,+1.71598047e-02f,
+8.87506306e-02f,-3.63493115e-02f,-1.47603482e-01f,-1.89056128e-01f,+1.77494615e-01f,
-1.68502063e-01f,-5.05106300e-02f,+2.21997291e-01f,+1.14046127e-01f,+2.75742412e-02f,
-5.14781922e-02f,+1.36273652e-01f,+2.06199139e-02f,+1.27370954e-02f,-3.08898836e-02f,
-3.70208174e-02f,+2.12413043e-01f,-1.10329643e-01f,-1.33847177e-01f,+9.53858495e-02f,
-7.20912814e-02f,+9.83579457e-03f,+1.17999226e-01f,-1.71133012e-01f,+2.14775950e-02f,
-1.21194273e-02f,+1.83819354e-01f,+1.17527992e-01f,+1.76657408e-01f,-4.89822328e-02f,
-2.05628648e-01f,+1.74161404e-01f,-8.70651305e-02f,+6.69744015e-02f,-2.02130154e-01f,
-1.45954430e-01f,-2.20274523e-01f,+1.11060292e-01f,+1.77373350e-01f,-3.50295156e-02f,
+5.58177829e-02f,-1.61311492e-01f,-1.59406126e-01f,-6.90362900e-02f,-2.62216777e-02f,
-4.87411022e-03f,+1.96988314e-01f,+1.67752653e-02f,+1.95293695e-01f,+1.98322445e-01f,
+4.59769070e-02f,+2.23477572e-01f,-2.17243791e-01f,-1.19088858e-01f,-9.51833278e-02f,
-1.80468634e-01f,+3.62139940e-02f,-8.33947510e-02f,-1.09785855e-01f,-3.59241366e-02f,
+1.10000342e-01f,-1.36175036e-01f,-4.31921184e-02f,+3.79540026e-02f,-2.04675496e-02f,
+1.53460175e-01f,+2.00359374e-02f,+9.25526321e-02f,-1.29561946e-01f,+6.80274069e-02f,
+1.52793199e-01f,-6.76975101e-02f,-1.49027929e-01f,-1.66654631e-01f,-1.70374483e-01f,
-3.00897211e-02f,-4.37483191e-03f,-1.46818787e-01f,-1.57465994e-01f,-1.51609182e-02f,
+1.01037353e-01f,+1.54068738e-01f,-7.29079694e-02f,+1.92373425e-01f,-4.69252318e-02f,
-1.20740727e-01f,+1.84774697e-02f,+1.95143521e-01f,+2.04505891e-01f,-2.29977071e-03f,
+1.05767101e-01f,-1.01567701e-01f,+2.41551399e-02f,+1.43869340e-01f,+2.08442241e-01f,
+9.85048115e-02f,-2.17708647e-02f,-1.46583021e-02f,+1.07502669e-01f,-1.75429896e-01f,
+2.31719017e-02f,-8.07792693e-02f,-9.66804922e-02f,+3.60897779e-02f,-1.02621466e-01f,
+2.76697278e-02f,-1.14455938e-01f,-2.21092179e-01f,+1.01767838e-01f,-2.20160335e-01f,
+1.78864539e-01f,-4.38687503e-02f,-3.05663943e-02f,-1.18577540e-01f,+1.50306553e-01f,
+2.13221878e-01f,+1.15790963e-02f,-1.70144439e-01f,-1.46858498e-01f,+1.07580274e-01f,
+1.70540869e-01f,-1.80476740e-01f,+2.00690776e-01f,-1.21307224e-01f,-1.12276807e-01f,
-1.26327515e-01f,-3.08396071e-02f,-1.51958063e-01f,-1.60190016e-01f,+1.39375985e-01f,
-1.54252768e-01f,+2.08925426e-01f,-1.17392153e-01f,-1.88674957e-01f,-1.39141589e-01f,
+5.55836856e-02f,+1.84579194e-01f,+4.26805317e-02f,+1.47005111e-01f,+4.83093858e-02f,
-1.53735638e-01f,+2.98024714e-03f,+3.10001969e-02f,+1.81213558e-01f,+1.86242551e-01f,
+1.36471093e-01f,-8.80334824e-02f,-3.31744552e-03f,+1.20140761e-01f,+8.72129202e-02f,
-2.14735195e-01f,+1.98224932e-01f,+7.76296854e-03f,+2.83414721e-02f,-2.04864740e-02f,
-1.87904909e-01f,+2.07560033e-01f,-2.26418227e-02f,-1.03653267e-01f,-5.14649153e-02f,
-2.12653682e-01f,+1.14001334e-01f,+1.27168894e-01f,+1.36789083e-02f,-1.33184969e-01f,
+2.19646543e-02f,-3.90044600e-02f,-1.28567100e-01f,+1.22264862e-01f,+1.29342824e-01f,
+1.69772804e-01f,-1.30102098e-01f,+1.61154121e-01f,+1.02927744e-01f,-1.77512750e-01f,
+1.58473790e-01f,-1.11005053e-01f,+1.46011859e-01f,-1.69589728e-01f,+2.86441147e-02f,
-1.73118442e-01f,+6.40740097e-02f,+1.71911895e-01f,-2.94098854e-02f,+2.12630391e-01f,
-9.80053395e-02f,+1.81253612e-01f,+1.74781263e-01f,+5.38171530e-02f,-2.15773240e-01f,
-2.54271924e-03f,+2.06852049e-01f,-5.45925647e-02f,-4.34267372e-02f,-1.22702397e-01f,
+9.48699415e-02f,+3.94376218e-02f,+1.79177523e-01f,+1.35248363e-01f,+1.29041791e-01f,
+1.10041797e-02f,-1.14900775e-01f,+1.93985254e-01f,+2.17285216e-01f,+6.48006797e-03f,
+9.48726237e-02f,+1.78652614e-01f,-1.31623581e-01f,-6.28858954e-02f,+8.59250128e-02f,
-1.64391279e-01f,+9.05098319e-02f,-1.30634010e-01f,+1.26039565e-01f,-1.97132796e-01f,
+9.10153985e-03f,-2.10608527e-01f,-1.22554354e-01f,+1.93667769e-01f,+3.52019370e-02f,
+1.52636468e-01f,+1.03451908e-02f,+1.12030178e-01f,-2.20178455e-01f,-6.71858191e-02f,
+1.74263269e-01f,+1.34522319e-01f,-1.00720733e-01f,-6.11878037e-02f,+2.27446109e-02f,
+9.40670371e-02f,-3.68155241e-02f,-1.07319750e-01f,+1.93576604e-01f,-7.63737261e-02f,
-1.83491737e-01f,-8.64796638e-02f,-2.19356701e-01f,+6.79720044e-02f,+1.12138212e-01f,
-1.27846688e-01f,+1.94580376e-01f,-1.09986737e-01f,+9.41578746e-02f,-8.69669765e-02f,
+3.83792222e-02f,-1.37983859e-01f,+1.64270848e-02f,+3.64585221e-03f,+5.71886599e-02f,
+1.26090258e-01f,-2.02847734e-01f,+8.29395652e-03f,+1.60148442e-01f,-2.05142602e-01f,
-3.83567214e-02f,+5.51437736e-02f,-2.12434039e-01f,+1.87807083e-02f,+9.69158709e-02f,
-2.33819038e-02f,-7.63988942e-02f,-1.14063136e-01f,-4.15269732e-02f,-1.43692508e-01f,
+1.61084652e-01f,+3.22242975e-02f,-1.43464655e-01f,-1.93670839e-02f,+1.22758478e-01f,
+2.09778547e-04f,-2.06001401e-01f,+1.77511573e-01f,+1.14304006e-01f,-8.41356814e-02f,
-1.36255488e-01f,-2.17131823e-02f,+1.61429197e-01f,-1.30474269e-01f,+1.69388264e-01f,
-1.91577584e-01f,-2.03546658e-01f,-1.98923498e-01f,-1.47303432e-01f,-1.34831041e-01f,
+6.59329295e-02f,-1.37008131e-02f,-5.41468859e-02f,+9.06280875e-02f,-9.92642492e-02f,
+2.07581520e-02f,-6.85758293e-02f,-9.97160152e-02f,-1.59834325e-03f,+3.52036953e-02f,
+4.14872468e-02f,-1.07726790e-01f,-2.13107362e-01f,-8.37311149e-04f,-1.82009876e-01f,
-4.40865904e-02f,+7.25461841e-02f,-1.72031954e-01f,+1.37446970e-02f,+1.72879100e-02f,
+7.70101547e-02f,-8.42358023e-02f,+5.13884127e-02f,+1.92088366e-01f,-1.52724579e-01f,
-2.17798561e-01f,+1.31254911e-01f,+1.43441409e-01f,+5.82816601e-02f,-6.12410903e-03f,
-3.77010852e-02f,+1.15482241e-01f,-6.12100363e-02f,+1.55134439e-01f,-4.02814448e-02f,
-4.96953726e-03f,+6.28554523e-02f,+2.03526080e-01f,+1.88525677e-01f,+1.55491382e-01f,
+1.30001247e-01f,-1.21848881e-02f,-1.79130971e-01f,-9.57161784e-02f,+1.81083679e-01f,
-8.56305063e-02f,+6.41948581e-02f,-2.12927759e-01f,-1.95014074e-01f,+2.01791734e-01f,
+1.17981076e-01f,-7.18891174e-02f,+1.63951188e-01f,+1.69117898e-02f,-1.24501787e-01f,
+3.04691494e-02f,-1.36501670e-01f,-1.99633554e-01f,+9.18824971e-02f,-2.12882817e-01f,
+2.27722228e-02f,+1.68536901e-02f,+1.74612522e-01f,+1.65753931e-01f,-1.85335755e-01f,
+1.98501319e-01f,+1.44827366e-02f,+3.96455228e-02f,-8.20421726e-02f,+2.03001171e-01f,
+1.60815150e-01f,-3.26142162e-02f,+1.95349604e-01f,+2.01486945e-01f,+3.36945355e-02f,
-1.01001479e-01f,-2.16898590e-01f,+1.11309528e-01f,+3.73768806e-02f,-5.57459146e-02f,
+1.78950876e-02f,-7.07098842e-03f,-2.17333674e-01f,-7.65852630e-02f,-1.47628382e-01f,
-8.74037147e-02f,+6.80695772e-02f,-1.39510036e-02f,-1.30582824e-01f,-1.04790628e-01f,
+1.55429751e-01f,-1.95446804e-01f,-7.08187670e-02f,-7.29206502e-02f,+1.90432072e-01f,
+5.37342429e-02f,+8.90966952e-02f,-8.06442350e-02f,+1.69602036e-02f,+9.95248556e-02f,
+1.80215657e-01f,-8.98299515e-02f,+1.11676723e-01f,+9.72714424e-02f,+1.21803939e-01f,
+1.49745941e-02f,+2.00273722e-01f,+4.28605676e-02f,-3.15425843e-02f,-1.92434937e-01f,
-2.15317577e-01f,-2.02353150e-02f,+7.28323162e-02f,+1.19909227e-01f,-1.51266396e-01f,
-8.90094787e-02f,-1.19767040e-02f,-1.48497254e-01f,-6.94933236e-02f,-1.78230107e-01f,
-1.68394148e-01f,+6.27054274e-02f,+2.12815225e-01f,-9.79593843e-02f,+2.18626589e-01f,
+1.58926964e-01f,-4.30299342e-02f,-5.08712232e-02f,+2.11390108e-02f,+4.33117449e-02f,
-8.44952464e-03f,+1.83121443e-01f,-8.37136209e-02f,+4.54754829e-02f,-5.04945219e-03f,
+9.63919461e-02f,+1.25168771e-01f,+1.97968632e-01f,+5.91841340e-02f,+1.35025203e-01f,
-8.41710269e-02f,-2.13737726e-01f,-7.79391825e-02f,-7.14106411e-02f,-1.57425106e-01f,
+1.77861363e-01f,+1.68913186e-01f,+1.94517642e-01f,+1.14412606e-03f,+5.58015108e-02f,
+1.71716332e-01f,+4.92251813e-02f,+7.87213147e-02f,-1.29274651e-01f,+3.96723449e-02f,
+1.33097172e-02f,-1.87699348e-02f,-1.74984694e-01f,+3.71393859e-02f,-1.81088224e-01f,
-1.30158782e-01f,+1.24197274e-01f,+4.24599946e-02f,+6.05895221e-02f,+2.82489657e-02f,
+2.03886837e-01f,+1.06037110e-01f,+2.17698544e-01f,+1.76406682e-01f,+1.67173266e-01f,
-1.78482234e-02f,-2.14474067e-01f,-2.10663065e-01f,+9.92147624e-03f,+1.83700472e-01f,
+4.66923118e-02f,+8.18915069e-02f,-1.38807103e-01f,-8.62193406e-02f,+9.85581875e-02f,
-2.57141441e-02f,+2.14284450e-01f,-1.94276556e-01f,-1.38744622e-01f,+1.88209653e-01f,
+6.99192286e-04f,-1.83882788e-01f,-2.16899827e-01f,+2.14368612e-01f,+5.53830862e-02f,
-2.11648270e-01f,+3.23902071e-03f,+1.97186589e-01f,+4.40478325e-02f,-4.51979786e-02f,
-1.20517991e-01f,-3.44150364e-02f,-8.08909088e-02f,-1.65513441e-01f,+7.23955929e-02f,
-4.51147556e-03f,+1.85491145e-01f,-1.07533798e-01f,-1.84749424e-01f,+1.99241191e-01f,
+3.97088230e-02f,-3.40502262e-02f,+1.98984742e-01f,-1.37000531e-01f,-8.64369571e-02f,
-1.94130108e-01f,-6.15613610e-02f,+5.39721251e-02f,+1.15985841e-01f,+1.65320665e-01f,
-9.22870934e-02f,+6.58564866e-02f,+1.57893538e-01f,-7.55794346e-02f,-1.62331611e-01f,
-1.68351129e-01f,+7.00819492e-02f,+1.73292309e-02f,-1.24442287e-01f,-1.01878084e-01f,
+6.21436834e-02f,-1.94812983e-01f,+2.84041166e-02f,+2.18510181e-01f,+3.83537412e-02f,
+4.17534411e-02f,-8.08654279e-02f,-4.10014689e-02f,+2.14440316e-01f,+2.09753096e-01f,
+8.16207528e-02f,-1.00406259e-02f,-1.11749552e-01f,+1.35456860e-01f,+1.20199680e-01f,
-2.54336745e-02f,+1.81564897e-01f,+5.81255555e-03f,+1.68607175e-01f,-1.20392442e-01f,
+1.72301918e-01f,+1.83148742e-01f,-1.89755589e-01f,-3.63071859e-02f,+9.49598849e-02f,
+1.11561954e-01f,+5.77687323e-02f,+2.20439315e-01f,+1.78704470e-01f,+7.39213824e-02f,
+3.31136286e-02f,+1.87908053e-01f,+1.49414659e-01f,-1.05983056e-01f,+6.80782795e-02f,
-4.96153533e-02f,-2.03967243e-01f,-1.44845277e-01f,-1.54810369e-01f,-1.76031679e-01f,
+1.88151687e-01f,+1.45106167e-02f,-1.62959427e-01f,-1.14198118e-01f,-2.23154336e-01f,
-6.61266297e-02f,+5.97851574e-02f,-1.97244287e-02f,-2.16390431e-01f,+1.38312519e-01f,
+1.18201524e-01f,+5.95580041e-03f,+3.62124443e-02f,+1.00328475e-01f,-5.39781451e-02f,
+1.99999541e-01f,-3.21959257e-02f,-1.63310766e-02f,-6.23062253e-04f,-1.60408601e-01f,
+1.44696236e-02f,+1.45549625e-01f,+2.05601573e-01f,-1.00329965e-02f,-1.06029660e-02f,
-1.31242514e-01f,-1.82143107e-01f,-2.04075456e-01f,-1.61234409e-01f,-8.08503926e-02f,
-9.34192240e-02f,-1.82735562e-01f,+4.46775556e-03f,+1.79557055e-01f,-1.71963662e-01f,
+1.57628953e-01f,+9.99720097e-02f,-7.87305385e-02f,+2.06567496e-02f,+5.97960949e-02f,
-5.69602102e-02f,-1.37685895e-01f,-1.45339966e-01f,-2.46133059e-02f,-1.97377607e-01f,
+1.59285963e-03f,-1.36512190e-01f,+1.32961601e-01f,-1.04593478e-01f,+1.00310296e-02f,
-6.78064823e-02f,-7.66322911e-02f,+1.26580268e-01f,-6.34884238e-02f,-1.34649932e-01f,
+2.05823392e-01f,-1.60500243e-01f,-1.42004609e-01f,-1.86010256e-01f,-9.46232826e-02f,
-2.16341645e-01f,+6.40229881e-02f,+2.07913220e-01f,+1.55057579e-01f,+1.02402031e-01f,
-3.46958786e-02f,+1.95696026e-01f,-8.79563391e-03f,-9.69228894e-02f,+1.70326561e-01f,
+8.20592344e-02f,+1.57223463e-01f,+2.04749793e-01f,-1.83679193e-01f,+1.67828083e-01f,
-2.21645609e-01f,+1.21345758e-01f,-8.56702179e-02f,-4.35746312e-02f,-1.89955980e-02f,
+1.66206270e-01f,+3.10481787e-02f,+1.21660680e-01f,+5.12199402e-02f,+5.01218438e-03f,
-2.13848293e-01f,-1.08393565e-01f,+2.06108719e-01f,+6.54819310e-02f,-1.26893848e-01f,
-1.91164613e-02f,-1.16945207e-02f,-1.04580849e-01f,+1.80934638e-01f,-3.66438031e-02f,
+1.42160177e-01f,-1.89969897e-01f,+5.22622466e-03f,-2.11538076e-01f,-1.50158405e-01f,
-1.97221234e-01f,+1.45310909e-01f,+1.22989208e-01f,+5.78077734e-02f,+9.79304314e-03f,
-1.90569013e-01f,-1.80148065e-01f,-1.55516148e-01f,-1.49886727e-01f,+2.17040032e-01f,
-1.89728394e-01f,-1.22695364e-01f,-1.06294557e-01f,+1.01058185e-02f,+5.31162918e-02f,
-2.10403696e-01f,-3.50057930e-02f,+1.02310032e-01f,-1.28154516e-01f,+8.87075067e-02f,
+1.47748053e-01f,-6.12331182e-02f,-1.06437653e-01f,+7.81655312e-04f,+1.65206522e-01f,
+1.37455016e-01f,-1.35577783e-01f,-2.22405300e-01f,+9.49925184e-02f,-1.43773064e-01f,
+3.12934518e-02f,-8.19074661e-02f,-2.18777895e-01f,+2.16528624e-01f,-2.03582048e-01f,
-8.16333890e-02f,+4.37890589e-02f,+6.09477460e-02f,-1.17978103e-01f,-1.49800301e-01f,
-9.17816907e-02f,+4.44498956e-02f,-2.15648383e-01f,-1.32903963e-01f,-5.44315726e-02f,
+6.49611652e-02f,+7.73020387e-02f,-1.01012245e-01f,-7.06191212e-02f,+1.38908923e-01f,
-7.60605633e-02f,-5.64328432e-02f,+1.17805332e-01f,-8.76450092e-02f,+2.93547213e-02f,
-6.24876022e-02f,+1.28812760e-01f,-1.94468364e-01f,-1.08474113e-01f,-1.46869957e-01f,
-1.46379232e-01f,+1.59193307e-01f,-2.03656584e-01f,+9.57307816e-02f,-1.46771654e-01f,
-2.74650753e-02f,-4.32428122e-02f,+2.10620463e-03f,-9.74099040e-02f,-1.98929012e-02f,
-1.39076546e-01f,+1.06983244e-01f,-1.61189884e-01f,+2.85828710e-02f,+1.36033267e-01f,
-1.93248644e-01f,-1.78008065e-01f,-5.78732342e-02f,+4.31005657e-03f,+2.11769819e-01f,
+1.49192601e-01f,-1.37622729e-01f,-1.96191996e-01f,-1.69356972e-01f,-8.37332904e-02f,
+4.96977866e-02f,+9.04882550e-02f,+1.05774552e-01f,-9.58958864e-02f,-6.56496882e-02f,
-2.17334747e-01f,+6.31063879e-02f,+6.04811907e-02f,-8.86067748e-03f,-1.26250952e-01f,
-8.19157809e-02f,-6.59855604e-02f,+8.60992670e-02f,+1.35565907e-01f,+1.03710890e-01f,
+1.53253973e-02f,+4.82910275e-02f,-8.97281170e-02f,+1.61076427e-01f,-4.05964106e-02f,
-1.33510351e-01f,-3.54858041e-02f,-5.17999828e-02f,-5.04306108e-02f,+1.43578380e-01f,
+2.85620093e-02f,-1.55460551e-01f,+1.97416425e-01f,-8.35440904e-02f,-7.04440922e-02f,
-1.92803442e-02f,-1.79203600e-02f,+1.33104533e-01f,+1.44556373e-01f,+7.43551850e-02f,
-2.14284703e-01f,+1.52293593e-01f,+1.72093898e-01f,+9.14184749e-02f,-4.63723838e-02f,
-8.44530612e-02f,-2.15176299e-01f,+4.61524725e-02f,+2.02206880e-01f,-5.81400096e-03f,
-1.54758066e-01f,-2.26925313e-02f,-1.93719819e-01f,-1.93445832e-02f,+1.56825781e-01f,
+7.57395327e-02f,+1.54455453e-01f,+1.46301001e-01f,-2.75950432e-02f,-1.12336785e-01f,
+3.63484025e-04f,-4.65680510e-02f,-1.87070310e-01f,+5.01847863e-02f,+6.37249053e-02f,
-4.98326570e-02f,-1.65351897e-01f,-1.03222936e-01f,+1.79063261e-01f,+9.90588963e-02f,
+1.74608350e-01f,-2.21996874e-01f,-8.47507417e-02f,+5.01501858e-02f,-1.72108829e-01f,
