#include <math.h> 
 #include <string.h> 
#include "./include/k2c_include.h" 
#include "./include/k2c_tensor_include.h" 

 


void torbeam_EC2_xmode(k2c_tensor* input_1_6_input, k2c_tensor* dense_3_6_output) { 

float dense_output_array[60] = {0}; 
k2c_tensor dense_output = {&dense_output_array[0],1,60,{60, 1, 1, 1, 1}}; 
float dense_kernel_array[840] = {
+2.29061931e-01f,+2.81710833e-01f,+1.85531259e-01f,+1.05701506e-01f,-5.24080545e-02f,
-8.99109244e-03f,-2.21633852e-01f,+1.04210138e-01f,+1.94866210e-01f,-2.31230780e-01f,
-2.58212060e-01f,-2.72267818e-01f,-5.80652505e-02f,-8.92874300e-02f,-9.34357941e-02f,
-5.51834255e-02f,+1.20881587e-01f,-2.61910051e-01f,+8.37038159e-02f,-1.43188909e-01f,
+2.80117840e-01f,+1.57397270e-01f,-2.73444802e-01f,+1.07209533e-01f,+1.41039342e-01f,
+1.35859072e-01f,+2.54647523e-01f,-9.26992595e-02f,+2.78998911e-02f,+5.63917756e-02f,
+1.62615150e-01f,+1.68548524e-01f,+1.76253945e-01f,-2.70941406e-01f,-1.63990110e-01f,
-5.36553860e-02f,+2.83266872e-01f,-1.78494066e-01f,+6.85418248e-02f,+3.51440907e-03f,
+2.18138725e-01f,+1.67865306e-01f,-1.06700659e-02f,-4.73643690e-02f,+8.71027708e-02f,
+2.84005105e-02f,+1.64505541e-01f,-3.03643942e-02f,-1.94244415e-01f,+5.64944744e-03f,
+4.52888012e-02f,+1.73252821e-01f,+1.54247284e-01f,+5.04729450e-02f,-7.96257257e-02f,
-2.13477790e-01f,+1.61862403e-01f,-1.80026129e-01f,+2.18428642e-01f,-2.69826382e-01f,
+4.80359197e-02f,-2.46124148e-01f,-2.76529133e-01f,-2.23788098e-01f,+2.68299311e-01f,
+2.26371616e-01f,+2.13376552e-01f,+1.18984222e-01f,+2.17633694e-01f,+2.18995363e-01f,
-8.54960978e-02f,-9.63347256e-02f,-1.88253343e-01f,+5.48797548e-02f,-6.09401464e-02f,
+7.66915679e-02f,-2.37177864e-01f,-4.10608053e-02f,+1.58783704e-01f,+1.88015938e-01f,
-1.08443752e-01f,-1.87600166e-01f,+1.01154178e-01f,+1.49071485e-01f,-2.01231271e-01f,
+2.54635781e-01f,+1.67908072e-01f,-1.82193965e-01f,-9.23299491e-02f,+2.06269592e-01f,
-1.34585872e-01f,+1.89388901e-01f,+3.60184908e-02f,+1.69964433e-02f,+1.31784976e-01f,
-2.77489096e-01f,+2.37108320e-01f,-2.58242488e-01f,-1.59711346e-01f,-2.50804156e-01f,
+3.93226743e-03f,-1.91975564e-01f,-6.21238649e-02f,+2.41273969e-01f,+1.77397728e-01f,
+2.54899532e-01f,-2.50076979e-01f,-4.76970226e-02f,-3.05705070e-02f,-2.57670045e-01f,
-2.24467129e-01f,+1.01373315e-01f,-2.22315580e-01f,-1.50583863e-01f,-1.18454680e-01f,
+2.69618720e-01f,-4.44702655e-02f,-6.94645047e-02f,-8.75800848e-02f,-1.76570565e-01f,
-1.05072558e-02f,-1.85122967e-01f,+4.66652513e-02f,+2.69815952e-01f,+1.70751929e-01f,
-1.48031771e-01f,+2.20759004e-01f,+1.57594889e-01f,-2.76987880e-01f,+1.65700525e-01f,
-2.34801069e-01f,+1.26910120e-01f,+1.75181150e-01f,+7.40105510e-02f,-2.21867859e-01f,
+4.39825654e-03f,-1.99107766e-01f,-1.61499068e-01f,+6.87469840e-02f,+1.12779438e-02f,
+1.42416060e-01f,-1.41731605e-01f,-8.22126418e-02f,-5.54930717e-02f,-1.69832319e-01f,
-1.96486026e-01f,+1.09013468e-01f,+2.91278064e-02f,+7.30151832e-02f,-5.90791702e-02f,
+2.32088268e-02f,-1.27951548e-01f,-5.31332493e-02f,-9.03910398e-03f,-2.36838281e-01f,
+2.30692953e-01f,-2.16329932e-01f,-2.42565542e-01f,-2.45098144e-01f,+7.87159503e-02f,
-1.14674881e-01f,+1.33801877e-01f,-1.02311820e-01f,+7.73259103e-02f,+2.21566468e-01f,
+2.19445020e-01f,+2.19545871e-01f,-2.60021716e-01f,+2.59899527e-01f,-1.04157180e-01f,
-2.49248743e-03f,+1.10975891e-01f,-2.27817863e-01f,+2.14468241e-02f,+1.81632936e-01f,
-2.52603531e-01f,-1.62270352e-01f,+2.78696150e-01f,-6.32029623e-02f,+1.85859025e-01f,
+1.98148310e-01f,+1.62524611e-01f,-5.46112508e-02f,+1.96242034e-01f,+1.46855712e-02f,
-2.59201825e-02f,+1.60166413e-01f,+1.95278227e-02f,-1.75248906e-01f,+1.41112804e-02f,
-2.76417881e-01f,+1.61392897e-01f,+1.83989763e-01f,+1.20675474e-01f,+1.60945505e-01f,
+1.59592211e-01f,+9.91198719e-02f,+1.83180600e-01f,+8.96142423e-02f,+2.19320267e-01f,
-2.59452939e-01f,+1.90808594e-01f,+2.69452840e-01f,+2.62713134e-02f,-3.03095579e-02f,
+1.67331815e-01f,+2.61048228e-01f,-2.24966317e-01f,-3.04602683e-02f,-2.84036398e-01f,
+3.50558162e-02f,+5.41293919e-02f,+1.72625750e-01f,-5.69915771e-02f,+1.65933788e-01f,
-1.37116909e-02f,-1.68004334e-02f,+4.03606892e-03f,+2.10915446e-01f,+1.59029067e-01f,
-1.33305147e-01f,+1.59446985e-01f,-1.48781955e-01f,-5.81088364e-02f,-1.36598349e-02f,
+1.60790443e-01f,+3.30344141e-02f,+4.89912629e-02f,-2.41825476e-01f,-1.24516636e-01f,
+2.84965634e-02f,-1.51848793e-02f,+1.99558616e-01f,+1.35020345e-01f,-2.84059733e-01f,
+1.61733270e-01f,+1.52462274e-01f,-1.29949585e-01f,+2.32512057e-02f,+2.67710179e-01f,
-9.02517289e-02f,-2.84358859e-02f,-2.46365637e-01f,-1.31364673e-01f,+3.41559350e-02f,
+1.07507914e-01f,+1.73963755e-01f,+5.16344011e-02f,-1.95840687e-01f,-2.08949789e-01f,
-2.16375768e-01f,+9.99858677e-02f,-6.90421015e-02f,-2.41850793e-01f,+1.57745898e-01f,
-1.08945519e-01f,+2.06245154e-01f,-2.69321024e-01f,-4.88394648e-02f,-2.73084313e-01f,
+2.10871786e-01f,-2.80041873e-01f,+7.97537565e-02f,-9.60313231e-02f,+1.35563254e-01f,
-2.77785659e-02f,-2.69038469e-01f,-1.32417351e-01f,-2.53671110e-01f,-2.14277923e-01f,
+1.63237780e-01f,-2.65984684e-01f,+1.13597959e-01f,+2.57671267e-01f,-4.36874926e-02f,
-2.28256971e-01f,+1.13419473e-01f,-4.68236357e-02f,-2.70356596e-01f,+2.04452276e-01f,
+1.79481387e-01f,-1.76424414e-01f,-2.82204688e-01f,-5.05256951e-02f,+1.26080513e-01f,
+2.42467195e-01f,+1.95296884e-01f,+3.49606276e-02f,+6.94207847e-02f,+1.38578236e-01f,
+1.55500472e-02f,-4.81609106e-02f,+2.83286780e-01f,-2.57125288e-01f,+1.24647796e-01f,
-7.21925497e-02f,-1.42365992e-02f,+1.35638028e-01f,-9.55125242e-02f,-1.20670378e-01f,
-2.32346132e-01f,+2.72207528e-01f,-2.71498710e-01f,-1.83996558e-01f,+2.65311986e-01f,
+2.09526986e-01f,+1.52671039e-02f,-1.61983520e-01f,-1.46084309e-01f,-2.40380868e-01f,
-5.15367687e-02f,-1.84039325e-01f,-5.31692207e-02f,-3.80569100e-02f,-2.62626827e-01f,
+1.34421647e-01f,-5.42599261e-02f,-2.41434157e-01f,+2.70464033e-01f,+1.37459069e-01f,
+1.17033839e-01f,-1.98114008e-01f,+2.78553337e-01f,+9.75654721e-02f,+8.99737179e-02f,
+2.11322099e-01f,+2.22301155e-01f,+1.37878209e-01f,+1.76682740e-01f,-1.96282089e-01f,
+1.44037575e-01f,+1.24644995e-01f,-4.01652753e-02f,-1.33671537e-01f,-1.22757554e-01f,
+3.11796963e-02f,-6.89431876e-02f,-1.44971341e-01f,+8.31030905e-02f,+1.11846298e-01f,
-1.79370940e-01f,+1.20373011e-01f,-3.56672257e-02f,-2.09962428e-02f,+2.12250024e-01f,
+2.10847288e-01f,-1.11885190e-01f,-1.67979553e-01f,+2.63422221e-01f,-9.14370716e-02f,
+9.05309021e-02f,+1.00966781e-01f,-5.10952771e-02f,-7.93026537e-02f,+2.73717254e-01f,
-1.18359923e-02f,-1.62630022e-01f,-1.99924946e-01f,-6.69060349e-02f,+2.78369695e-01f,
-1.68814242e-01f,-2.29602128e-01f,-2.83415884e-01f,+9.73879695e-02f,-8.03204328e-02f,
+3.92765999e-02f,+2.48743087e-01f,+1.61348343e-01f,+2.84812152e-02f,-1.88186526e-01f,
+1.67825818e-02f,+5.88907003e-02f,-1.42851233e-01f,+3.83218229e-02f,+1.29497051e-03f,
+7.83104599e-02f,-2.83684313e-01f,+4.25514281e-02f,+4.14878130e-02f,-2.58757412e-01f,
+1.20866835e-01f,-2.83902436e-01f,-2.65326023e-01f,-5.68853319e-02f,+1.07932746e-01f,
-2.49014318e-01f,-1.78760469e-01f,-3.72341722e-02f,-1.05052084e-01f,-3.87461931e-02f,
+2.72651523e-01f,+7.33115673e-02f,+5.53081930e-02f,-7.63431638e-02f,+1.18700564e-02f,
+1.16164505e-01f,-4.12682742e-02f,-2.80430883e-01f,-1.16281211e-01f,-2.69763798e-01f,
+1.39773965e-01f,+1.02405369e-01f,-1.24821857e-01f,-7.94638842e-02f,+2.83651739e-01f,
-4.01248783e-02f,-1.93207055e-01f,+1.19615793e-02f,-1.53147146e-01f,-2.75639057e-01f,
+1.25014246e-01f,+1.14035517e-01f,+5.73955774e-02f,-2.55935192e-01f,+6.87412024e-02f,
+9.81400311e-02f,+2.42749721e-01f,+8.72846246e-02f,+1.51512325e-01f,+7.11832643e-02f,
-2.59376168e-01f,+2.70629317e-01f,+1.51616186e-01f,+2.10850894e-01f,-1.10103309e-01f,
-2.07231939e-02f,-3.82676721e-03f,+1.13850594e-01f,-2.39714473e-01f,+2.15410799e-01f,
-8.46806765e-02f,-1.65324688e-01f,+2.52497822e-01f,+1.66336715e-01f,+1.39807284e-01f,
+9.03486609e-02f,-1.66547984e-01f,-5.05548120e-02f,-2.76843280e-01f,+3.67216766e-02f,
-8.68399590e-02f,+1.15568310e-01f,-5.81241101e-02f,-1.63389370e-01f,+9.45721269e-02f,
+2.27323860e-01f,-1.57467812e-01f,+1.47915959e-01f,+6.54921830e-02f,-1.78819895e-03f,
-3.46834958e-02f,-1.99599832e-01f,+4.25232649e-02f,-3.22824121e-02f,-7.63629079e-02f,
-1.52694672e-01f,-7.07396865e-03f,-1.82912439e-01f,+7.05764592e-02f,+2.32336968e-01f,
-7.37484992e-02f,-5.06578088e-02f,+6.38265312e-02f,-2.52057523e-01f,-6.19027466e-02f,
+3.70884240e-02f,-4.87723947e-02f,+2.09802479e-01f,+1.97997779e-01f,-3.12138200e-02f,
+2.15029866e-01f,-2.47638956e-01f,-1.46438897e-01f,+2.59821862e-01f,+2.09521949e-01f,
-1.28476471e-01f,-2.48558640e-01f,-1.35615811e-01f,-2.77130157e-01f,+5.50741255e-02f,
-5.23217022e-02f,+3.32607627e-02f,+1.84076250e-01f,-9.50713754e-02f,+2.44922638e-02f,
+3.92180681e-03f,+9.60458517e-02f,+2.83967167e-01f,+1.85616195e-01f,+1.01775289e-01f,
+1.04234427e-01f,+1.50724322e-01f,-2.76115984e-01f,-9.27542597e-02f,-2.36432239e-01f,
+2.30629593e-01f,-7.22188950e-02f,-2.83848882e-01f,-3.13263834e-02f,+1.39943331e-01f,
+2.40653664e-01f,+1.42478943e-03f,+1.23401552e-01f,-2.06319630e-01f,-1.68136105e-01f,
+1.98587745e-01f,-1.83662325e-01f,+9.46082473e-02f,+8.59998465e-02f,-2.48425901e-02f,
+1.01371408e-01f,-1.55970931e-01f,+1.84824198e-01f,-6.52582347e-02f,-2.60340989e-01f,
+1.23527229e-01f,+1.74648702e-01f,-1.67475075e-01f,-1.05841503e-01f,+9.11897421e-02f,
-1.71059206e-01f,-2.65719503e-01f,-1.14215001e-01f,-4.13150489e-02f,-1.85437828e-01f,
+1.68492526e-01f,+5.12715280e-02f,+2.78010815e-01f,+2.32077688e-01f,-1.54338330e-01f,
-2.34407380e-01f,+2.16494232e-01f,-2.63524383e-01f,-2.31155694e-01f,-1.66117221e-01f,
+1.91488445e-01f,-9.73389447e-02f,-7.69303292e-02f,-2.37336650e-01f,-2.60447174e-01f,
-3.85954082e-02f,-9.68956947e-02f,+9.84521806e-02f,-9.79509652e-02f,+1.53329849e-01f,
+1.09007508e-01f,-1.92000121e-01f,-4.73064184e-03f,-7.22866505e-02f,+2.30541676e-01f,
-4.15150523e-02f,-1.88658893e-01f,-1.05167970e-01f,-3.22818756e-03f,+2.59154528e-01f,
+1.99482799e-01f,-1.66113287e-01f,+1.75949723e-01f,-4.36604768e-02f,+2.24319607e-01f,
-2.24846557e-01f,+5.47035038e-02f,-1.69802308e-01f,-1.29272118e-01f,+1.90606356e-01f,
+1.98160648e-01f,-2.24747851e-01f,-1.66734070e-01f,+1.97845101e-01f,-1.79560691e-01f,
+2.78684705e-01f,-1.77053466e-01f,-1.36704892e-01f,+1.51421070e-01f,+1.32170320e-01f,
+2.33572632e-01f,-2.83178985e-02f,+6.72238767e-02f,-1.71266884e-01f,-1.39712989e-02f,
-4.15447354e-03f,-2.15443447e-01f,-6.51732385e-02f,+1.86191261e-01f,-2.72702038e-01f,
-2.30138719e-01f,+2.04544961e-02f,+1.44797415e-01f,-3.53972316e-02f,+1.08289778e-01f,
+2.91699171e-03f,-1.52468592e-01f,-5.79645634e-02f,+2.67471969e-02f,+7.66826570e-02f,
-1.11590281e-01f,+3.72615159e-02f,+1.12979710e-01f,+1.19812250e-01f,+6.83786273e-02f,
+1.75857931e-01f,-2.48359054e-01f,+1.42004371e-01f,+2.55060703e-01f,-1.72639862e-01f,
-1.20147422e-01f,+2.41151452e-02f,+1.96824312e-01f,-1.22430936e-01f,+2.10642219e-02f,
+5.06120920e-03f,-2.50209093e-01f,+2.65023202e-01f,+1.11391515e-01f,+5.67790866e-03f,
+2.52979428e-01f,+2.43793398e-01f,-2.77761281e-01f,-6.00802600e-02f,-1.72793433e-01f,
+1.80044323e-01f,+4.25200164e-02f,-2.54587263e-01f,-9.18315798e-02f,-1.31210893e-01f,
+1.14225119e-01f,-6.67577684e-02f,+2.83442587e-01f,-8.12504590e-02f,+1.35747522e-01f,
+2.23784000e-01f,+2.36612231e-01f,-1.75982043e-01f,+1.05511010e-01f,+2.76038080e-01f,
+1.66890889e-01f,-9.25488174e-02f,+1.53202832e-01f,+2.15508431e-01f,+1.96669757e-01f,
-3.73513401e-02f,-1.65943563e-01f,-6.12477511e-02f,-1.70544133e-01f,-1.85169816e-01f,
-9.58719254e-02f,+2.76643604e-01f,+1.13864213e-01f,-3.43507826e-02f,-4.93197739e-02f,
+1.99387878e-01f,-2.50014067e-01f,+1.37284696e-02f,-2.47512683e-01f,-1.29748777e-01f,
-1.77120343e-01f,-1.38660774e-01f,-8.92607570e-02f,+1.92602247e-01f,-2.72583514e-01f,
-1.47791207e-02f,-5.47794849e-02f,-1.72813118e-01f,-1.05896011e-01f,+4.53382134e-02f,
+3.21335196e-02f,-3.28278542e-03f,-2.35775411e-02f,+1.02328449e-01f,-1.31540298e-01f,
+2.70299405e-01f,-3.09112668e-03f,+1.81054235e-01f,-8.51679295e-02f,+1.46645427e-01f,
+1.01272851e-01f,-2.79758215e-01f,-2.14894772e-01f,+1.76690221e-02f,+8.88619721e-02f,
-1.93005085e-01f,+1.52272582e-02f,-1.40590996e-01f,+2.64510214e-02f,+7.07396865e-03f,
+1.18419707e-01f,+1.28633827e-01f,+1.70043916e-01f,+7.22895563e-02f,+1.23669177e-01f,
+1.67545736e-01f,-1.54128671e-02f,-1.51742592e-01f,-1.15924731e-01f,-1.96891814e-01f,
+1.70961589e-01f,+1.07858896e-01f,+3.49111259e-02f,+1.71816915e-01f,+1.10789925e-01f,
+1.36991709e-01f,+5.44837713e-02f,+1.91909432e-01f,-1.00180373e-01f,+2.87199318e-02f,
-1.33467197e-01f,+1.14249229e-01f,-2.40785480e-02f,-5.74882627e-02f,-2.04711139e-01f,
+1.59895718e-01f,+2.93007195e-02f,+1.01142436e-01f,+4.72398698e-02f,-1.07556045e-01f,
-1.92418128e-01f,-7.10807443e-02f,-1.28895342e-01f,+2.70544320e-01f,-2.29958206e-01f,
+2.68322021e-01f,-7.44199902e-02f,+2.32650608e-01f,+9.04584527e-02f,-1.32026181e-01f,
+9.85608101e-02f,-5.03411740e-02f,-1.68207660e-01f,-2.04313576e-01f,-2.30517939e-01f,
+2.78497845e-01f,+2.03703195e-01f,-1.83035046e-01f,+7.18425810e-02f,+9.22694504e-02f,
-1.18669480e-01f,-1.41722232e-01f,-7.90920854e-03f,+2.81688243e-01f,+2.62118727e-01f,
-2.29125738e-01f,-1.84607953e-01f,+2.53147990e-01f,+1.87105745e-01f,+2.24407941e-01f,
-2.31165677e-01f,+1.20237112e-01f,+2.69683629e-01f,-1.47383437e-01f,+1.90547913e-01f,
-9.76286232e-02f,+1.17312044e-01f,-1.87242329e-01f,+2.02076018e-01f,-4.66403961e-02f,
+1.24594867e-02f,-2.68568814e-01f,-1.77636638e-01f,-2.80360609e-01f,-3.25830877e-02f,
-1.17604643e-01f,-2.64010936e-01f,+6.38961792e-02f,+1.26235187e-01f,+2.14002013e-01f,
+1.40356094e-01f,+1.40415728e-02f,+3.59685123e-02f,-6.60445243e-02f,+1.09810531e-02f,
-2.38317713e-01f,+6.40013218e-02f,-2.37072155e-01f,-1.13701969e-01f,-1.06747210e-01f,
+8.49184394e-03f,-5.21235317e-02f,+1.15064174e-01f,+2.39516050e-01f,-1.35630608e-01f,
-7.14636296e-02f,-1.00975886e-01f,-1.26176521e-01f,-1.51697993e-01f,-1.75447345e-01f,
-8.05329382e-02f,+1.20633721e-01f,-1.91706568e-01f,-2.74019092e-01f,+1.97491944e-01f,
-2.66442001e-01f,-2.27590293e-01f,-2.79297203e-01f,-2.45601326e-01f,+4.10225093e-02f,
-9.92099643e-02f,-1.18020594e-01f,-2.21680418e-01f,-5.73112071e-02f,+2.54783630e-02f,
+1.90559924e-01f,-1.84647441e-02f,-8.91473144e-02f,+1.42743140e-01f,-3.37460935e-02f,
+1.62230313e-01f,+1.62470758e-01f,+1.61589682e-02f,+8.50162506e-02f,-2.52497107e-01f,
-4.42534685e-03f,+2.11969435e-01f,-5.94958067e-02f,-4.76641059e-02f,-1.97316453e-01f,
-3.51462364e-02f,-2.53792405e-01f,-6.84217215e-02f,-1.08365685e-01f,-1.98615238e-01f,
+1.84009522e-01f,-7.83261955e-02f,+5.29192686e-02f,+1.19110554e-01f,-1.91712558e-01f,
-6.38560504e-02f,-1.80053622e-01f,+1.12087429e-02f,+1.37577802e-01f,-1.42036557e-01f,
-1.99045241e-01f,+5.79050183e-02f,+8.12772810e-02f,-1.21981919e-01f,+2.28881806e-01f,
-9.51829851e-02f,-2.64748424e-01f,+2.12291837e-01f,-2.72493899e-01f,-1.58393145e-01f,
}; 
k2c_tensor dense_kernel = {&dense_kernel_array[0],2,840,{14,60, 1, 1, 1}}; 
float dense_bias_array[60] = {0}; 
k2c_tensor dense_bias = {&dense_bias_array[0],1,60,{60, 1, 1, 1, 1}}; 
float dense_fwork[854] = {0}; 

 
float dense_1_output_array[60] = {0}; 
k2c_tensor dense_1_output = {&dense_1_output_array[0],1,60,{60, 1, 1, 1, 1}}; 
float dense_1_kernel_array[3600] = {
+4.73879874e-02f,-5.22210300e-02f,+1.79302484e-01f,-4.21332270e-02f,+3.25126946e-02f,
+2.07009524e-01f,+1.00316852e-01f,+4.58209813e-02f,+1.00481480e-01f,+1.80133879e-01f,
-3.21595073e-02f,+4.29085493e-02f,-9.11547542e-02f,+1.64217681e-01f,+3.99996340e-02f,
-1.65397435e-01f,+9.99100804e-02f,+1.73286557e-01f,+1.39705628e-01f,+1.29937202e-01f,
+5.19765019e-02f,-2.57344544e-02f,-2.22630709e-01f,-3.43713760e-02f,-8.25360119e-02f,
-1.26344144e-01f,+8.73393118e-02f,-1.90067202e-01f,+2.16362059e-01f,+1.38854235e-01f,
-1.76820457e-02f,+3.86258960e-02f,+1.30113095e-01f,-2.04367444e-01f,-1.12008542e-01f,
+7.42175281e-02f,-3.86777669e-02f,+2.01682597e-02f,-1.89552248e-01f,+9.07178521e-02f,
-5.58331609e-04f,-1.62531480e-01f,-1.29636526e-01f,-1.68926269e-01f,-2.03558385e-01f,
-2.12963641e-01f,-2.20012605e-01f,+5.67291975e-02f,+1.67678714e-01f,+5.05075455e-02f,
-2.07534611e-01f,+1.43459439e-01f,+2.10131705e-01f,+9.90416706e-02f,+3.54308486e-02f,
-1.80256337e-01f,+1.88626498e-02f,-1.09212399e-02f,+2.19416469e-01f,+1.65483862e-01f,
-4.23454642e-02f,-5.43457270e-03f,+2.04531550e-02f,-3.42743099e-03f,+1.53236479e-01f,
-3.43738794e-02f,+3.20750773e-02f,+2.21064985e-01f,+1.24218106e-01f,-1.12164170e-02f,
+1.43828243e-01f,+2.00547099e-01f,-2.60325223e-02f,-5.93183041e-02f,-2.20081225e-01f,
-1.39363319e-01f,-2.18625635e-01f,+1.58698887e-01f,+1.05926663e-01f,-4.14423048e-02f,
-2.13017330e-01f,+1.26443833e-01f,-1.49744183e-01f,+1.21293157e-01f,-1.25689507e-02f,
+1.30561143e-02f,-9.37527418e-02f,-1.71797380e-01f,-2.15341359e-01f,+1.59465998e-01f,
+1.90779597e-01f,-9.54285115e-02f,+2.14797467e-01f,+1.52613670e-02f,+2.16221899e-01f,
+8.79911482e-02f,-2.06119120e-02f,-1.17396414e-01f,+3.43852341e-02f,-1.51824191e-01f,
-7.10858703e-02f,+5.42659163e-02f,-6.70839995e-02f,-5.07610887e-02f,-3.21220905e-02f,
+1.70985341e-01f,-8.24407935e-02f,+1.82711214e-01f,-3.43793631e-03f,+9.56110060e-02f,
+7.85653293e-02f,-1.17993243e-01f,+1.42086059e-01f,+1.05528533e-01f,-2.14875251e-01f,
+1.01305693e-02f,+6.34905994e-02f,-1.99698806e-02f,-2.07537383e-01f,+3.41407061e-02f,
-1.41140461e-01f,-1.77098140e-01f,-1.28959209e-01f,+9.05470550e-02f,-1.58445597e-01f,
+1.88437819e-01f,+1.53345495e-01f,-2.01334789e-01f,-2.91345865e-02f,+6.56016469e-02f,
-7.18459487e-03f,+1.77278429e-01f,+2.14168698e-01f,-1.59180775e-01f,-8.64774734e-02f,
+1.21976882e-02f,+2.10934103e-01f,+2.16370583e-01f,+1.90141231e-01f,+1.76063627e-01f,
-4.04627621e-03f,+1.71503484e-01f,+1.38717890e-03f,+6.78738654e-02f,-8.35626423e-02f,
-1.52153715e-01f,-1.59745127e-01f,-1.86723679e-01f,-4.26337719e-02f,+1.99580193e-01f,
-6.23433292e-02f,+1.85422391e-01f,-8.71012807e-02f,-1.42662585e-01f,-4.99048382e-02f,
+1.68381155e-01f,+1.45981789e-01f,+1.60145611e-01f,-2.04574510e-01f,+2.07304358e-02f,
-7.38619864e-02f,-3.81356478e-03f,-1.57806665e-01f,-1.25742137e-01f,+4.50370908e-02f,
-6.91201985e-02f,+1.81469023e-01f,-3.36793810e-02f,-1.28829718e-01f,+6.18581474e-02f,
+8.06945562e-02f,+8.74468386e-02f,+9.13002491e-02f,-1.12507701e-01f,+4.71820831e-02f,
-1.82977438e-01f,+1.37217224e-01f,-1.55844718e-01f,+9.99196172e-02f,-1.27129167e-01f,
-1.81568891e-01f,-2.07202956e-01f,+1.25308990e-01f,+3.57926786e-02f,-9.89637300e-02f,
-1.71753928e-01f,-2.94138491e-03f,-9.08510238e-02f,-1.67546496e-01f,+2.10985124e-01f,
-1.74878716e-01f,-1.76594615e-01f,+1.57866955e-01f,-9.69667137e-02f,-1.19292669e-01f,
-1.90631345e-01f,+9.15883780e-02f,+1.89260960e-01f,+7.14588761e-02f,+1.89838111e-01f,
-8.46994668e-02f,+2.22463131e-01f,-8.57481062e-02f,-2.11630613e-02f,+7.53695965e-02f,
+1.65031552e-01f,+3.96412611e-03f,+1.93049103e-01f,+1.82657421e-01f,+9.96831357e-02f,
-2.13019401e-01f,+1.86690778e-01f,+7.58316517e-02f,+1.26442939e-01f,-8.14667344e-02f,
+1.28600299e-01f,-1.48941189e-01f,+1.17113173e-01f,-1.68222860e-01f,-9.64019299e-02f,
+1.55343264e-02f,-1.92820176e-01f,+2.11704463e-01f,+2.12446123e-01f,-4.92748022e-02f,
+1.21140689e-01f,+5.42880595e-02f,+9.16673243e-03f,+7.65412450e-02f,-1.43084079e-02f,
+4.27028239e-02f,-2.22721875e-01f,-1.73743799e-01f,+2.45720148e-03f,+4.83419895e-02f,
+1.10444844e-01f,-2.05564737e-01f,-2.88046896e-02f,+2.85307169e-02f,+2.14423895e-01f,
+8.33181441e-02f,+1.65017277e-01f,-1.72478259e-02f,+1.46882087e-02f,-1.71524897e-01f,
-1.24101892e-01f,+1.58598244e-01f,-1.11788847e-01f,-1.68860584e-01f,-1.23332441e-01f,
+2.04145908e-05f,+1.99257284e-01f,-6.48379326e-04f,-7.18009472e-02f,+1.83467329e-01f,
+1.37252301e-01f,-1.06509358e-01f,-1.83422327e-01f,-1.00215659e-01f,+1.59257978e-01f,
+8.29721987e-03f,-8.57542455e-02f,+6.62688017e-02f,-1.99103579e-01f,+1.78447783e-01f,
+1.81948155e-01f,-1.90719724e-01f,-1.00104131e-01f,+5.03461063e-02f,+5.44359982e-02f,
-1.33513123e-01f,+1.63943022e-02f,+1.27276719e-01f,+2.09692717e-02f,-5.10584116e-02f,
-1.15457244e-01f,+1.27334356e-01f,-1.57618403e-01f,-1.62742168e-01f,+1.91525280e-01f,
-1.66490704e-01f,-5.78386337e-02f,-1.92427531e-01f,+1.29964411e-01f,+1.46679848e-01f,
-1.02778077e-02f,+1.99911267e-01f,+1.13528401e-01f,-1.36226654e-01f,+1.22306883e-01f,
-5.90568632e-02f,-5.55974990e-02f,-1.99386939e-01f,-1.38006836e-01f,+1.06289715e-01f,
+2.07211018e-01f,+1.80427641e-01f,+4.79207337e-02f,+6.67216778e-02f,+2.09175020e-01f,
+1.94541305e-01f,-2.05143720e-01f,+2.01283991e-01f,-6.45416081e-02f,-1.56877905e-01f,
-1.21297523e-01f,-2.95300037e-02f,+6.47189617e-02f,-1.17179751e-03f,+2.92757452e-02f,
-5.20874858e-02f,+1.38846040e-03f,-1.10955365e-01f,-3.45852077e-02f,-1.85650349e-01f,
-1.19989812e-02f,-2.11454421e-01f,+4.74150181e-02f,+2.88262963e-02f,+8.03938806e-02f,
-7.35230744e-02f,-1.99986428e-01f,-1.41784251e-01f,+9.70805287e-02f,+1.33956075e-02f,
-1.87073827e-01f,+5.57925701e-02f,-5.12616336e-03f,-1.64899498e-01f,-1.99450269e-01f,
-7.26864040e-02f,+1.11698806e-02f,-5.51682264e-02f,-4.58002090e-04f,-9.29089785e-02f,
-1.81848675e-01f,+1.70159250e-01f,+3.82752120e-02f,+1.64243072e-01f,-5.25567979e-02f,
-1.68121412e-01f,-1.50312364e-01f,-1.93723708e-01f,+1.64460540e-01f,+1.39790922e-01f,
-5.42152822e-02f,-1.88169330e-01f,+1.60876095e-01f,-6.98958337e-02f,-1.43206030e-01f,
-1.86094701e-01f,-1.57193035e-01f,+9.23961103e-02f,+8.98903906e-02f,-1.50381476e-02f,
-1.22473903e-01f,-8.64425451e-02f,+1.94755673e-01f,-1.11339211e-01f,-1.35609210e-02f,
+1.59984529e-02f,+1.57076001e-01f,+1.57951385e-01f,-1.82299212e-01f,+1.16383880e-02f,
-2.17111364e-01f,+1.88511401e-01f,+1.18227392e-01f,+1.20827466e-01f,+1.18415058e-01f,
-1.65901124e-01f,-1.02412328e-01f,-1.48610502e-01f,+4.65957224e-02f,-1.31181777e-01f,
+6.53774440e-02f,-5.37383556e-02f,-1.51094243e-01f,+4.08183932e-02f,-1.05740279e-01f,
-2.00848490e-01f,-1.66982502e-01f,+1.06462717e-01f,+1.54293507e-01f,-4.10771668e-02f,
-8.55383873e-02f,+8.72499049e-02f,+7.09482133e-02f,-1.79674327e-01f,-1.27025470e-01f,
+9.27682817e-02f,+6.18982911e-02f,-1.93487749e-01f,-1.48089632e-01f,-1.96490869e-01f,
-1.19331375e-01f,+4.74163592e-02f,+4.98424768e-02f,-1.62942097e-01f,-1.88544497e-01f,
+7.52530396e-02f,+1.30726933e-01f,-8.53951275e-02f,+1.69490188e-01f,-3.13666612e-02f,
-1.58741802e-01f,-2.80806571e-02f,-1.84222654e-01f,-1.61143929e-01f,-1.53356791e-03f,
+2.00913697e-01f,-6.58545196e-02f,-1.85173154e-01f,-6.99186027e-02f,-9.67698395e-02f,
-3.44622731e-02f,+3.59266996e-05f,-1.73904270e-01f,-9.85878259e-02f,-2.85670310e-02f,
+1.09919757e-02f,-9.16542858e-02f,-6.75642937e-02f,-1.58358961e-01f,+5.75005710e-02f,
+3.09034288e-02f,-5.54658175e-02f,-2.21108064e-01f,+1.59459174e-01f,+2.02993333e-01f,
+4.92490828e-03f,-4.09163833e-02f,-1.97061300e-01f,-7.34954625e-02f,-1.35042265e-01f,
-2.03119949e-01f,+2.02841669e-01f,+1.95888400e-01f,-1.56972960e-01f,-1.90828055e-01f,
+1.85151339e-01f,-3.88407856e-02f,+1.17967337e-01f,+1.24106377e-01f,-2.88212150e-02f,
-7.79032707e-03f,-1.93432570e-02f,+7.95235038e-02f,+1.81047559e-01f,-1.03270009e-01f,
-1.67057946e-01f,+1.22165561e-01f,-1.40236825e-01f,+2.19918549e-01f,-8.99845958e-02f,
-1.46262318e-01f,+2.20201015e-02f,+2.92885005e-02f,+1.52224630e-01f,+3.28200459e-02f,
-7.96120018e-02f,-1.93581626e-01f,-3.22608650e-02f,-1.33125693e-01f,-2.15651199e-01f,
+1.17150694e-01f,+1.96638852e-01f,+9.78341997e-02f,-9.95210037e-02f,+1.03378654e-01f,
-1.93965435e-03f,+1.15388364e-01f,+7.89518952e-02f,+1.44142210e-01f,+1.17345601e-02f,
+1.16152763e-01f,-1.21665426e-01f,+8.69859755e-03f,-1.03348486e-01f,+1.37337655e-01f,
-6.48604631e-02f,+8.71994793e-02f,-5.31732440e-02f,+1.78596109e-01f,-1.72530264e-01f,
+1.74936444e-01f,+3.06050479e-02f,-3.51890922e-03f,+1.57680988e-01f,-1.58373207e-01f,
-4.67284024e-02f,-1.60262898e-01f,+4.53025103e-02f,+1.33462727e-01f,-6.54364526e-02f,
-5.01096696e-02f,+1.73436880e-01f,-9.10717994e-02f,+1.70743734e-01f,+6.12856150e-02f,
+1.88739836e-01f,-1.82551697e-01f,+2.11920708e-01f,-2.05060989e-02f,+2.19755918e-01f,
+2.93337703e-02f,+1.12366468e-01f,-1.28213733e-01f,+5.37204444e-02f,-3.22251916e-02f,
+2.22609282e-01f,-1.24179885e-01f,+2.02896208e-01f,+1.86696976e-01f,+8.80978405e-02f,
+1.71482205e-01f,-5.26785105e-02f,-1.41490564e-01f,+1.39277011e-01f,-1.58836007e-01f,
-2.11299136e-01f,-1.31123036e-01f,+9.89425778e-02f,-3.57452780e-02f,+1.85968131e-01f,
-1.40223607e-01f,-6.25812709e-02f,+1.15933418e-02f,-1.16601102e-01f,+1.43025815e-03f,
-2.06115916e-01f,+5.17456532e-02f,-1.51280835e-01f,+6.71405196e-02f,-1.20991617e-01f,
-2.09154442e-01f,-1.92092255e-01f,-1.96105048e-01f,+1.06728613e-01f,+1.92525297e-01f,
+7.67135918e-02f,-6.66205585e-02f,-6.64237887e-02f,+1.71065658e-01f,-1.82366163e-01f,
-6.48157299e-02f,+1.73810214e-01f,+1.39412463e-01f,-1.14027627e-01f,-4.67647612e-02f,
+1.12769455e-01f,+7.33970404e-02f,+7.01475739e-02f,-8.19131732e-04f,+5.15191257e-02f,
-1.15694694e-01f,-2.03621030e-01f,+1.27231181e-02f,-1.99417531e-01f,+9.28225219e-02f,
+2.11608768e-01f,-1.53204381e-01f,+2.06115723e-01f,-6.43129945e-02f,-6.20467067e-02f,
+2.04283267e-01f,-1.25434637e-01f,-1.90738291e-01f,-4.22032326e-02f,+1.52932495e-01f,
+1.25967503e-01f,+1.59771264e-01f,+1.07812524e-01f,-1.98975578e-01f,+8.16219151e-02f,
+1.39081389e-01f,+8.00474584e-02f,+1.25880599e-01f,+6.19435906e-02f,-2.11445957e-01f,
-2.05429107e-01f,+9.89425778e-02f,-1.08674914e-02f,-2.04985291e-02f,+7.56729245e-02f,
-1.36000276e-01f,+8.61693323e-02f,+1.65950656e-02f,-7.07493573e-02f,-7.09109008e-03f,
-3.86542976e-02f,+9.95056927e-02f,-9.05123949e-02f,-1.49571598e-01f,-1.81000635e-01f,
+7.44425654e-02f,-1.20502003e-01f,+1.91203475e-01f,-2.13765293e-01f,-8.52154642e-02f,
+2.80654132e-02f,-1.72335401e-01f,+1.17502034e-01f,+1.54937714e-01f,+5.63144386e-02f,
+9.95427966e-02f,+7.83267021e-02f,+5.06693125e-03f,-1.28300324e-01f,+3.57797742e-03f,
+2.09837645e-01f,-1.76680654e-01f,+1.31582797e-01f,-2.67810225e-02f,+9.51145589e-03f,
-1.51957482e-01f,-5.05919755e-02f,+8.80872905e-02f,+3.86628211e-02f,-5.50854951e-02f,
-8.89069587e-02f,-2.22595260e-01f,+4.92744148e-02f,+1.90651387e-01f,+1.85943574e-01f,
-1.01427123e-01f,-2.01171339e-02f,+8.86345208e-02f,+7.47520328e-02f,+1.31870359e-01f,
+1.03596538e-01f,-5.97046018e-02f,+4.76130247e-02f,-1.40208155e-01f,+1.76201910e-01f,
+8.09317827e-02f,-7.66705126e-02f,+1.27749562e-01f,+2.00826615e-01f,+2.02399641e-01f,
-5.97539693e-02f,-2.05933377e-01f,-1.33280933e-01f,+9.45111513e-02f,+1.23315603e-01f,
+2.10897535e-01f,+2.81090140e-02f,+4.94121313e-02f,+2.01949537e-01f,+1.19296283e-01f,
-2.17114463e-01f,+9.32393968e-02f,+1.41421914e-01f,-1.57478631e-01f,-7.02009946e-02f,
+1.11211270e-01f,+1.66545838e-01f,+2.20050454e-01f,+1.08714879e-01f,-1.27419502e-01f,
-2.17788160e-01f,+2.01364070e-01f,+2.11483598e-01f,+8.75407159e-02f,+5.07395566e-02f,
-1.50426716e-01f,+1.99162930e-01f,+1.40969932e-01f,-1.50338441e-01f,-1.74645931e-02f,
-8.58126581e-03f,-8.40687752e-02f,+1.55546874e-01f,-8.75938833e-02f,+3.32222283e-02f,
+1.51285917e-01f,+1.38201922e-01f,-2.14564919e-01f,+1.67065233e-01f,-1.31238505e-01f,
+1.88991666e-01f,-3.87745798e-02f,+1.65799201e-01f,-2.18299329e-02f,-8.73110592e-02f,
-3.95140052e-02f,-1.72841877e-01f,-5.72478324e-02f,-5.09333462e-02f,+6.36033118e-02f,
-9.38499421e-02f,+1.99012637e-01f,+1.57738477e-01f,+1.21739149e-01f,+1.11394703e-01f,
+1.03150815e-01f,+2.70892680e-02f,+2.89168954e-03f,-3.82826626e-02f,-1.75089613e-01f,
+1.01282328e-01f,+1.47112161e-01f,+1.16654515e-01f,-3.59641761e-02f,+1.08064622e-01f,
-1.27043009e-01f,-8.33068937e-02f,-1.20847672e-01f,-9.00900066e-02f,-1.42737061e-01f,
-2.19377339e-01f,-2.10975945e-01f,-1.51585624e-01f,+1.46577328e-01f,-1.33593023e-01f,
+1.62344187e-01f,+8.44488442e-02f,-2.41364837e-02f,+2.22556382e-01f,-7.24071562e-02f,
-1.10530250e-01f,-1.88987836e-01f,-1.71823934e-01f,-1.74603879e-01f,-1.13929644e-01f,
+4.60024178e-02f,+1.35034531e-01f,-2.53880322e-02f,-4.31907326e-02f,+8.78107548e-03f,
-4.82106209e-03f,+1.79023713e-01f,-2.80792266e-02f,-9.05122906e-02f,+1.24138266e-01f,
-1.79682821e-01f,-7.41084516e-02f,+1.81729048e-01f,+1.55068338e-01f,-1.07249752e-01f,
+2.33684629e-02f,-8.51502120e-02f,+1.41816348e-01f,-4.79118228e-02f,-1.73810929e-01f,
-6.68887198e-02f,-1.57397687e-01f,+4.83214855e-02f,-1.34280115e-01f,+1.58833325e-01f,
-9.87504870e-02f,+2.19989359e-01f,-7.05653876e-02f,+1.21929169e-01f,-5.05556166e-02f,
-8.86461139e-03f,+2.14146376e-01f,+1.86179101e-01f,-1.10681124e-01f,-2.11679727e-01f,
-8.46247226e-02f,-8.26997310e-02f,+7.49731064e-02f,+1.71286643e-01f,+2.15070367e-01f,
-1.90813825e-01f,+1.11139089e-01f,-1.65299118e-01f,-6.55771941e-02f,+1.38674617e-01f,
+1.01359308e-01f,+1.88933462e-01f,+6.05243444e-02f,-4.68633324e-02f,+4.65269387e-02f,
+1.28149718e-01f,+1.80905759e-02f,-2.98758447e-02f,-2.88154036e-02f,-1.05389908e-01f,
+1.32588059e-01f,-1.07283071e-01f,+1.74658805e-01f,-1.53132945e-01f,-1.58511072e-01f,
-4.91110235e-02f,+9.58794057e-02f,-1.97834224e-01f,-5.00162095e-02f,-7.13840872e-02f,
+1.79125875e-01f,+1.75259560e-01f,-7.14077055e-02f,+1.10463351e-01f,+2.10372835e-01f,
+8.68982077e-02f,-1.26526266e-01f,+1.65875316e-01f,+5.01684844e-02f,-3.30037028e-02f,
+1.65463001e-01f,+1.96917146e-01f,+1.39412045e-01f,-1.94171265e-01f,+1.78101420e-01f,
+3.97511423e-02f,-2.10789472e-01f,-1.17838688e-01f,-8.54809582e-03f,+1.73069179e-01f,
+1.74769640e-01f,+8.51826370e-02f,-1.57382935e-02f,-5.35794348e-02f,+8.05179775e-02f,
-8.38358104e-02f,-2.23173589e-01f,+5.07667363e-02f,+2.17025906e-01f,-1.18560858e-01f,
-1.06313542e-01f,+4.81367409e-02f,+1.38743013e-01f,-1.43793315e-01f,+5.22486567e-02f,
-2.17371792e-01f,-1.46356195e-01f,-2.11510062e-03f,-8.15125257e-02f,-9.99994799e-02f,
-2.11315066e-01f,-7.84984231e-02f,-2.15318963e-01f,-3.96551788e-02f,-5.19476533e-02f,
-1.58613324e-02f,-8.44228268e-03f,+2.07782984e-01f,-7.37617612e-02f,-2.17607856e-01f,
-1.82001561e-01f,-1.39958590e-01f,-1.29611954e-01f,+1.90995038e-01f,-1.25030577e-02f,
+1.03482097e-01f,-5.15685529e-02f,-7.58968443e-02f,+4.26781774e-02f,-6.30020648e-02f,
+1.55141801e-01f,+1.68555975e-03f,+5.30220568e-03f,+1.43690020e-01f,-4.93913889e-03f,
-7.77896941e-02f,-8.41752440e-02f,-9.69545692e-02f,+1.06199026e-01f,-1.03338994e-01f,
+1.33271724e-01f,-2.00012013e-01f,-9.37138349e-02f,-1.00332730e-01f,-3.92402709e-03f,
+8.48818421e-02f,-1.21230401e-01f,-1.25499636e-01f,-1.47446424e-01f,+5.26676178e-02f,
-1.05127506e-01f,-9.91745293e-02f,+1.87803924e-01f,-1.24251597e-01f,-1.97218806e-02f,
+1.14211023e-01f,-9.64060277e-02f,-1.67391360e-01f,+1.95285320e-01f,+1.23752654e-01f,
-1.94935217e-01f,-1.07057564e-01f,+1.64892048e-01f,-4.21943218e-02f,+4.67381179e-02f,
+8.28114748e-02f,-1.27631903e-01f,-9.74161923e-02f,-1.13059640e-01f,+3.64555120e-02f,
+1.22438729e-01f,+3.54904532e-02f,+1.50074601e-01f,-9.22428966e-02f,+2.06268340e-01f,
+9.85817909e-02f,-1.35046482e-01f,-1.07312500e-01f,-3.10953557e-02f,+2.24603564e-02f,
-1.54115409e-02f,-1.09146170e-01f,+1.75320983e-01f,-1.84219822e-01f,+2.22466975e-01f,
+1.13177150e-02f,-1.40662372e-01f,+5.48455417e-02f,-7.23012239e-02f,+2.07263291e-01f,
+1.31532192e-01f,-1.32763818e-01f,+9.83186960e-02f,-1.74890757e-01f,+2.10005730e-01f,
-1.35473549e-01f,+8.33408535e-02f,-1.67694271e-01f,-7.19757974e-02f,-2.17513710e-01f,
-1.28355861e-01f,-7.04563558e-02f,+8.65516961e-02f,-3.19140106e-02f,+4.74156439e-03f,
-2.01518834e-01f,-6.31976128e-02f,+1.04003161e-01f,-2.68956423e-02f,-8.29199553e-02f,
-2.04989329e-01f,-1.77397698e-01f,+1.42555356e-01f,-1.02046870e-01f,+6.95715845e-02f,
-1.98381841e-01f,+8.74183774e-02f,+1.03945524e-01f,-7.10299462e-02f,-2.05303773e-01f,
-2.17960417e-01f,-8.10754150e-02f,+1.68248892e-01f,-1.19511411e-01f,+1.88235641e-02f,
+1.77153260e-01f,+7.70171881e-02f,+2.16560543e-01f,-3.74041349e-02f,-2.15174973e-01f,
-1.05128586e-02f,+2.21825272e-01f,+1.13582999e-01f,+2.35717446e-02f,+1.49860501e-01f,
-1.96956754e-01f,+1.91885978e-01f,-6.02381527e-02f,+1.18044168e-01f,+7.60768950e-02f,
+2.13708133e-01f,-2.92219073e-02f,-2.13195965e-01f,+6.03963137e-02f,+1.42963111e-01f,
+9.90017354e-02f,-1.91890687e-01f,+2.23084331e-01f,-1.71770304e-01f,-1.40283912e-01f,
-3.39997411e-02f,+8.35993290e-02f,-8.84098709e-02f,+6.91488385e-02f,-1.92405403e-01f,
-1.34705812e-01f,+1.22177958e-01f,-1.29239082e-01f,+2.03239888e-01f,-9.69890505e-02f,
+7.20341504e-03f,+1.87783301e-01f,-6.78754151e-02f,-3.75707895e-02f,-1.42355770e-01f,
+1.32732362e-01f,-6.76789135e-02f,+7.62178898e-02f,-7.50431120e-02f,-1.38710827e-01f,
+2.20642656e-01f,+2.19813436e-02f,-1.10351659e-01f,+2.83766985e-02f,-9.89482179e-02f,
-1.39601231e-01f,-1.63784325e-01f,-1.67849660e-02f,-1.17136039e-01f,+1.66901886e-01f,
+1.19653314e-01f,+1.60830408e-01f,+1.70690626e-01f,+9.24286842e-02f,-1.96408451e-01f,
+3.77912819e-02f,+7.71232247e-02f,+1.56275600e-01f,+6.51084781e-02f,+5.29496968e-02f,
-1.90362915e-01f,+1.66819155e-01f,+4.16636467e-02f,+1.45217836e-01f,+2.18760997e-01f,
-1.20149978e-01f,+4.25246954e-02f,+1.81104064e-01f,+1.97456360e-01f,+1.59200937e-01f,
+1.08561546e-01f,-9.94990915e-02f,-5.64116836e-02f,+1.69099271e-02f,+1.92430258e-01f,
-6.48054928e-02f,+1.68763489e-01f,+1.01807028e-01f,-2.23545596e-01f,-5.92968762e-02f,
+1.40439481e-01f,+8.28489959e-02f,-7.64139742e-02f,+1.91587865e-01f,-1.98208690e-02f,
-7.05608428e-02f,-1.22959100e-01f,-4.27705199e-02f,-1.20003797e-01f,-1.98778644e-01f,
+5.18549383e-02f,-1.00497410e-01f,+1.95640177e-02f,-3.90261412e-05f,-1.19133428e-01f,
+1.28135741e-01f,+1.33136362e-01f,+1.68442398e-01f,-1.27087414e-01f,-1.41615853e-01f,
-1.86914057e-02f,-1.98347241e-01f,+2.19426453e-01f,+7.37969875e-02f,+1.36170089e-01f,
-1.29400492e-02f,+8.42312872e-02f,-1.06197797e-01f,-5.36390245e-02f,-1.94465593e-01f,
+1.51684672e-01f,-1.87716618e-01f,-1.00134887e-01f,-2.12132499e-01f,-1.12631440e-01f,
-7.60946423e-02f,-6.53760433e-02f,-5.22334129e-02f,+7.07950592e-02f,+1.79180771e-01f,
+1.84810668e-01f,-1.72214702e-01f,-1.25065297e-01f,-1.70559630e-01f,+6.30874634e-02f,
+1.20641083e-01f,-9.73109007e-02f,-1.64778054e-01f,+1.05212599e-01f,+1.59865081e-01f,
-1.26405180e-01f,+2.07785666e-02f,-1.87503740e-01f,+8.44089687e-03f,-1.38196945e-01f,
-1.64812490e-01f,+7.28995800e-02f,-3.74394357e-02f,-1.44528821e-01f,+1.30903065e-01f,
-1.26500025e-01f,-1.71938553e-01f,-8.70663524e-02f,+9.35401320e-02f,+2.03540802e-01f,
-8.70956182e-02f,-1.56949237e-01f,+4.83220816e-03f,+2.82680988e-02f,+2.12860584e-01f,
-1.03849828e-01f,+1.81716412e-01f,+2.73812711e-02f,-9.59900916e-02f,-1.25307500e-01f,
-1.50913417e-01f,+1.96377218e-01f,-1.56377047e-01f,-9.43889171e-02f,+8.88037980e-02f,
+1.70787543e-01f,-1.05850048e-01f,-2.09039018e-01f,-2.09584385e-02f,-2.00751558e-01f,
+6.13735318e-02f,+5.31461835e-03f,+8.53162706e-02f,-1.34423524e-01f,-4.31767106e-02f,
+1.30885839e-02f,-1.68149292e-01f,-1.09134018e-02f,-2.05735177e-01f,+1.35544240e-01f,
-1.20653138e-01f,-2.17639744e-01f,+1.21420294e-01f,+7.95944631e-02f,+2.26992369e-03f,
-4.41733152e-02f,-2.16865644e-01f,+1.66888982e-01f,+2.11848289e-01f,-3.19029689e-02f,
-2.40101814e-02f,-1.87872559e-01f,-1.83045834e-01f,-7.00916499e-02f,+1.37576878e-01f,
+9.47295427e-02f,+5.55905104e-02f,-1.68285817e-02f,-4.12768871e-02f,-2.21122667e-01f,
+1.62950844e-01f,-1.36014313e-01f,-1.48009241e-01f,+1.81148738e-01f,-8.67946446e-03f,
+7.21988082e-03f,+1.29164934e-01f,+4.58493829e-03f,-1.63784370e-01f,+1.50724530e-01f,
+1.15261525e-01f,-1.38018623e-01f,-1.02831252e-01f,+3.03049386e-02f,+9.13554430e-03f,
+8.62363875e-02f,+1.05052859e-01f,+2.16664404e-01f,+1.81757599e-01f,-4.61825430e-02f,
-7.35780448e-02f,-9.05203372e-02f,+2.77711451e-02f,+2.10416615e-02f,-1.91013426e-01f,
-1.06468894e-01f,+1.36390001e-01f,-1.07437193e-01f,+4.43095863e-02f,+1.63931519e-01f,
+1.06079280e-01f,-9.02805328e-02f,-8.01983476e-03f,-7.64486790e-02f,-9.73874032e-02f,
+1.43427610e-01f,+8.03044438e-03f,-1.63188025e-01f,-1.35047436e-01f,-9.97447520e-02f,
-6.01523668e-02f,-1.76946580e-01f,+2.58946121e-02f,-1.30066976e-01f,+1.33624107e-01f,
+1.40652508e-02f,+1.60156548e-01f,+2.02175051e-01f,+1.48478240e-01f,+7.41559565e-02f,
-1.01370186e-01f,-6.34390116e-02f,+5.55953085e-02f,-1.95901126e-01f,-9.67451036e-02f,
-3.12360972e-02f,+1.15883887e-01f,+1.19150728e-02f,-1.41885757e-01f,-1.43524632e-01f,
-3.03120911e-03f,+1.91635370e-01f,-2.11613461e-01f,+1.82849020e-02f,-2.10604101e-01f,
-1.11700185e-01f,+1.80239081e-01f,-1.90417409e-01f,+2.18872994e-01f,+2.45419145e-02f,
-1.16874330e-01f,+1.71289593e-01f,+1.16523504e-02f,-1.47457406e-01f,-4.07299995e-02f,
+1.89582467e-01f,-5.74367046e-02f,+1.86636776e-01f,-1.65765449e-01f,+1.85735822e-02f,
+7.20649958e-03f,+1.28233582e-01f,-7.24142939e-02f,-1.68738544e-01f,-1.90606117e-01f,
-2.04008609e-01f,+4.97182608e-02f,+2.69424021e-02f,-2.51405537e-02f,+2.04731584e-01f,
+1.04378581e-01f,+4.18125689e-02f,+2.10551381e-01f,-2.06458777e-01f,+4.99014258e-02f,
-1.41846061e-01f,+1.40624285e-01f,+9.13020372e-02f,+9.42200720e-02f,-2.12498009e-01f,
-2.32801884e-02f,+9.18872952e-02f,-4.63599712e-02f,-1.17609024e-01f,-1.77499846e-01f,
+1.66405231e-01f,-1.46061644e-01f,-9.12860036e-02f,+1.90022469e-01f,-2.73299217e-02f,
+1.41963542e-01f,-3.08005959e-02f,-2.64721364e-02f,+2.06527561e-02f,-2.01816678e-01f,
-5.33976406e-02f,+5.67247272e-02f,-1.14373624e-01f,-1.15115143e-01f,-5.06237000e-02f,
-3.55224311e-02f,-7.38338381e-02f,+1.86123103e-01f,+3.45372856e-02f,-1.53989881e-01f,
-8.32300186e-02f,+2.10597008e-01f,+1.72586083e-01f,+1.26409352e-01f,+1.12953782e-02f,
-1.26815379e-01f,-5.31233996e-02f,-6.93595111e-02f,-1.71223685e-01f,-4.94526476e-02f,
-1.78450182e-01f,+1.03173077e-01f,-4.10584658e-02f,+1.21993572e-01f,+3.09229493e-02f,
-9.04236734e-02f,+1.39929324e-01f,+5.23062348e-02f,-1.76253513e-01f,-4.94019538e-02f,
-2.17280209e-01f,+4.57350016e-02f,+2.16307640e-02f,-1.94444358e-02f,-1.34794086e-01f,
-9.14375186e-02f,+2.69986987e-02f,+1.24266952e-01f,-1.14047833e-01f,-3.87935340e-03f,
-8.49557817e-02f,+1.44343019e-01f,+1.71188772e-01f,-2.26800144e-03f,+1.24541998e-01f,
+1.44685656e-01f,-1.66745752e-01f,+1.27761394e-01f,+1.59195423e-01f,-3.75526696e-02f,
-1.21490560e-01f,-1.64018124e-02f,-3.45531106e-02f,-4.87859845e-02f,-1.34643063e-01f,
+1.94969237e-01f,+2.17977375e-01f,-3.10879350e-02f,-1.72253415e-01f,-1.62980109e-02f,
-2.00651914e-01f,+2.11026907e-01f,-1.88223079e-01f,+4.57713008e-02f,-1.37303382e-01f,
-1.15689784e-02f,+6.75750077e-02f,+4.68691587e-02f,-8.70750844e-03f,-1.07361600e-01f,
+2.05356538e-01f,+2.00752050e-01f,-1.30598128e-01f,-1.82587564e-01f,+3.55116129e-02f,
+2.06473589e-01f,-1.38766482e-01f,+1.70614392e-01f,+2.17568368e-01f,-4.39038277e-02f,
-1.93382293e-01f,+2.04857647e-01f,-3.84950638e-03f,+4.76343930e-02f,-7.98929036e-02f,
+2.08473593e-01f,-2.01721206e-01f,-2.03315556e-01f,+1.36506796e-01f,+1.83739126e-01f,
-2.12499052e-02f,+5.18523455e-02f,-7.23971426e-03f,+9.63835418e-02f,-3.18455100e-02f,
-3.77367437e-02f,+1.43238038e-01f,-1.18300907e-01f,-1.54724211e-01f,-9.60337520e-02f,
+1.33588344e-01f,+2.01507151e-01f,-9.07270312e-02f,+1.67725742e-01f,+1.23987317e-01f,
+8.04634392e-02f,-1.60651594e-01f,-1.27409101e-01f,+4.82904017e-02f,+1.56147063e-01f,
+6.28074110e-02f,-2.11255252e-02f,+9.03718174e-02f,-2.45523453e-03f,+1.51205838e-01f,
-1.77374929e-01f,+1.88256502e-02f,-9.52111483e-02f,+1.11947328e-01f,-7.00702667e-02f,
-2.59611458e-02f,-7.07578361e-02f,-1.14766799e-01f,-1.72580689e-01f,-1.59241110e-01f,
-1.65067703e-01f,-6.28174990e-02f,+1.99672967e-01f,-1.03658870e-01f,+8.10741782e-02f,
+1.23545587e-01f,+2.07648635e-01f,-1.65209398e-01f,+2.07032740e-01f,-1.37144685e-01f,
-2.19733939e-01f,+1.92814618e-02f,+2.12147236e-02f,+1.62524879e-01f,-1.28886372e-01f,
+1.56194299e-01f,-6.60774708e-02f,+7.64627457e-02f,+2.20417976e-02f,+9.18788910e-02f,
-6.37954026e-02f,-1.66442662e-01f,+9.11880732e-02f,+2.11397171e-01f,-2.15166166e-01f,
+1.41309351e-01f,+2.12219566e-01f,+2.11824268e-01f,+4.76102531e-03f,-1.03513435e-01f,
-8.14443976e-02f,+3.77033651e-02f,-1.81744546e-01f,+7.05714524e-02f,+2.14949608e-01f,
+1.62739068e-01f,+1.66420877e-01f,-5.42498827e-02f,-9.80245918e-02f,-2.16053277e-01f,
+4.18835580e-02f,+2.05318749e-01f,-8.13049227e-02f,+1.86469972e-01f,+2.21108437e-01f,
-2.52892524e-02f,-3.31876874e-02f,-7.62563348e-02f,-7.85551965e-02f,-9.76884365e-03f,
+1.99193299e-01f,+3.12060714e-02f,-8.91680717e-02f,+1.30473673e-02f,+4.03188169e-02f,
+1.32738948e-02f,+7.06094801e-02f,-2.78700292e-02f,-4.13381308e-02f,-1.35709405e-01f,
+8.35445523e-02f,+8.02112222e-02f,+1.11483425e-01f,+5.94844818e-02f,-1.79025099e-01f,
-4.41810042e-02f,-1.81829795e-01f,+7.66770542e-03f,-9.43050086e-02f,-1.15237810e-01f,
-6.78008944e-02f,+1.15878403e-01f,-1.70448050e-01f,-1.14462599e-01f,+1.60885543e-01f,
+7.11264312e-02f,-4.61495966e-02f,+5.15969098e-02f,+7.33545125e-02f,+1.45722896e-01f,
+9.74041522e-02f,+2.15631574e-02f,-1.21749178e-01f,-1.99956462e-01f,-2.50168294e-02f,
-2.35581547e-02f,+6.04000092e-02f,+1.15629643e-01f,+1.16044044e-01f,+2.02757806e-01f,
-8.09004456e-02f,-1.10931478e-01f,+1.96363389e-01f,+9.99839008e-02f,+5.22776544e-02f,
+2.55076140e-02f,+1.38490766e-01f,+1.58293992e-02f,-1.45814270e-02f,+2.16456175e-01f,
+1.05744958e-01f,+2.18418956e-01f,+1.15440339e-01f,-1.53976828e-02f,-5.25661260e-02f,
+7.60802329e-02f,-1.68958098e-01f,+1.39561743e-02f,-1.91168249e-01f,-1.22386634e-01f,
-1.14262305e-01f,-1.86793253e-01f,+1.82061642e-02f,-1.78642422e-01f,-1.21811345e-01f,
+3.40645015e-02f,-3.84539366e-03f,-1.13159016e-01f,+3.12071443e-02f,+7.27623105e-02f,
-1.24618910e-01f,+4.22631502e-02f,-2.19944149e-01f,+3.11848521e-03f,-1.37160927e-01f,
+4.40212190e-02f,-2.00085968e-01f,-8.52981508e-02f,-1.73401386e-01f,+1.26966834e-01f,
-9.16051269e-02f,-1.43218577e-01f,+2.30249763e-02f,+2.15657800e-01f,+1.67223901e-01f,
-1.61966383e-01f,+9.46083069e-02f,+6.07065558e-02f,+1.02964163e-01f,+9.12443101e-02f,
+2.99015939e-02f,+1.52141303e-02f,-5.94065338e-02f,+5.64414263e-02f,+1.76864415e-01f,
+6.46794736e-02f,-8.04920197e-02f,-1.90047681e-01f,+3.72368097e-03f,+1.90046936e-01f,
+1.88329965e-02f,+6.47471845e-02f,-2.75458843e-02f,-2.80672759e-02f,+1.34083509e-01f,
-4.72662747e-02f,-1.53652728e-02f,-1.40096545e-02f,+7.93554187e-02f,-1.94211826e-01f,
-7.07418472e-02f,+1.69752061e-01f,+5.18130362e-02f,+9.86494124e-02f,+1.50997907e-01f,
+1.23032659e-01f,-7.72372186e-02f,+5.31137884e-02f,-1.46022558e-01f,-1.32287845e-01f,
+9.98975933e-02f,-3.01013440e-02f,+2.02638209e-01f,+1.87722325e-01f,-4.77228314e-02f,
-4.67857718e-02f,+2.15691984e-01f,-8.83003622e-02f,-8.50019604e-02f,+3.70458364e-02f,
-1.89492166e-01f,+1.74741328e-01f,+1.19423777e-01f,+1.63963914e-01f,-6.49645776e-02f,
+1.80541724e-01f,-8.92780125e-02f,-1.36704743e-02f,-6.78293556e-02f,+1.62447155e-01f,
+1.12722009e-01f,+7.14739263e-02f,-1.83373541e-02f,-4.62426841e-02f,-2.08982185e-01f,
+1.69684738e-01f,-1.14468254e-01f,-8.63529295e-02f,+1.32753640e-01f,+4.09936905e-03f,
-1.60308957e-01f,+1.89029753e-01f,+1.43677860e-01f,+2.06502229e-01f,+1.21862054e-01f,
-1.51139244e-01f,-1.12312153e-01f,+2.04547584e-01f,-1.96635768e-01f,+1.46214694e-01f,
+8.03112984e-03f,+5.46847582e-02f,+1.98604912e-02f,+1.22049600e-01f,-2.07867771e-02f,
+7.60910511e-02f,+2.22010195e-01f,+1.98826313e-01f,-1.38379440e-01f,-7.04607815e-02f,
-2.72847712e-02f,+1.92585707e-01f,+1.69269204e-01f,-5.74173629e-02f,+1.23628467e-01f,
-2.18165338e-01f,-2.18555167e-01f,-9.41524804e-02f,+5.05788028e-02f,+1.91979259e-02f,
-2.18494654e-01f,-1.32453144e-02f,-2.12426484e-02f,-1.34837538e-01f,-3.65470350e-03f,
+8.00272524e-02f,+6.75049424e-02f,+1.93806648e-01f,-1.34798408e-01f,+1.09702677e-01f,
-1.85820729e-01f,-3.74057889e-02f,-2.13481084e-01f,-6.84949607e-02f,-7.81575441e-02f,
+1.38676286e-01f,+1.56043142e-01f,+1.44158095e-01f,-8.96388292e-03f,+3.58543992e-02f,
-1.72875300e-01f,-3.70587409e-03f,+1.56180203e-01f,+1.26618207e-01f,-1.49610311e-01f,
+2.16425985e-01f,-5.54742962e-02f,-1.35604650e-01f,+4.50800657e-02f,-2.01993898e-01f,
-1.54425174e-01f,+2.06340790e-01f,+4.33846712e-02f,+2.53804624e-02f,+9.45514739e-02f,
+1.00701809e-01f,-1.94032162e-01f,+3.53415012e-02f,-2.11816132e-02f,+9.70389545e-02f,
-1.15070626e-01f,-3.29173505e-02f,+1.51997566e-01f,-1.64451465e-01f,+4.19035554e-02f,
+1.18120402e-01f,+2.12378174e-01f,-5.60663790e-02f,+1.94743574e-01f,-4.09851968e-03f,
+8.17715228e-02f,-1.20373070e-03f,-7.00907409e-02f,+1.07367307e-01f,-1.78090170e-01f,
+4.58817482e-02f,+2.68477798e-02f,-1.74919486e-01f,+1.14621252e-01f,+1.54955953e-01f,
-1.97138175e-01f,-1.90445334e-01f,+1.25090778e-01f,-8.22125077e-02f,+8.65335464e-02f,
-9.56499577e-02f,-1.80689991e-03f,+1.50317430e-01f,+2.03841150e-01f,-7.44583905e-02f,
-1.62747651e-02f,+1.76919341e-01f,+1.39350235e-01f,+4.81129289e-02f,-4.93824929e-02f,
+2.09471166e-01f,+5.88192046e-03f,+4.75468040e-02f,+1.44066006e-01f,+1.87339336e-01f,
-2.23329306e-01f,+1.89999372e-01f,-8.60597789e-02f,-1.11841887e-01f,-1.85400471e-01f,
-5.27511239e-02f,+9.35434401e-02f,+4.77360487e-02f,-4.70764339e-02f,+1.20402157e-01f,
-3.66016775e-02f,-5.99759817e-03f,+2.11590260e-01f,+1.52142048e-01f,+1.20866865e-01f,
+1.99602425e-01f,+6.76333904e-02f,-9.69906151e-03f,-2.05943286e-02f,-7.18174130e-02f,
+1.23144150e-01f,-1.44812435e-01f,+2.05509007e-01f,-1.28158882e-01f,-1.39584824e-01f,
+1.12618178e-01f,-1.31464273e-01f,-9.07107592e-02f,-5.88686764e-03f,-6.72518313e-02f,
-1.46339446e-01f,-6.03657216e-02f,-1.19555660e-01f,-1.80601805e-01f,+1.27603412e-01f,
+1.35640949e-01f,-1.90091982e-01f,-3.90522182e-02f,+1.31960630e-01f,-1.13255300e-01f,
+8.85774195e-03f,+1.50012285e-01f,+1.43276989e-01f,+7.99940526e-02f,+1.96045756e-01f,
-7.82169849e-02f,+1.49915934e-01f,-7.58618265e-02f,-1.61453307e-01f,+5.63311875e-02f,
+1.93788320e-01f,-9.98560116e-02f,-1.74309120e-01f,-1.97259203e-01f,+8.84382427e-02f,
+1.65540427e-01f,-2.32855678e-02f,+1.44230872e-02f,+2.07037002e-01f,-3.10409069e-03f,
+1.04469806e-01f,+7.72678852e-02f,+1.14955723e-01f,+1.36598557e-01f,-2.20191941e-01f,
-3.62265110e-03f,+6.56737983e-02f,-1.19548142e-01f,-3.25102061e-02f,-1.80865973e-01f,
+1.85828358e-01f,+2.15729952e-01f,+1.82938695e-01f,+1.32092088e-01f,-1.87771320e-02f,
+1.19638979e-01f,+8.83714259e-02f,+1.77089810e-01f,+1.92824006e-01f,-5.53905964e-03f,
-3.23735029e-02f,-1.65339321e-01f,-1.38124824e-01f,+1.78505272e-01f,+1.77016824e-01f,
-2.00764671e-01f,+2.33525336e-02f,-2.20673621e-01f,+1.02456033e-01f,+1.33256644e-01f,
+1.42935485e-01f,+1.04830146e-01f,-1.89185783e-01f,-1.74927175e-01f,-1.43101707e-01f,
+5.44650853e-02f,-2.08385468e-01f,+1.16579562e-01f,+1.02910042e-01f,-1.41256049e-01f,
-1.67114347e-01f,-9.97555256e-02f,-1.31753236e-01f,-1.39226034e-01f,-5.09464592e-02f,
-1.58173859e-01f,+9.38572288e-02f,-7.79364556e-02f,-3.66149545e-02f,-1.83113173e-01f,
-3.27513814e-02f,-2.09550127e-01f,+9.82485116e-02f,-4.49113250e-02f,-1.40819162e-01f,
-1.77108943e-02f,-2.21745461e-01f,+9.20862257e-02f,-2.06171572e-01f,+1.58521086e-02f,
+1.28800720e-02f,-8.56916457e-02f,-1.34118378e-01f,-1.90012708e-01f,-6.06498271e-02f,
-1.11485392e-01f,-1.94397405e-01f,-1.27156198e-01f,+5.63134253e-02f,-1.30640984e-01f,
+1.22370362e-01f,-2.00201869e-01f,+9.45855975e-02f,+2.05440730e-01f,-1.62845224e-01f,
-1.90787554e-01f,-4.87891883e-02f,+8.18909407e-02f,+2.91875303e-02f,+1.36643499e-01f,
+1.10457063e-01f,-1.32320732e-01f,-4.20620590e-02f,+1.34778470e-01f,-7.36030936e-03f,
+1.45561844e-01f,+2.13451177e-01f,-1.10074386e-01f,-2.17464566e-03f,+1.31037235e-02f,
+9.47209597e-02f,-1.06535956e-01f,-2.17806250e-02f,-1.63503155e-01f,-9.58600640e-02f,
-1.44845545e-01f,+2.00720221e-01f,+6.59059584e-02f,+1.78935975e-01f,-9.86154974e-02f,
-1.25962436e-01f,+1.25135034e-02f,-4.42314893e-02f,-1.00181058e-01f,+7.21479356e-02f,
-1.05352163e-01f,-7.85802603e-02f,+1.31742030e-01f,-1.56385452e-02f,-1.46504939e-01f,
-1.05058305e-01f,+4.76127565e-02f,-8.41181427e-02f,+1.01086080e-01f,+1.28044695e-01f,
+2.18307853e-01f,-1.23289846e-01f,+1.94785893e-01f,-1.05020404e-02f,-1.06633358e-01f,
+1.20635986e-01f,-1.57080919e-01f,+1.83140457e-01f,+1.14902169e-01f,-1.73716456e-01f,
+1.14493430e-01f,+2.01143622e-01f,-2.03191698e-01f,-1.45327866e-01f,+2.13281602e-01f,
+1.95398390e-01f,+1.16228253e-01f,-1.57147929e-01f,-2.09313840e-01f,+2.17694372e-01f,
-2.12616101e-01f,+2.14908630e-01f,+4.27652001e-02f,-1.36124969e-01f,+6.89766407e-02f,
+1.46369457e-01f,+1.89744294e-01f,+1.73837692e-02f,-4.70052510e-02f,-3.15971822e-02f,
-1.12387694e-01f,+8.73357058e-03f,+1.20275527e-01f,-1.59836888e-01f,-1.41124949e-01f,
-1.71968877e-01f,+1.39295876e-01f,+1.01181775e-01f,-1.28537402e-01f,-1.67771146e-01f,
+1.96016401e-01f,-7.91574717e-02f,+2.05396056e-01f,-1.15559921e-01f,+1.59545600e-01f,
+5.02130985e-02f,-1.33790076e-01f,+7.43304491e-02f,+1.29241556e-01f,-1.03629492e-01f,
-1.53067216e-01f,-8.01701844e-02f,+1.24258906e-01f,-2.01209038e-01f,+2.14401513e-01f,
-1.16617955e-01f,-1.37743801e-01f,-1.62210017e-01f,+1.69914871e-01f,+1.97309911e-01f,
+1.02571249e-02f,-2.10349053e-01f,+9.19348598e-02f,-2.95997411e-02f,+1.88741267e-01f,
-1.26625597e-02f,+1.31926596e-01f,-5.10413498e-02f,+1.49071753e-01f,+1.63178116e-01f,
-1.38401091e-01f,+2.06014156e-01f,+8.94836187e-02f,-3.81430984e-02f,+2.60792822e-02f,
-1.63701952e-01f,+1.96830720e-01f,-9.32720304e-03f,-1.36826336e-02f,-1.49745882e-01f,
+9.94611382e-02f,-6.13137186e-02f,+1.75118178e-01f,+6.34051561e-02f,-2.15957955e-01f,
+9.97792482e-02f,+1.45370454e-01f,+8.56046379e-03f,+1.48579031e-01f,+1.51861668e-01f,
-3.82587761e-02f,+1.60333544e-01f,+2.88666487e-02f,-1.84166357e-01f,+2.03144997e-01f,
-1.73064664e-01f,-2.18411386e-01f,-1.80528924e-01f,+3.72197926e-02f,+1.33826166e-01f,
-4.64174896e-02f,-2.11473092e-01f,-1.03922389e-01f,+1.18143469e-01f,-5.00776321e-02f,
-2.02492088e-01f,-1.31061465e-01f,-7.64708072e-02f,+2.07070321e-01f,-1.24081582e-01f,
+6.12588525e-02f,+9.40965712e-02f,+1.97747976e-01f,+2.98850536e-02f,-2.42194831e-02f,
+1.31167859e-01f,+1.41366422e-02f,+6.64740801e-05f,+1.28441066e-01f,-3.84454727e-02f,
-5.82370311e-02f,+1.01951808e-02f,+1.34613961e-01f,-1.97274074e-01f,-1.86138630e-01f,
-1.65416032e-01f,+1.26527488e-01f,-6.81119561e-02f,-2.23168626e-01f,-3.90480161e-02f,
-1.42536014e-01f,-6.26362860e-03f,+5.44276237e-02f,+1.83043540e-01f,+8.53213966e-02f,
-6.29673600e-02f,+1.84097111e-01f,+1.37173951e-01f,-1.38255328e-01f,-3.09642106e-02f,
-4.30473238e-02f,-3.43581587e-02f,+1.06286675e-01f,+6.53412342e-02f,-7.04186708e-02f,
-1.74578995e-01f,-4.92298603e-02f,-1.57007039e-01f,-4.28704321e-02f,+8.90594721e-02f,
+1.68021709e-01f,+1.49629831e-01f,+3.35039496e-02f,+1.66225940e-01f,+7.95330405e-02f,
+6.98224902e-02f,+8.00730288e-03f,+9.28755105e-02f,-1.05134331e-01f,+1.62942827e-01f,
+1.41554624e-02f,+1.36559516e-01f,-1.34704426e-01f,-1.05105639e-02f,+7.14775622e-02f,
+1.47461087e-01f,-7.40506500e-02f,+6.38522208e-02f,-1.08991191e-01f,+2.11031884e-02f,
+1.76289886e-01f,+2.19120055e-01f,-5.15559763e-02f,-4.52074111e-02f,-2.02761322e-01f,
+1.80831939e-01f,+7.48191476e-02f,-1.25340641e-01f,+5.59451580e-02f,-7.84318894e-02f,
+3.59684527e-02f,-1.13058835e-02f,+2.03126401e-01f,+9.34570730e-02f,+1.25279129e-01f,
-1.16537131e-01f,-5.99245131e-02f,+2.14373678e-01f,-1.31933063e-01f,-1.71136096e-01f,
+1.31308407e-01f,+6.61920905e-02f,-2.33313590e-02f,+1.05325073e-01f,+2.95459926e-02f,
-1.79451600e-01f,-4.26550508e-02f,-2.79080421e-02f,+1.58063471e-01f,+1.37170494e-01f,
-9.57697034e-02f,-8.72258693e-02f,-1.83763534e-01f,-1.22218542e-01f,-4.26269472e-02f,
-2.18673989e-01f,+1.51288986e-01f,+1.91959977e-01f,+1.11041039e-01f,+2.60442048e-02f,
+1.00850016e-01f,-1.62372440e-02f,+1.57660514e-01f,+1.97484493e-01f,+7.90232122e-02f,
+2.79034674e-03f,-8.98839980e-02f,+1.95990384e-01f,+7.26059377e-02f,+1.77100688e-01f,
-2.13793606e-01f,+2.37389356e-02f,-1.35541201e-01f,-7.23515004e-02f,+3.62914205e-02f,
-1.51424304e-01f,-9.34017897e-02f,+1.53251797e-01f,+4.26917672e-02f,-6.89689070e-02f,
-5.02054691e-02f,-5.70350587e-02f,-1.83244586e-01f,-6.83872104e-02f,-8.96569490e-02f,
-1.92483187e-01f,-8.23945105e-02f,-9.88193601e-02f,-1.83447182e-01f,-1.68629259e-01f,
-3.01155895e-02f,+1.81286216e-01f,+6.71602786e-02f,-2.22857594e-01f,-1.12957016e-01f,
-1.56333596e-01f,+9.68812108e-02f,+1.94819748e-01f,+1.24351919e-01f,-1.77723855e-01f,
-2.03381553e-01f,-7.67208934e-02f,-1.42255068e-01f,+3.54267955e-02f,+9.83155072e-02f,
-4.61469889e-02f,-3.40751708e-02f,-1.70533299e-01f,+1.10834837e-04f,-1.60126626e-01f,
-3.66129279e-02f,-2.13256210e-01f,-2.38401741e-02f,-2.06366867e-01f,+6.67833090e-02f,
+1.52975559e-01f,+1.03180915e-01f,-1.29099578e-01f,+3.91373038e-02f,+5.51434457e-02f,
-4.14108038e-02f,-1.16193593e-02f,-1.16544597e-01f,-4.22042906e-02f,-1.70491397e-01f,
+1.88315958e-01f,+5.59893250e-03f,-1.35645926e-01f,+1.15968764e-01f,+1.12559199e-01f,
-6.33680969e-02f,+8.73664021e-02f,+2.07340717e-01f,+1.36902004e-01f,-2.59821415e-02f,
+1.48984462e-01f,-1.34095341e-01f,+2.21122801e-03f,-1.21339262e-01f,-1.16820484e-02f,
-7.93201774e-02f,-2.08460480e-01f,+9.48257744e-02f,+1.65944576e-01f,+1.16008341e-01f,
-1.06164694e-01f,+3.15987170e-02f,+7.31502771e-02f,+1.86999887e-01f,-2.19661653e-01f,
+2.02572107e-01f,+4.07058001e-03f,-1.48808867e-01f,-1.11333877e-01f,-1.91392958e-01f,
-1.20163098e-01f,-1.26444966e-01f,-1.39655828e-01f,-1.36486053e-01f,+2.21038371e-01f,
-1.88508719e-01f,+1.92762494e-01f,-4.20270264e-02f,-6.15033507e-03f,-1.55207515e-03f,
+1.04227006e-01f,+1.34300649e-01f,-8.61212462e-02f,+9.49572325e-02f,-6.25049323e-02f,
+3.62675190e-02f,-9.78801101e-02f,+4.93934751e-02f,+2.02716202e-01f,+4.91178036e-02f,
+1.12977386e-01f,+1.22146845e-01f,+1.05731219e-01f,-1.88972116e-01f,+1.42207921e-01f,
+2.67293155e-02f,+1.39190733e-01f,-1.55679017e-01f,-1.29765540e-01f,+1.18221313e-01f,
+1.53844506e-01f,+4.53504920e-02f,-2.13591114e-01f,+4.22988236e-02f,-2.95787305e-02f,
+1.65701419e-01f,+1.76963836e-01f,+3.81027758e-02f,+1.64872885e-01f,+2.08851725e-01f,
+1.06899321e-01f,+2.12957889e-01f,-1.98343396e-01f,-1.99070960e-01f,-1.81081563e-01f,
-1.57089606e-01f,-1.84088945e-01f,-7.47978240e-02f,-1.03217870e-01f,+2.20351368e-02f,
+6.06386364e-02f,+2.23565221e-01f,+1.00578874e-01f,+5.85859716e-02f,-1.43942982e-02f,
+5.76184392e-02f,+2.15322167e-01f,+8.68462324e-02f,-3.29732895e-04f,+1.05501175e-01f,
-1.09683976e-01f,+1.76907122e-01f,-1.57834485e-01f,+1.07295483e-01f,+1.40880466e-01f,
-8.11029226e-02f,+5.22709787e-02f,-1.60649955e-01f,+6.97027445e-02f,-1.74927443e-01f,
+1.52707726e-01f,+2.15583235e-01f,-1.34125829e-01f,+1.57114089e-01f,-3.65274698e-02f,
-2.78049409e-02f,-6.03957474e-02f,-8.52979422e-02f,+2.82682776e-02f,-6.77338690e-02f,
+2.15785593e-01f,-1.53491199e-02f,-1.24741159e-01f,-9.75835323e-02f,-1.88504666e-01f,
+3.31175923e-02f,+1.62949026e-01f,+2.05299437e-01f,+1.53439879e-01f,+1.22401386e-01f,
-6.68750703e-03f,-7.96213746e-04f,+7.01194406e-02f,+1.65896595e-01f,-2.54715681e-02f,
-3.11117172e-02f,-1.90506756e-01f,+8.41819048e-02f,-3.39854509e-02f,+1.05564445e-01f,
-1.13848820e-01f,+2.06049979e-01f,-5.79450428e-02f,+2.85346210e-02f,-2.07126245e-01f,
-2.04488575e-01f,+7.33792484e-02f,+1.19235516e-01f,-1.03902876e-01f,+7.92497396e-02f,
+1.78747177e-01f,+1.44462347e-01f,-1.71430111e-01f,+1.12316102e-01f,+1.02539629e-01f,
-1.44894332e-01f,-5.09845763e-02f,+2.06741214e-01f,-2.17877403e-01f,-1.90960228e-01f,
+2.06757814e-01f,+2.07663357e-01f,-1.43382877e-01f,-6.06739223e-02f,-1.16499335e-01f,
+1.95499480e-01f,+1.40871227e-01f,-1.99256748e-01f,-1.35794818e-01f,+2.04983532e-01f,
+1.00239694e-01f,+1.86878383e-01f,-1.91268846e-01f,-1.04697794e-02f,+3.20350826e-02f,
-8.92267674e-02f,-1.27553582e-01f,+2.16843575e-01f,-7.44411051e-02f,+1.88071996e-01f,
-2.18199521e-01f,+2.15736598e-01f,+3.16798091e-02f,+1.43582314e-01f,-2.10125357e-01f,
+3.32027674e-02f,-7.89366513e-02f,+2.10221320e-01f,+1.90453291e-01f,-1.84091240e-01f,
+1.09780729e-01f,-2.22783074e-01f,-1.45993888e-01f,-1.26211673e-01f,+1.68782175e-02f,
+1.36969119e-01f,-6.00928217e-02f,-6.91479146e-02f,-1.08420961e-01f,+1.19708329e-01f,
-5.22634238e-02f,-1.50175303e-01f,-7.68000036e-02f,-1.56996250e-01f,-1.00505568e-01f,
-1.95497721e-01f,+1.20556653e-02f,+1.22242868e-02f,-1.46401465e-01f,-1.25361294e-01f,
-2.19635963e-01f,-6.21532798e-02f,-6.36471808e-02f,+9.17874575e-02f,+2.88832188e-02f,
+1.67150766e-01f,+1.46442711e-01f,+1.04062825e-01f,-5.61257154e-02f,+1.72843099e-01f,
+1.54867232e-01f,-1.80666208e-01f,+4.12260294e-02f,+1.99982017e-01f,-1.44904882e-01f,
+4.03319299e-02f,+1.09681696e-01f,-1.67358145e-01f,+7.51022995e-02f,-1.98416501e-01f,
-9.80396271e-02f,-3.19210440e-02f,+1.42047793e-01f,+2.09759861e-01f,+1.87915564e-01f,
+2.93200016e-02f,-2.18583688e-01f,-1.21837035e-01f,-4.94257212e-02f,+1.90517932e-01f,
+1.60004705e-01f,+8.93167555e-02f,+1.89286441e-01f,-8.65142047e-02f,-2.17585996e-01f,
-1.86392933e-01f,-2.04166040e-01f,+6.16333783e-02f,+5.10426760e-02f,-1.54706240e-01f,
-9.14240330e-02f,+1.34728163e-01f,+1.43100917e-01f,+2.77681649e-03f,-1.16000973e-01f,
+7.46086240e-02f,-1.77759632e-01f,-7.49247521e-02f,-1.32331669e-01f,+2.21186489e-01f,
+1.10497206e-01f,+2.45409012e-02f,-1.33890510e-02f,-1.63200170e-01f,+5.86506128e-02f,
-4.33810055e-02f,+1.20618701e-01f,-5.90548366e-02f,-1.31743580e-01f,-1.29989669e-01f,
-5.87387532e-02f,-9.51240957e-02f,-1.70055091e-01f,-3.68795991e-02f,+3.03625762e-02f,
-1.44452959e-01f,+6.80684149e-02f,+1.14110947e-01f,-1.54177815e-01f,-1.39556348e-01f,
-7.91864097e-02f,+7.34279156e-02f,+1.42802358e-01f,-2.16739401e-01f,-1.46452576e-01f,
+1.18564367e-01f,+1.89402223e-01f,-2.00338021e-01f,-6.98657185e-02f,+1.61500275e-02f,
+8.11633170e-02f,-1.87199861e-01f,+1.21345818e-01f,-1.27144784e-01f,-1.12250261e-01f,
-2.00657576e-01f,+6.58254325e-03f,-7.38322288e-02f,-2.22338825e-01f,+1.78319514e-01f,
+6.79304898e-02f,+6.83181286e-02f,-1.33642986e-01f,+1.56747192e-01f,-1.58361688e-01f,
+1.67414069e-01f,+1.14868134e-02f,+1.30552649e-01f,-4.31994200e-02f,-8.87772441e-03f,
+5.38856983e-02f,-1.08964637e-01f,-1.22221045e-01f,+1.93470567e-01f,-4.23807651e-02f,
+1.10914856e-01f,-1.32766858e-01f,-2.02552333e-01f,-1.97269380e-01f,-1.78138524e-01f,
+4.17453349e-02f,-1.97077394e-02f,-1.26617953e-01f,-6.42419308e-02f,+2.17694372e-01f,
-2.17667937e-01f,-1.00216188e-01f,+9.46015716e-02f,-2.38992274e-03f,+6.84437156e-02f,
+1.95520580e-01f,+4.77100909e-02f,-8.13680440e-02f,+6.26866221e-02f,-1.35366678e-01f,
-1.43792629e-01f,-6.23907894e-02f,-1.81607217e-01f,+1.99490339e-02f,+2.04992801e-01f,
-1.60576314e-01f,+1.65084481e-01f,-2.09462047e-01f,-2.04728588e-01f,-1.43115938e-01f,
+1.68559194e-01f,+1.92128927e-01f,+9.48801935e-02f,+1.08633250e-01f,+6.53385520e-02f,
-2.14746550e-01f,+7.67555535e-02f,+5.06104231e-02f,+5.92150390e-02f,-3.57702374e-03f,
+1.65078849e-01f,+1.26837879e-01f,-2.02072680e-01f,+8.26621950e-02f,-1.14253618e-01f,
-1.90366387e-01f,+4.85783219e-02f,+1.32899493e-01f,+8.89864564e-02f,+3.07929516e-02f,
-2.02850565e-01f,-2.16167957e-01f,-2.02031314e-01f,-1.43166006e-01f,-4.80836481e-02f,
+8.01649690e-02f,-3.07919532e-02f,+9.86367762e-02f,-8.22588354e-02f,+5.03528714e-02f,
-1.26541495e-01f,-2.08724633e-01f,-1.33866191e-01f,-1.12292908e-01f,+3.60914469e-02f,
-2.06653833e-01f,-1.74922794e-01f,+2.86690891e-03f,+1.36144221e-01f,+8.24419260e-02f,
+7.43905306e-02f,+1.77553892e-01f,+2.22035855e-01f,+3.48550081e-02f,-2.11921439e-01f,
-1.39965415e-01f,-1.94989711e-01f,+3.40583920e-03f,+2.10583031e-01f,-1.14475787e-02f,
+1.60192728e-01f,+2.10196525e-01f,-2.20841870e-01f,+1.20820969e-01f,-2.10997760e-01f,
-9.91918147e-03f,+1.75077230e-01f,+2.65227258e-03f,+2.02025384e-01f,+1.48963213e-01f,
-1.19098507e-01f,+1.46233320e-01f,+1.92919225e-01f,+1.53087646e-01f,+2.11618304e-01f,
+1.97811455e-01f,+1.49154127e-01f,+7.47099519e-02f,-7.72211254e-02f,-5.76515645e-02f,
+1.23113483e-01f,-3.15073431e-02f,-6.55219555e-02f,+5.71842790e-02f,+1.55176759e-01f,
-1.22331828e-02f,+1.19905978e-01f,+6.61576092e-02f,+1.74051046e-01f,+9.80647206e-02f,
+8.17071795e-02f,+1.06924921e-01f,-2.21489504e-01f,+3.97638977e-03f,-1.15148194e-01f,
-2.00400561e-01f,-1.56552553e-01f,-6.01317436e-02f,+9.08581316e-02f,-1.98079199e-02f,
+4.49424684e-02f,-1.65590689e-01f,+1.59809649e-01f,+3.00277770e-02f,-8.23928714e-02f,
+6.94523752e-02f,-2.17395306e-01f,+9.75117683e-02f,+4.59632277e-02f,-9.39573050e-02f,
-9.63788927e-02f,+3.24521959e-02f,+1.29741132e-02f,-6.09595180e-02f,-1.82481006e-01f,
+1.70837611e-01f,-2.22049803e-02f,-1.87774509e-01f,+1.29736453e-01f,-1.20998621e-02f,
-8.52389634e-03f,+1.97220325e-01f,-4.28161621e-02f,+1.94000125e-01f,-1.02589272e-01f,
+2.18298793e-01f,+2.20653266e-01f,+4.49730456e-02f,+5.35738468e-03f,-5.98143786e-02f,
+2.21179873e-01f,-1.57042533e-01f,+2.23447710e-01f,+2.17376918e-01f,+5.27799129e-02f,
-2.21335977e-01f,+1.83212698e-01f,-1.22841381e-01f,+4.68077958e-02f,-1.10935867e-02f,
+2.00290561e-01f,+1.54316276e-01f,-1.46829501e-01f,-1.57698750e-01f,+2.45791376e-02f,
-1.56393677e-01f,-1.61752015e-01f,-2.84318328e-02f,-1.03671819e-01f,+1.38293773e-01f,
+1.45523936e-01f,+2.25051939e-02f,-1.65121272e-01f,-1.82074010e-01f,-1.30291253e-01f,
-4.99688685e-02f,-2.85436809e-02f,-4.62294072e-02f,-3.76963317e-02f,+1.08446300e-01f,
-1.34284273e-01f,+1.93686604e-01f,-1.18802734e-01f,-2.18908787e-01f,-2.31861919e-02f,
-1.01613253e-02f,+1.23871416e-01f,+1.12058222e-01f,+1.79627746e-01f,-1.89164460e-01f,
+2.01426655e-01f,+1.94946587e-01f,+1.50231808e-01f,-1.61269218e-01f,-2.05093026e-01f,
+1.20002508e-01f,+3.66150737e-02f,-1.30993426e-01f,-1.78224832e-01f,-9.93289202e-02f,
+1.67511404e-01f,+1.23660833e-01f,+1.76622391e-01f,+8.40669572e-02f,-1.72306612e-01f,
+1.73212856e-01f,+1.37141049e-01f,-1.41182795e-01f,+1.66966945e-01f,-1.39200538e-01f,
-1.51615635e-01f,-3.43296826e-02f,+8.12765062e-02f,+7.93762505e-02f,+2.10548937e-02f,
-9.50558037e-02f,-7.13263005e-02f,-1.43398970e-01f,+4.40639853e-02f,+1.98173404e-01f,
-2.12345958e-01f,-6.53742254e-02f,-1.06404543e-01f,+1.38845652e-01f,+1.01811767e-01f,
+7.24825263e-02f,-1.63418919e-01f,+1.95261538e-01f,-4.37876582e-02f,-1.81827545e-02f,
+1.64979577e-01f,+1.97175771e-01f,-1.24346063e-01f,-8.25458765e-02f,+1.70323610e-01f,
+5.28158247e-02f,+1.86069280e-01f,-9.08585489e-02f,+2.18748420e-01f,+1.89840019e-01f,
-1.42013714e-01f,+1.82567537e-02f,-1.18734598e-01f,-1.57451272e-01f,-1.10217154e-01f,
+8.90177488e-03f,-2.17306703e-01f,-9.65754092e-02f,+1.40248984e-02f,-5.19850254e-02f,
-1.15824401e-01f,+9.16368365e-02f,+6.23933971e-02f,-1.04456522e-01f,+1.68097138e-01f,
-1.72619522e-02f,+1.02937967e-02f,+2.42394209e-03f,+1.30473584e-01f,+5.51584661e-02f,
-5.33295572e-02f,+7.03374147e-02f,+1.33419812e-01f,+9.92767811e-02f,+4.87919152e-02f,
+1.04372919e-01f,-5.46579808e-02f,+3.11693549e-02f,+1.01336867e-01f,+1.50116980e-02f,
+7.95514882e-02f,-2.07792073e-02f,-1.14797294e-01f,+9.36400890e-02f,-2.94393152e-02f,
+1.70540810e-01f,-1.24539211e-01f,-8.40834379e-02f,+2.18775928e-01f,+2.42529660e-02f,
+8.72317851e-02f,+6.74256682e-02f,-5.26758432e-02f,+2.11253703e-01f,+1.18190169e-01f,
-2.20368788e-01f,-2.18467310e-01f,-8.17607939e-02f,-3.73038054e-02f,+5.68799078e-02f,
-3.47305387e-02f,+8.58321190e-02f,+1.03618503e-01f,+1.29830241e-02f,-9.24640447e-02f,
+1.22198880e-01f,-3.33405286e-02f,-1.98052317e-01f,+8.79985094e-02f,+2.19166279e-04f,
-1.20090000e-01f,-7.49522150e-02f,+1.85052335e-01f,-1.94430411e-01f,+1.68407321e-01f,
+1.70058340e-01f,-1.51151657e-01f,-9.46706682e-02f,+9.59596634e-02f,-1.26584470e-01f,
+1.90521836e-01f,-1.54756576e-01f,+2.01681852e-01f,+1.92122370e-01f,-8.29398930e-02f,
+3.30882072e-02f,+1.80728436e-01f,-1.06068999e-01f,+1.28000379e-01f,-1.11060120e-01f,
+1.82348162e-01f,-4.87183332e-02f,-1.90160125e-01f,-1.10612035e-01f,+6.20183051e-02f,
-5.20334393e-02f,+4.91777658e-02f,-1.23659886e-01f,-1.74896941e-01f,-2.09321678e-02f,
+1.09871864e-01f,+2.94748843e-02f,-8.90523195e-04f,+1.31967455e-01f,-2.14605540e-01f,
+1.17745280e-01f,+2.42053121e-02f,+1.67576015e-01f,+9.14737284e-02f,-9.45457667e-02f,
+2.04776347e-01f,+1.42683059e-01f,-6.31975532e-02f,-6.69789761e-02f,-2.09091529e-01f,
+4.05902863e-02f,+5.73666096e-02f,-2.13350683e-01f,-1.88611671e-01f,-1.18771277e-01f,
+2.02731192e-02f,+1.72682047e-01f,-5.62532395e-02f,-1.07917272e-01f,+2.01550335e-01f,
-1.59342572e-01f,+1.16777360e-01f,+9.53668356e-02f,-2.33325958e-02f,+1.44261926e-01f,
+4.90477979e-02f,-2.09417537e-01f,-2.08015218e-01f,+1.08819425e-01f,-1.99794978e-01f,
+6.26429021e-02f,+8.33110511e-02f,-1.39039338e-01f,+7.07357228e-02f,-4.70458269e-02f,
+5.24830520e-02f,-8.13064128e-02f,+7.84192085e-02f,+7.70764053e-03f,+1.31659776e-01f,
-1.04122892e-01f,-1.44477487e-01f,-1.91899627e-01f,-1.07096851e-01f,-2.06578225e-02f,
-5.70126623e-02f,-1.87615857e-01f,+2.06535548e-01f,+1.01339698e-01f,+1.59323812e-01f,
-1.98985010e-01f,+1.32792652e-01f,-1.17945902e-01f,-1.05189882e-01f,-1.00138992e-01f,
-2.03745931e-01f,-2.13503003e-01f,-7.70228058e-02f,+9.45333838e-02f,+1.88213050e-01f,
-2.37093419e-02f,-9.02624130e-02f,-6.62331432e-02f,+8.67411494e-02f,-1.16857268e-01f,
+2.07229286e-01f,+2.22851574e-01f,-6.62234426e-02f,+1.14154130e-01f,-2.12883130e-01f,
+7.46796429e-02f,-1.01735584e-01f,+1.32493883e-01f,-8.24982673e-02f,+1.54733747e-01f,
-9.57829803e-02f,-6.70865625e-02f,+6.55322969e-02f,-3.44062895e-02f,+6.77233636e-02f,
+2.13830650e-01f,+9.52269733e-02f,+7.41035938e-02f,-1.92546636e-01f,+7.23764002e-02f,
+2.19545484e-01f,+1.18095696e-01f,+1.45658493e-01f,+7.62093067e-02f,-8.30964297e-02f,
+9.93796289e-02f,+1.15026474e-01f,+1.97542071e-01f,-1.88063204e-01f,-1.50437072e-01f,
+6.94454014e-02f,-1.66409880e-01f,+1.95877254e-01f,-9.56332237e-02f,-2.11891741e-01f,
-1.19195215e-01f,+1.98406428e-01f,+1.28766328e-01f,+2.08018512e-01f,-7.86881000e-02f,
-1.49662971e-01f,+7.15478063e-02f,+2.85117030e-02f,+2.03278750e-01f,-2.04874769e-01f,
+6.58039749e-02f,-5.40079474e-02f,+4.42731678e-02f,+4.48231399e-02f,+9.10052657e-03f,
+1.18354261e-01f,-1.50381148e-01f,+3.16118300e-02f,+1.79877520e-01f,-1.14299200e-01f,
+2.65519321e-02f,-1.60040051e-01f,+1.09116405e-01f,+9.18046236e-02f,-1.17811024e-01f,
-1.82945237e-01f,-1.13725215e-02f,-6.30071759e-02f,-9.19727087e-02f,+1.83006078e-01f,
-3.56331617e-02f,-2.16178879e-01f,+2.05982804e-01f,+2.09397376e-02f,-3.60628963e-03f,
+1.81152672e-01f,-1.03089973e-01f,-1.12698667e-01f,-4.99038398e-03f,+6.85333312e-02f,
+1.49682164e-01f,+3.40627134e-03f,+1.36416167e-01f,+9.27166939e-02f,-2.71153897e-02f,
-1.67874202e-01f,-1.41129747e-01f,+2.06381679e-01f,-7.01692700e-02f,+1.43125653e-01f,
+1.98919177e-01f,-8.80316198e-02f,-1.48337960e-01f,-1.21930391e-01f,+1.32981181e-01f,
+1.79154277e-01f,+6.20306730e-02f,-4.17287052e-02f,+1.11320078e-01f,+4.86537218e-02f,
+1.38518363e-01f,-1.97222739e-01f,-1.43727541e-01f,-9.50153917e-02f,-1.74586177e-01f,
-2.39259005e-03f,-1.70943648e-01f,+1.76995844e-01f,-5.29046506e-02f,-4.24286276e-02f,
-7.96093047e-03f,+2.12279528e-01f,+2.84540057e-02f,-2.14888901e-01f,+6.32178783e-02f,
+1.93799138e-01f,-1.92518800e-01f,+1.61441624e-01f,-1.95581630e-01f,+2.84381211e-02f,
-1.63921714e-02f,+9.66522694e-02f,-3.99736613e-02f,+1.04197919e-01f,+1.01826042e-01f,
-1.26016855e-01f,+2.07379252e-01f,-1.12397134e-01f,-9.87108201e-02f,+1.88420445e-01f,
-1.51276678e-01f,-1.06020160e-01f,+1.91169411e-01f,+8.52405131e-02f,+8.46453607e-02f,
+3.39847505e-02f,+3.81314158e-02f,-1.28117293e-01f,-3.35020721e-02f,-6.70335740e-02f,
-4.82329726e-03f,-2.05923408e-01f,+2.28922367e-02f,-1.55040711e-01f,-4.34980243e-02f,
-6.58045709e-02f,+1.84047788e-01f,+2.14874834e-01f,-1.79762140e-01f,+3.02433074e-02f,
+5.60733080e-02f,+1.26464367e-01f,+2.12417781e-01f,-1.12467505e-01f,-1.85669601e-01f,
-1.00963145e-01f,-7.00300187e-02f,+3.95071805e-02f,+9.73509252e-03f,-1.03499569e-01f,
-2.43657231e-02f,-2.50741839e-02f,+1.68707520e-02f,-1.44669935e-01f,-2.48947889e-02f,
-1.86045393e-01f,-7.23049045e-02f,-1.60833299e-02f,+6.16446733e-02f,+1.76379383e-01f,
+2.08279163e-01f,-8.94593149e-02f,-3.80820036e-02f,+1.64597660e-01f,-1.92262158e-01f,
+1.34633631e-01f,-2.10504144e-01f,+7.37803578e-02f,+1.84585750e-01f,-1.64571732e-01f,
+9.00097787e-02f,+1.88409895e-01f,-1.28371716e-01f,+1.33165896e-01f,-9.83553827e-02f,
+1.08104616e-01f,+1.49191469e-02f,+2.18685925e-01f,+3.23089957e-02f,-2.65744328e-03f,
+5.48809469e-02f,-1.72421187e-02f,-1.76718295e-01f,-1.06613688e-01f,+2.21187115e-01f,
+2.23217905e-03f,+1.14987642e-02f,-1.48628235e-01f,+2.09152311e-01f,+2.20698774e-01f,
+4.22330201e-02f,-1.64079934e-01f,-4.28922921e-02f,+6.88781142e-02f,-6.80061430e-02f,
+4.12395597e-02f,-1.99138343e-01f,-1.11757919e-01f,+1.26111001e-01f,+1.77544624e-01f,
+8.11158717e-02f,+1.57491416e-01f,+2.13881344e-01f,+1.02088749e-02f,+2.55586356e-02f,
+1.89426184e-01f,-2.10396931e-01f,+1.47015989e-01f,+1.23251975e-03f,+1.81894183e-01f,
+1.06318712e-01f,+3.10554802e-02f,-2.18154892e-01f,-1.88322455e-01f,+1.13685101e-01f,
-4.47243005e-02f,+1.03245050e-01f,-8.94680023e-02f,-2.07633719e-01f,+8.48333836e-02f,
-1.94725171e-01f,-1.61955506e-01f,-1.18337795e-01f,+9.29751992e-02f,-3.78936529e-03f,
+5.38457632e-02f,-9.40419734e-02f,-1.51276201e-01f,+9.84500051e-02f,-2.06320733e-02f,
-1.19160861e-02f,-1.69786721e-01f,+3.04815173e-02f,-2.04337537e-01f,+1.18252397e-01f,
+3.59127820e-02f,-4.16601896e-02f,+6.13498688e-03f,+2.08531648e-01f,-1.30597115e-01f,
-2.22284496e-01f,-2.22792506e-01f,+7.14824498e-02f,+1.95878804e-01f,-8.62260461e-02f,
+1.36848807e-01f,+4.65737581e-02f,+1.65199161e-01f,+9.30924118e-02f,+1.50441766e-01f,
+2.09665805e-01f,-1.90737963e-01f,+1.73761249e-01f,-2.18315944e-01f,+1.49375737e-01f,
-2.27046758e-02f,-6.13183528e-02f,-1.11258015e-01f,+7.42505789e-02f,-1.57323956e-01f,
+1.59915358e-01f,-1.59055009e-01f,+2.18253374e-01f,-4.18862402e-02f,+7.81982839e-02f,
+7.45573938e-02f,+1.71363682e-01f,-6.47353381e-02f,+7.25539327e-02f,-1.59883201e-01f,
+6.79326355e-02f,-4.73671407e-02f,+1.93093568e-01f,+1.01245016e-01f,-1.24376610e-01f,
-2.04317287e-01f,+1.66284442e-01f,-3.16889286e-02f,+3.38791013e-02f,+5.83894551e-02f,
+5.86896539e-02f,-4.33926731e-02f,-6.17615432e-02f,-2.17988715e-01f,+1.69622689e-01f,
-4.97356802e-02f,+1.83723927e-01f,-1.05514392e-01f,-1.32460788e-01f,-7.32428730e-02f,
-1.02470279e-01f,+9.28576291e-02f,+1.78098381e-02f,+1.09158009e-01f,+2.22795755e-01f,
-8.58368725e-02f,+5.28029799e-02f,+1.86480463e-01f,+1.72097802e-01f,+1.47811323e-02f,
-2.00724900e-01f,-9.18790996e-02f,-3.53087634e-02f,+1.12511277e-01f,+4.27656770e-02f,
+1.48619562e-01f,-2.16590777e-01f,+9.65427756e-02f,-5.83572984e-02f,+2.18849659e-01f,
+1.41517222e-01f,-1.70226440e-01f,+2.05161750e-01f,-9.10419971e-02f,+1.57917112e-01f,
-3.17645818e-02f,+9.34865475e-02f,-1.86127216e-01f,-7.59555399e-02f,+9.01199579e-02f,
+8.41617584e-02f,-8.49498212e-02f,+7.37110972e-02f,+3.04596126e-02f,-2.04192162e-01f,
-2.04148769e-01f,-7.33409077e-02f,+1.81260943e-01f,-1.43869251e-01f,-1.28686041e-01f,
-1.60684973e-01f,-6.58136755e-02f,+1.71058476e-02f,-1.33805960e-01f,-2.10672081e-01f,
-9.80162621e-03f,+1.46718174e-01f,+7.85303116e-02f,+5.79051673e-02f,+1.72923505e-03f,
+2.00791270e-01f,-1.84904084e-01f,+1.34474814e-01f,-1.28108263e-02f,-1.92193329e-01f,
+6.36564195e-02f,-1.63189560e-01f,+1.18132979e-01f,+1.46322250e-02f,-3.44319344e-02f,
+9.91529226e-02f,-4.97300923e-02f,+9.39295888e-02f,+1.47833109e-01f,+8.25908184e-02f,
+1.88495547e-01f,+1.12788618e-01f,+2.18412697e-01f,+1.29560024e-01f,-5.64029813e-03f,
-1.66152537e-01f,+1.37386650e-01f,-9.52346623e-02f,-9.12973583e-02f,-1.59638032e-01f,
+1.39434159e-01f,-5.54548949e-02f,+1.95210963e-01f,-1.26576900e-01f,+1.13217115e-01f,
+1.63982004e-01f,-1.91676676e-01f,-1.25760168e-01f,+8.06214809e-02f,-2.04722673e-01f,
+1.00517124e-01f,+1.49269968e-01f,-1.92455471e-01f,-1.32772356e-01f,-9.67118293e-02f,
+6.32893443e-02f,+2.08465755e-01f,-2.03268856e-01f,-1.52817875e-01f,-3.94563824e-02f,
+8.51580501e-02f,+3.29134464e-02f,+4.55924869e-02f,+5.67116737e-02f,+4.88646328e-02f,
+7.97744393e-02f,-2.11231798e-01f,+1.29282653e-01f,-1.14702292e-01f,+2.13905513e-01f,
+2.01041430e-01f,+1.63250983e-01f,+1.91010982e-01f,-3.76655161e-03f,+1.44554943e-01f,
+5.63308001e-02f,-5.53218722e-02f,-1.74572960e-01f,+6.38183057e-02f,+2.17203230e-01f,
+5.73076010e-02f,-6.55909926e-02f,+1.06964916e-01f,+1.61513925e-01f,-1.91189200e-01f,
+1.25569850e-01f,-9.30738747e-02f,+9.65956748e-02f,-8.06643814e-02f,+1.33371532e-01f,
-7.74295628e-02f,-5.12857884e-02f,+5.60585558e-02f,-4.16895151e-02f,-1.93540201e-01f,
-1.84673294e-01f,-1.89673483e-01f,-9.94722545e-03f,+1.56131536e-01f,+3.35997343e-02f,
-1.44670844e-01f,-9.49560553e-02f,-5.95591664e-02f,+1.27369493e-01f,+1.62705332e-01f,
+1.08480304e-02f,-1.65360123e-01f,+1.18228495e-01f,+1.54828727e-02f,-7.45603144e-02f,
+4.72388566e-02f,-1.83331117e-01f,+1.95910603e-01f,-1.05395399e-01f,+7.97048211e-02f,
+2.01384902e-01f,+2.86166072e-02f,+1.91920847e-01f,+1.38982356e-01f,+2.18586177e-02f,
-2.78289318e-02f,+2.42508352e-02f,-8.32974166e-02f,-1.22462958e-02f,+8.79034102e-02f,
+1.97622210e-01f,+8.26687515e-02f,+1.36652589e-02f,-1.46714553e-01f,+1.38759673e-01f,
-1.76062077e-01f,+9.69797671e-02f,+7.13547170e-02f,-2.44744271e-02f,-1.89786345e-01f,
+1.95764124e-01f,+1.91964626e-01f,-1.26254469e-01f,-2.01157004e-01f,+1.57308787e-01f,
+1.48096710e-01f,+3.34554613e-02f,+8.87748897e-02f,-1.84421137e-01f,-5.83128482e-02f,
-1.83134183e-01f,-1.75703347e-01f,+4.61506248e-02f,-1.06527001e-01f,+1.16081327e-01f,
-1.17693573e-01f,-1.50726229e-01f,+9.69906151e-03f,-2.12933630e-01f,+1.97825164e-01f,
+7.77467191e-02f,-1.17657751e-01f,-4.72936034e-03f,+1.17723316e-01f,+5.29341400e-02f,
-1.34957284e-01f,-1.48558170e-02f,+9.64045823e-02f,-1.03852868e-01f,-1.40720695e-01f,
-7.12416470e-02f,+3.84532213e-02f,-1.82644024e-01f,-1.75870419e-01f,+3.15382183e-02f,
-6.02654517e-02f,-4.42112237e-02f,-1.22843251e-01f,-4.71390784e-03f,-2.01195061e-01f,
+1.26340836e-01f,-1.26588374e-01f,+7.48154819e-02f,-1.72346503e-01f,+2.02387214e-01f,
+8.34170878e-02f,+1.47586316e-01f,-7.57683069e-02f,-1.73842460e-02f,-1.69505984e-01f,
+6.14249408e-02f,+6.77314699e-02f,+2.52757072e-02f,+1.73305780e-01f,-2.16681242e-01f,
-7.03252107e-02f,+3.22255790e-02f,-1.85601458e-01f,+2.84705460e-02f,+3.30283344e-02f,
-2.16460079e-02f,-7.50923157e-02f,-6.05690628e-02f,-2.02847093e-01f,+1.52670532e-01f,
-2.30516344e-02f,+8.44233632e-02f,-1.62662208e-01f,+1.63343519e-01f,-2.08542958e-01f,
+1.59017950e-01f,+3.01536620e-02f,-1.09031118e-01f,+1.76000506e-01f,-5.90614527e-02f,
+3.03865671e-02f,-6.17137253e-02f,-8.04085881e-02f,+1.18867159e-02f,-1.74914598e-02f,
-2.43248343e-02f,+3.03664804e-02f,+5.77223599e-02f,+1.90091401e-01f,-8.48172754e-02f,
-2.10846081e-01f,-2.95546353e-02f,-4.03502584e-03f,-1.06001288e-01f,-8.16020817e-02f,
-2.20378906e-01f,+2.06476957e-01f,-1.10391110e-01f,+1.80407017e-01f,+1.63873672e-01f,
-3.38041335e-02f,-1.52342916e-01f,-1.30145758e-01f,-1.15608722e-02f,-9.80133861e-02f,
+2.42228955e-02f,+1.99809223e-02f,+1.62217468e-01f,+2.13771909e-01f,-7.33289123e-02f,
+6.18468523e-02f,+9.62073505e-02f,-7.02770203e-02f,-4.99871075e-02f,+5.86985648e-02f,
+4.30845320e-02f,+2.12236524e-01f,-1.64843261e-01f,+6.05351925e-02f,-3.25118005e-02f,
-3.93296033e-02f,+1.74236447e-02f,+3.42919528e-02f,+1.75310671e-03f,+2.91061699e-02f,
-4.66469526e-02f,+8.76712203e-02f,+4.92155552e-03f,-1.57617450e-01f,-2.07040787e-01f,
-2.05358893e-01f,+1.49689108e-01f,-1.81436986e-01f,+7.98558593e-02f,+1.62453175e-01f,
+1.10905945e-01f,+7.49002993e-02f,+2.03284264e-01f,+1.30086660e-01f,-2.09673166e-01f,
-1.16965547e-01f,-3.81268263e-02f,+1.27057552e-01f,+2.23826766e-02f,+2.02956498e-01f,
+1.80498660e-01f,-3.66377681e-02f,+6.79866672e-02f,+2.16269255e-01f,-1.54750168e-01f,
-1.70659006e-01f,+3.43795419e-02f,-9.04214382e-03f,+1.56897783e-01f,-2.06576437e-01f,
-3.67157161e-02f,-3.44853550e-02f,+1.64790034e-01f,+2.21235305e-02f,+1.14552230e-01f,
-1.14043832e-01f,-8.50226432e-02f,+1.77139461e-01f,-1.89546436e-01f,+1.67059332e-01f,
+6.80671930e-02f,-1.39866099e-01f,-5.84634990e-02f,+6.13451302e-02f,+1.23041302e-01f,
+2.20983803e-01f,+1.61827385e-01f,+1.78102791e-01f,+1.26245826e-01f,-7.41119087e-02f,
-2.15409860e-01f,-1.83975920e-01f,+1.97875053e-01f,-1.36487722e-01f,+1.08614713e-02f,
+5.28565645e-02f,+1.89808905e-01f,-1.79176927e-02f,+8.90675783e-02f,-1.18259646e-01f,
+6.83594346e-02f,+2.16321021e-01f,-1.52834356e-02f,-6.09146804e-02f,-1.33116394e-02f,
+1.32232875e-01f,-1.25574589e-01f,+1.03268832e-01f,+5.55869341e-02f,+7.72489905e-02f,
+2.43445039e-02f,-8.70436430e-02f,+1.66690677e-01f,-1.44445181e-01f,-2.08546788e-01f,
+3.55433226e-02f,+2.19519407e-01f,-1.36419803e-01f,-1.77362353e-01f,-1.83684781e-01f,
-1.97008371e-01f,-3.54161263e-02f,+1.13409370e-01f,-1.60425499e-01f,-1.50700480e-01f,
+1.32939965e-01f,+8.12756121e-02f,+1.83113515e-02f,-1.87801436e-01f,-1.89056024e-01f,
-1.35850251e-01f,+1.21594906e-01f,-1.77797228e-02f,-6.70821816e-02f,+1.54578567e-01f,
+2.18593061e-01f,+1.86192423e-01f,-1.01365335e-01f,+4.61739600e-02f,-8.15803856e-02f,
-9.05115455e-02f,-2.17675939e-01f,+1.50779068e-01f,+1.48109049e-01f,-1.22107863e-01f,
+1.90034419e-01f,+6.31502271e-02f,+6.25734031e-03f,-9.78558064e-02f,+1.64602697e-01f,
+4.41949069e-02f,+1.06980413e-01f,+2.01756448e-01f,-8.73143673e-02f,+1.02613568e-01f,
-2.12690249e-01f,-5.48283607e-02f,+1.33683294e-01f,+1.57998413e-01f,-3.27870250e-04f,
-1.30613625e-01f,+1.48273975e-01f,+1.49569511e-01f,-3.94891202e-02f,+6.15951419e-02f,
+4.50939536e-02f,+2.22445756e-01f,-1.77985892e-01f,-1.40254423e-01f,-1.95950449e-01f,
-1.89536631e-01f,-5.28320521e-02f,-1.71343237e-02f,+2.15826720e-01f,+2.02249944e-01f,
-2.08822206e-01f,-4.09250259e-02f,-9.56511945e-02f,+1.03479058e-01f,+1.82070136e-02f,
+1.51386142e-01f,-1.42870396e-02f,-8.51324052e-02f,-1.94869652e-01f,+2.07466364e-01f,
-5.85636795e-02f,-1.90777257e-01f,-4.51810211e-02f,+1.54267311e-01f,-4.33379710e-02f,
-2.12715566e-03f,+2.03561902e-01f,+1.22459769e-01f,-2.14088857e-02f,-1.13409050e-01f,
-1.86435282e-02f,+1.68747872e-01f,+1.93253428e-01f,+1.37952358e-01f,-1.58671051e-01f,
+2.05734968e-01f,-1.41986847e-01f,+1.21930540e-01f,-1.27242655e-01f,+1.05295718e-01f,
}; 
k2c_tensor dense_1_kernel = {&dense_1_kernel_array[0],2,3600,{60,60, 1, 1, 1}}; 
float dense_1_bias_array[60] = {0}; 
k2c_tensor dense_1_bias = {&dense_1_bias_array[0],1,60,{60, 1, 1, 1, 1}}; 
float dense_1_fwork[3660] = {0}; 

 
float dense_2_output_array[60] = {0}; 
k2c_tensor dense_2_output = {&dense_2_output_array[0],1,60,{60, 1, 1, 1, 1}}; 
float dense_2_kernel_array[3600] = {
-1.24506794e-01f,-1.56097576e-01f,+1.40138477e-01f,+2.59936601e-02f,+1.24213159e-01f,
+2.16975957e-01f,+1.56451613e-02f,+1.15398765e-01f,+1.25674695e-01f,+2.21951663e-01f,
+1.45052671e-01f,+1.09385103e-02f,+4.64671254e-02f,+2.22989976e-01f,+1.83486849e-01f,
-1.05156988e-01f,+1.61387473e-01f,+2.12401778e-01f,-1.22369304e-01f,+1.68486983e-01f,
+3.31051648e-02f,+2.19531745e-01f,-1.67482138e-01f,-9.66204554e-02f,-8.80695283e-02f,
-4.60196286e-02f,+1.44902617e-02f,+1.27790183e-01f,-1.22904480e-02f,-1.16537236e-01f,
-1.98642910e-01f,-2.23015994e-01f,-1.65513545e-01f,+5.16248345e-02f,+1.75099075e-02f,
+1.19212538e-01f,-4.27052677e-02f,+3.79128754e-03f,-8.25105757e-02f,+1.21802092e-03f,
+2.13547289e-01f,+1.25944734e-01f,+1.11264884e-01f,+1.39639676e-02f,-1.15681313e-01f,
-4.64044511e-03f,-1.17013417e-01f,+3.48155200e-02f,+3.98241282e-02f,+1.91416413e-01f,
-3.67134809e-02f,-2.14316592e-01f,+1.64450228e-01f,-1.36774540e-01f,+8.86457860e-02f,
-1.37281105e-01f,+1.14352614e-01f,-6.30884767e-02f,+7.19213784e-02f,+1.85316354e-02f,
-4.69607413e-02f,-8.40600878e-02f,-5.24049699e-02f,-1.43837512e-01f,+1.19618624e-01f,
+4.77511585e-02f,-1.21387035e-01f,-2.06237376e-01f,-9.62530226e-02f,+1.86092675e-01f,
+2.15393484e-01f,+1.58552289e-01f,-1.89865306e-01f,+1.81415409e-01f,+9.87189710e-02f,
-4.63262796e-02f,+1.78294897e-01f,-1.67415082e-01f,-1.12686619e-01f,-2.71847546e-02f,
-1.95452660e-01f,+7.39879012e-02f,-2.02555209e-01f,-3.78474295e-02f,+1.22805297e-01f,
+1.39543921e-01f,+6.45648539e-02f,+1.11552775e-02f,-1.76354229e-01f,-3.17530036e-02f,
-1.87170804e-01f,+5.76845109e-02f,+1.70569718e-01f,+5.42292893e-02f,-1.20559096e-01f,
+3.95131111e-02f,-8.81098211e-03f,+1.11401111e-01f,+2.74790525e-02f,-1.14976466e-02f,
-1.14364505e-01f,-2.08130643e-01f,-5.59143275e-02f,-1.14361838e-01f,+1.37822658e-01f,
+1.00203723e-01f,-3.19635868e-02f,-1.31785378e-01f,-5.94924241e-02f,-1.25411332e-01f,
-9.24633443e-02f,+1.54214263e-01f,-1.01706423e-01f,+1.93910778e-01f,-1.67599380e-01f,
-8.15313905e-02f,+3.89561057e-02f,-2.18798369e-01f,-1.31442800e-01f,+9.11874771e-02f,
+1.49299443e-01f,+5.22158742e-02f,-1.18334815e-01f,-1.28269941e-01f,+2.87536085e-02f,
-1.40318394e-01f,-2.08211616e-01f,+1.32603884e-01f,-1.69984400e-01f,-8.94865692e-02f,
-4.17899042e-02f,-1.01640210e-01f,-6.41088188e-02f,+7.33474195e-02f,-1.52151644e-01f,
-1.02869272e-02f,+1.20775014e-01f,-1.69065729e-01f,-6.15077764e-02f,-1.96452215e-01f,
+4.75333035e-02f,-1.74188912e-01f,+1.33048087e-01f,-1.44192576e-03f,-1.08835571e-01f,
+1.06633097e-01f,-1.09020561e-01f,-2.13050961e-01f,+1.94160968e-01f,+2.21971601e-01f,
+4.10026908e-02f,-2.20512301e-02f,+6.61967695e-02f,-1.78508833e-01f,+1.72282249e-01f,
+5.10279238e-02f,+9.30916369e-02f,-1.62793085e-01f,-2.18767554e-01f,-1.52643710e-01f,
+1.08015478e-01f,-1.12627000e-02f,-8.06930661e-03f,-1.57132089e-01f,-1.57247201e-01f,
-1.32237524e-01f,-2.79651880e-02f,+6.20931983e-02f,+2.17571884e-01f,+1.16192669e-01f,
+1.01982564e-01f,+1.61083758e-01f,-2.96641886e-02f,+2.04205215e-01f,-3.19734216e-03f,
-1.48450226e-01f,+3.74295712e-02f,+9.16441977e-02f,+2.71501541e-02f,+9.39021409e-02f,
+4.52741683e-02f,+1.26557052e-03f,-1.67811394e-01f,-1.84347779e-01f,-3.84171307e-03f,
-8.07333142e-02f,+1.46709710e-01f,+4.99224365e-02f,+2.08939910e-02f,+2.06995606e-02f,
+1.67366713e-01f,-2.24630684e-02f,-9.83159244e-03f,-1.76150203e-01f,-7.90289342e-02f,
-4.92732525e-02f,+7.22484291e-02f,-8.68233591e-02f,+1.24731570e-01f,+1.71172410e-01f,
-7.03081489e-04f,+1.54639482e-01f,-2.07660586e-01f,-8.32963437e-02f,+7.41798878e-02f,
+1.43664151e-01f,-1.76659539e-01f,+8.40851367e-02f,+1.65365189e-01f,-1.44126892e-01f,
+6.18981421e-02f,+1.80559039e-01f,+2.10204750e-01f,+1.89293206e-01f,-1.15643725e-01f,
-1.32902384e-01f,+1.49642885e-01f,+1.35550648e-01f,-1.33526236e-01f,+8.41580331e-02f,
-9.17722583e-02f,+2.18747735e-01f,+2.91984975e-02f,-2.00800881e-01f,-1.69855282e-01f,
-7.97470957e-02f,+1.51795357e-01f,-1.85692191e-01f,+2.15518773e-01f,+2.16728210e-01f,
+1.72056645e-01f,+8.39293003e-04f,+1.87608987e-01f,-2.07616761e-01f,-2.06837818e-01f,
-1.21774025e-01f,+1.12668812e-01f,-1.58134699e-02f,+1.29464924e-01f,+2.20457554e-01f,
+6.25832379e-02f,+5.39581478e-03f,+7.54232705e-02f,-5.20405173e-02f,-1.63636357e-02f,
-1.79759055e-01f,+7.01223016e-02f,+5.04896641e-02f,-3.78198624e-02f,-2.06089154e-01f,
+7.06067383e-02f,+8.77529085e-02f,+9.02015865e-02f,+1.83953375e-01f,+2.08118707e-01f,
+1.60552025e-01f,+9.25539732e-02f,-1.50463730e-01f,-6.61617517e-03f,+1.17330670e-01f,
+1.09221607e-01f,+1.19590312e-01f,-1.47513598e-01f,+1.06833637e-01f,-8.07021260e-02f,
-2.10977972e-01f,-9.33285952e-02f,-1.50420070e-01f,+2.15443283e-01f,-1.46134794e-01f,
-1.09957576e-01f,+1.38874382e-01f,+1.81385577e-02f,-1.84543103e-01f,+1.12141281e-01f,
+2.86555886e-02f,+7.68140256e-02f,-2.62004584e-02f,-9.68940556e-02f,-1.73110083e-01f,
-1.28333271e-01f,-1.10687472e-01f,+1.91660374e-01f,-1.56313270e-01f,-9.47055370e-02f,
+1.75971031e-01f,-1.57141536e-01f,+1.99617416e-01f,+1.09358549e-01f,+1.07392222e-02f,
-8.97896886e-02f,+7.68654346e-02f,-1.63410813e-01f,-1.26517236e-01f,+6.62790537e-02f,
+1.20626390e-01f,-8.61593634e-02f,-5.26484996e-02f,-1.10817976e-01f,+1.59439534e-01f,
-9.46977586e-02f,+2.00686693e-01f,+1.32320583e-01f,+2.19855696e-01f,+1.92314535e-02f,
+1.95622474e-01f,-1.47006392e-01f,-4.82123494e-02f,+9.78845358e-02f,+2.10019112e-01f,
-1.97805107e-01f,+1.89637840e-02f,+1.99268728e-01f,+1.81346089e-01f,+1.06291264e-01f,
+1.05645329e-01f,+2.50468850e-02f,+1.94611847e-02f,+1.98955953e-01f,-5.39795309e-02f,
-1.16339557e-01f,-1.51708931e-01f,+1.26331925e-01f,-8.76971930e-02f,+9.61742997e-02f,
-2.07424313e-02f,-1.03740916e-01f,-1.42585605e-01f,+2.06590623e-01f,-9.94229093e-02f,
-7.73514211e-02f,-1.09321192e-01f,-1.09357603e-01f,-1.51075855e-01f,+1.55770302e-01f,
-1.91322953e-01f,+7.04703927e-02f,-1.07455485e-01f,+1.63768679e-02f,+1.37131989e-01f,
+9.50330794e-02f,-4.61800992e-02f,+1.00800395e-01f,-2.03009799e-01f,-1.15855217e-01f,
-8.30995739e-02f,+1.66123182e-01f,-1.75533965e-01f,-1.06390685e-01f,-8.44472498e-02f,
+3.82377207e-02f,+4.59884405e-02f,-1.85870200e-01f,+3.45772207e-02f,-1.69169158e-02f,
+3.74647081e-02f,-8.27280432e-02f,-9.15770829e-02f,+1.23656511e-01f,+1.25589788e-01f,
-7.55926967e-03f,+1.53786391e-01f,+2.45045424e-02f,+1.61739469e-01f,-8.24732035e-02f,
-1.36968791e-01f,-1.69442475e-01f,-2.06150845e-01f,-4.28447872e-02f,-4.23136950e-02f,
-5.42528629e-02f,+1.78378433e-01f,+1.10930294e-01f,+4.01539207e-02f,-1.47408783e-01f,
+5.43866754e-02f,+7.53874481e-02f,+5.25227785e-02f,+7.78382719e-02f,-1.69859648e-01f,
-2.09749773e-01f,-2.03497663e-01f,-9.69407558e-02f,-1.94613859e-01f,-1.66868314e-01f,
+3.48448753e-04f,-1.78460002e-01f,+1.23924315e-01f,-6.51343763e-02f,+8.24709535e-02f,
-3.65884155e-02f,-9.22384262e-02f,+7.86415040e-02f,-2.31215805e-02f,+1.31420076e-01f,
+8.47020149e-02f,+9.61544514e-02f,-9.01754051e-02f,+1.41534656e-01f,+2.48872787e-02f,
+1.38662577e-01f,-1.57300353e-01f,+1.94199502e-01f,+3.92083824e-02f,+2.21615434e-02f,
-4.71579880e-02f,-2.01334000e-01f,+3.70431542e-02f,+1.76655322e-01f,+5.56254387e-02f,
+1.27682954e-01f,+7.32951164e-02f,+8.85362327e-02f,-1.05202995e-01f,+1.25954747e-01f,
+6.98323548e-03f,+6.46744072e-02f,+1.72886431e-01f,+1.78056538e-01f,-1.79482996e-01f,
+1.44240707e-01f,+9.21086073e-02f,+6.87184930e-02f,+2.03166604e-01f,+1.46991074e-01f,
-1.79093450e-01f,+2.21473932e-01f,+9.53729153e-02f,-1.88051760e-02f,-7.56982118e-02f,
+1.39504433e-01f,-1.84628934e-01f,-1.45306140e-02f,-1.17907785e-01f,+1.79211468e-01f,
-8.57277960e-02f,+2.22372025e-01f,-8.92076343e-02f,+1.16119474e-01f,+1.49296135e-01f,
+1.94581389e-01f,-1.76023155e-01f,-1.34850875e-01f,-1.19857617e-01f,+1.82280391e-01f,
+1.26866549e-01f,+2.12923080e-01f,+1.51429147e-01f,+1.62865698e-01f,+1.23319864e-01f,
-5.26813269e-02f,-1.95538759e-01f,+1.46662802e-01f,-4.95923758e-02f,-1.01168506e-01f,
-1.73376054e-02f,+5.99607825e-02f,+9.20687616e-03f,-1.44304425e-01f,+2.00224578e-01f,
-1.51882946e-01f,+4.38219309e-03f,-3.73035967e-02f,-6.54074997e-02f,+2.18578309e-01f,
+2.12138951e-01f,+1.86783433e-01f,-1.10324785e-01f,-5.03118783e-02f,-1.00006625e-01f,
+9.39912796e-02f,-1.97220445e-01f,+1.59402609e-01f,+1.60866112e-01f,+1.34971529e-01f,
-1.09325938e-01f,+5.98063171e-02f,+1.89830482e-01f,-2.24832743e-02f,+3.82838249e-02f,
+8.74716938e-02f,+6.19684458e-02f,+4.20572758e-02f,-5.01619130e-02f,+7.09644854e-02f,
-2.10769638e-01f,-1.81309357e-01f,-7.90848583e-02f,-1.57519132e-01f,-1.69128001e-01f,
-4.67120111e-03f,-1.07764691e-01f,-1.78654477e-01f,+1.18957162e-02f,-1.47850364e-01f,
+5.17615378e-02f,+5.26627302e-02f,-1.76593959e-02f,-1.13421947e-01f,+3.02338302e-02f,
+6.26941919e-02f,-1.34638533e-01f,-1.04355499e-01f,+2.05307275e-01f,-1.77443653e-01f,
+1.04574889e-01f,+4.96788025e-02f,+1.92460418e-01f,-8.98525119e-04f,+1.83365703e-01f,
-3.28012854e-02f,+1.91687137e-01f,+5.99365234e-02f,-1.71058372e-01f,+1.33500814e-01f,
-1.56535208e-02f,-1.68834671e-01f,+2.09050804e-01f,+1.25428289e-01f,-1.20579302e-01f,
+2.22096682e-01f,-4.74627763e-02f,-1.81405008e-01f,-1.72482491e-01f,-1.79779470e-01f,
-1.75379902e-01f,-1.45644218e-01f,+1.25397533e-01f,+9.68375504e-02f,+2.03077078e-01f,
+9.52879786e-02f,-4.46990877e-02f,-2.17940256e-01f,-6.97789788e-02f,-4.22639996e-02f,
-1.79715440e-01f,+2.94283032e-03f,-1.31065667e-01f,+6.88406229e-02f,+1.57591164e-01f,
+5.42951524e-02f,+1.21402800e-01f,-2.10364789e-01f,+1.18932933e-01f,-1.91931188e-01f,
+6.34662807e-03f,-1.47010222e-01f,+5.46818674e-02f,+1.28553718e-01f,-1.22468196e-01f,
-1.59887210e-01f,-5.01549244e-03f,+1.50480211e-01f,+1.58286989e-01f,+4.00230885e-02f,
+2.19750315e-01f,+1.52385473e-01f,+1.71004355e-01f,-1.51675344e-02f,-1.28404856e-01f,
+1.51074052e-01f,-6.71514422e-02f,+7.42987692e-02f,+1.11696571e-01f,-1.23955660e-01f,
-3.50511074e-03f,-3.26455534e-02f,+2.01310635e-01f,-1.60039365e-01f,-1.54229417e-01f,
-7.24965632e-02f,+2.56863683e-02f,+8.09120834e-02f,+7.14972615e-03f,-1.03518710e-01f,
+9.86671448e-03f,-1.08879291e-01f,-2.01566815e-01f,-2.15391666e-02f,+2.18954086e-02f,
+5.25968373e-02f,+9.42113996e-03f,+1.04707897e-01f,+7.04115629e-02f,+1.28376395e-01f,
+1.86119229e-02f,-5.00608385e-02f,-4.93988395e-03f,-4.09183055e-02f,+1.00585282e-01f,
+6.46024942e-03f,+2.14499116e-01f,-3.02173495e-02f,+2.17039287e-01f,+6.43050969e-02f,
+1.95625871e-01f,-6.22258931e-02f,-2.28637606e-02f,-6.81627095e-02f,+2.67063975e-02f,
+1.35893553e-01f,+6.05546534e-02f,-1.59575075e-01f,-1.06259324e-01f,+2.11337209e-01f,
+6.38820827e-02f,+4.80845571e-02f,+1.51445031e-01f,-1.75823286e-01f,-1.78406090e-01f,
+6.03770912e-02f,+9.75187719e-02f,+4.28867936e-02f,+1.48143411e-01f,+8.95814598e-02f,
+1.83212429e-01f,+1.04455233e-01f,+6.80397153e-02f,+1.52136534e-01f,-6.35746121e-03f,
-1.60727948e-01f,-7.37784952e-02f,+1.97976232e-01f,+8.55959058e-02f,-1.78510904e-01f,
-1.41449511e-01f,-6.08160496e-02f,+1.54722780e-01f,-6.77089393e-03f,-3.89933139e-02f,
+2.35312283e-02f,+7.31440187e-02f,-1.76089793e-01f,-1.48844853e-01f,-2.13434324e-01f,
+7.76041746e-02f,-1.90540403e-02f,+1.74171954e-01f,+1.01024240e-01f,+1.28353477e-01f,
-1.65814281e-01f,+1.61307335e-01f,+1.50492609e-01f,+7.28444755e-02f,+1.19068980e-01f,
-7.84924030e-02f,+1.81286126e-01f,+1.70586437e-01f,-1.72616571e-01f,+1.95713192e-02f,
-6.56898320e-02f,-5.51896691e-02f,+8.65671933e-02f,-7.11497366e-02f,-5.85184991e-03f,
-2.17194155e-01f,+1.31431669e-02f,-1.10021390e-01f,-1.01880006e-01f,+2.21922994e-02f,
+8.75798464e-02f,-3.61409038e-02f,+1.49411291e-01f,-1.49661750e-01f,+1.67873502e-01f,
+1.83216006e-01f,+2.02412456e-02f,+3.68318856e-02f,-8.23924392e-02f,-1.09397158e-01f,
-1.40916660e-01f,+1.20791495e-01f,+2.17987388e-01f,-1.39091611e-02f,+1.85112655e-02f,
-8.13266188e-02f,-1.81474790e-01f,-6.57822788e-02f,-4.76406813e-02f,-1.18976906e-01f,
-2.21821055e-01f,+5.56798279e-02f,+1.73878193e-01f,+8.57188404e-02f,-2.21208334e-01f,
-2.12060004e-01f,+2.07461685e-01f,-1.15081288e-01f,-1.20348565e-01f,+9.81767476e-03f,
-2.16185763e-01f,+4.05885279e-03f,+4.12308574e-02f,+2.02398896e-01f,-9.32925045e-02f,
+2.47583687e-02f,+1.63428783e-01f,+8.41644108e-02f,+4.85720038e-02f,+5.29606640e-03f,
+1.19565457e-01f,+4.81757820e-02f,+2.03921556e-01f,+1.90716207e-01f,-2.22325474e-02f,
+3.28607857e-02f,-5.16266078e-02f,-1.86726511e-01f,-1.69907093e-01f,+5.90131879e-02f,
-1.47360593e-01f,+3.94376218e-02f,+1.60545141e-01f,+1.51199490e-01f,+1.04877055e-01f,
-1.16046555e-01f,+4.91139591e-02f,-2.63868421e-02f,-1.06324896e-01f,-8.17359537e-02f,
-1.35636747e-01f,+1.70483708e-01f,+5.72233498e-02f,-7.32574314e-02f,+1.64592862e-02f,
+7.76596069e-02f,+2.82638371e-02f,+2.20566571e-01f,+9.20442045e-02f,-1.80831373e-01f,
+1.34597808e-01f,-1.35383353e-01f,-4.29367572e-02f,+1.20179236e-01f,+5.80570400e-02f,
+6.39127493e-02f,+1.69434547e-01f,+1.70257688e-01f,+9.65852737e-02f,-1.80289403e-01f,
+1.27602667e-01f,+9.25683081e-02f,+1.01572126e-01f,-7.35227019e-02f,+1.39209569e-01f,
+1.39441788e-02f,-1.11266121e-01f,-3.97138298e-02f,-1.26787424e-01f,+7.97354281e-02f,
+1.78274244e-01f,-3.73588204e-02f,+7.37309456e-04f,-7.81471431e-02f,+2.06864148e-01f,
+8.28005373e-02f,+7.57921934e-02f,+1.02659434e-01f,+1.31914765e-01f,-1.79191828e-02f,
-2.62966752e-03f,+1.36381716e-01f,-2.13949651e-01f,+1.31369382e-01f,-2.04916194e-01f,
+4.27518189e-02f,-1.64159745e-01f,-1.66539699e-01f,+1.22542024e-01f,+1.38015360e-01f,
-2.25548744e-02f,-1.06854126e-01f,-1.73221231e-01f,+7.89455473e-02f,-1.53412253e-01f,
+1.86159968e-01f,+1.10826552e-01f,+4.22315001e-02f,+1.30695730e-01f,-7.02356994e-02f,
+5.79755306e-02f,+6.56984746e-02f,+1.35573000e-01f,+1.85053080e-01f,-7.45016783e-02f,
-7.73711354e-02f,-6.00084662e-04f,+1.07395679e-01f,-6.65623397e-02f,+8.66628289e-02f,
-6.75070882e-02f,+1.53643638e-01f,-1.68360412e-01f,-4.58361208e-02f,+1.81621403e-01f,
-6.42205030e-02f,+8.57474804e-02f,-1.85700998e-01f,+1.67673051e-01f,-6.02960438e-02f,
+9.05342996e-02f,+4.88075316e-02f,+1.64798945e-01f,+1.21749610e-01f,-8.34330320e-02f,
+2.00885326e-01f,+1.63283557e-01f,-1.86463416e-01f,-8.31786245e-02f,+1.14942133e-01f,
-2.12129414e-01f,+1.40210986e-03f,-1.75374746e-03f,-1.85211003e-03f,-1.44340634e-01f,
+7.97015131e-02f,-1.67698756e-01f,+7.76441395e-03f,+1.67127937e-01f,+8.90104175e-02f,
+3.16721797e-02f,-1.21720977e-01f,+9.67212021e-02f,-1.51080906e-01f,-9.53920335e-02f,
-9.63616818e-02f,+1.28093034e-01f,-1.94329977e-01f,+1.30861700e-01f,-4.59687114e-02f,
+8.58025253e-03f,+1.11209303e-01f,+9.52211618e-02f,-1.54013067e-01f,-5.32953292e-02f,
+1.04799837e-01f,-1.73654556e-01f,+1.56824648e-01f,-1.99688673e-02f,-2.86356956e-02f,
+1.06467128e-01f,-1.12645298e-01f,+1.89619839e-01f,+4.45688367e-02f,+2.17847824e-02f,
-1.67232066e-01f,-7.97255039e-02f,+2.12654173e-01f,+1.23374075e-01f,-6.16277754e-02f,
+9.52990055e-02f,+1.45186186e-02f,-6.09205514e-02f,-1.11482777e-01f,-1.87068984e-01f,
-6.14819229e-02f,+8.83290470e-02f,-6.15646541e-02f,+6.66123629e-02f,+2.63088942e-02f,
+2.16490507e-01f,-1.49730414e-01f,+6.62902892e-02f,-1.43332481e-02f,+1.16596460e-01f,
-1.98201701e-01f,+1.54018581e-01f,-1.84399381e-01f,+1.97121501e-01f,-2.03854695e-01f,
+1.64930940e-01f,-1.80596679e-01f,-1.39576495e-01f,+1.99558169e-01f,+4.08499539e-02f,
-1.81175232e-01f,-1.04473740e-01f,+4.59391773e-02f,-1.37393653e-01f,-9.09097195e-02f,
+1.14286512e-01f,-1.31711751e-01f,-7.92596638e-02f,+1.35689050e-01f,-2.45160162e-02f,
+1.71332538e-01f,-2.01073885e-01f,-1.15199588e-01f,-1.51871383e-01f,-1.14799157e-01f,
+4.62003648e-02f,+1.50628984e-01f,+2.12220252e-02f,-9.91076231e-03f,-1.14361092e-01f,
-7.82517940e-02f,+1.39579654e-01f,-7.41653293e-02f,-2.11178109e-01f,+2.15390176e-02f,
+3.02117169e-02f,+8.17091763e-03f,+2.16747671e-01f,+4.71275449e-02f,+9.72604752e-02f,
+1.63284540e-02f,+8.53753984e-02f,-1.93268478e-01f,+7.77797103e-02f,+2.06474215e-02f,
-3.98358107e-02f,-1.83683291e-01f,-7.23513365e-02f,-3.93967777e-02f,-1.67786777e-01f,
+3.54213417e-02f,-5.16916513e-02f,+2.86903977e-02f,-2.03619480e-01f,-3.79499495e-02f,
-6.99850321e-02f,+1.18814826e-01f,+2.11171120e-01f,-1.85657650e-01f,-1.51825249e-01f,
-3.14918309e-02f,+2.67665684e-02f,+1.87997729e-01f,-1.32293433e-01f,+1.18717015e-01f,
+2.88220346e-02f,+1.35604382e-01f,-1.01997562e-01f,-1.44343078e-01f,-2.16165766e-01f,
-7.03809261e-02f,-1.01288565e-01f,-3.25941145e-02f,+7.25883543e-02f,-8.77355784e-02f,
+1.77594036e-01f,+1.50922269e-01f,-1.57722414e-01f,-9.12186652e-02f,-1.22519217e-01f,
+7.17733800e-02f,+3.27436626e-02f,+1.39851868e-02f,+1.40795529e-01f,+3.74485850e-02f,
-9.49859023e-02f,+5.46880960e-02f,-6.18092567e-02f,-1.38999403e-01f,-1.84311464e-01f,
-9.76550877e-02f,+1.51740432e-01f,+1.62776828e-01f,+2.03599393e-01f,+1.44341707e-01f,
+1.10951900e-01f,-2.15659097e-01f,+1.90394312e-01f,-1.05930656e-01f,-2.00774118e-01f,
+1.31310999e-01f,+6.32928908e-02f,+4.43680286e-02f,+1.44889206e-02f,-1.49852335e-01f,
+1.70454770e-01f,+8.25904310e-03f,+2.34598964e-02f,-1.55160353e-01f,+1.41304135e-01f,
+1.47549272e-01f,-1.56482279e-01f,-1.53474256e-01f,+3.96438837e-02f,-1.08523056e-01f,
+1.08827472e-01f,-1.38749212e-01f,-1.19810380e-01f,-1.50945246e-01f,-9.47356224e-04f,
-1.11233972e-01f,+4.15769219e-02f,+7.13831782e-02f,-2.22010955e-01f,+1.13577247e-01f,
+4.05390561e-03f,-5.86120337e-02f,+1.78346545e-01f,+1.93900973e-01f,+1.46604955e-01f,
+1.90167218e-01f,+8.20552409e-02f,-2.18582079e-01f,-1.66121140e-01f,-2.18489274e-01f,
-8.60237330e-02f,-1.87959075e-01f,-1.26626372e-01f,-1.19511992e-01f,-1.07794337e-01f,
+1.25638992e-01f,-4.86092567e-02f,+8.22614431e-02f,+1.04312032e-01f,-1.58154666e-01f,
+2.70604193e-02f,+2.60411650e-02f,+2.09016353e-01f,-1.42427742e-01f,+4.71390188e-02f,
-1.37168989e-01f,+1.47320122e-01f,+5.96003234e-02f,-1.76804453e-01f,-1.38954997e-01f,
-1.36433005e-01f,+1.59042329e-01f,+1.39211684e-01f,-9.75870043e-02f,+1.16564482e-01f,
-1.76107392e-01f,+5.84669113e-02f,-9.52929854e-02f,-2.06113681e-01f,+1.65798187e-01f,
+2.16628611e-01f,-8.96274149e-02f,-6.25940114e-02f,-1.48728311e-01f,+5.75471818e-02f,
+6.76176548e-02f,-1.53675765e-01f,+8.84603560e-02f,+1.82816237e-01f,-1.59604922e-01f,
+5.16921878e-02f,-1.75578535e-01f,+2.78757811e-02f,+2.17806399e-01f,+8.64188671e-02f,
+1.97173953e-02f,+1.35453463e-01f,+5.67199290e-02f,-7.96822757e-02f,-5.71233481e-02f,
+9.60792899e-02f,-3.24045867e-02f,-5.75376302e-02f,+1.23815298e-01f,+2.02853590e-01f,
+1.99709952e-01f,+1.61167562e-01f,-7.87466764e-04f,-1.54535696e-01f,-9.58245546e-02f,
+1.95788383e-01f,+2.13045418e-01f,-1.76385403e-01f,+1.78682774e-01f,+1.95348442e-01f,
-1.99859738e-02f,-1.83786824e-01f,+6.45122826e-02f,+4.03408408e-02f,-8.37437958e-02f,
+5.17805815e-02f,-2.03478158e-01f,+1.46497309e-01f,-1.26778424e-01f,+1.61620975e-03f,
+7.30116963e-02f,+1.10336781e-01f,-1.15294218e-01f,-7.64477253e-02f,+1.42171979e-02f,
+7.80653059e-02f,-1.69691235e-01f,+2.67279148e-03f,-3.61744910e-02f,-2.13217616e-01f,
-2.14531705e-01f,+1.32816076e-01f,+2.02261835e-01f,+2.04601049e-01f,-2.09626034e-01f,
+2.01828629e-02f,-1.57414764e-01f,-7.60473460e-02f,-2.98003852e-03f,+4.78824079e-02f,
+2.12939709e-01f,-1.44391268e-01f,+7.86465704e-02f,-1.74648136e-01f,+4.81040180e-02f,
-4.70754206e-02f,-3.04907411e-02f,-2.04536080e-01f,-2.01652378e-01f,-5.18192351e-03f,
+3.75179052e-02f,+9.09632444e-02f,+1.35645926e-01f,+1.22418791e-01f,-5.23510128e-02f,
-7.77010918e-02f,+1.45877600e-02f,+9.65897441e-02f,+1.89953059e-01f,+7.95389116e-02f,
-3.00240517e-02f,-9.92867351e-03f,+1.35574639e-01f,-5.01032770e-02f,+5.48237264e-02f,
-1.41196176e-01f,+1.93444043e-01f,+1.21886402e-01f,-1.33256897e-01f,+2.13798732e-01f,
-1.73361719e-01f,+1.81254864e-01f,+1.55001760e-01f,+2.04647809e-01f,-1.92882121e-01f,
-3.61910164e-02f,-7.79192895e-02f,+7.25549459e-02f,-6.92678690e-02f,-4.56436127e-02f,
-9.13498700e-02f,+1.66277021e-01f,-4.13861722e-02f,-1.95900917e-01f,-9.84144509e-02f,
-3.12493742e-03f,+1.24887228e-01f,+6.07150793e-02f,+1.52117580e-01f,+1.37443006e-01f,
+5.41458726e-02f,-5.44395596e-02f,-8.60408992e-02f,+7.98656046e-02f,-2.09022865e-01f,
+1.78276539e-01f,+1.56943440e-01f,-1.18666202e-01f,-1.27690271e-01f,+7.85296559e-02f,
+1.19909108e-01f,+1.31381810e-01f,+1.76979899e-02f,+7.23499954e-02f,+1.49583369e-01f,
-4.43914235e-02f,+1.36800766e-01f,+1.98732257e-01f,-1.68101251e-01f,+7.80970752e-02f,
+2.04217434e-01f,+1.75737739e-02f,+1.28498644e-01f,-1.49772212e-01f,+7.53740966e-03f,
-2.22335249e-01f,-5.05619198e-02f,-1.69181138e-01f,-2.00677559e-01f,+1.28811359e-01f,
-1.54907286e-01f,+9.98096168e-03f,-6.56946898e-02f,+1.60744786e-01f,+7.14979172e-02f,
-7.74601251e-02f,-2.05629289e-01f,+1.22682363e-01f,-1.79198846e-01f,+2.01098680e-01f,
-2.17965588e-01f,+2.03836620e-01f,-1.60808444e-01f,+8.93813372e-03f,+2.10932702e-01f,
-1.63885877e-01f,+1.57969832e-01f,-1.14497945e-01f,+2.43082494e-02f,+3.87175977e-02f,
-1.20027892e-01f,+5.02812862e-03f,+8.00412595e-02f,+1.45203531e-01f,+8.71615112e-02f,
+1.70280635e-02f,-2.04248026e-01f,+6.70158565e-02f,-1.42477587e-01f,-4.96499538e-02f,
-8.38471651e-02f,+7.58118033e-02f,-1.86629951e-01f,-9.60764587e-02f,+8.51345062e-03f,
-1.37861028e-01f,-1.37959555e-01f,+1.60532236e-01f,+1.55172050e-02f,-4.38706130e-02f,
+1.13428712e-01f,-2.09426135e-02f,-8.64055008e-02f,+4.98605371e-02f,+1.06068313e-01f,
+1.72564089e-02f,-3.25793922e-02f,-7.46205449e-04f,+2.22432584e-01f,+9.25806165e-03f,
-1.82995409e-01f,-3.72649878e-02f,+1.16000116e-01f,-9.33753997e-02f,-1.47592664e-01f,
-4.12548631e-02f,+2.85016596e-02f,+6.50977492e-02f,-1.82465330e-01f,-1.40823483e-01f,
+1.97236806e-01f,+8.44219625e-02f,-1.25092432e-01f,+6.31482899e-02f,-1.96979851e-01f,
+1.31203532e-01f,+1.49264991e-01f,-6.53189421e-03f,-1.85719281e-02f,-3.22094560e-03f,
-4.76792753e-02f,-4.26808596e-02f,-4.80988473e-02f,+1.76089585e-01f,-1.61699712e-01f,
-1.68001667e-01f,+1.39260679e-01f,-1.62806734e-01f,-1.59718424e-01f,-2.01436147e-01f,
+1.83028311e-01f,+6.71580434e-02f,+1.68876261e-01f,+1.90892190e-01f,-1.60586506e-01f,
-1.39781326e-01f,+6.15495741e-02f,+9.03376937e-03f,+1.72026455e-01f,-2.09751219e-01f,
+7.57379234e-02f,+8.56658518e-02f,-2.21220121e-01f,+9.86085534e-02f,-6.97373450e-02f,
-2.03383684e-01f,+6.94352090e-02f,+1.70695752e-01f,+1.98471874e-01f,-1.01260468e-01f,
+2.14912564e-01f,+1.45218223e-02f,+1.15745753e-01f,-9.66934860e-02f,+1.76260769e-02f,
-1.42139703e-01f,+9.65702832e-02f,+5.25906682e-03f,-1.45604700e-01f,+1.73117757e-01f,
-5.61468303e-02f,+1.31074846e-01f,+1.33224577e-02f,+1.36128664e-01f,-1.95364222e-01f,
+1.54134899e-01f,-2.67210007e-02f,+1.64373219e-02f,-2.61223465e-02f,-1.55396521e-01f,
-1.39187813e-01f,+7.79303908e-02f,+7.46668279e-02f,+1.56819046e-01f,-7.76151419e-02f,
-1.59723014e-01f,-2.15848088e-02f,-1.73769817e-01f,+1.87392145e-01f,+1.42222285e-01f,
