#include <math.h> 
 #include <string.h> 
#include "./include/k2c_include.h" 
#include "./include/k2c_tensor_include.h" 

 


void torbeam_EC5_xmode(k2c_tensor* input_1_4_input, k2c_tensor* dense_3_4_output) { 

float dense_output_array[120] = {0}; 
k2c_tensor dense_output = {&dense_output_array[0],1,120,{120,  1,  1,  1,  1}}; 
float dense_kernel_array[1680] = {
-9.38328728e-02f,+1.10256299e-01f,+1.18199632e-01f,+1.87691316e-01f,-8.28441083e-02f,
+9.20297354e-02f,-3.58556509e-02f,+8.18543285e-02f,+9.31815058e-02f,-1.59830898e-02f,
-9.88862216e-02f,+2.03069016e-01f,+1.91256598e-01f,+1.78823128e-01f,+1.36093244e-01f,
-1.81380913e-01f,-9.13077891e-02f,-7.72119313e-02f,+1.96337745e-01f,-1.99721947e-01f,
+8.08974355e-02f,-1.26544163e-01f,+1.40068874e-01f,-8.96397009e-02f,-4.49134856e-02f,
-1.75537914e-01f,-2.11095750e-01f,-1.97668374e-01f,-3.87927145e-02f,-2.49869525e-02f,
-2.64865905e-02f,-1.58657357e-01f,-1.89922005e-02f,+1.11321256e-01f,-7.16600418e-02f,
-9.09454077e-02f,+1.25216827e-01f,+7.40504116e-02f,-2.96153128e-03f,+1.79862395e-01f,
-1.44517004e-01f,+1.14003584e-01f,-1.32900387e-01f,-4.34273183e-02f,+1.36945501e-01f,
-1.49608254e-01f,+2.01455250e-01f,+5.88100702e-02f,-1.36651263e-01f,-4.71416265e-02f,
+1.89979866e-01f,-1.51953176e-01f,+1.69057384e-01f,-1.30250633e-01f,+1.01699725e-01f,
+3.61718237e-03f,+1.86241135e-01f,-1.04493417e-01f,+1.93527147e-01f,-1.85363546e-01f,
-6.21354878e-02f,-1.29207075e-01f,-7.46413916e-02f,-7.80290812e-02f,+1.77992061e-01f,
-1.89889595e-01f,+1.07893750e-01f,-6.87016845e-02f,+2.06927404e-01f,+1.66200891e-01f,
+1.78568825e-01f,-1.17763296e-01f,-2.66591758e-02f,+8.34792703e-02f,+1.49095163e-01f,
-9.68330503e-02f,-1.26764625e-01f,+1.53891876e-01f,+1.69301316e-01f,-1.26635224e-01f,
+1.24779060e-01f,-1.45196617e-01f,+1.39679894e-01f,+1.33663043e-01f,+8.43197852e-02f,
+7.96393007e-02f,-2.03504354e-01f,-3.53780389e-02f,+4.40417677e-02f,-5.30945510e-02f,
-3.78407538e-03f,+1.92436740e-01f,-2.53996253e-03f,+9.92508382e-02f,-1.39126867e-01f,
-5.60033321e-03f,+4.83055413e-03f,+6.05818182e-02f,-4.37401086e-02f,-1.91587195e-01f,
-9.93871912e-02f,+2.43610144e-02f,-1.64800286e-02f,-5.26906401e-02f,-8.57351571e-02f,
+9.03738588e-02f,+2.07996815e-02f,-2.06256911e-01f,+1.69653192e-01f,-1.65975839e-02f,
-4.40342426e-02f,+2.29905248e-02f,+9.57018584e-02f,-1.16867095e-01f,+4.97762710e-02f,
+1.15834668e-01f,+6.62697703e-02f,+1.21061668e-01f,-8.15906674e-02f,+2.05728561e-02f,
+1.13290235e-01f,+2.70538926e-02f,+5.64667434e-02f,-1.40008718e-01f,+4.60436791e-02f,
-8.76072645e-02f,-1.97123051e-01f,+1.41114339e-01f,+3.86011153e-02f,+1.93378076e-01f,
-1.71426117e-01f,+1.25908300e-01f,+7.82297701e-02f,-3.94198596e-02f,-1.28683060e-01f,
-3.85392010e-02f,+6.48992509e-02f,-8.47241282e-03f,-1.28550708e-01f,-7.62534887e-02f,
-1.81650221e-02f,+1.72380671e-01f,+1.73019990e-01f,-1.14884451e-01f,-2.11135209e-01f,
-1.33478045e-01f,-1.75324559e-01f,+1.95498094e-01f,-9.85820591e-02f,+1.15358725e-01f,
-1.64393604e-01f,+8.19463879e-02f,+9.14178640e-02f,-9.51178893e-02f,+8.38444382e-02f,
-1.74367368e-01f,-6.22685254e-02f,+1.03500143e-01f,-7.33336210e-02f,+2.03041628e-01f,
+2.51454711e-02f,-4.02936488e-02f,-7.79647529e-02f,+1.60078987e-01f,+5.20735830e-02f,
+1.38089553e-01f,-1.56858101e-01f,-1.08713828e-01f,-1.85104892e-01f,-7.07058311e-02f,
-1.13721937e-02f,+1.28926978e-01f,-1.57153085e-01f,+1.89258322e-01f,-2.03485832e-01f,
-1.29811019e-02f,+6.77638799e-02f,+7.10124522e-02f,+7.41225481e-03f,-2.15193033e-02f,
+5.13210744e-02f,-1.34103984e-01f,-2.06659719e-01f,-1.19785041e-01f,+1.85991377e-02f,
+1.97835103e-01f,-2.86533684e-02f,+1.42262146e-01f,-1.87972277e-01f,+1.74986646e-01f,
+8.89054388e-02f,-1.81770772e-02f,-9.58791375e-03f,-1.65845811e-01f,-1.31555378e-01f,
+1.59940258e-01f,-1.83480695e-01f,+2.09370062e-01f,-8.21531415e-02f,-1.23210207e-01f,
-1.92325741e-01f,+1.15590259e-01f,-1.04860090e-01f,+1.48412719e-01f,+1.82206169e-01f,
-8.92272219e-02f,+9.64584500e-02f,+1.44617304e-01f,-9.53755453e-02f,-3.92189622e-02f,
-7.34066963e-03f,+1.87662378e-01f,+3.58695239e-02f,+8.64424556e-02f,+5.96577376e-02f,
-1.61647394e-01f,+1.87114283e-01f,-7.81965256e-02f,+1.38467029e-01f,+1.26382604e-01f,
+8.79396945e-02f,-3.74849886e-02f,+1.47970185e-01f,+1.05532452e-01f,+1.72579601e-01f,
+1.30878553e-01f,-1.83895558e-01f,-9.70629007e-02f,+8.67444128e-02f,+8.61267596e-02f,
-1.22656159e-01f,-9.55946967e-02f,+1.38590887e-01f,+1.56619832e-01f,+4.93796915e-02f,
-1.51623085e-01f,-6.51843995e-02f,+1.05833873e-01f,+1.15309849e-01f,+1.53380707e-01f,
+1.96047127e-02f,+1.13346174e-01f,+1.44611970e-01f,-4.45903838e-03f,-1.22815132e-01f,
+1.21872202e-01f,-2.42926478e-02f,-1.02330260e-01f,-8.57362151e-03f,-8.76489878e-02f,
+1.14659026e-01f,+1.85075119e-01f,-1.87551230e-01f,-9.12536532e-02f,-1.59963012e-01f,
-1.86078340e-01f,+1.99142978e-01f,-1.50261223e-01f,+8.93291682e-02f,+1.40487656e-01f,
-1.44341737e-02f,-7.05792457e-02f,+1.73786685e-01f,+1.35795936e-01f,-7.45019019e-02f,
+1.48968235e-01f,+4.60817665e-02f,+1.10230818e-01f,-1.24448612e-01f,-1.89811498e-01f,
-1.30139098e-01f,+7.57777691e-03f,-2.29492784e-03f,-2.61186063e-02f,+1.88461393e-02f,
-1.22167349e-01f,+1.27524361e-01f,-9.63099822e-02f,-1.20053887e-01f,+1.62883684e-01f,
+1.73771605e-01f,+4.35814112e-02f,-1.08763576e-01f,-1.71021849e-01f,-2.07583606e-01f,
+1.07339367e-01f,+1.91987172e-01f,-9.25991610e-02f,-8.37243050e-02f,-5.14787734e-02f,
+1.75411120e-01f,-7.98431039e-03f,-1.17516741e-01f,-9.21949074e-02f,+1.04723260e-01f,
+2.05886468e-01f,-1.54750392e-01f,-1.24188691e-01f,-9.78850350e-02f,+9.33293998e-03f,
+1.02075592e-01f,+4.08585519e-02f,-1.67091578e-01f,-1.49561837e-01f,-9.99592021e-02f,
+1.69322982e-01f,-9.81773958e-02f,+1.24695674e-01f,+2.00193241e-01f,+1.53758690e-01f,
+1.89062163e-01f,+1.57704517e-01f,-8.94942060e-02f,-9.78173316e-02f,-2.54518539e-02f,
+1.61482692e-02f,+1.35568246e-01f,-7.81737268e-03f,+2.11377367e-01f,-1.24935754e-01f,
-2.03320518e-01f,-6.75236732e-02f,-1.82179227e-01f,+1.27961114e-01f,-1.84681714e-02f,
-1.76221013e-01f,-1.61268711e-02f,-2.29644477e-02f,+7.72402436e-02f,-2.50556618e-02f,
-4.48378175e-02f,-5.51449507e-02f,-1.96049571e-01f,-1.60308495e-01f,+1.16416410e-01f,
+7.38882869e-02f,+1.28744259e-01f,+1.43531814e-01f,-1.51499987e-01f,-1.31206214e-03f,
+3.12739611e-02f,-1.94690198e-01f,-7.95626193e-02f,+5.23119718e-02f,+7.94938654e-02f,
-2.01141119e-01f,+9.95044857e-02f,+1.38060644e-01f,-1.08890206e-01f,+1.50993213e-01f,
-1.63199455e-02f,-4.55871969e-02f,-1.29626781e-01f,-9.35645327e-02f,+1.56257436e-01f,
+1.59718677e-01f,+1.54681668e-01f,+9.58377272e-02f,+1.96629763e-03f,+1.11951679e-02f,
-1.97238982e-01f,-1.91558838e-01f,-1.18798584e-01f,-8.07325542e-03f,+1.41136095e-01f,
+1.87622502e-01f,-1.49041653e-01f,+1.42075107e-01f,+2.51301825e-02f,+7.02688247e-02f,
-4.29061651e-02f,+1.57532737e-01f,+1.07568249e-01f,+1.22127190e-01f,+3.19869220e-02f,
-5.09851724e-02f,-9.56679508e-02f,-1.22080274e-01f,+1.11044049e-02f,+7.31114298e-02f,
+7.49933273e-02f,+8.84536058e-02f,-1.93942219e-01f,+1.19078159e-03f,-6.94785714e-02f,
-1.95278540e-01f,+1.17231309e-02f,+1.18437245e-01f,-9.35877860e-03f,-4.21049148e-02f,
-6.12680912e-02f,-9.11110640e-03f,+8.42417628e-02f,+1.32838652e-01f,-6.87300861e-02f,
+2.09125116e-01f,-1.97307795e-01f,+1.54619232e-01f,+1.38774350e-01f,+4.31798548e-02f,
-1.42889291e-01f,-1.64830953e-01f,-5.94048649e-02f,-5.82736284e-02f,-1.71372592e-01f,
-3.40961516e-02f,+5.27931005e-02f,+1.01757035e-01f,+1.84737161e-01f,-1.54088944e-01f,
-1.73275322e-01f,+1.47563651e-01f,+2.08511785e-01f,-3.85378301e-02f,-3.23174745e-02f,
+1.58261970e-01f,+1.11089990e-01f,-1.33364633e-01f,+1.75522462e-01f,-1.45117268e-01f,
+9.64301974e-02f,-8.15316886e-02f,+2.02826098e-01f,+3.90478820e-02f,-8.77591148e-02f,
+1.60370454e-01f,-1.91360712e-04f,-1.97304010e-01f,+1.60528556e-01f,+2.07338616e-01f,
+1.41442224e-01f,-7.58394897e-02f,-1.37836486e-01f,+1.15786344e-02f,+1.30652890e-01f,
+2.01880172e-01f,-1.64064363e-01f,-1.48651153e-02f,+6.75001591e-02f,-1.26003176e-01f,
+4.11376357e-04f,+1.21064797e-01f,-2.19822824e-02f,+1.47493586e-01f,-2.15637982e-02f,
+1.88428596e-01f,+2.09249511e-01f,-1.82323426e-01f,+9.32545215e-02f,+5.96114546e-02f,
-1.10178739e-02f,+8.42265040e-02f,+9.98187512e-02f,-1.81366280e-01f,+6.79974258e-03f,
-2.00735837e-01f,-7.51781911e-02f,+1.31730035e-01f,-6.31256700e-02f,-9.34371948e-02f,
-4.18229997e-02f,-1.81180522e-01f,+6.94170743e-02f,+5.74481934e-02f,+1.07341036e-01f,
+1.89535394e-01f,-1.11763097e-01f,-1.31328553e-02f,-7.25580752e-03f,+1.08397469e-01f,
+9.72160250e-02f,-3.80399376e-02f,-9.22975689e-02f,+1.47169635e-01f,+3.84557396e-02f,
-1.90079391e-01f,-1.97536796e-01f,-1.27526820e-01f,+1.78226084e-02f,-1.46123096e-01f,
-9.10965502e-02f,+1.95758328e-01f,-1.32080317e-01f,+2.04777107e-01f,-6.57552481e-02f,
+7.88678080e-02f,+1.11696914e-01f,-6.75660372e-03f,-1.14913359e-01f,-1.99187070e-01f,
+1.54655710e-01f,-1.57160342e-01f,+2.42904872e-02f,+1.71665102e-02f,-4.39597666e-03f,
-1.09835036e-01f,-1.06805854e-01f,-4.18840945e-02f,-7.90090859e-03f,-1.46089494e-03f,
-7.35312849e-02f,-1.95055753e-02f,+1.67631507e-02f,-4.15634364e-02f,-1.17866263e-01f,
+9.94012803e-02f,-5.58479279e-02f,+5.19599169e-02f,+1.82968363e-01f,-6.24958575e-02f,
-4.66364622e-02f,+4.56840545e-02f,-3.16379070e-02f,-1.78973570e-01f,+1.14129469e-01f,
+3.08514386e-02f,+2.20308602e-02f,+6.45755082e-02f,-5.23068756e-02f,+1.39357373e-01f,
+4.42577451e-02f,+8.82965326e-03f,-4.20163274e-02f,-1.24548145e-01f,+4.39815223e-03f,
-4.67044711e-02f,-6.12885207e-02f,+2.00149521e-01f,+6.25920743e-02f,-7.39850402e-02f,
-1.10492557e-02f,-1.74640864e-01f,-2.05726579e-01f,+7.38117546e-02f,-8.29265863e-02f,
-1.69551075e-01f,-3.18835974e-02f,-4.20304090e-02f,+2.59346515e-02f,-4.16377038e-02f,
-3.34936231e-02f,+1.70727476e-01f,+1.44075915e-01f,+1.13890573e-01f,+3.28770727e-02f,
-1.87296912e-01f,-4.68371511e-02f,+3.35421562e-02f,-1.96217164e-01f,+2.41030753e-03f,
-1.47772714e-01f,+1.25837550e-01f,-1.99892372e-01f,+8.47396106e-02f,+1.05762854e-01f,
+1.19912729e-01f,-1.60434663e-01f,+1.95829496e-01f,-1.22064635e-01f,-1.38600111e-01f,
+9.75629538e-02f,-1.24047734e-01f,-1.40516102e-01f,-1.93317890e-01f,+1.54690593e-02f,
-1.89930812e-01f,+1.14410415e-01f,-1.52944580e-01f,+5.13630062e-02f,+4.08956259e-02f,
-3.59077603e-02f,-1.26652539e-01f,+3.81866992e-02f,+9.49457139e-02f,-2.09229693e-01f,
-7.21074641e-03f,-2.20883787e-02f,+3.00887376e-02f,-7.13282824e-02f,+1.76461786e-02f,
-1.64333463e-01f,-5.68881631e-02f,-5.18205315e-02f,+6.70139641e-02f,+1.36767045e-01f,
-1.12700664e-01f,+4.89906818e-02f,-3.18846107e-03f,+1.46005005e-02f,-9.94984880e-02f,
+6.85210526e-03f,+1.79322228e-01f,-3.09306979e-02f,+1.31409481e-01f,-1.07300013e-01f,
+5.49836010e-02f,+5.20253181e-03f,+3.31718922e-02f,-1.81367695e-02f,-1.30607933e-01f,
+3.46953422e-02f,-1.00068070e-01f,-1.19227156e-01f,-6.54739290e-02f,+1.45439953e-02f,
+5.82301468e-02f,+1.09154478e-01f,-1.28617108e-01f,+1.90177575e-01f,-1.04554862e-01f,
+1.81207523e-01f,-1.21787190e-03f,-2.03391597e-01f,+1.92807600e-01f,-1.88770503e-01f,
-6.95234686e-02f,+1.64672896e-01f,-1.64047420e-01f,-3.47460955e-02f,-6.12065494e-02f,
-5.96399605e-02f,-1.02508649e-01f,-1.83062673e-01f,+6.49534911e-02f,-7.13369101e-02f,
+1.78162083e-01f,+6.68631345e-02f,-8.52604657e-02f,-8.42206180e-03f,-1.35141701e-01f,
+1.36496618e-01f,-1.43920690e-01f,-5.94821572e-02f,-4.23388183e-03f,-9.93672162e-02f,
+1.39441654e-01f,-1.41934216e-01f,-3.32215428e-02f,+9.33089405e-02f,+2.00532988e-01f,
+1.16537049e-01f,-5.28690368e-02f,+1.22215644e-01f,+2.03141972e-01f,+2.40494758e-02f,
+6.50882274e-02f,+2.19532698e-02f,+7.24652857e-02f,-8.50435346e-02f,-1.74293160e-01f,
-1.59613892e-01f,+1.43471226e-01f,-1.88566238e-01f,+5.53720742e-02f,-6.55318499e-02f,
-1.73919067e-01f,+2.01911226e-01f,-9.30012017e-02f,-9.95334536e-02f,+3.65727544e-02f,
-1.00996107e-01f,+8.17143768e-02f,+7.92243034e-02f,-6.47733808e-02f,+6.85936660e-02f,
-8.25115889e-02f,+5.95742315e-02f,+1.34837732e-01f,-1.99636176e-01f,-1.91075981e-01f,
-1.91126183e-01f,-2.97911316e-02f,+5.51367849e-02f,-1.02816753e-01f,-1.80818886e-01f,
+9.19410586e-03f,-9.71003324e-02f,+2.59536207e-02f,+3.63604724e-03f,-7.70452023e-02f,
+1.06971696e-01f,+1.04009807e-02f,+1.57194719e-01f,+6.36552125e-02f,-1.09679446e-01f,
-2.00819895e-01f,-1.02929205e-01f,-1.04286216e-01f,-1.41526371e-01f,+1.29005477e-01f,
-6.86044693e-02f,+8.43731910e-02f,-1.98994145e-01f,-1.49566233e-01f,+4.64940816e-02f,
-2.79206783e-02f,+2.41209269e-02f,+9.73943621e-02f,+3.23103517e-02f,+1.82672277e-01f,
+1.06938019e-01f,-8.81062448e-03f,-2.55276263e-02f,+1.97370067e-01f,-5.12088686e-02f,
-2.08780080e-01f,-1.92918524e-01f,-8.80067274e-02f,-1.31447226e-01f,-1.18091725e-01f,
+1.73165932e-01f,+1.44826069e-01f,+1.48407534e-01f,-3.73069495e-02f,-4.17683125e-02f,
-7.72540122e-02f,-4.35678810e-02f,-1.89700097e-01f,-1.27829179e-01f,+1.57133624e-01f,
-9.30251628e-02f,-1.36656702e-01f,-1.78212136e-01f,-1.42609641e-01f,-1.51703507e-01f,
+8.04825276e-02f,+9.90092605e-02f,-1.34065181e-01f,-1.84041798e-01f,+7.42638111e-03f,
-1.87371522e-01f,+1.64728165e-02f,+2.07703933e-01f,-1.18310630e-01f,+1.13274232e-01f,
-1.80299059e-01f,+5.63257486e-02f,+5.32153696e-02f,+1.87702075e-01f,-2.01308653e-01f,
+2.06777856e-01f,-1.57949299e-01f,-9.56715345e-02f,-1.04856156e-01f,+2.99782455e-02f,
-5.98551333e-03f,-9.44876671e-02f,-1.19255111e-01f,-2.99443454e-02f,+5.99081069e-02f,
-4.03866321e-02f,-2.61735916e-03f,+1.24354556e-01f,+8.32129568e-02f,+3.74804437e-03f,
-2.17037499e-02f,-1.61787137e-01f,+1.72187388e-03f,+2.02893242e-01f,+1.57345667e-01f,
+4.30041403e-02f,+1.84817478e-01f,+1.22604653e-01f,-3.85597348e-02f,+1.08962312e-01f,
+1.99716434e-01f,+1.52222797e-01f,+1.45019844e-01f,+1.63895503e-01f,+9.79325175e-03f,
-1.62444204e-01f,-1.62769914e-01f,-6.58337921e-02f,+7.78411329e-03f,+1.45830527e-01f,
+2.19468623e-02f,-1.36404097e-01f,-9.30470079e-02f,-7.26204067e-02f,+1.17253706e-01f,
+5.94563633e-02f,+2.39315778e-02f,-1.51897475e-01f,+1.93629429e-01f,-8.07434022e-02f,
-7.42156953e-02f,-2.09190100e-01f,-1.88338652e-01f,+5.82839996e-02f,+9.74007696e-02f,
+4.45438772e-02f,-1.45467639e-01f,+1.81777611e-01f,-3.28108221e-02f,+1.45328939e-02f,
-2.46887952e-02f,+2.08341435e-01f,+9.36991721e-02f,+1.07364222e-01f,-1.81443870e-01f,
-1.30898178e-01f,+5.85414022e-02f,+2.62982994e-02f,+2.03536943e-01f,-1.92707136e-01f,
+1.94732994e-02f,+6.82648271e-02f,+8.65725726e-02f,-1.71378896e-01f,-3.44271064e-02f,
+2.51191854e-02f,+6.19387627e-03f,-4.19420153e-02f,-4.83355820e-02f,-1.58371612e-01f,
+1.32855490e-01f,-1.57513052e-01f,+7.05053359e-02f,+2.04694673e-01f,+1.83400229e-01f,
-1.77336514e-01f,+4.10838574e-02f,-1.26916170e-02f,-5.28408289e-02f,+1.28181428e-02f,
-9.29859281e-03f,-1.77669182e-01f,+8.23223442e-02f,+8.24354440e-02f,+1.87597141e-01f,
-1.99480042e-01f,-4.80714738e-02f,+1.98159590e-01f,+6.82461113e-02f,-3.45160067e-03f,
+1.97020695e-01f,+8.30342919e-02f,-2.85276473e-02f,+2.45214999e-02f,+8.89330059e-02f,
+4.03477997e-02f,+1.74293071e-02f,-5.37710339e-02f,-1.22036427e-01f,+1.65533468e-01f,
-9.59776640e-02f,+4.64580208e-02f,+6.71778768e-02f,+2.04344764e-01f,-2.07985893e-01f,
-9.05692503e-02f,+1.70385525e-01f,-6.86455369e-02f,+1.52767852e-01f,+3.51802260e-02f,
+1.86335579e-01f,+1.51536211e-01f,+1.27475709e-02f,-1.58805847e-02f,+4.24443632e-02f,
-1.15568608e-01f,-1.65594473e-01f,-1.06483251e-02f,-3.36454809e-02f,+7.08781034e-02f,
-1.90922469e-01f,-1.86844721e-01f,+1.74559876e-01f,+5.10994345e-02f,-4.11784500e-02f,
+6.87910765e-02f,+1.73817560e-01f,+1.15626886e-01f,-1.55270681e-01f,+1.69344947e-01f,
-1.47020042e-01f,+1.84617385e-01f,+5.12647182e-02f,-1.99340492e-01f,-1.48305327e-01f,
-7.09058344e-03f,-1.77338779e-01f,-1.29369736e-01f,+1.41691551e-01f,-4.85806167e-03f,
+1.07996926e-01f,+1.50102660e-01f,+1.07176170e-01f,-1.30096525e-01f,+5.78314811e-02f,
+1.37783960e-01f,+1.33639738e-01f,-9.02719423e-02f,-1.39945924e-01f,+1.20229706e-01f,
+1.54518113e-01f,+8.73994082e-02f,-1.61529139e-01f,+5.11192232e-02f,-1.40761286e-02f,
-1.06039770e-01f,+3.33515555e-02f,+1.74473122e-01f,+2.57725120e-02f,+9.92233902e-02f,
-4.79211360e-02f,+8.33784789e-02f,+1.12964913e-01f,+4.15064842e-02f,+1.06839553e-01f,
-7.28821903e-02f,-1.15601450e-01f,+1.44637331e-01f,+1.71230718e-01f,+6.18005842e-02f,
-1.43674850e-01f,-6.80805445e-02f,+1.42302200e-01f,-7.55025297e-02f,-4.42551672e-02f,
+8.89131278e-02f,-1.30061209e-02f,-1.46714300e-02f,+1.46612272e-01f,-7.18315691e-02f,
+1.46580189e-02f,+4.16658968e-02f,+2.00679138e-01f,+9.16727036e-02f,-2.39085704e-02f,
+7.56364316e-02f,-1.47672921e-01f,+4.52456921e-02f,-1.13809861e-01f,-1.47358179e-01f,
-3.91890407e-02f,+1.78418115e-01f,+2.00377151e-01f,+5.42355925e-02f,+5.39792925e-02f,
+4.07401770e-02f,-1.55342013e-01f,+1.35319993e-01f,-4.77366298e-02f,-5.38613498e-02f,
+9.56173986e-02f,+1.91062197e-01f,-1.36589825e-01f,-6.17626160e-02f,+9.07955617e-02f,
-8.39943737e-02f,-7.91163892e-02f,-4.49265093e-02f,-1.20195553e-01f,+1.35732874e-01f,
-1.15672633e-01f,+1.13177016e-01f,-2.04887599e-01f,-6.05476648e-02f,-8.65526050e-02f,
+2.05881462e-01f,+8.35094303e-02f,+3.14521492e-02f,+1.64866447e-04f,-1.78118944e-01f,
-5.45601845e-02f,+1.17502376e-01f,+5.24172932e-02f,-1.30588859e-01f,-7.80535042e-02f,
-7.06508309e-02f,-7.82300681e-02f,-1.73325166e-01f,-2.35017389e-02f,+1.37004256e-02f,
+1.05999961e-01f,+1.21131137e-01f,+2.92095393e-02f,+8.72749537e-02f,+1.24326125e-01f,
-1.99299157e-02f,+5.02080768e-02f,+2.02572450e-01f,-4.38628644e-02f,-1.40823901e-01f,
-6.84585720e-02f,-1.11613408e-01f,-7.76420236e-02f,-1.42180771e-01f,-1.12014845e-01f,
-6.97451979e-02f,+2.80004442e-02f,-1.26403004e-01f,-5.85128516e-02f,-2.05454081e-02f,
+1.12726077e-01f,-2.47924626e-02f,+2.00609252e-01f,+2.94183493e-02f,+1.03066266e-02f,
-1.64182514e-01f,+1.89549610e-01f,+1.50769576e-01f,+1.20117769e-01f,+4.41031009e-02f,
-2.04972401e-01f,+7.80507773e-02f,-4.11103517e-02f,+3.37070227e-02f,+1.58655241e-01f,
-7.48221576e-02f,-1.53298676e-01f,+2.03708276e-01f,-7.14169145e-02f,-2.00776204e-01f,
-1.77045673e-01f,+7.56529719e-02f,-2.07684606e-01f,+1.57189295e-01f,-1.36707574e-01f,
+3.56053710e-02f,+6.83571249e-02f,+1.64290026e-01f,+1.56482592e-01f,-6.06357455e-02f,
+1.02657720e-01f,-1.41818166e-01f,-1.67354986e-01f,-1.90194875e-01f,-1.98016122e-01f,
+1.19679049e-01f,+4.84034270e-02f,+9.44384784e-02f,-1.85808122e-01f,-1.76519826e-01f,
+9.68660563e-02f,+7.35168010e-02f,+1.30421773e-01f,+2.09414586e-01f,-1.72544196e-01f,
+1.15986541e-01f,+1.48250178e-01f,+2.05970421e-01f,-1.97636783e-02f,+7.31328875e-02f,
+5.33675998e-02f,-1.80697307e-01f,-7.93834627e-02f,+1.98951617e-01f,-1.53816909e-01f,
-4.08726782e-02f,+3.62696499e-02f,-9.54788104e-02f,+2.02855274e-01f,+3.41439694e-02f,
-6.15963787e-02f,-1.37817770e-01f,-6.21160120e-02f,+1.51526824e-01f,+1.46852806e-01f,
+1.47422254e-02f,+8.16950351e-02f,+1.61949500e-01f,-2.89381146e-02f,-1.82429969e-01f,
-2.85812318e-02f,+1.16421118e-01f,+1.57497302e-01f,+1.67175040e-01f,-5.28608710e-02f,
+1.33790925e-01f,-3.71511579e-02f,-1.74752444e-01f,-2.01075926e-01f,-1.90276906e-01f,
-2.10027173e-01f,+1.45199105e-01f,-1.58607110e-01f,-6.02985471e-02f,-1.05353296e-02f,
-8.37020576e-03f,-1.21692158e-01f,-4.52851504e-02f,+6.93535656e-02f,+3.77938151e-03f,
+3.84986848e-02f,-2.91426927e-02f,-1.66797712e-01f,-1.39453322e-01f,-1.44282460e-01f,
+2.10941836e-01f,-1.21499285e-01f,+1.24349967e-01f,-1.46572143e-01f,-9.94390547e-02f,
+1.46244183e-01f,+2.16022432e-02f,-1.50402039e-01f,+1.39920399e-01f,-1.72613055e-01f,
-2.10850313e-01f,+1.61789104e-01f,-3.87842357e-02f,+9.10836309e-02f,+1.92466542e-01f,
-8.81290212e-02f,+1.90866306e-01f,+6.44883960e-02f,+1.56300232e-01f,+1.87459007e-01f,
-1.75088555e-01f,-1.09384567e-01f,-1.44709736e-01f,-1.96962476e-01f,+2.36558765e-02f,
+1.34728715e-01f,+1.20872483e-01f,+1.57901511e-01f,-1.59197435e-01f,+2.10227057e-01f,
-1.53068036e-01f,-1.06012672e-02f,+1.90321967e-01f,-7.88350701e-02f,-2.10142791e-01f,
+6.24211282e-02f,-1.34226114e-01f,-1.76089942e-01f,-1.64631128e-01f,+6.78858012e-02f,
+1.46228835e-01f,+1.95191577e-01f,-1.09852850e-02f,-1.01629958e-01f,-6.31276965e-02f,
+6.86737746e-02f,+9.98970866e-03f,+9.03185457e-02f,+1.87036082e-01f,+1.24083653e-01f,
-7.93364048e-02f,-5.23573756e-02f,-5.14164269e-02f,-7.78016448e-02f,-5.58199286e-02f,
-6.84993267e-02f,+7.39488751e-02f,-1.28913194e-01f,-1.07420892e-01f,-8.39042664e-03f,
-9.04755592e-02f,-5.08728176e-02f,-3.36077809e-02f,+1.00839242e-01f,+4.40227836e-02f,
-6.47382587e-02f,+2.73599327e-02f,+1.83689311e-01f,+1.35089412e-01f,+1.42619118e-01f,
-4.54452783e-02f,-1.39790684e-01f,+1.65961698e-01f,+1.61824226e-02f,-1.47770345e-01f,
-9.51000825e-02f,-2.78604478e-02f,+1.72501728e-01f,+4.05928642e-02f,-1.91206396e-01f,
-7.20081031e-02f,+1.06848732e-01f,+4.89337742e-03f,+2.04491511e-01f,+8.01133960e-02f,
-1.93262398e-01f,-2.14033127e-02f,-3.85299325e-03f,-7.97597766e-02f,-9.84594673e-02f,
+6.21670634e-02f,+1.95569173e-01f,-5.70748150e-02f,+4.71564084e-02f,-8.68894085e-02f,
-8.86452273e-02f,+7.85063356e-02f,-3.60687971e-02f,+1.69876516e-02f,+1.77350447e-01f,
+1.19730338e-01f,+1.23470172e-01f,+5.16653806e-02f,-2.09126920e-02f,+4.76664454e-02f,
+7.89140910e-02f,-9.18227881e-02f,+1.12177536e-01f,-9.72494185e-02f,+1.94395199e-01f,
+1.40591279e-01f,+1.91284120e-02f,-1.11234933e-01f,-1.52401984e-01f,+1.41481474e-01f,
+1.01598486e-01f,+1.02583125e-01f,-1.39936477e-01f,+2.05305114e-01f,-1.91452488e-01f,
-4.54826206e-02f,-8.46261531e-02f,+1.19892955e-02f,+1.71791568e-01f,+9.50336903e-02f,
+3.77946049e-02f,+1.82658657e-01f,-2.09978640e-01f,-1.21768236e-01f,+1.44987866e-01f,
-1.32124811e-01f,+2.18111277e-03f,-2.29585916e-02f,+1.47867218e-01f,-1.01197802e-01f,
+8.06625336e-02f,+1.90910846e-02f,-1.30005747e-01f,+1.81225881e-01f,+2.78701335e-02f,
+1.55236319e-01f,+3.75292301e-02f,+1.35307714e-01f,+1.14595786e-01f,-1.57359630e-01f,
+1.23620257e-01f,+9.61150378e-02f,+2.29461938e-02f,+1.40735880e-01f,+1.67264923e-01f,
+1.28826797e-02f,-2.00128973e-01f,+2.34460980e-02f,-1.85360178e-01f,+1.49483904e-01f,
+1.54752210e-01f,+1.91503182e-01f,-1.68908849e-01f,-1.23971403e-02f,+1.51653245e-01f,
+1.56897351e-01f,-9.99252498e-02f,-1.21044077e-01f,+1.66995481e-01f,+1.67712077e-01f,
+2.07311213e-02f,-1.12367943e-01f,-1.80901378e-01f,-6.36581331e-02f,+1.26133263e-02f,
+1.09199956e-01f,-1.95533320e-01f,-8.35557282e-03f,+1.42555967e-01f,+4.55229729e-02f,
-5.96598387e-02f,-1.32283390e-01f,+5.93279749e-02f,+3.57613117e-02f,-1.99890405e-01f,
+1.43281952e-01f,-9.14449617e-02f,+1.96569860e-02f,+1.52801916e-01f,-5.58265299e-02f,
-6.84302151e-02f,+1.47579238e-01f,-1.80566937e-01f,-5.11059016e-02f,+7.44689554e-02f,
-7.72046298e-02f,-7.75349140e-02f,-1.21443033e-01f,+1.69136181e-01f,+2.06957057e-01f,
+1.41590640e-01f,+3.55186909e-02f,+1.63594559e-01f,+5.74336201e-02f,-8.86122286e-02f,
+8.35639685e-02f,+1.14851817e-01f,-6.56654835e-02f,+2.07243487e-01f,+5.44361621e-02f,
-4.38974202e-02f,-1.58713400e-01f,-1.84164912e-01f,-1.82368323e-01f,-6.80265129e-02f,
+8.93832743e-03f,-1.29155874e-01f,-1.34232521e-01f,-1.98934674e-01f,-2.07142919e-01f,
-2.09736630e-01f,-1.90946072e-01f,+9.80110019e-02f,-1.09228343e-02f,+1.82242140e-01f,
+1.39433905e-01f,-5.87932765e-03f,-1.43686906e-01f,+9.88817960e-02f,-3.78001481e-02f,
-1.22903824e-01f,+1.94845065e-01f,+4.81613129e-02f,+1.98204949e-01f,-1.73210353e-02f,
-7.46482015e-02f,-5.95933944e-02f,-5.34145534e-02f,-1.05374582e-01f,-1.91165626e-01f,
+8.60885531e-02f,+2.60628462e-02f,-2.30554640e-02f,-7.98317641e-02f,+2.91091949e-02f,
-8.60004276e-02f,-1.85863763e-01f,-1.82984516e-01f,+9.72820073e-02f,-5.12038320e-02f,
-1.76867992e-01f,+2.45400667e-02f,-7.37525076e-02f,-1.95164233e-02f,+1.17120460e-01f,
+4.63132560e-03f,+2.40778327e-02f,-1.11334175e-02f,-3.59649807e-02f,+1.35986820e-01f,
+1.45241991e-01f,-4.77606505e-02f,-3.87377739e-02f,+9.14076418e-02f,+2.53379792e-02f,
+5.04544824e-02f,+2.09847704e-01f,+3.83837074e-02f,+8.22150856e-02f,-1.79032952e-01f,
-1.00274265e-01f,-6.30829930e-02f,+1.24537155e-01f,+1.30128250e-01f,+1.39996409e-02f,
+1.92866966e-01f,+2.08552107e-01f,+1.32566348e-01f,-1.56121254e-02f,-1.73259377e-01f,
+1.88059524e-01f,-1.45858333e-01f,-1.22716799e-01f,-5.81929982e-02f,-1.08465552e-04f,
-7.00875521e-02f,+6.53643459e-02f,+1.14495382e-01f,+1.51236787e-01f,+7.73868412e-02f,
+9.06110257e-02f,-2.03806102e-01f,+1.40303671e-02f,+1.55473098e-01f,-1.84177756e-02f,
-2.40312666e-02f,+6.43622726e-02f,+1.99266091e-01f,+1.23428553e-02f,+1.52436629e-01f,
+8.06240886e-02f,-2.01085061e-01f,-1.46955073e-01f,-5.77384382e-02f,-3.74376178e-02f,
+1.79928705e-01f,-6.11546785e-02f,+1.51186779e-01f,-1.37415886e-01f,-1.63355038e-01f,
+9.19432491e-02f,-5.17665446e-02f,+3.44919264e-02f,-2.06445247e-01f,+6.67910427e-02f,
-2.09501833e-01f,+1.43543586e-01f,-1.98555291e-01f,+1.35735944e-01f,-6.94322139e-02f,
+1.53064892e-01f,-1.07065573e-01f,-2.13974714e-03f,-1.47615105e-01f,+1.06973901e-01f,
+4.87083644e-02f,+1.08876690e-01f,-2.07493052e-01f,-8.69156942e-02f,-7.90425837e-02f,
-1.32990539e-01f,+1.98888198e-01f,+7.69969672e-02f,+3.02880108e-02f,-1.85473531e-01f,
-2.02435419e-01f,+6.28761500e-02f,-1.19089983e-01f,+4.44071144e-02f,+1.89978287e-01f,
-7.76907653e-02f,-1.94189474e-01f,+5.47130853e-02f,-1.19607046e-01f,-4.47989106e-02f,
-4.71749157e-02f,+1.68014064e-01f,+1.06880471e-01f,+3.38776410e-02f,+4.48988527e-02f,
-3.93482745e-02f,-1.56498045e-01f,-8.89210403e-03f,+1.28213719e-01f,+1.01632789e-01f,
-1.84257925e-02f,+6.41130954e-02f,-4.19822782e-02f,+6.70218021e-02f,+1.53517142e-01f,
-1.31962478e-01f,+1.15469322e-01f,+1.14870891e-01f,+1.85388029e-02f,+1.38300881e-01f,
+1.48512557e-01f,-1.61038563e-01f,-1.68115571e-01f,-8.62689763e-02f,-1.92126215e-01f,
+5.88982850e-02f,+1.38968185e-01f,+7.81393796e-02f,-1.89492494e-01f,-7.71748126e-02f,
+1.26054481e-01f,-9.72998664e-02f,+3.82843763e-02f,-1.48578614e-01f,+6.21676594e-02f,
+1.05082974e-01f,+2.06344262e-01f,-1.96199000e-01f,+6.27747923e-02f,+1.89756006e-02f,
-1.74891591e-01f,+6.65765852e-02f,-3.57504636e-02f,+1.50953963e-01f,+1.12769902e-02f,
+9.26842839e-02f,-1.04817808e-01f,+1.44296899e-01f,-3.03425938e-02f,-7.51274824e-02f,
-1.60490572e-01f,-8.65120441e-02f,-4.56587821e-02f,-5.06964922e-02f,-1.99019685e-01f,
+1.68989912e-01f,+5.89564294e-02f,+1.65078416e-01f,-1.37282401e-01f,-4.57741171e-02f,
-1.65508553e-01f,-1.30352497e-01f,+9.86526757e-02f,-6.21360391e-02f,-4.06303108e-02f,
+5.36868423e-02f,-7.24324882e-02f,-2.01616958e-01f,-4.96937931e-02f,+1.55739531e-01f,
-1.50589108e-01f,-1.24204457e-02f,-1.56142518e-01f,-4.07191515e-02f,+1.98222980e-01f,
-1.15447380e-01f,-1.40312493e-01f,+1.35246262e-01f,+1.66102812e-01f,+8.64218324e-02f,
+1.26319379e-02f,-9.92170274e-02f,-1.81086525e-01f,+1.71958223e-01f,-1.85891569e-01f,
-4.56901193e-02f,-1.22300789e-01f,+5.68501800e-02f,+8.03262740e-02f,+1.20851621e-01f,
-1.84901476e-01f,-1.40017807e-01f,+1.66215375e-01f,+8.93426090e-02f,+1.14795566e-02f,
+1.39208436e-02f,+3.39092314e-02f,-1.25298947e-01f,+5.13422489e-03f,-2.06333399e-02f,
-1.02586500e-01f,-7.96043873e-02f,+1.84683874e-01f,-2.09393203e-02f,+1.35735795e-01f,
+1.76139072e-01f,+7.20284134e-02f,+1.97873816e-01f,-1.57553315e-01f,-1.33373007e-01f,
+2.09220573e-01f,-7.20076859e-02f,+7.63057023e-02f,+1.83922037e-01f,+1.20311692e-01f,
+1.11396328e-01f,-1.32926971e-01f,+1.02713242e-01f,+3.65572125e-02f,+1.62221715e-01f,
+7.94465691e-02f,+1.09328404e-01f,+1.31302878e-01f,+6.86925650e-03f,-9.95478258e-02f,
-3.26682031e-02f,+8.81013274e-03f,-1.60359949e-01f,+1.46946356e-01f,+1.07017890e-01f,
+1.51743457e-01f,-1.77692592e-01f,+2.07329288e-01f,+1.14075378e-01f,+1.98717073e-01f,
+9.67521816e-02f,-2.03175113e-01f,+1.11885294e-01f,+1.02835014e-01f,-1.14366412e-03f,
-1.60505503e-01f,+1.09436527e-01f,+9.54091400e-02f,-1.47230774e-01f,-1.88447386e-02f,
+7.43281096e-02f,-3.19158882e-02f,-2.02225193e-01f,+1.62705645e-01f,+3.49620283e-02f,
+4.74927574e-02f,+1.19129643e-01f,-7.51938820e-02f,-6.17050380e-02f,-6.04234040e-02f,
+2.70132869e-02f,-6.08938485e-02f,-1.65115997e-01f,-1.91836163e-01f,+1.16044894e-01f,
-2.67125517e-02f,+1.48845598e-01f,-9.02510062e-02f,-1.53867915e-01f,-2.89221704e-02f,
+8.00719112e-02f,+3.36438566e-02f,-9.61200893e-02f,-1.48113370e-02f,-1.53225079e-01f,
-1.32241204e-01f,+1.29877910e-01f,+8.63391012e-02f,+1.65929094e-01f,-1.01434767e-01f,
+1.24145001e-02f,-1.38284892e-01f,-1.25278816e-01f,+4.65700179e-02f,-2.00276956e-01f,
+1.25682607e-01f,+1.42506614e-01f,-8.31874609e-02f,+7.42568523e-02f,-5.56162596e-02f,
+1.88371912e-01f,+1.68595448e-01f,+1.19320139e-01f,+8.94082338e-02f,+1.71791986e-01f,
-2.08200723e-01f,-1.23934776e-01f,+1.83666810e-01f,+4.83192354e-02f,+1.75206795e-01f,
-1.64627597e-01f,+1.92627117e-01f,+8.70562047e-02f,-2.05744997e-01f,-4.33327854e-02f,
+1.59490034e-01f,-7.25412071e-02f,-6.49519265e-02f,-1.19727425e-01f,+1.56667992e-01f,
-1.36739761e-01f,+1.49898604e-01f,-6.41973317e-02f,-4.84296679e-02f,+6.82630688e-02f,
-9.06485319e-03f,+1.80941597e-01f,-1.45355240e-01f,+7.94975907e-02f,+1.16665736e-01f,
-1.00243092e-02f,-2.84924358e-02f,-1.29200310e-01f,+1.49431005e-01f,+2.06569299e-01f,
+1.01855531e-01f,-7.33615756e-02f,-5.80907315e-02f,+7.03120232e-03f,+1.93399683e-01f,
+2.03632399e-01f,-8.17330331e-02f,+1.94057092e-01f,-1.63329750e-01f,+1.31885722e-01f,
-8.75127688e-02f,-2.02044100e-02f,+1.41093865e-01f,+2.73293108e-02f,+1.65223762e-01f,
+1.74467877e-01f,+5.16623110e-02f,-1.02409318e-01f,+1.28610209e-01f,-2.14737505e-02f,
-1.89300492e-01f,+1.79946110e-01f,-1.03664622e-01f,-2.05652118e-01f,+1.44649610e-01f,
+3.13069969e-02f,-3.71098965e-02f,-6.67623281e-02f,-1.53697133e-02f,+5.27664572e-02f,
}; 
k2c_tensor dense_kernel = {&dense_kernel_array[0],2,1680,{ 14,120,  1,  1,  1}}; 
float dense_bias_array[120] = {0}; 
k2c_tensor dense_bias = {&dense_bias_array[0],1,120,{120,  1,  1,  1,  1}}; 
float dense_fwork[1694] = {0}; 

 
float dense_1_output_array[120] = {0}; 
k2c_tensor dense_1_output = {&dense_1_output_array[0],1,120,{120,  1,  1,  1,  1}}; 
float dense_1_kernel_array[14400] = {
+3.36123407e-02f,+1.38332233e-01f,+7.49632865e-02f,-5.04067019e-02f,-1.72144622e-02f,
+1.57036230e-01f,+1.15742102e-01f,-1.53196797e-01f,-9.37075019e-02f,+1.35738552e-02f,
-7.11888373e-02f,-8.27015936e-02f,-1.57908052e-01f,+1.00777730e-01f,+1.28947541e-01f,
-5.73724434e-02f,-1.23826563e-02f,-3.79378349e-02f,-7.26201683e-02f,+2.61486173e-02f,
+1.34097040e-03f,+1.44462183e-01f,-8.16315114e-02f,-1.07685544e-01f,-2.99304724e-02f,
+1.18193850e-01f,-4.65591252e-03f,+1.01506308e-01f,-4.52237800e-02f,-1.32225350e-01f,
+9.15403664e-02f,+6.89507872e-02f,+1.01377621e-01f,+4.38962877e-03f,-1.52292028e-01f,
+1.06240407e-01f,-1.38781369e-02f,+1.57560989e-01f,+3.75280231e-02f,+1.54579267e-01f,
-1.44311249e-01f,-1.23838231e-01f,-1.02438152e-01f,-1.10342905e-01f,+1.40010104e-01f,
-1.08718142e-01f,+3.73255610e-02f,+6.53105974e-03f,-7.90398642e-02f,-8.49576592e-02f,
+6.23243600e-02f,-9.26931202e-03f,+1.25997767e-01f,+2.11124718e-02f,-1.49841622e-01f,
-1.22449532e-01f,-8.36408213e-02f,-4.34060171e-02f,-3.48964557e-02f,+6.92470819e-02f,
+1.44764110e-01f,+9.96939093e-02f,+1.34444997e-01f,+3.91356647e-02f,+1.54017136e-01f,
-8.83847550e-02f,+1.46088019e-01f,+7.07573891e-02f,-1.13756992e-01f,+1.30098805e-01f,
-1.45809636e-01f,-1.43334866e-02f,+7.87404031e-02f,-1.22784525e-02f,-6.80523142e-02f,
+5.59775680e-02f,+7.90189058e-02f,+9.74334329e-02f,+9.89767760e-02f,-5.13847545e-02f,
-1.54769003e-01f,-4.74558696e-02f,+5.37503809e-02f,+1.85379088e-02f,-6.45777583e-03f,
-1.52054012e-01f,-7.32638836e-02f,+2.11149603e-02f,-1.18428171e-01f,-1.12605006e-01f,
+1.36908486e-01f,+3.57033312e-02f,-1.55689865e-02f,+8.69208574e-02f,-4.86400723e-03f,
-1.69051290e-02f,+1.35607824e-01f,+1.41701952e-01f,+1.53847486e-02f,+1.26911953e-01f,
+1.55624852e-01f,+1.73478723e-02f,+6.35166913e-02f,-1.44423097e-01f,-1.32164419e-01f,
-1.08522117e-01f,+4.07462120e-02f,-1.07679099e-01f,-9.86241698e-02f,-1.88565999e-02f,
-1.09606683e-02f,-3.52247581e-02f,-4.29813191e-02f,-9.16176364e-02f,+1.21760368e-02f,
+1.19206145e-01f,-6.22308701e-02f,-1.37292683e-01f,-1.20529979e-02f,-3.97792682e-02f,
+1.44940153e-01f,-2.17814744e-03f,+1.34986922e-01f,+9.78529900e-02f,-1.46103829e-01f,
-9.14542973e-02f,+7.02379197e-02f,-3.02311182e-02f,-6.95177168e-02f,-1.28712028e-01f,
+5.95306903e-02f,-6.92415088e-02f,+7.45939612e-02f,+1.48755893e-01f,+1.34508356e-01f,
-3.44863087e-02f,+1.03144571e-01f,+1.51690856e-01f,+7.50142783e-02f,-1.19198486e-01f,
+9.23319608e-02f,+1.31084472e-02f,-1.37615040e-01f,+1.44363835e-01f,+7.73313046e-02f,
-6.00389615e-02f,-3.55919674e-02f,-3.86459380e-02f,+4.24866825e-02f,-1.29805222e-01f,
-4.34828401e-02f,-8.50811154e-02f,+1.44723132e-01f,+9.61033553e-02f,+8.41089487e-02f,
+1.48815647e-01f,+3.55726629e-02f,+1.26745567e-01f,+1.41583994e-01f,+1.28492251e-01f,
+1.36948809e-01f,+6.81862831e-02f,+8.72600228e-02f,+1.44344524e-01f,-1.99736506e-02f,
+1.45314142e-01f,-1.23639941e-01f,+4.98102158e-02f,+7.76908994e-02f,-9.88845527e-03f,
+6.59243017e-02f,-4.81714010e-02f,-3.54518890e-02f,+9.61333364e-02f,+8.90099704e-02f,
-3.24843228e-02f,-1.03029311e-02f,-3.55809256e-02f,+2.94156373e-03f,-4.95256782e-02f,
-1.30370155e-01f,-7.67289847e-02f,-1.28885210e-02f,+7.35968351e-03f,-1.00531615e-01f,
-3.26635987e-02f,+1.09458342e-01f,+6.91864789e-02f,+2.53666937e-02f,-1.48418218e-01f,
-6.70598149e-02f,-5.62770739e-02f,-8.32714140e-03f,+5.44939190e-02f,+4.82084155e-02f,
-1.25524998e-01f,+4.15721983e-02f,-1.05924740e-01f,-1.54643431e-01f,-1.10171795e-01f,
-1.50778890e-01f,+1.03904113e-01f,-8.31061229e-02f,+7.62625188e-02f,-7.51197338e-04f,
-5.23261726e-02f,-1.34103581e-01f,-5.95625415e-02f,+1.58070326e-02f,+1.43737495e-02f,
+1.04258433e-01f,+6.50875270e-02f,+1.30757913e-01f,-1.14885010e-01f,-5.25755733e-02f,
-2.18969285e-02f,+8.50239247e-02f,+1.22396842e-01f,+1.27352700e-01f,+1.43815234e-01f,
-1.26779214e-01f,-9.57024843e-02f,-1.43817529e-01f,+1.06096074e-01f,+8.09192955e-02f,
-1.04820773e-01f,-8.04377943e-02f,+8.07294250e-02f,-1.46540746e-01f,+5.68990409e-02f,
-1.89234316e-02f,-1.24712497e-01f,-1.00664541e-01f,-1.12414509e-02f,-1.47982404e-01f,
-3.59890759e-02f,+1.32479236e-01f,+2.09605992e-02f,-1.27404928e-03f,+1.29951969e-01f,
-7.64585063e-02f,+1.80540532e-02f,-2.34585255e-02f,-1.34438396e-01f,-1.07675023e-01f,
-3.39713618e-02f,+1.36477932e-01f,+9.78766829e-02f,+5.01700044e-02f,-1.11302435e-02f,
+1.49876788e-01f,+5.11239320e-02f,-8.15683752e-02f,+1.00891069e-01f,+1.26345456e-02f,
+1.41230479e-01f,-1.21737659e-01f,+1.49467513e-01f,+1.20632932e-01f,+1.83387101e-02f,
+6.38151020e-02f,-3.77186984e-02f,-8.47742632e-02f,-5.61593473e-02f,-7.94489533e-02f,
-1.54269248e-01f,-2.19338685e-02f,+3.12290341e-02f,+1.45209655e-01f,-9.94876027e-04f,
+1.10832885e-01f,-1.03024542e-01f,+9.60882753e-02f,-1.28783464e-01f,-1.44892007e-01f,
+1.46443471e-01f,+1.27325490e-01f,+1.34850010e-01f,-3.46729830e-02f,+7.90259540e-02f,
+2.99156308e-02f,-5.34107983e-02f,-7.39969462e-02f,+7.33562857e-02f,-1.60649270e-02f,
+1.27145663e-01f,+4.08556759e-02f,+3.61373723e-02f,-4.33734432e-02f,+8.71221274e-02f,
-1.43954486e-01f,-1.29867494e-02f,-1.09980628e-01f,-1.97633654e-02f,-1.53329939e-01f,
+3.95866334e-02f,+3.17809582e-02f,-5.38990125e-02f,+1.13723353e-01f,-8.19644183e-02f,
+1.12193003e-01f,-1.09305657e-01f,-2.59158015e-03f,+7.57553428e-02f,+4.63222414e-02f,
-1.38418943e-01f,-2.09960639e-02f,+6.32371306e-02f,+6.97495937e-02f,-5.86154014e-02f,
-5.87100163e-02f,+1.09099254e-01f,+1.28769472e-01f,+8.07291865e-02f,-1.08014151e-01f,
+1.13655284e-01f,+1.29814878e-01f,-2.44092196e-02f,+9.30842906e-02f,+1.39036879e-01f,
-1.06231064e-01f,-5.98822907e-02f,-5.95283136e-02f,-6.98259473e-03f,+1.51359931e-01f,
+8.20966214e-02f,-9.77345854e-02f,+3.02972347e-02f,-9.85500962e-02f,+4.78808284e-02f,
+1.35234997e-01f,-1.29860401e-01f,-3.03146541e-02f,-1.45619720e-01f,+1.12599134e-02f,
+6.25292063e-02f,-3.93428877e-02f,-1.53732851e-01f,-1.13441393e-01f,+3.13738286e-02f,
-4.61391807e-02f,+1.07839599e-01f,-3.34826186e-02f,+8.45121592e-02f,+2.91094184e-03f,
+1.24492571e-01f,-9.93502215e-02f,-1.52990371e-01f,+7.22808540e-02f,-8.17316398e-02f,
-1.42216817e-01f,-4.53102514e-02f,-1.17887408e-02f,-4.97476012e-02f,-1.56849474e-01f,
-1.54140368e-01f,+1.31912723e-01f,+9.60506052e-02f,-1.52129322e-01f,+6.05089366e-02f,
+2.24096477e-02f,+6.94109201e-02f,-1.33061662e-01f,+1.23524889e-01f,+8.22113305e-02f,
+1.52492866e-01f,-4.01789397e-02f,+8.70745480e-02f,+1.03816375e-01f,-1.29830137e-01f,
-6.24325871e-02f,+7.38460869e-02f,+1.13422915e-01f,+8.31008106e-02f,+1.21226355e-01f,
-8.27447176e-02f,+1.30612180e-01f,-1.09591439e-01f,-7.67311305e-02f,+7.68711418e-02f,
+8.41078460e-02f,+1.45827368e-01f,-1.42307818e-01f,+2.34068930e-02f,-2.09060907e-02f,
-2.45990604e-02f,+1.53877720e-01f,+6.64580166e-02f,-8.84740278e-02f,-4.61920723e-02f,
-2.83128917e-02f,+5.59882820e-02f,+9.52331573e-02f,+1.55647323e-01f,+1.33917615e-01f,
+1.08989790e-01f,+2.01079249e-02f,-1.21454135e-01f,-6.12410530e-02f,+9.09220427e-02f,
+1.15239754e-01f,+1.46549061e-01f,+1.24786347e-02f,-6.35233596e-02f,+9.75919515e-02f,
+4.95700538e-02f,-1.10703856e-01f,-3.41540799e-02f,-9.82104093e-02f,+2.78399438e-02f,
-1.45331755e-01f,-9.99643803e-02f,+1.46290645e-01f,+8.89213383e-02f,+9.68298167e-02f,
+1.76774710e-02f,+1.10122159e-01f,-7.88246468e-02f,+8.52046162e-02f,+5.23400009e-02f,
-9.14939940e-02f,+1.46143734e-02f,-6.64115399e-02f,+4.37683910e-02f,-3.17880809e-02f,
+1.20424554e-01f,-3.88308838e-02f,+1.40152678e-01f,+9.60658342e-02f,-2.56097615e-02f,
+5.53467870e-03f,-6.04527667e-02f,+1.00609973e-01f,-1.90875679e-02f,+1.51770636e-01f,
-6.37152418e-02f,+8.98741037e-02f,+1.27944037e-01f,-2.89155543e-02f,+9.60926712e-03f,
+8.51677507e-02f,-7.07064271e-02f,-5.36732450e-02f,-1.20276242e-01f,+1.39080599e-01f,
-1.02193274e-01f,+1.19467571e-01f,+8.26258957e-02f,+1.40530929e-01f,+1.45342872e-01f,
-2.79480517e-02f,-6.20521083e-02f,+7.72049129e-02f,-1.51435211e-01f,+5.08844852e-04f,
+9.81943756e-02f,-4.83082831e-02f,+1.06249079e-01f,-1.26120195e-01f,-1.43048763e-02f,
-8.20072070e-02f,-2.43992656e-02f,-3.28788161e-02f,-1.43977627e-01f,+1.03284463e-01f,
+1.41968355e-01f,+4.79803979e-03f,-1.17507681e-01f,+8.08366686e-02f,+7.01950192e-02f,
-1.40899569e-01f,+1.53337851e-01f,+7.24687725e-02f,-5.42996973e-02f,+1.34898260e-01f,
+1.48498401e-01f,+1.29084140e-02f,+1.15219042e-01f,-9.39976200e-02f,+6.30073994e-02f,
+1.08264849e-01f,-1.57154337e-01f,+9.34739560e-02f,+2.72926539e-02f,+6.73020929e-02f,
-1.42946422e-01f,-1.23616718e-01f,-1.11502960e-01f,+1.12871960e-01f,-1.28833309e-01f,
-8.20525214e-02f,+1.53291091e-01f,-3.56555283e-02f,-1.44590139e-02f,+1.20751962e-01f,
+8.54700804e-02f,-2.49651372e-02f,+5.52536249e-02f,+1.11976728e-01f,-1.01332009e-01f,
+1.32521316e-01f,-2.40349919e-02f,+4.86394912e-02f,+2.57856995e-02f,+1.04135618e-01f,
+9.26706642e-02f,-2.96034217e-02f,-1.03461906e-01f,-1.49044558e-01f,+1.26037762e-01f,
+1.01811782e-01f,+8.94129872e-02f,+1.28889725e-01f,+1.30967304e-01f,+9.84060019e-02f,
-1.09636001e-01f,-1.32684618e-01f,+9.38488990e-02f,-5.42015731e-02f,-1.11594185e-01f,
-1.07037976e-01f,-1.12156175e-01f,-4.64532375e-02f,+9.15246457e-02f,-1.25881538e-01f,
+6.89842254e-02f,-1.84434354e-02f,-7.24997967e-02f,+9.97701436e-02f,-8.05884302e-02f,
-7.80168697e-02f,-2.48786658e-02f,-1.58347040e-02f,-5.17734885e-03f,+7.21015632e-02f,
+1.51261732e-01f,-1.05669230e-01f,-9.46807712e-02f,+1.13477245e-01f,+2.92483866e-02f,
-8.51127803e-02f,+9.80687886e-02f,-1.08524799e-01f,+1.08622238e-01f,+5.41706979e-02f,
-6.47631511e-02f,+1.15391463e-02f,+8.06806833e-02f,+5.92360049e-02f,-2.27063894e-02f,
-1.96291655e-02f,-1.16725616e-01f,+5.90065867e-02f,-6.83281422e-02f,-3.64955738e-02f,
+3.51498872e-02f,-1.23572052e-02f,-4.43928540e-02f,-1.16616637e-01f,+1.82838738e-03f,
+8.79658312e-02f,-1.44475237e-01f,-4.90018353e-02f,+1.47186443e-01f,+6.85600489e-02f,
+1.08398199e-02f,+1.37168542e-01f,-9.19750333e-03f,-5.01898304e-02f,+5.98746389e-02f,
-3.11308652e-02f,-2.67994553e-02f,-1.02475926e-01f,-4.79483604e-03f,+9.63327140e-02f,
+6.29752725e-02f,-1.25894547e-01f,-9.01529863e-02f,+1.00100920e-01f,-6.52100518e-02f,
+6.20799363e-02f,-4.25039530e-02f,-1.43458351e-01f,+1.09659031e-01f,-1.15227371e-01f,
-2.34115571e-02f,-8.46153274e-02f,+2.28416473e-02f,-1.43388227e-01f,-1.19245335e-01f,
+1.98867470e-02f,+1.04231045e-01f,+3.59245688e-02f,-7.09702671e-02f,-7.15227649e-02f,
+7.12212622e-02f,-1.45772353e-01f,+1.63806826e-02f,-3.19629610e-02f,+5.59870303e-02f,
+6.19280785e-02f,-1.32795215e-01f,+1.42307594e-01f,-7.94930756e-03f,-9.09194872e-02f,
+1.54702082e-01f,+3.88664752e-02f,-1.24188848e-01f,-1.44504145e-01f,+1.34625867e-01f,
-2.93447673e-02f,+8.82605463e-02f,-1.57193616e-01f,+1.12351224e-01f,-8.74454156e-02f,
+1.23343065e-01f,-7.95796886e-02f,+1.56849399e-01f,-1.56075358e-01f,-1.17633216e-01f,
-9.08074081e-02f,-1.34089440e-01f,+9.79050547e-02f,+1.39981076e-01f,-1.19082034e-02f,
-8.07721317e-02f,-6.10296428e-03f,+9.06798840e-02f,-9.03425664e-02f,-8.53246450e-02f,
-2.27092206e-02f,+1.03507474e-01f,-2.75577307e-02f,-8.50771964e-02f,-1.50426343e-01f,
+1.43012553e-02f,-1.19227961e-01f,+1.38508692e-01f,-7.56353140e-04f,-5.01527339e-02f,
-8.84879753e-02f,-1.45112321e-01f,+2.25177556e-02f,-1.33847013e-01f,-1.24824688e-01f,
+5.46029359e-02f,-1.34280935e-01f,-9.70207900e-02f,+5.14289439e-02f,+6.72146380e-02f,
-2.74110883e-02f,+3.24319899e-02f,+1.38730958e-01f,-1.26718223e-01f,-2.56119967e-02f,
+1.00106731e-01f,+8.14891011e-02f,+1.28854498e-01f,-1.43263191e-02f,-3.52232531e-02f,
-1.56057984e-01f,-6.09589294e-02f,+7.73733854e-02f,-1.41170010e-01f,-3.18326056e-02f,
-1.47639960e-01f,+6.79576546e-02f,+1.01056978e-01f,+1.52371302e-01f,-1.42862961e-01f,
-1.13930777e-01f,+7.70339966e-02f,+9.78997797e-02f,+1.16895810e-01f,+8.88143629e-02f,
+5.78590035e-02f,-1.54739857e-01f,-8.92413557e-02f,+4.38690186e-04f,-1.34190574e-01f,
-1.04267910e-01f,-9.18093324e-02f,-2.87419260e-02f,-3.73362601e-02f,+6.59019798e-02f,
+8.74923468e-02f,+1.29231647e-01f,-1.53674871e-01f,-1.51310012e-01f,-5.06823063e-02f,
-5.93575463e-02f,-8.65651071e-02f,+1.17241889e-02f,+8.60985368e-02f,+7.29614049e-02f,
-1.70316398e-02f,+4.82152104e-02f,-1.17506400e-01f,+1.10280022e-01f,+5.11562824e-03f,
+1.15161732e-01f,-1.06605783e-01f,-9.48740095e-02f,+4.00623679e-03f,+3.54899168e-02f,
+9.63770300e-02f,-7.24124536e-02f,-9.18406919e-02f,+2.55616307e-02f,+7.75730610e-02f,
-1.46193281e-01f,-8.36117193e-02f,-1.80329084e-02f,-2.16326565e-02f,-1.28062695e-01f,
-1.15079112e-01f,+6.24085367e-02f,+1.44559935e-01f,+1.46844044e-01f,+4.46822196e-02f,
-3.90748605e-02f,-8.33299309e-02f,+1.42382994e-01f,-2.47146785e-02f,-1.13612913e-01f,
-1.70839131e-02f,-1.02319635e-01f,+6.00000918e-02f,+6.01425171e-02f,+1.64378583e-02f,
-6.90090284e-02f,+1.45403817e-01f,-9.37759876e-04f,+1.31428376e-01f,-6.05641305e-03f,
-1.37213334e-01f,+1.00792795e-02f,+5.60125113e-02f,+5.10635376e-02f,-1.29789114e-02f,
-1.27189815e-01f,+1.19032264e-02f,-1.05197221e-01f,-3.39764506e-02f,+1.26136079e-01f,
+1.39096305e-01f,+1.49688825e-01f,-2.90291756e-02f,+1.45206138e-01f,-1.13708176e-01f,
+1.44139305e-01f,-6.40070513e-02f,-1.37371555e-01f,+1.45215794e-01f,-1.02813393e-02f,
+5.72478175e-02f,+3.89598310e-03f,-1.50839239e-02f,-5.20075560e-02f,-6.31834418e-02f,
+7.90155530e-02f,+2.83927619e-02f,+2.64079720e-02f,+1.29093125e-01f,-1.52117640e-01f,
+6.59803152e-02f,-1.40113235e-02f,-3.33571956e-02f,-5.66044003e-02f,+8.78320336e-02f,
+2.65696496e-02f,+9.77766961e-02f,+5.56015819e-02f,-6.58668503e-02f,+2.99823880e-02f,
-1.06032141e-01f,-1.43524587e-01f,+1.43904075e-01f,+3.46148163e-02f,+1.32693067e-01f,
+5.89309633e-02f,-7.53616989e-02f,-1.33609772e-01f,+1.31007880e-02f,-1.13454774e-01f,
-1.02942392e-01f,+1.24910668e-01f,-2.79910266e-02f,-1.01923473e-01f,+6.22986108e-02f,
-8.31420794e-02f,-1.54686719e-02f,+1.10451624e-01f,+8.03320855e-02f,+1.92406923e-02f,
+5.53275645e-03f,-1.10262260e-01f,+5.06580323e-02f,+1.26817897e-01f,+1.39370427e-01f,
+1.42012537e-02f,+1.29571557e-02f,+1.23484448e-01f,-8.45962912e-02f,+2.18010545e-02f,
-3.99472490e-02f,-4.03242260e-02f,-7.23482221e-02f,+7.53822029e-02f,+1.37649849e-01f,
-8.67139772e-02f,-9.94186029e-02f,-1.06982410e-01f,-1.95714086e-02f,+1.22490898e-01f,
-1.23503506e-02f,-1.65728182e-02f,+1.14803746e-01f,-5.01483679e-03f,+1.55908391e-01f,
-1.52188703e-01f,-4.06926721e-02f,-3.92969325e-02f,+1.42475680e-01f,-5.05824089e-02f,
+3.90599370e-02f,-1.37272567e-01f,+8.43406618e-02f,+1.43028349e-02f,-3.82584110e-02f,
+8.59342813e-02f,-1.39570102e-01f,-9.11336839e-02f,+3.15171629e-02f,-2.56109387e-02f,
+1.19480029e-01f,-6.18359521e-02f,+1.40206650e-01f,+9.48657244e-02f,-8.65705758e-02f,
-2.28708237e-02f,-1.16963148e-01f,+6.95909262e-02f,-1.43993720e-01f,+1.46623746e-01f,
+8.74641836e-02f,+9.39129293e-03f,+2.90797204e-02f,-1.47013500e-01f,-5.83443567e-02f,
+1.32102117e-01f,-3.76182720e-02f,-1.48121268e-01f,+1.02898881e-01f,+2.11974829e-02f,
-6.01819456e-02f,+8.31324309e-02f,-1.31869286e-01f,+4.79570627e-02f,+9.20414180e-02f,
+1.20980963e-01f,+1.04398832e-01f,+1.31404385e-01f,-1.86857581e-02f,-6.73170239e-02f,
+1.43688783e-01f,+1.55038700e-01f,-3.70249525e-02f,-3.52514088e-02f,+9.61544961e-02f,
+4.18298542e-02f,+9.48512405e-02f,+7.67465830e-02f,-1.53657496e-01f,-3.32695544e-02f,
-6.33756965e-02f,-1.32814705e-01f,-1.55668199e-01f,-1.12648055e-01f,+1.44055173e-01f,
-2.56919861e-02f,+5.40160239e-02f,-1.48888409e-01f,+1.24207929e-01f,+1.41796753e-01f,
+1.33542195e-01f,+2.02093273e-02f,+1.52268931e-01f,+1.32036552e-01f,+1.38279349e-02f,
-1.24269262e-01f,+1.58151090e-02f,+1.53053537e-01f,+1.21269867e-01f,-5.84306791e-02f,
-9.17696729e-02f,+3.33776623e-02f,-7.15807378e-02f,+1.34442896e-02f,-1.11337095e-01f,
-5.22861406e-02f,+4.26764190e-02f,+1.41417727e-01f,-8.20755139e-02f,+4.58024740e-02f,
-1.32363498e-01f,+7.75773227e-02f,+1.80664659e-03f,+1.26932114e-02f,+1.41956404e-01f,
+2.92700231e-02f,-1.45433754e-01f,+9.82165337e-04f,-1.18884280e-01f,-1.14130534e-01f,
+1.10021934e-01f,+1.52078345e-01f,-1.91101879e-02f,+5.81431985e-02f,+2.90203094e-02f,
-4.74534184e-02f,+3.67831290e-02f,-5.95885515e-03f,+1.34796634e-01f,+8.47024471e-02f,
+3.47512066e-02f,+8.67414623e-02f,-4.21825498e-02f,-6.29371628e-02f,+3.52315903e-02f,
-3.57951969e-02f,+1.72886550e-02f,-9.86278057e-04f,+6.07764721e-02f,-1.44602954e-01f,
-1.12992227e-01f,-1.33069232e-01f,+1.22272506e-01f,-2.38992572e-02f,+1.06879279e-01f,
+1.28272623e-02f,+8.53171945e-03f,-9.15375352e-02f,+4.16070223e-02f,-4.65302542e-02f,
-1.12483874e-01f,+1.01983234e-01f,+6.40525967e-02f,+1.32915065e-01f,-1.26553372e-01f,
-9.47175622e-02f,+5.70528805e-02f,-5.09618670e-02f,-6.63150698e-02f,-1.27365783e-01f,
-1.27953455e-01f,-1.44263059e-02f,+5.00562787e-03f,+9.01180804e-02f,+1.39397040e-01f,
+1.17758498e-01f,-8.04028437e-02f,+1.13728240e-01f,+1.08216107e-02f,+8.79659355e-02f,
+3.54667753e-02f,+1.37549415e-01f,-9.14126784e-02f,-1.46745399e-01f,+5.32217026e-02f,
+1.07481778e-02f,+1.21129826e-01f,+4.94574010e-03f,-8.21134374e-02f,+1.23202398e-01f,
-1.18971020e-01f,+1.75955892e-03f,+5.09319007e-02f,-8.36209506e-02f,-7.37303868e-02f,
+4.82409596e-02f,-7.98929557e-02f,-9.20477659e-02f,-1.45057768e-01f,+7.93376714e-02f,
+8.25274736e-02f,+1.50509134e-01f,+1.53964028e-01f,-3.83088887e-02f,+9.18775946e-02f,
+9.26807076e-02f,-3.35679650e-02f,+8.95094573e-02f,+5.70188761e-02f,+1.19753316e-01f,
-3.94482166e-02f,-1.19453207e-01f,-3.01703513e-02f,+9.54980403e-02f,+5.45962602e-02f,
+1.38784751e-01f,+3.35330218e-02f,+2.21150368e-02f,-1.35804862e-02f,-3.09934616e-02f,
+4.44761962e-02f,+9.12114531e-02f,+9.24185961e-02f,-6.70964569e-02f,+7.02332556e-02f,
-3.04691344e-02f,-3.68902609e-02f,+3.97364795e-02f,+1.17637813e-02f,+1.19586155e-01f,
+1.07000276e-01f,-6.70136362e-02f,-1.26377553e-01f,-9.09071937e-02f,-2.45646834e-02f,
+1.32172957e-01f,-8.34623203e-02f,-4.91459519e-02f,+9.87987071e-02f,+1.33163825e-01f,
+1.03304103e-01f,+5.27823120e-02f,-7.32974336e-02f,-1.06416792e-02f,-1.56933069e-03f,
+1.12599298e-01f,+3.12432796e-02f,-7.91524649e-02f,-1.28535688e-01f,-3.40865999e-02f,
+1.24061659e-01f,+3.37417424e-03f,+9.82352346e-02f,-5.02174571e-02f,+1.09133616e-01f,
-9.84197408e-02f,-1.55403599e-01f,+4.66160923e-02f,+1.55188635e-01f,+1.17478326e-01f,
+7.99280405e-03f,-7.11965635e-02f,+9.42984670e-02f,+1.04027763e-01f,-1.07033566e-01f,
-1.07543312e-01f,+1.18271127e-01f,+1.04155615e-01f,+7.90764242e-02f,-9.61669832e-02f,
-1.09361604e-01f,+3.12209278e-02f,-1.07543766e-01f,-1.04692146e-01f,-1.43176138e-01f,
+5.86392581e-02f,+1.45142063e-01f,+1.36368915e-01f,-7.06509352e-02f,+4.84230667e-02f,
+1.41229883e-01f,+1.04331866e-01f,-5.85033223e-02f,-8.85435045e-02f,+9.08947587e-02f,
+1.47256836e-01f,-1.22272164e-01f,-3.63121033e-02f,+5.13236076e-02f,-8.42642188e-02f,
+1.28166094e-01f,-7.41874725e-02f,-3.04161012e-03f,-4.90313545e-02f,+3.12818885e-02f,
+8.25227201e-02f,+8.42255354e-02f,+1.55768245e-02f,+9.26473886e-02f,-1.10584803e-01f,
-8.20198730e-02f,+4.10430282e-02f,+6.88514113e-03f,+9.53622609e-02f,-9.28701684e-02f,
+8.52540731e-02f,-3.76516357e-02f,+7.31274486e-03f,+1.40642628e-01f,-1.38292581e-01f,
+2.98320800e-02f,-1.29806846e-01f,-1.35311097e-01f,+1.13155991e-02f,-1.31994456e-01f,
-8.08186829e-02f,+1.27748981e-01f,-9.48318988e-02f,+2.01348811e-02f,-1.19858086e-02f,
-6.68111295e-02f,-1.23957537e-01f,+7.41878897e-02f,+7.68606663e-02f,+3.79880816e-02f,
-1.08313575e-01f,+1.31472006e-01f,+1.76332146e-02f,-1.21352054e-01f,+7.18644857e-02f,
-1.05333686e-01f,-2.34977901e-03f,+1.15288600e-01f,-2.30809897e-02f,+5.34885675e-02f,
+2.51476765e-02f,+1.29193440e-01f,-1.11322239e-01f,+3.64015996e-03f,+6.34002835e-02f,
+6.61768019e-02f,-2.45994776e-02f,+2.61107683e-02f,+1.89749897e-03f,+2.80257016e-02f,
-1.03392728e-01f,-6.10640645e-02f,+7.79360086e-02f,+3.98857594e-02f,-1.01759113e-01f,
+2.99802721e-02f,+1.49950728e-01f,+6.65089488e-03f,-4.12026420e-02f,+4.37631160e-02f,
+5.09611517e-02f,+7.54075795e-02f,+8.52499306e-02f,-6.66680932e-03f,-5.34088016e-02f,
+1.03095934e-01f,+4.65326309e-02f,+1.57543495e-01f,+1.04023620e-01f,-9.66372192e-02f,
-8.76908228e-02f,-9.10201669e-03f,+2.40570158e-02f,-9.81846899e-02f,+1.23219267e-01f,
-4.52390090e-02f,+8.47117603e-02f,-1.54337257e-01f,-1.09374307e-01f,-1.30925164e-01f,
+4.50896919e-02f,-1.80655271e-02f,+1.31184682e-01f,-1.09645158e-01f,+5.91071248e-02f,
+1.16649419e-02f,+1.18727162e-01f,-1.25048429e-01f,+1.14742622e-01f,-3.40766534e-02f,
+3.18865925e-02f,+9.71526653e-02f,-2.23703235e-02f,-1.43483683e-01f,+8.92150849e-02f,
+7.13378191e-04f,-2.76132673e-02f,-4.76647913e-02f,-1.22105166e-01f,-1.16948590e-01f,
-1.22234508e-01f,+1.02929905e-01f,-9.66383144e-02f,+1.12272814e-01f,+1.03686497e-01f,
-5.56138679e-02f,-9.86177623e-02f,-1.48048699e-01f,-3.79125774e-02f,+2.95748413e-02f,
+1.06050387e-01f,-1.23583049e-01f,-5.20981029e-02f,-1.36078417e-01f,-4.20501530e-02f,
-1.35399416e-01f,-5.55994660e-02f,+8.83944035e-02f,+6.72233850e-02f,-1.26042575e-01f,
+9.91023630e-02f,+3.08635235e-02f,+1.30719498e-01f,+1.37308612e-01f,-5.89855835e-02f,
-6.68738782e-03f,-1.25868306e-01f,+5.49522042e-02f,-6.16844073e-02f,-1.47417620e-01f,
-2.85448730e-02f,-7.28548318e-02f,-1.33723438e-01f,-4.01028991e-02f,+6.68735206e-02f,
-7.56407008e-02f,-1.24248639e-01f,+2.43224800e-02f,-9.80533585e-02f,-7.98515603e-02f,
+5.24810702e-02f,-6.37567043e-02f,-3.86321545e-03f,-1.44178331e-01f,+7.43743777e-02f,
+4.10625339e-03f,-2.80773640e-03f,+1.25408426e-01f,-1.12268209e-01f,-1.69961601e-02f,
+2.59170383e-02f,+1.10047013e-02f,-2.91450471e-02f,-9.18553993e-02f,-1.23871252e-01f,
-7.80077875e-02f,+1.09627843e-02f,+1.75573230e-02f,-1.32718235e-02f,-1.39311224e-01f,
+3.94015461e-02f,+9.69652832e-03f,-3.98956016e-02f,+2.07556039e-02f,+1.15506783e-01f,
+3.02863717e-02f,-1.19413242e-01f,+1.10806674e-02f,-7.31329247e-02f,+1.40400231e-03f,
-7.17702433e-02f,+4.16571200e-02f,+6.05808944e-02f,-1.30853772e-01f,+1.62459463e-02f,
+5.22318929e-02f,-5.16206697e-02f,+3.43347341e-02f,-9.54598635e-02f,+1.04463831e-01f,
+5.53007573e-02f,+3.19255739e-02f,+1.55163363e-01f,+1.26587898e-02f,+7.87748098e-02f,
+8.42713118e-02f,-3.15540284e-02f,+3.54858935e-02f,-4.42050397e-03f,+1.52145937e-01f,
+1.02098063e-01f,-7.94163123e-02f,+1.57356814e-01f,-1.92298442e-02f,+9.48621780e-02f,
+1.22269407e-01f,-3.92772928e-02f,+8.21263343e-02f,+1.50832012e-01f,-4.84684557e-02f,
-1.53560847e-01f,-4.12203968e-02f,-1.02292567e-01f,-9.27918330e-02f,-1.48813352e-01f,
+1.34655491e-01f,-1.41417533e-02f,-9.50446725e-03f,+8.60209465e-02f,-1.11808121e-01f,
-5.48287034e-02f,-1.54408157e-01f,-4.08709049e-02f,+1.34590566e-02f,-4.87572923e-02f,
-3.34890634e-02f,+8.56975466e-02f,-2.57004201e-02f,-1.03798881e-01f,+5.58167547e-02f,
-1.48248807e-01f,-9.61078778e-02f,+1.30668581e-02f,-7.03983605e-02f,+1.14482000e-01f,
-3.93145010e-02f,+1.89779401e-02f,+1.20878264e-01f,+9.54031944e-03f,+4.50098515e-02f,
-1.15211606e-02f,-1.39639527e-01f,+4.03657258e-02f,-1.26727983e-01f,+4.09518778e-02f,
-4.23359871e-03f,-3.79373431e-02f,+3.66293192e-02f,-8.60448182e-03f,-4.11719084e-03f,
+1.11530259e-01f,+1.08327821e-01f,-8.78555626e-02f,-1.31088465e-01f,+1.64173245e-02f,
-1.57785118e-01f,+3.08076143e-02f,+8.31282437e-02f,-1.05921760e-01f,+3.09348851e-02f,
-6.62523061e-02f,-2.57610381e-02f,+3.09596509e-02f,+5.54135740e-02f,+1.30998030e-01f,
+1.37623385e-01f,+1.53693244e-01f,+2.22652256e-02f,-8.51470903e-02f,+1.52809188e-01f,
-1.54004917e-01f,+4.95092869e-02f,-1.39635056e-01f,-8.26679245e-02f,-1.07243046e-01f,
-1.12292185e-01f,+4.95893508e-02f,-2.14567631e-02f,+1.08534172e-01f,+1.54440537e-01f,
-1.35041475e-01f,+1.03577480e-01f,+8.35051090e-02f,-8.48129764e-02f,+4.52584922e-02f,
+7.67419487e-02f,+7.07637221e-02f,+9.21869725e-02f,-1.15903966e-01f,-2.08171606e-02f,
+3.94419581e-02f,-2.61525363e-02f,+1.49838224e-01f,-4.55002859e-02f,-9.48946998e-02f,
+1.41022936e-01f,-1.36900932e-01f,+1.57097295e-01f,+1.28389642e-01f,+4.57720459e-02f,
-5.15255928e-02f,-7.12290406e-03f,+1.26010045e-01f,-1.38707906e-02f,+1.06021091e-01f,
-3.54775563e-02f,+2.04133093e-02f,+2.23579258e-02f,+1.26699969e-01f,+8.71767849e-02f,
-1.62926614e-02f,-1.00541979e-01f,-6.59940392e-02f,+1.96308196e-02f,-6.55140802e-02f,
-4.63113040e-02f,+3.63582373e-02f,+1.44070461e-01f,-1.12166092e-01f,-8.33199918e-03f,
+3.35624963e-02f,+9.51422751e-03f,-3.98639739e-02f,+1.46379933e-01f,-6.37854338e-02f,
-1.19421199e-01f,-1.50918975e-01f,+5.01841009e-02f,+1.40390381e-01f,-1.45511523e-01f,
-7.72252306e-02f,+1.30604669e-01f,-1.40493006e-01f,-2.74772942e-02f,+2.31092274e-02f,
-5.33168912e-02f,+1.01112679e-01f,-1.60985142e-02f,-3.37981805e-02f,+1.23954460e-01f,
+1.48012564e-01f,+3.51646692e-02f,+8.90556127e-02f,-5.40236831e-02f,-1.18046716e-01f,
+1.43964663e-01f,+3.15900296e-02f,+1.35472372e-01f,+2.07933784e-02f,-7.61542097e-02f,
+8.75699371e-02f,-7.87108764e-02f,+4.12139595e-02f,-5.99159151e-02f,+4.45141643e-02f,
-4.80037257e-02f,+1.27349064e-01f,-1.57675087e-01f,-2.63306946e-02f,+8.64281952e-02f,
-1.38881475e-01f,+5.94843924e-03f,-7.40366429e-02f,+4.24328893e-02f,+7.83395171e-02f,
-1.03732675e-01f,-1.24649853e-01f,+1.29936188e-02f,+8.17881078e-02f,-8.75229985e-02f,
-8.24922919e-02f,-1.48402348e-01f,-8.62301290e-02f,+1.03733286e-01f,-7.25368559e-02f,
-8.91915932e-02f,+8.66711140e-02f,+1.50594935e-01f,-6.59517050e-02f,+6.31485283e-02f,
-7.10126758e-02f,+3.11718881e-02f,+4.48713750e-02f,+5.94014674e-02f,+1.46316782e-01f,
+4.05166745e-02f,+8.15091431e-02f,-1.22327656e-01f,+2.58555859e-02f,+1.37538448e-01f,
+1.05948076e-01f,-1.20179705e-01f,+2.57871002e-02f,+6.20191693e-02f,-1.79479867e-02f,
-7.49596581e-02f,-7.45193958e-02f,+5.88169694e-02f,+1.52662560e-01f,-4.92979139e-02f,
+1.56618550e-01f,+1.38762131e-01f,-3.92013714e-02f,+1.31050244e-01f,-1.53419733e-01f,
-1.35071278e-02f,+1.04581311e-01f,-5.69630861e-02f,+1.48952603e-02f,+2.29657590e-02f,
+1.15929976e-01f,-1.54318601e-01f,-7.82425702e-03f,-9.13035050e-02f,-1.09603919e-01f,
-7.41371810e-02f,+9.78784114e-02f,-1.54491216e-01f,-3.69841680e-02f,-7.79346898e-02f,
+2.99784988e-02f,-1.23049676e-01f,-1.48744375e-01f,+2.72683650e-02f,-1.09893590e-01f,
-7.69241825e-02f,+8.83588642e-02f,-6.16356283e-02f,-7.16625154e-03f,+7.68458843e-03f,
-6.23086765e-02f,-4.67616394e-02f,+1.18259922e-01f,+8.42088759e-02f,-1.05195448e-01f,
-9.68775749e-02f,-1.39642850e-01f,-8.27987343e-02f,-6.91805184e-02f,-1.50710478e-01f,
-2.80847400e-02f,+1.57077208e-01f,+4.61532474e-02f,+5.69787621e-03f,-4.73063290e-02f,
-1.78775936e-02f,-1.45988017e-01f,+9.44042653e-02f,-1.33994892e-01f,-1.22103058e-01f,
+1.44939199e-01f,+1.48091838e-01f,+1.36712328e-01f,+1.34098157e-01f,-1.19707957e-01f,
-8.19075704e-02f,-1.85914338e-02f,-5.06550893e-02f,+1.35699376e-01f,+5.10470718e-02f,
-1.17898792e-01f,-1.16276532e-01f,-6.76292703e-02f,-1.31006703e-01f,+9.53070968e-02f,
-8.10047239e-02f,-1.41977593e-01f,+5.57199121e-03f,+9.90058929e-02f,+1.24862626e-01f,
+6.74409419e-02f,+1.50661960e-01f,-6.36609942e-02f,+1.42569244e-02f,-1.42263383e-01f,
-1.10656053e-01f,+2.29869783e-03f,-1.17234647e-01f,-1.95790976e-02f,+1.98453963e-02f,
-8.42784271e-02f,-6.35797530e-02f,+8.92013609e-02f,-7.51750991e-02f,-1.01913862e-01f,
-9.59959477e-02f,-6.66072592e-02f,-3.92956510e-02f,-1.05796874e-01f,-8.79579782e-03f,
-3.01618576e-02f,+8.00918490e-02f,-1.00915410e-01f,+7.38355666e-02f,+6.74892217e-02f,
-5.44117019e-02f,+1.13136217e-01f,+3.20213884e-02f,+1.20405540e-01f,-1.38332263e-01f,
-2.52379179e-02f,-1.39778152e-01f,+1.45727679e-01f,+9.35856551e-02f,+4.41651642e-02f,
-1.43026903e-01f,+1.18656233e-01f,-3.79932895e-02f,-1.85031146e-02f,-4.39287648e-02f,
+1.24191061e-01f,-2.55475342e-02f,-1.04654133e-02f,-5.18760085e-03f,+1.48969814e-01f,
+1.43325493e-01f,+9.41408724e-02f,-6.52838200e-02f,+1.54716030e-01f,-7.34202564e-02f,
+1.19543031e-01f,+1.28941342e-01f,-4.55134064e-02f,-8.63906071e-02f,-5.13748452e-02f,
-7.57215992e-02f,+9.93122905e-02f,+1.19132087e-01f,+4.08397317e-02f,-5.79484552e-02f,
+1.30501702e-01f,-7.10037425e-02f,+2.40801573e-02f,-2.97442973e-02f,+3.03043276e-02f,
-8.83626640e-02f,-6.60183504e-02f,-1.23642504e-01f,-7.02522844e-02f,+3.17460150e-02f,
-1.14815831e-02f,-4.86330464e-02f,-1.57404304e-01f,+1.38032436e-03f,-1.38172999e-01f,
-1.29989564e-01f,-6.39149547e-03f,-2.15580165e-02f,-1.14582717e-01f,+6.32548779e-02f,
-1.37826666e-01f,-6.23431727e-02f,+9.17133689e-03f,-4.14166898e-02f,-5.67089319e-02f,
+1.79100186e-02f,+9.90662128e-02f,-1.04028679e-01f,+1.40686676e-01f,+1.50248453e-01f,
-1.52842402e-01f,+9.94770378e-02f,-7.84379244e-03f,-6.01275116e-02f,+1.24665961e-01f,
-7.48316944e-03f,-9.07389894e-02f,-3.27972025e-02f,+6.31119311e-02f,-6.19259775e-02f,
-6.57608062e-02f,+1.01092771e-01f,-7.47954100e-02f,+3.34373415e-02f,-2.71256119e-02f,
+3.65351588e-02f,-1.39644429e-01f,-1.57901153e-01f,+3.71989608e-02f,+5.14653176e-02f,
-1.35673627e-01f,+1.20476320e-01f,+3.23445350e-02f,-7.29059875e-02f,-1.22458503e-01f,
+6.49134070e-02f,+8.36675018e-02f,-5.32037243e-02f,-1.31001234e-01f,+1.53850332e-01f,
+8.51319283e-02f,-8.55380073e-02f,+8.27701986e-02f,-4.47061956e-02f,+1.14510074e-01f,
-2.66050547e-02f,+8.55278671e-02f,-1.18180320e-01f,-7.63656572e-02f,+1.00910053e-01f,
+9.61719304e-02f,+1.43101618e-01f,+1.21791705e-01f,-1.61025077e-02f,+9.23892856e-03f,
+5.88710308e-02f,+2.34118253e-02f,-1.21518597e-01f,-8.51869732e-02f,-2.81809121e-02f,
-1.48864701e-01f,-3.60938683e-02f,+3.29236388e-02f,+2.60808617e-02f,-1.28322542e-01f,
-1.34669065e-01f,+9.57834870e-02f,+2.05805004e-02f,+1.35988936e-01f,-1.06283575e-01f,
+1.29773781e-01f,-1.55439794e-01f,+1.12743244e-01f,-2.49329507e-02f,-1.05523765e-02f,
-2.72365510e-02f,-2.69747078e-02f,+1.32112056e-02f,-2.04756260e-02f,+9.85456556e-02f,
-1.44959569e-01f,-1.06001377e-01f,+8.81287158e-02f,+1.50191292e-01f,-1.50045827e-01f,
+4.65236902e-02f,+1.24834254e-01f,-1.49935305e-01f,-8.10597241e-02f,+8.57461393e-02f,
-3.71982902e-02f,+6.95288032e-02f,+2.40430236e-02f,-2.98196822e-02f,+1.48347467e-02f,
-8.70972425e-02f,+7.69074857e-02f,+1.08242929e-02f,+1.05893299e-01f,+9.10747945e-02f,
-6.72086850e-02f,-9.10216570e-03f,-5.26231527e-03f,-1.25613391e-01f,-1.44934982e-01f,
-2.32572705e-02f,+8.12034607e-02f,+1.31504431e-01f,-1.40164927e-01f,-9.84847248e-02f,
+5.50452769e-02f,-8.01217034e-02f,-1.45596415e-02f,+8.25716108e-02f,+8.19025934e-02f,
+8.96935165e-03f,-1.39789134e-02f,-1.19251594e-01f,+5.75247407e-02f,-1.77549720e-02f,
-1.11925244e-01f,-3.26169431e-02f,-7.13187456e-03f,-9.25953910e-02f,+5.94897121e-02f,
-1.45125017e-01f,+6.52339160e-02f,+5.20148724e-02f,-3.88152748e-02f,+1.28315791e-01f,
-1.10929959e-01f,-1.30609006e-01f,-9.66146588e-04f,+1.03802010e-01f,-7.86734819e-02f,
-4.89452928e-02f,-6.68874383e-03f,-4.27578390e-03f,-1.10381424e-01f,+5.11491448e-02f,
-7.46489614e-02f,-2.56806016e-02f,+1.09566942e-01f,+2.86019146e-02f,+1.93463266e-02f,
-1.00538403e-01f,-3.42539772e-02f,+8.85598958e-02f,-4.77991030e-02f,-8.81217793e-02f,
+9.94963944e-03f,-8.73010010e-02f,+2.48216987e-02f,+1.53242424e-01f,-6.16035908e-02f,
-1.06958248e-01f,-7.59645179e-02f,+1.31053478e-02f,+1.26135603e-01f,+1.42191276e-01f,
+1.04228660e-01f,+1.49813592e-02f,-4.79281396e-02f,+2.02476978e-04f,+8.17101896e-02f,
+1.26792118e-01f,+1.42805949e-01f,+1.41885236e-01f,+1.64887905e-02f,-1.44954324e-02f,
+1.32959768e-01f,+1.97647512e-03f,+7.05826283e-02f,+4.46214825e-02f,-8.32132176e-02f,
-1.54013589e-01f,-2.32680142e-02f,-1.51802376e-01f,+1.56099483e-01f,-1.13663092e-01f,
+1.53369144e-01f,+4.67342734e-02f,-1.52325243e-01f,-6.85292184e-02f,+1.14765629e-01f,
-1.18659407e-01f,-1.29475892e-01f,+2.71375626e-02f,+8.48284662e-02f,-1.34666964e-01f,
-9.68639329e-02f,+1.16982982e-01f,+2.18578726e-02f,+7.33321905e-03f,+3.11445892e-02f,
-4.08527777e-02f,+3.64664346e-02f,+7.48629868e-03f,+1.69986933e-02f,+2.90934145e-02f,
-1.18477598e-01f,+1.32612586e-02f,-5.87133393e-02f,-1.18950926e-01f,+3.51978838e-02f,
+1.00824460e-01f,-4.95363101e-02f,-3.85755226e-02f,-1.07170746e-01f,+2.81454325e-02f,
-3.95984724e-02f,+3.95074040e-02f,-1.42006427e-02f,-1.20447993e-01f,-8.40422213e-02f,
-1.52677670e-01f,-3.58527601e-02f,-9.46639478e-03f,-1.17218658e-01f,+1.01009175e-01f,
-6.84160888e-02f,-5.98868504e-02f,+7.05331564e-03f,+8.60740691e-02f,+2.70819515e-02f,
-4.60596755e-02f,-1.83855742e-02f,+1.80062950e-02f,+1.58175230e-02f,+1.06893942e-01f,
+3.85337919e-02f,+8.71777683e-02f,-6.45865723e-02f,-7.58230016e-02f,+1.45035699e-01f,
+5.72313368e-03f,-2.95989364e-02f,+5.87267578e-02f,-8.93832818e-02f,+5.26198000e-02f,
+5.59339225e-02f,-1.95944160e-02f,+1.12829670e-01f,-1.11549780e-01f,-1.31514713e-01f,
+3.30857784e-02f,+1.26939282e-01f,+2.13681012e-02f,+1.56896040e-01f,-6.78067133e-02f,
+6.02139831e-02f,+1.57373622e-01f,-1.09334424e-01f,-4.42841724e-02f,-2.70110071e-02f,
-1.20993853e-01f,+1.37685880e-01f,-2.66462564e-03f,-1.04658484e-01f,+1.14306286e-01f,
+8.11004788e-02f,+2.63363868e-02f,+7.71818459e-02f,+1.43800274e-01f,-4.99575362e-02f,
-7.60819837e-02f,-1.32290632e-01f,-5.15891165e-02f,+2.98380852e-03f,+2.63271779e-02f,
-7.24255741e-02f,-1.45369187e-01f,-1.53412730e-01f,-3.72599959e-02f,-1.24529034e-01f,
-1.97219700e-02f,-8.60697329e-02f,-5.59652820e-02f,+1.02218196e-01f,-2.83941925e-02f,
-6.52433336e-02f,+1.40835807e-01f,-2.50842720e-02f,+4.44035977e-02f,+6.40029758e-02f,
+7.87164569e-02f,+3.61290574e-03f,-8.42792243e-02f,+1.17513403e-01f,-5.51594794e-03f,
+3.60020399e-02f,+9.76869017e-02f,+6.98074698e-03f,-1.04641557e-01f,+1.68480426e-02f,
-3.87402922e-02f,-8.69822651e-02f,+1.26918182e-01f,-9.07616094e-02f,+8.22225660e-02f,
+5.62847704e-02f,+3.49306762e-02f,+6.39398396e-02f,-3.68803889e-02f,-1.76424384e-02f,
+6.06314540e-02f,+9.21220630e-02f,+1.75268948e-02f,-1.04953356e-01f,-1.26382604e-01f,
-5.89100048e-02f,-8.24628174e-02f,+8.18682164e-02f,+5.11804819e-02f,-6.36298507e-02f,
-5.11491299e-03f,-1.38002262e-01f,+4.43216115e-02f,+1.44619510e-01f,+2.65230536e-02f,
-1.39497831e-01f,+1.58083588e-02f,-2.12921053e-02f,-9.84476358e-02f,-1.03882104e-02f,
+7.52072185e-02f,+1.32394001e-01f,-9.61966813e-03f,-6.59350455e-02f,+1.00237876e-02f,
-1.71755999e-02f,-8.31120014e-02f,+1.08922496e-01f,-8.13216045e-02f,-1.99640244e-02f,
+1.94478035e-02f,-2.59013474e-02f,-9.83298272e-02f,-1.35151222e-01f,-4.26405296e-02f,
-1.24628097e-01f,+1.56490549e-01f,-1.43184885e-01f,-4.12015617e-03f,+1.11385480e-01f,
-5.41052967e-02f,+1.33850738e-01f,-1.48829713e-01f,-7.11604953e-04f,+4.37009931e-02f,
+8.37255269e-02f,-1.30582422e-01f,-1.30852342e-01f,+7.19315857e-02f,+1.98920220e-02f,
+2.26006508e-02f,-1.29939124e-01f,-5.25971428e-02f,+1.07699946e-01f,+1.26123324e-01f,
+1.15038708e-01f,+7.66837150e-02f,+2.18427181e-02f,+1.16421804e-01f,+7.08208680e-02f,
-1.19261324e-01f,-7.11306930e-03f,+6.46730512e-02f,+1.36610016e-01f,-1.43350869e-01f,
-2.38076895e-02f,-1.08521067e-01f,-1.20813996e-01f,+1.37366399e-01f,+5.73861599e-02f,
+1.57217070e-01f,-8.05894509e-02f,-1.18505307e-01f,+1.15969643e-01f,+7.32543468e-02f,
-9.82066989e-03f,-3.04742157e-02f,+5.60026765e-02f,+2.64510512e-02f,-4.08998579e-02f,
+1.53373495e-01f,+1.70040429e-02f,-1.24006435e-01f,-1.57270327e-01f,-8.78788605e-02f,
-8.08801353e-02f,-1.50723323e-01f,-6.76690787e-02f,-1.02995776e-01f,-1.96738690e-02f,
+1.88128352e-02f,+1.46404848e-01f,-7.32442439e-02f,-1.15954705e-01f,+1.45113245e-01f,
+9.61583108e-02f,-7.53198192e-02f,+8.82081836e-02f,+1.46918491e-01f,+1.29941329e-01f,
-1.18370652e-01f,+2.90081799e-02f,+6.45563006e-02f,-2.78813988e-02f,-2.58716941e-03f,
+1.13353327e-01f,-2.83537954e-02f,-7.58698210e-02f,-3.94593179e-03f,-1.88674480e-02f,
-6.84738010e-02f,-3.40392590e-02f,-1.06744960e-01f,+1.00253418e-01f,+1.04043767e-01f,
-5.50137982e-02f,-1.52543619e-01f,+6.82003051e-02f,-8.20533857e-02f,+1.38773397e-01f,
+2.82647461e-02f,+6.70404732e-03f,+9.97823328e-02f,+8.20312947e-02f,-8.23686868e-02f,
-1.57352626e-01f,+9.63585228e-02f,-1.11500919e-03f,-1.05714053e-02f,+7.77247250e-02f,
-1.04582228e-01f,-6.43148124e-02f,-6.61969259e-02f,-1.31752789e-02f,-1.26959532e-02f,
-1.90760642e-02f,-9.70701426e-02f,-1.27698585e-01f,-1.21247932e-01f,+1.17586538e-01f,
+4.54519987e-02f,+1.16638526e-01f,-1.15907095e-01f,+1.38808355e-01f,-1.00513861e-01f,
-8.04203749e-02f,+1.37143448e-01f,-1.23326182e-01f,-8.96499157e-02f,+2.12496966e-02f,
-6.83474466e-02f,-8.57466608e-02f,+8.53057206e-02f,+2.98265815e-02f,+4.68354821e-02f,
-6.16389066e-02f,-1.97411627e-02f,-2.62662321e-02f,-1.04572505e-01f,-5.33961728e-02f,
+8.25302303e-03f,+1.46308228e-01f,-8.89203995e-02f,-9.88493711e-02f,-7.99492747e-02f,
-1.04641527e-01f,+6.76843077e-02f,-1.02527536e-01f,-1.11376554e-01f,+2.21011341e-02f,
-7.92651400e-02f,+1.14506647e-01f,-1.35104507e-01f,+1.31003752e-01f,-1.12696677e-01f,
-3.47167104e-02f,+9.27080661e-02f,+4.91214842e-02f,+1.29368469e-01f,-1.32000223e-01f,
+1.55071810e-01f,+6.91240132e-02f,+1.40975609e-01f,+1.51088089e-02f,-1.32965907e-01f,
+3.86572927e-02f,+1.37896851e-01f,-1.48318917e-01f,-4.43590358e-02f,-6.73886910e-02f,
+1.37776688e-01f,-1.27132297e-01f,+1.50416896e-01f,-5.82943708e-02f,-1.32965863e-01f,
+1.06758401e-01f,-7.07849115e-02f,-3.31306383e-02f,-4.98124436e-02f,+8.60258490e-02f,
+1.13418117e-01f,+1.02692261e-01f,+3.30591947e-02f,+3.68604064e-02f,-3.02890539e-02f,
+4.87862527e-03f,-1.35437876e-01f,+3.59611809e-02f,+8.63339901e-02f,+2.65666395e-02f,
+1.16527185e-01f,-1.41153350e-01f,+4.89405394e-02f,+1.23636797e-01f,-5.24874777e-02f,
-9.37677398e-02f,-8.47326219e-03f,+5.86179644e-02f,+2.94948518e-02f,+9.05840099e-03f,
-1.10056773e-01f,+1.07624233e-02f,+8.53766650e-02f,-6.08900562e-02f,+9.04812962e-02f,
-1.47980452e-03f,+6.26839548e-02f,-8.22605714e-02f,+1.49875239e-01f,+2.62090564e-03f,
-1.05453864e-01f,-1.47363290e-01f,+3.00487280e-02f,-1.33578077e-01f,+1.27826646e-01f,
-1.40056014e-03f,-1.29122287e-01f,+1.29783139e-01f,+1.72197819e-04f,-1.49030641e-01f,
-6.26146793e-04f,-2.57045776e-02f,-8.07374492e-02f,-1.52020499e-01f,+3.07777226e-02f,
+8.02557915e-02f,+5.09104878e-02f,-8.59829858e-02f,-1.52272686e-01f,+1.32907316e-01f,
+1.42862603e-01f,+6.44351840e-02f,+4.93465811e-02f,-3.77127826e-02f,+1.47532359e-01f,
-1.17711060e-01f,-1.24351136e-01f,-1.13560513e-01f,+1.08650252e-01f,-1.43667534e-01f,
-2.44218856e-02f,-2.98663974e-02f,-1.24858916e-01f,+1.15863040e-01f,-8.25395659e-02f,
+3.23690772e-02f,-7.29418397e-02f,-6.10024631e-02f,-7.19641149e-03f,-9.72107053e-04f,
-1.45441756e-01f,-1.55960083e-01f,+5.90729266e-02f,+1.61101967e-02f,+1.15650445e-02f,
-1.25061467e-01f,-4.53985408e-02f,+8.39888752e-02f,+6.16745651e-02f,+1.34574786e-01f,
-7.23237917e-02f,+1.11806378e-01f,+9.92669910e-02f,+1.42489374e-02f,-5.30675277e-02f,
+7.97720253e-03f,+6.65308535e-02f,-1.38925761e-02f,+1.40792131e-03f,+4.93170619e-02f,
+4.38817888e-02f,+1.35888681e-01f,-1.07625946e-01f,-8.90500024e-02f,+1.01695657e-02f,
-1.19639955e-01f,+1.47018805e-01f,-2.10237056e-02f,-2.31891870e-02f,-8.06729868e-02f,
-1.40609145e-01f,-3.08057666e-02f,+6.14935905e-02f,+6.43374771e-02f,-1.27885938e-01f,
-3.26200277e-02f,-1.31025404e-01f,-5.07600009e-02f,+4.55600768e-02f,-1.32887051e-01f,
+2.11405307e-02f,+5.36908060e-02f,+4.78485972e-02f,+4.93831486e-02f,-1.28125653e-01f,
-5.75727671e-02f,+1.06814995e-01f,+1.05128571e-01f,-4.98072803e-02f,+2.20721960e-03f,
+1.43680081e-01f,+1.31708339e-01f,-5.44216484e-02f,-9.88243446e-02f,-1.11245334e-01f,
+1.20131627e-01f,+1.40228733e-01f,+1.51827559e-01f,-1.01728730e-01f,-2.53291428e-02f,
+6.66086972e-02f,-1.23746470e-01f,+1.28974870e-01f,-3.68196219e-02f,-4.35694680e-02f,
-5.67183942e-02f,-3.88445631e-02f,-4.86235470e-02f,-6.25516772e-02f,+1.11982957e-01f,
+2.94611454e-02f,+1.18353054e-01f,+1.45125762e-01f,-1.45697832e-01f,+1.10942706e-01f,
+1.33991346e-01f,+9.77543145e-02f,-1.50907516e-01f,-1.11180544e-03f,+1.11731440e-02f,
-2.03556716e-02f,-9.99169648e-02f,-5.65889478e-03f,-7.13318214e-02f,+4.04923558e-02f,
+2.04096735e-03f,+5.38382828e-02f,-1.40268356e-01f,-4.62341756e-02f,+5.74982017e-02f,
+1.02436692e-02f,+1.30968675e-01f,+5.06254137e-02f,+8.93934965e-02f,-3.10077518e-02f,
+1.18718699e-01f,-8.94920006e-02f,+8.66189599e-03f,+2.61985958e-02f,-2.43426412e-02f,
-7.78275952e-02f,-5.69615811e-02f,+1.05168834e-01f,-1.45724565e-02f,+1.05608836e-01f,
-5.06528243e-02f,-1.47357106e-01f,+1.04475766e-02f,+1.76441669e-03f,-7.92537928e-02f,
+2.37248987e-02f,+1.15045890e-01f,+7.35722929e-02f,-2.12512463e-02f,-6.55623674e-02f,
+7.41950125e-02f,+1.18560299e-01f,+1.15972564e-01f,+1.57851860e-01f,+7.67702162e-02f,
-1.51661694e-01f,-7.00849891e-02f,+1.64528638e-02f,+2.56520212e-02f,-1.06215686e-01f,
-4.88377810e-02f,+9.69953984e-02f,-1.47369549e-01f,-1.73671544e-03f,+5.65064549e-02f,
+3.36605459e-02f,-7.81537518e-02f,+1.66466683e-02f,-3.07999998e-02f,-1.12499595e-01f,
-1.31397069e-01f,+7.32396394e-02f,-9.68440324e-02f,+8.76250118e-02f,+5.27141094e-02f,
-1.08443335e-01f,+4.15772498e-02f,+6.27314150e-02f,-3.79566103e-02f,+7.13944435e-03f,
+1.06811956e-01f,+1.44962654e-01f,+9.97617692e-02f,-6.78488240e-02f,-1.33284897e-01f,
+8.50554109e-02f,-7.52410367e-02f,-2.80288309e-02f,-4.34291214e-02f,-9.38690752e-02f,
+5.56385219e-02f,+4.75957990e-02f,-1.57297403e-01f,-1.59467757e-02f,-6.21594340e-02f,
+8.84099305e-03f,-2.99404711e-02f,-6.45086914e-02f,-1.31794840e-01f,+6.30231202e-02f,
+2.77715921e-03f,-7.80959427e-03f,+1.03781626e-01f,+8.09153020e-02f,-4.55099717e-02f,
-1.60040408e-02f,-2.17562765e-02f,+1.15530536e-01f,-1.41799405e-01f,+1.24234155e-01f,
+7.20153451e-02f,-1.47356167e-01f,+6.18414581e-02f,+1.48065135e-01f,+1.57380745e-01f,
+9.18088406e-02f,+4.27254289e-02f,-6.09760433e-02f,+2.83513069e-02f,-5.99985868e-02f,
-5.60913756e-02f,+4.95444536e-02f,+3.66513729e-02f,+1.11291930e-01f,+5.17843664e-03f,
+1.05932057e-02f,+9.42679495e-02f,-9.09451172e-02f,+1.56929269e-01f,+1.16468355e-01f,
-1.35603547e-02f,+1.30606875e-01f,+1.56273529e-01f,+8.56635422e-02f,+1.49339870e-01f,
-7.29893744e-02f,-1.26761049e-01f,-1.47772312e-01f,-1.33502632e-02f,+9.98364836e-02f,
-5.81093132e-02f,-1.43902004e-01f,-9.76544619e-03f,+1.78249329e-02f,-4.08989191e-02f,
+1.12256780e-01f,-1.15167469e-01f,-8.72761011e-04f,+8.59147608e-02f,-4.12632972e-02f,
-7.83599541e-02f,+5.67701161e-02f,-5.76384366e-03f,+2.58505791e-02f,+6.69405758e-02f,
-7.13014752e-02f,-1.36938676e-01f,-6.70290962e-02f,-1.56351760e-01f,-8.41289759e-04f,
-7.17650354e-03f,+1.23202652e-02f,+1.17296085e-01f,+1.22558132e-01f,-1.01196930e-01f,
+6.45634681e-02f,+1.41539529e-01f,-1.56911984e-01f,+1.28562614e-01f,+1.28441855e-01f,
-4.00901958e-02f,+4.81866300e-02f,-4.68692631e-02f,+1.00873157e-01f,+5.13409972e-02f,
-2.86525041e-02f,-1.15417823e-01f,-1.50713041e-01f,+7.12600797e-02f,-6.39066622e-02f,
-1.52759850e-01f,-9.73905623e-03f,+1.39884368e-01f,-4.90857884e-02f,-5.67661226e-03f,
-3.06690484e-02f,+6.68902546e-02f,+1.42454132e-01f,-2.20946074e-02f,-3.29734832e-02f,
-9.27522555e-02f,-6.63148090e-02f,+3.15459520e-02f,+8.36316645e-02f,+1.05462030e-01f,
+8.81787837e-02f,+3.37395221e-02f,+1.09229788e-01f,+1.10927090e-01f,+9.49421376e-02f,
+1.38992414e-01f,+6.88210726e-02f,-1.41011447e-01f,-3.92902642e-02f,+1.20289817e-01f,
+1.12509415e-01f,+1.35763034e-01f,-1.48929313e-01f,-2.28902400e-02f,+2.96539664e-02f,
-1.30184531e-01f,-1.54814422e-01f,-6.30729496e-02f,-2.86378413e-02f,-8.80189463e-02f,
-8.17377046e-02f,-1.00556195e-01f,-1.12008557e-01f,+1.45375654e-01f,-1.22476369e-01f,
+6.98937178e-02f,+9.20563489e-02f,-6.25753105e-02f,+9.49705094e-02f,-1.52367160e-01f,
+7.24230856e-02f,-5.97632453e-02f,-2.06282735e-03f,+1.57919064e-01f,-9.54140946e-02f,
-1.19663626e-01f,+8.45466554e-03f,+1.53914526e-01f,-9.69003886e-02f,+1.38906315e-01f,
-1.26159936e-02f,-2.06523389e-02f,-1.40032753e-01f,+7.50079900e-02f,+7.81911463e-02f,
+1.42762616e-01f,+7.67742544e-02f,+5.38360924e-02f,-5.17819002e-02f,-5.79199195e-02f,
-1.20896176e-01f,+8.01120698e-03f,-8.57855678e-02f,-3.15848589e-02f,-4.95438129e-02f,
-2.88681239e-02f,-1.09589219e-01f,-4.16116565e-02f,-1.04935482e-01f,+6.70740008e-03f,
-1.48004904e-01f,+1.19168654e-01f,-1.03698865e-01f,-9.73218828e-02f,-1.31762624e-02f,
+1.41188279e-01f,+7.49334991e-02f,-1.47342667e-01f,-5.16483188e-03f,+1.35918126e-01f,
-6.48891702e-02f,+9.64856297e-02f,-4.61693779e-02f,+1.52245745e-01f,-4.12009880e-02f,
+9.32330936e-02f,-3.69196683e-02f,+1.10369489e-01f,+2.30421275e-02f,+1.02315947e-01f,
+1.32740930e-01f,-2.02824622e-02f,-1.00575835e-01f,-1.03757113e-01f,-5.40596470e-02f,
-1.03702828e-01f,-1.22560628e-01f,+1.35487363e-01f,+3.26730609e-02f,-3.44124585e-02f,
-1.40106231e-01f,+8.95863175e-02f,+3.78809869e-02f,-5.97898588e-02f,+1.15671903e-02f,
-8.99595618e-02f,+5.51050901e-03f,+2.65871435e-02f,+5.94789237e-02f,+1.21883601e-02f,
+1.61128044e-02f,+1.13757566e-01f,-8.60354602e-02f,-7.92557597e-02f,+6.04265630e-02f,
-1.13114625e-01f,+1.19206756e-02f,+1.35505006e-01f,+4.37295735e-02f,-6.77804351e-02f,
+1.01365104e-01f,-9.09256712e-02f,+9.63476449e-02f,-1.62750483e-02f,-9.50534418e-02f,
-4.10704762e-02f,-5.69994748e-03f,+1.00225970e-01f,+1.00599363e-01f,+3.22735459e-02f,
+5.29646873e-03f,+1.34915456e-01f,+1.02362469e-01f,+7.57170320e-02f,-4.27592024e-02f,
+7.82085955e-02f,+1.42628148e-01f,+6.84020668e-02f,+2.15584040e-02f,+4.10836339e-02f,
-5.08107767e-02f,+5.99760115e-02f,-4.09009159e-02f,-1.36999667e-01f,+1.17352590e-01f,
+1.19771823e-01f,-2.22029537e-02f,-1.00549147e-01f,-4.73387837e-02f,+4.59131449e-02f,
-9.94968265e-02f,-1.56203836e-01f,-6.28698766e-02f,-1.57207102e-02f,+1.61090642e-02f,
-1.37795761e-01f,-8.00341293e-02f,-4.94342595e-02f,+7.94578940e-02f,+6.95317090e-02f,
+1.25829622e-01f,-1.00019045e-01f,-7.42178187e-02f,-3.06729227e-02f,+1.13925263e-01f,
-3.47462296e-02f,-7.36321136e-02f,+9.30164605e-02f,-1.23078965e-01f,-1.12785496e-01f,
-1.52862117e-01f,+9.95974392e-02f,-1.04346275e-01f,-1.38469040e-01f,+1.30001590e-01f,
-1.38984129e-01f,-1.09527282e-01f,-9.95442122e-02f,-1.41516477e-01f,-3.25382948e-02f,
+6.57262802e-02f,+1.28889576e-01f,-8.01792666e-02f,+6.56368583e-02f,-1.40814260e-01f,
+1.47163317e-01f,-1.13437131e-01f,+8.52772146e-02f,+6.47325367e-02f,+1.38387725e-01f,
-5.70453480e-02f,-5.93682528e-02f,-1.48326844e-01f,-7.70056024e-02f,+1.00995556e-01f,
-1.15552440e-01f,+1.23048022e-01f,-9.28411037e-02f,+8.66210163e-02f,-7.87720084e-04f,
-9.93015543e-02f,+4.33183312e-02f,-1.35605663e-01f,+1.24635413e-01f,+3.18537951e-02f,
-1.20938703e-01f,+8.92501324e-02f,-1.17158160e-01f,+1.02428421e-01f,+9.53373462e-02f,
-9.89129320e-02f,-5.10126352e-04f,+2.82059014e-02f,-8.65787268e-04f,-1.13135442e-01f,
-7.31090978e-02f,-1.62950307e-02f,+8.70853662e-02f,-5.15026376e-02f,-4.67552319e-02f,
+8.20203573e-02f,+3.18676680e-02f,+1.09003410e-01f,-6.12212270e-02f,+7.85424411e-02f,
+1.05112493e-02f,-7.70811141e-02f,-5.63457236e-02f,+1.80064142e-03f,+2.60308832e-02f,
+1.04984269e-01f,+6.42956942e-02f,+7.48664141e-04f,+1.26029804e-01f,+9.90463048e-02f,
-8.74228328e-02f,+1.18521526e-01f,-9.80668515e-02f,+7.33298510e-02f,+8.73212516e-03f,
+8.95219743e-02f,-7.20657185e-02f,-8.71102512e-02f,-6.74001500e-02f,+3.63432318e-02f,
-1.20831609e-01f,+1.37732252e-01f,-9.44602787e-02f,+1.13907054e-01f,+7.12650567e-02f,
-1.48287222e-01f,+1.28737703e-01f,-1.18859768e-01f,+8.35402757e-02f,-1.94923282e-02f,
-3.41123492e-02f,+6.97617680e-02f,-9.05276984e-02f,+7.91160911e-02f,+7.43451566e-02f,
+9.88052338e-02f,+3.09368819e-02f,+1.15383014e-01f,-7.44902194e-02f,-1.33477986e-01f,
-1.48379266e-01f,+1.05774060e-01f,+7.49203861e-02f,-4.62693498e-02f,+6.86199218e-02f,
+1.41364351e-01f,-6.57572970e-02f,+5.96529096e-02f,+1.74388438e-02f,+4.70977873e-02f,
+1.15865752e-01f,+3.73672843e-02f,-8.04205239e-02f,-3.14975530e-02f,-1.46999702e-01f,
+2.64570564e-02f,-1.39500022e-01f,+1.29813656e-01f,+8.15354288e-03f,+4.51436639e-02f,
-1.03936642e-02f,-4.11270633e-02f,+8.73208642e-02f,-1.02735922e-01f,+1.08468518e-01f,
+1.25390157e-01f,+1.92572176e-03f,-1.55664086e-01f,-6.31234646e-02f,+4.31298763e-02f,
+1.32711276e-01f,+7.78315216e-02f,-5.91888875e-02f,+2.85696834e-02f,-1.38750792e-01f,
-1.15178406e-01f,+1.50349453e-01f,-1.00749128e-01f,-5.05191535e-02f,-1.46581411e-01f,
+1.14570722e-01f,-1.02550909e-01f,-3.22834998e-02f,-6.72772154e-02f,-1.78612024e-02f,
-6.83336109e-02f,-1.22218415e-01f,-1.21648543e-01f,-1.46564633e-01f,+1.53155699e-01f,
-1.28859133e-02f,-2.52494216e-02f,-2.03682631e-02f,+1.51890218e-02f,+5.39652854e-02f,
+2.91426033e-02f,-5.31959236e-02f,-4.80137914e-02f,+1.44720867e-01f,-3.45732346e-02f,
-9.81217027e-02f,+1.10706940e-01f,+2.51934379e-02f,-6.24855533e-02f,-6.08931854e-02f,
-9.47999954e-03f,+2.99524516e-02f,-1.05965674e-01f,+8.77927244e-02f,-1.21006176e-01f,
-1.40924454e-01f,+9.13419276e-02f,-8.16974118e-02f,+1.51613161e-01f,+1.38463154e-01f,
-7.18131810e-02f,-1.01592988e-01f,+2.06836760e-02f,-1.35117367e-01f,+1.44157186e-01f,
-1.00992955e-01f,+4.98352051e-02f,+1.44880414e-02f,-4.79610488e-02f,-4.08556759e-02f,
+1.23407379e-01f,-9.56451744e-02f,-1.50066346e-01f,-6.59649000e-02f,+1.49356648e-01f,
+1.01298407e-01f,+1.42144039e-01f,+1.32729933e-01f,-1.47724628e-01f,-5.50005659e-02f,
-2.57991254e-02f,-1.15566611e-01f,+1.04996905e-01f,+1.10050961e-01f,+7.63022900e-02f,
+6.12354279e-03f,+1.01079389e-01f,-1.56050175e-02f,-1.20205835e-01f,+1.12751797e-01f,
+8.42972845e-02f,-1.17749721e-02f,-7.54043013e-02f,+6.55075163e-02f,-3.06679308e-03f,
-5.54783419e-02f,+1.14121303e-01f,-3.01908553e-02f,+6.10657930e-02f,-9.35850218e-02f,
+4.37463373e-02f,-1.37060434e-01f,+9.06347185e-02f,+6.76488876e-03f,-1.53847039e-01f,
-5.33863902e-04f,+1.25726208e-01f,+9.67367142e-02f,+3.24388593e-02f,-9.48571563e-02f,
+1.05153307e-01f,-1.82205290e-02f,-6.35892898e-02f,+8.57329071e-02f,-8.32173675e-02f,
-1.21660531e-03f,-1.50696710e-01f,-1.33954108e-01f,-3.98226976e-02f,-7.52400160e-02f,
+1.55912891e-01f,-1.18947327e-02f,-1.42975926e-01f,-2.55521238e-02f,-1.41778976e-01f,
-1.21834919e-01f,+1.03376284e-01f,+6.44498020e-02f,-1.82892531e-02f,+8.69670063e-02f,
+1.48604676e-01f,+3.93858999e-02f,+6.37671798e-02f,-7.59834424e-02f,-3.95027250e-02f,
+1.13613263e-01f,-1.18071035e-01f,+6.54862821e-03f,-7.37539157e-02f,+7.01298863e-02f,
-2.73189992e-02f,+3.50676030e-02f,-1.46054626e-01f,-2.73078680e-04f,-2.56525129e-02f,
-9.63543355e-03f,-1.18260838e-01f,+1.26793101e-01f,+3.13279480e-02f,+4.62976545e-02f,
-4.49676961e-02f,-2.26330310e-02f,+9.99059528e-02f,-7.36675113e-02f,+1.36819333e-02f,
-4.27045822e-02f,-8.51963982e-02f,+4.61298227e-03f,-1.25244483e-01f,+2.70276666e-02f,
+1.31158814e-01f,-1.36959523e-01f,-1.31309107e-01f,+1.61552876e-02f,+1.39911920e-02f,
-1.35422409e-01f,-1.11177593e-01f,+1.85020566e-02f,+8.91065449e-02f,-8.46360624e-03f,
+1.37641773e-01f,-4.21938300e-03f,+1.15698576e-02f,-1.09922275e-01f,+7.86590874e-02f,
+1.14263192e-01f,-9.65431333e-03f,-8.64288360e-02f,-1.00270674e-01f,+1.50065437e-01f,
-1.35846391e-01f,+3.79098952e-02f,+7.47295618e-02f,-4.94443998e-02f,+8.51937979e-02f,
+1.44859776e-01f,-8.99684206e-02f,-9.97678638e-02f,+1.40633836e-01f,+5.40362000e-02f,
-8.99034292e-02f,+1.20663047e-02f,+8.56564939e-03f,+1.19229242e-01f,+1.16375133e-01f,
-2.94157565e-02f,+8.33544284e-02f,+7.85991549e-04f,+1.32838592e-01f,+7.97617286e-02f,
-1.25161365e-01f,-1.01422966e-01f,+5.58980256e-02f,-1.90892667e-02f,+1.51234433e-01f,
+1.41574964e-01f,+1.17411897e-01f,+4.66016829e-02f,-2.33987421e-02f,+1.38003573e-01f,
-8.50476772e-02f,-2.13933289e-02f,-1.43027961e-01f,-2.75155902e-02f,-2.81782299e-02f,
-8.21126476e-02f,-4.32436541e-02f,-1.40208602e-02f,-1.36829048e-01f,-1.20570213e-02f,
+4.98210341e-02f,-9.78756920e-02f,-4.59811538e-02f,+6.03231788e-03f,-1.48425534e-01f,
-4.99198064e-02f,-1.17453739e-01f,-4.86830324e-02f,+1.80308074e-02f,+5.57511896e-02f,
+8.41515362e-02f,-4.49574068e-02f,-7.09450915e-02f,-9.54199359e-02f,+7.96586275e-04f,
-1.32727101e-01f,-6.47094324e-02f,-4.48045805e-02f,+3.23389471e-03f,+8.84788930e-02f,
-1.09125048e-01f,+9.78108793e-02f,-1.42367959e-01f,+1.21059939e-01f,-5.24800494e-02f,
+4.31379825e-02f,-5.94976544e-03f,+3.75582576e-02f,-6.82584047e-02f,+1.07025638e-01f,
+7.94797987e-02f,-3.41074169e-03f,+7.52754509e-03f,+8.16111565e-02f,-3.81380469e-02f,
+2.54796445e-03f,-1.95751488e-02f,+9.14437026e-02f,+6.20902181e-02f,-6.42655417e-02f,
-1.12752698e-01f,+1.50085047e-01f,+1.46507874e-01f,+5.25721908e-02f,-1.38715237e-01f,
+6.94847703e-02f,+1.39960036e-01f,+3.49905789e-02f,+1.32759616e-01f,+1.51959851e-01f,
-1.16368018e-01f,+9.38244909e-02f,+7.06697106e-02f,+7.55581111e-02f,+7.13463426e-02f,
-3.57668102e-03f,-2.16330737e-02f,+6.70953244e-02f,-1.49385408e-01f,+1.23313025e-01f,
+1.25368521e-01f,+1.66936368e-02f,-1.37677386e-01f,-9.86176431e-02f,+2.60875821e-02f,
-8.91788527e-02f,-1.11349195e-01f,-1.52193829e-01f,-1.15613788e-02f,-1.29854947e-01f,
-9.66562182e-02f,-7.69303739e-03f,+7.04616606e-02f,-8.03027600e-02f,+8.51391405e-02f,
+6.77672476e-02f,+1.89366639e-02f,-2.28163898e-02f,-9.48726088e-02f,+4.61607426e-02f,
+1.50735572e-01f,-1.54692546e-01f,-3.84088233e-02f,+3.19191217e-02f,+4.45328653e-03f,
-7.50589147e-02f,+1.51936710e-02f,+1.44326136e-01f,+9.45127159e-02f,-1.36211872e-01f,
+5.46059906e-02f,-3.66504714e-02f,+1.26129881e-01f,+6.65152073e-02f,-1.20392092e-01f,
+6.98588341e-02f,-8.70385841e-02f,-1.24399990e-01f,-2.78846025e-02f,+8.20548236e-02f,
+1.56054035e-01f,+1.31316885e-01f,+1.33744910e-01f,-1.09587073e-01f,+6.64101839e-02f,
-3.68288532e-02f,-1.05710655e-01f,+1.13610312e-01f,+4.57985848e-02f,-8.94619226e-02f,
+7.44294524e-02f,-1.56492636e-01f,+1.28543004e-01f,+1.46381661e-01f,+1.22671232e-01f,
-1.05346538e-01f,+3.13079357e-03f,+7.51205832e-02f,-6.21572062e-02f,-3.86757180e-02f,
-1.34937510e-01f,+3.71472836e-02f,+7.55298734e-02f,+7.22393543e-02f,-6.20580688e-02f,
-1.63277984e-03f,-5.06641716e-02f,-4.35829163e-03f,-1.24480098e-01f,+1.50306180e-01f,
-1.11315303e-01f,-1.49073586e-01f,-1.27911195e-01f,+1.60055161e-02f,+1.54622927e-01f,
+9.22736377e-02f,-1.17174059e-01f,+7.00277984e-02f,+6.86348081e-02f,+9.02372450e-02f,
+1.41362831e-01f,-7.45101199e-02f,-1.04438066e-02f,-5.55635393e-02f,+8.36841762e-03f,
-1.42124727e-01f,-1.14504412e-01f,-3.84436175e-02f,-1.51359394e-01f,-1.08135790e-02f,
-1.07267328e-01f,+5.95131963e-02f,+3.92561853e-02f,-1.43797815e-01f,-1.02153659e-01f,
-4.68849838e-02f,-5.42853773e-02f,+1.03683934e-01f,+8.06396604e-02f,-4.95941937e-03f,
+4.59746271e-02f,-1.04993284e-02f,-5.18982112e-03f,-1.57904744e-01f,+5.12571186e-02f,
+2.32410133e-02f,+3.08460742e-02f,-1.01167828e-01f,+6.29578531e-03f,-3.38147655e-02f,
+1.28357187e-01f,-1.13087267e-01f,-1.04739919e-01f,+1.20448515e-01f,-1.12599082e-01f,
-1.29841030e-01f,-2.37955898e-02f,-8.42336491e-02f,-1.49285704e-01f,-1.08993679e-01f,
+2.42710114e-03f,-4.52465117e-02f,-1.01582274e-01f,-1.20394543e-01f,+5.20593524e-02f,
+1.17979869e-01f,-3.79922315e-02f,-5.33628091e-02f,+1.18292555e-01f,+7.03840703e-02f,
+1.14848748e-01f,+5.01779914e-02f,+9.67878252e-02f,-2.04868168e-02f,-4.71345782e-02f,
+4.74508256e-02f,-1.06272385e-01f,+6.48379326e-02f,-3.56680155e-03f,-8.69513527e-02f,
+1.39044300e-01f,-1.45675093e-02f,+7.34078586e-02f,+7.79227018e-02f,-1.02587096e-01f,
+1.19108155e-01f,+3.55038643e-02f,+1.23147205e-01f,+7.67341405e-02f,+1.52527675e-01f,
+9.86573845e-02f,-8.85992944e-02f,-5.43941706e-02f,+1.09025463e-01f,-6.07884601e-02f,
+1.25296578e-01f,+9.94160026e-02f,+1.09092250e-01f,-1.01501793e-02f,-1.37289762e-02f,
+1.45331785e-01f,+3.05314362e-03f,+7.40297884e-02f,-3.18664610e-02f,-1.33494392e-01f,
+1.76152587e-02f,-1.09784678e-01f,-1.21090248e-01f,+1.26316115e-01f,+1.25542834e-01f,
-6.23855814e-02f,+1.16530523e-01f,-6.89266995e-02f,-1.53780654e-01f,-1.13471963e-01f,
+1.35150537e-01f,+1.19206920e-01f,-2.91393548e-02f,-3.94657776e-02f,-3.50366533e-02f,
-1.56165004e-01f,-1.10820673e-01f,+1.05900690e-01f,+8.04952383e-02f,+1.02683768e-01f,
+3.53295207e-02f,-9.90041643e-02f,-1.24986224e-01f,-1.24070108e-01f,+1.38284311e-01f,
-2.94458419e-02f,+7.18732327e-02f,-5.03484979e-02f,+1.02060065e-01f,+8.26451927e-02f,
-9.24418122e-02f,-9.07992348e-02f,-1.28205761e-01f,+1.59948468e-02f,+6.14061654e-02f,
-5.06857336e-02f,-1.50677040e-01f,+2.26406157e-02f,+8.22842121e-02f,+2.91296691e-02f,
-1.09884426e-01f,-1.46591142e-01f,-3.68424281e-02f,-1.03290260e-01f,-1.17071182e-01f,
+1.40145972e-01f,-3.51323262e-02f,+3.93992811e-02f,+6.32352084e-02f,-1.21388540e-01f,
+6.12352043e-02f,+5.26454300e-02f,-5.77423275e-02f,+3.79083157e-02f,-4.28649038e-02f,
+8.51650685e-02f,-2.13027745e-02f,+8.49059075e-02f,-1.42829522e-01f,+5.71974963e-02f,
-1.43897787e-01f,-1.18461989e-01f,-1.04584977e-01f,+9.58953351e-02f,-3.31642255e-02f,
+8.17441195e-02f,-9.57089216e-02f,+1.36946961e-01f,-2.02139318e-02f,+1.57826543e-02f,
+1.06230095e-01f,+1.96614712e-02f,+1.31901786e-01f,-6.87040240e-02f,+6.77925348e-02f,
+6.23664260e-02f,-1.87370181e-02f,+1.26180992e-01f,-1.05244949e-01f,+8.66588652e-02f,
-1.12470083e-01f,+1.49264529e-01f,+8.43617022e-02f,-1.42166123e-01f,+9.40345675e-02f,
+5.47464192e-02f,-1.55453771e-01f,-2.01921761e-02f,-1.22286305e-01f,-5.00562638e-02f,
-1.09787434e-01f,-5.14601916e-02f,+1.28229126e-01f,+1.79618150e-02f,-1.57037854e-01f,
+4.41702455e-02f,-1.41992301e-01f,-1.07201584e-01f,+1.29920170e-01f,+1.12683624e-02f,
+1.10593364e-01f,-2.32775509e-02f,+1.01688817e-01f,+6.79229349e-02f,+1.17805317e-01f,
+1.32903054e-01f,+6.36801422e-02f,-2.92765498e-02f,-2.32007205e-02f,-1.16277128e-01f,
-1.53880253e-01f,+8.53760689e-02f,-3.07345390e-03f,-1.54171988e-01f,+7.64920563e-02f,
+1.30719200e-01f,-1.35426149e-01f,-6.57882467e-02f,-1.41502231e-01f,+6.40435070e-02f,
+5.87083995e-02f,+2.23541856e-02f,-7.60567635e-02f,+1.02004513e-01f,+3.74341011e-03f,
+1.13726541e-01f,+3.00315022e-02f,+9.50425416e-02f,+8.27778131e-02f,-1.46665260e-01f,
+2.70221382e-02f,+1.45749584e-01f,+1.05054989e-01f,+1.49285033e-01f,-1.25575542e-01f,
-5.43567389e-02f,-7.52699822e-02f,-6.67144358e-03f,-2.68287510e-02f,-2.30816007e-03f,
+5.59000224e-02f,+5.61986566e-02f,+1.38436556e-02f,+6.28061742e-02f,+3.03301066e-02f,
+1.55151173e-01f,-2.54606307e-02f,-8.95407796e-02f,-9.91958380e-03f,-9.86687988e-02f,
-1.46350935e-01f,-1.04655325e-01f,-5.88219762e-02f,-5.28307855e-02f,+2.03540027e-02f,
+1.39865860e-01f,+9.29054171e-02f,-6.93280250e-02f,+9.12676603e-02f,+5.15724868e-02f,
-1.57883778e-01f,+7.77716935e-03f,-1.24185421e-01f,+8.95129293e-02f,+1.26977757e-01f,
+2.57219374e-03f,+1.23107716e-01f,+1.43900529e-01f,+1.57251909e-01f,+9.07607377e-03f,
+8.48772079e-02f,+1.27704069e-01f,-8.28155875e-02f,-1.55015916e-01f,+4.82218415e-02f,
-3.28017622e-02f,+1.10922471e-01f,-8.46586823e-02f,-1.67410076e-03f,-8.80956203e-02f,
+9.14414823e-02f,-1.01196855e-01f,+1.02214232e-01f,+2.39508152e-02f,+7.84972906e-02f,
-6.84663802e-02f,-3.16094458e-02f,-1.27358168e-01f,+1.16940513e-01f,-5.37101552e-02f,
-2.33523399e-02f,-4.66697291e-02f,+7.24948943e-03f,-2.35640407e-02f,+1.12965420e-01f,
+5.34241498e-02f,-1.15987092e-01f,-3.92327756e-02f,+9.42805409e-03f,+1.58106074e-01f,
-6.54632598e-02f,-1.38443545e-01f,-9.75670218e-02f,-4.91363034e-02f,+7.43459165e-02f,
-1.41021758e-02f,+6.16388023e-02f,-1.24274462e-01f,-7.01610222e-02f,+4.51864600e-02f,
+9.29812342e-02f,+1.34744480e-01f,-1.25865102e-01f,+1.01908892e-02f,-1.24875307e-02f,
+2.79594064e-02f,+8.62844139e-02f,+4.94123250e-02f,-1.27707481e-01f,-1.28076866e-01f,
+8.33100677e-02f,-1.32449865e-01f,+1.50747821e-01f,+1.41399696e-01f,-1.90810114e-02f,
+1.11704901e-01f,+8.67215544e-02f,-1.35032550e-01f,-1.43286854e-01f,+2.17795372e-03f,
-2.50235349e-02f,-1.46698207e-01f,-5.53405955e-02f,-2.27439404e-03f,-3.87578979e-02f,
+1.31582484e-01f,-2.57349610e-02f,-1.55425012e-01f,-1.43292293e-01f,-8.85373950e-02f,
-1.15596399e-01f,-1.01863876e-01f,+8.38761181e-02f,+1.22802004e-01f,+1.27811581e-02f,
-6.71329126e-02f,+7.04825819e-02f,+1.06413677e-01f,-3.99663970e-02f,-1.28268257e-01f,
+1.22734010e-02f,-5.77988029e-02f,+1.08534500e-01f,-6.04823232e-03f,-4.07062471e-02f,
+1.18416443e-01f,-1.04543552e-01f,-2.35272497e-02f,+7.26629496e-02f,-1.07452720e-02f,
-7.27010295e-02f,+5.41723967e-02f,-2.24196911e-03f,-8.32109526e-02f,-1.52292550e-01f,
+1.46467254e-01f,+1.46296695e-01f,+1.20133176e-01f,-9.92329866e-02f,+5.22422940e-02f,
+1.04661584e-02f,+1.13353446e-01f,+4.79772687e-03f,-4.85062301e-02f,-1.04455069e-01f,
+8.12482536e-02f,+6.56857938e-02f,+8.99744183e-02f,-7.66768456e-02f,+3.71364951e-02f,
+5.31075299e-02f,-1.54313624e-01f,+1.49965271e-01f,-1.22255653e-01f,+9.13652182e-02f,
-5.72183728e-02f,-5.88352084e-02f,-1.00231245e-01f,+9.24824923e-02f,+1.25205860e-01f,
-1.10041775e-01f,+3.01957577e-02f,+9.51959938e-02f,-3.63651812e-02f,+2.86608934e-03f,
-1.55519247e-01f,+9.88897681e-03f,+8.97535533e-02f,-3.92069146e-02f,+7.79951960e-02f,
+2.63805985e-02f,-7.93363154e-02f,-4.80339974e-02f,+5.80815673e-02f,-1.28094584e-01f,
-4.35918644e-02f,-1.49181694e-01f,-1.50925308e-01f,+1.33301333e-01f,+6.69246763e-02f,
-1.77080780e-02f,-6.48024678e-02f,+4.41709608e-02f,+5.82240671e-02f,-9.73606333e-02f,
-8.44740793e-02f,+1.82192922e-02f,+1.37793198e-01f,+6.73767030e-02f,-7.08374605e-02f,
+1.47299811e-01f,-3.63648012e-02f,+4.19531167e-02f,+1.04815528e-01f,-1.19080395e-02f,
-3.88161018e-02f,+1.28738597e-01f,-1.07687131e-01f,+4.62338328e-03f,+8.03501457e-02f,
-1.34011105e-01f,+7.57986903e-02f,-8.05853382e-02f,-4.62101251e-02f,+1.14337459e-01f,
-1.52815685e-01f,-8.39033425e-02f,-1.33912340e-01f,+1.53988793e-01f,-1.01009235e-01f,
-8.22312757e-02f,-3.08927000e-02f,+5.79851866e-03f,+1.46386400e-01f,+8.46226811e-02f,
+1.45323530e-01f,-9.08973962e-02f,-9.11499262e-02f,+5.90434074e-02f,+1.11545548e-01f,
-1.56336978e-01f,-4.56635877e-02f,+9.29934531e-02f,-3.83347273e-04f,-1.40839621e-01f,
+2.18801498e-02f,+1.11010864e-01f,+1.50042489e-01f,-1.00730926e-01f,-1.17427647e-01f,
+1.17730185e-01f,-1.45836174e-03f,+1.00216702e-01f,+1.01999298e-01f,-2.21038759e-02f,
+1.36626050e-01f,+5.38232774e-02f,+4.52748537e-02f,+1.03828803e-01f,-1.09699816e-02f,
+4.77091968e-02f,-3.63975242e-02f,+9.24984068e-02f,-5.95576018e-02f,-1.44052714e-01f,
-1.14164948e-01f,+4.08355445e-02f,-1.16765574e-01f,+1.22263119e-01f,+7.41671473e-02f,
+1.13035366e-01f,-9.92224663e-02f,-4.60894555e-02f,+5.51561117e-02f,-9.23874900e-02f,
-3.24705243e-03f,+1.13464996e-01f,-1.14819303e-01f,-6.01708889e-05f,+5.33318967e-02f,
-8.60941932e-02f,-1.37654245e-01f,-7.73224905e-02f,-1.48386657e-01f,+1.28065154e-01f,
+1.77092105e-02f,-1.12748928e-01f,-1.17019951e-01f,+5.21856397e-02f,-4.12673354e-02f,
+8.14254284e-02f,+3.11787874e-02f,-6.28874078e-02f,+1.47376806e-02f,-1.31792352e-01f,
+7.59125352e-02f,+1.26862630e-01f,-1.34820193e-02f,+2.84623504e-02f,-1.22704104e-01f,
+1.48176402e-02f,+1.55224040e-01f,-1.26762703e-01f,-8.19502845e-02f,+1.36248842e-01f,
-1.11055717e-01f,-1.17132336e-01f,-8.24440047e-02f,-6.35153651e-02f,+6.76584542e-02f,
-1.35113791e-01f,+8.50776881e-02f,-6.30006865e-02f,-1.07411824e-01f,+4.36369777e-02f,
-1.06645703e-01f,+1.34213373e-01f,+1.34369180e-01f,-1.17307171e-01f,-1.17514469e-01f,
+6.62508309e-02f,+3.22149694e-02f,+1.31363139e-01f,-5.17211333e-02f,-2.22033560e-02f,
-8.21927115e-02f,+8.51257145e-02f,-8.72952715e-02f,-8.53588358e-02f,+1.22151211e-01f,
-5.20631224e-02f,+4.62621897e-02f,-9.05157104e-02f,-9.34954509e-02f,-9.23820287e-02f,
-1.40287131e-02f,+6.34939224e-02f,-4.54867557e-02f,+1.09149858e-01f,-6.85859919e-02f,
+7.66268224e-02f,-1.07325308e-01f,-7.58676007e-02f,+1.67609304e-02f,+8.95476490e-02f,
+6.50904328e-02f,+5.66970557e-02f,+1.12424746e-01f,-1.20466657e-01f,+9.06986147e-02f,
+8.16140920e-02f,-1.15719326e-01f,+8.58006775e-02f,+3.32495719e-02f,+4.08591777e-02f,
+8.17277133e-02f,-1.88975781e-02f,+1.24780104e-01f,+4.74780798e-02f,-1.11327320e-02f,
+1.09100953e-01f,-1.19052745e-01f,+7.81226456e-02f,-5.57979420e-02f,+1.46114811e-01f,
+1.58014894e-02f,+9.19531733e-02f,-3.36030945e-02f,-3.46548930e-02f,-2.64872760e-02f,
+1.24929413e-01f,-1.22749567e-01f,+7.10739046e-02f,+1.09687582e-01f,+9.25399512e-02f,
+8.11426193e-02f,+1.35729030e-01f,+1.52473494e-01f,+8.42960030e-02f,-1.41728669e-02f,
+4.74276692e-02f,-3.77065614e-02f,+1.42981067e-01f,-1.48355708e-01f,+1.49625674e-01f,
+1.26944676e-01f,+1.30256638e-01f,+3.51078659e-02f,-1.64344013e-02f,+1.37830719e-01f,
+1.15965709e-01f,+3.87768298e-02f,-7.31152073e-02f,-2.58368105e-02f,-1.25586331e-01f,
-1.43620446e-01f,-1.13431476e-01f,+1.57182977e-01f,-1.31840721e-01f,+1.03754804e-01f,
+5.15340716e-02f,+5.57741970e-02f,-1.61441267e-02f,-2.92636901e-02f,+8.50394964e-02f,
-1.43079489e-01f,+4.05777991e-03f,+1.40928701e-01f,-1.17097840e-01f,+1.07137263e-02f,
+4.63083982e-02f,+3.37275416e-02f,+1.38581440e-01f,+1.48159713e-02f,+1.10928074e-01f,
-1.51664913e-02f,-2.87234038e-02f,-9.45942923e-02f,+5.74186295e-02f,+4.07454073e-02f,
+8.20558369e-02f,+5.37307709e-02f,+1.19737282e-01f,-5.98381832e-02f,-1.57349274e-01f,
+6.01886213e-02f,-8.85290280e-02f,-4.82199937e-02f,-9.76204872e-04f,+1.04183927e-01f,
-7.50590861e-03f,+3.87509167e-03f,+1.38757572e-01f,+1.10224083e-01f,-1.20017603e-01f,
-1.13249868e-02f,+6.64637089e-02f,-1.42504483e-01f,-4.35417220e-02f,+5.02312183e-02f,
+1.34857491e-01f,-9.35209394e-02f,+1.49227187e-01f,-9.12172943e-02f,+8.14713836e-02f,
+2.13822722e-03f,-1.27382785e-01f,-5.97790033e-02f,+4.86857444e-02f,+1.23284504e-01f,
+8.65654647e-03f,+1.69744492e-02f,+1.42634511e-02f,-1.08507872e-02f,-1.96750015e-02f,
+1.64614320e-02f,-5.03896624e-02f,+4.50650007e-02f,-1.43647999e-01f,-3.18066776e-03f,
+1.57699838e-01f,+3.38836014e-02f,-1.06489450e-01f,+1.35582671e-01f,+4.42221165e-02f,
+2.93849260e-02f,-7.10634217e-02f,+9.11519676e-02f,-1.18398517e-02f,-2.73339301e-02f,
+1.43083021e-01f,-1.54122680e-01f,-1.43905506e-01f,-5.75385392e-02f,+2.48652399e-02f,
+3.75676155e-03f,-6.69239908e-02f,-1.38477817e-01f,+1.43960163e-01f,+1.22325465e-01f,
+7.66058266e-02f,-3.21526527e-02f,-1.15637526e-01f,-1.07511193e-01f,-1.16471201e-01f,
+1.53179541e-01f,-7.05126598e-02f,-1.33815914e-01f,+1.57447204e-01f,-1.02018319e-01f,
+9.79134589e-02f,+1.00776598e-01f,+3.80913764e-02f,-1.10233992e-01f,-5.43246940e-02f,
+1.16534606e-01f,-9.16106254e-02f,-9.26082879e-02f,+1.46587923e-01f,-8.74517858e-02f,
-6.27403110e-02f,+7.30773807e-03f,-1.55744717e-01f,+2.75395662e-02f,-8.52557346e-02f,
-5.99015951e-02f,+4.74436581e-02f,+9.75927263e-02f,+6.06642812e-02f,-3.36907059e-02f,
-9.02735069e-02f,-4.61474359e-02f,+7.85291791e-02f,-1.15294591e-01f,+1.16328225e-01f,
-2.22395509e-02f,+2.30766982e-02f,-3.35126966e-02f,-1.49775311e-01f,+1.32157579e-01f,
+1.33306012e-01f,+1.53240636e-01f,+9.34836268e-03f,+2.02769488e-02f,-1.22020274e-01f,
-1.12460658e-01f,-1.17271811e-01f,-1.98502243e-02f,-1.19017050e-01f,-7.68467486e-02f,
+9.81948823e-02f,+1.14194587e-01f,+9.77454931e-02f,-1.51343003e-01f,-9.48373303e-02f,
+4.43919003e-03f,-1.87982470e-02f,+1.85697228e-02f,+4.63875234e-02f,-1.53066590e-01f,
-1.50626749e-01f,-1.48047239e-01f,-8.98045897e-02f,+3.12922150e-02f,+1.48911551e-01f,
+1.36847034e-01f,-6.19984642e-02f,+7.13405311e-02f,+9.70109552e-02f,+6.04918599e-02f,
-3.31299230e-02f,-6.40101060e-02f,+7.87020177e-02f,-6.48575053e-02f,-6.11870289e-02f,
-6.02802634e-02f,-1.42874569e-02f,+8.92590284e-02f,-7.68264309e-02f,+1.57772347e-01f,
-6.36488125e-02f,+1.48500249e-01f,+2.19652355e-02f,-1.22781545e-02f,+1.26958266e-01f,
-8.70024338e-02f,-1.74597949e-02f,-1.43494427e-01f,-6.70912191e-02f,-7.56248683e-02f,
+2.40208209e-02f,+1.45600185e-01f,-1.07068852e-01f,+1.16872326e-01f,+1.08365968e-01f,
-1.03323743e-01f,-1.12301275e-01f,-1.24120012e-01f,+1.34707972e-01f,+1.42485872e-01f,
+5.84862828e-02f,+2.32971162e-02f,-4.99580279e-02f,+5.48568219e-02f,-1.42114609e-02f,
-5.18719554e-02f,+5.52688241e-02f,-3.51195037e-03f,-3.93145010e-02f,+1.07220367e-01f,
+9.05335844e-02f,-4.22000363e-02f,+3.32039148e-02f,+1.47950426e-01f,+1.45819202e-01f,
+5.83087355e-02f,+1.36340484e-01f,+7.20553100e-02f,+1.05752572e-01f,+2.33307481e-04f,
+1.45046130e-01f,-1.56984955e-01f,-3.65031511e-02f,+7.32817948e-02f,-7.60469288e-02f,
+2.67670751e-02f,-2.16901898e-02f,+1.50436804e-01f,+6.82695657e-02f,-1.49316728e-01f,
-8.39509889e-02f,+1.08615309e-02f,+1.42809793e-01f,-2.25147754e-02f,-2.63333321e-02f,
-5.42419851e-02f,+1.20115280e-03f,-7.99996406e-02f,-1.12737164e-01f,-6.57101423e-02f,
+6.34514391e-02f,-6.79714903e-02f,+8.51393938e-02f,-3.28045189e-02f,-1.57652989e-01f,
-8.82852376e-02f,+1.43193558e-01f,+1.31529376e-01f,+1.73615217e-02f,-1.37423947e-01f,
-1.42968163e-01f,-7.78270662e-02f,+2.50117481e-03f,-1.50665492e-02f,+7.28098154e-02f,
-8.99049416e-02f,+1.57939419e-01f,-1.32434115e-01f,+1.23965338e-01f,+1.49656385e-02f,
+1.61330104e-02f,-1.07960619e-01f,-1.30288273e-01f,+1.33115128e-01f,-1.80638283e-02f,
-1.24840222e-01f,+3.29614580e-02f,+1.52869359e-01f,-3.09124589e-04f,-1.39721036e-01f,
+1.29652023e-03f,-4.14957777e-02f,+1.18358478e-01f,+7.01710433e-02f,+1.26460478e-01f,
-7.81310946e-02f,-1.34489819e-01f,+5.84526360e-03f,+1.42292067e-01f,-1.24208868e-01f,
-1.20269954e-01f,+2.71197259e-02f,-1.36206970e-01f,+1.16629049e-01f,+5.80209494e-02f,
+1.05153576e-01f,-3.23097408e-02f,+2.09672004e-02f,+7.64504075e-03f,+4.33773249e-02f,
-1.48858815e-01f,-9.22317281e-02f,+2.72738039e-02f,-7.39269033e-02f,-5.84556386e-02f,
+1.06732324e-01f,+8.53194445e-02f,-7.37409070e-02f,+4.50117290e-02f,+5.58909774e-02f,
+3.08409482e-02f,-1.18571967e-02f,+9.56511050e-02f,-3.84082571e-02f,-3.66736948e-02f,
-5.17507568e-02f,+9.17301625e-02f,+9.60088819e-02f,-8.46862048e-02f,+4.39891219e-02f,
-1.09154433e-02f,-1.06264807e-01f,+1.03974834e-01f,+1.30743101e-01f,-7.97691941e-02f,
+7.44177550e-02f,+1.45360827e-04f,+6.37599826e-02f,-9.66108292e-02f,+7.61883706e-02f,
+1.52938202e-01f,+1.73487365e-02f,+5.95269203e-02f,+1.54900387e-01f,-2.68024355e-02f,
-1.00305587e-01f,-5.37997559e-02f,+4.65444326e-02f,+5.72331846e-02f,-1.22523308e-01f,
+1.29384711e-01f,-5.88842928e-02f,-8.20882916e-02f,-9.83832106e-02f,-1.22895390e-02f,
+8.34520608e-02f,+1.32466391e-01f,+1.55103192e-01f,-5.16568571e-02f,+4.81144488e-02f,
+7.53785968e-02f,+1.08468994e-01f,-7.77211785e-02f,-8.20272267e-02f,-7.23476186e-02f,
+8.50157887e-02f,-1.13915250e-01f,-1.54886842e-02f,+5.67310601e-02f,-1.25854909e-01f,
+7.03730285e-02f,+1.50825933e-01f,+1.20970532e-01f,+1.86851919e-02f,-5.10685146e-02f,
+3.56361121e-02f,-7.98926502e-02f,-1.41110674e-01f,-5.53341135e-02f,+6.77520931e-02f,
-1.34856120e-01f,-1.44468024e-01f,-1.05471089e-01f,-3.48232687e-03f,+1.50066271e-01f,
+9.54896361e-02f,+1.29649028e-01f,+8.19111913e-02f,-4.13683653e-02f,+1.03642479e-01f,
+9.78192240e-02f,-8.95511508e-02f,-3.18736583e-02f,-1.16728544e-02f,+1.48779497e-01f,
+1.09069571e-01f,+1.48369327e-01f,+8.85281563e-02f,+1.13975212e-01f,+3.64382714e-02f,
+1.57784477e-01f,+1.14566699e-01f,+2.81933546e-02f,-7.29344860e-02f,-1.00796252e-01f,
+1.27631858e-01f,-1.28081739e-01f,+8.07887912e-02f,+3.77012044e-02f,+1.15662590e-01f,
-9.42541659e-03f,-6.55995384e-02f,+8.20554197e-02f,+1.57839552e-01f,+1.24926403e-01f,
+7.53776729e-03f,-1.61750317e-02f,-2.62866914e-02f,-7.40308762e-02f,+2.42069364e-02f,
+1.43114999e-01f,-5.08906990e-02f,-1.31373420e-01f,-7.74642304e-02f,+7.28148669e-02f,
+1.10708967e-01f,-1.05658822e-01f,+2.06538886e-02f,+8.61967653e-02f,+9.99636203e-02f,
-7.46728182e-02f,-1.29424021e-01f,-1.01981759e-02f,+9.87462848e-02f,-6.09694049e-02f,
-1.55639768e-01f,-1.42209172e-01f,-6.78732991e-04f,-1.18236840e-02f,+1.47535697e-01f,
-1.11852974e-01f,-8.21741670e-02f,+5.96058965e-02f,-8.31217244e-02f,+9.47103649e-02f,
