#include <math.h> 
 #include <string.h> 
#include "./include/k2c_include.h" 
#include "./include/k2c_tensor_include.h" 

 


void torbeam_EC4_omode(k2c_tensor* input_1_3_input, k2c_tensor* dense_3_3_output) { 

float dense_output_array[120] = {0}; 
k2c_tensor dense_output = {&dense_output_array[0],1,120,{120,  1,  1,  1,  1}}; 
float dense_kernel_array[1680] = {
-2.07242072e-02f,+1.98615775e-01f,+8.41812789e-03f,+1.01293609e-01f,-1.75773650e-02f,
+2.26646811e-02f,+1.76470682e-01f,-1.69907153e-01f,+1.65161148e-01f,-1.14896208e-01f,
+1.16052225e-01f,+1.07799634e-01f,+1.11497566e-01f,+8.92828256e-02f,+2.47924626e-02f,
-2.09816888e-01f,-1.68437943e-01f,+1.79179296e-01f,-4.26225364e-02f,-1.01401620e-01f,
-1.36784449e-01f,+1.56656548e-01f,+1.60949066e-01f,-1.49538472e-01f,+1.91428080e-01f,
-4.48491573e-02f,-1.05781563e-01f,+6.56157583e-02f,+1.38658389e-01f,+9.79186445e-02f,
+1.00931570e-01f,-1.98099464e-01f,+2.99250633e-02f,+8.17088336e-02f,-6.48942590e-02f,
+6.50128573e-02f,+2.25930363e-02f,+6.51980788e-02f,+6.02931827e-02f,-2.11561456e-01f,
+1.36020288e-01f,-9.86404270e-02f,+8.56096894e-02f,+1.49278924e-01f,+4.40119356e-02f,
-8.03616047e-02f,+5.85497767e-02f,+1.07741699e-01f,-2.77501345e-03f,-3.44325453e-02f,
-1.97754845e-01f,-1.21828020e-01f,+1.25005096e-02f,+9.79862958e-02f,+1.25706032e-01f,
-1.95382237e-02f,+1.17071375e-01f,-1.34274602e-01f,+1.78005293e-01f,-2.00346559e-02f,
+7.74769485e-03f,+7.94155151e-02f,-4.62802798e-02f,-2.09996700e-01f,-1.11888364e-01f,
-1.38953179e-02f,-1.93216845e-01f,-1.73988283e-01f,-1.89842120e-01f,-5.76663464e-02f,
+2.11175218e-01f,-1.52107760e-01f,-1.23442426e-01f,-2.00803250e-01f,+1.72767594e-01f,
+1.85411975e-01f,+1.42346844e-01f,+1.19888708e-01f,+1.91891715e-01f,+1.84159353e-01f,
-2.04189107e-01f,+7.97688514e-02f,+2.11179659e-01f,-9.94095951e-02f,+1.32200941e-01f,
-2.02115357e-01f,-7.10271448e-02f,+1.42536446e-01f,+7.16018826e-02f,-8.03670436e-02f,
+1.39495298e-01f,-1.75061256e-01f,+1.88451424e-01f,+6.91737980e-02f,-2.04991981e-01f,
+8.59391242e-02f,+1.22024640e-01f,+1.85318694e-01f,-4.79808152e-02f,-9.94124711e-02f,
-1.14942975e-01f,+5.63145429e-02f,-2.04766572e-01f,-1.72468215e-01f,-1.39761269e-02f,
-1.49317756e-01f,+9.92095619e-02f,+1.25564769e-01f,-2.01958716e-01f,+4.03542072e-02f,
+2.59415656e-02f,+1.13038525e-01f,-1.56013221e-01f,-1.21657148e-01f,-6.81707561e-02f,
-1.62163824e-02f,+2.82157212e-02f,+1.32801682e-02f,+1.35152802e-01f,+9.88746136e-02f,
+6.61287755e-02f,-8.12520981e-02f,+5.58748990e-02f,-1.16643801e-01f,+1.92590490e-01f,
+7.65746087e-02f,-1.99926198e-02f,+9.78896171e-02f,-4.86415625e-03f,-4.60009426e-02f,
-1.46726131e-01f,-2.53931284e-02f,-9.39775631e-02f,+1.74845472e-01f,+7.10222870e-02f,
+2.59002447e-02f,+1.62455514e-01f,-1.07427299e-01f,-1.55716658e-01f,-1.62285283e-01f,
+1.38875619e-01f,+2.03884348e-01f,-2.09521398e-01f,-3.25584710e-02f,+1.08044103e-01f,
-1.58127382e-01f,-1.38573363e-01f,+8.31020027e-02f,+1.12276211e-01f,+1.06601223e-01f,
-6.15050644e-02f,+9.69226509e-02f,+1.01349100e-01f,-1.92446217e-01f,+1.33959696e-01f,
+1.17190167e-01f,-1.74931794e-01f,-8.20799768e-02f,-2.98180580e-02f,-3.37319523e-02f,
-1.14791222e-01f,+9.79624242e-02f,-1.48099691e-01f,-1.21320240e-01f,+8.49289745e-02f,
-3.13400924e-02f,+1.88546196e-01f,+1.13371506e-01f,+8.64837319e-02f,-6.79729283e-02f,
+1.17507115e-01f,-8.71977583e-02f,-1.62686363e-01f,-9.15018171e-02f,+6.74273223e-02f,
-4.52744961e-03f,-9.80644375e-02f,-2.56576836e-02f,+1.50410518e-01f,-1.27417952e-01f,
-8.03348571e-02f,-1.12703085e-01f,+6.42615706e-02f,+1.45520970e-01f,-5.03518730e-02f,
+1.23043820e-01f,-4.18342054e-02f,-5.99122494e-02f,+4.48355526e-02f,+1.68420538e-01f,
-1.39837861e-01f,+2.97132730e-02f,-1.49458915e-01f,-8.27965736e-02f,+1.42377004e-01f,
-6.60195500e-02f,-1.23815253e-01f,+1.08313456e-01f,+1.93910077e-01f,+2.05584958e-01f,
+1.37397662e-01f,-1.70567155e-01f,+1.71057329e-01f,+5.58027178e-02f,+1.33459315e-01f,
-7.60357380e-02f,-1.45381525e-01f,-9.78965908e-02f,+3.25255245e-02f,-2.10941672e-01f,
+1.54825017e-01f,-7.00866431e-02f,-1.83549404e-01f,-6.97192699e-02f,+7.10899979e-02f,
+1.05288044e-01f,+2.00960949e-01f,+1.34014443e-01f,-1.49673373e-01f,+1.71095774e-01f,
+1.26512125e-01f,+9.15294141e-02f,+5.52108735e-02f,-2.08108991e-01f,-7.90608972e-02f,
+3.33777815e-02f,+1.33015320e-01f,-1.16694205e-01f,+1.52974889e-01f,+2.89195776e-03f,
-2.93640792e-03f,+1.99911073e-01f,+1.64740637e-01f,+1.91455379e-01f,-1.36286318e-02f,
-1.26198024e-01f,-8.79281759e-02f,+1.48231253e-01f,+4.41662222e-02f,-1.46968588e-01f,
-1.79488212e-01f,-7.03446567e-02f,-7.62402713e-02f,-1.23181701e-01f,-1.99635670e-01f,
-7.02608526e-02f,+3.33499908e-02f,-1.60583407e-01f,-1.78326949e-01f,-3.82315516e-02f,
-1.33400947e-01f,+6.03652000e-03f,+1.09251842e-01f,-3.52838933e-02f,-7.80401826e-02f,
+7.51370341e-02f,-2.02953190e-01f,+1.67903438e-01f,-1.06129721e-01f,-2.84147859e-02f,
-1.45939499e-01f,+1.75390407e-01f,-7.87456334e-02f,-1.38031274e-01f,+4.34432179e-02f,
+6.31511956e-02f,+1.02525502e-02f,-6.14627898e-02f,+1.32114336e-01f,-1.33715510e-01f,
-8.47436637e-02f,-1.48085058e-02f,-1.30534112e-01f,+4.55718189e-02f,-4.12301123e-02f,
-1.94679096e-01f,+8.37471038e-02f,+1.87994376e-01f,+2.04738066e-01f,-4.25526202e-02f,
-1.80874243e-01f,-1.46167427e-02f,-1.22358099e-01f,+1.62797764e-01f,+1.77478492e-02f,
+1.18258819e-01f,-7.89718479e-02f,+8.79528075e-02f,-2.47797519e-02f,+6.10605329e-02f,
-1.53931633e-01f,-2.03225359e-01f,-9.11173895e-02f,-2.01301843e-01f,+4.10936028e-02f,
+2.38254368e-02f,+1.29005387e-01f,-7.56556541e-02f,+2.08836600e-01f,+1.95143893e-01f,
-3.72029692e-02f,+1.78691298e-02f,-1.27762645e-01f,+1.39097944e-01f,+2.05254510e-01f,
+2.35570371e-02f,+8.13495070e-02f,+5.72544783e-02f,+1.13848761e-01f,-3.05925310e-02f,
-2.04055920e-01f,-3.13880295e-02f,+1.83832750e-01f,+1.12974003e-01f,-2.01135114e-01f,
-4.89830524e-02f,-1.84239522e-01f,-1.73425049e-01f,-5.22308946e-02f,+1.64892390e-01f,
+6.58470243e-02f,+1.30024508e-01f,-2.89680064e-03f,-1.25973925e-01f,-9.67507660e-02f,
-7.69034028e-03f,-7.91673362e-02f,-1.35739446e-02f,+7.38495737e-02f,+1.58913285e-02f,
-9.69643220e-02f,+1.00693092e-01f,+7.74866492e-02f,+1.56767890e-01f,+4.57452089e-02f,
-3.94622833e-02f,-2.06114247e-01f,+1.66321397e-02f,+1.91035166e-01f,+1.54154301e-02f,
+8.27386230e-02f,+1.14543065e-01f,+6.73764199e-02f,+1.47021756e-01f,+2.06385657e-01f,
+2.09194496e-01f,-1.43030092e-01f,+1.72239438e-01f,-7.03188181e-02f,+1.58853605e-01f,
-5.44692725e-02f,+1.55318305e-01f,-2.20191181e-02f,+1.25308469e-01f,+4.63937372e-02f,
+1.69598162e-02f,-1.61418244e-01f,-1.07685305e-01f,+1.63204521e-02f,-1.60878539e-01f,
+1.46411017e-01f,-1.34162098e-01f,+1.24247149e-01f,-4.09997106e-02f,+1.38269290e-01f,
-2.06264406e-02f,+1.60366163e-01f,-1.74358130e-01f,+9.84250456e-02f,-1.34345636e-01f,
+4.03401703e-02f,-9.79023427e-02f,-2.80100107e-03f,+1.22405991e-01f,-2.04107791e-01f,
-1.48625523e-01f,-2.01968238e-01f,+1.20534226e-01f,-3.46847922e-02f,-1.58420697e-01f,
+9.93873328e-02f,+1.06573179e-01f,+6.60237521e-02f,+8.84332210e-02f,+1.60103574e-01f,
-6.81401789e-02f,+1.65784881e-01f,-2.02940628e-01f,+1.07144222e-01f,-2.11090550e-01f,
+1.53197572e-01f,+2.32605487e-02f,-1.58415049e-01f,-1.97446898e-01f,+1.64483711e-01f,
+1.54683843e-01f,-1.79668829e-01f,+1.46166340e-01f,+9.18233842e-02f,+7.68929869e-02f,
+2.07821384e-01f,+1.77783057e-01f,-8.83140713e-02f,+4.48794812e-02f,+1.81179866e-01f,
-1.80039287e-01f,-1.03004478e-01f,+1.89536437e-01f,-1.77647844e-01f,+3.38065177e-02f,
+1.32164314e-01f,-2.64598876e-02f,-8.46540034e-02f,-1.60590053e-01f,+7.69120008e-02f,
-2.03778908e-01f,+8.80881697e-02f,-3.22949141e-02f,+7.07400292e-02f,+8.74621123e-02f,
-7.36807287e-02f,+1.16013482e-01f,+1.64196238e-01f,+6.58682138e-02f,-2.67162323e-02f,
+1.18213311e-01f,+1.70809701e-01f,+5.39615303e-02f,+1.84479758e-01f,+1.28805175e-01f,
+1.93813518e-01f,-7.73321092e-03f,+4.84522730e-02f,-4.31451201e-03f,-6.32737577e-03f,
-6.75003231e-02f,-1.90573752e-01f,+1.37978092e-01f,+5.90651482e-02f,+1.00087032e-01f,
-2.22072899e-02f,-1.56589597e-01f,+1.83766052e-01f,-2.32538879e-02f,+1.08319119e-01f,
+2.01624170e-01f,-1.25157088e-01f,+1.56490162e-01f,+5.80029041e-02f,+6.71245009e-02f,
+8.32947642e-02f,+8.94574374e-02f,+1.11248747e-01f,+1.08865932e-01f,-9.14743245e-02f,
+3.93339843e-02f,-1.24919564e-01f,+7.81465322e-02f,+3.34077030e-02f,-1.67958423e-01f,
+9.54865962e-02f,+3.50162536e-02f,-9.72145051e-02f,-2.05456570e-01f,-5.16617149e-02f,
-1.90176457e-01f,+4.31963056e-02f,-1.09353140e-01f,-4.62979078e-04f,-1.56424880e-01f,
+2.03250900e-01f,+7.39635974e-02f,+1.50714532e-01f,-1.48770660e-02f,-2.06440687e-04f,
+1.38332561e-01f,+5.77507466e-02f,+1.98734924e-01f,+1.47528276e-01f,+1.98146388e-01f,
-1.84701487e-01f,+5.26856929e-02f,+1.32533059e-01f,-1.62693277e-01f,-8.16878378e-02f,
-1.25179082e-01f,+5.98372370e-02f,-1.27955973e-02f,+7.93608576e-02f,-9.26754922e-02f,
+1.48264810e-01f,-1.22206956e-01f,+1.73464343e-01f,+1.22702435e-01f,+1.64588287e-01f,
-1.64044738e-01f,-1.68855727e-01f,-1.49031311e-01f,-7.36956000e-02f,+5.27461320e-02f,
+7.19238371e-02f,+8.56469125e-02f,+5.22876531e-02f,-2.02683926e-01f,-1.98589131e-01f,
-1.02105603e-01f,-6.00327700e-02f,-2.10980833e-01f,+1.06225863e-01f,-1.96444243e-01f,
-1.01504192e-01f,-1.69644818e-01f,-1.43652499e-01f,-2.40245610e-02f,-1.00900352e-01f,
+3.06984782e-02f,+3.51584703e-02f,-5.21660149e-02f,+3.06957513e-02f,-5.99741936e-03f,
+7.45219737e-02f,-3.49359959e-02f,+1.45755097e-01f,+2.81113386e-02f,-1.79503307e-01f,
-6.66525066e-02f,-1.11740343e-01f,-1.28980130e-02f,-2.43204832e-03f,-2.86729932e-02f,
+9.42577422e-03f,-1.92412615e-01f,-1.87336266e-01f,-3.29170674e-02f,+8.35326463e-02f,
-6.28803819e-02f,-4.13262248e-02f,-3.36846709e-02f,+1.45943686e-01f,-5.16044497e-02f,
-1.29420638e-01f,+1.70387849e-01f,+1.21071056e-01f,+1.86943844e-01f,-1.11852698e-01f,
+1.98584691e-01f,+8.36411268e-02f,+2.02362403e-01f,+1.43529460e-01f,-3.72235626e-02f,
+1.66233584e-01f,+8.11872631e-02f,-5.90914637e-02f,+7.04461485e-02f,+1.86144069e-01f,
-6.33563846e-02f,+7.19563812e-02f,-2.10866198e-01f,+5.90680689e-02f,-1.46890998e-01f,
+1.54821590e-01f,+1.29089072e-01f,+2.07822338e-01f,-8.83510709e-03f,+1.76982865e-01f,
+3.92202884e-02f,+1.78159699e-01f,+1.60178676e-01f,+1.30091205e-01f,-1.00886725e-01f,
+4.87294942e-02f,-1.17965341e-02f,-1.68049231e-01f,+1.17858753e-01f,-8.46757442e-02f,
-1.34142131e-01f,-1.65031403e-02f,+5.57672530e-02f,-1.68467015e-01f,-3.93932164e-02f,
-8.32527876e-04f,+5.15467972e-02f,+2.08206907e-01f,+1.73829004e-01f,+4.44855541e-02f,
+9.39815491e-02f,-1.02051198e-02f,-1.80111736e-01f,+1.78841993e-01f,+6.69174045e-02f,
-1.12056412e-01f,-1.42676532e-01f,+7.64599442e-03f,-1.61840916e-01f,-1.74224392e-01f,
-6.92481697e-02f,-1.85941517e-01f,-1.67509109e-01f,+2.84325480e-02f,-1.03209965e-01f,
-2.03482956e-02f,-2.02289611e-01f,-4.12278473e-02f,-6.01911396e-02f,+7.20221251e-02f,
+3.71738076e-02f,+3.92972082e-02f,+1.71147421e-01f,-1.55469462e-01f,+1.17355600e-01f,
-1.64024964e-01f,-1.16494149e-02f,-6.02738559e-03f,+1.68732867e-01f,+7.18426555e-02f,
+1.10764787e-01f,-1.67646989e-01f,-1.89831123e-01f,-7.29853213e-02f,+1.91496119e-01f,
+8.49383324e-02f,+1.27965942e-01f,-1.06849395e-01f,-7.67743886e-02f,+1.75819531e-01f,
-1.41273677e-01f,+1.63932189e-01f,-2.04360992e-01f,-8.26466978e-02f,+1.21135280e-01f,
+1.85738400e-01f,+8.00196975e-02f,+1.72423273e-02f,+1.43708751e-01f,-9.19377580e-02f,
+1.08933136e-01f,-1.45268679e-01f,-1.93670586e-01f,+8.06417614e-02f,-9.11302045e-02f,
+1.82241693e-01f,+1.02159336e-01f,+1.12239257e-01f,+1.51616380e-01f,-9.80805829e-02f,
+1.07329741e-01f,+5.14799505e-02f,-1.01224393e-01f,+6.10997528e-02f,-1.48984537e-01f,
-1.08864605e-02f,-2.73652375e-03f,+1.29394487e-01f,+1.07009366e-01f,-1.30435884e-01f,
+8.44746083e-02f,+7.15547651e-02f,+3.77809852e-02f,-1.38479382e-01f,+1.43544525e-02f,
+9.22588855e-02f,-7.76601434e-02f,-1.99706867e-01f,-1.81702122e-01f,+6.53917342e-02f,
-1.06378689e-01f,-1.49499983e-01f,+6.72397465e-02f,-3.06553841e-02f,+8.92432779e-02f,
+1.28353521e-01f,-1.73988283e-01f,-1.47763133e-01f,-7.99375176e-02f,+1.53377548e-01f,
+1.63121745e-01f,-2.87001431e-02f,-9.95391980e-02f,+1.94045439e-01f,-1.48465037e-01f,
-2.67253667e-02f,-8.82791579e-02f,-9.95585769e-02f,-1.39873371e-01f,-1.90894008e-01f,
-2.98766941e-02f,+7.52822608e-02f,+4.83446568e-02f,-3.46958488e-02f,+7.74381012e-02f,
+2.01752111e-01f,-1.22525595e-01f,-1.71175152e-02f,-1.61274269e-01f,-1.04438730e-01f,
-1.63644999e-02f,-1.26427621e-01f,-1.35997683e-01f,+1.80158809e-01f,+9.33031738e-03f,
-6.52230978e-02f,+1.48360565e-01f,-1.07876360e-01f,-2.41170377e-02f,-1.96060464e-01f,
-5.86135983e-02f,-1.86995119e-01f,-7.98241049e-02f,-1.49316996e-01f,-1.57001331e-01f,
-1.10677458e-01f,-7.59116858e-02f,-1.86901584e-01f,+1.65850148e-01f,-9.49255228e-02f,
+1.84786007e-01f,+4.91626114e-02f,+1.00243688e-02f,+1.39007583e-01f,+4.91858572e-02f,
+9.83367711e-02f,+1.04297772e-01f,-6.83404207e-02f,+1.27083436e-01f,-9.15128216e-02f,
+9.54052657e-02f,-1.78151488e-01f,+1.18152574e-01f,+2.44806856e-02f,-4.97242212e-02f,
+1.30458638e-01f,+9.75434035e-02f,+1.16963342e-01f,+1.36003390e-01f,+1.87371209e-01f,
-1.14949733e-01f,-1.22538410e-01f,-2.08670706e-01f,+5.32251149e-02f,+2.07693502e-01f,
-2.10676461e-01f,-1.09996073e-01f,+8.41553956e-02f,-8.79233330e-02f,+1.23998091e-01f,
+1.31012335e-01f,-2.06346259e-01f,+1.16715133e-02f,+1.50634810e-01f,+8.21399242e-02f,
-1.04785524e-01f,+5.51667362e-02f,+1.32972375e-01f,-9.56120566e-02f,-6.75844699e-02f,
+8.50253254e-02f,+2.27944553e-03f,-1.81166828e-03f,-2.56584585e-03f,+1.25765249e-01f,
+7.19812959e-02f,+9.71868634e-04f,+3.35164219e-02f,-7.25092143e-02f,+1.39679089e-01f,
+1.11299500e-01f,-4.31177616e-02f,+2.07531288e-01f,-7.53151625e-02f,+1.04967043e-01f,
+1.18348762e-01f,+1.03110328e-01f,+1.33027062e-01f,-8.50812644e-02f,+7.97567517e-02f,
+1.64005160e-02f,-1.61226287e-01f,-1.35292590e-01f,-8.05097669e-02f,+9.80804414e-02f,
+9.10558850e-02f,-1.65603012e-02f,-1.93134606e-01f,+1.01477638e-01f,+5.55577427e-02f,
-8.81308839e-02f,+1.88673988e-01f,-1.88564166e-01f,+1.30135402e-01f,+9.83719975e-02f,
-4.26517576e-02f,+9.90573615e-02f,+1.11089274e-01f,+5.06864041e-02f,-2.49272734e-02f,
-4.56342697e-02f,-1.31666780e-01f,-1.37321502e-02f,-1.79632857e-01f,+1.97071686e-01f,
+1.91578269e-02f,-7.85202682e-02f,+2.54803598e-02f,+1.37257621e-01f,-2.08149716e-01f,
-1.34748429e-01f,-4.24873829e-02f,-1.24642491e-01f,+7.68955797e-02f,+1.44189045e-01f,
+1.81900963e-01f,-4.26954478e-02f,+3.61989141e-02f,-3.16080898e-02f,-1.07035302e-01f,
+1.42423287e-01f,+9.03939456e-02f,+6.59238845e-02f,-1.45010829e-01f,-1.39186144e-01f,
-2.90751308e-02f,+4.70584631e-03f,+1.50756940e-01f,-1.52131319e-01f,-6.48976862e-02f,
+1.71519801e-01f,-1.14071444e-01f,+1.05504230e-01f,-4.83076721e-02f,-6.39548749e-02f,
-1.19775601e-01f,+5.63332438e-03f,+1.95941493e-01f,-9.28901583e-02f,+1.94157347e-01f,
-6.15260005e-02f,+3.17323506e-02f,+1.68508127e-01f,+1.66474476e-01f,-5.35105616e-02f,
-1.28351793e-01f,-1.94675416e-01f,+1.25041202e-01f,-1.20163716e-01f,+6.75922632e-03f,
-1.08013004e-02f,-8.78114849e-02f,-5.80787361e-02f,-1.21744879e-01f,-1.60471857e-01f,
-1.82698563e-01f,-6.38532192e-02f,+4.41712141e-03f,+4.82996553e-02f,+9.96984094e-02f,
-2.81829685e-02f,+5.06915897e-02f,+1.49723515e-01f,+5.59565872e-02f,-1.19689889e-01f,
-1.13855518e-01f,+1.04737595e-01f,+7.70220011e-02f,+1.92294165e-01f,-1.69721201e-01f,
-1.89920172e-01f,+1.78704366e-01f,-1.21272214e-01f,-1.98679492e-01f,-1.42859459e-01f,
+7.88830221e-03f,-1.54556304e-01f,+1.73658282e-02f,-1.82890728e-01f,-7.92321116e-02f,
+2.04771116e-01f,+1.67694405e-01f,+1.02014080e-01f,+3.10840160e-02f,+1.45178124e-01f,
+7.88562745e-02f,+4.30376381e-02f,+1.87429652e-01f,-4.60977554e-02f,+5.66168278e-02f,
+1.52349755e-01f,+1.02465406e-01f,+1.61924675e-01f,+1.13000378e-01f,-1.88816115e-01f,
-1.87701970e-01f,-9.96357128e-02f,-1.40542090e-01f,-1.05492920e-02f,-1.35690033e-01f,
-1.65486559e-01f,+1.48622259e-01f,-2.87704617e-02f,+1.27479151e-01f,+1.60523102e-01f,
-5.42318970e-02f,+1.91851810e-01f,+4.85075563e-02f,-9.29216444e-02f,-8.77743512e-02f,
-1.59913123e-01f,+2.06495389e-01f,-9.86443684e-02f,-1.32327169e-01f,+1.20425820e-02f,
-3.82683873e-02f,-6.21525347e-02f,+1.80680469e-01f,-3.53872180e-02f,+2.16484070e-02f,
-1.06452651e-01f,-2.27276385e-02f,+1.37942836e-01f,-6.55691773e-02f,+1.05924979e-01f,
+1.24622732e-02f,+5.01679927e-02f,-3.04241776e-02f,-3.51597369e-03f,-1.87192068e-01f,
-9.15849134e-02f,+1.47216395e-01f,-9.91671309e-02f,+1.57578334e-01f,-1.63775936e-01f,
-1.15331136e-01f,-1.07775711e-01f,-1.27449393e-01f,-7.31302649e-02f,+1.19341239e-01f,
-1.22774720e-01f,-1.13006443e-01f,-2.40610838e-02f,-1.02528431e-01f,-6.09029830e-02f,
-1.89826027e-01f,+1.31468013e-01f,-1.91221476e-01f,+3.66332829e-02f,-4.82957661e-02f,
+5.32858521e-02f,-1.94246978e-01f,+1.19589135e-01f,-1.30848080e-01f,+2.25108862e-03f,
+1.02028713e-01f,+1.94382504e-01f,+1.73521027e-01f,-2.10784420e-01f,+2.40771770e-02f,
+1.51369467e-01f,+1.03347942e-01f,+5.62660545e-02f,+3.37716043e-02f,+1.12390503e-01f,
-3.01008373e-02f,-1.28070474e-01f,+1.76343963e-01f,-1.48171633e-01f,-1.21512353e-01f,
+3.76779139e-02f,+1.17459133e-01f,+1.56838432e-01f,+9.88463312e-02f,-1.34764478e-01f,
-1.81430504e-01f,+6.03409857e-02f,+1.00748911e-01f,-1.78824335e-01f,+2.03304127e-01f,
+1.62299201e-01f,-1.48092330e-01f,+1.52231857e-01f,-7.19476640e-02f,+5.98612279e-02f,
-1.29750580e-01f,-1.92231804e-01f,+3.60555351e-02f,+4.37207371e-02f,+6.67376667e-02f,
-1.83807209e-01f,-1.64715126e-01f,+2.09369406e-01f,-2.07529128e-01f,+8.85161310e-02f,
-8.62452090e-02f,+2.36519277e-02f,+8.69399458e-02f,+3.36906314e-02f,+7.19498843e-02f,
+2.01745480e-02f,-1.50819659e-01f,-1.27501816e-01f,-1.24599859e-01f,+2.83753425e-02f,
+6.85844868e-02f,-1.81631193e-01f,-1.97292209e-01f,+2.02854797e-01f,-1.10551685e-01f,
-7.51675367e-02f,-1.36603296e-01f,+1.28884614e-03f,-1.99370161e-01f,-5.40418029e-02f,
+1.70767024e-01f,+1.76928058e-01f,-1.94505289e-01f,+1.82721689e-01f,+5.47124296e-02f,
-1.47510737e-01f,-1.37565777e-01f,-1.30891711e-01f,+6.40735775e-02f,-4.37901169e-02f,
-8.89007077e-02f,+3.29889655e-02f,+1.65289953e-01f,-1.06097735e-01f,-1.54159725e-01f,
-7.63772875e-02f,+7.96881318e-03f,+1.08965263e-01f,-3.66061926e-03f,+7.29034990e-02f,
+1.23704329e-01f,+2.05045566e-01f,+1.69420823e-01f,+6.45803660e-02f,+1.33488849e-01f,
-8.98967683e-03f,-1.50232673e-01f,+1.48134336e-01f,-1.18625745e-01f,-9.71860513e-02f,
+6.07753843e-02f,-3.49195004e-02f,-1.04116857e-01f,-1.00492053e-01f,-1.94102496e-01f,
+1.46460548e-01f,+1.68496624e-01f,+1.14289954e-01f,+6.68203831e-03f,-5.78045845e-02f,
-1.56765372e-01f,-1.31254300e-01f,-3.61558795e-02f,-1.61783606e-01f,-5.47630340e-02f,
+1.72633782e-01f,+5.05863577e-02f,-1.59151524e-01f,-1.38714463e-02f,-6.73388690e-02f,
-2.01589823e-01f,-1.94587559e-02f,+3.04487348e-03f,-1.65181085e-01f,+2.01260075e-01f,
+1.70679852e-01f,-1.62466764e-01f,+8.65684897e-02f,-2.07844988e-01f,-7.64657259e-02f,
+1.38567880e-01f,-1.26332626e-01f,-1.67605370e-01f,-4.88048643e-02f,+1.85157970e-01f,
+4.95385081e-02f,-1.66442588e-01f,-1.15502417e-01f,-1.72201440e-01f,-7.76680559e-02f,
-2.05038145e-01f,+2.09421352e-01f,-1.29364580e-01f,+1.28425643e-01f,+1.88573107e-01f,
+8.23237002e-03f,-4.43900675e-02f,+8.54118317e-02f,-1.76914036e-03f,+9.18962508e-02f,
+1.60784438e-01f,-4.06413525e-02f,+1.60701856e-01f,-1.13090187e-01f,-2.02735439e-01f,
+4.46668714e-02f,+1.37444183e-01f,+6.06889278e-02f,-4.85715866e-02f,-9.02814269e-02f,
-7.29949772e-03f,-1.28935754e-01f,+9.45240259e-04f,+6.98180497e-03f,-5.91923147e-02f,
-2.44590342e-02f,-9.87412035e-03f,+7.54434615e-02f,-3.28466445e-02f,-6.04651868e-03f,
-5.29132783e-03f,+3.77216935e-03f,+8.23843926e-02f,+1.64869428e-02f,+5.11548966e-02f,
-2.08413616e-01f,+2.67972052e-02f,+1.98079392e-01f,-5.21652997e-02f,+1.72201142e-01f,
-1.26740664e-01f,+2.54595131e-02f,-9.76047888e-02f,+4.86340970e-02f,-2.27207243e-02f,
+1.46368399e-01f,+1.56200930e-01f,-2.10246265e-01f,+3.81025076e-02f,+1.03370994e-02f,
+9.48426872e-02f,+1.18698224e-01f,+6.61362857e-02f,-2.65458077e-02f,-1.54792309e-01f,
+3.10287178e-02f,+1.87826023e-01f,+1.94815651e-01f,+2.10714653e-01f,-1.29158646e-02f,
-7.78413564e-02f,-5.72407544e-02f,-9.95049924e-02f,-5.46114445e-02f,-3.02957743e-02f,
+1.16469160e-01f,-3.47927064e-02f,-7.82786608e-02f,+2.02619717e-01f,+1.57713890e-04f,
-1.99979693e-02f,+8.90539736e-02f,-1.78313583e-01f,-2.01806456e-01f,-1.08275466e-01f,
+3.11097503e-02f,+1.35397315e-02f,-1.48029178e-02f,-9.12234858e-02f,-9.61484388e-02f,
+1.67648643e-02f,+5.36453277e-02f,+4.86366600e-02f,-1.81963652e-01f,+1.34706363e-01f,
-1.91354573e-01f,+1.36178806e-01f,-1.03032127e-01f,+1.16008982e-01f,-1.19579554e-01f,
-5.36498576e-02f,+1.48837879e-01f,-1.38189584e-01f,+5.30692786e-02f,+1.44348398e-01f,
-8.94972309e-02f,+2.81684995e-02f,-7.31523335e-03f,-8.99194479e-02f,-7.34875500e-02f,
+1.09218732e-01f,+6.11393899e-02f,+2.43819505e-02f,+4.35166806e-02f,-1.07451260e-01f,
-7.56681561e-02f,+7.79855400e-02f,-1.14933133e-01f,+7.29007572e-02f,-1.72890887e-01f,
+1.14276186e-01f,-1.80622548e-01f,+8.04046243e-02f,-1.68303296e-01f,+1.74415752e-01f,
+1.32798105e-02f,+1.16206452e-01f,+1.64070323e-01f,+4.65459973e-02f,+1.30647674e-01f,
-9.47145447e-02f,+1.94672838e-01f,-6.98291510e-02f,+1.01169392e-01f,-1.55447274e-02f,
-1.23283714e-02f,+8.95658284e-02f,-4.63256389e-02f,-1.37691438e-01f,-1.58530325e-02f,
+1.69934705e-01f,-7.05150217e-02f,-9.10132602e-02f,-1.74143523e-01f,-6.53900802e-02f,
-1.81493521e-01f,+1.60723999e-01f,-5.94682992e-03f,-1.91882640e-01f,+7.52689391e-02f,
+1.37176946e-01f,-1.70528501e-01f,+5.26456982e-02f,+3.63789648e-02f,-8.12054276e-02f,
-3.00972015e-02f,+1.13175705e-01f,+3.22727710e-02f,-9.76707041e-03f,+4.13988680e-02f,
+1.36315927e-01f,+8.25708658e-02f,+1.30662277e-01f,+1.08445987e-01f,-1.59117520e-01f,
-1.38407439e-01f,+8.80168229e-02f,+8.39108378e-02f,-1.44964963e-01f,+2.06410587e-02f,
+1.87156305e-01f,+1.70113638e-01f,-6.11499399e-02f,+1.51854590e-01f,-9.12853926e-02f,
+1.91288069e-01f,-9.58784819e-02f,+1.92219779e-01f,+5.02389520e-02f,+1.89320102e-01f,
-1.44392848e-01f,-6.88023418e-02f,+8.07245076e-03f,+3.12347114e-02f,-2.05706209e-01f,
-1.60700232e-02f,+5.53105772e-03f,-2.11082846e-02f,-1.21679455e-02f,-1.50684401e-01f,
-1.20258011e-01f,-7.48924315e-02f,-2.04332188e-01f,+1.57140359e-01f,+2.69207507e-02f,
-2.30966508e-03f,-8.01063776e-02f,+6.70176595e-02f,-5.83860278e-03f,-6.43820316e-02f,
-4.62099612e-02f,-4.83167171e-03f,+1.78752556e-01f,+1.76968083e-01f,-1.66558072e-01f,
-1.16537303e-01f,-1.57420576e-01f,+8.35506469e-02f,-1.10347509e-01f,-1.71378285e-01f,
+1.51921943e-01f,+1.29228830e-03f,-9.29292068e-02f,+9.95556563e-02f,-2.87431180e-02f,
+1.92748472e-01f,-2.11217552e-02f,-1.97773665e-01f,+1.19809106e-01f,-1.88127413e-01f,
-3.49516869e-02f,-1.31301016e-01f,-1.71426415e-01f,-1.19831905e-01f,-1.49337173e-01f,
+2.86482722e-02f,-1.07802399e-01f,+1.96650431e-01f,+1.06809989e-01f,+1.16676047e-01f,
-1.29081205e-01f,-2.11587846e-01f,-1.58684701e-01f,+2.07548738e-02f,-1.03709519e-01f,
+9.44198221e-02f,-2.64032930e-02f,+3.24132293e-02f,-1.00290455e-01f,-1.95232019e-01f,
+1.57145932e-01f,+1.74352631e-01f,+8.47755373e-03f,+2.10578844e-01f,-1.15166418e-01f,
+1.67264268e-01f,-5.13041764e-02f,-1.07283771e-01f,+1.44957289e-01f,-1.03080504e-01f,
+1.82982534e-02f,-1.62996486e-01f,-2.08461285e-01f,+2.00174436e-01f,+7.75197297e-02f,
-7.93934017e-02f,-1.37633681e-01f,+4.85330373e-02f,-1.38391554e-01f,-1.79944992e-01f,
+1.59097686e-01f,-1.20174058e-01f,-3.72500420e-02f,+2.11254761e-01f,-5.24719954e-02f,
-1.13023542e-01f,-4.33014333e-03f,+1.09810874e-01f,-8.76390487e-02f,-1.66582942e-01f,
+1.70314148e-01f,+4.90769297e-02f,-7.00227320e-02f,+1.27941027e-01f,-4.02586460e-02f,
-2.36101598e-02f,-1.41762942e-01f,+7.95790702e-02f,-5.89980334e-02f,+2.07856551e-01f,
-8.89344588e-02f,+2.00345144e-01f,+1.96071312e-01f,-1.79495126e-01f,+7.44471103e-02f,
-3.44640315e-02f,-7.54118711e-02f,+1.69543460e-01f,+8.90291482e-02f,+9.81751084e-03f,
-5.28132915e-02f,-1.27226591e-01f,-1.18638761e-01f,+3.66751552e-02f,-1.45268828e-01f,
-1.45567089e-01f,+1.49505123e-01f,+3.84266526e-02f,-5.88174313e-02f,+9.80329514e-03f,
+8.77568871e-02f,-2.72632688e-02f,+1.22890756e-01f,-1.49000019e-01f,-9.77671370e-02f,
-1.04967698e-01f,+1.52341649e-01f,+7.35325068e-02f,-1.84243307e-01f,+2.02549621e-01f,
-1.44947797e-01f,+2.12983787e-02f,-4.98413146e-02f,+2.06975922e-01f,+1.50022939e-01f,
+2.01052859e-01f,-1.97095409e-01f,-1.60193518e-01f,-1.28016144e-01f,+1.70234129e-01f,
-8.48464221e-02f,+1.86333999e-01f,-1.08150810e-01f,-6.77628517e-02f,-5.07181883e-02f,
-1.78763300e-01f,-5.55727184e-02f,-1.13786355e-01f,+3.87813002e-02f,+9.03434306e-02f,
+5.60965985e-02f,+1.31700337e-02f,+7.36752898e-02f,+3.14207226e-02f,+1.15205482e-01f,
+1.60331234e-01f,-1.29135281e-01f,+8.07315558e-02f,-1.52416229e-02f,+1.61020860e-01f,
+1.67251006e-01f,-1.90290123e-01f,+1.67307749e-01f,-2.73229033e-02f,+5.80199510e-02f,
+2.10842356e-01f,-2.02101275e-01f,-1.40847668e-01f,+5.11474162e-02f,+1.80492625e-01f,
+1.77708194e-01f,+5.30571789e-02f,+2.23958194e-02f,+1.19277105e-01f,+1.98941335e-01f,
-2.03494772e-01f,-1.74898759e-01f,-9.42205861e-02f,-1.36609688e-01f,-1.18700407e-01f,
+1.88103750e-01f,-7.49422759e-02f,+1.71676129e-02f,+3.52445394e-02f,-1.41763940e-01f,
+4.93630916e-02f,-8.60805362e-02f,+8.32504779e-02f,-4.56781089e-02f,-3.15338820e-02f,
-4.92870659e-02f,+1.98929921e-01f,-8.67511705e-02f,-9.35175121e-02f,+1.10955372e-01f,
-3.16282213e-02f,+7.36376643e-03f,+5.79563528e-02f,+1.42484114e-01f,-1.97519898e-01f,
+1.36500746e-02f,+1.37898177e-02f,+1.79601923e-01f,-7.77850598e-02f,-1.47030503e-01f,
-5.46294451e-02f,+8.49003047e-02f,+1.37870029e-01f,-6.05674386e-02f,+2.86906064e-02f,
-5.80788255e-02f,-1.72059476e-01f,+1.61153778e-01f,+1.11310259e-01f,+7.38733858e-02f,
-1.82602152e-01f,+8.69901627e-02f,-1.45940036e-02f,+1.76963434e-01f,-8.54434967e-02f,
+1.73051953e-02f,+1.28921643e-01f,+9.43771452e-02f,+2.00312123e-01f,-1.21646851e-01f,
+1.94258243e-02f,-7.56018162e-02f,+5.25827706e-03f,+1.97297409e-01f,+1.89782754e-01f,
+2.08240435e-01f,-1.98533684e-01f,+1.04272559e-01f,+8.98065418e-02f,-1.30103678e-02f,
+1.52254775e-01f,-7.21080601e-03f,+1.95442602e-01f,+1.47838309e-01f,-1.42441183e-01f,
-1.38910979e-01f,-3.85801196e-02f,-1.92417309e-01f,+1.77705452e-01f,-5.11029810e-02f,
+1.10581234e-01f,-1.21271200e-01f,-1.72819301e-01f,-1.13314845e-01f,-1.54899329e-01f,
-1.39515698e-02f,+1.12703428e-01f,-1.06929153e-01f,-9.63784456e-02f,+8.96335393e-02f,
-8.95675570e-02f,+1.32898673e-01f,+1.37468770e-01f,+1.11226365e-01f,-5.59743494e-02f,
+1.71269611e-01f,+7.29074329e-02f,-7.88756311e-02f,-1.21629603e-01f,+1.67399943e-02f,
-1.24497801e-01f,+2.61798948e-02f,+1.59613088e-01f,+4.17673439e-02f,-5.09415418e-02f,
+9.09364372e-02f,-1.31096631e-01f,-2.99428254e-02f,+2.11025074e-01f,-1.71126723e-02f,
+8.70902091e-02f,-1.80036724e-02f,+1.31913736e-01f,-1.60458386e-01f,+1.95542082e-01f,
+5.44466227e-02f,-3.93698066e-02f,+9.55826044e-03f,+1.97821483e-01f,-2.19200253e-02f,
+2.95293927e-02f,-1.20902412e-01f,-2.07509145e-01f,+1.46131471e-01f,-9.62327942e-02f,
+1.08601749e-02f,+1.01489469e-01f,+1.01331636e-01f,+1.62324384e-01f,+1.02815077e-01f,
-2.61392891e-02f,+2.08916441e-01f,-9.09467041e-03f,+3.63675207e-02f,+2.81335413e-03f,
-9.87676680e-02f,-4.30698395e-02f,+1.89318061e-02f,-1.96930587e-01f,+1.13782272e-01f,
-9.79244933e-02f,-1.00081488e-01f,+7.94531852e-02f,-1.34218156e-01f,-8.06815922e-03f,
-1.46981150e-01f,-1.36615783e-02f,-7.51466602e-02f,+7.09831864e-02f,-7.12139904e-03f,
+5.62938005e-02f,+1.92006424e-01f,+4.81794924e-02f,+1.64074138e-01f,+8.57134163e-03f,
-7.18274266e-02f,+1.23101726e-01f,+8.79160613e-02f,+7.95273632e-02f,+4.79051322e-02f,
-8.06638002e-02f,-2.00559929e-01f,+1.36149690e-01f,+1.84666440e-01f,-1.63293391e-01f,
+3.88306528e-02f,-1.95222333e-01f,-8.26404989e-03f,-1.03701748e-01f,+1.67787835e-01f,
+5.26415557e-02f,-2.16162205e-02f,+1.12839714e-01f,+4.09413874e-03f,+3.68565768e-02f,
+1.90318868e-01f,-8.67704451e-02f,+1.81028098e-02f,+1.69666365e-01f,-8.36718976e-02f,
+6.68677688e-03f,-5.69063425e-03f,-8.59897733e-02f,-1.15845479e-01f,+1.99092329e-02f,
+9.07155126e-02f,+1.08053938e-01f,-1.60268292e-01f,-3.49515826e-02f,+3.12987864e-02f,
+1.74774840e-01f,-1.33965492e-01f,-2.56377012e-02f,+6.29134327e-02f,+1.50044903e-01f,
+2.71296501e-03f,-1.39774293e-01f,-4.32634056e-02f,-7.17633069e-02f,-1.86973825e-01f,
-1.84763968e-02f,-2.07243025e-01f,-1.11025259e-01f,+2.77289748e-03f,-4.59140688e-02f,
+1.02149710e-01f,-2.81044245e-02f,-4.43768948e-02f,-1.22908920e-01f,+7.14920312e-02f,
+2.06877246e-01f,-1.97534725e-01f,+3.82722616e-02f,-1.90047100e-01f,-8.10931325e-02f,
-2.75430083e-02f,-1.91810384e-01f,+1.81723014e-01f,+2.08038464e-01f,-1.61485597e-01f,
+4.71679121e-02f,-1.05657153e-01f,-1.70972914e-01f,-1.57266244e-01f,+1.15294561e-01f,
-2.72725523e-02f,-1.91710949e-01f,-9.75308791e-02f,-1.04270473e-01f,-6.01397753e-02f,
+7.49067515e-02f,+1.16031840e-01f,+1.04230195e-02f,+1.08835563e-01f,-2.02688172e-01f,
+7.83731490e-02f,+1.49026111e-01f,+1.52338967e-01f,+7.22558647e-02f,+3.00047845e-02f,
-1.96808189e-01f,-1.08865179e-01f,-1.85643300e-01f,+1.99557617e-01f,-3.27702165e-02f,
-1.23896532e-01f,-5.66405058e-03f,-1.91670939e-01f,-6.61648512e-02f,+8.23439509e-02f,
-7.64216334e-02f,+5.82614988e-02f,-2.06357718e-01f,+1.72423109e-01f,-1.56019971e-01f,
-1.48400322e-01f,-1.40397102e-01f,+7.09612519e-02f,-1.55382842e-01f,+1.46487489e-01f,
-1.12175882e-01f,+8.49328488e-02f,+1.33733973e-01f,+1.49084970e-01f,+6.30475134e-02f,
}; 
k2c_tensor dense_kernel = {&dense_kernel_array[0],2,1680,{ 14,120,  1,  1,  1}}; 
float dense_bias_array[120] = {0}; 
k2c_tensor dense_bias = {&dense_bias_array[0],1,120,{120,  1,  1,  1,  1}}; 
float dense_fwork[1694] = {0}; 

 
float dense_1_output_array[120] = {0}; 
k2c_tensor dense_1_output = {&dense_1_output_array[0],1,120,{120,  1,  1,  1,  1}}; 
float dense_1_kernel_array[14400] = {
+9.18875635e-03f,-9.85605717e-02f,-9.10046473e-02f,-8.25258419e-02f,+1.56990662e-01f,
+8.98213983e-02f,+2.10550725e-02f,-1.46878362e-01f,-1.29536808e-01f,-1.53393760e-01f,
-1.47164285e-01f,+1.04414597e-01f,-1.14072412e-02f,+1.27863958e-01f,+3.77987325e-02f,
+7.62586296e-02f,-4.53521311e-03f,+6.23378158e-02f,-1.04327276e-01f,-1.25520974e-02f,
-1.56750977e-02f,-2.54077464e-02f,+7.98795372e-02f,+4.57185507e-02f,-1.25572190e-01f,
+1.40233055e-01f,-9.42049176e-02f,+1.12349242e-02f,-9.79959965e-03f,+1.35958210e-01f,
+1.47459343e-01f,-1.99886858e-02f,+1.13902435e-01f,+1.95301771e-02f,-1.47924751e-01f,
-3.32231820e-02f,-1.08651116e-01f,-1.34010732e-01f,+1.00096896e-01f,-1.07237890e-01f,
-7.50402957e-02f,+5.15933782e-02f,-3.93985286e-02f,+1.26882330e-01f,+1.11307010e-01f,
-7.85569251e-02f,+4.88245487e-02f,+3.12173814e-02f,+1.34634629e-01f,-4.71804142e-02f,
-1.50362641e-01f,+8.33175331e-02f,+1.31889001e-01f,-4.79643345e-02f,-9.87772644e-02f,
-2.37700939e-02f,+1.25397280e-01f,+8.74139369e-02f,-8.03956464e-02f,-1.29298747e-01f,
+9.88766551e-04f,-5.54775149e-02f,-9.06830877e-02f,+9.99551564e-02f,-6.31812960e-02f,
+5.87748140e-02f,+1.37941986e-02f,-1.15567967e-01f,-1.16952777e-01f,+1.52501598e-01f,
+1.31026432e-01f,-1.08893327e-01f,-8.61046016e-02f,+1.09702662e-01f,+1.44402817e-01f,
-1.07211798e-01f,+1.22712269e-01f,-1.09505609e-01f,-6.55733719e-02f,-4.74276319e-02f,
+1.08712986e-01f,-1.54007107e-01f,-2.34767348e-02f,+4.06640321e-02f,+1.25866041e-01f,
-8.11494067e-02f,-7.74310157e-02f,+1.54160455e-01f,-1.23849235e-01f,-8.03758204e-03f,
+1.22417197e-01f,+5.02757728e-03f,-7.48762339e-02f,-1.61607563e-03f,+8.09979737e-02f,
-3.74542549e-02f,+8.94334912e-02f,+1.40206084e-01f,-1.11421153e-01f,+1.26214847e-01f,
-1.25323534e-02f,+1.31796077e-01f,+6.75225556e-02f,-1.38424888e-01f,+7.87617266e-02f,
+2.70111859e-03f,-1.00039735e-01f,-7.03458488e-03f,+1.33252397e-01f,+7.58838654e-03f,
-1.14478767e-02f,+4.74883616e-03f,+1.39732882e-01f,-5.19850850e-02f,+2.22966671e-02f,
+1.03869066e-01f,+3.23820412e-02f,+8.24792832e-02f,-1.23445198e-01f,-1.41677633e-01f,
+7.87104219e-02f,+1.55050442e-01f,-1.17553219e-01f,+1.39363483e-01f,+1.01830170e-01f,
-5.05365282e-02f,+3.19213867e-02f,-3.66028994e-02f,+1.54572025e-01f,+1.05829224e-01f,
+6.91411197e-02f,-5.27386963e-02f,+1.24941781e-01f,+4.29628491e-02f,-8.08531791e-02f,
+1.06967136e-01f,-3.08059901e-02f,-5.17503917e-03f,+6.79276437e-02f,-8.40816870e-02f,
-7.06721246e-02f,+1.52945817e-02f,-3.69660705e-02f,+1.03169158e-01f,+5.59874028e-02f,
+1.55332789e-01f,-3.87578234e-02f,+4.30088788e-02f,-5.39380312e-02f,-1.10873371e-01f,
-2.61874050e-02f,-1.01146460e-01f,-1.38370335e-01f,+6.37629181e-02f,+9.14244056e-02f,
+2.25120783e-03f,+3.46443653e-02f,+5.70431948e-02f,-1.52996406e-01f,-1.00392587e-01f,
+1.57045022e-01f,+1.01238862e-01f,+3.07873040e-02f,-1.23856544e-01f,-7.69289285e-02f,
+1.07081130e-01f,+1.37860343e-01f,+1.11759797e-01f,+1.02713659e-01f,-1.15707040e-01f,
-8.58741552e-02f,-1.80778503e-02f,+6.92548901e-02f,+4.58405912e-03f,+1.71074122e-02f,
-4.62061316e-02f,+1.41470149e-01f,+1.43510506e-01f,-8.07742402e-02f,+5.01821786e-02f,
+8.11409950e-02f,-7.47939944e-03f,-1.20153204e-01f,+4.27254289e-02f,-7.22906962e-02f,
+1.21786073e-01f,+1.56249776e-01f,+1.57719091e-01f,+5.55205345e-03f,+1.37639806e-01f,
+5.03823161e-04f,+1.81468725e-02f,+9.61254537e-03f,-3.63527015e-02f,-3.16860825e-02f,
+3.05007547e-02f,-7.69528300e-02f,+1.27905324e-01f,+1.40045956e-01f,+9.91668850e-02f,
-1.18927330e-01f,+1.01506814e-01f,+4.40779328e-03f,+1.29933491e-01f,-1.28758624e-01f,
+6.63823187e-02f,-8.31748396e-02f,-1.31017938e-01f,+9.19579715e-02f,-1.26114920e-01f,
+9.81613249e-02f,+6.20670021e-02f,-1.35375828e-01f,+1.13187447e-01f,+8.70011896e-02f,
+3.62541229e-02f,+9.41617936e-02f,-7.79613853e-03f,-8.26223493e-02f,-7.80512542e-02f,
-1.20383576e-01f,-4.18847427e-02f,-1.03176042e-01f,+2.30999589e-02f,-2.53521055e-02f,
-8.37767199e-02f,-1.51492953e-01f,+1.39175192e-01f,-1.05589725e-01f,-5.45377210e-02f,
+6.05882555e-02f,-1.37748376e-01f,-1.29223704e-01f,-9.32996571e-02f,+1.39019862e-01f,
+1.39909402e-01f,+2.93090343e-02f,+1.42287210e-01f,+3.59750837e-02f,-7.39768147e-02f,
-4.68425378e-02f,-1.25442594e-02f,-7.28354156e-02f,+6.57460093e-03f,+6.57915324e-02f,
-5.43710962e-02f,+1.47586763e-02f,+9.83907282e-03f,-8.49573240e-02f,-1.08409777e-01f,
+1.21441916e-01f,-1.16273761e-03f,-8.71613622e-03f,+1.19947180e-01f,+5.20958006e-03f,
+1.18378267e-01f,+1.03998944e-01f,+4.29273695e-02f,-1.31629050e-01f,-2.91852355e-02f,
-5.35956621e-02f,-1.54024214e-01f,+1.42398074e-01f,-2.40455568e-03f,+9.30862576e-02f,
-5.43864444e-02f,+9.31957215e-02f,+4.50720042e-02f,+3.36631089e-02f,+1.34126112e-01f,
-4.49047834e-02f,-2.47601122e-02f,+8.33686739e-02f,-6.91974387e-02f,-1.87857449e-03f,
-7.30808303e-02f,-1.30838349e-01f,-1.02448069e-01f,+1.28586397e-01f,+3.18492949e-03f,
-1.21571600e-01f,-5.89754060e-02f,+1.01932272e-01f,-1.24501884e-01f,-5.97761348e-02f,
+1.22385934e-01f,+3.62198204e-02f,-9.70693454e-02f,+1.11199394e-01f,-5.98613694e-02f,
-1.45083964e-01f,-7.42565691e-02f,-1.19046152e-01f,+5.16909659e-02f,-4.36972082e-03f,
+5.06304651e-02f,-2.61112154e-02f,+1.05444565e-01f,-6.33941740e-02f,+1.38455465e-01f,
-1.24470741e-02f,-1.67908669e-02f,+1.28206149e-01f,-4.72656488e-02f,+1.51449159e-01f,
+4.90203053e-02f,+4.33997512e-02f,+8.28176290e-02f,+1.07439235e-01f,-1.05681822e-01f,
-3.97385955e-02f,-5.09852022e-02f,-1.56267092e-01f,+1.16023853e-01f,+7.06848651e-02f,
-3.29002738e-03f,-6.48785755e-02f,+2.11292207e-02f,-1.23757556e-01f,+4.43297029e-02f,
-2.49198228e-02f,+1.31804422e-01f,-1.45981014e-01f,-5.82038984e-02f,-1.15589529e-01f,
-1.15009032e-01f,+2.99054533e-02f,-5.57649210e-02f,-2.17444301e-02f,-6.28511012e-02f,
+3.18334699e-02f,+1.18704572e-01f,-1.39258459e-01f,+9.21654254e-02f,+1.27379447e-02f,
-4.47108671e-02f,+1.38339981e-01f,-3.80332470e-02f,-6.00960702e-02f,+6.32607192e-02f,
+7.16225803e-03f,+2.22394764e-02f,-1.14612684e-01f,+1.37453333e-01f,+4.74084914e-03f,
+1.51295364e-02f,+1.54834554e-01f,+7.76282102e-02f,+8.65979046e-02f,+8.68703127e-02f,
+1.21933803e-01f,+4.16501462e-02f,-1.65789276e-02f,-1.30838692e-01f,+1.46074608e-01f,
+1.07149258e-01f,+3.74402702e-02f,+2.21283436e-02f,-1.10633671e-03f,+1.07235298e-01f,
+1.27112046e-01f,+8.53190273e-02f,+1.01589575e-01f,-8.70036781e-02f,+1.03316620e-01f,
+8.05016458e-02f,+2.35424787e-02f,-8.51404518e-02f,+1.20196417e-01f,+1.54191062e-01f,
+2.37358361e-02f,+1.30791053e-01f,+2.00594813e-02f,+2.96811908e-02f,+1.20778009e-01f,
-1.97470188e-03f,+5.86035997e-02f,-1.84877366e-02f,-2.06957757e-03f,-1.00914851e-01f,
-6.10584095e-02f,-9.80729982e-02f,+3.32760364e-02f,+6.31968230e-02f,+1.70322806e-02f,
+1.09597966e-01f,+1.52736560e-01f,+2.59688348e-02f,+1.48598775e-01f,-4.49764431e-02f,
-1.45945460e-01f,+1.35706946e-01f,+1.28409371e-01f,+7.97193944e-02f,-1.03935644e-01f,
+2.68905610e-02f,+1.46549895e-01f,+2.66027153e-02f,+1.56357482e-01f,-8.87211338e-02f,
+1.03187546e-01f,-2.29530931e-02f,-1.39772862e-01f,+9.76793319e-02f,-4.10592407e-02f,
+5.29990643e-02f,-1.08971283e-01f,-5.68317547e-02f,+1.04448661e-01f,+5.79582900e-02f,
-7.56837502e-02f,-1.14758462e-01f,-1.25070900e-01f,+6.22375458e-02f,+3.42509598e-02f,
-1.12441882e-01f,-2.73028612e-02f,-1.73992515e-02f,-9.34895352e-02f,+8.97703171e-02f,
+2.71281600e-03f,-3.70458812e-02f,+1.19974717e-01f,+7.25602657e-02f,+9.31921452e-02f,
-1.06360063e-01f,-1.28112048e-01f,-9.38669592e-02f,+1.05460510e-01f,+9.43722874e-02f,
-9.74818319e-02f,+4.42404747e-02f,+1.52666867e-02f,+6.23237193e-02f,-1.19858533e-02f,
-3.49311754e-02f,-1.05666287e-01f,-2.78395265e-02f,-1.45742193e-01f,-1.14856660e-01f,
+1.25282601e-01f,+5.48566431e-02f,-4.35228348e-02f,-1.42692417e-01f,-1.53563321e-02f,
+1.40790835e-01f,+2.14734375e-02f,+4.66750860e-02f,+1.37980625e-01f,-1.38288647e-01f,
-1.78221017e-02f,-4.46920916e-02f,+2.65796483e-02f,+8.92537534e-02f,+4.10661101e-02f,
-1.54824838e-01f,+6.07827306e-03f,+1.36954591e-01f,+5.22388965e-02f,+1.38768837e-01f,
+1.00628659e-01f,+6.61716759e-02f,-1.34329945e-01f,+1.50358066e-01f,-3.39391679e-02f,
+4.73777950e-02f,+1.24889910e-02f,-1.42077655e-02f,-2.25632936e-02f,-1.22872084e-01f,
-9.75172222e-03f,-1.23465478e-01f,+1.39282495e-02f,+3.06007713e-02f,+7.25680590e-03f,
+1.16959661e-02f,+6.06995374e-02f,-7.48100802e-02f,-5.00507653e-02f,+9.45461839e-02f,
+5.86228967e-02f,+1.39550865e-03f,+1.20536014e-01f,-1.38475299e-02f,+7.91428834e-02f,
+1.43060252e-01f,-2.35809386e-02f,+5.25569171e-02f,-2.85495073e-02f,+5.91427833e-02f,
+5.52423894e-02f,+1.21253356e-01f,-5.00821993e-02f,+1.31800190e-01f,+2.21326500e-02f,
-1.41189992e-01f,-1.27538636e-01f,-3.20035219e-03f,-1.24304727e-01f,+3.45393121e-02f,
+1.45117804e-01f,-7.35072196e-02f,+1.14984915e-01f,+1.78255141e-03f,+8.64982605e-03f,
+6.17100745e-02f,+7.66843557e-04f,+1.08977780e-01f,+1.95323974e-02f,+8.74578208e-02f,
+1.37609795e-01f,-1.30196780e-01f,-9.55855399e-02f,-1.53668925e-01f,-1.38203159e-01f,
+4.61793989e-02f,-7.59954304e-02f,+1.53645709e-01f,+7.37413168e-02f,-1.50807500e-01f,
+1.38849929e-01f,+1.18594095e-01f,-1.43531740e-01f,-1.19566292e-01f,-1.39499754e-01f,
+2.84325033e-02f,+1.17193028e-01f,-1.02425680e-01f,-9.36612859e-02f,-1.19461954e-01f,
-2.21340060e-02f,-7.91601837e-03f,-1.07525595e-01f,-1.01234592e-01f,+3.26834023e-02f,
+8.17721188e-02f,+7.58127123e-02f,-2.93567628e-02f,+1.55832618e-02f,+2.21439898e-02f,
+8.01960379e-02f,+5.90883493e-02f,-1.39640853e-01f,+2.07008570e-02f,+1.47260144e-01f,
+5.33879548e-02f,+4.51141596e-03f,+9.66620594e-02f,-4.36882153e-02f,-5.83064705e-02f,
+1.37467518e-01f,+6.82482570e-02f,+1.45425126e-01f,+1.01177886e-01f,+4.43176925e-03f,
-7.75832757e-02f,-1.32481843e-01f,-1.05731726e-01f,+3.58666629e-02f,-3.60194966e-02f,
+1.00919440e-01f,+1.14917606e-02f,+3.32835019e-02f,+1.31463334e-01f,-6.90268651e-02f,
+1.57627866e-01f,-1.19359262e-01f,-1.19846418e-01f,-1.33504987e-01f,+3.11516821e-02f,
+9.38010961e-02f,-1.00537270e-01f,+9.59444493e-02f,+1.06549546e-01f,+8.53305161e-02f,
-1.32313177e-01f,-1.12061821e-01f,-4.34399396e-02f,+1.36201873e-01f,+8.86279494e-02f,
-1.55847400e-01f,+1.44687891e-02f,+2.60268450e-02f,+1.18070021e-01f,+1.48287103e-01f,
+1.52754977e-01f,+1.43242761e-01f,-8.64052325e-02f,+1.88933462e-02f,+1.42193034e-01f,
+8.78231823e-02f,-1.21538088e-01f,-9.40773115e-02f,+6.60690218e-02f,+3.86244953e-02f,
-1.10428184e-02f,+1.95276886e-02f,+1.47149071e-01f,-5.35075366e-03f,+4.52766716e-02f,
+7.05948472e-02f,+4.53777015e-02f,-3.97407040e-02f,+4.15949970e-02f,+3.60465199e-02f,
-4.56782952e-02f,+1.80873871e-02f,+1.30253091e-01f,+7.08796084e-02f,+2.33158469e-02f,
-1.77492350e-02f,-1.29131913e-01f,-1.24850884e-01f,+1.26738995e-02f,+6.13172352e-02f,
+9.04937685e-02f,-7.87769631e-02f,-7.88735077e-02f,+9.92920250e-02f,-8.70997310e-02f,
-7.81580135e-02f,+6.38215393e-02f,-5.81789762e-02f,+5.59367239e-03f,-4.57440019e-02f,
+1.23149827e-01f,+7.56117105e-02f,-1.46542430e-01f,-6.89181462e-02f,-5.79125360e-02f,
-4.85604405e-02f,+7.94136673e-02f,+8.90587121e-02f,-4.57677096e-02f,-9.27041471e-02f,
+7.91443586e-02f,+8.95814151e-02f,-6.39473423e-02f,-1.20559245e-01f,-1.12092361e-01f,
-9.76269245e-02f,+1.71849132e-02f,-1.10058926e-01f,+3.01058888e-02f,-9.49971974e-02f,
+6.81520253e-02f,-5.61798140e-02f,+2.18297541e-03f,-6.53299615e-02f,+1.00914434e-01f,
+1.21472046e-01f,+3.20927203e-02f,-4.66763675e-02f,+4.38267887e-02f,-1.07769877e-01f,
-6.30903319e-02f,+9.04783905e-02f,-1.09938145e-01f,-7.62698650e-02f,+3.04395109e-02f,
+8.93965364e-03f,+1.20330900e-02f,-1.22302137e-01f,+3.32458019e-02f,+9.43194330e-03f,
-1.21245973e-01f,-8.85057449e-03f,-1.55191123e-02f,+7.82052428e-02f,+1.15815327e-01f,
+4.91480231e-02f,+4.03371155e-02f,-2.49435753e-02f,+1.44286856e-01f,+1.59730166e-02f,
-1.12712778e-01f,-1.22678399e-01f,+6.62617683e-02f,-9.92087424e-02f,-1.19701251e-01f,
-3.23186368e-02f,+1.56878248e-01f,+1.50646761e-01f,-8.85822549e-02f,+5.95156401e-02f,
+3.78494710e-02f,-7.67914876e-02f,+7.86580294e-02f,+6.90323710e-02f,-1.16093658e-01f,
+7.37385750e-02f,-1.38148159e-01f,+1.83717012e-02f,-6.16628453e-02f,-6.54190779e-03f,
+1.22091904e-01f,-2.15696394e-02f,-1.41653553e-01f,+4.89754081e-02f,+3.75241786e-02f,
-1.84792876e-02f,-4.32517156e-02f,-1.44040540e-01f,-9.10071731e-02f,-1.18038192e-01f,
-4.20223698e-02f,-1.16297863e-01f,+4.65590954e-02f,+8.51600915e-02f,-1.45128220e-02f,
+1.20674297e-01f,+6.49563074e-02f,-3.55667099e-02f,-1.23108402e-01f,+1.01753995e-01f,
+1.43461064e-01f,-5.23282439e-02f,-1.57062158e-01f,+9.17278230e-02f,-1.44954324e-01f,
-1.58051535e-01f,+7.97705948e-02f,-1.26580551e-01f,+3.25505137e-02f,+1.28894672e-01f,
-7.76285902e-02f,+1.00956962e-01f,-1.05976611e-01f,-9.38482285e-02f,+1.53585240e-01f,
-1.15356073e-01f,-1.76649094e-02f,-1.33448511e-01f,+5.66143841e-02f,-1.11592069e-01f,
-1.26115143e-01f,-8.15755725e-02f,-6.76083863e-02f,-1.38721645e-01f,-1.53935701e-01f,
-3.01300138e-02f,-1.37545317e-02f,+1.37109712e-01f,-1.06091440e-01f,-2.74489373e-02f,
-9.41283554e-02f,+3.48220021e-02f,-1.87163204e-02f,+5.51100820e-02f,-9.08693075e-02f,
-1.57920450e-01f,+1.28392711e-01f,+7.54787028e-03f,-1.99515969e-02f,-2.26791054e-02f,
-1.75721943e-03f,+4.82658297e-02f,-7.92695880e-02f,-2.43569762e-02f,-5.70020303e-02f,
-3.60949636e-02f,+2.99132168e-02f,+1.43593848e-02f,+1.44471690e-01f,+1.10414788e-01f,
-6.94352016e-02f,+2.73333192e-02f,+2.10767090e-02f,-5.54818884e-02f,+1.22754648e-01f,
-2.01025754e-02f,+5.51878512e-02f,+8.73232335e-02f,-1.16481677e-01f,-5.78490123e-02f,
-1.18398815e-01f,+6.91880882e-02f,-4.10651267e-02f,+5.65482229e-02f,+6.19878769e-02f,
+8.08154047e-02f,+1.64443254e-03f,+6.91180825e-02f,-1.47167310e-01f,-7.11896271e-02f,
-8.67486596e-02f,+9.13427770e-03f,-2.75544822e-03f,+1.35404214e-01f,-1.77565515e-02f,
-1.44986033e-01f,-1.05973631e-01f,+9.69435424e-02f,-9.01511312e-03f,-1.19068772e-01f,
-6.37047589e-02f,+1.30020961e-01f,-4.48438600e-02f,-1.16480201e-01f,+2.60098130e-02f,
-1.32236585e-01f,+1.01568624e-01f,+2.19609737e-02f,+3.85527909e-02f,-1.99096650e-02f,
-3.18765193e-02f,-1.12373993e-01f,+1.31943062e-01f,+1.62344426e-02f,-1.19597390e-01f,
+1.03730187e-01f,-7.38069415e-04f,-6.97731972e-03f,+8.99150819e-02f,+3.80900204e-02f,
-1.10599622e-01f,-1.55505911e-01f,-8.66662487e-02f,+4.88432497e-02f,+1.27722934e-01f,
+7.17943758e-02f,-3.75455543e-02f,-3.63439918e-02f,-1.72910690e-02f,-1.49145812e-01f,
+1.78957283e-02f,-1.23929083e-02f,+7.68904388e-03f,+2.69966125e-02f,-3.18776220e-02f,
+6.71585798e-02f,-3.08345258e-03f,-1.24801770e-01f,-7.06047565e-02f,-6.24803156e-02f,
-9.67001766e-02f,+1.50723562e-01f,+5.87960780e-02f,+1.03325084e-01f,+3.35671753e-02f,
-7.69421235e-02f,-6.40351027e-02f,-8.86331424e-02f,+3.53828967e-02f,-6.53165057e-02f,
-8.58201757e-02f,-1.08041033e-01f,+1.33917376e-01f,+9.76944119e-02f,-1.13993585e-01f,
-1.19249746e-01f,-5.06990403e-02f,+1.31224170e-01f,+3.79945636e-02f,+1.12533793e-01f,
-2.65595466e-02f,-3.82033363e-02f,+1.56435236e-01f,+1.32536128e-01f,-1.36909202e-01f,
+6.49285614e-02f,-4.62261066e-02f,+9.36133415e-02f,+1.45215645e-01f,+3.69033813e-02f,
+1.46751985e-01f,-5.12801856e-02f,-6.51509017e-02f,+1.44235387e-01f,-7.06150830e-02f,
+6.59423918e-02f,+1.20567679e-02f,+1.11103550e-01f,+8.79452080e-02f,-1.57788217e-01f,
+8.92321169e-02f,+1.42508402e-01f,+8.71206522e-02f,-4.68414426e-02f,-2.07198560e-02f,
-3.90451550e-02f,+8.73648524e-02f,+5.82149476e-02f,+1.08477250e-01f,-1.65693909e-02f,
-7.43158683e-02f,+1.29011080e-01f,+1.13839284e-01f,-1.46612659e-01f,+1.10953286e-01f,
+1.45220757e-03f,+2.11801082e-02f,-6.94604591e-02f,-1.08925864e-01f,-9.32553634e-02f,
+8.33054185e-02f,-4.14957404e-02f,-1.59373581e-02f,-1.47945270e-01f,+1.09945461e-01f,
+2.71711797e-02f,+1.04146168e-01f,+1.36105791e-01f,-5.95092773e-02f,-1.65673494e-02f,
+2.34517455e-02f,-1.29693747e-02f,-6.07083514e-02f,-7.22433850e-02f,-4.88610342e-02f,
-2.27966458e-02f,-1.53687611e-01f,+1.73940212e-02f,+7.50143528e-02f,-9.68070105e-02f,
-1.47157013e-02f,-1.22583248e-01f,+3.89315784e-02f,+2.08360404e-02f,+6.53383285e-02f,
+1.03676915e-02f,+1.35670081e-01f,-4.24458608e-02f,+3.31162065e-02f,+7.44555295e-02f,
-1.57646894e-01f,-7.86693767e-02f,-1.24474913e-02f,-1.34403378e-01f,+1.05929375e-03f,
-8.10593367e-03f,-7.00324774e-03f,+7.98386335e-03f,-9.03923661e-02f,+1.22046515e-01f,
+1.25832304e-01f,+1.32909581e-01f,+9.64516252e-02f,-4.92352545e-02f,-4.13760543e-02f,
+4.34493273e-02f,+1.02002040e-01f,+2.16063112e-02f,-9.97348875e-02f,-1.00976139e-01f,
-7.25438297e-02f,+3.91839594e-02f,+9.97792035e-02f,-2.90833414e-02f,+9.25121158e-02f,
-8.93828347e-02f,-3.09590548e-02f,+1.38327628e-02f,+3.88938189e-03f,-8.81976262e-02f,
+1.49655059e-01f,+5.29832393e-02f,-1.49727449e-01f,+9.06202495e-02f,+1.49882838e-01f,
+6.92619383e-03f,+4.80691344e-02f,+6.51766509e-02f,+4.47146595e-03f,+2.91682333e-02f,
-1.33038923e-01f,+8.48414451e-02f,+1.32320985e-01f,+9.05468464e-02f,+2.41963565e-03f,
+1.42383024e-01f,-1.43774658e-01f,+2.78503001e-02f,-1.71383917e-02f,-2.26323605e-02f,
+2.76309103e-02f,+7.52536207e-02f,-9.16391611e-02f,+8.04106146e-02f,+1.36174366e-01f,
-1.06136672e-01f,-8.31666216e-02f,-7.16113150e-02f,-6.02215677e-02f,-1.53886959e-01f,
-8.15906897e-02f,+4.83823568e-02f,+1.27629593e-01f,+1.56633750e-01f,-9.32839736e-02f,
-1.18859284e-01f,-1.04060799e-01f,-1.28719047e-01f,+1.34313062e-01f,-6.68150187e-03f,
+1.07554331e-01f,+1.19210482e-02f,+1.27541080e-01f,+6.39581233e-02f,+1.48668990e-01f,
+8.18567872e-02f,-1.77585930e-02f,-3.32049802e-02f,-1.15998924e-01f,+1.36590317e-01f,
-1.33283287e-01f,-1.24602959e-01f,-8.55416656e-02f,-1.09886155e-01f,-4.67281267e-02f,
-3.58326659e-02f,+1.51655689e-01f,+5.54731041e-02f,-3.11677009e-02f,+6.55514002e-02f,
-1.38805106e-01f,+4.97087836e-03f,+6.36637062e-02f,+1.22041985e-01f,+8.52416009e-02f,
-3.02259177e-02f,-1.55785516e-01f,-1.09371737e-01f,-1.38415724e-01f,-1.02742463e-02f,
-1.46512091e-01f,-1.52969599e-01f,-1.21588528e-01f,-1.10526264e-01f,-1.60642415e-02f,
+9.04457867e-02f,+5.14831841e-02f,-2.86291689e-02f,-1.21940926e-01f,-9.94496271e-02f,
-1.52981550e-01f,+1.01050571e-01f,-1.49965048e-01f,-1.36849746e-01f,-8.86219889e-02f,
+5.93296140e-02f,+6.80221617e-03f,-7.29949921e-02f,-7.29035363e-02f,-1.21917441e-01f,
-8.55162740e-04f,+9.09741074e-02f,+1.22607306e-01f,+1.49155706e-02f,-6.65599108e-02f,
-5.79325482e-02f,-1.51893675e-01f,-1.10458821e-01f,+5.47684282e-02f,+1.52068585e-02f,
-1.42312229e-01f,+9.33855921e-02f,+1.21967345e-02f,+1.21093199e-01f,+6.73156679e-02f,
-4.29493487e-02f,+3.34333032e-02f,-8.25022832e-02f,+4.15096134e-02f,+1.13203183e-01f,
-1.22504197e-01f,+8.57949257e-03f,+4.82019782e-02f,-1.84030831e-03f,+6.04966879e-02f,
-1.23740137e-01f,+1.14419609e-02f,-1.42784283e-01f,+4.60404158e-03f,+5.72791398e-02f,
-8.49418640e-02f,-2.52695084e-02f,+1.39774382e-03f,+2.84692943e-02f,+1.55449197e-01f,
-4.51494381e-02f,+1.09716758e-01f,+4.43294495e-02f,-8.95375013e-03f,+8.66057128e-02f,
-1.36567056e-01f,+1.17590681e-01f,+8.76251161e-02f,+3.18239033e-02f,-6.89521432e-04f,
+3.20802331e-02f,+1.33295372e-01f,-1.26469836e-01f,-3.98036987e-02f,-1.04950383e-01f,
+1.18659005e-01f,-4.17687446e-02f,-1.25220180e-01f,+2.37922668e-02f,+3.55759412e-02f,
+6.97042495e-02f,+8.34893137e-02f,+9.40404087e-02f,-6.28044307e-02f,-1.34302169e-01f,
-1.56042278e-02f,-2.74769813e-02f,-3.79175544e-02f,-8.51397216e-03f,-1.50972024e-01f,
-6.84350505e-02f,+5.33659756e-02f,+8.33050162e-02f,+1.34777352e-01f,-8.55168253e-02f,
-1.04746550e-01f,-5.96573129e-02f,-5.28407022e-02f,+3.52382213e-02f,-1.24108404e-01f,
+6.05211854e-02f,+9.04953480e-02f,-7.50025213e-02f,+7.46597350e-02f,+1.37185439e-01f,
-1.09745055e-01f,-9.10905525e-02f,+7.08903521e-02f,-1.20800048e-01f,+1.47122294e-02f,
+1.36507049e-01f,+2.36263573e-02f,-6.63108081e-02f,-1.21735543e-01f,-3.82167101e-03f,
-1.10031709e-01f,+3.70691419e-02f,-9.67154428e-02f,+1.36589751e-01f,-1.47436574e-01f,
-1.35145009e-01f,-7.84954801e-02f,+1.52259931e-01f,+2.77740359e-02f,-9.35560465e-03f,
+5.53651452e-02f,+5.53113818e-02f,-1.14280432e-02f,+1.09190390e-01f,-4.00460139e-02f,
+9.32959467e-02f,+7.76773691e-02f,+2.57095695e-03f,-7.58806393e-02f,-1.24404028e-01f,
+1.44503996e-01f,-1.47644877e-02f,+2.24956274e-02f,+2.91114300e-02f,+1.43864498e-01f,
+7.30987787e-02f,+8.26276988e-02f,-3.82943004e-02f,-3.78707051e-03f,+3.97922397e-02f,
-1.06072247e-01f,+1.00561008e-01f,-7.88871944e-03f,-6.11972138e-02f,-8.45472142e-02f,
-9.61522460e-02f,-1.26591519e-01f,-1.06495857e-01f,-5.10860831e-02f,+6.51222169e-02f,
+1.08947918e-01f,+6.18178546e-02f,-2.48491466e-02f,-8.06249604e-02f,+1.25052944e-01f,
+1.00981727e-01f,+1.10550418e-01f,+1.27398089e-01f,+9.93832946e-03f,+3.41562331e-02f,
+1.17053971e-01f,-8.93498063e-02f,-1.57336786e-01f,-5.29967695e-02f,+1.01590157e-03f,
-1.20771967e-01f,-8.56764689e-02f,+1.46352246e-01f,+6.52812272e-02f,-5.83325922e-02f,
-1.43364593e-01f,-9.84367728e-02f,-6.90664425e-02f,-8.34933817e-02f,-6.68269247e-02f,
+1.26874790e-01f,-3.55892926e-02f,-1.47017717e-01f,-1.54047623e-01f,-6.07550219e-02f,
-7.36624971e-02f,-9.20967311e-02f,+1.50858358e-01f,+4.43851650e-02f,-9.74263772e-02f,
+1.14315450e-02f,+5.04381806e-02f,+1.49635985e-01f,-8.39896724e-02f,-1.49572551e-01f,
+8.87707025e-02f,+4.12205905e-02f,+6.58102334e-02f,-7.36287236e-02f,+3.88685465e-02f,
+8.40875357e-02f,-1.01801187e-01f,-1.35105073e-01f,-9.69064534e-02f,-1.05721742e-01f,
+6.29395843e-02f,+5.10009229e-02f,-1.27311051e-01f,-5.15594855e-02f,-6.50168881e-02f,
+2.10064352e-02f,+5.80303818e-02f,+5.50435781e-02f,+5.52586019e-02f,+2.48952508e-02f,
-1.44772202e-01f,+1.24048099e-01f,-6.84047416e-02f,-1.08918473e-01f,+7.90008157e-02f,
-1.20857768e-01f,+2.53002644e-02f,+1.42375037e-01f,+1.24196097e-01f,+1.11453429e-01f,
-7.03653768e-02f,-1.31232098e-01f,+8.48764926e-02f,-2.42374688e-02f,+1.03448704e-01f,
+1.44931808e-01f,+5.61439991e-02f,-1.01367444e-01f,-2.80597508e-02f,-1.35851219e-01f,
-1.50450215e-01f,-2.77698189e-02f,-8.79721642e-02f,+4.49702144e-03f,+7.65314102e-02f,
-6.84976652e-02f,-1.12709552e-02f,+4.92402762e-02f,+1.03814527e-01f,-1.37008786e-01f,
-1.47998005e-01f,+1.39108792e-01f,-2.63728648e-02f,-1.20196372e-01f,-9.95365977e-02f,
-9.29039493e-02f,-2.33443826e-02f,+5.16107082e-02f,-2.32288390e-02f,+1.08434841e-01f,
+9.81525034e-02f,+3.44702154e-02f,+9.37817246e-02f,+1.11976638e-01f,-2.42407471e-02f,
-2.78640985e-02f,+1.85043216e-02f,-2.84934938e-02f,-1.00977123e-01f,+1.55539945e-01f,
-9.16746408e-02f,+2.65039504e-02f,+3.21984589e-02f,-3.62093374e-02f,-9.60800946e-02f,
-8.44178349e-02f,-4.14863154e-02f,-8.58846381e-02f,+8.51620585e-02f,+6.67387545e-02f,
-1.53144330e-01f,-8.09222385e-02f,-4.46616709e-02f,+8.04556608e-02f,-7.13149011e-02f,
+9.01084244e-02f,+3.78751755e-02f,-9.34530422e-02f,+1.42013982e-01f,+3.97781432e-02f,
+1.11390129e-01f,+5.22778779e-02f,+1.05931535e-01f,-1.03633687e-01f,-1.29011318e-01f,
+7.90808052e-02f,-1.10888481e-02f,-1.18676677e-01f,-1.41843587e-01f,-8.77493694e-02f,
-4.93981093e-02f,-7.55162239e-02f,+1.46144778e-02f,+7.00015277e-02f,+6.93000555e-02f,
+6.21405542e-02f,-9.80413333e-02f,-4.54539955e-02f,-6.31739050e-02f,+5.62450290e-02f,
-9.34377760e-02f,-3.58398259e-02f,-4.86399829e-02f,-1.24547012e-01f,+1.45805791e-01f,
+6.42540902e-02f,+1.45317927e-01f,+6.20521903e-02f,+5.25164604e-03f,-6.67006001e-02f,
+7.94613510e-02f,+7.73342550e-02f,-1.15592137e-01f,+1.12374321e-01f,+8.24561864e-02f,
+1.26739517e-01f,+7.61144012e-02f,+1.21541068e-01f,-8.39784741e-02f,+1.19364992e-01f,
-3.59843224e-02f,-1.21287137e-01f,+1.21906832e-01f,-1.16302729e-01f,-9.62704644e-02f,
-1.01373062e-01f,+8.27780068e-02f,-8.05822462e-02f,+6.18036091e-03f,+9.86450166e-02f,
+1.18024543e-01f,-2.51993984e-02f,+4.26297188e-02f,-2.07941979e-02f,+1.54162720e-01f,
-4.74871993e-02f,-1.60255730e-02f,-6.81019574e-02f,+3.53160948e-02f,+1.28247991e-01f,
-1.18587635e-01f,-5.56910336e-02f,-4.16293740e-04f,-4.77517545e-02f,+3.00036818e-02f,
+3.99766862e-02f,+1.23337016e-01f,+1.09518453e-01f,-1.44461513e-01f,+6.48636073e-02f,
+8.81179422e-02f,+4.60430533e-02f,-9.62680131e-02f,-6.49696514e-02f,-1.08769566e-01f,
+9.07725096e-02f,+7.14089572e-02f,+1.47470459e-01f,-1.10140800e-01f,-1.00085661e-01f,
-1.20006293e-01f,+6.16941303e-02f,+5.44398576e-02f,+1.36590943e-01f,-9.94514748e-02f,
-9.23886895e-04f,+1.21920899e-01f,+6.32927269e-02f,+1.40603557e-01f,-5.22235632e-02f,
-1.15281016e-01f,+2.34895945e-02f,+3.83539498e-03f,-1.32034674e-01f,+5.73390871e-02f,
+4.60056961e-03f,-8.38129818e-02f,-4.45696935e-02f,-1.01986244e-01f,-1.04707457e-01f,
-9.05869901e-03f,-1.39125645e-01f,-4.07909900e-02f,-1.21739388e-01f,+5.67576438e-02f,
+5.21761328e-02f,-1.52149573e-01f,+6.94822818e-02f,+1.57111838e-01f,-3.80471349e-03f,
+9.48873013e-02f,+1.20988831e-01f,+1.71051472e-02f,-9.16425586e-02f,+1.10598400e-01f,
+1.42198280e-01f,-1.43415138e-01f,+4.39436585e-02f,+9.14186388e-02f,+4.88035828e-02f,
-9.28495079e-02f,-4.62445468e-02f,+1.69436038e-02f,-1.31973222e-01f,+1.40862897e-01f,
-8.69252309e-02f,+8.11174065e-02f,-1.16248973e-01f,-7.41919875e-03f,+1.40490726e-01f,
+8.39525312e-02f,+7.84742981e-02f,+4.60298210e-02f,-4.96260300e-02f,+8.11649710e-02f,
+1.03117526e-02f,-1.20708600e-01f,+1.22191161e-02f,-1.71273947e-03f,-1.61676109e-02f,
-2.58470625e-02f,-6.41498864e-02f,-7.90076330e-02f,+4.98577952e-04f,-6.73569068e-02f,
+1.03300825e-01f,+1.23548076e-01f,-1.36135086e-01f,+7.37049431e-02f,-5.09296730e-02f,
-1.39041513e-01f,+1.21621192e-02f,+1.44095853e-01f,-9.94842723e-02f,-4.88588884e-02f,
-2.13066936e-02f,-1.23771310e-01f,+1.73987746e-02f,-1.88383460e-02f,-6.87177777e-02f,
+1.22679874e-01f,+3.42886299e-02f,+5.08650690e-02f,+1.80092752e-02f,-4.67902422e-03f,
+8.33823681e-02f,+2.87392735e-02f,-9.97754782e-02f,-1.48834437e-01f,+3.71999890e-02f,
-1.15434214e-01f,+8.92326087e-02f,+1.08918399e-02f,-1.47572964e-01f,-5.56096807e-02f,
+4.27784324e-02f,+9.79652554e-02f,-8.88325274e-02f,+2.06120163e-02f,-1.41381383e-01f,
-8.74170661e-03f,-1.38240218e-01f,+1.46990195e-01f,+1.16468117e-01f,-1.33127108e-01f,
+2.35295296e-03f,+1.02335617e-01f,+1.37027338e-01f,-2.34287530e-02f,+2.78723240e-02f,
-9.16889980e-02f,-1.46981716e-01f,+6.08919412e-02f,-1.42440438e-01f,-5.96520379e-02f,
-5.29576764e-02f,-1.66245103e-02f,-6.15439489e-02f,-1.47113472e-01f,+1.21707916e-02f,
-4.58054096e-02f,-1.50403738e-01f,-5.10490239e-02f,-1.21008329e-01f,+4.18387055e-02f,
+3.79209816e-02f,+1.13332942e-01f,-1.77685022e-02f,+1.24671027e-01f,-8.37388337e-02f,
+1.60710365e-02f,-3.97416875e-02f,+1.14893571e-01f,-4.39402983e-02f,-1.24200270e-01f,
+1.23136505e-01f,+4.13717926e-02f,+1.30181327e-01f,+1.56699136e-01f,-1.05929568e-01f,
-1.33782774e-02f,+9.13995653e-02f,-7.15362951e-02f,-9.84558165e-02f,+8.76084268e-02f,
+3.91368717e-02f,-1.55463815e-04f,-5.73578924e-02f,-1.05891675e-01f,+1.01067171e-01f,
+1.32243931e-02f,-6.73433393e-02f,-1.34360135e-01f,-1.35025725e-01f,+1.61432624e-02f,
+2.62248516e-03f,-2.55328566e-02f,-6.61818087e-02f,-1.08819306e-02f,-1.48236707e-01f,
-1.06085256e-01f,+9.48132724e-02f,+4.43508178e-02f,+1.20813653e-01f,+2.94425189e-02f,
+9.50944275e-02f,-1.12220980e-01f,-4.98073176e-02f,+6.41340166e-02f,-1.49505779e-01f,
-9.95928794e-02f,+6.51757121e-02f,-4.59244549e-02f,+9.07362700e-02f,-9.02273655e-02f,
-8.71281177e-02f,+6.78171962e-02f,-6.22092187e-03f,+2.24489272e-02f,+6.42508864e-02f,
+6.78506345e-02f,+4.50398922e-02f,-8.86213109e-02f,+1.32711828e-02f,+1.42270401e-01f,
+2.75963694e-02f,-1.00239083e-01f,+1.44126996e-01f,+3.70940566e-02f,+8.83332640e-02f,
+1.17573544e-01f,-1.77012533e-02f,-1.56134397e-01f,+3.11304182e-02f,-1.24297529e-01f,
+4.11384851e-02f,+7.08743334e-02f,-3.27614993e-02f,+1.94653273e-02f,-1.28169954e-02f,
+1.10216722e-01f,-5.58383167e-02f,-1.05196953e-01f,-1.19725302e-01f,+1.36130854e-01f,
+3.34862322e-02f,-9.06918719e-02f,-1.17289081e-01f,-7.49475583e-02f,+8.28887522e-03f,
-1.43470258e-01f,-4.53422964e-03f,-3.82266715e-02f,+8.48106444e-02f,+1.14167169e-01f,
+7.83293396e-02f,+2.42635906e-02f,-1.34922713e-02f,+7.75104910e-02f,+4.42106575e-02f,
-1.29649222e-01f,+1.37563393e-01f,+6.36202097e-02f,+1.03722230e-01f,-5.70892245e-02f,
-1.15500793e-01f,+1.21361330e-01f,-1.21112034e-01f,-1.54990107e-02f,-8.14346224e-02f,
-1.34213269e-01f,-1.48354664e-01f,+1.01582125e-01f,+7.83138573e-02f,-2.14632899e-02f,
-1.68333501e-02f,-9.24031362e-02f,+4.71579880e-02f,-6.27636909e-05f,-9.22408476e-02f,
-9.76309180e-02f,-4.19305041e-02f,+1.57152191e-01f,+6.18947297e-02f,+1.26515791e-01f,
-1.27529502e-02f,+5.08067757e-02f,+1.46980584e-02f,-1.10355943e-01f,-1.41370788e-01f,
+1.46118745e-01f,-5.03263324e-02f,-3.15185189e-02f,+6.97433949e-04f,+1.45262331e-02f,
+2.26336420e-02f,-1.45593733e-02f,-2.48239338e-02f,-5.45947924e-02f,-1.51743680e-01f,
+9.10582542e-02f,+1.36770621e-01f,+1.91495866e-02f,+2.84444839e-02f,+6.71376288e-02f,
+9.32621509e-02f,+8.42763931e-02f,+1.41218528e-01f,-1.18652970e-01f,-1.15274683e-01f,
+7.01033026e-02f,-1.24535516e-01f,-5.01150787e-02f,-1.57490447e-01f,-1.27240181e-01f,
-1.41576990e-01f,+1.26311257e-01f,-2.57075876e-02f,+1.12979755e-01f,-8.10055137e-02f,
-8.08253214e-02f,-1.07892878e-01f,+8.79736692e-02f,+1.08807966e-01f,+6.04272038e-02f,
-3.40490043e-03f,+1.12584874e-01f,+6.51353002e-02f,+9.95929092e-02f,-1.40039027e-02f,
+5.31964153e-02f,-1.19754180e-01f,-2.79228389e-02f,-1.28448412e-01f,-9.48650688e-02f,
-7.74325430e-03f,+9.81141180e-02f,+2.42284983e-02f,-7.71576762e-02f,+7.13255703e-02f,
+2.86112279e-02f,+5.46981543e-02f,-1.24610908e-01f,+1.12236246e-01f,-6.56931773e-02f,
-6.40478805e-02f,+1.02027252e-01f,-1.18798405e-01f,+4.52232808e-02f,+6.79664761e-02f,
-1.98204815e-02f,-1.03432417e-01f,-1.58078671e-01f,-6.87345937e-02f,-1.20696194e-01f,
+1.37679413e-01f,+6.15732819e-02f,+4.42637354e-02f,-1.12709999e-02f,+1.57369837e-01f,
-1.46434814e-01f,+1.53279945e-01f,-8.28915089e-02f,-1.53307974e-01f,-1.30995363e-02f,
-9.65550020e-02f,+9.10777450e-02f,-6.00977242e-03f,+6.97313249e-03f,-9.45542753e-03f,
+7.58493096e-02f,+1.27590463e-01f,-6.14363998e-02f,-1.08880736e-01f,-9.69205499e-02f,
-4.92309257e-02f,-1.55220613e-01f,-6.83490634e-02f,-1.31102502e-01f,-1.19916201e-01f,
+7.83725828e-02f,+1.13158241e-01f,+3.55362594e-02f,-7.56563097e-02f,+5.44794053e-02f,
+3.78566980e-03f,-7.32630566e-02f,-3.26526165e-03f,-4.07619625e-02f,+1.31478891e-01f,
-9.60848480e-02f,+1.53251991e-01f,+3.81197184e-02f,-9.89316255e-02f,+1.54822156e-01f,
-1.01625919e-02f,-1.11713536e-01f,-3.34997699e-02f,-5.43718562e-02f,+3.99043113e-02f,
-9.64889973e-02f,+9.99571532e-02f,+1.34955719e-01f,-9.69693735e-02f,+2.65532136e-02f,
+5.41573912e-02f,+2.08586454e-04f,+8.24138820e-02f,+1.85746551e-02f,+3.23906392e-02f,
-9.92803276e-03f,-2.02192366e-02f,+8.43322277e-02f,+2.73995996e-02f,-1.96925700e-02f,
+9.65647548e-02f,-1.43545121e-01f,-7.41314515e-02f,-2.10189968e-02f,-8.74550641e-03f,
-8.63680691e-02f,+5.18257022e-02f,-1.16842210e-01f,+4.81227338e-02f,+1.37250707e-01f,
-8.34939107e-02f,-1.46538138e-01f,+3.15154642e-02f,+4.68696803e-02f,+1.19039878e-01f,
-1.52009860e-01f,+9.93304402e-02f,-7.66630843e-02f,+4.95381206e-02f,+1.35950074e-01f,
+4.44556922e-02f,-1.20913558e-01f,+8.55381638e-02f,-7.47722685e-02f,+7.37874955e-02f,
+7.86041915e-02f,+1.13851875e-02f,-8.22131112e-02f,+1.07270762e-01f,+1.26602367e-01f,
+1.94062591e-02f,-1.25217572e-01f,-2.88105607e-02f,+2.33644247e-03f,+3.74898762e-02f,
-3.14737856e-03f,-1.05547011e-01f,+1.11698374e-01f,-1.39884412e-01f,-9.11774486e-02f,
-1.38157994e-01f,+8.08674097e-03f,-4.85516936e-02f,-6.92856908e-02f,+6.82840347e-02f,
-1.02205753e-01f,-1.01038419e-01f,-3.09977680e-02f,-1.31871551e-01f,-8.65997896e-02f,
+6.14194572e-03f,-1.15571588e-01f,+8.65295231e-02f,-5.24954349e-02f,-1.48653865e-01f,
+8.28273892e-02f,+2.12296844e-02f,-4.79829907e-02f,+1.19581521e-02f,+1.08215407e-01f,
-5.35273179e-02f,+2.81325877e-02f,-1.56446189e-01f,-7.30416253e-02f,-1.28833309e-01f,
-1.42523721e-01f,+9.62670296e-02f,-3.68525088e-03f,-5.71215302e-02f,+1.54365227e-01f,
+1.50173441e-01f,-1.26878366e-01f,+4.88604009e-02f,-1.53027385e-01f,-3.81757766e-02f,
+8.53993893e-02f,-1.30478755e-01f,-2.53099948e-02f,+9.13025588e-02f,-6.72505647e-02f,
-9.33736935e-02f,-1.54582366e-01f,-1.52729273e-01f,+6.41285181e-02f,+7.63469189e-02f,
-4.53691408e-02f,+1.36971578e-01f,-1.06380656e-01f,-3.25874537e-02f,+5.42864650e-02f,
+1.09605685e-01f,+1.44417182e-01f,+1.01033106e-01f,-5.72515875e-02f,+6.83865696e-02f,
+2.59819925e-02f,-1.46990314e-01f,+2.46990770e-02f,+8.61950368e-02f,-1.22725442e-01f,
+1.44785896e-01f,+9.06281173e-03f,-1.18868105e-01f,-1.20005012e-01f,-5.30313775e-02f,
-7.14533255e-02f,-1.25315920e-01f,-1.46619648e-01f,+1.08864263e-01f,-9.34616402e-02f,
-1.45992994e-01f,+1.51085213e-01f,+7.39685297e-02f,-1.38819695e-01f,-6.38329685e-02f,
-3.30795944e-02f,+7.26997107e-02f,-5.28434142e-02f,+1.09179184e-01f,-5.99884987e-03f,
-3.06123793e-02f,-1.37806088e-01f,-1.22023076e-02f,+1.01879939e-01f,-6.48896620e-02f,
-9.28360522e-02f,+5.35836816e-03f,-2.83436924e-02f,+5.21592796e-02f,+2.17424333e-02f,
+3.71150523e-02f,+1.16579995e-01f,+8.00670832e-02f,+3.75586301e-02f,-1.13269605e-01f,
-7.14242458e-03f,-1.55821845e-01f,-9.34255645e-02f,-9.21699777e-02f,-7.37812817e-02f,
-1.06164306e-01f,+5.93483448e-02f,+1.41175240e-02f,+1.29702762e-01f,+4.28692847e-02f,
+1.45073876e-01f,+1.22809216e-01f,-2.90216357e-02f,+1.31795779e-01f,+4.14777994e-02f,
-7.66809583e-02f,-2.88343430e-03f,-8.84581506e-02f,+2.82893628e-02f,-2.67572254e-02f,
+1.35235563e-01f,+9.70858485e-02f,+1.38028756e-01f,-8.22903514e-02f,-1.14287585e-01f,
-1.04339197e-01f,+1.57477692e-01f,+9.79963988e-02f,+1.26417592e-01f,+1.56192437e-01f,
+4.71654832e-02f,-7.03716353e-02f,+1.86454505e-02f,+1.32831141e-01f,+4.53521013e-02f,
+2.78295279e-02f,+2.21693516e-03f,+5.28325588e-02f,+1.05315551e-01f,-1.07382461e-01f,
+8.37098062e-02f,-4.03486863e-02f,-3.88589650e-02f,+6.11452609e-02f,-1.14448696e-01f,
+6.51960075e-03f,-1.41659170e-01f,+4.52615172e-02f,+3.85130197e-02f,+3.26141864e-02f,
-1.05235025e-01f,+1.48750022e-01f,-1.01046339e-01f,+2.70631909e-02f,-1.56146720e-01f,
-9.13526639e-02f,+8.13350230e-02f,-7.15962723e-02f,+8.40465575e-02f,-1.33185714e-01f,
-4.51274589e-02f,+5.05988002e-02f,-1.68806612e-02f,+1.34848461e-01f,-8.21094811e-02f,
-6.11040592e-02f,-5.27737513e-02f,+1.07128456e-01f,+1.20987251e-01f,+1.28018752e-01f,
-1.24963269e-01f,-4.89796326e-02f,+2.63484865e-02f,+5.28095961e-02f,+7.59865791e-02f,
-6.72817230e-04f,+1.15073636e-01f,-1.20426320e-01f,-1.19469792e-01f,-6.63205385e-02f,
+4.20164168e-02f,+9.46227163e-02f,-1.46697938e-01f,+1.96535140e-02f,+9.37537998e-02f,
+7.08228797e-02f,-1.18211910e-01f,-8.22845101e-03f,-6.98281154e-02f,+1.99426562e-02f,
-1.12971649e-01f,+3.73182744e-02f,-4.63924333e-02f,-4.20541167e-02f,+5.98145425e-02f,
-3.98625433e-02f,-1.53783172e-01f,+2.49292105e-02f,-8.54578614e-03f,+1.52073994e-01f,
+3.80838364e-02f,+8.42265934e-02f,+8.41281265e-02f,+2.83949226e-02f,-5.83916679e-02f,
-2.35931128e-02f,-4.88657877e-02f,-8.91473368e-02f,-1.00107223e-01f,-4.38978523e-02f,
-5.57879508e-02f,+4.66377586e-02f,-5.30212373e-02f,+6.95473850e-02f,-2.89102793e-02f,
+2.71924883e-02f,-1.34858161e-01f,+6.97717071e-03f,-5.99657521e-02f,-8.27684999e-03f,
-7.37505183e-02f,-6.08013123e-02f,+5.23637235e-02f,+3.04664522e-02f,+1.52088299e-01f,
+2.90697664e-02f,+1.56170025e-01f,+1.04835615e-01f,-9.11025032e-02f,-1.30023599e-01f,
-1.10902041e-02f,-6.59809560e-02f,-1.41997382e-01f,-1.15169212e-01f,+2.49164701e-02f,
+1.01191506e-01f,-4.68829498e-02f,-1.60589665e-02f,+1.19797274e-01f,-2.64662504e-02f,
-1.43829629e-01f,+1.37472913e-01f,-2.66572833e-03f,+1.93709731e-02f,-1.36101902e-01f,
+5.75073212e-02f,-1.45643771e-01f,+5.89818507e-02f,+1.03560999e-01f,+4.92028445e-02f,
-8.64299685e-02f,-3.23043764e-03f,+8.50529224e-02f,+9.65235978e-02f,-9.89596769e-02f,
+3.78720164e-02f,+1.44419074e-02f,+4.13161516e-02f,+5.13290018e-02f,+7.95298964e-02f,
+2.92208642e-02f,-1.19940251e-01f,-1.51545212e-01f,-6.28308579e-02f,-1.54435411e-01f,
+1.15247503e-01f,+1.24178007e-01f,+1.76080614e-02f,+7.35987872e-02f,+1.20970741e-01f,
-1.39503598e-01f,-1.08084306e-01f,+1.10040203e-01f,-1.04370371e-01f,-9.71557200e-03f,
-8.31407234e-02f,+5.48745841e-02f,-2.20711231e-02f,-8.86601359e-02f,-1.71108395e-02f,
+3.04758847e-02f,-4.03639525e-02f,-1.50080055e-01f,-8.68013948e-02f,-7.70194381e-02f,
-1.04932174e-01f,-1.27213269e-01f,-1.05787441e-01f,+1.39788076e-01f,+1.45690039e-01f,
-3.65311578e-02f,-2.34541148e-02f,-1.28704339e-01f,+1.45315006e-01f,-6.36365637e-02f,
-1.05536461e-01f,+1.23599723e-01f,-1.43933401e-01f,-1.11918911e-01f,+5.41314185e-02f,
+4.51054871e-02f,+7.42757320e-03f,+5.00290543e-02f,-7.06438869e-02f,-1.29169911e-01f,
-1.07991755e-01f,-2.84056664e-02f,-5.86331561e-02f,-1.30116642e-01f,-6.57012463e-02f,
+1.38699695e-01f,-1.29625142e-01f,-4.07284871e-02f,-6.08940125e-02f,-7.74568394e-02f,
-6.01489842e-03f,+1.05342403e-01f,+3.89689356e-02f,+1.50919244e-01f,-1.24686599e-01f,
+1.00836471e-01f,+1.44088790e-01f,+3.18601578e-02f,+5.52713126e-02f,-1.34027466e-01f,
-1.01387307e-01f,-8.41945559e-02f,+8.75245780e-02f,-1.31297424e-01f,-4.69338000e-02f,
-1.54919371e-01f,-9.13684964e-02f,+1.00434288e-01f,-1.32839173e-01f,-1.20303914e-01f,
-9.84903872e-02f,-7.69861937e-02f,+5.49206883e-02f,+4.29255217e-02f,-1.01883665e-01f,
-1.66387856e-03f,-1.05303824e-01f,+7.76765347e-02f,-1.27656773e-01f,-6.43760338e-02f,
+1.67553127e-02f,-7.35954717e-02f,+5.11447787e-02f,-4.86023948e-02f,+1.53122991e-02f,
-1.42418131e-01f,+9.07154232e-02f,+4.53727990e-02f,-1.12956300e-01f,-1.75515115e-02f,
+1.57903150e-01f,-1.14630327e-01f,+6.74014986e-02f,+1.50115773e-01f,-1.04201369e-01f,
-2.77134776e-03f,-7.05739930e-02f,-1.17519781e-01f,+1.30791858e-01f,+1.55118391e-01f,
+1.28741071e-01f,+4.67473119e-02f,+5.44218421e-02f,-9.78884324e-02f,-9.11308900e-02f,
+3.62769216e-02f,-1.00563735e-01f,-7.55404979e-02f,+5.09528965e-02f,+6.95089698e-02f,
+1.15020677e-01f,+6.41034096e-02f,-6.04820549e-02f,-1.31697476e-01f,+1.12378314e-01f,
-1.14807427e-01f,+5.75507134e-02f,+8.03817064e-02f,+1.42466083e-01f,+1.26182929e-01f,
-8.97816271e-02f,+8.73680264e-02f,+6.49296492e-02f,-5.06435186e-02f,+8.06977600e-02f,
+1.44882813e-01f,+1.10248402e-01f,-2.87970752e-02f,+7.56201595e-02f,+3.39744538e-02f,
+7.88582414e-02f,+8.50263834e-02f,-6.55974448e-03f,-1.33869737e-01f,-1.40472755e-01f,
+1.53194979e-01f,+1.55064270e-01f,-4.50269580e-02f,+9.03606564e-02f,-9.62854326e-02f,
-5.84764481e-02f,-1.29890338e-01f,-9.50928777e-02f,-5.43280095e-02f,-1.19894713e-01f,
-4.64466736e-02f,-5.39548099e-02f,-1.05484247e-01f,-1.05960369e-01f,+2.20436752e-02f,
-1.11286879e-01f,+1.17339328e-01f,-5.77430800e-02f,+4.43968922e-02f,+4.39817309e-02f,
-8.66178870e-02f,-6.22004271e-04f,+5.07342517e-02f,+8.69392902e-02f,-1.10003129e-01f,
+6.41485751e-02f,-8.19795355e-02f,-9.94096696e-03f,+9.98448879e-02f,-6.63549900e-02f,
-4.00609076e-02f,+1.43025234e-01f,-1.56015992e-01f,-1.45468250e-01f,-2.95520276e-02f,
-3.70848179e-02f,+1.06386349e-01f,+2.11066753e-02f,+9.14425701e-02f,-7.30694830e-02f,
-1.16091430e-01f,-9.26317275e-03f,-1.55024141e-01f,-8.36183876e-02f,-2.15826035e-02f,
+2.53305435e-02f,+1.57691941e-01f,+9.48453099e-02f,+1.52195290e-01f,+7.81001151e-03f,
+1.44146279e-01f,-2.13085115e-02f,-3.68353352e-02f,+8.78278911e-02f,-1.45982206e-03f,
+1.00149736e-01f,+1.06328055e-01f,+2.41138041e-03f,-6.78610802e-03f,+1.26743570e-01f,
-1.57735974e-01f,+1.77403390e-02f,-8.92352089e-02f,+1.27188072e-01f,+1.18273839e-01f,
-2.68186480e-02f,+5.15567362e-02f,+8.24060440e-02f,-2.32706517e-02f,+5.42255044e-02f,
+2.41009891e-03f,-1.03347190e-01f,+9.39924866e-02f,+1.18065327e-02f,-3.26708406e-02f,
-1.56514317e-01f,+1.45096943e-01f,+6.24726266e-02f,-2.21383423e-02f,+1.55141488e-01f,
+1.57145813e-01f,+1.06280491e-01f,+1.57970771e-01f,+1.18610412e-02f,+6.73391521e-02f,
+5.08738011e-02f,-2.17969865e-02f,+8.06674808e-02f,+3.25608402e-02f,+1.24729499e-01f,
-1.48792356e-01f,+7.99420774e-02f,+5.63031286e-02f,+1.13859028e-02f,+1.64968967e-02f,
+1.29374668e-01f,-1.49466127e-01f,-4.58135530e-02f,+1.14289090e-01f,+1.37482181e-01f,
+8.06188881e-02f,+3.68625522e-02f,+5.40083349e-02f,-1.43767431e-01f,+1.13641664e-01f,
-3.21322232e-02f,-1.76062882e-02f,+1.51994660e-01f,-5.44046462e-02f,-1.21603608e-01f,
-2.91618705e-02f,-1.26725540e-01f,-4.75186333e-02f,+1.18525431e-01f,+1.18413553e-01f,
-5.33430576e-02f,-1.81873590e-02f,+6.09687716e-02f,+5.83457500e-02f,-6.24673814e-02f,
+1.55914426e-02f,+8.63470733e-02f,+1.40899792e-01f,+1.09106913e-01f,+9.73483473e-02f,
-5.53657040e-02f,+6.15926981e-02f,-6.14676103e-02f,-1.35812625e-01f,+5.51794469e-03f,
+1.25212684e-01f,+2.24546194e-02f,+1.04744807e-01f,-6.21437505e-02f,+1.36933699e-01f,
-1.46097198e-01f,+1.55898049e-01f,-9.18012634e-02f,-2.27465481e-02f,-9.91907567e-02f,
+6.52877390e-02f,+3.77618968e-02f,-3.09804231e-02f,+1.28672048e-01f,-1.00924686e-01f,
-5.12535349e-02f,+1.20698974e-01f,+8.31317902e-02f,+6.82042539e-03f,-2.90194154e-03f,
+2.16683596e-02f,+9.18245316e-03f,-9.46114957e-03f,-4.32494581e-02f,+2.04420388e-02f,
-2.44647413e-02f,+9.15962309e-02f,+4.04486209e-02f,-1.41259760e-01f,-3.86574343e-02f,
+1.54885039e-01f,-1.37773454e-02f,+1.17329970e-01f,+9.91120189e-02f,-5.24314567e-02f,
+9.36438143e-03f,-7.02661946e-02f,+1.47082224e-01f,+6.17507547e-02f,-9.71325636e-02f,
+4.36106771e-02f,+1.20032981e-01f,+1.31512061e-01f,+1.36046544e-01f,+5.08163869e-03f,
-1.40544683e-01f,-3.77050564e-02f,+1.13938496e-01f,-8.91547278e-02f,-1.98018253e-02f,
+1.33892193e-01f,+1.41094729e-01f,+8.33796859e-02f,+8.00351053e-02f,-1.54098064e-01f,
+1.07117757e-01f,-5.17836288e-02f,-1.14640206e-01f,-1.21889710e-02f,+1.30095556e-01f,
+3.95244062e-02f,+1.53700933e-01f,-1.10453069e-02f,+9.75435823e-02f,+3.92158777e-02f,
-1.42067194e-01f,-1.50373727e-02f,-1.13213360e-01f,+6.11057132e-02f,-7.82407597e-02f,
-1.50810629e-02f,+2.74425000e-02f,-1.31530404e-01f,-4.99658287e-02f,+1.54827014e-01f,
+1.41792700e-01f,+2.97946185e-02f,+1.26198635e-01f,+4.67706919e-02f,+8.66469443e-02f,
+2.91529298e-02f,+6.41573071e-02f,-2.05846131e-03f,+7.45874047e-02f,+1.52795836e-01f,
+7.71408975e-02f,-1.47232935e-01f,+1.34292319e-01f,-7.08356872e-02f,-8.97025019e-02f,
-3.38912904e-02f,-1.43570647e-01f,+2.61693746e-02f,+2.72956192e-02f,+3.44922692e-02f,
-6.49709329e-02f,-5.03445044e-02f,-7.35474825e-02f,+1.48475930e-01f,-3.55540067e-02f,
-1.09381691e-01f,-4.55734953e-02f,-1.31271109e-01f,-8.69910493e-02f,+2.04384178e-02f,
-7.67606869e-02f,+1.47136882e-01f,-5.28178215e-02f,-6.11939281e-02f,+2.83045620e-02f,
+1.19579121e-01f,+1.57586411e-01f,-1.23077042e-01f,-3.64941061e-02f,-1.43558055e-01f,
-6.00342080e-02f,-4.05349508e-02f,-4.37052548e-02f,+1.11697331e-01f,+1.11218199e-01f,
+4.59819138e-02f,+1.11017153e-01f,+8.17351788e-02f,-1.94001198e-02f,+2.42193341e-02f,
-7.21169114e-02f,-1.38474554e-02f,-4.72987518e-02f,-6.73384368e-02f,+9.29917842e-02f,
-1.24759585e-01f,+1.48686633e-01f,-1.48047060e-02f,+5.66684455e-02f,-9.49075595e-02f,
+3.75777483e-02f,-2.50660926e-02f,+4.70830053e-02f,+1.48153231e-01f,+1.53388098e-01f,
-8.00871700e-02f,+1.07815966e-01f,-9.49979946e-02f,+1.47734419e-01f,+3.45805883e-02f,
-1.50377527e-01f,+2.82892436e-02f,+3.61797810e-02f,-1.55601963e-01f,+1.61385536e-03f,
-7.38752633e-02f,-5.89593872e-02f,-6.43545836e-02f,-1.22528963e-01f,+1.34466588e-03f,
+1.28122434e-01f,-4.32484373e-02f,-7.91525021e-02f,-1.03700906e-01f,-8.89538750e-02f,
-6.49331659e-02f,-9.96018946e-03f,+8.09562057e-02f,+1.77180618e-02f,-7.54136890e-02f,
-3.76510322e-02f,+7.82070160e-02f,+1.22512683e-01f,-1.38544470e-01f,+9.99596864e-02f,
-7.60524273e-02f,+1.77190006e-02f,-1.56765729e-02f,+1.30952895e-02f,+1.53483346e-01f,
-1.56494409e-01f,-1.09893322e-01f,-6.03021979e-02f,-3.50097343e-02f,-9.67702568e-02f,
-2.92273909e-02f,-1.49385944e-01f,+9.18170959e-02f,-1.29874960e-01f,-7.46248364e-02f,
-3.72002497e-02f,+4.97313887e-02f,-5.29065728e-03f,+1.36423662e-01f,+2.99101174e-02f,
+8.76416266e-03f,+3.45764458e-02f,-1.36521637e-01f,+1.02472648e-01f,+1.57272205e-01f,
+3.44588310e-02f,+5.25111556e-02f,-8.55645537e-03f,+6.25373125e-02f,-1.41427636e-01f,
+3.88568640e-03f,-2.60042995e-02f,-6.05559424e-02f,+1.22396395e-01f,+6.87589049e-02f,
+2.47262865e-02f,-3.01551968e-02f,-2.44000554e-02f,-9.48936120e-02f,-9.68557149e-02f,
+4.28650528e-02f,-5.81077635e-02f,+4.62780595e-02f,+9.25524533e-03f,-1.12741694e-01f,
+1.04037002e-01f,-1.47333696e-01f,-1.49927542e-01f,-3.34906578e-03f,-1.02229416e-02f,
-9.95669067e-02f,+4.26818132e-02f,-9.32338387e-02f,-1.04833558e-01f,+9.04333740e-02f,
+1.75246596e-03f,+1.17859095e-02f,+9.07062739e-02f,-1.17277354e-01f,+6.23874962e-02f,
-1.28296420e-01f,-1.15994364e-01f,+1.27043143e-01f,-1.53830945e-01f,-7.83729255e-02f,
-8.23371708e-02f,+1.33317992e-01f,-1.55510202e-01f,+1.36109188e-01f,+1.26794979e-01f,
-1.19805709e-01f,-1.42975524e-01f,-2.20002085e-02f,-1.03405118e-02f,-5.16799241e-02f,
-3.18311006e-02f,-1.73560232e-02f,-7.15869591e-02f,-1.18827656e-01f,-1.01944402e-01f,
-5.47640920e-02f,+4.29817289e-02f,-8.10751319e-03f,+3.93560380e-02f,-1.54145256e-01f,
+7.17096031e-03f,-7.64543936e-02f,-2.53543258e-02f,+1.56777009e-01f,-6.07851818e-02f,
+4.96317595e-02f,-4.09749523e-02f,+1.15786001e-01f,+1.08190611e-01f,-3.38913724e-02f,
+3.78403813e-02f,+8.25771093e-02f,+3.71933132e-02f,+5.37891984e-02f,-8.67665261e-02f,
+1.01588354e-01f,+4.90655005e-02f,+1.91675276e-02f,+1.42681077e-01f,+3.68348807e-02f,
+4.42694724e-02f,-5.03058583e-02f,+1.13525406e-01f,-1.08852386e-02f,+1.41430244e-01f,
-1.16436362e-01f,-1.47344142e-01f,-5.99693358e-02f,-1.31716996e-01f,-1.40743762e-01f,
-8.35579634e-03f,+1.35028049e-01f,+8.95231813e-02f,+1.09804347e-01f,-1.52909964e-01f,
+1.08682856e-01f,-9.33043659e-02f,-4.93513644e-02f,+1.53030440e-01f,-4.67574522e-02f,
+1.31479874e-01f,-1.54605135e-01f,+1.47139385e-01f,+4.66703326e-02f,-1.31841585e-01f,
-9.28777829e-02f,-1.00198030e-01f,+1.37258694e-01f,-2.44861990e-02f,+1.17938668e-02f,
+1.20497838e-01f,-2.23335624e-02f,+5.62598854e-02f,+5.35462052e-02f,+8.19284916e-02f,
-1.24478519e-01f,-3.48720998e-02f,+4.53649461e-02f,-1.53432325e-01f,+9.71941203e-02f,
+1.12541899e-01f,-4.87801358e-02f,+1.10644773e-01f,-4.83264178e-02f,+1.20178238e-01f,
-5.93199953e-02f,-1.54259503e-02f,-3.93223763e-03f,-4.81717438e-02f,-1.36097908e-01f,
-5.01345992e-02f,-4.23781574e-02f,+1.02688983e-01f,-5.58952987e-03f,-1.36118650e-01f,
+9.03458893e-02f,+9.47480947e-02f,-4.99492064e-02f,+1.15418926e-01f,+1.32624358e-02f,
-4.95433211e-02f,+1.19524643e-01f,-8.62653777e-02f,-1.52938351e-01f,+1.10434964e-01f,
-1.17813677e-01f,-2.88084149e-02f,+1.30364671e-01f,-1.16717026e-01f,+2.53925920e-02f,
-1.43705040e-01f,+4.39782888e-02f,-1.19769976e-01f,-1.04855195e-01f,-7.45898113e-02f,
-1.18362471e-01f,+8.86447728e-03f,-2.94827074e-02f,-6.67201653e-02f,+4.16361690e-02f,
+5.51201105e-02f,+6.51587844e-02f,-1.14318758e-01f,+4.12335992e-03f,-8.47788975e-02f,
-3.46243158e-02f,-3.46321985e-02f,-1.50953531e-02f,+4.11503613e-02f,-1.07798070e-01f,
+1.22751519e-01f,-5.04486933e-02f,-1.12926036e-01f,-6.43384904e-02f,+1.42863944e-01f,
-1.04211062e-01f,-2.12106854e-02f,+1.38035253e-01f,+4.06100452e-02f,-9.94942188e-02f,
+1.46784052e-01f,+5.26519865e-02f,-4.13372219e-02f,-8.40426311e-02f,+4.31855917e-02f,
+9.40589458e-02f,-7.87028149e-02f,+1.06068298e-01f,+5.61984330e-02f,+5.84916323e-02f,
+1.18565008e-01f,+6.62505329e-02f,-3.14906985e-02f,+1.06618509e-01f,-1.29845142e-01f,
-5.61992303e-02f,+8.12375098e-02f,-1.30132690e-01f,+8.19521695e-02f,-8.02409723e-02f,
+1.13225624e-01f,-1.42201513e-01f,-1.46676823e-01f,-8.73472169e-02f,+1.27373055e-01f,
+6.32812232e-02f,+4.43950742e-02f,+1.96781307e-02f,-4.61550057e-03f,+1.13735542e-01f,
-4.75292653e-02f,-4.77333963e-02f,+7.24018216e-02f,-4.14688289e-02f,+6.56304061e-02f,
+1.45043597e-01f,+1.05450466e-01f,-1.04531944e-01f,+8.81401002e-02f,-1.14693731e-01f,
-4.51856628e-02f,+1.22754276e-03f,-2.25032121e-02f,+1.07723698e-01f,+9.10852849e-02f,
+5.67474961e-02f,+2.38852650e-02f,-1.37693882e-02f,+6.75781965e-02f,-7.93687329e-02f,
+1.34563431e-01f,+1.53802112e-01f,-6.58673048e-02f,-5.88151962e-02f,+8.67759883e-02f,
-2.05906332e-02f,-3.67873907e-02f,-6.04194775e-02f,-7.52407312e-03f,-1.42004818e-01f,
-1.10268898e-01f,-9.88995507e-02f,+5.52434176e-02f,-1.08876139e-01f,-1.06058188e-01f,
+1.49039075e-01f,-1.31222516e-01f,-3.30024660e-02f,-3.95249277e-02f,-9.59218740e-02f,
-1.45268872e-01f,+1.40159056e-01f,+1.19300976e-01f,-1.51419297e-01f,-3.49486247e-02f,
+1.57318875e-01f,-5.47469780e-02f,-7.02011287e-02f,-2.18866318e-02f,+1.31223693e-01f,
-1.80336833e-03f,+8.48778933e-02f,-6.99706897e-02f,+6.94125444e-02f,-5.70097566e-02f,
-5.70441037e-02f,+1.61876231e-02f,-1.44311398e-01f,+1.52551338e-01f,+1.16475984e-01f,
-5.16751409e-02f,-1.10581860e-01f,-8.89201313e-02f,+6.90118521e-02f,-1.01635844e-01f,
-1.28961176e-01f,+6.00567460e-03f,-2.44124681e-02f,+9.17253047e-02f,+7.75852054e-02f,
-1.30666256e-01f,+6.97379857e-02f,-1.39146075e-01f,+1.23942599e-01f,-2.55625695e-02f,
+1.33764759e-01f,+1.49487928e-01f,-1.79805905e-02f,+1.15811184e-01f,-8.31383467e-03f,
+7.43522048e-02f,+6.90874010e-02f,-1.38248160e-01f,+4.18564677e-02f,-1.11400798e-01f,
-2.26259232e-03f,+9.69186276e-02f,+7.60628283e-02f,+1.61036402e-02f,-1.25344530e-01f,
-6.23027980e-02f,-6.92869723e-02f,+8.51082653e-02f,-1.17247231e-01f,-1.00678027e-01f,
-1.14900619e-02f,+5.09434789e-02f,-7.08709732e-02f,-1.48897007e-01f,-7.68371373e-02f,
+6.92538321e-02f,+1.45075247e-01f,-6.61225468e-02f,-1.41447201e-01f,+8.79901052e-02f,
-1.56301439e-01f,+5.62838912e-02f,+1.23571768e-01f,-1.18872404e-01f,+8.98213983e-02f,
-1.57621399e-01f,-1.37105867e-01f,+1.04301617e-01f,+1.16806179e-02f,+3.82935405e-02f,
-6.89437985e-03f,-9.05243084e-02f,+1.42846063e-01f,+6.94444031e-02f,-5.42387366e-04f,
-5.99553511e-02f,-7.87159279e-02f,-3.80988419e-02f,+1.37883618e-01f,-7.04663992e-03f,
-1.27896145e-01f,+1.40197977e-01f,-2.14286894e-02f,-1.50530130e-01f,-8.57595950e-02f,
-1.32055134e-02f,+1.49797067e-01f,+1.23219058e-01f,-1.46017909e-01f,+8.36861730e-02f,
+7.56003708e-02f,+2.82691419e-03f,-6.45271242e-02f,-8.29661861e-02f,+9.08992738e-02f,
+1.54937461e-01f,+5.22262305e-02f,+4.86421287e-02f,+1.57671914e-01f,+8.08589160e-02f,
+5.94957471e-02f,+1.12787768e-01f,-6.54576048e-02f,+1.45882800e-01f,-2.68745124e-02f,
+1.80077702e-02f,-5.39855286e-02f,-1.37970597e-01f,-1.10120177e-02f,-6.17149100e-02f,
-1.33338690e-01f,+1.19533077e-01f,-1.21191159e-01f,-6.82889372e-02f,+1.32769346e-03f,
+2.12394744e-02f,-3.10036093e-02f,+1.31526753e-01f,-6.25379905e-02f,+7.02683479e-02f,
-1.26788646e-01f,+1.47052556e-02f,+3.87734622e-02f,+1.04295656e-01f,-3.76287922e-02f,
-1.52660623e-01f,+6.59450740e-02f,-8.67272466e-02f,+1.29393831e-01f,+1.97377354e-02f,
+4.00403589e-02f,-1.95464194e-02f,+1.57829821e-02f,+8.70549530e-02f,-6.42227158e-02f,
+2.52684951e-02f,+1.16755500e-01f,+4.13262546e-02f,+1.47211060e-01f,+2.81792879e-02f,
+4.02286649e-02f,+1.04054525e-01f,-1.26218796e-03f,-5.10436296e-03f,-1.00414261e-01f,
+1.45449713e-01f,-7.60297477e-03f,+1.14757434e-01f,-6.33801445e-02f,+2.74807960e-02f,
+4.32750136e-02f,+1.35333940e-01f,+1.92478597e-02f,+9.46029574e-02f,+1.32113561e-01f,
+1.50421068e-01f,+1.43961653e-01f,+1.55480951e-02f,-1.13812789e-01f,+1.48732528e-01f,
-1.31381080e-01f,-6.77465871e-02f,+1.18970558e-01f,+6.00659549e-02f,-4.90430370e-02f,
-2.68511325e-02f,+1.33381948e-01f,-1.56836018e-01f,+7.01168478e-02f,+1.60757452e-02f,
+1.21235237e-01f,+1.00316092e-01f,+6.03768378e-02f,+9.70601887e-02f,+1.35799393e-01f,
+7.96471536e-03f,-1.25664473e-01f,-6.00604713e-03f,-1.08328544e-01f,+8.65729898e-02f,
+1.36408046e-01f,-5.60764894e-02f,+1.44370660e-01f,+6.88955635e-02f,-1.82111412e-02f,
+1.77544355e-02f,-1.00015312e-01f,-7.72533119e-02f,+1.64143443e-02f,-4.79852185e-02f,
-1.30619064e-01f,-1.17094934e-01f,+9.18005109e-02f,+9.34337825e-02f,-4.61798161e-02f,
-3.67791727e-02f,-9.17834044e-03f,-1.36230424e-01f,-8.90676826e-02f,-8.41722339e-02f,
-1.15569629e-01f,-1.40406817e-01f,-2.40950137e-02f,-3.11935991e-02f,-7.01953471e-03f,
+3.24934721e-02f,+1.20297536e-01f,-7.75212646e-02f,+2.00161338e-02f,+1.40994802e-01f,
+1.33092120e-01f,-3.48206833e-02f,+9.25762802e-02f,-8.83794427e-02f,-1.19627103e-01f,
-7.31450617e-02f,-2.30096281e-02f,-3.62438336e-02f,-9.49959606e-02f,+1.29352257e-01f,
+8.59973580e-02f,+8.48369300e-03f,-5.92401549e-02f,-2.93462127e-02f,-1.12810582e-02f,
+9.86933708e-03f,+5.23934662e-02f,-5.49541637e-02f,+6.62348568e-02f,-2.95004249e-02f,
+2.20084190e-03f,+8.94616246e-02f,+1.43321648e-01f,-8.94044712e-02f,+1.14332482e-01f,
-9.93950367e-02f,-2.58540809e-02f,+5.93924969e-02f,-3.06102782e-02f,+4.56236005e-02f,
+5.49661517e-02f,+9.14280564e-02f,+2.52890438e-02f,+1.16857097e-01f,+9.68013555e-02f,
-9.85717326e-02f,+9.36583132e-02f,+1.28865764e-01f,-1.26744390e-01f,+4.20440435e-02f,
+1.00397319e-02f,+6.28940016e-02f,+4.87886518e-02f,+8.70003998e-02f,-9.73200351e-02f,
+1.36839941e-01f,-3.46043780e-02f,+5.02235740e-02f,+1.52120307e-01f,+1.10409275e-01f,
-1.07644036e-01f,-1.56425729e-01f,-6.79442361e-02f,+8.46561939e-02f,+1.18700400e-01f,
+5.52318096e-02f,+1.73221976e-02f,-1.40628606e-01f,-1.51722685e-01f,-4.61636484e-02f,
-1.02581710e-01f,-5.66244945e-02f,-1.48407251e-01f,-1.42523035e-01f,-1.17646188e-01f,
-5.95103726e-02f,+1.03639498e-01f,-7.94252083e-02f,-1.47615299e-01f,-2.97370553e-02f,
+2.08181739e-02f,+3.10515910e-02f,-1.09255709e-01f,+8.22025090e-02f,+9.10942107e-02f,
+5.62703311e-02f,-1.11040488e-01f,+1.42199948e-01f,-2.25252211e-02f,-1.51641816e-02f,
+7.43405521e-03f,-3.84386405e-02f,-1.32276356e-01f,-1.26304835e-01f,-1.54501542e-01f,
-6.84915632e-02f,-1.34231374e-01f,-1.22742176e-01f,-6.86547905e-02f,+1.30635962e-01f,
+4.10642624e-02f,+9.34964418e-03f,+2.23778635e-02f,+6.84457272e-02f,+2.97511816e-02f,
-1.38264567e-01f,+1.08466998e-01f,+1.04433820e-01f,-1.48241758e-01f,+6.29638135e-02f,
+8.06941092e-03f,+5.92302382e-02f,-1.62748545e-02f,+7.16895759e-02f,+9.27828997e-02f,
+6.03247136e-02f,+4.00146842e-02f,-3.30955386e-02f,+4.93104309e-02f,+5.11972159e-02f,
+1.20175168e-01f,-1.34047210e-01f,+1.14507005e-01f,-1.46449819e-01f,-1.03240430e-01f,
-2.67684460e-04f,-5.48949018e-02f,+3.46408337e-02f,+5.04325330e-03f,+6.17764890e-03f,
+1.44136980e-01f,+1.57062516e-01f,-6.00820109e-02f,-9.80140418e-02f,+1.11958221e-01f,
-9.90345031e-02f,+2.05838084e-02f,+1.19613558e-02f,+1.01189628e-01f,+5.48121631e-02f,
-7.06814304e-02f,+7.15900958e-02f,+1.10421330e-02f,+5.30061573e-02f,+1.40165791e-01f,
+2.16510594e-02f,+1.10133424e-01f,+5.50502092e-02f,-2.02491283e-02f,+3.47223282e-02f,
+1.10512957e-01f,-1.32789493e-01f,-1.90684199e-03f,+1.21992841e-01f,-1.37336373e-01f,
+2.95309573e-02f,-1.31272554e-01f,-2.86453962e-03f,-4.75521088e-02f,+1.52731344e-01f,
+8.92049074e-03f,+8.94883424e-02f,-9.18173939e-02f,-9.02414620e-02f,-3.40493172e-02f,
-8.90111327e-02f,+6.59466088e-02f,+2.14223862e-02f,-2.65017152e-02f,+1.52893499e-01f,
-1.32854819e-01f,+3.65290493e-02f,-1.21663809e-01f,+1.15419820e-01f,-1.52903140e-01f,
-1.30377918e-01f,-1.33430183e-01f,-1.05778962e-01f,-8.79650712e-02f,-1.90297067e-02f,
+8.57831538e-02f,+2.94446945e-05f,-6.27584830e-02f,+2.26711929e-02f,-7.85653293e-02f,
-1.25739723e-01f,-1.45534575e-02f,+8.19621235e-02f,-1.93947703e-02f,-9.47367847e-02f,
+1.22114405e-01f,-7.16099143e-02f,-1.11998074e-01f,-1.41383976e-01f,-1.01244777e-01f,
+1.08673200e-01f,+3.69207561e-02f,+1.07562080e-01f,+8.85168463e-02f,-3.69885564e-03f,
-1.01397857e-01f,-1.44000024e-01f,-9.48292241e-02f,-3.06996554e-02f,+6.82112426e-02f,
+1.55835643e-01f,+1.52598962e-01f,-1.00141317e-02f,+6.54564351e-02f,+1.24733761e-01f,
-1.79753155e-02f,-1.40923470e-01f,+1.06066361e-01f,+1.16796151e-01f,-8.38769898e-02f,
+2.91645527e-03f,+1.13637745e-03f,+1.82944238e-02f,+2.02882290e-02f,-1.84667706e-02f,
+1.53160915e-01f,-1.48191348e-01f,-1.83934867e-02f,+3.09439301e-02f,-1.03381380e-01f,
-7.39756227e-03f,-1.31007269e-01f,+1.22376636e-01f,+1.15030512e-01f,+1.35021791e-01f,
+1.07381597e-01f,-7.95038417e-02f,-1.08195245e-01f,+1.38025627e-01f,-1.09865353e-01f,
+7.41877258e-02f,+2.53880024e-03f,+7.65972733e-02f,+5.43344617e-02f,+2.53302455e-02f,
-1.38134509e-02f,-6.23461828e-02f,+5.02872318e-02f,-4.65755612e-02f,-6.64412975e-04f,
-8.07626322e-02f,-3.37745473e-02f,+1.10690907e-01f,+7.93152750e-02f,+6.57363385e-02f,
-1.23764381e-01f,+5.62883914e-03f,-3.03555876e-02f,-1.49813473e-01f,+1.18926600e-01f,
+1.01950988e-01f,-1.42047405e-01f,-1.08882189e-02f,-1.52091861e-01f,+6.09892607e-03f,
-5.44879958e-02f,-6.24321699e-02f,-2.28603929e-02f,-8.87716413e-02f,+6.47862554e-02f,
-1.87906325e-02f,+1.17956385e-01f,-1.46246895e-01f,-1.21507481e-01f,-3.36404592e-02f,
-8.38788375e-02f,+8.48428011e-02f,-2.12065727e-02f,-6.52860478e-02f,+1.43469498e-01f,
-1.30874395e-01f,+1.57770410e-01f,+8.97960365e-02f,+4.84452397e-02f,+2.81892717e-02f,
+8.82199109e-02f,+8.11767280e-02f,-7.54668042e-02f,-6.61541373e-02f,+1.08858153e-01f,
+1.51868507e-01f,-2.25954205e-02f,+8.91996920e-02f,+1.20948404e-02f,-9.07226279e-02f,
+4.87454236e-02f,+6.19795918e-03f,-1.33843198e-01f,-2.75679827e-02f,-4.42880541e-02f,
+1.47051021e-01f,-4.57749143e-02f,-1.17252171e-02f,-1.45682245e-02f,-7.29573667e-02f,
+6.97050691e-02f,-1.04196057e-01f,-1.43511742e-02f,-9.48024169e-02f,-7.17907101e-02f,
-7.25112557e-02f,-1.23484284e-01f,+7.57057667e-02f,-8.93953070e-02f,-1.33422613e-01f,
-5.20365834e-02f,+1.78903341e-02f,-1.41461298e-01f,+2.47214288e-02f,-1.30413011e-01f,
+1.07305512e-01f,+1.31393716e-01f,+7.19771683e-02f,+1.23074368e-01f,+2.43500322e-02f,
-1.01179138e-01f,-2.50084996e-02f,+1.23567864e-01f,-1.42262697e-01f,+7.28181154e-02f,
-8.02785605e-02f,+1.10404536e-01f,+1.14826962e-01f,-4.08193469e-03f,+8.77473652e-02f,
+9.10381526e-02f,-1.61713511e-02f,+6.53965324e-02f,+1.03609666e-01f,-6.18502796e-02f,
+1.35481492e-01f,-1.23081118e-01f,+1.22630343e-01f,-2.82549113e-02f,-2.80835778e-02f,
+4.67223972e-02f,-1.10759571e-01f,-8.34267363e-02f,-8.76798183e-02f,+8.64290595e-02f,
+1.34924948e-02f,+1.97045952e-02f,-9.30935144e-03f,-8.47027898e-02f,+2.04104483e-02f,
+9.90087539e-02f,+1.31988809e-01f,+5.86991608e-02f,-1.26755357e-01f,-4.83535156e-02f,
+3.37554365e-02f,+6.04519397e-02f,-6.04605302e-02f,-2.11438388e-02f,-7.26675913e-02f,
+6.14973903e-02f,-1.54408082e-01f,+6.31146431e-02f,+1.34198502e-01f,+1.40211001e-01f,
-1.15777344e-01f,+2.88968980e-02f,-1.98697150e-02f,-1.14474565e-01f,+8.45136195e-02f,
-6.24865294e-02f,-1.16387054e-01f,+2.94023454e-02f,+1.83740705e-02f,-5.56822494e-02f,
-8.39874074e-02f,+4.28194106e-02f,-9.26402882e-02f,-1.19559735e-01f,-5.16776741e-03f,
-1.06408432e-01f,-2.17118710e-02f,-7.14524910e-02f,+1.07819721e-01f,+4.13793325e-02f,
+3.18999738e-02f,-1.12733245e-01f,+4.24340665e-02f,-5.23249283e-02f,-5.05450889e-02f,
+2.06120908e-02f,-2.22678483e-03f,+1.52530238e-01f,-2.47663260e-02f,+3.36574167e-02f,
-7.15297759e-02f,+1.30187884e-01f,-9.59428698e-02f,-1.29966632e-01f,+1.42735377e-01f,
+1.08816192e-01f,-5.67252934e-02f,+3.38642597e-02f,-1.01684660e-01f,+7.82648027e-02f,
+2.69172192e-02f,-5.24189845e-02f,+7.14641809e-03f,-2.39267945e-04f,+1.43449977e-01f,
+1.31318495e-01f,-8.30984116e-03f,+1.09086826e-01f,+1.13370493e-01f,+1.04853258e-01f,
+8.48078579e-02f,-3.71075496e-02f,-1.32300854e-02f,+3.52522731e-03f,+1.22389942e-02f,
-2.45962292e-02f,-1.22709304e-01f,-1.45446688e-01f,+9.45261866e-02f,+1.08203575e-01f,
+6.53716624e-02f,-1.26387134e-01f,+1.56589374e-01f,-6.31091073e-02f,-1.21895313e-01f,
-5.41006550e-02f,+1.36188433e-01f,-8.63627121e-02f,-3.66020277e-02f,-5.66163138e-02f,
-9.35412198e-02f,+1.29756704e-01f,+1.31533667e-01f,-1.25447005e-01f,+5.79125285e-02f,
-1.84663534e-02f,-7.87608698e-02f,-1.96437538e-03f,+7.74192214e-02f,-3.90759110e-03f,
-1.47094369e-01f,+1.55689046e-01f,+7.80415237e-02f,-3.85745019e-02f,-2.80362219e-02f,
+1.41063705e-01f,-1.56718627e-01f,-9.73042697e-02f,+1.09782711e-01f,-4.35241163e-02f,
+5.99351376e-02f,-1.33261561e-01f,+8.06198269e-02f,+1.53122887e-01f,-1.31002590e-01f,
+3.25201750e-02f,+1.62208825e-02f,-3.38250250e-02f,-1.23324096e-02f,-9.96000022e-02f,
-9.37316269e-02f,+1.32027268e-03f,+7.29608536e-03f,+8.13018531e-02f,+8.18089247e-02f,
+9.84562933e-03f,+1.63116902e-02f,+4.77805585e-02f,+1.46761522e-01f,-3.36594880e-03f,
-8.99768993e-02f,+1.53663263e-01f,+4.39991057e-02f,+6.88202083e-02f,+1.53294399e-01f,
-1.19410113e-01f,-1.23464495e-01f,+1.50629729e-02f,+9.34167057e-02f,-1.15991086e-02f,
-3.86694223e-02f,-2.95462608e-02f,+6.77921176e-02f,-1.42829061e-01f,-7.46538565e-02f,
-9.94464606e-02f,+8.41456205e-02f,-1.45513415e-01f,-1.27380714e-01f,+5.55659086e-02f,
+1.02432951e-01f,-5.78378141e-02f,+1.52463958e-01f,+1.26731828e-01f,+1.07873604e-01f,
-7.93931261e-02f,+1.20660469e-01f,+1.44418582e-01f,-1.21311642e-01f,-7.81364888e-02f,
-1.48602515e-01f,+2.67073959e-02f,-9.86623913e-02f,+5.15608341e-02f,+2.57461965e-02f,
-1.57736987e-01f,+4.52011973e-02f,-1.13202959e-01f,-1.55533805e-01f,+1.37275413e-01f,
-2.12928653e-02f,-1.32683665e-01f,+1.37772575e-01f,+6.29618913e-02f,+8.68992209e-02f,
+7.32238442e-02f,+1.22685090e-01f,-2.75170803e-03f,+3.64097059e-02f,+1.40767857e-01f,
-1.10827610e-01f,+1.04909942e-01f,-7.30799139e-03f,-2.09382474e-02f,+5.49816042e-02f,
+1.40959427e-01f,+1.47631600e-01f,-7.54922479e-02f,-1.22778103e-01f,+9.80013758e-02f,
+2.01578289e-02f,-1.06948599e-01f,+1.38226554e-01f,-7.31258020e-02f,+1.33600384e-02f,
-6.37708008e-02f,-4.75333780e-02f,-1.29528597e-01f,+1.45206437e-01f,-5.59137762e-03f,
-1.17250815e-01f,+6.82331771e-02f,-1.41083375e-01f,-1.20566554e-01f,-1.22722954e-01f,
-8.86582881e-02f,+1.52361229e-01f,-3.17022055e-02f,-5.99185973e-02f,+4.20270860e-02f,
+1.55776814e-01f,-1.17804244e-01f,-6.68288097e-02f,-1.57606661e-01f,-4.31315750e-02f,
+1.10627487e-01f,+6.66437149e-02f,-7.87213221e-02f,-1.21902168e-01f,-1.16645545e-01f,
-1.50622129e-02f,+5.01206964e-02f,+4.12214249e-02f,-1.56484529e-01f,+7.88597465e-02f,
+1.43013135e-01f,+1.04524344e-02f,+1.09030083e-01f,+1.20631084e-01f,-1.56779960e-01f,
+1.02214321e-01f,-1.25262246e-01f,+6.91772699e-02f,+1.82009339e-02f,+1.71611607e-02f,
+1.57150671e-01f,+9.49237794e-02f,+1.18528351e-01f,+1.24720678e-01f,+8.85431170e-02f,
-5.41402027e-02f,+1.01243153e-01f,-7.96622485e-02f,+8.07331949e-02f,+4.38534766e-02f,
+2.06181109e-02f,+7.54623860e-02f,-2.18252540e-02f,+1.83330625e-02f,-7.57151917e-02f,
+6.17512167e-02f,+1.34917989e-01f,-9.01536271e-02f,+4.38598096e-02f,-3.92675698e-02f,
+1.83135271e-02f,-1.43837586e-01f,+7.57500529e-02f,-2.62889266e-02f,+9.25600082e-02f,
+9.65366513e-02f,+1.01593956e-01f,-1.23026967e-02f,+3.92962992e-02f,+6.19578212e-02f,
+6.70368522e-02f,-1.40246049e-01f,-4.96101230e-02f,+1.47851124e-01f,+8.20744932e-02f,
+1.52912870e-01f,-1.44169390e-01f,+2.52503604e-02f,-1.06661275e-01f,-5.08327931e-02f,
-2.59795785e-02f,+9.73483175e-02f,+7.85254836e-02f,-1.46444306e-01f,-1.38529956e-01f,
-1.23211734e-01f,-7.62561113e-02f,+3.46478373e-02f,-5.89713454e-03f,+1.53050974e-01f,
-2.63964385e-02f,+4.61157709e-02f,+6.73918128e-02f,-3.73741835e-02f,-1.48703992e-01f,
+1.69211626e-03f,-4.71280515e-02f,-1.18905723e-01f,-1.56516761e-01f,-1.02845892e-01f,
+4.13707793e-02f,-9.29781348e-02f,-2.21998990e-03f,-3.61324325e-02f,-6.12169504e-04f,
-9.01249796e-02f,+5.25887758e-02f,-3.04357409e-02f,-1.34203970e-01f,-1.49163157e-01f,
+1.26977190e-01f,-1.08412459e-01f,-5.89866787e-02f,+2.12565511e-02f,-1.51924893e-01f,
+1.14923164e-01f,-9.33647975e-02f,-8.06079581e-02f,-8.19969550e-02f,-8.96398127e-02f,
-2.29554623e-02f,+1.22584149e-01f,-1.44169956e-01f,+9.40637439e-02f,+4.58517075e-02f,
+4.73259389e-03f,+9.56717283e-02f,+5.32256216e-02f,-7.26484805e-02f,+2.31875330e-02f,
-1.05402708e-01f,+4.66889590e-02f,-9.60768759e-03f,+7.68903643e-02f,+1.56498596e-01f,
+7.57266432e-02f,-1.26618102e-01f,-6.52857795e-02f,-1.21441774e-01f,-1.48622081e-01f,
-1.07771643e-01f,-1.18578814e-01f,+8.99906456e-03f,-2.00460553e-02f,-2.26900280e-02f,
+3.60566378e-03f,-7.19677806e-02f,-1.47338673e-01f,-3.89377922e-02f,-4.59016114e-02f,
-1.97787881e-02f,+2.37074792e-02f,+5.89639544e-02f,-7.88773149e-02f,-1.23263747e-02f,
+6.41165227e-02f,-7.49360994e-02f,+1.31242424e-02f,+4.15666848e-02f,+7.17689693e-02f,
-2.83513069e-02f,+1.45481780e-01f,-6.07760921e-02f,+1.33938149e-01f,-8.67680684e-02f,
+1.19580343e-01f,+1.99992061e-02f,-3.03754210e-02f,-8.06763768e-02f,-4.49697748e-02f,
+1.34631023e-01f,+1.77222043e-02f,-4.74171340e-03f,+6.60740733e-02f,-1.14191458e-01f,
+1.18868694e-01f,+6.28153980e-03f,+9.13721174e-02f,+1.06018230e-01f,+1.00387678e-01f,
+1.72940791e-02f,-1.29561961e-01f,+1.16333500e-01f,-6.32316545e-02f,+4.58849072e-02f,
+7.91332424e-02f,+1.45050779e-01f,+7.76439905e-03f,-1.38933092e-01f,+7.09419549e-02f,
+1.30121574e-01f,-6.04010820e-02f,+9.82596725e-02f,+1.40258566e-01f,-6.21304438e-02f,
+9.00858492e-02f,-6.64780363e-02f,+6.92668408e-02f,+2.93372720e-02f,-4.70843241e-02f,
-1.00261971e-01f,-1.53072506e-01f,-2.73448527e-02f,+8.75359625e-02f,-8.62666592e-02f,
-1.27568409e-01f,+1.31871268e-01f,-7.56014958e-02f,+1.48056999e-01f,-8.70886147e-02f,
+1.20079651e-01f,+5.04246503e-02f,-4.00258452e-02f,+7.47496039e-02f,+2.44912058e-02f,
-7.51322508e-03f,+8.15449655e-02f,-4.26903367e-03f,+1.44795254e-01f,+1.16715565e-01f,
+9.31171328e-02f,+1.18235096e-01f,-2.02445686e-03f,+1.13422707e-01f,+1.14215836e-01f,
-2.07310170e-02f,+1.65118575e-02f,-6.81423694e-02f,-1.09038763e-01f,-5.73122501e-03f,
+1.16369233e-01f,+1.28125474e-01f,-5.84658906e-02f,-3.42611447e-02f,-1.54428631e-01f,
-7.39941001e-03f,-8.35144967e-02f,+6.92349523e-02f,+1.31396338e-01f,+4.12529707e-02f,
-9.51597542e-02f,+5.67256361e-02f,-2.70983577e-02f,+1.43931806e-03f,+1.30142912e-01f,
-1.17434174e-01f,+7.46143162e-02f,+1.01524338e-01f,-1.37264341e-01f,-1.23362482e-01f,
+1.02673039e-01f,-4.64570075e-02f,+5.58955818e-02f,+3.24835628e-02f,+1.42932609e-01f,
+6.84333593e-02f,-2.56539434e-02f,+1.01294622e-01f,+3.27898860e-02f,+8.59357566e-02f,
+1.39710054e-01f,+5.67243546e-02f,-8.82871598e-02f,+8.36807042e-02f,-1.48298830e-01f,
-3.55309024e-02f,-1.54455438e-01f,-1.27889961e-01f,+9.27026719e-02f,-3.99561077e-02f,
-1.49468318e-01f,+1.35388002e-01f,+1.17589757e-01f,+1.46344438e-01f,-6.96948171e-02f,
+6.12776875e-02f,+8.54935646e-02f,-4.67571169e-02f,+1.10869303e-01f,-1.55922920e-01f,
-1.14745185e-01f,+2.95626223e-02f,-7.57391676e-02f,-5.78877255e-02f,+6.80506974e-02f,
-2.51594782e-02f,+1.08513340e-01f,+9.81593579e-02f,+1.99303031e-04f,-1.25567585e-01f,
+1.41064718e-01f,-3.64130512e-02f,-5.89612722e-02f,-1.21620983e-01f,-6.64730594e-02f,
-2.07276642e-02f,-2.28037238e-02f,+4.51932102e-02f,-1.35182440e-02f,-5.98084405e-02f,
-1.58043236e-01f,+1.05654895e-02f,-7.35328943e-02f,+7.61821866e-02f,+1.77003443e-02f,
-1.45363271e-01f,-3.42489257e-02f,-1.48025155e-02f,+1.03898808e-01f,-7.58519545e-02f,
+1.07605085e-01f,-1.13877095e-01f,-4.27102000e-02f,+1.45262346e-01f,+7.68745393e-02f,
+1.44083962e-01f,-1.13827288e-02f,-6.59020990e-02f,+1.14554599e-01f,-3.97824347e-02f,
-3.72757539e-02f,+1.01973966e-01f,-1.00782640e-01f,+1.18091419e-01f,+1.00424692e-01f,
+4.18270975e-02f,+4.36078012e-03f,+5.64716309e-02f,+6.49511069e-02f,-1.23596281e-01f,
-1.47354960e-01f,+2.09702402e-02f,-1.24789253e-01f,-6.39583841e-02f,-1.90997124e-03f,
-6.65302053e-02f,+6.98540956e-02f,-1.34885013e-02f,-1.50173783e-01f,-5.47758192e-02f,
+8.71453434e-02f,+8.69061947e-02f,-1.13642089e-01f,-1.75918639e-03f,+9.32735950e-02f,
+1.03469893e-01f,+3.57707739e-02f,+8.85341167e-02f,+4.32253331e-02f,-4.53139096e-02f,
+1.74202621e-02f,-3.71871293e-02f,+6.03358299e-02f,-1.08452082e-01f,+9.80669409e-02f,
-1.41308919e-01f,+8.41287374e-02f,+1.25459239e-01f,-7.24533945e-02f,+5.60832769e-02f,
+1.45015702e-01f,+6.61331415e-02f,-1.30580351e-01f,+1.33912370e-01f,-1.50048018e-01f,
-3.83548811e-02f,-1.20796472e-01f,-1.44326776e-01f,-1.02066234e-01f,+1.36547074e-01f,
+3.28622758e-02f,+2.35200524e-02f,-4.69668582e-02f,-8.51225480e-02f,-4.08049375e-02f,
+2.25847960e-03f,+1.25803962e-01f,+5.24055958e-03f,-1.14279024e-01f,-8.86089429e-02f,
-4.68400121e-03f,-3.63960862e-04f,+1.13656744e-01f,-1.44507840e-01f,+1.08359203e-01f,
+1.29373178e-01f,-1.39955431e-01f,+7.08060563e-02f,+4.04989719e-03f,-1.42453104e-01f,
+3.63858044e-03f,-5.53371683e-02f,+6.60396516e-02f,-4.56193313e-02f,+8.55689645e-02f,
+1.57939866e-01f,+4.58880365e-02f,-7.58152381e-02f,-6.05173409e-03f,-1.03272170e-01f,
-1.23326480e-03f,+1.46005854e-01f,+6.23356253e-02f,+5.14471531e-02f,-4.78170142e-02f,
+7.47372806e-02f,+1.40291288e-01f,-3.51606011e-02f,+9.65046883e-03f,-1.64773762e-02f,
+2.00293213e-02f,-1.53679401e-02f,-1.08587600e-01f,-1.26428097e-01f,+3.38563919e-02f,
-6.75003082e-02f,+1.40287861e-01f,-2.16530561e-02f,-2.25240141e-02f,-1.57065690e-03f,
-2.80598253e-02f,+1.14778742e-01f,+3.80643457e-02f,-4.44009975e-02f,-3.61615419e-03f,
-7.15401396e-02f,+1.37706801e-01f,-3.99644747e-02f,+4.15188819e-02f,-1.14684269e-01f,
-1.41586751e-01f,+7.92397410e-02f,-3.22405249e-02f,-8.97227451e-02f,+1.39953241e-01f,
-8.02445188e-02f,+1.11775801e-01f,-5.47751039e-02f,-1.49791107e-01f,-3.17399055e-02f,
-5.54410964e-02f,+1.06233731e-01f,-1.80036277e-02f,+1.17352411e-01f,+4.97609377e-04f,
+4.79356498e-02f,-1.25404209e-01f,-1.37060881e-04f,-1.01171188e-01f,-1.48405254e-01f,
+1.23813078e-01f,+1.25691906e-01f,+1.29504055e-02f,+1.34967700e-01f,-1.44261822e-01f,
-1.08018860e-01f,+1.01323441e-01f,-6.00742474e-02f,-8.75639394e-02f,+9.43748802e-02f,
-6.15774244e-02f,+4.50567454e-02f,+1.24796882e-01f,+1.00474209e-02f,-4.10671979e-02f,
+7.50126243e-02f,-7.98701495e-02f,+1.01104155e-01f,+2.99310833e-02f,+1.01915821e-01f,
-1.47874773e-01f,+7.52609819e-02f,+3.60815823e-02f,-7.90117830e-02f,-5.43013960e-02f,
+1.39803439e-02f,-1.35869205e-01f,+5.63615561e-03f,+8.42544883e-02f,+8.81085098e-02f,
-3.18444073e-02f,-4.69084308e-02f,-5.64087480e-02f,-2.09000111e-02f,-1.25896305e-01f,
+7.91997761e-02f,-2.87795812e-02f,-1.36701822e-01f,-7.16473162e-02f,-5.34864217e-02f,
-6.59105405e-02f,-7.12280795e-02f,-9.58650708e-02f,-1.15062445e-01f,-5.91957495e-02f,
+4.96693105e-02f,+6.03734106e-02f,-1.31455109e-01f,-2.17725635e-02f,-1.12223431e-01f,
+1.28762975e-01f,-1.04202390e-01f,-9.35486853e-02f,-1.28479451e-02f,+1.29587397e-01f,
+1.65084004e-03f,-7.37008005e-02f,+1.09393880e-01f,+1.80762261e-02f,-5.63298464e-02f,
+8.36197883e-02f,-5.08104414e-02f,+1.26521930e-01f,-9.96877253e-02f,+9.42103565e-03f,
-1.54559627e-01f,-4.19831276e-03f,+1.21103749e-01f,+6.16548508e-02f,+4.02220190e-02f,
-4.69927490e-03f,-4.43510115e-02f,-1.04494244e-02f,-1.37839571e-01f,-9.71231386e-02f,
+4.12660539e-02f,+1.10807136e-01f,+2.99904943e-02f,+1.12289444e-01f,-1.04853809e-02f,
+1.22413978e-01f,-1.07240148e-01f,-5.75078875e-02f,+8.50791633e-02f,-1.06443420e-01f,
-7.65445679e-02f,-1.20447695e-01f,+7.94665664e-02f,+6.83141947e-02f,-4.59414944e-02f,
-8.11218470e-02f,-1.44976407e-01f,-4.29305732e-02f,+1.36140838e-01f,+3.91227752e-02f,
-7.11903125e-02f,-1.84314847e-02f,-6.80214018e-02f,-6.01713359e-03f,-1.48229271e-01f,
-8.64226148e-02f,-5.75064197e-02f,+1.46335557e-01f,+3.11085582e-03f,-1.44796073e-02f,
+3.11212540e-02f,+9.68174189e-02f,-1.05693504e-01f,-4.24620733e-02f,-1.26520693e-02f,
+3.64524424e-02f,+1.55772552e-01f,-1.07099995e-01f,-7.46200457e-02f,+1.30766466e-01f,
-1.02209561e-01f,-1.32594511e-01f,-1.87644660e-02f,-6.05443344e-02f,+1.32803246e-01f,
